encog,BasicNetwork,java,3.3.0,1,1425807464892
[BASIC]
[BASIC:PARAMS]
[BASIC:NETWORK]
beginTraining=0
connectionLimit=0
contextTargetOffset=0,223,0
contextTargetSize=0,121,0
endTraining=2
hasContext=t
inputCount=50
layerCounts=50,122,172
layerFeedCounts=50,121,50
layerContextCount=0,0,121
layerIndex=0,50,172
output=0.2132125315,-0.1393442666,0.2250513276,-0.0940738355,0.378589445,0.6998052058,-0.4566029503,-0.1209113684,-0.6490279094,0.2270489217,-0.4952821646,-0.1080913025,-0.405489452,0.455949819,-0.0202815659,-0.0646077524,-0.0988957392,0.389288385,-0.3461431127,0.1668815056,0.4357387854,0.2368195235,-0.1708361902,0.7784951611,0.2452940067,-0.2738296731,0.0891091009,-0.1289693694,0.0055196184,-0.4960277281,0.3495520798,0.5389509541,-0.1781043409,0.136001987,0.0839122407,0.0089158867,-0.3160777892,0.4637284896,0.6928105078,-0.0083669451,0.1450140172,-0.0480164861,-0.1108519916,0.3542621059,0.1239307597,1.4614004567,0.4039742998,0.0043696042,-0.1370804541,0.6264321921,12.6178298427,14.7980346455,14.3649239608,13.9750341269,-14.4073169681,13.9761667734,15.3032833836,-13.9179951631,-12.3690282344,-14.7854026354,15.2134697687,14.3902948035,13.0539061995,14.1976855069,-14.4596546045,-15.1203928264,12.8322681137,-14.4147081627,-15.2165982764,14.9663731194,-15.6407673038,14.9407660207,-15.0043213521,15.2140333442,14.6305930186,15.3525795257,-14.870832927,-14.9750342693,-14.3710270404,14.9287933651,13.4401786887,-14.3851142698,15.1349826416,-13.6102862194,14.0787012612,-13.9730393804,15.3201298253,14.4722433552,-12.1575842781,14.3253966482,-14.3383156126,-14.1581604376,15.0207370347,15.0759229836,-14.3937539726,-14.6831087933,-14.2216796411,13.7461659543,15.8381184863,13.1814945635,12.4626071002,-14.6392342517,15.2937576723,11.679633128,-14.5594658851,-14.9644174408,-12.0717239267,-14.2334021334,13.1425563237,14.3505651232,-11.8209290494,-13.9886955234,-11.7192118741,-13.3565375359,-13.3956561549,13.81398155,11.4208798789,14.5065517447,14.016308692,11.3668960483,15.3636493695,-14.103779336,-15.1121119119,-14.8052065449,13.3976154772,14.1689024443,14.4249652969,11.8550796918,13.9785269053,-13.965758437,14.621359298,-13.6451590933,-15.9509113742,-13.9799640264,-14.3486332105,-13.7478854958,-14.3035901772,13.2771298546,14.9368890956,-14.4722717738,14.7885739568,12.1656289473,11.9871147695,-14.1923148552,-11.9107289204,14.776758293,13.437817212,13.0340333216,-14.3001884875,14.1095963124,15.8980399758,-14.6986165602,-14.4622986015,-14.0581791474,14.2851313146,11.7410749246,-14.516636869,13.7973648481,15.0607631599,13.6957807738,12.5512884275,14.4524503778,-13.4368359397,14.5308556805,12.2474468118,-14.5667945771,13.6235016161,15.0003446592,13.880694918,-13.7885049439,-15.0719197635,1,0,0,0,0,1,0,0,0,0,0,0,0,0,1,0,0,1,0,0,0,0,0,0,0,1,0,0,0,0,0,0,0,0,0,0,0,0,0,0,0,0,0,0,0,0,0,1,0,0,0,1,0.2132125315,-0.1393442666,0.2250513276,-0.0940738355,0.378589445,0.6998052058,-0.4566029503,-0.1209113684,-0.6490279094,0.2270489217,-0.4952821646,-0.1080913025,-0.405489452,0.455949819,-0.0202815659,-0.0646077524,-0.0988957392,0.389288385,-0.3461431127,0.1668815056,0.4357387854,0.2368195235,-0.1708361902,0.7784951611,0.2452940067,-0.2738296731,0.0891091009,-0.1289693694,0.0055196184,-0.4960277281,0.3495520798,0.5389509541,-0.1781043409,0.136001987,0.0839122407,0.0089158867,-0.3160777892,0.4637284896,0.6928105078,-0.0083669451,0.1450140172,-0.0480164861,-0.1108519916,0.3542621059,0.1239307597,1.4614004567,0.4039742998,0.0043696042,-0.1370804541,0.6264321921,12.6178298427,14.7980346455,14.3649239608,13.9750341269,-14.4073169681,13.9761667734,15.3032833836,-13.9179951631,-12.3690282344,-14.7854026354,15.2134697687,14.3902948035,13.0539061995,14.1976855069,-14.4596546045,-15.1203928264,12.8322681137,-14.4147081627,-15.2165982764,14.9663731194,-15.6407673038,14.9407660207,-15.0043213521,15.2140333442,14.6305930186,15.3525795257,-14.870832927,-14.9750342693,-14.3710270404,14.9287933651,13.4401786887,-14.3851142698,15.1349826416,-13.6102862194,14.0787012612,-13.9730393804,15.3201298253,14.4722433552,-12.1575842781,14.3253966482,-14.3383156126,-14.1581604376,15.0207370347,15.0759229836,-14.3937539726,-14.6831087933,-14.2216796411,13.7461659543,15.8381184863,13.1814945635,12.4626071002,-14.6392342517,15.2937576723,11.679633128,-14.5594658851,-14.9644174408,-12.0717239267,-14.2334021334,13.1425563237,14.3505651232,-11.8209290494,-13.9886955234,-11.7192118741,-13.3565375359,-13.3956561549,13.81398155,11.4208798789,14.5065517447,14.016308692,11.3668960483,15.3636493695
outputCount=50
weightIndex=0,6100,26912
weights=##0
##double#26912
   0.000921755,-0.001407697,0.0002157834,0.0010676315,-0.0007431609,-0.001016416,0.0007537138,-0.0031994056,0.0017523012,-0.0003864728,-0.0017037927,-0.0043006858,-0.0030040232,0.0002578956,-0.0039300994,-0.0015939354,-0.0012990391,-0.0004089634,-0.0034613375,-0.00056426,-0.0008422687,0.0011164545,-0.0014777709,-0.0000141349,-0.0044100338,-0.0027935272,-0.0046491816,-0.0019125243,0.0005340374,0.0012260679,0.0010381091,0.0001315192,-0.0001064649,0.000833378,-0.0015231122,0.0019811567,-0.0037739834,-0.0010338856,0.0000619843,0.0013173603,0.0002518547,0.0009619096,0.0002826947,-0.0010963568,0.0016974496,-0.0011590236,-0.003388938,-0.002877024,0.0002265819,-0.0015861763,-0.0010132477,0.0032844823,-0.0015856337,-0.0032049237,-0.0018581874,0.0003957439,-0.0022000142,0.0043240414,0.0018512008,0.0001956138,-0.0018313727,-0.0007637563,-0.0022481304,-0.0007579379,0.0006753561,-0.000424236,-0.0007663766,0.0027735871,-0.0038001059,0.0007921657,0.0003051406,0.0005249594,-0.0020534402,0.0005010836,-0.0024306379,0.0010264746,0.0016821581,0.0006409761,-0.0026936447,0.0007605266,-0.0009691849,-0.0009979275,0.0022412375,-0.0016553479,0.0007732814,-0.0018827688,0.0005625372,0.0003209528,0.0028554579,-0.0026043431,0.0044322359,0.0005710243,0.0000303999,0.0018823276,0.0032805203,-0.0021617622,-0.0010767865,0.00299523,-0.0017623229,-0.0006790764,-0.0013253293,-0.0019968044,-0.0012944387,-0.0053941529,-0.0005817786,0.0003554516,-0.0026092012,0.0008404749,0.0009171548,-0.0006635055,0.0023635819,0.0015138465,0.0016296702,-0.0019084185,-0.0013840608,-0.0022709559,-0.0029655235,-0.0008535724,-0.0008561463,-0.000743771,-0.0022411248,0.1123836891,-0.0022323531,0.0012046124,-0.0025261454,0.0013369088,0.0018629226,0.0005497503,0.0004987855,0.0022088319,-0.0001019067,0.00293417,-0.0004651348,0.0004996487,0.0012073612,-0.0000207586,0.0027139319,-0.0004408485,-0.0019461301,0.001931902,-0.0009560766,-0.0002915193,-0.000502905,0.0016075313,0.0047106839,0.0039924242,-0.0024522329,-0.0023733425,-0.000710477,0.0002571488,0.0033350593,-0.0017068583,0.0032235525,-0.0005909307,-0.0004665847,-0.0000127314,0.0025300735,-0.0009667574,-0.0005969857,0.0017138544,-0.0022323564,0.0001363246,0.0027086147,-0.0026601099,-0.0016134907,-0.0016742674,-0.0011444514,-0.0023096912,0.0008189829,0.0003904881,-0.0002029638,-0.0033013288,0.0002654342,0.0007347412,-0.0015123056,0.0002776166,-0.000839564,0.0048381688,-0.0002581188,0.0001113241,-0.0025596166,-0.0008102844,-0.0004177087,-0.0010686883,-0.0012576065,-0.0009226229,0.0017182689,-0.0012987689,-0.0036072168,0.0009867653,-0.001359555,-0.0016418342,0.0032631589,0.0003148187,0.0031717017,-0.0000548303,0.0012407909,-0.0030725329,0.0041990056,0.0013654358,-0.0025878592,0.0041758295,0.0005510577,0.0007032632,-0.0041471668,0.0016528927,0.0037752502,-0.0030571805,-0.0002995913,0.0027204841,-0.0008875028,-0.0037899927,-0.000643393,-0.0034088635,-0.0032217697,0.0017408575,0.0008519385,-0.0015767515,0.0016481538,0.0000996955,0.0029090136,0.0011874602,0.0010433179,-0.004387,0.0007059596,0.003096022,-0.0004831715,0.0037903164,0.000462691,0.0011690474,0.0039279859,-0.0004787311,0.0006399694,0.0009602153,0.0014305668,0.0012857208,0.0028306972,-0.0012576531,0.0007916182,0.0012271315,-0.0030309414,-0.0019966109,-0.000079905,0.1207072664,-0.0038886131,0.0035684535,0.0022269656,-0.0012258346,-0.001224271,0.0005984415,0.0001227317,-0.0001671541,-0.0048882731,-0.0016460751,-0.0002847056,-0.0008607289,-0.0013380993,-0.0008574075,-0.0044709763,0.0028332348,-0.0027306023,0.0005858864,0.0005731695,-0.0001318702,0.0003768879,-0.000482047,0.0008416164,-0.0011155052,0.0004735105,-0.0021029537,-0.0018772869,0.0003584616,0.0012522645,0.0004607223,0.0011715904,-0.0007752286,-0.0010174303,0.0016405164,0.0010647983,-0.0011225105,0.0001779492,-0.0000747388,0.0031733994,-0.0003721582,0.0007857161,-0.0000064023,-0.0000791026,-0.0015680558,-0.0046337635,-0.0015985738,0.0017909566,0.0008810977,0.0005865286,0.0057212014,-0.0032779313,-0.0016074659,-0.0004048592,-0.0010305203,-0.0033428691,-0.0010157106,-0.0011233953,0.000851135,-0.0019635529,-0.0003171347,0.0027755098,0.0025456782,0.0007683542,0.0003382854,-0.0005010832,-0.0011515381,0.0044937062,0.0020681752,0.0001097244,-0.0030417362,0.0017045774,0.0043405348,-0.0011243554,0.0042292609,-0.0053269731,-0.0013636878,0.0017176194,0.0019911987,-0.0003913163,-0.0012013086,0.0044009687,0.0029266568,-0.0008296231,-0.0002374936,-0.0014606509,0.0000214699,0.0024293623,-0.0019126961,0.0022696415,0.0042551824,-0.0025736134,0.0019418871,-0.0010467967,-0.0038447325,0.000762404,0.0007756863,0.0018832391,0.0042602031,-0.0004542478,0.0038546151,-0.0008963105,-0.0041437254,0.0019911779,0.0015342,0.0009301333,0.0015100746,-0.0002138845,-0.0012625081,-0.0013842483,-0.0023685008,-0.0005762504,0.0011486679,-0.0038486474,0.0048409413,-0.0014496976,0.0045539346,-0.0027314157,0.0016154634,0.0026333113,0.0026344339,-0.0024535211,0.1020435001,0.0006156361,0.0008319167,0.0060703943,0.0022182183,-0.0004039217,-0.0056106635,-0.0012893672,0.0001202243,0.0014024512,0.0010156831,-0.0010601778,-0.0007784803,-0.0048012616,0.0018134841,-0.0003815879,-0.0014613607,-0.0014476506,0.004510123,0.0027291952,0.0041882105,-0.0047026308,-0.0003277161,-0.0036421871,0.0007591131,-0.0048535364,0.0001954006,0.002283338,0.0002300083,-0.0016057326,-0.0014476057,-0.0031153149,-0.0041511036,-0.0009720627,0.0015729122,-0.0004184858,0.0028069153,-0.0037483444,0.00035231,0.002045869,-0.0071058017,-0.001020617,-0.0022021828,-0.0009820169,0.0016437358,-0.0018119207,0.0033283637,-0.0002071404,0.0008840866,0.0012567191,0.0011234971,0.0054767311,0.001238458,0.0016960743,-0.0006813347,-0.0018754198,0.000127853,-0.001167512,0.001552172,0.0022559993,-0.0000763213,-0.0066694726,0.0024656915,-0.0016235823,0.0036183362,-0.0011698568,0.0019872739,0.0006321874,0.0047439363,0.002267025,0.0024424797,0.0005548567,0.0000706332,-0.0043875362,0.0042736831,-0.0005578081,-0.0002751481,0.0009365639,-0.0009131907,0.0016245131,0.0006195483,0.0034413317,-0.0002372574,0.0008225505,-0.0003108404,0.0039785728,-0.0014899561,0.0045101972,-0.0001721304,-0.0006171156,-0.0002174687,0.0024462643,0.0001446654,-0.0013437032,0.0022449125,-0.0024802692,0.0028041142,-0.000150457,-0.0011467709,0.0059389711,0.0016894851,-0.0052414097,-0.0018372521,0.0002140323,-0.0026279392,-0.0041313197,0.002381671,-0.0021685682,0.004459345,-0.0081822068,-0.0034768389,-0.0032788185,-0.0040018622,0.0022686563,-0.0006407673,0.0014111323,0.0013593761,-0.001884315,0.0035234767,-0.0021907681,0.0014244828,0.0008722361,0.1884636606,-0.0000562692,0.0029399531,0.0010271973,0.0010245096,0.0039604144,0.0010325669,0.0010896666,-0.0007178427,0.0029596603,-0.0008182636,0.0025149684,0.0033934718,0.0003307096,0.0027610724,0.0002325249,0.0029895142,0.0010312641,0.0018539925,0.0025207225,0.0002468556,0.0072471901,0.0013329322,0.0031339209,-0.0035497273,0.0002776675,0.0006755612,-0.0006831959,0.0023891697,-0.0047698581,-0.0023899728,-0.0023550987,-0.0035719735,-0.0005549989,-0.0023322498,-0.0006709377,0.0001960934,0.0011341209,-0.0043890574,-0.0041451656,0.0048032058,0.0025993192,-0.0007808587,0.001741186,-0.0004374801,-0.0021082535,-0.0021133029,-0.0014199193,-0.0050801315,-0.0016735099,0.0015743299,0.0047268739,-0.0073455854,-0.0046751824,0.0005009913,0.0014462706,-0.0010516783,-0.0050136177,0.0019165771,0.0018958115,0.0021697775,0.0023372996,-0.002559054,0.0033350468,0.0031452872,0.0015375797,0.0012823074,0.0018695401,0.0007488953,-0.0019857208,-0.0013896957,0.0033667841,0.0016650515,-0.0043674885,0.0018769408,0.0007510244,0.0025234734,0.0017077778,0.0014214089,-0.0003785764,-0.0014217939,-0.0050968078,-0.0004928897,-0.0001169023,0.000690453,0.0027779306,0.0014052533,0.0020491314,0.0003553209,0.0006467955,0.0044632067,0.0030585989,0.0042146497,-0.0016693563,-0.0023000522,-0.0019383591,0.0011298126,0.0001482446,-0.0010812738,-0.0013679828,-0.0049520028,0.0004851086,0.0041404195,0.00158765,0.0012724597,0.0034938108,0.0019019025,0.0030974425,0.0038415141,-0.0045099093,-0.0023251296,0.0034945356,0.0007165652,-0.001375686,-0.0014318135,-0.0022042171,-0.0017273976,0.0017375893,-0.0013428154,0.0048796731,0.0006151648,-0.003471886,0.1930223786,0.0004577423,-0.0014462269,-0.0011198211,0.0005340866,0.0017643215,0.0005034643,-0.0017672809,-0.0030543937,-0.0017404849,0.0039325814,0.0021260825,-0.0030535015,0.0025493665,0.0017738005,-0.0008817203,-0.0045686355,-0.0008863512,0.0022794406,-0.0002851452,-0.000175283,0.0004751853,0.002599139,0.0002620565,-0.0004231582,-0.002794795,0.0014746741,-0.0016439546,-0.0030661724,-0.0009490695,0.0004047873,0.0004580811,-0.0037291466,0.0024577613,-0.0014599221,0.0000341165,0.0011613883,0.0012287861,0.0023183811,-0.0043587426,0.0002434176,0.0010356586,-0.0004465166,0.0003558096,-0.0011820972,0.0009262337,0.0034905635,0.0024301937,0.0017750824,0.0020650439,0.0005337268,0.0011495012,0.0041338387,0.0040933268,0.0029178191,-0.0007726565,0.0004366097,0.0035246904,-0.003290648,0.0001864612,0.001207066,-0.0004641554,-0.0019884062,-0.0014870565,-0.0003843663,0.0009850222,-0.0025629068,-0.0053919687,0.0011175776,0.0034182053,-0.0010379735,0.0003255015,-0.0017452565,-0.0003807179,0.0025043277,0.0018258994,0.00220968,-0.0025353457,-0.0017266726,0.0028283989,0.0018281688,-0.0000704213,0.0011354538,-0.0024894589,0.0006155735,-0.0010820611,-0.0017524156,0.0013698844,0.0000270602,-0.002596859,0.0031120178,-0.00221011,0.0009682294,0.0043116468,-0.0054731793,-0.0036964231,0.0015283483,0.0004626749,0.0024870178,-0.0011099388,-0.0020985052,0.000831634,0.003882989,-0.0002851062,0.0006331353,-0.0027775985,-0.0030934452,0.0003729116,-0.0021674818,0.004462649,0.0038688025,-0.00095225,0.0005945161,-0.0048444643,-0.0012085222,-0.0019683804,-0.0036398968,0.0003968199,0.0014395128,0.000970579,-0.0001240253,-0.0012552928,0.0967709038,0.0006823777,0.0008145314,-0.0001367255,0.0001608091,0.0012356555,-0.0046836941,0.0002840046,0.004687048,-0.0007901966,-0.0022527526,0.0019161104,-0.0019486996,-0.0008463837,-0.0000129926,0.0013453746,0.0004814403,0.0034431822,-0.0002711595,0.0013208729,0.0018230612,0.000368766,-0.0014505645,-0.0007908809,-0.0004735401,-0.0007380316,-0.0025272146,-0.0003801039,-0.0018649625,-0.0027823539,-0.0012680788,-0.0028736111,0.0044782614,-0.0004389811,0.0020255001,-0.0028224185,-0.000990992,-0.0051814863,0.0029820598,-0.0011752878,-0.0028361274,-0.0001916699,0.0012131172,-0.0010283112,-0.0004064231,-0.0006582836,-0.0049810824,-0.001090522,-0.0012789057,-0.0009061103,0.0044468912,0.0009875297,-0.000152327,0.0015950365,-0.0026726507,-0.0010829471,-0.0011234983,0.0020323534,0.003750316,0.0033230592,-0.0012709183,-0.0040141001,-0.0028576655,0.0012363928,-0.0010947046,0.0015570162,-0.0021164397,0.0020155687,0.0014414119,0.0015832761,-0.0005140812,-0.0009704738,0.0052279757,-0.0021148548,-0.0002703953,0.0014143902,-0.0004525861,-0.0013875957,-0.0029888207,-0.0004150954,0.002341206,-0.0013707334,0.0023420531,0.0052304639,0.0011371352,-0.0059070273,0.0004002443,-0.001099751,-0.0044065458,-0.0032471171,-0.0006043095,-0.003465971,-0.0015183311,-0.0011249396,0.0016651576,0.0018779245,-0.0004117767,-0.0005907559,-0.0047583446,-0.0005048699,0.0047066444,0.0001282606,0.0043736024,0.0025976793,-0.0011835143,0.0015237232,0.0013363071,-0.001139478,0.0023015681,-0.0028490264,0.0045989766,-0.0014850762,-0.0020947963,0.0008339356,-0.0015497183,0.0027298522,-0.0032238503,-0.0001373961,0.000058278,0.002172049,-0.00092285,0.0042520436,0.0963049256,-0.0020963042,-0.0015735898,-0.0026706819,-0.0036227178,0.0013896996,-0.0017598096,0.0007634429,0.0030304242,-0.0001809948,-0.0030725252,0.0009288036,0.0053148097,-0.0030231818,0.004079211,0.00069056,0.0000907606,0.0039526794,0.0012805665,-0.0000183364,0.0001422831,-0.0007994108,-0.0009055095,0.0021283206,-0.00001863,0.0046281705,0.0022651943,0.0013427818,0.0018341639,0.0021334274,0.0016984503,0.0041106106,-0.0004581581,-0.0004263325,0.0005009747,-0.0003539341,0.0014465942,0.0013420957,-0.0039384818,0.0015916996,-0.0038402023,-0.0024899629,0.0012046686,-0.0008351855,0.0007560341,-0.0025451066,0.0020372608,0.0001617252,-0.0013665284,-0.0026435102,0.0025180563,-0.0044545277,-0.0034788681,0.0016458432,0.0006656847,0.0002360461,0.0010949775,-0.001805945,-0.0035565681,-0.0045397099,0.0000376286,0.0004523289,-0.0008376323,0.0032273971,0.0018002031,-0.0007674622,0.0018929755,0.0013746803,-0.0006192253,-0.0017393565,-0.0001585648,-0.0001804017,-0.0004829513,0.0008337293,-0.0005339174,-0.0031617889,-0.0009021211,0.0051892987,0.0024264706,-0.0019026151,0.0041677019,-0.0037240269,-0.0048277614,-0.0003897364,-0.0007135187,0.0034325384,0.0011823592,0.0010090247,-0.0038642099,-0.0022469217,-0.0027049994,0.0008167288,-0.0007030727,0.0040818448,0.0008354138,-0.0009147771,0.00149619,0.0015799131,0.0027725486,-0.001350112,0.0011357316,0.003746303,-0.0001299346,0.0026779387,-0.0005670378,-0.0013419652,-0.0022050386,0.0038874101,-0.0002625046,-0.0034492319,0.0051286918,-0.0006903887,-0.000676684,0.0002485884,0.0038672447,-0.0065308246,-0.0052154821,-0.0009551281,-0.0011514942,-0.0024362811,0.0007621466,-0.0010431915,0.0593631918,-0.004299434,-0.0024322933,-0.0030722041,0.0026145298,0.0003879408,0.002062323,0.0016957787,0.0001425029,0.0010611002,-0.0013291568,-0.0003516037,0.0000512406,0.0001230854,-0.0032817357,0.0005361622,0.003027523,-0.0015596803,-0.0011038949,-0.0003364228,-0.0015237928,-0.0007474237,0.000642824,0.0009758186,-0.0000978445,-0.0015151322,0.0013073036,-0.0004057645,0.0022989262,-0.0005476759,0.0013986032,0.0022886399,0.0012561081,-0.0011610619,0.0002789716,0.0010673216,-0.0026026376,0.0001394024,-0.0016165256,-0.0013868686,-0.0011466149,0.00097802,-0.0002172114,0.0002977118,-0.0034058016,0.0014953569,0.0026009847,0.0006264115,-0.0008438594,0.0004637979,0.0003442576,-0.0032069239,-0.0007768768,-0.0018195184,0.0025368493,0.0000768759,0.0002309458,0.0040097189,0.0000013625,0.0026186027,-0.000836835,-0.000444226,-0.0000490724,-0.0022808605,-0.0000000014,-0.0014468905,-0.0002855098,-0.0023618079,-0.003028076,-0.000158566,-0.0007615852,0.0014900405,-0.0024237353,-0.0000624104,-0.0041580019,-0.0017710888,-0.0037209646,0.0015531481,-0.0043981792,0.0025471639,0.0004605405,0.0009118807,-0.0018417187,-0.0033294368,0.0023601202,-0.0010176207,0.0006905843,0.0007192296,-0.0004499919,0.0011201152,0.0018599054,-0.0020226977,-0.0017410002,-0.0015923985,0.0013948659,0.0001605183,-0.0000932972,-0.0000626143,-0.004315818,0.0013689479,0.0013105325,-0.0023782258,0.0006037166,0.0029414096,0.0015915574,0.0008529805,0.0003122561,-0.0013303518,-0.0034840078,-0.0007748275,0.0020910229,0.0003485954,-0.0032442733,0.0014228026,0.0013680933,-0.0035044226,0.003542471,-0.0000627365,-0.0013050572,-0.0007369303,0.0016900889,-0.0005385736,0.0732002641,-0.001300854,0.001172618,-0.0015544156,-0.0018344643,-0.0008728931,0.0029730421,-0.0034826221,0.0000109401,-0.0010023424,-0.002038664,0.0011101128,-0.0002331505,0.0024418418,-0.0009168716,-0.0020274581,0.0018694533,-0.000702022,-0.0022073326,-0.0004559442,-0.0031301255,0.000747315,0.0010304023,0.0004892575,0.00062047,0.0024117875,-0.0017971625,0.0002264029,-0.0003221751,-0.0044805089,0.0020297684,-0.0050430372,0.0037955825,0.0009839643,-0.0014129368,0.0004864341,0.0014245042,-0.0007737246,0.0046750479,0.0016547426,-0.0004201446,-0.0022546933,0.0013460969,0.0013782226,0.0013146178,0.0023222945,-0.0006783051,-0.0034054009,0.0010679014,-0.0017193236,-0.0004136764,-0.0012371701,0.0031341761,0.0004532679,0.005498026,0.001038263,-0.0043745176,0.0023263892,0.0010792744,-0.0023609704,-0.0027220508,-0.0011273488,0.0054913034,0.0022926918,-0.0023708871,-0.0028479389,0.000402956,0.0014523691,-0.0030946712,0.0001094009,-0.0002415895,0.000292788,-0.0036596431,0.0026608922,-0.0000006238,-0.0033252437,0.0023190439,-0.0024775026,0.0045466345,0.0021810134,-0.0015323391,0.0019750273,0.0048393129,0.0004714318,-0.0028416362,-0.002389972,-0.0029000943,0.0023213437,0.0008419371,0.0000791312,0.002046966,-0.0006101754,0.002067241,0.0003928278,0.0068194917,-0.0026939738,-0.0000162721,0.0046303902,-0.0017989418,0.0002567378,-0.0038374449,0.0000246608,-0.0024870842,0.0012458332,0.0004903279,-0.0046429333,-0.0022824858,-0.0006650824,-0.0022072218,0.0016099785,-0.0028954632,0.0003977014,0.0007714714,-0.0041560731,-0.0013894698,-0.0000544554,0.0011780947,0.0027338845,0.0058559318,-0.0001154547,-0.0005956461,0.0018234467,0.1628373327,-0.0022149719,-0.0026445519,-0.0009509863,-0.0012910194,-0.0008262876,-0.0026982199,0.0010958154,0.0009287488,0.0011587266,0.0010284402,-0.0023109368,0.0020658938,0.0010499613,-0.0003118119,-0.0011003454,-0.0006781523,0.0013293339,-0.0004011778,-0.0002610648,0.0002550007,-0.0019105731,-0.0010007378,0.0014344378,-0.0006146982,-0.002429941,0.0008510556,-0.0030333608,-0.0005394543,0.0015317367,-0.0040252326,0.0006682377,0.0014302043,-0.0005097711,0.0004210436,-0.0000432241,-0.0003397219,-0.0011816464,-0.0013995723,-0.0017950867,0.0008211529,-0.0033335543,-0.0009208839,-0.0002405428,-0.0001870354,0.0010610317,-0.0001797022,0.0011738883,-0.0001413193,0.0008106826,-0.0015765895,0.0007495588,0.0000989295,-0.0007156193,-0.0038493612,0.0021851461,0.0009542967,0.0013550069,0.0029460623,0.0027586218,-0.0012959915,0.0000415153,-0.0003273542,0.0010139128,0.0012767767,-0.0007356766,0.0006479229,-0.0013280326,-0.0011534621,-0.0018938575,-0.0026625182,0.0007899945,0.0017473481,-0.0009034091,0.0010444084,0.0008772176,-0.0024003332,0.0016176003,0.0013531821,-0.0025374101,0.0037597507,-0.0009003371,0.000052769,-0.0004234623,-0.0003071884,0.000030613,0.0000592477,-0.0000372683,-0.0015353696,-0.0010243677,-0.0028223459,0.0011096156,0.0016093621,0.0011672991,-0.0006370606,-0.0007716815,-0.0013474699,0.0004354969,0.0001444042,0.0017977158,0.0002881037,0.0017808977,0.0025354271,-0.0001594801,-0.0004935771,-0.0029318729,0.0015453269,-0.0004671151,-0.0015580904,0.0024075399,-0.0014059047,0.0001443618,0.001523901,-0.0001838978,-0.0038195107,0.0031471443,0.001798053,0.0001726284,-0.0010773376,-0.0022503461,-0.0005180823,0.0013076787,0.0464656238,-0.0022821768,0.0017302438,0.0002299304,0.0000396074,0.0012051385,0.0017293284,0.0012051859,-0.0002749904,0.0037650883,-0.0022367092,0.0001955064,0.0038586047,-0.0009440489,-0.0005985329,-0.0019275737,0.0005648249,-0.0013405672,-0.0033739643,-0.0001938704,-0.003086902,-0.0002618636,-0.0038159592,0.0005827632,-0.0004281425,0.0048028026,0.00144468,0.001387579,0.0001773017,0.0030844772,0.004397261,0.0007379994,0.0053156162,0.0011103757,-0.0004800103,-0.0007239424,-0.0011430279,-0.0003724626,-0.0004823901,-0.0008555131,-0.0045101152,0.0017297787,0.001274535,0.0018888052,0.0010770844,0.0032907769,0.0010556162,0.0003576881,0.0004265026,-0.0008611718,0.0007183189,0.0019494773,0.0008023393,-0.0006250244,-0.0003956585,-0.0004663388,-0.0006087793,0.0003455171,-0.0019022137,0.0008091948,0.000643873,0.0010922287,-0.0016590191,-0.0018986464,-0.0060476357,0.0011037977,0.0034726442,-0.0016333402,-0.0003609016,0.0014079871,0.0010181689,-0.0034314332,0.0032414378,0.00256206,-0.0012163436,-0.0024489472,0.0009881333,0.0052490472,-0.0035763349,-0.0003807316,0.0009560307,0.0007028038,0.0049885267,0.0009571144,0.0032656751,0.0008163111,-0.0024089576,0.0023417993,0.00001969,-0.0004264904,-0.002197836,-0.0010275318,-0.000282794,0.0024448518,-0.0016684006,0.000416812,0.0041255452,0.0025746903,-0.0012385604,-0.0027903241,-0.0008340017,-0.0026937616,0.0004084535,0.0016175181,-0.0035177987,0.0005326007,0.0002908136,0.0015098754,0.0023034136,-0.0003809755,-0.0003572204,-0.0009973561,0.0005464682,-0.0012745713,-0.0033628137,-0.0023061211,0.0008134563,0.0018558207,-0.0005419073,-0.0013837168,0.002463133,0.0021283439,0.0145603875,0.0030128128,0.0007936031,-0.0015518689,0.0023874032,0.0001141344,0.0060615237,0.0012930548,0.0028644701,0.0006138424,-0.0002577404,-0.00107437,0.00251207,-0.001886197,-0.0028631857,-0.0010765322,-0.0029257293,0.002579468,-0.0021277304,0.0004640349,-0.0039734607,-0.0011480694,-0.0007786388,-0.0002726385,-0.0004815429,0.0026470464,-0.00317209,-0.0009468259,0.0030903261,0.0010486586,-0.0005895211,0.0004106447,0.0067868446,-0.0023179153,-0.0008028919,0.0011503152,-0.0016778368,-0.0034595897,0.0002448286,0.0012048002,0.0027015762,-0.0015304515,0.0006665995,0.0050974381,0.0002191927,-0.0023497155,0.0024749485,0.0013060674,-0.0037354731,0.0017004538,0.0041460524,0.0026038754,0.003903769,0.0019216424,0.0015059377,-0.0002003025,0.0042685798,0.0056558139,0.0019400343,0.000979108,-0.001673698,-0.0030398927,0.0029292819,-0.0033045201,-0.0007356816,0.0045575833,-0.0040116234,-0.0017309067,-0.0030556306,0.0023495758,0.0016307357,-0.0019415925,-0.0016531498,0.0003749984,-0.0046814074,0.0019603395,-0.000650121,-0.0007877062,-0.0012539125,0.0013587083,-0.0029809604,-0.0048849253,0.0027697207,-0.0000249556,0.005690971,0.0021848841,0.0017886367,0.0072002958,0.0013378171,-0.0038423963,0.0002743834,-0.001991294,0.0012559685,-0.0006190847,0.0049648262,0.0023373229,0.0022343273,-0.001076513,0.0002504533,-0.0002911593,-0.0041878189,0.0037995335,-0.0040780828,0.0011783394,0.0007720488,0.0032869647,-0.0027017983,0.000633329,0.0013354624,0.0021566174,0.0042501629,-0.0015488867,0.0029495362,0.0007081966,-0.0038739313,0.0006970144,0.0065518,-0.0024646984,0.0043525383,-0.0018236081,0.0093200134,-0.0000453375,0.2363362528,-0.0019849664,-0.0009736976,-0.0011082362,-0.0010187435,-0.0003852124,-0.0002082626,-0.0034762924,-0.0027604239,-0.0035286133,-0.0006027601,0.0018808104,0.0044449281,0.0000217811,-0.0010007971,-0.0008802918,0.0011898343,-0.002684728,0.0001970374,-0.0002221946,0.0000385192,-0.0020259322,0.0005485118,-0.0018313717,0.0007224969,-0.0007904509,-0.0013642898,0.0012346562,-0.0006691224,-0.0013640478,0.0006564752,0.0007770067,0.0003042139,0.0022514477,-0.0013549471,0.0007188458,-0.0012012249,0.0022963107,0.0020471506,0.0009759602,0.0010127017,0.0010081641,-0.0018669964,-0.0005173757,-0.001083528,0.0017031113,0.0023068987,-0.001366475,-0.0000219833,0.0004354802,0.0002273554,0.0037293436,0.0037721701,-0.003135069,0.001727116,-0.0000976834,0.001693165,-0.0023707001,-0.0025718036,0.0022447662,0.0009237606,-0.0002797711,0.0026161325,-0.0001534201,0.0008155096,-0.0008347021,-0.0000798186,0.0009811227,-0.0008956994,0.0018963332,-0.0001257776,-0.0017676963,-0.0012943899,0.0001571964,0.0017852746,0.0001886962,0.0004551031,0.0017579027,0.0005413431,0.0000492228,-0.0011822642,0.0015615635,0.0000458927,-0.00083869,-0.0000352935,-0.000373721,-0.0011405677,0.0004284859,-0.0013744332,-0.0041225959,-0.0001151605,-0.0013698994,-0.0009038759,-0.0036619247,0.0009153707,0.0004001699,0.0016730948,0.000372158,0.0007678006,-0.0020871972,-0.0010134545,0.0019456645,-0.0027181359,0.000627215,0.0037185853,-0.0020058053,0.0014221017,-0.004878809,0.0058981517,0.0042472869,-0.0005899872,-0.0005396866,0.0004383308,0.0033722582,0.0004199673,0.0012860556,0.0016465991,-0.000838902,0.0025789426,0.0006572002,0.0029614514,0.0000299461,0.1198043517,0.0009268888,-0.0002620524,-0.0023548509,0.0009305866,-0.0002901846,0.0034450884,0.0024229864,0.0007941242,-0.0000682556,0.0028223895,0.0006074393,-0.0047405712,0.0046277609,-0.0027185954,-0.0014275536,-0.0038831651,0.001825648,0.0041711581,0.000756602,0.0001895102,0.0016677979,0.0021593251,-0.0004194057,0.0004164196,-0.004427817,-0.0020204444,0.0025810612,-0.0016878516,-0.0008824061,-0.002437275,-0.0010770947,-0.0002178153,-0.0003296859,-0.0038841862,0.0024250883,-0.0058946393,0.0006208827,0.001941422,0.0015036989,-0.0040608633,0.0001135523,0.0012680445,-0.00092127,-0.001075871,-0.0027321567,0.0000090672,0.0029433163,0.0043445851,-0.0022023747,-0.002759755,-0.000622687,-0.0008954288,-0.00437875,0.0020471388,0.0012206921,-0.0013993839,-0.0002528489,-0.0006061282,-0.0028627568,-0.0020528897,0.002979977,0.0000055055,0.002039852,0.002852668,-0.0012086226,-0.0022686261,0.0001750597,-0.0020390562,-0.0003471187,-0.0028903904,0.0008311104,-0.002654565,0.0005061747,-0.0007611748,-0.0035836969,0.001904335,0.0017025153,0.0029691995,0.0046178511,-0.0061797443,0.0025599601,0.0000817244,0.0052124612,0.0009081425,0.0014558496,-0.0010524753,0.0022543366,0.0005967413,-0.0022821935,0.0049820841,-0.001531789,-0.00040635,-0.0018629597,-0.0019449103,-0.0042362879,0.0040008535,-0.0022964053,0.0010899422,-0.0012376488,-0.0030453164,0.0054090863,0.000914859,-0.0002623615,0.0025579452,0.000025465,-0.0004798508,-0.0017803779,-0.0031334058,-0.0033200772,-0.0033672763,-0.0020536023,-0.0011195323,-0.0074735074,-0.0004951979,0.0022210979,0.0028200862,0.0036284101,0.0015830707,0.0012734327,0.0019512961,-0.0002435769,0.1706968019,0.0030175541,0.0031058956,-0.0023281502,-0.0013760194,-0.0003649225,-0.0005002547,-0.0002558058,0.0019007361,0.0022421547,0.0003079856,0.0040769903,-0.0025588621,0.0001494061,-0.0017948159,0.0026222367,0.0011536694,0.0023896104,-0.001168753,-0.0018852243,-0.0007848443,0.0036075553,0.0002315876,-0.0002833369,0.0002562959,0.0004724743,-0.0026091537,-0.0005615873,-0.0017871839,-0.0013545639,0.0009135576,-0.002084082,-0.0005916635,-0.0012252216,-0.0022439698,-0.0020161064,-0.0017634958,-0.0013758856,0.0028070262,-0.0013037,-0.0008674859,0.0012562704,-0.0010628471,-0.0024267528,0.000687276,-0.0002933571,-0.0005397892,0.0001907442,-0.0032658326,0.0021907652,0.0015334917,-0.0014145471,-0.0018684441,0.0015416029,-0.0000853363,-0.0002875826,-0.0013087386,0.0028007839,0.0008536611,-0.0011130541,-0.0011282047,0.0005241614,0.0005767809,0.0008923748,-0.0002718513,0.001391095,0.0008521448,0.0022065798,-0.0022466161,0.0007739805,-0.0019204373,-0.0031170467,-0.0008863317,-0.0013760051,0.0011660985,0.0004046389,0.0025381042,-0.0006662029,-0.0008225188,0.0002286648,0.0006970514,-0.0004692873,0.0018382928,0.0005709582,-0.0010936757,-0.0005158219,-0.0007886844,-0.0018233951,0.0008335226,-0.0020765838,-0.0011147986,-0.000932412,0.0001187263,0.0005233922,-0.0016639685,0.0019029255,-0.0020331983,-0.0004395381,0.0008174891,-0.0004146589,0.0038822278,0.0017741995,-0.002555666,-0.0006496255,-0.0002119967,0.0020042779,-0.0022654849,0.0017049859,-0.0012881412,-0.002565875,0.0019206595,0.0006009584,0.0009133212,0.0016544233,-0.0002045308,0.0024512569,-0.0010536008,-0.0013779522,0.0009916003,-0.0013681149,-0.0008479777,0.0035381603,0.0019417901,0.0036017269,0.0002017431,-0.0005353615,-0.0008356116,0.0009820509,0.0008681331,-0.001143688,0.0039280568,-0.0026947424,0.005299026,0.0012135634,0.0020826621,-0.0038220224,0.0043053583,-0.0001544802,0.0010622194,-0.0014985768,-0.0019584108,-0.0017980472,-0.0044773013,0.0003433214,0.0014440657,-0.0035258241,-0.0008241203,-0.000196025,-0.003131604,-0.0001388225,0.0038682475,0.0007535117,-0.0022438978,0.0007091185,0.002866554,0.0011283496,0.0040445863,0.0009340459,-0.0034735955,-0.0032279939,-0.0051891471,-0.0044377692,0.0000567537,0.000020883,-0.0006264543,-0.0000938799,0.0011171527,-0.0032722447,-0.0031895783,-0.001426335,0.0011330535,-0.0011242508,-0.000552354,-0.000742394,0.0022109516,0.001014758,-0.0003133521,-0.000395989,0.0039770264,-0.0001101318,-0.0002702799,0.0009939211,0.0004087569,0.0035071724,0.0027900074,-0.0025151807,0.0011264838,-0.0011261923,0.0004684178,0.0029172517,0.0018552307,0.0005851345,0.0010472944,-0.0000019127,-0.0019705418,-0.00134929,0.0021380959,0.0024052928,-0.0016389611,0.0030034536,0.0015661385,-0.0007753056,-0.0038300752,-0.0002209881,-0.0043131872,0.0013951266,-0.000275643,0.0004591841,-0.000197738,0.0017988056,0.0024940264,0.0022956933,-0.0000202749,-0.0029790632,0.0046948995,-0.0011734784,0.0037616874,0.0024248466,0.0008633722
   0.0011516646,-0.0009159935,0.0014793834,-0.0060438353,-0.0023167365,0.0007491909,-0.0021474861,0.0028044793,0.0040497045,-0.0010408408,-0.0007417965,-0.0012128957,0.0006171557,-0.0021309085,-0.000165442,0.0033725439,0.0020516012,0.0029623855,-0.0008682708,0.0021950116,-0.0054077898,0.0038838215,0.0017121296,0.0015869753,0.0033885649,0.0928070962,0.0058363207,-0.0032952678,-0.0002672468,-0.0029594988,-0.0013848078,0.0007607063,-0.0017583441,-0.0025193144,0.0047424314,0.0032059836,0.0028382859,-0.0036537256,0.0013216747,0.0011552357,0.001671161,-0.0010857489,-0.0017790722,0.0000392627,-0.0012857959,-0.0030277249,0.0004878325,0.0024061604,0.0022840789,-0.0009402912,-0.0045399144,0.0016638359,0.0000725732,-0.0041678727,-0.0021342254,-0.0032422981,0.0005578845,0.0014191733,0.0017679007,-0.003319008,-0.0048406261,-0.0011194766,0.0009674621,-0.0015132429,0.0034371264,-0.0038481018,-0.0011517108,-0.003303443,0.0012633576,0.0023005091,0.001721267,-0.0018996691,0.0028938631,-0.0003189184,0.0011868993,-0.002301128,0.0023123659,-0.0036794912,0.0017492323,-0.001107874,0.0024273912,-0.0034119246,0.0002451468,-0.0029638626,-0.0060556675,-0.0003230266,-0.0025891307,-0.0040340547,-0.0000497973,0.0004946132,-0.0012490501,-0.0002461758,0.0015487733,-0.0023418121,-0.0001411625,-0.0009023165,-0.0021624835,-0.0000238729,-0.0030504172,-0.0023863341,0.0032051466,0.0012690509,0.0010206553,-0.0047281926,0.0009288919,0.0024580173,0.0022096129,0.0002941052,-0.0041621873,-0.0015443933,-0.00156555,-0.0017968274,-0.0009647596,0.0058351218,-0.0004060877,-0.0031158817,0.0005845339,-0.0008233647,0.0022476762,-0.0055309516,0.0042056187,-0.0010639041,0.0005016572,0.004066769,0.0029388537,0.0042875821,-0.0013915756,0.001354845,0.0023737923,-0.0036925161,0.0007870663,0.0006253867,0.0018263888,-0.0013894702,-0.0038928497,0.0010143058,0.0037523075,0.0003089611,-0.0000376558,0.0023596672,0.0019730257,0.0026809582,0.0011518332,-0.0055440757,0.0007661451,-0.0004095601,-0.0006490957,0.0377804207,-0.0029301236,-0.004051012,0.001599807,0.0018702453,0.0039775755,-0.0031071888,-0.0012999554,0.0045099361,0.0037974925,-0.0023436802,-0.0001999669,0.0019777298,-0.0008804681,-0.0001144086,-0.0002161684,0.002237168,0.0014178881,0.0048367525,0.0022112955,0.0017411847,0.0050079702,-0.0003382104,-0.0011116848,-0.0004018094,0.0023549525,0.002130371,-0.0033129871,0.0005061934,0.0020119127,0.0005975115,0.002397312,0.0024086687,-0.001293612,0.0022617598,0.0000293344,-0.0013127451,0.0039080671,-0.0024843745,-0.0008286206,0.0005803506,0.0015994072,-0.001713893,0.0014812886,0.0009125853,-0.0053610654,0.0013046348,-0.0015065241,0.003607707,-0.0035340003,0.0045280628,0.0016430492,0.0018730355,-0.0011351418,0.0012379625,0.0021692392,-0.0016296652,0.0021627155,0.0005984022,0.0034942537,0.0012374148,0.0030399759,-0.0017979684,0.0001089664,-0.000294136,0.0018383016,-0.0016433368,-0.0009695154,-0.0033396271,-0.0016308607,0.0023463076,-0.000968696,0.003151699,-0.0025691251,-0.0004380453,0.003866378,-0.0032219659,0.0035215623,-0.0057360435,0.0017683973,0.0024377586,-0.0010208197,-0.0024648521,-0.0014732546,-0.000029308,-0.0000366214,-0.0011822129,-0.0031309215,0.0022267114,-0.0034252694,-0.0006433619,-0.00026947,-0.0048759917,0.0001835127,0.0008027109,-0.0025317919,0.0017035438,-0.0031821748,-0.0038632176,-0.0025485778,-0.0005986283,0.0014414162,-0.0034240601,-0.0023199037,0.0025426211,0.0026981362,-0.0022448389,0.0002759049,-0.0065984816,-0.0033396585,0.0011157113,-0.0006499834,0.0002498562,0.0043449259,0.0047698847,-0.0004131852,-0.0005846877,-0.0020243951,-0.0019093925,0.0027645559,0.0008086108,0.0001927987,-0.0266660758,0.0068340281,-0.001159111,-0.0008537999,0.00209129,-0.0022033676,0.0005497505,-0.0006030266,-0.001385944,-0.001274305,0.001380807,-0.0003839793,-0.0019138712,0.0012626567,-0.0031579257,-0.0010171913,0.0003056154,0.0035268785,-0.0029180232,0.0018988654,-0.0023316865,-0.0017029525,-0.003531369,-0.0014304553,-0.0003280218,-0.0009197162,-0.0023421438,-0.0003663077,-0.0021459803,0.0013421504,0.0004808196,-0.0029430274,0.0038360726,-0.0012913445,0.0033573713,0.0006833767,-0.0001085649,0.0035758729,-0.0000723695,0.0058260354,0.0050632473,-0.0045868591,0.0001002722,-0.0014632719,-0.0019556145,0.0004599333,0.0004930368,-0.0013230093,-0.0020391759,-0.0000692873,0.001442047,0.0016534317,0.0007020899,0.0001832713,-0.001384187,0.0000362629,-0.0022850977,-0.0014948262,0.0006950139,0.0009671677,-0.0027777651,0.0022264272,0.0031685951,0.0018580889,-0.0016868833,-0.0021723452,-0.003191793,0.0032073362,0.0024410958,0.0052644041,-0.0024274191,-0.000845362,-0.0024490065,-0.0018005754,-0.0022971175,0.0016320474,-0.0045285484,-0.0036215402,0.002671526,0.002195273,-0.002437231,-0.0016532904,0.0031765423,0.0004921504,-0.0030130699,0.0008028027,-0.0054058165,-0.0028257189,0.0011233935,0.0023875252,0.0000412071,-0.0040109102,-0.0055979972,-0.0065789751,0.0034781794,-0.0019499194,0.0006014672,0.0009393881,0.0007325576,0.0016598036,0.0001773928,-0.0002119768,0.0011177624,-0.002612009,0.0019563438,0.0007288344,0.0004383997,-0.0003609758,0.0004810909,0.0046931435,0.0003009767,0.0025005067,-0.0023724349,0.0032249053,-0.0020004265,0.0015879736,0.0003975808,-0.0007027376,-0.0006855328,0.0005143651,-0.0006104991,-0.0012359596,0.1110214623,-0.0027591647,0.0032794347,0.0015673594,0.0029207983,0.0035491388,-0.0048659572,0.0006337649,-0.0041429575,-0.0043928549,-0.0026584732,-0.0009437965,-0.0012684758,-0.0009192136,0.0000309862,0.0018778851,-0.0032635733,0.0021027831,-0.0040491155,-0.0025766128,0.0023519022,-0.0012455037,0.0019673416,0.0043176574,0.0015029885,0.0021775038,0.0030799625,0.0011248157,-0.0013017705,-0.0010756801,0.0028553419,-0.0021495278,-0.0012373044,-0.0002322392,0.0005387333,0.0000538876,0.0029663606,-0.0026943019,0.0064544393,-0.0008127197,0.002915609,0.0054759591,0.0042380432,0.0009457912,-0.0001131707,0.0013159931,-0.0017517775,-0.0011855068,0.0024008305,0.0017562631,-0.0026241687,0.0019041957,-0.0031881723,0.0045037798,0.0012644857,0.0017009787,0.0017812179,0.0001587697,-0.002437966,-0.0040583939,0.001820215,-0.0037645317,-0.0044222943,-0.0018364882,-0.0023389361,-0.0010012158,-0.0002361116,0.0010246608,-0.0030515764,0.0010814308,0.0007503032,0.0013577169,0.0009353624,-0.0009131234,-0.0021203293,-0.0009584751,-0.0022943909,-0.0003650847,-0.0047840571,-0.0011355301,0.0029355901,-0.0002590833,-0.0003713304,0.0022819775,0.0015512488,-0.0009220614,-0.0031335116,-0.0029935654,-0.0007754102,-0.0052394693,0.0008262317,0.0012419706,-0.0013784091,-0.0041073403,0.0000029566,0.0006316672,-0.0046030961,-0.0007456539,0.0008102051,0.002302488,-0.000385166,-0.00250682,0.0026819589,-0.0025727289,-0.0031043964,-0.0037162853,-0.0009179033,-0.0022689976,0.00080987,0.0009180319,-0.0017088563,0.0002865789,0.0008882256,0.0030558243,0.0058527381,-0.0027372265,-0.0000234348,-0.0018276233,0.0017982528,0.0005943297,-0.002139418,-0.0000820105,0.0885400872,0.0025481906,-0.0001407697,0.0023785051,-0.0007316923,-0.0014886053,0.0020818047,0.0010681795,-0.0007612462,-0.0017656012,-0.0004556597,-0.002003764,0.0019882095,-0.001488683,-0.0009498911,0.0004111185,-0.0005898186,-0.0006598212,-0.0006294071,-0.0012363429,0.0025099796,0.0022838016,0.0011223205,0.0032517978,-0.0010229295,-0.0001517418,-0.0024271444,0.0003540969,0.0002038556,-0.0017873044,-0.0037824638,0.000407352,-0.0014664702,0.0010303829,-0.0026760614,0.0017787848,-0.0028949402,0.0000106149,0.0033871715,0.0008324813,-0.0010996167,-0.0006788638,-0.0014339226,-0.0022240334,0.0000615385,0.000855089,0.0002525151,0.0021328322,-0.0037466725,-0.000131884,0.0023295291,0.0009616994,0.0001825837,0.0016725145,0.0007781291,0.0001247639,-0.0002965784,-0.0023046996,0.0014154036,0.0014585345,-0.000175512,0.0022945346,0.0007115664,-0.0000169287,-0.00131543,0.0002140218,0.0002554899,0.0013568516,0.0003970899,-0.0032927888,-0.0030880849,-0.0005403806,0.0017569471,-0.0011545739,-0.0001597618,0.0020672323,0.003027381,-0.0008575172,-0.003689012,0.00052935,-0.0000368345,0.0003277546,-0.0010587732,0.000097119,-0.0016727879,0.0021134837,-0.0005868861,-0.0025053151,-0.0023712389,0.0007272657,-0.0027522963,0.0005370013,0.0011233562,0.0014845992,0.0030724901,0.002544884,-0.0005135818,0.0017245955,0.0008987109,-0.0010024856,0.0016757426,-0.0021964054,0.0004642757,-0.0017542982,0.0013998004,0.0015607826,-0.0006931938,0.004812374,0.0015491514,-0.000840023,-0.0010363695,-0.0011213431,0.0008003596,-0.0020200701,-0.0001984838,-0.00090883,0.0017914896,0.0006007555,-0.0020794865,0.0026380549,-0.0036020307,0.0001287361,0.0630750715,0.0014961512,-0.0047847449,-0.0008463947,0.0001369851,-0.0014503724,-0.0017970503,-0.0012812251,-0.0052331421,-0.0001245486,-0.0006885919,-0.0032330126,-0.0049230062,0.0008568327,0.0013442558,-0.0013689998,0.001802898,-0.0015708845,-0.0008680987,0.0020505568,-0.0017176114,-0.001356922,0.0005591586,-0.0045005014,-0.0003050217,-0.0035602668,0.0002430654,-0.0015595089,0.0019819337,-0.00074094,0.0035291359,-0.0006264614,-0.0027131815,-0.0027774767,-0.001438394,-0.0001306475,0.0035965105,-0.001100362,0.0001951225,0.0066955557,-0.0017159657,-0.0032523447,0.0022959598,0.0003018569,0.0005177587,0.0007835265,0.0019679307,0.0020208705,0.0025008823,-0.0054943249,-0.0005487961,0.0008887821,0.001563045,0.0034079596,0.0008388637,-0.0004162633,-0.0019594307,-0.0024946907,0.0027147211,-0.0034448192,-0.002241573,-0.0024283054,0.0010481088,-0.00071702,0.0043764754,-0.0031657543,0.0017111042,-0.0025944021,0.0045246525,0.0022052269,0.0022107439,0.0016366716,0.0004000118,-0.0009857594,0.0025717567,-0.0020210823,0.0023516503,-0.0046637451,-0.0010221682,-0.0009501378,-0.0024759152,-0.0012089836,0.0012272096,-0.0027180514,-0.0020974439,-0.0000642687,-0.0019413544,-0.0013272254,0.003878532,0.003633337,0.0029019261,0.0019719894,0.0006270272,0.0020051963,-0.0039227906,-0.0005760259,-0.000411261,-0.0011609818,-0.0076730313,0.0016289075,0.004206135,-0.000116899,0.0005185333,0.0004978287,0.0003467963,0.0002228025,0.0008927938,-0.0007429812,-0.0000587355,-0.0042824837,-0.0045281824,-0.0004711885,0.0032265323,0.0011312985,-0.0024710231,-0.0008168743,-0.002910122,0.001102274,-0.0013657326,-0.0009631424,0.0018399646,0.0003772751,0.0576139025,0.000237805,0.0009997019,0.0016894149,-0.0008207113,-0.0008572304,0.0034057052,0.0040308443,-0.0009583691,-0.0006456491,-0.0028151614,-0.000292063,0.000394133,-0.000122166,-0.0034359488,0.0027893102,-0.0021654736,0.0014506822,-0.0002853232,-0.0006252328,0.0014127158,0.0009149471,-0.0023952833,0.0002446375,-0.0010046203,0.0039911877,0.0042095942,-0.0023295171,-0.0024819026,0.0035127872,-0.0002608821,0.0039580433,-0.0017343178,0.0009280651,-0.0015294417,-0.001855607,0.0007392598,0.0002528701,0.0010897434,-0.0001316498,0.0036449338,-0.0011563955,0.0035141485,-0.0001487224,-0.0020003452,-0.0018630684,0.0026641082,0.0016397182,0.0027324575,-0.001194254,0.0036783421,-0.0015626504,0.0007196019,-0.0006079348,0.0000608863,0.0005213764,0.0046326406,0.0014706086,-0.0020801081,0.0034292457,0.0016095541,0.0005381312,-0.0036821759,0.0033234649,-0.0010984066,-0.0025601985,0.0013229242,-0.0020086661,-0.0055747849,-0.0000652383,0.0021350574,-0.0007264044,-0.0014566793,0.0002107913,-0.0010204993,0.0026779892,0.0008909732,0.0050790881,-0.0028093498,0.0004912525,-0.0003125513,0.0006355043,0.0038799889,0.0016895359,0.0025610408,0.003389402,0.0009087448,0.0010710865,0.0046039343,0.0032170853,0.0002565845,0.0010941224,0.0014824732,-0.0040462978,0.0002973126,-0.0006185332,-0.001479845,-0.0016381848,0.0012409228,-0.0037688232,-0.004479488,0.0057732479,0.005191853,0.0002041669,0.0003346946,0.00101405,0.0005828094,-0.0017554197,0.0043158364,-0.0007605484,0.0003705266,-0.0005345844,-0.0031875722,-0.0014486151,-0.0010362958,0.0011647007,-0.001961722,0.0021532622,-0.0007646987,0.0056997669,0.0002823531,-0.0033026872,0.1812283901,0.0024955013,-0.0043187559,-0.0016160183,0.0014196642,0.0012558778,0.0039014125,0.0002127046,0.0003505209,-0.0035704537,0.0004188096,0.0027105737,0.0033876265,-0.0026600264,0.0018450503,-0.0024009913,0.0021179963,-0.0012495636,-0.0024041296,-0.0017895146,0.0017984517,0.0024692029,-0.0023209215,-0.0009344032,-0.000034924,-0.0048537144,0.0006867787,-0.0001067619,0.0003443776,0.0001408148,0.0012107621,-0.0018445284,-0.0003757382,0.0034360167,0.0022583913,-0.0025549536,-0.0010169689,0.0015274053,-0.0002247575,-0.0005897713,-0.0021941276,0.0049113042,-0.0003112976,0.0006193361,0.0013426618,-0.0001254393,-0.0015783168,0.0032678782,-0.0019555224,0.0010464079,0.0065606029,-0.0058571578,-0.0061974841,-0.0014244886,0.0007084918,0.0002581477,-0.0028037464,-0.0007811504,-0.0008305141,0.0007472172,-0.0004034388,0.0017368855,0.0013209903,0.0065431379,-0.0009932174,0.0050156425,-0.0018849061,-0.0008710605,0.000449134,-0.0005340767,-0.0014384896,-0.0004946095,0.0034579546,-0.0026924865,0.0021185881,-0.0028673297,0.002073783,-0.0004902171,-0.0012814666,0.0050291979,-0.0009244953,-0.0016045886,-0.0030089364,-0.0012541458,0.0015625432,-0.0022730896,0.0048598105,-0.0004626133,-0.0019503612,0.0007474716,-0.0023809784,-0.0031125201,-0.0005144443,0.0035278891,-0.0025810864,0.0005344649,0.0000225716,-0.0001181916,0.0000786358,-0.0028569568,0.0032734816,0.0033732485,0.0042492292,0.0002937262,0.0013521289,-0.0016380116,0.0015944123,-0.0010483779,0.0054357304,-0.0011734246,-0.0050925624,-0.0005549657,0.0007166675,0.0000307105,-0.0027273733,0.0004518724,0.0025537074,0.0023628775,0.0013827979,0.0037354976,-0.0030434268,-0.0001177951,0.1540971755,0.0018007113,-0.0008913062,-0.0000417749,-0.0005393265,-0.0010698289,-0.0033718956,-0.0019071691,0.0009600732,0.0017405196,-0.0025795017,-0.0019509472,-0.0031980891,0.0028338068,-0.0024680534,0.000103075,-0.0001632343,0.0030646798,-0.0014297936,-0.0002971417,-0.0031002444,0.0030148073,0.0021830374,-0.0019654666,0.0000631287,0.0026231081,-0.0028619337,-0.0017520223,-0.0005032701,-0.0021137361,-0.0030840663,-0.0020016019,0.0012352859,-0.0002657237,0.0017368652,-0.0004235573,-0.0002294257,-0.0038525573,-0.0009754873,0.0002036369,-0.001009907,0.0026633336,-0.0062933486,-0.0024514799,-0.0010054345,0.001374979,-0.0031487138,0.0001575808,0.0022109402,0.0009670983,0.002423611,-0.003452805,-0.0035609092,0.0001702377,-0.0002802539,0.0006342325,-0.0007159036,0.0018385175,0.0009614314,-0.0006285281,-0.0007853051,-0.0005197873,-0.000656849,-0.0015082559,0.0050175068,-0.0020180904,-0.0055226237,-0.0036398578,-0.002984332,0.0024525208,0.0010258482,0.0004642547,-0.0000931516,-0.0008342189,-0.0016932416,0.0058231386,-0.0016096389,-0.0015127305,-0.0016259241,-0.0026379173,0.0021451933,-0.0004131571,-0.0021430666,0.004108362,0.0028090893,-0.0061292329,0.0008905742,-0.0019319048,-0.0003315566,0.0006912147,-0.0009073498,-0.0016047785,-0.0024412009,0.0029319645,0.0035784323,0.0023892896,-0.000694587,-0.0028729639,-0.0004535875,0.0035442863,0.0032071985,-0.0007292168,-0.0058257777,0.0032450887,0.001003997,-0.0020329427,-0.0022101644,-0.0010581887,0.0018119332,0.0075550249,0.0016735717,-0.0002420661,-0.0001367095,0.0011876672,-0.0004154423,0.0012811636,0.000597938,0.0028690585,0.0005621424,-0.0021641573,0.0059744792,0.0002890683,0.1186072898,0.0034082315,-0.0024841454,-0.0009410518,-0.0024849438,-0.0028574911,0.0003999687,0.0002052655,0.0028910359,0.0017146688,0.002039271,-0.0029676774,0.0014590987,-0.0008802446,-0.0016623494,-0.00094856,-0.0032288604,0.0017548024,0.0020219771,-0.0002866243,0.0004610341,-0.0039266601,-0.0011817598,0.0048685412,0.0003265597,0.0008646362,-0.000731077,0.0006777908,-0.0031508034,0.0017143443,-0.0002874964,0.0027854202,-0.0028972101,0.0027474982,0.0011122385,0.0010033484,0.0003008414,-0.0004497055,0.0042756485,-0.0013600099,-0.0018803296,-0.0031842621,-0.0006830194,-0.002651331,-0.0001983075,-0.0028380086,-0.0009603833,-0.0007212814,0.0015374871,0.0001066866,0.0049131455,-0.0007335982,-0.0011942288,-0.0018007234,-0.0017196763,0.0011723435,-0.0023090359,-0.0019540352,-0.0012083878,-0.0040662807,-0.0004816437,0.0037350994,0.0011774032,0.0033913175,-0.0004140353,0.0024690145,-0.0031399892,-0.0019618077,0.0013124582,-0.005058757,-0.0011287066,0.0002059497,0.0046110576,-0.0038909727,-0.0026181418,-0.0001415354,-0.0015403924,0.0022288476,0.0021335413,0.0002462146,-0.0033788926,-0.0017278857,-0.0027801027,0.0006605775,-0.0026789289,0.0071446489,0.0006458004,0.0002342729,-0.0020538148,0.0061815152,-0.0017838526,-0.0008049211,0.0004076102,-0.0021713504,-0.0020693825,0.0036961444,0.0020379692,0.0027403584,0.0017346951,-0.0011735034,-0.0044060215,0.0022195266,0.0032393463,-0.0035916213,-0.0023236735,-0.00131421,-0.0002727658,0.0029523905,-0.0031156216,0.0032549733,0.0015332123,-0.0046224387,0.0004708093,-0.0026628518,-0.0015735945,0.0028391358,-0.0011697309,-0.0024859914,0.0008255045,-0.0019593773,0.0003229928,-0.0002003632,0.0237980278,0.0035531844,0.0039019909,0.0035468751,0.0005644076,-0.002300969,0.0005087339,-0.0017785768,-0.0028822147,0.0009858409,0.0025408909,-0.0016016732,-0.0046606605,-0.0014951061,-0.0005338339,0.0022373764,0.0029158944,-0.0029705116,-0.0020661375,-0.0018705062,0.0011791012,-0.0017262976,0.0009241406,0.0014412169,0.0016295819,-0.0011661877,-0.0019221221,0.0010447156,-0.0030126099,0.0012698809,0.0001019653,0.0007207561,0.0002494293,-0.0006225026,-0.0033040034,0.0004109211,0.0031983659,0.0006927504,0.0021353627,-0.0017513139,-0.0025529207,-0.0007805323,-0.0027365024,0.0005301604,-0.0024498339,0.0019033518,0.0005608872,0.0024226765,0.0012749188,-0.0006524846,-0.0023063318,-0.0018106306,-0.0030352801,0.0041339713,0.0014270187,-0.0019375161,-0.0009487319,0.0034027603,-0.0022911974,0.0001791106,-0.0028808846,-0.0046840386,0.0004521993,-0.0023380368,-0.0029864165,0.0017329314,0.0013198288,-0.0003037704,-0.0024151016,0.0008600436,-0.000921989,-0.0023491215,0.0001210539,-0.0013817348,0.0023767783,0.0038035907,0.0000999556,-0.0041943327,0.004388473,0.002392613,-0.0000958541,0.0018128159,-0.0017861274,0.002119603,-0.0004855267,0.0012922526,0.0009462833,-0.003521706,-0.0026169923,-0.004246451,0.0022390632,0.0012045823,-0.0007794089,0.0030625197,0.0028365214,0.0019888734,-0.0015992335,-0.0009073359,0.001906792,0.0002551988,0.0022919171,-0.0039728534,0.0000184066,-0.0043355206,0.0003368151,-0.0056533353,0.0018195371,-0.0005029715,0.000226926,-0.0006687858,0.0000503025,0.0031878977,-0.0014924986,-0.0000762035,-0.0001007429,-0.0021942989,0.0075224862,-0.0024356512,-0.0054521096,0.0023014951,-0.00008871,0.0009655985,0.0665086074,-0.0004790198,-0.0037898438,-0.0012309854,-0.0016657134,-0.0021453282,-0.0020291285,0.0009098835,0.0005686869,-0.001451186,0.0013773856,-0.0036777342,-0.0001102556,-0.0006410282,0.0028660172,0.0002216781,-0.0026693636,0.000865283,-0.000056164,-0.0012386419,0.0004395665,-0.0034879441,-0.0030151238,0.0003142001,0.0023397063,-0.001243582,0.0016532248,-0.0018773728,-0.0026982877,0.0013341996,-0.0018084878,0.0042046464,-0.0018508332,-0.0011335511,-0.0030998007,0.0027416918,-0.0000401952,0.0013951281,-0.0011867275,-0.0012629971,0.0047583404,-0.0030853728,0.0031385345,0.0001192608,0.0013076819,0.0020522652,0.0018237484,-0.0026688786,-0.0012395954,-0.0021895464,-0.0046698267,-0.0010900687,0.0005682804,-0.0001764792,-0.0005343429,0.0023641962,0.0027168278,-0.0024091964,-0.0013729376,0.0053966377,-0.0004153689,0.0044893727,-0.0004511454,-0.0045030553,0.0018002518,-0.0024341218,0.0016795089,-0.0057575163,0.0016250298,-0.000809793,-0.0009603588,0.0000404223,0.0007593092,0.0009747022,0.0028888733,0.0017518903,-0.0038078117,-0.0050814051,-0.0034228219,-0.0034818575,0.0013959865,0.0005306376,-0.0032814441,-0.0038651454,0.0006059415,0.0001714677,-0.0014057367,0.0001725694,-0.0028454552,-0.0004790026,-0.0020791004,0.0000946436,-0.0015883533,-0.0007346291,-0.0028399292,-0.0008722452,-0.0009548486,-0.0006570957,0.0010937208,-0.0006114094,-0.0020908183,0.00031612,-0.0024993358,0.0003855217,-0.0006918289,-0.0027231693,-0.0004875178,-0.0005769196,-0.0042410721,0.0043266293,-0.0022862966,0.0026180636,-0.0018045459,-0.0028448769,0.0002198756,0.0003952046,-0.0004264063,0.0009367157,0.0016392763,-0.0059745193,-0.0042909613,0.0028968388,0.0438843921,-0.0011762381,-0.0000201364,0.0018028444,0.0025373496,0.0000052969,0.0010870871,0.0029465677,0.0014303175,-0.0020379412,0.000208098,-0.0002156046,0.0008011274,-0.000063024,0.0012184244,0.0025855946,-0.0042949421,0.0033832882,-0.0010787726,0.0046520081,-0.0019129033,-0.0000734847,-0.0024648694,-0.0003080432,-0.0015144204,0.0011112542,0.0032665593,0.0006102495,-0.0009041596,0.0008154689,0.0061545046,-0.0059055969,-0.0018789866,-0.0041798581,0.0034698072,0.0019150544,0.0017763339,0.0025222939,0.0038410574,0.0030732429,0.0008730636,0.0017712762,0.0018789857,0.0008084452,-0.001997608,0.0033765503,-0.001569212,-0.0010901853,-0.0001520285,-0.0010794853,-0.0023279853,0.0007673775,-0.0006615259,-0.0034289273,0.0025631728,-0.0000052144,0.000820824,-0.0003543857,-0.0013185587,-0.0029558303,-0.000518155,-0.0004984918,0.0043454295,-0.0045040522,0.0050460072,0.0006608115,-0.000888732,-0.0012771616,0.001762058,0.000395925,-0.0035556167,0.0009792422,0.0002414592,0.0022762379,0.0027610488,-0.0024458389,0.0018962577,-0.0052079648,0.0015547222,-0.0016297023,-0.0029309786,-0.0032402505,0.0029313917,-0.0005896315,-0.0010840462,-0.0022236183,0.0011873059,0.0036125032,0.0023501131,-0.0001670376,0.0045813868,-0.0002058121,0.0020496498,-0.008374377,0.003293882,0.0000058043,-0.0025995259,0.0008956341,-0.0004137074,0.001555758,-0.001991126,-0.0011851659,0.0038784427,-0.0032024,0.0002301178,0.0007619344,0.0026062896,-0.000936005,-0.0019725621,0.0017968667,0.0090988563,0.0036044496,-0.0023541139,0.0055052892,0.0024871674,-0.0017429174,-0.0018735985,-0.005641743,-0.0004792055,-0.0040052226,-0.0019199532,0.0022953863,0.13467484,0.0015395515,0.0003220582,0.0007574836,-0.0006525614,0.0010987571,-0.0018437259,0.0034841156,0.0013774523,-0.0009250211,-0.0008046849,-0.0015608011,0.0021356541,0.0039841886,0.0011160901,0.0001594375,0.0053161263,-0.0005186576,-0.0039340072,-0.0026260133,0.0002966262,0.0042529324,0.0022329792,-0.0007829244,0.0010476263,0.0020312291,0.0055801792,0.001816597,-0.0018983149,-0.001952561,0.0009775325,-0.001345018,-0.0023313221,-0.0024778717,-0.0006495879,0.0025258592,0.0026871896,-0.000179976,-0.0061132662,-0.0046393878,0.0025805692,-0.0005118967,0.0029305108,0.0028489825,-0.0018718007,0.0013589504,-0.0027758217,0.0018753963,-0.0009118464,0.0053367587,-0.001375218,-0.0061345855,0.0021366835,-0.0024058047,-0.000195763,0.0026246965,-0.0003291361,-0.0025053068,-0.0007458492,-0.0009105551,0.0013607439,-0.0009934748,-0.0008135032,0.0015112527,0.0007937654,0.0043029542,0.0025897175,0.003904905,0.0029154215,-0.0002391846,-0.0023910208,-0.0005816179,-0.002006463,0.0011424849,-0.0038362336,-0.001851029,0.0006130106,-0.0028997473,0.0092914663,-0.0018497224,0.0034520343,0.0005228115,-0.0013665809,-0.0000625352,-0.0044207647,-0.0049636201,-0.0011842133,0.0054250793,0.0020594489,0.0026150275,-0.0038757804,-0.0001240601,0.0015775486,-0.0015133194,0.0024750702,0.0037813432,-0.0018505042,-0.0005457629,-0.0036569838,-0.0039500774,0.0048094362,-0.002790819,0.0010536824,0.0030070413,0.0012913995,-0.000700397,0.0006690058,0.0049884907,-0.0002884041,-0.0030920453,0.0038893979,0.002057489,0.0015509036,0.0018996073,0.0043063294,-0.0022911751,-0.0029218896,-0.0003425647,-0.0039199849,0.0004887723,0.0020002387,0.0007628449,0.1234729638,-0.0018422231,0.0012610275,-0.0033682673,0.0000440922,0.0012300083,0.0022318344,0.0014278933,-0.0006655067,0.0012794911,-0.0014445188,-0.0022644707,0.0010467137,-0.0009118925,-0.003283012,0.0007766974,-0.0035862333,0.0015292298,0.0004504021,0.0001531874,-0.0000729934,-0.0004978381,0.0011609422,0.0012821171,0.0004634165,-0.0018584254,0.0028365056,0.0009377707,0.005617157,-0.0011221386,0.0003730543,0.0007111603,0.0022204948,0.0005960289,0.000468618,0.0001928766,0.0002030523,0.0031637232,0.001450036,-0.0043605586,-0.0030458197,0.0022253214,-0.0013371914,0.0003019902,-0.0004041126,-0.0004903367,-0.0015375189,0.0037384377,0.0035576205,0.0004819949,-0.0016735097,-0.0015313366,-0.0015784224,-0.0032166876,0.0019041955,-0.0025216842,0.0010438099,-0.0008592955,0.0015497361,-0.0028335705,0.0009486347,-0.0022620671,-0.001007066,-0.0037318184,0.0016227169,-0.0020036886,0.0001069196,-0.0025186953,0.0013558565,0.0034158389,0.0026184414,0.0008965383,-0.002686899,0.0010803027,0.0006879431,0.0061614833,0.0022058501,-0.0012874191,-0.0031738785,-0.0007629495,-0.0019924407,-0.0026806887,-0.0014022369,-0.0011507779,0.001756163,0.0007253724,-0.0012208982,0.0045190793,-0.0025930483,-0.0063598875,-0.0001326776,0.0005048305,-0.0024978434,-0.0013939394,-0.0009491188,-0.00046856,0.0012761094,-0.0011178729,0.0001202345,0.0040455417,0.0004096391,0.0043693219,-0.0013343725,-0.0011342153,-0.0026779563,0.0097770862,0.0008198799,-0.0007684411,-0.000899634,-0.001113158,-0.0024566313,0.0013204716,-0.0008134962,0.0010864634,0.0007850509,0.0029064055,-0.0034826674,0.0020927936,-0.0019595905,0.0023902344,-0.0039966256,-0.0028023477,0.1564706602,-0.0015051497,0.0016858259,-0.0014639263,-0.0000383321,0.0015703301,-0.0006112941,0.0009185207,-0.0041990695,0.0055287743,-0.0000915213,-0.0006799756,0.00441085,0.0011816364,-0.0020964075,-0.0009668894,0.0017611777,-0.0009693128,0.0021166946,0.000526072,0.0028931686,-0.000378331,-0.0002725099,0.0047738813,0.0002411643,-0.0009339618,0.0011352753,0.0057734982,-0.000552167,-0.0028531366,0.0015599673,-0.0035479726,0.0007428673,-0.0008661396,0.0051480537,0.0013650185,0.0037337567,0.0039576206,-0.0010200085,0.0019677208,-0.0010029424,0.0004387605,0.0025921186,-0.0010687269,-0.0030441641,-0.0019793942,-0.0029533804,0.0000039086,0.0004365895,0.0026436299,0.0003193124,0.0014180329,0.0019751258,0.0015923935,-0.0010258278,0.0012051427,-0.0010770586,-0.0033720687,0.0047314469,-0.0045334395,0.002695345,0.0015968918,0.0010093449,-0.003208114,-0.0025303026,0.0025432129,-0.0000081509,0.0013546158,-0.000277407,-0.0023676164,0.00274132,-0.0032722119,-0.0033825792,-0.000888341,0.0012497265,-0.0042137998,0.0031931116,-0.0038935832,0.0043361197,-0.0015404964,-0.0004997501,0.0016938743,-0.0013802759,-0.0008439588,0.0015321924,-0.0031273081,-0.0036470914,-0.0014713929,0.0031022667,-0.0037930438,-0.0038606779,-0.0007777678,-0.0033696851,-0.0004466788,0.0014508572,0.0008211803,0.0042780527,0.000630207,-0.0036379991,-0.0006382138,-0.001982935,-0.0012287215,-0.0021184603,-0.0043595259,-0.0022980337,0.0019681284,-0.0050433172,-0.0009833717,-0.0037930849,-0.0000358588,0.004709812,0.0005264343,0.001970023,0.0049522873,-0.0033523538,-0.0002243361,-0.0029927383,-0.0029962475,-0.003805614,-0.0000871454,-0.0035736566,0.0015630845,0.0423781516,-0.0014656912,0.0005622414,0.0007684122,-0.0035644295,-0.0006834726,0.0001946522,-0.0018215667,0.0020158903,-0.0000747033,-0.0001134097,-0.0002138689,0.0022420817,-0.0010359947,0.0069573356,0.0008196794,-0.0026603417,0.0023119871,-0.0001658839,-0.0011344663,0.0026231691,-0.0010235897,-0.001110772,-0.001972386,-0.0007614146,0.000622777,0.0000036595,0.0005207998,-0.0045611146,0.0022528835,-0.0015052352,0.0010534682,-0.0031751384,0.0008989855,0.0022663253,0.0017651197,0.0046444165,0.0020765762,-0.0015298875,-0.0007865298,0.0002893113,-0.0032115265,0.0001900178,0.0004720143,-0.00227785,0.0010482852,-0.001917658,-0.0004874861,-0.0014853061,0.0038817529,-0.0006739344,-0.0015741705,-0.0029670385,-0.0004222591,0.0000187812,0.0001913707,0.0007317062,-0.0026966798,-0.0018130418,-0.0037370485,0.000319989,-0.0026968666,-0.0043169619,0.0037120571,0.0019040066,0.0007346819,-0.0028182047,0.0021253245,0.0025390851,-0.0025032024,0.0000185375
   -0.0012741064,0.0016992929,0.0015931389,-0.0001246704,-0.0058328963,-0.0018452829,0.0005921369,0.0047644179,-0.0035639672,0.0013578514,0.0042410384,-0.0022934502,0.0020259294,0.0009454184,-0.0026705625,0.0038257552,0.0013276419,-0.003225885,-0.0004866587,-0.0046895963,-0.0009452284,0.0009146539,0.0033700684,-0.0027408688,-0.0024972834,0.0014565615,-0.0010934066,-0.0012612012,0.0041793191,0.0025084615,0.0013788143,0.0043033779,-0.0009770708,-0.0038278273,-0.0022327067,-0.0014968756,0.0013085351,-0.0016496917,-0.0038400856,0.002620254,-0.0011474989,0.0006337017,0.0027859392,-0.0018005131,0.0019245176,-0.0027726601,0.0006710377,-0.003275372,0.0010798485,0.0002788124,0.0017602379,0.0656657236,-0.0020559016,-0.0036866631,-0.0000092281,0.0018618092,0.0016930358,-0.0002135998,-0.0029687239,0.004045325,0.0003656671,0.0000456963,-0.0002635714,0.0001531131,-0.0010725828,0.0047823335,0.0002959869,0.0011615978,0.0002484186,0.0012602879,0.0030537305,0.0012853667,-0.0025193596,-0.0029702795,-0.0022306035,-0.000343457,0.0007808752,-0.0007545351,-0.000551438,0.0034433402,-0.0003304808,-0.0043238186,0.0008304146,0.00095555,-0.0012040149,-0.0044084568,-0.0009621048,0.0017713272,-0.0033751519,0.0031943543,0.0043261092,0.0010221465,-0.0020208707,0.0020318452,0.001774408,0.000698314,-0.0001967624,0.003372042,-0.0027260931,0.0006596781,-0.004987104,-0.0014906719,0.0015423797,0.0018984203,0.0015879182,0.000538419,0.0021296029,-0.0023408071,-0.003432235,-0.0021279265,0.005965259,-0.0016953803,0.001509503,-0.0008725006,-0.0004842333,-0.0014169549,0.0023752177,0.0014615856,-0.0021105457,-0.0027444447,0.0009091597,0.004555794,-0.0011194035,0.0003625966,0.0012821067,-0.0018580722,0.0005989352,-0.0019019814,0.0023064436,0.0015013789,0.0025092307,-0.0021765194,-0.0008584805,-0.0040812734,0.0006853823,0.0019376506,-0.0000122828,-0.0037322198,0.0023696723,-0.0024745048,0.0059464468,-0.0013419892,-0.0020547902,-0.0016009925,0.003844433,-0.0004484643,-0.0020801592,-0.0003818047,-0.004744481,0.0023423123,0.0031719978,-0.0017496271,-0.0001939892,-0.0009338819,-0.0043077593,-0.0005851634,-0.006366733,0.0005864865,0.0010303339,0.0034450216,-0.0002406089,-0.0023785229,-0.0031222516,0.0011727316,-0.0028408476,0.0018335937,-0.0024747684,0.0024822865,0.0037627599,0.0014863083,-0.0009491505,-0.0019352476,0.0011497404,0.1683995706,-0.0027472224,0.000237805,-0.001657843,-0.0014251096,0.0006663683,-0.0008559825,-0.0019761045,0.0045800334,-0.002078856,0.0000388122,0.00074161,0.0015100713,0.0002502964,-0.0026890912,0.003699066,0.0011989612,-0.0014688137,0.0012622415,-0.0028619775,0.001274885,0.0007244792,0.004122346,0.0004624593,-0.0009560513,0.0007670275,-0.0002587756,0.00112823,0.0006139426,0.0015733854,0.0000255253,0.001362279,-0.0005213233,0.0025806392,0.0024484583,0.0004672716,0.0016159406,-0.0001033004,0.0003048425,0.001127391,-0.0043625997,-0.0015692216,-0.0001868317,-0.0026415843,0.001580185,0.0011791168,-0.0008208938,-0.001843401,-0.004089817,-0.0016504223,-0.0004159407,0.0006978324,0.0006455532,0.0003708852,-0.0025696459,-0.0023936954,0.0042087631,-0.0003635505,0.0013344371,-0.0006943711,0.0001156989,0.0027346501,0.0027283646,0.0012475686,0.0007165793,-0.0051662948,0.0013678384,-0.0009087263,0.0030232425,-0.0011827136,0.0006127221,0.0010974216,-0.0004984239,0.0034146057,-0.0010586548,0.0003751543,-0.0004242883,0.0004356008,-0.0019410719,-0.0020401685,-0.0030256894,-0.0002747651,0.0023361408,-0.0043613301,-0.001484918,-0.0020025577,0.000507384,0.0011745894,0.0013430865,-0.0005382621,0.003773315,0.0009004066,0.0011310509,0.0004242757,-0.0015228931,-0.000543149,-0.0005253294,-0.0009600147,-0.0009413334,0.0009350146,0.0008973759,0.0010088828,-0.0001273658,-0.0005913563,0.0006292774,0.0002580196,0.0001098983,0.0006084489,0.0006180367,0.0055916281,-0.0013439404,0.000221709,-0.0001325211,-0.0024034538,0.0018382051,-0.0001027091,-0.0033616947,0.0001221658,0.003672705,0.0001914217,-0.0020064129,-0.0002295188,0.0960253818,-0.0027610546,-0.0016704617,0.0020660704,0.0040808953,0.0008494846,-0.0029061652,-0.0000598333,0.0045264056,-0.003266533,-0.0001600284,-0.0015116292,0.0001877136,0.001789256,-0.0028048054,0.0044084994,0.002016897,-0.0002376685,-0.0001207428,-0.0013260325,0.0011480956,-0.0019884754,-0.0002909397,-0.0012282506,-0.0015765468,0.0040745336,0.0010756364,0.0000274194,0.0004064988,-0.0019228318,0.0014136031,-0.0016350615,-0.0006710662,-0.0024212101,-0.0015391608,0.0002894383,-0.0001969783,0.0002497486,-0.0055977968,0.0010206175,-0.000018926,0.0015654591,-0.0041538829,-0.0004734263,0.0019253039,-0.0009171495,0.0015103643,-0.0005624441,-0.0006821378,-0.0011782365,-0.0022541196,0.0019305161,-0.0017606239,-0.001398155,-0.0024986533,0.002583854,-0.0002243885,-0.002212806,0.0008427656,0.0014692165,-0.0002727034,-0.0049727686,0.0017548748,0.0035543612,0.0036850836,-0.0007447617,0.003600635,-0.000584476,0.0002737445,-0.0000605655,0.0007334445,0.0012005116,-0.0027000407,0.0006761719,0.0011111112,0.0013252242,0.0017723167,-0.0044037478,0.0017011235,0.0006896157,0.0009255599,-0.000558441,-0.002957363,0.0005123353,-0.0000969793,0.0026687364,-0.0010838214,-0.0017501474,0.0010626395,-0.0029362762,0.0051370396,0.0002481174,0.0006762172,0.0014194181,0.0008384001,0.0016059066,-0.0015326444,-0.0013871899,0.000893809,-0.0006967717,0.0016468802,-0.0047882088,-0.0005868231,0.0012810597,-0.0002690952,-0.0016893823,-0.0005376771,0.0001069157,-0.0030151448,0.0048337367,-0.0039834018,-0.0007234114,-0.0023706359,-0.000016722,0.0037286989,0.0009201333,-0.0033405999,-0.0016627033,-0.0049111984,0.0003281189,0.004572628,-0.0001081231,0.0640264333,0.0023474142,0.0062500508,-0.0010108101,0.0001772584,0.001485142,0.0010377592,-0.0023972272,-0.0054229282,0.0026989263,0.0023698707,0.0040674021,0.0040766867,-0.0004966006,-0.0029016993,0.0048324264,-0.0013131915,0.0006135389,-0.0017040225,-0.0007573245,0.0001271672,0.0017760845,0.0037022982,-0.001989102,-0.0018551741,0.0006937853,-0.0019609607,0.0004537331,0.0062322018,-0.0007640615,0.0034470647,0.0018659155,0.0025923905,0.0047730112,0.0012367164,0.0013926979,-0.0027882756,0.0001806112,0.0015434908,-0.0016785237,0.0006234144,0.0014117112,-0.0030139645,-0.0013863446,-0.0025553509,0.0029171025,0.0007821234,-0.0002781992,-0.0032365513,0.0036184619,-0.0060752702,-0.0012779272,-0.0006473277,-0.0019371818,-0.0025559991,-0.0000114226,-0.0009144281,-0.0007464052,0.0013433059,-0.000877793,0.001952635,0.0089776739,0.0039758112,-0.0020270149,0.0014011729,0.0035143446,0.0020698493,-0.0022723171,0.004236872,-0.0003333718,-0.000748008,0.0008602763,-0.0039825106,-0.0010589605,-0.0022533903,0.0008269296,0.0024757543,0.0039150803,-0.0029941134,0.0031161205,0.002714624,0.0010559082,0.0015329761,-0.0030302363,-0.0020368896,-0.0001601357,0.0010749842,-0.0016522856,-0.0041668491,-0.003314255,0.0028927052,0.0017458501,-0.0002702782,-0.0027297479,-0.0054268011,0.0002431895,0.0002906046,-0.0006678939,0.003278565,-0.0004211191,0.0014210191,-0.003672686,-0.000469223,0.0021221471,-0.0019784938,-0.0015884839,0.0013228289,0.0012767066,-0.002906513,-0.0020100486,-0.0000799295,0.0034108543,0.0034167498,-0.0009270943,0.0010426494,-0.0022936149,-0.0052524819,0.000794371,0.0022270649,-0.0015503785,-0.0053157322,-0.0033536737,0.1273378307,0.001518714,0.003741774,0.0011276562,0.0055862456,0.0009714411,-0.0021019936,0.0035270457,0.0025884843,-0.0008656053,-0.0006393152,0.0024122374,-0.0011189673,-0.0001196779,0.0001774665,0.0024050983,0.0006466779,-0.0038938281,0.003285242,0.001302076,0.0002193637,0.0012171187,0.0008736952,-0.0004082037,0.0028744812,0.0037822339,0.0048660114,0.0026830826,-0.0006403874,0.0016910178,0.0046084902,-0.001727817,-0.0040733238,0.0027097744,-0.0003097762,-0.0000482774,-0.0016088138,0.0013365478,-0.0023889259,0.0012985353,-0.0062984664,0.0005727837,-0.0003259546,0.0001235112,0.0037779267,0.0038523953,-0.0003340762,0.0005003583,0.0026848907,0.0010902692,0.0014017487,-0.0000329558,0.0001232782,0.0004123748,-0.0004754483,0.000770447,-0.0008575174,0.0023683222,-0.0041643349,0.0008639197,0.0022676436,-0.0024907111,-0.0035462754,0.0018058114,-0.0016064943,0.0042292892,-0.0000190716,0.0014119044,0.0041291592,-0.000006577,-0.0014028332,-0.0016182422,0.0005221632,0.0015033248,-0.0031877451,-0.0018127132,0.0021347638,-0.0020104279,0.0036542876,-0.0004398366,-0.0004850567,0.002718352,-0.004637648,0.0003047621,-0.0010356611,-0.0013922404,0.004685649,-0.00279254,0.0013642225,0.0033105612,-0.0053962459,-0.0001134169,-0.0017332367,0.0019125583,-0.002237901,-0.0013925812,-0.0044986301,-0.0002107671,-0.0049033096,-0.0009038515,0.0047300775,-0.0002614637,0.0038927999,-0.0009084758,-0.0019472094,0.0018270044,-0.0024101538,0.0015448143,-0.0026807634,-0.000108901,0.0053036785,-0.0010957609,0.0001621747,-0.0016304222,-0.0035139869,0.0010151427,0.0011172754,0.0034171798,-0.000478305,-0.0002785949,0.0030392972,-0.0012895342,0.0493040596,-0.0018348643,0.0032570047,-0.0021483051,0.0006871267,0.0000835423,-0.0008985328,-0.0041653318,0.0015878289,0.00089271,-0.0004906956,-0.0014414763,-0.0012510245,0.0025290107,0.0026396702,0.0010560174,0.0009270924,0.0017102074,-0.0043276586,-0.0006775713,-0.0003947171,-0.0040790383,-0.001053106,-0.0001457705,0.0008847922,0.0006112302,-0.0018309341,0.0012625448,0.0026258312,0.0014396641,-0.0009065257,0.0000114124,0.0030996771,0.0014741049,0.0011194188,0.0037954879,0.0020985199,0.0022876938,0.0000030478,0.0010422696,0.0034353488,-0.0005477612,-0.0001763524,0.0018352631,0.0013612205,0.0000858003,-0.0010946261,-0.0031185973,0.0021150301,-0.0033407248,0.0036247325,-0.0023484129,0.0038931324,0.0001485622,-0.0001148886,0.0019581186,-0.0033150863,0.0002909164,0.0045270722,0.0027124623,-0.0006873422,-0.0027280329,0.0024457708,-0.0013176035,-0.0023341464,0.0007645771,0.0007227203,0.0022336211,-0.0021942337,0.001211727,0.002945565,-0.0008300634,0.0014781446,0.001183311,0.0000342751,-0.0014736019,0.0007168396,-0.0040810738,-0.0004790817,0.000698893,0.0046642875,-0.0026286393,0.0010291645,-0.0019576542,-0.0003807735,-0.0018612755,0.0009282554,-0.0029943001,0.0015386687,0.0016029743,0.0021378728,0.0014543181,0.0042766878,-0.0003665266,0.0043431814,0.0002306773,-0.0034334224,0.0032437849,-0.0016731126,0.0022582639,-0.005065834,0.0009525444,-0.0005801167,0.0007599605,-0.001074743,0.0022679224,-0.0014212082,-0.0015208575,-0.003228795,-0.0014052137,-0.0002717788,-0.0011606634,0.0027468772,-0.0046618839,-0.0005712925,0.000709062,0.0003254836,0.0039555289,-0.0004706743,-0.0030507853,0.0006761876,0.0009801298,0.0621501379,0.0016412573,-0.0000011024,0.0039358377,-0.0031235451,-0.000407953,0.0024988704,-0.0003245412,-0.0059817839,0.0051695815,-0.0003337143,0.0002543652,-0.0010162536,0.0002241116,-0.0012274278,-0.002458804,-0.0004568422,0.0034588228,-0.001278884,0.0010315112,0.0017238371,0.0010717467,-0.0024424643,0.0008457554,-0.0022556777,-0.0006594682,0.0020015841,-0.0011985004,0.0001123734,-0.0000922579,-0.00079969,-0.0017242739,0.0027344016,0.0013058912,-0.0008627117,-0.0008001494,0.002130102,0.0032854619,-0.0014893753,0.0009184602,0.0043197436,0.0009335235,-0.0007631989,0.0009871362,-0.001705459,-0.0014160731,-0.000454278,-0.0017489909,0.0005390452,-0.0049240148,-0.0018963855,-0.0000174004,0.0036410156,-0.0018833129,0.0007987097,-0.0009737772,0.0007834826,0.0016431268,-0.004672169,0.0020138706,-0.0004327807,0.0024071217,0.0026399459,0.0025176419,-0.0005977565,0.0002619089,-0.0011566685,0.000854273,-0.0009839278,-0.0035817171,-0.0010744827,0.0008315231,0.0002683614,0.0002410832,-0.000485015,-0.0033505239,-0.0011060033,-0.0011075559,0.0025749892,0.0009347306,-0.0014131837,-0.0008575865,-0.0018534296,0.0014293391,-0.0001138211,-0.0004097886,0.0005856664,0.0012538941,-0.0002075399,0.0012016422,-0.0023566713,0.0003892419,0.003139697,0.0024571353,-0.0007329357,-0.000673484,0.0023953472,-0.0003454713,-0.0017667399,0.0006649453,-0.0037401094,0.0011418806,-0.0027865364,-0.0038175638,0.0026676697,-0.0011371361,-0.0034167167,0.0009270147,-0.0003845795,0.0032810979,-0.0018303545,0.0017470206,-0.0021858057,0.0002060146,-0.0054896309,-0.0005829259,-0.0041873232,0.001593361,0.0032235588,0.0003245856,-0.0027507319,-0.0016634014,0.0788709269,-0.0039699805,-0.0056429023,0.0023419636,0.0013356899,-0.0008818386,-0.0011678728,-0.0004106963,-0.0012548904,-0.0020293503,-0.0030916091,-0.0002504656,-0.0019612242,0.0000661304,0.0024585275,-0.0003723797,0.0019677108,-0.00027285,0.0014204146,0.0019989699,0.001506924,0.0000320713,-0.0023432774,0.002077927,-0.002868033,0.0049006933,0.0024378572,0.0000124822,-0.0023730537,-0.0008879994,0.000590912,-0.000383534,0.0016916191,-0.0018183131,-0.0025484994,-0.0026530353,-0.0027782076,0.0017760847,-0.0024851043,-0.0004410722,-0.0032401496,0.0018431264,0.0059422591,0.0030442075,-0.0005892336,-0.0006302785,-0.0002429734,0.0009274919,-0.0019445646,0.0044302391,-0.0016529998,-0.0001981255,-0.0018306815,-0.0005900224,-0.0017368791,-0.000495839,-0.0047031265,0.002304107,0.0006818713,0.0028910679,0.001550525,-0.0007960669,-0.0010024389,-0.0030699048,-0.0005978668,-0.000006859,-0.0012164196,-0.0005307783,0.0008105829,0.0039278007,0.0022733597,-0.0002457386,0.0045692617,-0.0013275949,-0.0030467609,-0.000307719,-0.0004194052,-0.0025231374,0.0020289648,-0.0004556624,-0.0003382801,0.0004349154,0.0065546438,-0.001454983,-0.0019801457,0.0026188398,-0.0036555754,-0.0017422666,0.001488672,0.0017086585,0.0026270674,0.0006043608,-0.000175027,-0.0010689641,-0.0011775565,-0.0010048614,-0.0010016948,0.0001197586,-0.0012655858,-0.004661407,0.0015848585,-0.0051824025,0.0033211712,-0.002802413,-0.0022467537,0.0017633328,0.0023971776,-0.0027493324,-0.0010707527,-0.0025468228,-0.0017742008,-0.0013667662,-0.0056971474,0.0073107522,0.0020202452,-0.0022176491,0.000282483,0.0023354485,-0.002131975,-0.003430438,0.0003744174,-0.0012517561,0.0517067576,-0.0017993949,0.002217678,0.0004040107,-0.0006229997,0.0017645074,0.0012838279,-0.000882168,0.00210014,-0.0001599178,-0.0006299267,-0.0010371799,-0.001505314,0.001144637,-0.0007891572,-0.0026631308,0.0029409561,-0.0012335108,0.0000380041,-0.0003114452,-0.00001451,-0.0038669572,-0.0012302638,0.0005056858,0.0005868838,-0.0042578243,-0.0009659423,-0.0004981101,-0.0000446834,0.0013086735,0.0031141345,0.0011947639,0.0005364843,-0.0006230407,0.000227372,-0.0002785726,0.0038715315,-0.0033982346,-0.0025192976,-0.0007592456,-0.0005852677,-0.0019735099,-0.0021652021,0.0006451209,0.0013869456,0.0007595872,0.0026040069,-0.0016005754,0.0000961514,-0.0029602942,-0.0003070744,-0.0015319581,-0.0001830819,0.000839346,0.0017087964,-0.0005695027,0.0009656707,0.0006707736,-0.0000618738,-0.0005830649,0.0010103742,0.0003889738,-0.000706788,-0.0017049428,-0.0008432753,-0.0014639417,0.0013337555,0.0026882694,-0.0039723944,-0.0032756633,0.0007630902,0.0035145049,0.0032989777,0.0017167363,0.0003098095,-0.0005933457,0.0013226207,0.0024853265,-0.0012014665,-0.0004863392,-0.0016294128,-0.0026338617,0.0013964202,-0.0005519745,0.0030626874,-0.0012009474,0.0034106118,-0.0026822925,0.0022570407,-0.0010315926,-0.0018264189,0.0036855016,-0.0017137507,-0.0007033716,-0.0008164873,0.004045323,0.0023884631,0.0008092732,0.0026158549,0.0032713785,-0.0017552468,-0.0029900831,-0.0007654221,-0.0004301009,-0.0060190876,-0.0045537595,-0.0005371435,0.0006654943,-0.0006708666,-0.0022794811,-0.0007869849,0.0018038727,0.0007148259,-0.004372481,-0.0045124509,0.0003596628,0.0003151217,0.0009358065,0.0041038864,-0.0003555333,-0.0035324269,-0.0012072501,0.0242142586,0.0048752543,0.0020611841,0.0023068571,-0.0013307297,0.0004495074,-0.0004217986,0.0059119889,-0.0058314532,0.0005525265,0.001366409,0.0012684233,-0.0019059295,0.0018479125,-0.0027639363,-0.0008175233,-0.000758462,-0.0055709268,0.0002303218,-0.000160378,-0.0023911073,0.0020488804,0.0020570782,-0.0028245949,0.0025282836,0.0028096454,0.0038252809,0.0028460499,0.0032535234,0.0019294447,-0.0003908218,-0.0038575973,-0.0004848182,-0.0014399344,0.0021999333,-0.0010917799,-0.0041090429,-0.0021110738,-0.0018352473,-0.0009965531,-0.0029201107,0.0005509484,0.0011230995,-0.0043763294,0.0026415261,0.0021262046,0.0015257777,0.0020174183,0.0038680829,-0.0007958243,-0.0022098767,0.0002121937,0.0018326254,-0.0010230564,-0.0000692038,-0.0026278209,0.0021239882,0.0002729542,-0.0025536791,-0.0045627547,0.0013956111,0.0024099164,-0.0074470804,-0.0013403553,-0.0012393566,0.0034036683,-0.0000486848,-0.004691464,-0.0010527125,0.0002807303,-0.0005920235,-0.0032238382,-0.0023654019,0.0030883868,0.0000973289,0.0026452389,0.0009248243,-0.0007981401,-0.0020115782,-0.0019467244,-0.0012872365,0.0023072484,0.0009025661,0.002017797,-0.0026282438,0.0009414919,0.004093147,-0.0035514992,0.0018228026,0.0021280342,-0.0025506489,-0.002254595,0.0020718558,0.0011602445,-0.0086710929,-0.0017770775,-0.0019736764,0.0000432422,0.0016704778,-0.0025902945,0.0033998868,0.0012158177,-0.0025115167,0.0008819428,-0.0005790375,0.005457541,0.0017930781,0.0003823421,-0.0003688949,-0.0062248059,-0.0018314158,-0.0031422964,0.0015698647,-0.0046224077,-0.0013616124,0.0018330136,-0.001947723,-0.0006653153,-0.0016619153,0.0024169011,-0.0007913856,-0.0025603633,0.0686086396,-0.0010262074,0.0031877315,-0.0003584224,-0.0012988419,-0.0041917671,0.0021993252,-0.0027726571,0.0001417738,-0.0006306032,0.0030158425,0.0005035079,-0.0012139373,0.0011811987,-0.0015840904,-0.0015688609,0.0022777671,0.0014324338,0.0008881864,0.000977973,-0.0001784236,0.0030941953,0.0022038497,0.0036191364,0.0009126397,0.0000450794,0.0009258446,-0.0015580805,-0.0003125984,0.001159146,-0.0001060875,0.0026228081,-0.0013990481,0.0020454334,-0.0020255868,-0.0014958391,-0.0006706447,-0.0003472545,0.0030662065,-0.0007966951,0.0047779326,0.0013847749,0.0023356874,-0.0000643396,-0.0012215253,0.0010141321,0.0024341626,0.0008615747,0.0015835409,0.0043353796,-0.0010084731,-0.0005864451,-0.0006808229,0.0025285917,-0.0000719158,0.0010630387,0.0006114427,-0.0004123872,-0.0044238223,-0.0016745181,-0.0010159777,0.0011862094,0.0009814591,0.0018418822,-0.001239879,0.0002201429,-0.0045307869,0.0054210412,0.0017321011,-0.0022783954,-0.0008308951,0.0008111938,-0.0031970864,0.0007633899,-0.0004467627,0.0019142821,0.0006878035,-0.0015084812,0.0000258829,-0.0032434739,0.0003502005,0.0005525858,0.0005466117,0.0022670297,0.0043780856,-0.002078431,0.0017098362,0.0015813972,-0.0046298376,0.0038559493,0.0007856534,0.0058476774,0.0010021779,-0.0010256245,0.0030100363,-0.000971156,0.0006537545,-0.0003050672,-0.0004421217,-0.0006374444,-0.0042577882,-0.0011990979,-0.002288527,0.0009014083,0.0047737044,-0.0003733826,0.0002855726,-0.001159605,0.0003829989,0.0067514144,0.0032928017,-0.0005000031,-0.0015848393,-0.0000502221,-0.000863773,-0.0024525257,0.0014937296,0.0005632451,-0.0008602583,-0.0006253004,0.0004636349,0.0029981224,0.1837645152,0.0008120475,0.0010129308,-0.0004748847,0.0005159926,-0.0022574491,0.0019071298,-0.0019879559,-0.0018576038,-0.002501767,0.0010245129,0.001363163,0.0035589121,0.0016799626,-0.0001997219,-0.0010645327,-0.0033700479,-0.0004526607,0.0026457664,-0.0006315371,0.0001085358,0.0004485192,-0.0003875652,-0.0028657182,0.0003337371,0.0029737687,-0.0003536027,-0.0016093858,-0.0006811892,0.0007755918,-0.0004142636,0.0041123087,-0.0023662478,-0.002704009,0.0000760277,-0.0000535757,-0.0026556798,-0.0011237868,0.0032485422,-0.0018730251,0.0056291085,0.0005191689,-0.0024625676,0.0005144804,0.0029524614,-0.0024048347,0.0008334368,-0.0012178893,0.0004749511,-0.0002130111,-0.0022538163,0.002877407,-0.0016102787,-0.0006766718,-0.0000522362,-0.0024392814,0.0012235796,0.003312288,0.0031733787,0.0025122366,0.0018367892,-0.001940784,0.0016987156,-0.0012369913,-0.0032624331,-0.0026572782,0.0022011288,0.0003450343,-0.0012435892,-0.0004443542,0.0010996795,0.0013464313,-0.0028919702,0.0039083025,-0.0013485744,-0.0005156207,0.0005639584,0.0013151175,-0.0041538268,0.0037264475,-0.0027337196,-0.0010442085,0.0015778507,-0.0019027569,-0.0034995302,0.0034451707,-0.0009831994,-0.0004312158,0.0008482591,-0.0006781783,0.0008332594,0.0006219215,0.0036196104,-0.0012298944,-0.0017471825,0.0011319709,0.0000146271,0.0027437432,0.0014841039,-0.0044066255,0.0023523652,0.003287609,-0.004840619,0.0008993567,-0.0015729068,0.001662353,0.0021400723,-0.0045893097,0.0003364293,0.0018902199,-0.0018833635,0.0009061081,-0.0005078409,0.0041225836,0.0053461679,0.0027192016,0.0004970744,-0.0041764026,-0.0012553238,-0.0013418011,-0.0023358244,0.0000724072,0.1533130692,-0.0028378117,-0.002315493,0.0031782489,-0.0035976247,0.0000252514,0.0007162195,0.0029577302,0.0060471488,-0.0007201735,-0.0085986358,0.0021406694,0.0001285582,-0.0010629424,0.0010709681,-0.004438066,-0.0001995303,-0.0005873268,0.0023469456,-0.0023459102,0.0025000943,-0.0033421079,0.0005399217,0.0008281598,-0.0023474935,-0.0015916543,-0.0009471549,0.0038232094,0.0011685769,0.0012422369,-0.0026039745,0.0000298185,-0.0027018398,0.0002221136,-0.0012148722,-0.0018434848,0.002460292,-0.0011002805,-0.0037080828,-0.0017342982,0.0024321236,-0.0012420955,-0.000277288,-0.0021434157,0.0001282301,-0.0051144514,-0.0014602111,0.0002256939,-0.0001280927,-0.0001854399,-0.002780596,0.0012748941,-0.0023464115,-0.0013368531,-0.0001343804,0.0006907087,0.001028733,-0.002988932,0.0002265243,-0.0030079111,0.0003276316,-0.0012549455,-0.0023774562,0.0011831955,0.0004805971,-0.0033837372,0.0033224703,0.0000125251,-0.0033054058,-0.0004979671,-0.001030843,-0.0004576261,0.0014487333,-0.0019249872,0.0006048682,-0.0041714432,0.0001781632,0.004260652,0.0024215486,0.0019471445,0.0022923992,0.0012484826,-0.0039744724,0.0033911493,0.0027610321,0.0010537262,0.0046007501,-0.0015765872,-0.0023343861,0.002174701,0.0021965045,0.0010575776,-0.0013868223,-0.0002986163,-0.0011612885,-0.0020308546,0.0034556987,0.0009453378,-0.0013249365,-0.0018241163,0.0035560163,-0.0010452775,-0.0000956868,0.0035981761,0.0001823359,0.0011869342,-0.0024887652,-0.0010508661,0.0030543107,0.0042609962,0.0027454002,0.0003774126,-0.0028723143,0.0006833606,0.0005947001,0.0002604715,0.0013437881,-0.0007189562,0.0053568804,0.0023825591,-0.0005258955,0.000908436,0.1168156594,-0.0020220057,-0.0014818215,-0.0016769435,0.0004512312,-0.0001371956,0.0007455573,-0.0008304962,0.0030855043,0.0002151397,0.0010290595,-0.0019219955,0.0016499657,-0.001257729,0.0033361699,0.0013561795,-0.0000562944,-0.0005353275,-0.0026025275,0.0019794482,0.0001109812,0.0005776757,-0.0003226978,-0.0012891599,0.0022899886,0.0015400186,-0.0027244811,-0.0003260595,0.0026916557,-0.0003663359,-0.0018804168,0.0015638801,-0.001784433,0.0000152888,0.003048607,-0.0002537638,-0.0028789984,0.0011342273,-0.0030528242,0.0014861574,0.0014365756,0.0001257731,0.0000949896,0.0006032565,0.0040323179,0.0017566106,0.0023641373,-0.0011178696,-0.0024582658,0.0019139993,-0.0037298304,0.0002546734,0.0006037683,0.004009195,-0.003686723,-0.0006921228,0.0003080105,0.0014820036,0.0030254541,0.0056740387,0.0024144487,-0.0009368266,-0.001024542,0.0037538741,-0.0032131019,-0.0040708814,0.0008758932,0.0016665628,0.0039953919,0.0052840771,0.0019544918,0.0002106711,-0.0021587771,0.0020609794,-0.0010380461,0.0032492674,-0.0017708743,0.0035484785,-0.0002649774,-0.0019557193,0.0029716576,-0.0029067797,0.0040186632,-0.0019809955,0.0000960942,0.0037322454,0.0002374458,-0.0004710506,0.0005130867,-0.0000381216,0.0032872318,0.0034928603,-0.001141844,0.0039232453,0.0007025737,-0.000789638,-0.0022742706,0.0023901896,0.0037689956,0.0019412634,-0.0027885342,0.0013318626,-0.0004683069,-0.0004492155,0.0019792007,0.0043352865,0.0011919924,0.0035464703,0.003095611,-0.0013892787,-0.0038936706,0.0001769144,-0.0006726557,-0.002772575,-0.0045378907,-0.0029962004,0.0028707241,-0.0014883622,-0.0018665046,-0.0017469769,0.0034969126,-0.0027788392,0.1128776802,-0.0000184385,-0.0033396822,-0.0016236009,0.0007673007,-0.0021571672,0.0005236442,0.0001106494,-0.0039098931,0.00002687,0.0002582822,0.0007584379,0.0018552713,-0.0015232009,0.0005061773,-0.0022289541,0.0016190229,-0.0018558886,0.0039487012,0.0049531477,-0.000549808,0.0000236701,-0.0016865083,-0.0049508416,0.0011623856,-0.0012754124,-0.0023454696,-0.0018542118,-0.0006275923,0.000524385,-0.0012093514,0.0026216154,-0.0002894583,-0.0005813148,-0.0042795301,-0.001188909,-0.0022732293,0.000411465,0.0024390229,-0.0008145302,0.004341316,-0.0007456084,0.0006012428,-0.0013284762,-0.0003258424,-0.0013753023,-0.0007027863,0.0002917595,-0.0038946557,0.003980815,0.0017479115,-0.0003407441,0.004068617,-0.0011850117,0.0004535177,-0.0012256147,-0.0014166033,-0.0010486593,0.0024087857,0.0000593319,-0.0010700347,0.0014555746,0.0039128782,-0.0010140823,-0.000321209,-0.0001531741,0.0025775569,0.0011274697,-0.0007475245,-0.0017031841,0.0017565407,0.000682531,0.0040443311,0.0011634587,0.0017074019,0.0004819893,-0.0015873102,-0.0026369758,-0.0047417538,0.0025304313,-0.0014841302,0.0021698801,-0.0020780855,0.002067414,-0.0004398792,0.0024469232,0.0040745845,-0.0052374497,0.0006729852,0.0019214962,0.0004053906,-0.00054269,0.0039156709,0.0004160939,0.0064537781,-0.0017262568,-0.0017166551,-0.0031915372,0.0026521133,-0.0006641094,-0.0021862793,-0.0004471868,0.0012684036,0.0034385622,0.0081850572,0.002243213,0.0004900905,0.0025437638,0.0006737157,-0.0019698444,-0.0051460537,-0.005559008,0.0015379116,-0.0010684399,0.0032479629,0.0031049851,0.0010857258,0.004438517,0.0016687514,-0.0029315194,-0.0019108779,0.0008025604,0.1446366142,-0.0001734674,0.002587348,0.000607627,-0.0019499577,-0.0022150729,-0.0032247422,0.0009737063,-0.0075935365,-0.0015126942,0.0049876065,-0.0003336953,-0.0073633683,0.0008651839,0.0008708381,0.0006907777,-0.0013169151,-0.0023330772,-0.0007187611,-0.0022698323,-0.0010594833,-0.0021702414,-0.0013819079,-0.0013526292,0.0012895843,-0.0016944427,-0.0035755218,-0.000632835,0.0009732639,-0.0016668597,-0.0003121461,-0.0002142544,-0.0021839556,-0.0011017798,0.0015447997,-0.0006269374,0.0007015096,0.0015360093,-0.000134939,0.0014955217,0.0007895028,-0.0001922613,0.0014349675,0.0000331549,0.0019945022,0.002542943,0.001707102,-0.000062879,0.0032747557,-0.0001944197,-0.0001771849,0.00311529,0.0007475796,0.002072378,0.0006195316,-0.0037699051,0.0017847608,0.0041207677,-0.0008917319,0.0011912121,0.0011293391,-0.0001621863,-0.0008749352,-0.0005435707,0.0003726351,-0.002956699,0.0017798881,0.0021033064,-0.0001636485,0.0004963305,0.0022106854,-0.0003462947,-0.0022415065,0.0019320002,0.004624783,0.0012363771,-0.0015829144,0.000001041,0.0032027093,-0.0048922394,-0.0018748779,0.0058687365,0.0016457188,0.0016435257,-0.0028082017,-0.0059417149,0.0033862978,-0.0021873421,-0.0030578853,0.0022311762,-0.0017834861,0.0002416294,-0.0046072257,0.0056218971,-0.000113611,-0.0009207953,-0.0003110026,0.0010498873,0.0006889908,-0.0024622567,0.0007272856,0.0016439049,0.0013265437,0.0029599082,0.0008405829,-0.0016498155,0.0016677212,-0.0023371339,0.0036808014,-0.0016729651,0.0008825218,0.0024448265,0.0027880366,0.0002979558,0.0005216318,0.0028565517,0.0023384163,-0.0021797477,-0.0028939639,0.0051567989,-0.0006015431,-0.0019109087,0.1395238176,265044.7302970692,216835.860472401,1184591.2322868262,297799.121093054,-279194.8961306082,1039041.1043583597,-92236.6526300719,-950859.347898867,-316153.5667494156,-227690.6391595004,-514683.5292854271,-3008.1261577024,473896.9695251688,-871752.6496355823,1872242.889289024,767068.5670719132,957657.7932569495,394110.4542579902,-54654.6227177845,-701229.2121738634,548631.1293752701,523297.9138269295,-529010.8796762074,-699644.6851027758,-237538.3120258764,504706.2483794715,-756108.2763144012,-1159158.1720664504,185277.0572784271,153393.4843260636,34908.9905646403,67534.0651073759,299014.5918001723,577821.1626831966,128349.9975082922,-376317.955726335,226747.5037326441,-533222.2297875948,416123.8776620125,-215431.8082162882,-1093864.4409241106,-659185.5164875952,-667052.5820295691,87729.6561778307
