encog,BasicNetwork,java,3.3.0,1,1425320623991
[BASIC]
[BASIC:PARAMS]
[BASIC:NETWORK]
beginTraining=0
connectionLimit=0
contextTargetOffset=0,38,0
contextTargetSize=0,14,0
endTraining=2
hasContext=t
inputCount=11
layerCounts=11,15,26
layerFeedCounts=11,14,11
layerContextCount=0,0,14
layerIndex=0,11,26
output=-0.0869014613,-0.0000851334,0.0766513581,-0.1378893502,0.0000933195,-0.1037253724,-0.293524177,0.4618512468,0.7378417441,1.247144703,-0.0121987619,-13.7783538993,14.7078100629,-13.9413208744,-13.8607069301,13.5303355329,-14.0730015466,-13.6624837822,14.5573127019,-13.3301267917,-13.4491351362,13.0795817447,13.6152348682,14.1619395683,12.2564228898,1,1,0,0,0,0,0,0,0,0,0,1,1,-0.0869014613,-0.0000851334,0.0766513581,-0.1378893502,0.0000933195,-0.1037253724,-0.293524177,0.4618512468,0.7378417441,1.247144703,-0.0121987619,-13.7783538993,14.7078100629,-13.9413208744
outputCount=11
weightIndex=0,165,529
weights=-0.012253983,0.0157576988,0.0358946854,0.0098285448,0.0124396942,0.0103235536,0.0288128255,0.0152474778,-0.0044372138,0.0074353688,0.0195760277,-0.0131484728,0.0033734644,0.0116483567,0.0710920595,-0.0000008872,-0.0000009127,0.0000010624,0.0000025039,-0.0000016436,0.0000003122,0.0000003136,0.0000008374,0.0000011767,0.0000028397,-0.0000014599,0.000000287,0.000001393,0.000002323,0.0000051759,0.0030718577,0.0082151236,-0.0064474242,-0.0044956658,-0.0099086145,-0.0056481076,-0.001110077,-0.0025707913,-0.0011849473,0.0019456256,0.0002176344,0.0050364938,-0.0273456036,-0.0090381602,0.3597839339,-0.0028006472,-0.009016259,0.0028134311,0.0209213136,-0.0034148797,-0.000224399,-0.0020333846,0.0109228465,0.0015979123,-0.0084707508,-0.0069485212,-0.0133486968,0.0236537418,0.0042186317,-0.0650856668,-0.0000003543,-0.000001579,-0.0000002481,-0.0000000098,0.0000002643,-0.0000012758,0.0000005468,0.0000002547,-0.0000002301,-0.0000033391,-0.0000001462,0.0000001687,0.0000022712,0.0000014435,-0.0000079174,0.0013898091,0.0049376787,-0.0051796673,-0.0032017688,-0.0132556882,-0.0061889828,-0.006014522,-0.0091934853,-0.0010021545,0.0077083804,-0.0126408122,0.0104789469,-0.0053316317,-0.0081673236,0.1587105991,0.0106397267,-0.0001014624,0.0040247342,0.0255976096,0.0023004818,0.0013556941,-0.0069554818,-0.0329110843,0.0105899559,-0.0231034316,-0.0110992995,0.0095553767,0.0322264399,-0.0140744393,0.1991304574,0.0006254185,0.0106505892,-0.0038255456,0.0179324997,-0.0108758194,0.0058664332,0.0076540984,0.0104202796,0.014778703,0.0061950923,0.0252208119,0.0127195652,-0.0114779606,0.0114062584,0.4916534789,-0.00114713,-0.0010869302,0.0025353004,-0.0059990485,0.0012008532,-0.0042212718,-0.0096414693,-0.0132315656,-0.0215850578,-0.01595914,0.0012620194,0.0010096494,0.010013651,0.002569608,-0.0304757766,-0.0041378793,0.0114397491,0.0017589559,-0.0204318129,-0.0002531388,-0.0011394636,0.0097643323,0.013812203,-0.0112178795,0.0094866344,0.0208982185,-0.0018416811,0.0025470702,0.0026845204,0.3437386965,0.0020156062,-0.0127496991,0.0093545258,-0.0078003126,0.0253844758,-0.0012079804,0.0086357049,0.0039399838,0.0131497934,-0.0080867256,-0.0059246272,-0.0061634011,-0.0147550565,-0.0021553962,0.3888733556,-675818.4363901312,0.2797694045,-294313.9788271544,973275.0846354378,-0.6392660655,-983278.0287828256,168047.4546835638,419420.614014635,736822.8025159892,-727551.0126180238,613371.6583367118,59756.2761721079,-239046.4012180636,-25213.3908408474,343259.392258563,68751.7389191555,47092.7227598539,184617.0302387522,131052.1500139629,-175777.9994654273,-82845.7600418235,-237618.0541103793,-44866.0307607116,-63876.3801031976,-14143.6138519439,-5622.9921987107,-246145.5890181909,-0.6320596529,-228552.3351755295,-133055.0029637955,-0.0580671711,272250.0622273977,-883389.6928297873,-154548.59947389,607358.6530318558,723734.2397482191,383479.5073273396,-75335.8120080895,36142.24127048,29330.8048726896,-145965.285225748,73579.6617099841,16177.3370295424,117180.9014287488,266211.515492297,138585.5934772547,-256688.9909015356,-113342.4667974862,-59888.1166870535,-54321.2527278823,-118320.2351638169,93892.1759648908,-622298.8397409183,-0.4612783968,-7890.9572894712,1421323.2133996068,0.6105236798,-599536.7786132034,-52594.836235749,531930.1386608175,802983.3655400813,-19644.4169258496,-492251.1423502787,87429.125108278,-172251.3108241858,-787.2272421198,205062.759326576,-133976.9992017751,17842.3745221164,-193878.0094852065,46324.0606810086,89692.9506250414,-142070.34367577,73724.5308934417,62561.8671376572,43782.550061413,-34913.3760088597,-87222.0949524093,-340318.3293262988,0.9996380675,-895961.4368120865,-639429.2324082039,-0.4101808308,950371.2699771998,-40276.9021495581,726104.4074184024,1820150.5024303447,209073.8314387417,353736.8472203526,3503.3127345647,95443.6669579809,2425.1336265656,-12295.2930100416,29124.1275952176,-15610.0227699224,264750.3797480008,393123.9163210975,157298.3130205214,-235924.3270150298,92691.0327499692,-30329.8070969441,-88292.116361575,32052.7047360924,40806.0971221927,-624491.7820791391,-0.8350277691,276325.0355027768,263238.6228074011,-0.7164058948,-469483.0560583275,625376.975623294,-444018.4209565572,-870568.5096307244,364523.7732317252,810515.9347206973,28561.1001280872,114710.2699308313,-17720.6201381554,112846.8982578616,175173.8252319185,19551.1421956573,-74111.189156411,68192.190716801,108595.518941823,-153510.5595194678,-110143.0353028407,-225980.7499175384,-99455.1106355802,-50814.50227115,88834.7783386487,-295684.7889714937,0.6733606205,848295.0711637129,1088710.9169188067,-0.6378983017,-197863.9659948898,-435386.0810578584,721003.9707899706,-1232665.4437309536,-532371.7935367682,-302157.3277429388,42915.706768297,-296133.4059274338,-14334.4377689048,-29358.9570325926,-7765.9328085467,-7708.3944166442,162070.578597756,126621.6999113276,-132992.2186640225,-306070.0351433224,-33870.7668686675,-16451.5519349517,32310.8910246834,19108.0783723578,-47213.5901737553,-270517.4994539142,0.4501955831,478236.7046887181,87799.5141555601,-0.1734362534,-828534.1195238687,255662.9448068811,-126759.3195618055,873336.2921242758,-396652.5059718026,337744.4870858906,-71242.736560235,160725.3025889797,-9339.7283999237,137274.5381127953,159344.2448043114,-9626.6386125969,40260.1593626618,-464775.9123045941,-153006.1270334072,125733.1281734883,51330.707117757,-84498.4523108269,-20570.5852211455,12805.4013697046,-22356.6101570561,406828.7310449097,0.6710510354,-473960.9893249566,-1159193.1105766338,-0.419794407,683775.717180999,-237701.3118306613,1147920.2263277879,891362.2680043378,-542592.6054846413,-477536.2550451827,47335.3173511691,121466.0981597651,-48378.549312455,177068.8365371905,332730.7559874873,12198.2098719469,73948.6181975599,368324.1032043297,-192006.0473855344,-134314.1854037051,-54525.3961722398,161196.058134131,30067.2595944433,-52515.6480357736,35800.6014773629,85498.5075126044,-0.8047377669,540113.7434471832,1177731.3359615842,0.6899913994,52762.6286184503,-934588.2582323166,751163.8466331039,-209539.789646976,-554943.8782807237,-912090.0588063184,-6089.8140538773,-432021.3921496178,-17964.241498442,-247661.1093715964,-20.1906489956,31616.0949652215,-334022.8611767778,-159139.1223044586,-503713.1957574706,150352.4041494742,-131741.1736382073,-78097.7318119544,-2488.9461940567,-30612.327673851,24260.7735374648,-446210.3357395965,0.4275526904,37942.2474521179,-13584.599466975,-0.7500830842,-257602.8069861044,-49942.9814811243,-103036.5206778968,-17817.570885434,-297704.9492467944,694517.1405431613,41250.6155401148,218221.0284742526,20443.8067354558,-3665.2447306572,213400.7828180711,-27423.0881061356,28309.4752990624,-13012.9370945912,-912.2290989953,-69430.0297363377,-195676.4321562373,103704.7749333883,-23443.0810503681,59867.0479296768,-6878.7130378552,139223.241664072,0.4640291712,-1154470.2546755015,-1440850.1267319547,0.0384162234,1804093.8589114384,-100564.4370841463,787710.6247691622,-204841.5711133095,-239044.849205946,539408.908643138,-50262.2944160612,274096.9447561656,3556.5786104204,100199.266037527,-257357.6403960876,46380.4315276555,220917.5676804692,6774.2506200187,-375021.9840528887,128389.7389001928,-44440.7386698265,84273.854621983,6966.271419104,12189.2579402528,-25936.7541120194,-684658.5885750109,0.3943906643,-886051.7129574725,-830425.4914537203,0.1754441453,920352.4600085239,940699.8228123335,1241195.7641740488,-945466.979674475,-634844.5965637466,581486.270053885,-37700.6011444964,-63844.399260609,5910.2408030275,48327.7288638051,-608.2351320285,51240.8112130219,178450.5705524167,-28720.6587846843,-119170.4381929953,-165946.8288127311,-3094.7385078651,182838.2191440866,12502.887709727,-18681.4949797059,25769.1856789805,1328853.92451562,-0.6841588793,993740.4327303625,-792907.9957206951,0.8018527834,280464.9406848474,713488.7392105961,-27206.1011892462,-2141027.7583828876,-844748.7012198053,-907282.5965960004,-5104.0572994565,248659.9267251552,-677.1824174738,177040.3309492143,319430.6259800788,51899.6235920464,-131387.8663406931,-124960.7819299797,-112018.3668029201,-316066.915942167,-104223.6472320014,426172.3154889676,8493.5485555045,2599.409349259,11767.768021138,-262310.9343887189,0.8024799286,-1257380.5157698768,495443.7499202476,-0.9756560451,1194020.8402016938,-597922.2848078748,761571.7126590688,-290418.4580277666,117044.4999623542,612700.3684196938,-31753.5534991675,-36580.8183762137,3630.0556643338,36298.6291040985,304988.9383178273,-22660.1241768616,298130.4697556614,219251.2740425408,-354747.7940129701,-681567.8820010673,63721.932996132,-94440.930470904,2220.0570053839,20678.8089997943,16369.9351712726
biasActivation=0,1,1
[BASIC:ACTIVATION]
"org.encog.engine.network.activation.ActivationLinear"
"org.encog.engine.network.activation.ActivationLOG"
"org.encog.engine.network.activation.ActivationLOG"
