encog,BasicNetwork,java,3.3.0,1,1425330107675
[BASIC]
[BASIC:PARAMS]
[BASIC:NETWORK]
beginTraining=0
connectionLimit=0
contextTargetOffset=0,134,0
contextTargetSize=0,32,0
endTraining=2
hasContext=t
inputCount=50
layerCounts=50,33,83
layerFeedCounts=50,32,50
layerContextCount=0,0,32
layerIndex=0,50,83
output=-0.1804751348,-0.2276403502,-0.0830142032,0.1334292179,0.5837783693,-0.2881030474,0.2788346659,0.4113935986,-0.0294252196,0.1315944052,0.0000563149,0.1300546805,0.1058923545,0.5427487615,-0.062153323,-0.0000470252,-0.2829653937,-0.0594361278,0.0201967052,0.3651418889,-0.1567695877,0.0059416723,0.0753294802,-0.1156985626,0.1760309855,0.0575063347,0.1496101857,-0.1961556648,0.4253144372,0.3060200098,-0.2949770536,0.532103948,-0.0208316192,-0.1580294628,0.0000234855,0.1166101566,0.6860735636,-0.0160884966,0.0508585141,0.1041978714,-0.0565464141,-0.1442741414,-0.1158783867,0.1427325686,0.0303367224,0.3624824508,0.5919177615,0.4548543613,0.6210563415,-0.5120282817,10.8222534658,8.2948290612,10.3401951942,-10.2546735823,8.620533355,9.6987291512,7.3414247932,9.8019735988,-8.3643612849,-9.9305339636,9.7557929059,10.3125122522,9.4583057218,11.5149159752,10.8841732274,-8.2219878258,9.5642383475,-9.3028169114,9.8500002202,8.0777141551,-9.5238762907,8.732790903,8.4660168569,-8.0018514411,9.6362810489,10.8347114112,8.3630961492,10.5742843408,9.1041997404,9.0257170341,-8.2700262495,-10.1885656643,1,0,0,1,0,0,0,0,0,0,0,0,0,0,0,0,0,0,0,0,0,0,0,0,0,1,0,0,1,0,0,0,0,0,1,0,0,0,0,0,0,0,0,0,0,0,0,0,0,0,1,1,-0.1804751348,-0.2276403502,-0.0830142032,0.1334292179,0.5837783693,-0.2881030474,0.2788346659,0.4113935986,-0.0294252196,0.1315944052,0.0000563149,0.1300546805,0.1058923545,0.5427487615,-0.062153323,-0.0000470252,-0.2829653937,-0.0594361278,0.0201967052,0.3651418889,-0.1567695877,0.0059416723,0.0753294802,-0.1156985626,0.1760309855,0.0575063347,0.1496101857,-0.1961556648,0.4253144372,0.3060200098,-0.2949770536,0.532103948
outputCount=50
weightIndex=0,1650,4306
weights=##0
##double#4306
   -0.0026761112,0.0024980028,0.0006727511,0.0000622454,0.0040057262,0.004899873,0.0013876668,0.0010556271,0.0031972292,-0.0008746881,-0.0050658287,-0.0001238603,-0.0023386785,-0.0053396198,0.0013323717,0.004429542,-0.0003422668,0.0021099558,-0.0057450719,0.0055917829,0.0052407907,0.0007183883,-0.001021601,0.0034096037,-0.0019000731,0.0026218345,0.0036853696,-0.0021401754,-0.0033685576,-0.0009748754,0.0004635277,0.0035336587,0.0680464972,-0.0069014129,0.0046418741,0.000105142,0.0121992337,-0.0119345297,0.0006158308,-0.0043421049,-0.0007324972,0.0019903946,-0.0102049947,-0.003335759,-0.0005265684,0.0054920761,-0.006485616,-0.007034069,-0.0049520927,0.006789179,0.0062722623,-0.0059364339,0.0067390612,-0.0025613304,-0.0060079072,0.0030653733,-0.0061208854,-0.0021006321,-0.0098132706,-0.0100728119,0.0032846339,0.0055812301,-0.00749867,-0.0009095537,-0.0027868959,0.1880047633,-0.0019194891,0.0016906458,-0.0064911376,0.0050424003,-0.0084057766,-0.0038330462,0.011444375,0.0009049453,0.0067205281,-0.0045292555,-0.0034775236,0.0036107625,0.0009896672,-0.0059516602,0.0010150194,-0.002697512,0.0054120054,-0.0027520725,-0.0039196365,0.0039360651,0.0052210792,-0.004155651,0.0042013167,0.0096560626,0.0032144775,0.0007200272,0.005915108,-0.0032174775,-0.0171671584,-0.0025533706,0.0032373039,-0.008284501,0.2178287987,0.0069815698,0.0046932764,-0.0053693138,-0.004446297,0.0054813148,-0.0009800903,-0.0036488504,-0.0002583452,-0.004533963,-0.000233301,-0.0041952023,-0.0005238168,-0.0067828308,0.0016502737,0.0070115183,-0.0004150768,-0.0034343531,-0.0006065297,0.0076852925,0.0018774858,0.0020178982,-0.0026649083,-0.0027288802,-0.001319921,-0.0058862109,-0.0034885272,-0.0076148887,0.004985138,-0.007989318,0.0035640874,-0.0045636985,0.0004404821,0.0961259725,-0.0029127629,0.0002409621,0.0039105491,-0.0027338235,0.0015410494,0.0031055373,0.0017918635,0.0011529336,-0.0038062558,-0.0101579222,0.0125105472,-0.0051139703,0.0020542611,-0.0068073762,-0.0083461335,0.001187929,0.0074123285,-0.0016392782,-0.0005019784,-0.0010042849,-0.0017364631,-0.0005159515,-0.0043760481,-0.0045352821,-0.0020083621,-0.0020040881,0.0061698231,0.0063823194,0.0012269445,0.0031135106,-0.0075736447,-0.0118348497,0.0496449004,0.0013123734,0.0036335103,-0.0014923663,-0.0083893602,-0.0006265326,0.0017530433,-0.0092024724,-0.0056301638,0.0005967981,0.0125618171,0.003814609,-0.0031199498,0.0049526518,0.0080621675,-0.0052046091,0.0070365428,-0.0026677637,-0.0068690317,-0.006579559,0.0117200159,0.0058012445,-0.0017242191,-0.0053710401,0.0111220174,-0.0051873253,-0.0074493667,0.0009652723,-0.0049635547,0.0088415249,-0.0008413425,-0.0014261826,0.0033776642,0.0689778988,0.0061716796,-0.0060713367,-0.0030911633,-0.0010324311,-0.0031915709,-0.005539788,-0.0037623385,-0.0001145681,-0.007703445,-0.0118681937,0.001702115,0.0069732056,-0.0047400359,0.0002980585,0.008493048,-0.001059383,-0.0041345311,0.0006966857,-0.0013071488,0.0034532976,0.0025598604,0.0081296504,-0.0002121405,0.0028665581,0.0005356287,-0.0026791579,-0.000812439,-0.0014818101,-0.0095860651,0.0022020888,0.0013280295,-0.0071041609,0.1246617687,0.0096385614,-0.005427797,0.0015634788,0.0074454981,0.0051019225,0.0094502122,-0.0044403837,-0.004211359,0.0031142453,0.0006221193,-0.002424062,0.0029212044,-0.0110078812,-0.0013368114,-0.0011347991,-0.0020908386,-0.0051984956,-0.0033600085,-0.0007591117,0.0005027439,-0.0027121649,-0.006131075,-0.0001122714,-0.004243144,0.0096784542,0.0022053231,0.0080622316,-0.0004156368,0.0041121321,0.0047573558,-0.0088974039,-0.007644905,0.0955016066,-0.0014854975,0.0013712305,-0.0031296248,0.0081102696,0.0053209252,0.0037212759,-0.0048252186,-0.0013945002,-0.0034619271,0.000934761,0.0022853139,-0.0078763489,-0.002487971,0.0003880728,-0.002072488,-0.0033545993,-0.0057488174,0.0090542046,0.0048998468,0.0004802378,-0.0037780854,0.0021483945,0.0070989871,0.0000474559,0.0012235469,-0.0005099772,0.0037837313,-0.0068793743,0.0012605143,0.0028782433,-0.0065927817,0.0034480135,0.0618285914,-0.000155753,0.0077298344,-0.0053616527,-0.0165522267,0.0076754121,-0.0021458265,0.009594009,-0.0039072039,0.0001598299,-0.0013498945,0.0077417169,-0.0016078235,0.0006708772,-0.0052669547,-0.0104374678,-0.0094678712,-0.0024013648,-0.0121670831,-0.0033905036,0.0012984634,-0.0011419853,0.0011338805,-0.0067283521,-0.0011433025,0.0008459501,-0.0041196377,-0.005228354,-0.0014838292,-0.0035596817,-0.0009083612,0.0008504232,0.017063866,0.1735405366,0.0000002339,0.0000022663,0.0000005503,0.0000003915,0.0000008755,-0.0000012006,0.0000003938,0.0000003075,0.0000010717,-0.0000006941,0.000000209,0.0000008325,0.0000004876,-0.0000003631,-0.0000001687,0.0000004798,-0.0000007844,-0.000000936,0.0000016317,0.0000011108,0.0000002889,0.0000003784,-0.000000248,0.0000007158,0.0000005715,0.0000002531,-0.000000206,-0.0000002921,-0.0000012182,0.0000004602,-0.0000012378,-0.0000015854,-0.0000135667,-0.0025758955,-0.0118485869,0.0044801669,0.00391612,-0.0055922138,-0.0007187186,0.0045523379,0.004788211,-0.000383428,-0.0077873856,0.0024594029,0.0005725125,-0.0077391038,0.0090780022,-0.0001507646,-0.007149771,-0.0043109878,-0.0021426875,-0.0023853531,0.0050961989,0.0057810712,0.0056853507,-0.001362503,0.0031783971,-0.0004151184,0.0005361758,-0.0000650324,0.0010285229,0.0006705319,-0.0005531192,0.0056680351,-0.0035517619,0.069394456,-0.0078134675,-0.0043393548,0.0068161929,-0.0021720692,-0.0082500166,0.0006109904,-0.0066278405,0.0060808135,-0.0093994735,-0.0021778107,-0.0040248942,-0.0002444008,-0.0029792583,0.003587712,0.0007275001,-0.0096181381,-0.0048440958,0.0047569689,0.0019093552,-0.0024968042,0.0024466569,0.0074057903,0.0005910042,0.0099327932,0.0014981034,-0.0035143135,0.0043245236,-0.0028713743,-0.0025865669,0.005580302,-0.0052526764,0.0055584268,0.1586079939,0.0000702273,0.0040912156,0.0026338445,0.001578212,0.0058423787,0.007133528,0.0026550288,-0.0012785531,-0.0030687747,0.0062050338,-0.0005618512,0.0046081187,0.0042319204,-0.0080165798,0.0133282018,-0.0108912761,0.0012523002,-0.0036837169,0.005026556,0.0065787485,-0.0054452731,-0.0046504365,-0.0015809325,-0.0031910725,-0.0011957079,-0.0006145356,-0.0137614883,0.0010075795,0.0022437205,-0.0011305312,0.0002865691,0.0031936304,0.1570740577,0.0012026898,0.0008742927,0.0045491621,0.0089384315,0.0016162143,-0.0003163543,-0.0084033817,0.0055788615,0.0054281163,0.0054702265,0.0056244765,0.0017850277,0.0102250901,0.0088419531,-0.010274603,-0.0058414449,0.0040060261,0.0045776041,-0.012389434,-0.0070395005,0.0013896125,-0.0041599469,0.0058205272,0.0038929539,0.0012540648,0.0043224517,-0.0076114369,0.0014191767,-0.0101417345,0.0052681724,0.0013991683,0.0130521691,0.243740691,0.000000844,-0.0000009531,-0.0000022336,0.0000010808,-0.0000004544,0.0000008802,-0.0000020664,0.0000014182,-0.0000002406,0.0000003867,-0.000000203,-0.0000016203,0.0000005057,0.000001128,0.0000011969,-0.0000003194,0.0000006089,-0.0000015175,0.0000000226,-0.0000015082,0.0000016963,-0.0000008935,-0.0000008791,0.0000002975,0.0000002882,-0.0000000199,-0.0000001244,-0.0000010269,0.0000000989,-0.0000003457,-0.0000007227,0.0000002727,0.0000038278,-0.004335559,-0.0059570961,0.000097986,-0.0031811689,-0.0078204216,-0.0175735181,0.0012372982,-0.0004088908,0.0026146993,0.0090332376,-0.0161248919,-0.0013369787,-0.0091403818,-0.006435153,-0.0048256672,0.0000989683,0.0009531367,-0.0049695806,0.0037635867,-0.0066235004,0.0044413223,0.0030296139,0.0086965827,-0.0019162685,0.0090337944,-0.0068910968,0.0042328372,0.0112198273,0.0032377111,-0.0018154097,-0.0016518432,0.0059878004,0.2648696488,-0.001898752,-0.0036656236,-0.0011228276,0.0024849174,-0.0029268087,0.0021408683,-0.0033040642,-0.0044042284,0.0034928662,0.0020627741,0.0057663331,-0.0030781823,0.0077150582,-0.0029187585,-0.0051071144,0.0011655951,0.0032553361,0.0000757975,0.0042662764,0.0063502346,0.0084207402,0.0067352429,-0.0030631907,-0.0044661051,-0.0054628938,-0.0042863466,-0.0007998732,0.0007162625,-0.0001221305,-0.0046350112,-0.0064908991,-0.0032687223,0.0934911665,-0.0013159683,0.0010990277,-0.0030895286,0.008037719,0.0049945589,0.0037714085,-0.0045426466,-0.0004185635,-0.0029258243,0.0008012717,0.0028000868,-0.0076673339,-0.0026507362,0.0010526377,-0.0012097114,-0.0036352981,-0.0056805756,0.00833047,0.0047325094,-0.0002523086,-0.0033039043,0.0022903918,0.0076159167,0.0002523761,0.0015891042,0.0000523821,0.003583266,-0.0060740735,0.0015265643,0.0021966501,-0.0069102226,0.0030028012,0.0604047065,-0.0012979632,0.0003953778,0.0033757336,-0.0088114437,0.0017409923,0.0005296015,-0.0020198914,0.0029817014,0.0020611156,0.0040854588,-0.0045872152,0.0038833998,0.0015251532,-0.0090849269,0.0074601326,-0.0047471754,0.0027253268,0.004311252,0.0005973877,-0.00346524,-0.0020086069,0.0079968321,-0.0008702025,0.0075084525,0.0014341299,0.0035221841,-0.0033071051,0.0029809476,0.0017625527,0.0024758646,-0.0025640604,-0.0029143102,0.1180722654,0.0052710023,-0.0028802193,0.0077236694,0.0072861475,-0.0000788878,0.0012123629,-0.0022198572,-0.0054156771,-0.0018688053,0.0049395374,-0.0093131237,-0.0034406778,-0.0002981106,0.0004201019,0.0064651333,-0.0011749948,-0.010591038,0.0035637837,-0.0075995494,0.0062760323,-0.0044513253,-0.0102423711,-0.0062964186,-0.0000889501,0.0027301516,-0.0008285301,-0.0015417967,-0.0021386762,0.0086279066,0.0001772537,0.0001752734,0.0013710945,0.1526454814,0.0019902789,-0.0050797334,0.0004533704,-0.0014086115,-0.0059859848,0.0019135787,0.0000206608,-0.000221523,0.000224318,-0.0022689267,0.0021540845,-0.0014042039,0.0006655791,0.0004669289,0.0038241401,0.0003151929,0.0020156627,0.0027188846,0.0024145026,-0.0048555233,0.0014585127,-0.0057745194,0.0023062135,0.0005834726,-0.0021294482,-0.0038650291,0.001795818,-0.0000404646,0.0073890327,0.0049065678,0.0046315739,0.0042665667,0.0535146874,0.0010118324,0.0024964487,-0.0004323589,-0.0020492384,0.0079833088,-0.0009753466,-0.0001596818,0.0010366225,0.0038290572,-0.0013216357,-0.0021472016,0.0015642247,0.00907738,0.0034267876,-0.003897134,0.0005453786,-0.0042519622,-0.0051977182,0.0011796184,-0.0025199133,-0.0000526742,0.0031977918,0.0006279859,0.0083120906,-0.0015357185,-0.0045046637,0.0044433536,0.0047505133,0.0038247078,-0.0012534933,0.0063321513,0.0077403886,0.0218362437,0.0035587917,-0.0119917781,0.0065454625,0.0047937219,-0.0101403472,0.0021683227,0.0000689613,0.0024075476,-0.0059324964,-0.0004155859,0.0039494719,-0.0193565829,0.0006016031,0.0091383507,0.0023229665,0.003005346,-0.0036343519,0.0101415174,0.0040483114,-0.0020367723,-0.0031762979,-0.0066881065,0.002751221,0.0142011742,-0.0021422675,0.0018621418,-0.0009511484,-0.0002471251,0.0084898108,0.0083431665,0.0037947027,0.0065336024,0.1454288924,0.0071948397,0.0019162433,-0.0048524732,0.009687262,-0.0057998525,-0.0012144999,0.0088320933,-0.0084147265,0.0018629068,-0.0000890681,0.0033345571,0.0069454584,0.0034716937,0.0029519106,0.0074440503,-0.0053616922,-0.00095068,0.0076479242,0.0034968753,-0.0022196394,0.0082985121,-0.0058390396,0.0048247705,-0.0010747542,0.0021799625,-0.002835664,0.0082930777,-0.0083935308,-0.0045954846,0.0051663098,0.0024391953,-0.0038002452,0.1798943738,-0.0030702907,-0.0012180141,-0.0054640946,-0.0037491374,-0.0000652954,-0.0059562886,0.0081303615,-0.000613915,-0.0009293717,-0.0038341121,0.0023440497,0.0072779627,-0.0058544682,-0.0024206816,-0.0033462015,0.0004393965,-0.0004766779,0.0019970794,0.0027205195,0.0002069933,-0.0016700829,0.0018774049,0.0015856279,-0.0070374473,0.007217114,0.0037216723,0.000753278,0.000330437,0.0042849619,-0.0096528316,0.0025279448,0.0095768378,0.0426221137,-0.0003816053,-0.0047792354,-0.0022251073,-0.0013217181,0.0023621737,-0.0056619634,0.0012908641,0.0026598888,-0.0032115576,-0.0021967397,-0.0003102098,0.0055900864,-0.0020368857,0.0006442812,0.0000275573,0.0005350956,0.0024888536,0.0043613888,0.0047299488,0.004064298,0.0024249505,-0.000423995,0.0022041169,-0.0046292939,0.0024872359,-0.0011242848,0.0069509266,0.000470857,0.0030053052,-0.0075407249,-0.0003453286,0.0025244584,0.0115974544,0.00514528,-0.0023924958,-0.0055110614,0.0008185828,-0.0035447755,-0.0001436797,-0.0024277592,0.0045391585,0.0038305013,-0.0028553561,-0.002633325,0.0036566024,-0.0027426539,0.0052820008,0.0074244267,0.0089274351,0.0027980469,0.0162730048,-0.0003964113,-0.0043580984,-0.0042909242,-0.0063032,-0.0078885177,-0.0012780383,-0.0055024105,-0.0114932011,-0.002890327,-0.0005890171,-0.0035576893,0.0070031666,-0.0016800356,-0.0006111709,0.17952215,-0.003551187,0.0052184376,-0.0010110583,-0.0004712474,0.0019617147,0.0006381294,-0.0052669729,-0.0016267843,-0.0046267423,-0.0035315444,-0.0064886249,0.0039470825,0.00311882,0.0109580877,0.0020069522,0.0038539458,0.0022816544,-0.0093208532,0.003992503,-0.008342072,-0.0117969453,-0.0004339987,0.0005626117,-0.0005875491,-0.0115777129,0.0075141425,0.0053007891,-0.000603936,0.0051409906,-0.0052199013,0.001418444,-0.0060003662,0.0051962968,-0.0102150995,0.0082417671,0.0007244377,-0.0118776811,-0.0011767978,0.0008466304,-0.0088474153,-0.0091293254,-0.0009923562,-0.0029178487,-0.0002225275,0.0043396552,-0.0033684697,-0.00487374,-0.0010625766,-0.0019946685,0.0112991824,-0.0019485045,0.0048589521,-0.0083861516,-0.0084231271,0.0085107895,-0.0077722957,0.002296776,-0.0045798156,0.010168425,-0.0044764159,-0.0005880925,0.0053794036,-0.0064345618,0.0017422247,-0.0051053841,0.151002578,0.0030358092,0.0042967061,0.0040833193,0.0027092221,0.0113288611,-0.004328404,0.0084807788,0.0095147637,0.004019482,-0.0007249485,-0.0069072082,0.0028536021,-0.0072051132,-0.0094350556,-0.0046804176,0.0087278131,-0.0058881641,-0.0081251663,-0.0156482604,-0.0152168825,-0.0005802703,0.0028670878,-0.008480996,-0.0011030453,-0.0049044347,-0.0042455272,0.0014629665,-0.0001681285,-0.0020983039,-0.003065126,-0.0030669809,0.0065682186,0.2360752011,0.01058885,0.003836862,0.0020073389,-0.0058234624,-0.0040366959,-0.0074374883,-0.0042601327,-0.0066475733,-0.0056134288,-0.0029976919,-0.0045673367,-0.0119385537,0.0024339066,0.0062631984,0.0153195834,0.0120660382,-0.0028361672,0.001525914,-0.0022732451,0.0002930604,-0.0065735768,0.0104403198,-0.000339672,-0.002918581,0.0028371128,0.0080353043,0.0025700535,0.0003147675,-0.0077638176,0.0046887204,-0.0016731445,-0.0066701933,0.1312881063,-0.0084193726,0.0051545753,-0.0003846408,-0.0052071849,0.0086497081,-0.0050862024,0.005384039,0.0037129335,-0.0050940428,-0.0007764965,0.00633369,-0.0049516276,0.0021467975,-0.0022701517,-0.0078659511,0.0051828482,0.0005333194,-0.0020120616,-0.007919655,-0.0108153411,0.0052184402,0.001354922,-0.000389581,-0.0063311061,0.0020139301,0.0001785506,-0.0085112216,0.0002874252,-0.0031250699,0.0074594357,0.0040889831,-0.0044600256,0.0783263789,0.0014105695,-0.0087086959,0.0006387645,0.0026956931,0.0068812151,-0.000363325,-0.004867301,-0.0040224681,0.0066824414,0.0047767492,-0.0064460762,0.0008673772,-0.0012653347,0.0055954018,0.0012390653,0.0022023941,0.0019028276,-0.0009884266,0.0055053565,-0.0048932745,-0.0092609386,-0.0065106913,-0.0143618731,-0.0027136294,0.0034776405,-0.0012015107,0.0081100754,-0.0067204001,-0.0101548726,-0.0015753209,-0.0003521709,-0.0064729973,0.0957633905,0.0000015934,0.0000021088,0.0000014809,0.0000006289,-0.0000022824,0.0000012901,-0.0000008679,0.0000009387,0.0000007217,-0.0000004963,0.0000018919,-0.0000004221,-0.0000010805,-0.0000019487,-0.0000025012,-0.0000001863,-0.0000002941,-0.0000018938,0.0000010384,0.0000026097,-0.0000002924,0.0000006162,0.0000005456,-0.0000006843,-0.0000004701,0.0000001148,0.000001718,0.0000008497,-0.000001024,0.0000002407,0.0000021031,0.00000178,-0.0000121903,-0.0001886023,0.0056553133,-0.0003495531,0.0045685064,-0.0142403207,-0.002582983,-0.0002965747,-0.0031784358,-0.0024495769,-0.0006788127,-0.0000278313,-0.000984486,0.009482761,-0.0121158773,0.003055343,0.0002525944,-0.0035330638,-0.0069433958,0.0006352635,0.0073710807,-0.0030538299,-0.0014678188,0.0142137778,-0.0066173495,0.0050892297,-0.0043117748,-0.0012052552,-0.0012101383,-0.0000149064,-0.0045036226,0.0043222199,-0.0012906778,0.1029640253,0.0124367834,0.0045675667,-0.0002176276,0.0010887976,0.0001298875,0.0045132172,-0.003530539,0.0054992475,-0.0066686058,-0.0042446606,-0.0000478953,0.0052515009,-0.0071581252,0.0035314827,0.003738149,0.0029142601,0.0066080077,-0.0020908843,-0.0010339925,0.0038462517,-0.0031480723,-0.0020613685,-0.0044372759,-0.0058920087,0.0012378516,-0.0028989751,-0.010033132,0.0042876974,-0.0071626182,0.0041162749,-0.0121417019,-0.000797188,0.165301666,-0.0102704012,0.0061371109,-0.0000969359,-0.0073155307,-0.0048073581,-0.0030803657,-0.0040130184,-0.0020011155,0.006390118,0.0071500669,0.0075353382,0.0041580957,-0.00704382,-0.0080603954,-0.0000379745,-0.0014141734,0.0027211166,-0.008601956,-0.0004122028,0.001902181,-0.0095944016,-0.0012853674,0.0129846202,0.0008263142,-0.0089417756,-0.0039941707,-0.0018880642,0.0044015971,0.0034863096,-0.0086903358,0.0026409686,-0.0097335236,0.0140490828,0.0015223733,-0.0070462918,-0.0025334885,0.0003121488,-0.0021620058,0.0006488318,0.0118540436,0.0034975302,0.0064470006,-0.002540606,0.004488886,0.0026194951,0.0015651731,0.0008668715,-0.0071864901,0.0018193026,-0.0128714607,-0.0074218544,0.0076738462,-0.0002508314,-0.001751753,0.0076074702,-0.0001486368,0.0002566478,-0.003601742,0.0059965483,-0.0060231601,0.0006328677,0.0042257351,-0.0087257073,0.005016532,0.0032073926,0.0681062738,-0.0025240722,0.0030861083,-0.0000954778,-0.006665892,0.0035853182,-0.0059167008,0.0044658708,0.0031570071,-0.0008184256,-0.0036455057,0.0061565321,-0.0037036919,0.0007915501,-0.004890546,-0.0017106678,-0.0008303723,-0.0030485023,-0.0023372062,-0.0045214524,-0.0042418958,-0.0021876768,0.0005710342,-0.0018915296,-0.0026106273,-0.0043027674,-0.000840082,0.00283498,-0.0013566941,0.000704082,0.0013401177,-0.0044727783,-0.0013950673,0.0240061873,-0.0032967761,-0.003169294,-0.0015247198,-0.0059333372,0.0069920674,0.0037640224,-0.0065631099,-0.0022745458,0.0029367202,0.0011111865,0.0016109077,0.0009655152,0.0082694597,0.0047930078,-0.0083986671,-0.0011885888,0.0008481832,-0.0001818637,-0.0071150579,0.0013319604,0.0063560245,-0.0012578343,0.0000968919,0.0037759342,0.0064159275,-0.0009132214,-0.0035341536,0.0021935541,-0.0049456769,0.0044489834,0.0089836388,0.0035621568,0.1125201016,0.0010231839,-0.0060645166,0.0012381242,0.0047904568,-0.0002969839,0.0045033417,0.0038395909,0.0052816704,0.0047015668,-0.0030273367,-0.0038208039,-0.0058130995,-0.0048616588,-0.0020809158,-0.0022050572,0.0016119954,-0.0008441111,0.0012036047,-0.0038386895,0.0087093391,0.0060304328,0.0021474426,-0.0004891026,0.0067221965,-0.0028510099,0.0088996246,0.0017524197,0.0004761505,-0.0024890045,0.0000277486,0.0051094479,0.0022894369,0.1065767696,-0.0028376984,0.0011555895,0.0008640154,0.0033097055,0.0002368072,-0.0005849325,-0.0031987043,-0.0041957111,-0.0003175027,-0.0045615726,0.0040560706,-0.0043168069,0.0023878145,-0.0023424514,-0.0041812055,-0.0000942654,0.0050399882,0.0047798686,0.0026388539,0.0011216516,0.0056953708,0.0028480174,-0.0024922075,-0.0010381143,-0.0033953074,-0.003252041,0.0008220157,0.0049071222,0.0004547434,-0.0040533686,0.0005659481,-0.0041709871,0.011798367,0.002181759,-0.0042907808,0.0008799141,0.0113915537,0.001785114,-0.0048446486,0.0098224272,0.0071446888,0.0047847387,0.0097657796,-0.0007431677,0.0016452739,0.0101923007,0.009139689,-0.0099339477,0.0016307915,-0.0038137841,-0.0054720682,0.0034474967,-0.0082923928,0.0071976395,0.0051629248,0.0078019111,-0.00413449,-0.0090960775,0.0116048302,-0.0105587542,0.0068219444,-0.004559661,0.0042208469,0.0107821295,-0.0041660063,0.1702034697,-0.0021842006,0.0003160677,-0.0029556738,-0.0094149916,-0.006000738,-0.0063224822,-0.005510353,-0.0043038032,-0.0149592965,0.004750555,-0.0101219108,0.0037521431,-0.0031768841,0.0052305356,0.0014066967,0.0041610907,0.0041029724,0.0078551079,-0.0011389889,0.0049740522,0.0014096883,-0.0037419797,-0.0021026654,0.0080112092,-0.0030592714,0.0022502354,0.0059655044,0.0017192006,0.0102095983,-0.0067210833,-0.0044094353,-0.0015868261,0.1368719721,0.0001715727,0.009934646,0.0038257613,0.0013176114,0.004868726,0.0103981882,0.0006331907,-0.0023089134,-0.0046968582,-0.0004709314,-0.0125106692,-0.0013167085,0.0045546417,-0.0025614479,0.0051661398,-0.0034994577,0.0035048616,-0.0045552777,0.0032457084,0.012076121,-0.0016684644,-0.0056408134,-0.0064289969,-0.008262263,-0.0035780504,0.0065376498,0.0001222718,-0.0086748339,-0.0071687004,-0.0024137257,0.0020923306,0.0073211761,0.1699848294,-0.0023237839,-0.0031973973,0.0024133145,-0.0000405389,0.0028738451,0.0114578946,-0.0004622493,0.0004440723,-0.0050210645,-0.0018556899,0.0053149409,0.0040214629,0.0038019257,0.0020259151,-0.0017377601,0.0039059777,0.0023245635,0.000690257,-0.0038999514,-0.0005679412,0.0022966772,-0.0026544083,0.0028456406,-0.0054960587,0.0085300087,0.004045014,-0.0015196729,0.005516368,-0.0044567209,0.0049425965,-0.0004346725,-0.0079465822,0.0632835622,0.0001015825,0.000342639,0.0090992536,0.001860077,-0.0031524473,0.0022520271,0.0035209589,-0.0017229518,0.0010452832,0.003159328,0.0063226507,-0.0015003524,-0.0001673295,-0.0008958768,-0.0004853543,0.0055286126,0.0002620553,-0.005071458,0.0010249907,0.0034349927,-0.0023567288,0.0037233065,0.0052481704,-0.005485074,0.0043506067,-0.0014489123,0.0046799921,0.0043073414,-0.0011132916,0.0039546036,-0.0056531239,-0.0003032146,0.0116972312,0.0079298777,0.000213871,-0.0014553023,0.0011838921,0.0062948194,-0.0053379909,0.0035248834,0.0009024931,0.0096942553,0.0010794193,0.00442344,0.0079390481,-0.0035759272,-0.001980717,0.0087245973,-0.0065417639,0.0073238004,0.0126749733,0.0073669994,-0.0019618967,0.0013154962,-0.0062720602,0.0136935873,-0.0044403142,-0.0004240404,0.0052807989,0.0055064864,-0.0025029775,0.0120053662,-0.0005404283,0.0015126261,-0.0025616484,0.1143623054,-0.0062781846,0.0059208563,-0.0075016239,0.0012982268,0.0002583528,-0.000002458,0.0142504008,-0.0022555486,0.004871499,0.0149385452,0.0032025069,0.0017130178,0.0002318611,-0.0047273807,-0.0088015796,0.0092890572,-0.0026675258,-0.0024657394,0.0051620962,-0.0017522278,0.0009216788,0.0064867938,-0.0094319221,-0.0068551547,0.0053503589,-0.0041555097,-0.0083878833,-0.00808122,-0.0050716032,0.0021216476,0.0016775144,0.0074664857,0.0866190136,16946.5105556901,6346.1971198743,55071.6787831389,1.2220377394,824.5890398267,14138.1913061123,23872.8365152808,2758.7372869583,-0.5178398405,-16.6946608626,0.6463561086,-0.5630220051,-925.9691419692,0.2916784938,-2.1859257092,-0.8147083147,-0.2930298118,25253.6388586815,-0.4996844018,486.6821512866,0.9469376147,-0.1432958756,12628.9340374211,-0.0061888022,0.4882689335,-126.9100080175,126.8750439026,-20.5024797736,0.8292805905,-5670.3779531584,-0.0564780748,-0.5774151947,-2048.0109293927,900.7374831913,-0.9543828056,-1314.0622041507,1.5041788711,1024.8610978374,0.2255454553,-50.9375321614,2083.84557397,-35.3137827544,0.4808044708,-0.3698526829,-0.90938914,-2499.3829654658,3057.426961148,-31078.4585100902,-1.2318193263,-651.7847641619,-0.043369848,-5287.2522997389,2960.3444685654,-6025.5415790548,-5950.184232828,-1026.4037746601,-8139.1003724364,4180.1788224812,-6943.8839860583,-686.2106559383,-6529.7540903998,413.7672987789,6604.4894115837,3518.0833986043,-3.9638410378,-12456.5008119948,5426.32820444,57.061239795,-1.4836130622,5236.4373483822,11573.4668728863,-6689.6545988399,2365.9822976801,-2379.3034804672,2263.9991963461,-46.139694272,-825.8493735829,3656.4954526576,-1339.3292502248,-4997.7983096063,-1470.0780540807,-0.514911417,-1112.3473397781,39594.0023655976,-2.4220728083,525.1042198733,8823.1398412841,0.7214304696,0.16045508,11351.6209002895,0.550696308,1.045055623,-285.1508202832,0.8716266119,531.6454925768,-59.5616988753,-143.6983564422,-0.8659343613,-0.1894712363,-2749.9363580595,-1.8228835116,-0.6323368079,-22149.0302652079,-1753.4375898009,22.5238483518,11542.0924791659,-0.3508795446,-1060.7515858032,-2114.6783638706,1.2204612509,-16.2195303388,2.2622258765,-120.4794782592,2.3582873768,-14679.0189201376,-0.2458694792,0.1280383254,0.1855785169,8405.9804949662,-4268.0507406241,21013.6611470242,-0.1907365955,-13906.1438896821,9281.1293246608,8118.1468959015,6460.0678288245,-0.4183978843,-7738.6104213041,-167.2176705298,7040.1245582672,4890.6644586955,-0.4986082382,-1031.3411454291,1.656693848,15190.6600221759,3495.184708842,2558.0145953063,1491.866699351,167.70590827,-21636.6657311844,25215.7907925342,-11125.8741830689,1571.1348510342,14399.18739878,4238.1365530008,-1846.9125362801,-4922.9892887943,2348.1633001149,9182.7806496468,2676.3134136305,2682.1877179608,18630.3691734431,-1276.1968704452,-12.5878675084,13916.2221872547,98.4294886382,-0.0336857561,0.1790811746,720.4869763579,0.96423122,721.675153407,2790.4157597442,10361.2013096651,-1559.468852842,4486.361347498,-2.1250021794,1653.3320942653,0.5890163888,106.8608809157,-20239.3368508363,0.6732253626,0.0013667126,-6210.9132123678,0.8317253053,-15006.4073452036,0.1104544345,0.0888206561,-3182.3216261543,0.7155642738,2871.5059875835,1.8804488112,0.4816566319,4.6980605281,-1912.9289522367,-15007.2179712864,661.7038837841,67651.8794193578,34677.0549777492,-2727.4673195748,20731.2398089566,1923.7059862822,0.3367304914,-22049.4517529498,4943.1998138161,0.2679870464,2777.1962549022,-1.2251449967,-31.3048245866,0.6151125826,8344.538308327,-0.5282111128,-5291.4089603381,-4792.3003782284,3577.7463313554,0.3160258243,0.0213718099,0.6514227976,0.3122250509,0.0548971068,-5.7160482605,-0.420069761,-1577.1230786011,0.3624580236,-1179.2507165674,-0.4940694376,-3302.8128675396,0.5116797582,-1623.8290329788,-4210.6639902563,2792.3562277009,25.1489104763,-2546.6055042025,2300.3172253275,-104.3771421083,10645.437708505,11040.6550863051,296.4982675152,-5094.1194430908,-177.3128099435,1193.8406705472,-2701.7089607675,8.7234083459,0.8494173589,-4600.942110986,5608.5480615105,-1383.597977508,2575.0704571497,1677.8533775854,-2918.5809316109,1602.6353649054,1842.9492511553,8146.2873389491,7036.6791152682,-6903.0517412649,10661.5288327958,-5071.2111893022,5.7191927271,-1097.6953292398,-7856.8010999559,11097.9318174838,-3420.5873010627,0.7175268687,6.7839869327,3582.1394810596,19.4418063757,-5188.7071631237,-0.6138004243,-4438.3700425916,0.3187871561,-0.923225608,-0.288225144,39481.9100271294,4596.7184236925,4736.4923037792,0.3221483053,-1.0172025412,2713.3335337159,-4437.914031051,7258.4080592866,-4821.9972890573,-0.753592836,39654.70550162,-7.6006490512,-0.5447180612,0.4888567508,11661.5420507306,-265.0136487786,-1.5505823955,-38433.7976820054,-1.5152620466,-339.0992061112,-13361.8485768487,1084.012322049,-0.8781100337,-7686.4897011703,2127.9606265271,-2973.1752146337,0.0400870727,13321.5224721197,-135.0704438197,7771.2989443993,-5959.2500569223,0.3472568316,-101.8432146876,13966.8246068708,-21.0338733105,5142.366863436,-217.0643415648,-32746.5946430776,94.3073169981,1.6859115101,-3092.6859020954,2626.2114429155,-10.6622675277,959.9244768918,3274.3075011937,10505.823397515,-14936.0467679948,-1736.2639726095,-6201.7712400541,-3981.4323263475,-8304.7437815741,-5227.189250076,-3051.09558031,4001.6844943896,2111.6470263813,-3815.6397990392,5487.9695571876,-198.0864232923,-826.3189771821,5250.0170126092,-938.425781707,1799.2041869906,11028.4828664346,-8866.9003435524,-13468.8421010638,7288.4367501458,2.6740617799,-1145.0534152036,-4024.0868618364,11754.4115508068,10800.9822759519,-1.1366401981,209.7331081376,13787.6697490852,-10986.6013493488,6705.2214351237,200.5606272906,5253.9516524482,-1.1850534273,-2.5521451353,100.5344416027,-0.5993940832,6066.9331388394,-246.3712012866,-5882.7700849738,-898.2049204501,0.8282590373,-3458.0728874822,-0.5879252671,-2.8814630129,-1664.8245942639,-2095.6759843802,16320.1095723514,-788.7528823248,9137.4068577065,2039.2553384038,-12504.9797499804,-7395.0138367161,-9331.9272462991,60628.751826263,156.825322781,0.3660390928,-483.421355349,-0.2186918132,12876.4718399271,-0.3729609175,-9430.9675196313,1264.4255308263,-1463.0236069516,-9843.8005144203,8706.8301010954,0.6892311507,-8845.6647266571,9732.2592273513,-1961.2203808114,0.9440809101,178.0540264581,0.2171783312,-8307.7127538927,0.5827600349,-16853.1896039229,-0.0619009278,4034.8518666911,-405.4831107416,361.3965627065,-4330.3119458101,-1247.1881152367,10457.8695062552,1158.8001761986,7322.321216122,-6774.8901584482,-5812.4870598571,-1127.1394178366,737.4403388061,6563.1594495765,6264.0653680986,355.5042109993
   5491.4874715605,626.5282984181,-338.2198344067,2508.323979847,-6458.1841904994,-2862.245471677,-2177.2768697089,-221.1468440084,-0.4749083168,2127.6497968326,1081.7519924335,-5304.1479570329,-979.54140852,113.154471822,3972.3873154167,-12553.9550297721,345.6889874369,-13004.8006038648,-0.6772807829,4657.7807346928,-0.5329195262,6821.7329898627,-7338.8489348721,-5115.8651776232,-0.4821540261,-57572.2536662829,0.7507615869,-0.2955396397,-1.3763316475,-5014.930311807,-0.755050695,-1945.7588776319,-0.2403317524,-0.018354532,2.6503674168,-57572.6105008704,-0.62912808,2031.2244994392,-0.4088610612,-4.7263568263,-4.0175261208,2367.9389500483,0.8587605862,0.7277049502,-803.4092057386,-0.0628778906,14.548037193,0.7352068461,2750.648726515,-61.644812905,5962.5978398488,0.4907595232,-16027.1725553724,-0.7774442684,225.6389427344,-2.6512606314,-1.7459773566,-1555.9938332295,0.7283030121,34262.8248687721,7103.7788266266,-8.734562166,3.4956698163,0.4754673526,1361.9820798069,-0.3617212067,-1146.9325978491,-0.5470655951,5088.2628004898,-3.8165504461,7117.3567450412,-2036.477442867,11133.3823110879,-4717.0797483758,-3057.1415146878,1123.4324966858,-1165.9120305872,43.9991821877,-3510.7109823358,4014.8172796435,18588.0780535977,-6544.9765112243,-1029.1832772764,4793.6350885579,2527.5240188523,10967.6758302631,2598.9727698271,3356.6828078825,-8973.9536292845,-4474.3774240857,4123.4540521,-1703.2723626917,5097.4261834877,-3298.198543898,574.2159974277,-2616.0105894195,-0.0076371564,-7477.3960714171,11.5345157999,-4689.9704769815,2107.1221925811,2990.7886592734,-3027.2001037603,7121.7004499419,0.3260959574,15103.0347064781,-10668.7825399917,-1945.2000197268,0.5114214936,-6113.3197168137,0.4918666971,0.9736243228,16520.7167201211,5221.8120753496,-0.1258802973,0.771501214,-0.535213364,1695.5758370214,-0.9288059823,-0.7783602484,-13342.5936479964,0.4323012874,5691.2182139228,-2382.3493489503,-0.7541063988,-9618.6351006113,-33.7917694857,0.849880199,-0.208756572,0.8419601259,5.2327137253,-16545.317636542,-908.0409450027,-8689.1588270006,-0.8359948852,-21625.4094115627,10527.6180037139,-79.3487974539,-2302.0056197384,-16108.3280922803,-11.3021138569,-2141.8858986948,-0.4039659271,0.448144805,1682.8933382583,9.5704215773,-1.6903261311,10576.7403128185,-0.0169828545,2.4192386085,-0.1647763203,-7181.8726270579,-65.7383232521,11668.8996572969,2354.14576411,-2443.8764008413,5241.8651289584,6747.8554792769,5973.3615761828,-0.8439930721,1430.6805731765,-604.991217519,-5256.8389858979,9572.4568272837,-3525.9439880311,-4618.9602034117,-4719.3713049027,9263.2230352062,167.1860546805,-5130.2175416561,3077.1984298519,-7528.8184349408,-8218.9997855595,1303.9707100527,1945.1028255341,3416.5201406948,5880.8408230652,-5590.1544942381,-1435.3344171963,-756.1142997692,2281.2574882783,-5180.4965759912,23.411992559,45272.131256314,-0.4553976545,6975.8247190052,-1718.2714104131,5146.5438456923,9830.6783525618,-12367.5782179361,0.5270508079,19379.3282853289,-0.1770253412,-0.8751959735,-23476.7835107496,72794.1445816277,-0.5460584701,1002.8598927978,-0.8029884936,-0.5512471072,-0.0671245123,19378.2292671438,13137.7453921305,-2584.3983762029,0.4297486312,-12664.9001507666,0.7487880337,0.4551281426,-0.475355773,0.1080233082,1.5233250588,125.0769042678,15.7761936603,-55.2660294889,-3716.3438886768,-1.0026493826,-9163.9425044665,-0.7130447029,-4763.1646746294,4.110772247,-74.0890744244,-16467.3548938086,21460.7292853645,-5627.1419878723,-1.8242510268,-1959.658908472,-21232.4956534467,3201.9129072556,8730.995825302,13.166544406,25702.8137594869,1.5123615334,6448.4638420996,0.1009616078,2706.9720749596,-507.5379144914,18609.9908441204,2001.6999330535,7447.4904088005,437.3467988229,-2125.983022132,-2005.4274408545,28499.4078139822,4734.0236647066,-3009.3615573928,-13805.3967978784,-5155.4322861552,-6609.7909689765,-1615.533830204,-6905.6939743995,-493.5210712352,-1739.8783660367,2136.2255906355,-18058.6802127303,-7658.6091789797,-6168.3697547388,4332.7310857639,-211.267179618,1793.1156855493,9739.8484983184,-144.294822102,-3564.0933190028,9009.8466782383,1269.1060538807,-1879.3195848832,1080.9590040017,9229.4516913757,-12819.4802234258,0.6821865113,6320.443171662,-8359.0536719575,709.9859500472,-1237.4979335453,-5065.0074080714,-1482.8213685015,2.5283289103,-0.2829941826,3760.6038683034,202.0505969631,10573.1133929049,265.0945380503,-0.2590739309,1866.7440930351,1150.5742530038,-1483.1444250704,0.1509168832,-4375.173994144,29114.5274299954,4255.5985654096,0.611468015,0.0627346681,0.3984560204,23559.2272886693,-1.2270485418,-0.7795451404,-17589.4990656392,-2006.3620345505,-3564.7497408622,-7189.5437702369,-7289.7053733908,-0.6946461818,22446.4475568534,2.7829216164,-27857.6403737157,-1538.7377842396,-23.7120190658,920.7745064081,1153.8479441258,-28050.5640983012,-0.3200158308,5329.7791127097,27164.4984633931,-1353.9392425415,22105.553099925,0.5500896883,-274.6167827561,-0.2577796495,-22.043726867,2586.389298057,2324.602211628,-134.4015375454,-3994.8120476932,5876.2378288695,3699.0377117047,3284.179778533,-437.6637916794,413.1535876474,4982.6153660519,-1352.7758551189,0.4293373451,2193.3304311496,-4629.9650547098,-18920.635912902,15636.1229653561,9796.4306350031,-8189.4234631835,-7430.6108992812,4871.6406929455,1434.5741235661,1226.387384943,1808.002435427,-3395.2191111283,18962.4970234541,-228.1897442394,2358.7475054036,-990.053324608,-755.4286147524,2080.5075486505,-9153.8655903618,-16477.2898280961,-17797.24497825,-24521.2602920003,-4369.7455847117,-573.6343843286,-2.4466661735,8622.8266807835,-11878.3128281914,8014.0559147539,1779.0781016164,0.9015199655,-16991.3759229734,7498.8463111871,25248.4937099249,2672.9746949544,-0.7809239408,-1000.3130043931,8276.2391503943,8014.445079464,1.137500352,1500.411458324,72303.6671741874,1777.4992146073,48746.0116631464,6632.653297739,43565.6012961632,62402.4372942525,-2361.1673081469,0.7578421425,-0.1149884937,-0.2465190384,3075.1965622889,6118.1596097835,213.5204798694,-0.9086933472,4873.4936073101,-27187.4079404918,-15053.7685084721,-5556.7226166344,20.7051033226,9398.1510064045,-61416.9464195586,26328.2260876275,-3893.1208407265,1.0221251244,-2175.4763258216,13738.6437207755,3600.2534201984,24365.2511940666,-0.6438558685,0.3881329087,-1411.9194946577,-4100.7956659977,-2995.8938780275,10378.8365823855,-5470.2254517491,-3799.7350021958,2110.7361091716,491.9654602225,-1763.9524548344,7176.3881910848,207.6889160397,383.5837648868,-2193.5922969627,12944.0462822992,-6954.4957775336,-913.3445012107,-15.4324387174,-4512.0075571212,3790.3220537204,1578.6109187358,1.7769665792,-15061.2624676272,1199.7176010532,12676.587128887,8.8433442116,2252.7129179422,-366.7273332934,1160.0930997689,11855.1953013578,-4344.7851792426,-5274.9077767348,2225.4086077117,-7216.3422337982,-545.0683957621,-2.2647266433,-6471.8188695347,1110.2926382002,2869.3582006267,3777.2270726853,-4324.4382517986,-0.2923915566,-0.3989200188,-0.6095334098,13.0565765254,0.1237260317,-3160.7510334898,10926.7838478156,0.7794824564,1.0047138417,30.0884529527,-0.0897715361,-0.6261751473,-16107.4777696484,5175.0072275773,8907.9375480561,-1859.0726021801,6740.0682945155,-4002.9778787699,0.7331834397,8669.8131952522,22251.3953346976,0.6214046764,3841.3556641164,-709.3521213264,42160.8288884196,-0.9252174866,0.109395198,5755.1413899666,-3896.0572914636,-12943.6059873553,-937.881865805,66456.283727667,-968.2374962135,0.4943315336,-5617.3390309263,17389.289461123,5545.9520779457,-4107.1857463274,-15244.3732189515,-10420.9551321625,2219.8082560174,-1713.9174831303,0.4156057482,2038.8031500476,7184.9855231975,3555.3185652172,15058.3810740374,-7628.7910807204,3781.5195737514,1.9102820072,2650.8931274254,-5929.9165652674,2240.9892013016,6939.7717832709,-4961.6797628768,-17248.1869064367,21039.9288918152,9438.9739731611,1844.7051914996,10795.0102885637,10908.029473364,-7638.3810801943,-2694.1448662811,89.6390514208,3098.3047125149,8671.1088797851,-8001.9834510146,3945.8274015073,-3316.2252208434,-3.2800881315,3916.2115197266,-2003.483828826,-13.8835078399,68.6954784224,4.7212343609,2738.9542928642,14228.8621932383,1548.9353670709,1292.5896509742,-35250.6784427718,0.2646249553,-7404.6994256013,0.8885437276,-1.7617417466,0.9653963371,0.1102548057,2523.5607185413,-16.4334736698,-24879.8321855574,1411.8099480442,-0.1416537639,1678.3327347009,22.138834103,-3.1775015632,-63059.9446579783,4591.0769122064,46.1545778068,0.9110164509,-2.1308680048,11336.375528036,2.3878711513,21.3030559986,1484.3360323222,0.1333867974,-7.7268626367,0.579891964,4.4950096041,0.7123172291,0.7257668627,-0.2106579988,-2928.1606075859,6379.0053973322,-13479.1432318889,-3077.440310757,-63609.8699171936,11041.3204841718,1.2472591466,22859.9653848772,-0.2579357637,-0.2408025795,1141.423331232,-0.5389910787,4112.7575685794,1.5642293798,4496.0083286761,0.2632564677,6490.8064020643,-1100.3283636355,5804.2884474868,7982.776112389,-14020.6452732146,-7923.7468300599,-1035.2396908121,228.3418691945,1978.8099166707,11182.9499904739,-1762.4397000883,-2501.2844444247,-13375.7545809629,580.9195829757,14225.0613782407,12280.058206721,-3023.2960617743,1881.6570711285,-600.8689676555,-8279.0779404214,-20146.4687179857,8764.9337264173,22.2400362137,-6344.8936010551,5606.2166548163,-1249.6510818858,3925.5650780258,10207.0023093011,5900.7301330279,-3411.2318142174,1078.7646677871,-5508.7029062844,0.3688772095,-14584.3990938375,-104.9237936785,-3086.9065686204,0.5167597901,-0.3959136172,34818.2539388459,-5835.6220814656,-4422.9423899053,-1366.4731324644,-0.213886247,12.3724619651,5671.103955423,3503.6308672376,0.8699277356,-0.3367512926,0.0409398036,-0.2927226416,-4421.8614317173,1.7843390268,-10113.7752782154,684.6829148359,-8474.7181695915,71.6087876916,3442.2051398427,-1.2678609124,39884.3264475838,-0.4622247879,-19.6657887118,0.1406810544,-6879.164882437,12884.6211866821,-709.6618119941,24331.9111238121,0.2869024549,-394.8688145935,-1199.7433207721,1669.3163945459,0.1089298948,4254.552596546,0.0540189157,0.380664046,784.9483317079,-3.1385524606,-3800.9835670726,6399.8926412949,-12913.7293244487,-13880.2860741492,9.6998763057,-7906.2919745764,0.5504516434,784.9961411559,3778.3215437398,-2588.8523817898,1258.0066731586,-744.8415104611,5237.4750710207,-3264.1370963686,7270.5976920722,-4081.2846496284,5625.4251358112,-790.7312622878,8341.6691594103,-1882.8415970706,-7812.5801127823,1.0971414074,-2977.2573874562,-214.1315109288,-98.3025120925,-855.09799148,721.4766347052,-9855.43125242,-2702.605050036,3337.9094918274,-5902.5324361439,213.2899429915,8013.6313431058,-7669.8391474646,-1521.3608227909,-0.8886416517,-12.5844707666,1043.5348659609,17.6523318468,-2814.8923300327,665.3534362847,47273.5693652775,-9.1371448521,0.0608690696,18.0286007556,-234.3741272366,-3.8649859371,-31.2715532298,0.2168151669,0.0921363427,-101.2672174927,-1655.8979415421,3053.999608911,88.3758391285,-0.5912587581,-0.0889261287,5648.7107369393,-32.3217380856,35041.670877632,3288.1841567686,-22596.4782330865,-529.9832311402,-6587.1453443307,-4760.9139743919,6.1464490988,1498.8248991187,-1695.1718313388,-3004.8900058209,-0.4558988508,-2.2450987052,-8.3633541547,1.2604199254,51341.5876593125,0.8568931605,-3298.4997200483,0.1974256586,-929.410922499,0.7087474933,17732.3470597468,16696.2306032832,-35.5299920147,-5118.1818368688,-4.1869434889,0.4983621654,-320.6944519116,22772.5538336043,-52873.1049307256,5.4235800621,-1254.9961066526,-0.1242574534,24715.4047237295,-2656.0216937181,8023.2995663825,3668.6110726734,4.575821288,-9405.0583738316,-723.3054037671,2889.4089791434,3603.1559349064,-5669.1329532607,6162.7623375173,5190.391492449,2978.445415589,72.636227422,6516.6641310053,2363.9774921773,-7.5436135726,4187.5412348511,1380.4546332532,-5526.1899663069,-2835.4225932981,1375.5133628303,3.0017355198,-7043.974108932,-1032.6760391841,1803.2151800171,-5530.341919543,4.779026961,-348.7745255644,-0.3957232778,5135.3718921424,2694.3459568553,3577.7405601417,39506.3081911499,-14469.022193199,8264.3290413377,0.3413091042,-1.238116,-20626.9791472058,1105.4174123886,-2.2876309217,-0.8115018905,-0.185080373,-30985.111710672,-11143.3770418001,0.076387894,-5.6415669378,-0.2039859824,0.3503788612,9.5336237726,-1.0484976223,-814.4648523655,-700.7153612397,0.5050162578,-0.0046492391,-21.1870243413,-37.3715271014,-0.2594079875,-41473.4651918945,62722.9935240038,0.785914558,716.9206538481,0.1134655958,0.9458687689,-4826.9075229601,3.9543663793,-0.0373091952,-12159.5436845983,4336.1346683695,14182.6641272329,3334.6661724078,67.4302476209,0.6229442345,-0.6048534167,70.0589151287,0.1624127654,-12718.5152703564,-2136.8554858185,0.3622061358,-3762.6171544628,-0.0622268293,-0.0128574036,-7.5357455722,25.8481450988,4129.2252620008,-2656.9496708215,-3308.3370600297,7.8710064261,8008.7158867821,2067.6583008218,-2503.3278510002,3839.0150309082,-5183.3706345226,-1.3088139041,-1707.2158936009,-10607.2637349995,727.3159899145,-69.2231933084,-7941.2084911032,-92.7123537052,5120.5647376401,-1125.9975011779,-6120.7468192117,6502.0575354754,1169.8555832895,-2187.3069286065,2185.6728888867,-6074.8029129474,4176.7294179072,5567.2039734513,6039.9739892113,-8473.9969269185,-8398.6439335643,4541.1949422444,2255.391375271,0.8127272285,-1791.0569243809,16256.348982212,21147.0284534135,3.1351452151,-0.2648267663,4711.5599460817,-0.4907097366,-0.5440262006,-3842.1308410234,0.8775108299,0.3544912137,-0.8495916053,49151.906141893,-3352.4189456547,0.4731469166,2062.1501772429,653.7787107083,0.5978140777,-1335.3101060269,5.0530093387,-5207.414426659,-16425.3061752413,-0.4074467386,-10619.9031024051,1828.490434981,56527.25910122,-23239.7940642542,-4070.1448869917,-4.4212530554,-5807.0672988799,-90.7193516309,0.8012586148,8691.3258475623,0.610147432,-2374.2256022714,2.0444692539,1.7136996633,-4.3704968666,3684.0653223827,0.5971412799,-0.1805832089,-20600.52904386,0.4893128121,1.8265332743,0.4189198707,26129.9360375938,-3354.1979389505,5615.1532459435,1457.2904737352,-7.8834167919,3057.6633174513,2450.8476471284,561.4619884933,-1.5494318465,589.2428525865,6364.6389070607,922.7401397941,17700.5152709748,6487.4819585202,-7047.8422639649,0.5001909414,-1090.21417608,-1845.943702747,-595.4380518375,9225.9837780793,4801.9592749557,8648.5481246627,-6877.4922116728,7570.140535568,2699.9019803251,-3064.5021324067,-4149.3167581496,114.3364665177,-1890.8080029875,-2932.1406105482,2389.5438928419,-3135.7721881599,385.2399281586,1574.6544546919,-3668.0966142864,-3355.9200819295,-2737.5522056617,8591.1171918623,-21.6098220669,-0.8654375351,97.039800573,-0.1100657307,-0.4996098226,-9201.9417916946,15778.363866306,0.6841025329,2939.1463696806,-0.6916279466,0.5768560228,-15491.3379306036,-2214.7276551545,-0.5861471046,0.1126581426,-0.5808630771,49.9939082662,-0.0325745724,-41540.2439801265,1241.2719343163,-0.7603836852,-2.1033189347,0.3165086622,2324.1718387863,-4463.1309150267,-43485.7647903952,-4434.2975382518,0.7365134313,-701.7069666708,-5856.7496609141,4.3924667742,0.3556921573,-0.2517230597,0.5536425437,-3612.4581631706,-0.4214003686,-891.2337507313,360.7702356327,-13664.2841154472,-1.0823307699,29169.272532198,11747.6246526828,2095.711056229,-23091.3100960433,0.4494797796,-0.6831673718,705.9922369094,-5.1902489639,0.5347046493,0.1088469263,5364.2500920817,-60.4957737965,-3391.0818798052,-5158.8443044241,-490.1667684421,8834.8387786052,-3166.3184496041,-1494.7287925801,11671.8265565861,-2857.7202794526,6733.0916820977,943.3906540254,1620.6836314204,7346.2755525446,-2.9804616536,102.6514952908,595.8385494856,4378.8870861499,4003.4993460674,-479.7233831251,-1140.2499455528,924.439866773,6459.280247524,2212.4852556915,11976.7977370632,-5908.5171580695,628.3335313079,8805.2679010138,-5955.3243709315,5.7002997703,-6401.3902934968,823.8707145746,29935.7297398578,-2525.5682567957,-3954.3091386303,1111.4483878922,3271.7963633428,-1.8756442733,-38706.3294995794,6308.8290273391,3296.5155350178,8943.3205982135,-0.1155831079,-45638.6610505409,-21740.0919754136,-3003.7515760922,-6.9489534637,-0.0682673736,-1.9784283621,2771.1410854431,3294.7630445256,31480.2701255648,-8457.496780458,-2950.4547165903,0.2581615529,-2740.5497672174,0.4356142579,0.4401382585,0.3769288749,6279.5052931582,-115.3538641486,-2876.8453265767,7827.9028428352,7363.8461147936,0.5445186137,-2118.3284804727,0.3288704305,-1572.2669916503,-4.6603254008,7308.4110100329,51704.6574145901,60861.4792382517,-0.0468325155,11015.890689246,-39436.9209411249,-0.4696493449,-3940.0354519538,605.9954947173,1.008963437,-17433.314635164,7201.648075702,-540.6668970102,3.295916333,672.0415769938,4695.9860770347,-3864.3183440778,184.2923770552,-1246.6950096336,-10565.6283938193,-854.5048656098,-1850.4668771263,-3022.1135530137,5777.5083819339,10448.2961771469,-2484.8096273491,-834.6331851126,-3.670326476,-10728.5798976051,1298.4547219248,-726.1937566773,988.4294085375,-5515.2221547805,-1130.8620205692,-2674.4116243057,2047.7604976868,8955.2662053619,-2669.3992449296,4767.5452015986,-2916.4263833856,4.1054455623,-5025.108998924,-0.6954226987,359.4518964199,-7675.6184388169,1243.0333167745,-47055.7818248317,4371.319132161,-11054.4148159717,3966.284275862,-0.4080214563,-3614.7234844165,4626.9540984252,-251.0483126958,-8679.9721326898,-0.3387582085,-0.0732219465,18364.8866559419,14408.2651931769,-904.3091813268,-8666.9602376191,-0.4752821929,41387.6156064048,24965.9898219281,-8679.6195336788,88.6316982499,75.7907064878,15346.0964609232,-1367.3389106377,743.983376137,4760.0832797815,17174.0423822329,17083.1700981214,-2830.8118555272,-15.9571905668,74.0188104627,511.692146162,-759.8888515635,1667.499503081,0.034961918,0.4140901846,-8183.2835010836,-6.2749822962,-15164.804354312,1.7883612627,-27.7054119006,-0.2366331072,-16487.6252228835,61043.7965365699,371.744279515,-0.8123291015,-3315.5385164957,-0.4472934763,-10431.565661762,6047.5731166433,22774.4817457546,0.9817793191,-2443.9638033853,4.7562156241,4931.4300926847,-3162.868011986,-99.9820100075,2049.5790360448,2958.7841058525,2285.9874407062,5968.972734683,9865.6019525063,13993.1345057582,8715.9937148608,3115.8886635542,-1446.0391241387,3101.3550149734,-1295.0552227253,644.5941783599,9882.235022851,3231.7156622767,598.6924438961,8111.6353416308,16363.8859553416,3447.7154300201,-1498.9769808613,1041.2744944829,7786.6895433981,1704.0192576625,4.4308354528,-6.9658933378,-2249.5822587283,2593.6286273871,-10021.2414135481,1342.7906279705,2831.2745016689,-5.8894542846,-0.9307435741,9185.9994345077,-39667.8964284108,-897.4871494281,317.1896185276,0.8212609346,-5525.9955085238,0.0114051938,-2120.3333132166,-3340.0755935303,0.205039819,-80.0922988169,0.208463454,3268.5358500878,-9621.0449303964,0.9085799958,15576.1099243156,-50.2714605798,-4712.5712137163,21295.1815133595,-5115.3904617997,446.4451900381,41.0026909123,0.0312765091,0.0357016844,-7886.1325430544,533.4730330357,0.1424626035,6483.7468467139,-0.7130435239,-138.3002069285,-0.9004264181,20143.7248157945,0.1288491251,47129.7070064827,-0.1331244896,-1.1706959482,-0.0151968327,14000.8375930931,47193.3588869062,0.8085946062,-2844.451399205,-100.0286620162,-0.4735075237,5687.2080130197,4709.6889184257,-3001.0233354426,34.2015134574,-757.4801703726,-1038.7688338811,-4492.9826889601,-4.0483835234,-333.1225421191,-3599.1954120907,-2509.2383662671,-2817.4012399136,7626.9553679023,-9905.2968918616,-3498.8307828114,-6402.9980084609,-0.0900329586,16281.5156936063,6590.8825973157,-6471.9735345872,1037.401773305,-9.1621959828,-12484.4545306574,-13507.6828156061,5689.9549688508,7821.4765839439,3.6050946452,-13160.8163703726,9845.4760954858,-3496.240464916,10299.3825791187,6435.1703770902,1052.8582602821,-2.2880023351,-14679.2412221161,-3492.6929716025,-9585.8046596394,-1.0791980013,-38.0369389396,7.4303395431,0.0785461047,4.9858319144,-2837.0952369999,-0.4466451248,3005.7751234019,-0.0557734389,0.2048539535,1929.065790654,1013.3865244296,70.4329697217,2.1911040379,0.5603664336,-1.5255422785,-0.1931606568,3006.4266457597,-715.3953559587,-18847.2632882853,-20690.6232374734,2028.3831041362,0.9124524121,-547.5710831205,0.0371521947,49694.8546348704,0.1508717105,-0.5198169746,-0.1353487395,-517.0735381743,0.4551985463,-16968.1236395471,-124.8065078796,-0.584306243,-7546.9898813224,8641.6038491126,-7875.9811167682,-0.7840715103,-4900.758897406,0.1510584741,-0.5342378819,-2971.7907891005,-1.7493851133,2034.7972790448,-322.2257119289,0.9862523546,10426.1514901892,2154.3961876995,-47.2695852095,0.6355168311,-7698.2174429412,-3212.4338219202,-3436.8049974752,-430.8950209482,-3834.2919534338,3090.4010526727,-3625.7786750933,9179.768501154,-4197.0776014359,159.3212289603,1835.8713764068,-5227.7367215813,2689.4277257938,-16006.886632136,8848.9779136549,-6954.6231105649,-1889.5784339454,4157.9600274348,-617.4738955384,-656.0704968067,3238.1322137125,-827.885841818,-30.6783757966,9835.0276432501,-10836.2349669252,-1593.5539496142,-11346.5666774471,-1723.2283972512,935.7770251438,5916.1332390062,-1634.3851963532,932.71581405,-15591.943467018,16290.6635666363,2737.9629636434,-7178.3900559689,0.4889953684,-3818.1401731512,27129.992331778,-153.9823152166,11.343185167,-0.6218424209,0.6493994202,52846.3750407959,13212.7934676093,8.2811248439,13.2129740865,-0.1401521523,9134.8695251972,-69284.6506303632,11.2874895787,-28180.1762485957,88.4737783722,-2379.8771910811,-29.0914111234,6029.608654492,-6507.2591603478,48400.641434184,42363.8934242971,204.3908365114,-1.2008381504,0.2997968362,0.8806515889,-18374.0592826667,5.8868600987,-1954.2587266218,0.6629587739,-1960.08501684,0.6450447593,-13612.1549562399,-2334.0223401819,-4274.178314451,-0.7137329332,1.6668377316,1.0859456811,0.2001466189,-0.1150424853,-4520.8300652249,0.6051685248,163.0700915568,-7.6251080949,0.1009475813,0.3786563037,18186.9136131977,-727.7799655427,-395.3911022685,1930.5415428878,-1958.364806796,-9242.7382065474,-961.0841986401,-5601.0021543908,-3405.29022859,2519.0313653444,76.5510842741,-1099.9465810696,11387.8801825447,-1829.9317613324,-1.2288423468,5839.1301398739,-2187.9559033518,-2489.2911038034,10103.515831389,21081.2433393357,-4523.1563357404,3486.8396910691,1167.8605970195,5495.0700632318,0.470257124,-4631.7490979005,12616.3885814425,10285.4502940251,-28.8782803813,-11621.1365803772,7026.4245267135,-5.4918381517,13056.701350196,-0.4844302303,-8992.6765084109,-16315.7605248719,-1.0715498409,-0.6643667028,8101.06681241,-22.5283604494,855.7836238246,-997.2972364208,0.1360639774,-20415.0895597896,181.1492101297,-2287.1004046846,16.1079519439,0.9493484248,0.2245445666,-0.5129517528,855.275363755,6.0139847932,117.51252173,0.3786339434,70616.0219611796,-15052.651915457,5343.4809013597,-0.419090904,-0.3032318183,6537.5085085848,5753.0407073672,-0.0534532367,2795.7401270262,7999.0782741976,-0.461725145,-4756.7215826978,0.0766535785,29692.8623987752,-6795.2954654003,-14291.7581581519,-0.8616246259,44558.9041738378,2758.3397790802,-7785.3809601558,-8189.2257616025,0.6268311352,-0.8366097008,724.9678717648,-1.6303732506,1332.0309026354,2611.3479789497,-0.3390564176,-0.3377343387,-2181.3419111232,-160.6418633122,2854.7945350947,-4454.3223707446,4666.0682358416,-2635.2427080389,3813.1742776705,11918.1932343734,9331.1430531193,-6432.5509307829,-5.282433868,3305.3204053862,7299.1789990048,-3.7241766247,-332.7754959142,-4111.5068975343,-4822.9577525495,2824.8943960611,9.4209522401,-4379.7019224548,-4397.0623204147,3157.0851158557,-8217.438822843,-2398.9268552537,-10.2270747965,-1267.4153670993,-2619.0392448752,1210.5404724344,0.891331844,1924.1467896168,-3254.2649017442,2633.452619198,21632.470679848,-4809.1700373231,-1775.4619645815,-10686.8260721986,-0.9446814365,0.5232408886,38653.8159740122,-0.8583883656,0.58192561,8912.0417069966,-0.1830875999,0.2472813731,-225.1561722849,0.4871818418,-2493.8105850559,0.3651518988,-12831.8227671899,3.959831987,-0.4261516418,26543.0424334377,-51797.8952257692,-0.3583284398,-2730.7722811738,-0.502738634,-0.1353109355,4224.5596957509,5242.2344847259,30522.7708173442,-9589.3048927085,2141.2732085625,7084.1843705113,-265.7073060473,9508.764716488,-46680.7548263836,0.407272652,8803.6669752969,6406.4679013326,6590.547741307,5594.3158942903,69420.7662852198,3947.3908604045,0.5226253533,-22736.4604895703,-1435.8635627042,-0.6592761426,-22308.2539223762,37581.7107543226,-4732.3682715976,0.4081600256,11.5779924717,-15.0492510319,-5303.2249978161,25.6066243487,446.1386397072,8085.6133101928,21.2255301569,-4358.8971286345,6181.6576850562,-5612.7194318748,-4124.2875049214,10355.8093267786,7114.0403405982,-4904.1387303343,-6769.2030471534,408.4623767382,1437.1719564871,-22.4552851286,-26.6683969942,-8855.5138474128,-5434.5431505219,-3168.7731053909,-0.6459585769,-8.4171280426,2484.0037556106,3476.8320722263,4346.3940785118,837.7869590046,-633.7207774294,16289.2838691148,535.3721285991,-306.8867632819,-4235.9026263694,36.8198361469,-20106.386185286,-572.3206566018,-2670.2236985025,0.1513303397,-7745.7141976678,-0.5071811824,-9569.2452914444,-3112.2855380666,1948.463710635,-0.4263062375,0.4853464894,-10749.8761403847,-10431.3192818694,2553.9431066337,-2.6987662679,0.5987063123,-4.2622323759,-1514.4294757867,1947.813491936,1036.3526156424,515.0848410969,-11178.6589147556,2010.0615415789,-968.0230021858,389.9319230537,-1431.6804853484,-34495.9144108966,0.4885073847,3.3265537695,1.0428809395,-0.3658507757,47592.3695453423,0.4840589453,-0.137529601,-0.3717329292,2676.9896338482,-1.6710992694,250.2965958519,0.254383534,-7.5415986296,-25792.6976761451,0.3808376451,-1732.377209914,0.627199171,4.7131201299,1059.202300904,-60257.7756170733,-18928.7024772354,864.1331621157,2217.1429638011,-0.3590509069,7267.9015401838,-3630.6455813598,10760.0046524125,10285.397561815,-6847.537245225,-11880.1710662283,7529.109236568,5395.3985697556,8514.0349823466,8440.4356206683,5592.6601801658,-7305.6487176885,-856.5639971164,-3163.6813031246,-200.9305174826,9243.2174568493,-6606.3724065823,-80.2926188883,-1.0761967487,2254.9761840227,2846.6760497095,1770.1918010385,1209.0550233361,3382.2797696972,8083.7117681094,-3111.2392188756,6044.0734985434,-2287.8116568402,-310.1412813449,1920.9580034484,6373.4097631044,-7197.8093156464,-44925.2983183032,-6440.3802149721,-7243.9467499205,764.2423689982,0.4533124616,-62.0528988672,2932.0953916448,40622.1499591558,-19175.7239156857,1.8593941612,-0.7875265626,4735.8942038589,171.5498436282,-0.4121415051,-970.4946846917,-0.628060228,16315.6058846465,-0.231522714,-19174.7505014189,582.9528612172,2933.8374632254,17.0616001253,1302.3011557278,0.4945084736,5325.3753987843,-0.3500090533,-4898.0865618584,-0.4544883209,7.0942987912,3376.6520463341,-0.0534088175,-2311.951394021,-1.1954596543,64141.6533617249,0.155842834,-59503.6909499404,219.0538078744,-1289.6260781026,-1.0115205585,-3680.1872365007,1502.9605435453,-2.5037025609,1.1358232168,31.1626536232,-758.6853230312,-8579.2330132411,5.3293154564,-13565.9765844959,-1.9146686249,-0.9704372746,-0.0173317945,-11203.5420473679,-723.5401326328,-10847.5741120689,-6111.4387661615,1765.6390729434,-1424.2548452734,-5285.0435668324,5081.4828346897,-5854.187319023,5970.6005100093,12923.9353435463,4289.4622473588,-7.536525841,4191.1999937946,5823.3861547083,1637.3045930766,2389.2452517016,-3493.0246292822,363.2245985903,-4165.0835305762,3794.3420925451,-1.2593642005,17.9192258503,-8500.0640236839,2833.2983866046,1170.2690603684,-3609.2973339603,1.5200040138,-2429.7657602297,850.3412098496,84.5443295823,3379.4799003211,-22274.2311552874,653.2498996658,276.8382201877,20535.5432623879,-1296.9315454632,-0.7847673326,2344.8666497362,48172.4368804548,2.8009420254,-2.3708579964,-0.635442495,-1.9894988571,-8112.4109935298,2183.5985886122,-17.0539294579,0.1379323139,-742.2918832102,-3813.2238700289,2.8620319584,16.881467092,36742.4700765477,-8146.9158229066,9092.2885889502,-2152.4877124224,-196.4679330253,-0.1281700829,-2.7444396145,-0.5549284668,830.8956950037,2.9421652604,377.0930974496,1268.4543882785,-3773.7117410125,637.916903796,0.6125916869,-6222.1985782226,41699.3162333542,532.2245156426,3861.0039532191,-1665.7391159912,-6178.514054512,-4458.597272743,-34415.2387735805,3194.5094517302,4.7454646639,-6614.7413049425,2015.4601086276,10551.8994415647,0.1291406463,0.2735901983,-0.3292292405,647.7562847923,-2949.5451564144,657.6865714495,7065.4073212422,12602.0339022222,7417.8562449267,1684.6722499187,-10673.1122177004,-5395.915403464,-2560.6185798566,-6743.2990198275,1960.6668321584,396.6944851124,5322.4305039997,4821.4038103489,-519.7138452374,-5800.5592384634,-4390.0769422686,7984.0615661236,-3084.5748478214,-9582.9821687661,-5783.8535507867,0.3085972578,-378.5149925535,7681.3851843154,2434.5430004699,-5003.9172169331,-3102.5226527497,-378.6496732552,-3660.4833720195,1226.0851426194,-0.1738118441,-236.3101744696,2220.3584773798,29809.6811094036,-31319.5989620919,-253.2633219958,0.6402413214,244.4407671588,-3630.5435305858,6.9088445755,2569.8033559854,0.5498543743,28975.9655473811,69.1316313569,-2558.104746386,1.0448707262,-0.3904129814,-1230.2929782411,-0.6978879659,6.790409897,-2064.8105671346,5718.3549250455,0.8610926232,-3851.9287788162,10352.1797597721,606.857823991,0.1530437532,-15718.6870807456,-15384.7098152812,-0.2517319548,1572.3503030394,-38391.448130899,-5278.1909133685,0.9322118449,-2682.9680309175,0.0495716005,29292.4744313674,-64037.3883305673,-6857.2923127214,-2141.391721377,434.1363302976,78.8630831245,-0.9762619506,-1057.4822341504,0.8253281654,0.7384146645,10043.401877828,2.0176105493,2907.4687915822,1270.0764437801,1559.2630356535,0.8578743044,9087.0589362432,1956.683706808,20507.3594504475,3178.1427265383,8639.3605083039,-8896.3578943149,6152.9535476653,-7651.5385866949,-4196.979343969,895.781411523,-2136.0576053609,-5733.3436050533,1871.5843171408,4111.9854882848,1149.6958252225,7405.0939808921,-11864.8632073968,3596.6676870675,-3140.8995483959,1127.582839409,8950.5196081012,-4290.4671979399,-1511.5703431558,-11409.5950812048,16285.0937782482,-5150.563595436,15431.1747340362,-1933.2207131542,-10039.1435692559,9512.4666100343,768.0409405664,-2007.9810103114,2225.8491850828,-11448.8916782863,-5481.5378693933,-44134.4953306986,-245.3237982349,-0.1867278002,-5666.3765210853,3657.7282440795,4474.1939880712,-12196.5679958878,0.6409966098,4346.7058676235,3407.6306904299,-1727.8640168317,-0.5788276255,-0.5656725231,0.377097258,-0.2170205581,4474.1995948091,1038.6203322086,0.847702656,7696.6469354877,-171.6186887789,-2967.9582853636,18347.6372753537,-774.6796544767,-2084.2593893746,3529.899246324,606.7580001439,-0.6870856713,4947.4110067187,2.3841776891,3238.7962798766,-8317.2300600113,0.5861579298,-9279.1154438444,-43143.531680505,1.0425466667,37885.436998649,4544.5103357097,39.7158169364,8912.1168212928,-0.0195752248,38275.3211649413,0.0627421427,-2398.6268489943,1620.6802148513,9125.2480457412,24747.840394586,-1012.6291600614,1.4908147702,53.2137693855,-5202.3122973957,-770.1172229945,-0.0703077914,-8631.2911056199,4991.6690479788,3811.907548009,-11359.006657083,3824.0531484151,2274.5636884974,-17419.3297885126,-566.2669816851,4418.9135516306,741.7385264214,7390.3068131653,0.8113869955,-3368.3703096875,-6462.8903108779,3009.3585271318,9929.2773582688,2444.9312713247,6154.3444551056,-137.2780285063,4371.6341744868,2038.270480164,-446.2331989367,-3391.0479968455,-2827.3188702879,3801.3255281139,-1264.426546084,-10941.7433270383,-2046.5935868352,-22624.6174470063,4860.3379391678,7522.3535992226,36.7685331544,651.1710724942,5491.5746565396,-4530.1153248253,-46980.3526786869,-0.3071484241,91.8266131178,0.0500049621,-27666.4977748766,-1.2836713903,3176.8765830738,361.3300234821,-0.6279461986,-696.7555885175,4169.7683776134,-0.0360033946,-0.2814996076,-9411.3176544544,-196.4129730011,128.9543021916,0.1049503508,-4069.0794209154,0.5407216,-767.7150059964,-1068.8018150796,4492.5541107114,2413.2636029915,-2985.7074100194,7.9254496995,0.2149424887,-1725.1305482147,-0.8351506199,10596.467793239,-1.1144179549,-0.2733007173,-0.5345071261
   18958.5452923464,-26543.7741471161,-10942.6637343432,97.5018021786,0.4120200226,0.8429135694,6.4731730683,-35405.7955722395,-18881.5172664572,-38.6983747217,-0.7447632852,-0.2363929729,-4890.1261584985,6016.4097391278,-1019.8980981984,7710.6417679894,-9583.4848113501,16510.3488488735,4894.1269200807,1.017950493,-2632.6630742493,-6751.3095976423,14.5389811838,-10030.6754463135,10245.8714648986,-4123.1074673914,16326.2330101664,-24.0478708195,-45.4494488139,-4373.1467589798,-1.4722849361,-16285.4537298916,-9689.6630229525,3576.0203477633,6819.9165805504,3574.7453869833,1.5656117044,5372.8768668004,-3127.4635738592,3586.4339295649,8766.0948071669,-7689.282121323,-10836.8101005802,-6868.3565517753,-1772.9169327875,-2173.4551006524,-20411.1216675348,-115.955816667,-4369.4513450051,795.980742585,27234.9337671502,-19.9498065281,33.1060081965,-76.3909402082,0.7556354641,1119.1201274809,55510.0736051843,-0.6498112957,0.1506968001,-0.4703841556,7349.8478231429,-103.2938546473,33.9012939872,8820.1052298201,-7626.8974697253,12632.6427771544,-41.6341976402,0.7552278711,0.3975774864,-2472.7663931087,-3.4547977118,24.0306935143,-1.1655113615,-0.0590001619,-4945.4373450903,4154.879363204,1.2838537998,14767.9033589686,0.1103827491,14213.4090347276,44.3753177469,-14644.849853679,-0.1658726328,-0.3969497757,1.7727234509,-4165.1950106658,-15267.3205061171,-955.6434385838,-0.8195030128,38.2489631668,-0.1813324304,2344.9001355094,-3087.2764698085,8507.7274722587,1.7601691773,5033.1784533916,18523.8301100818,-10514.4871301374,-1243.8894320554,-6122.642117153,-4372.1458876308,1135.969772069,2992.5267157114,1370.4438224403,1827.943391155,2743.0304289048,2507.9725706533,14213.4763264704,3069.753178016,-529.802105394,-10395.2108933825,6340.1297235213,11961.6374854515,70.0171648987,8918.7830706919,12138.4890838796,-4.8019081727,5159.8551454603,-2126.7677645283,-4.6803476328,-16456.8050391096,-6841.6819214693,-0.7119881263,1748.281576368,-2938.5057111889,-1194.8975695925,7662.1652889734,3585.1390882477,-150.293299112,9321.318265875,-29239.2746423073,23507.8353877082,5547.318287455,18999.0141533861,-1.2167133172,2425.3266004251,4041.0635440785,0.7144472652,-17665.2784124906,0.0709658339,1855.8925225018,-2040.4739382555,0.3932417431,-15.3872920912,13760.187919378,2424.9904127083,0.1729650935,-826.8406351823,-10443.697022333,-2.0510229543,-1546.3091084312,3920.2448848281,0.6522041858,0.3961744692,-32011.24354323,-0.097388122,-10.7146418038,12503.3114377783,2.5483462373,21705.6216050378,-5956.0016594514,-0.974970061,2781.903252017,-3676.4075365834,-10603.1750433909,-1263.6416445706,20902.4359039419,-1.3150434095,-8684.3166378928,32308.3988405968,-17399.5713926746,1408.4726514739,-1161.8714021761,-75.8529889725,-11463.9998856802,-3324.5077119485,3149.1010753023,-0.3385075563,-8377.2552906814,2763.1916854269,649.3758206224,2439.7117259745,-5322.1266688478,3729.0802142756,-7124.3013497412,3191.8410822755,315.4914438957,-7115.4745848101,3246.4129365881,1821.1155006732,-9059.7343217043,3.5693289434,-6705.0368030948,0.3877111716,-5938.3066499041,8383.9752709584,-4336.8565732855,4547.4973702692,-3381.5673213423,-5.9338487596,-2171.4309556394,-5520.2709653015,-1869.368027506,-5365.9055529178,6089.3223564305,-1.2401646623,-6186.6082007545,1768.1401964535,1588.7377448889,-1770.6931041935
##end
biasActivation=0,1,1
[BASIC:ACTIVATION]
"org.encog.engine.network.activation.ActivationLinear"
"org.encog.engine.network.activation.ActivationLOG"
"org.encog.engine.network.activation.ActivationLOG"
