encog,BasicNetwork,java,3.3.0,1,1425324292304
[BASIC]
[BASIC:PARAMS]
[BASIC:NETWORK]
beginTraining=0
connectionLimit=0
contextTargetOffset=0,40,0
contextTargetSize=0,16,0
endTraining=2
hasContext=t
inputCount=11
layerCounts=11,17,28
layerFeedCounts=11,16,11
layerContextCount=0,0,16
layerIndex=0,11,28
output=0.1408310987,0.0000706853,-0.1629277348,0.4093988924,0.0000065335,-0.1787361537,0.2967750719,0.1839994466,0.7793061367,0.6149574068,0.1044290866,12.501478204,14.1770887505,14.6102956875,11.8233729024,-14.7685449543,-11.0225395858,14.1385758095,-14.0689990688,-13.425796846,-14.5371217131,13.4731899937,12.267005674,-13.7109557402,13.6805740102,-14.6397040437,12.9447326602,1,1,0,0,0,0,0,0,0,0,0,1,1,0.1408310987,0.0000706853,-0.1629277348,0.4093988924,0.0000065335,-0.1787361537,0.2967750719,0.1839994466,0.7793061367,0.6149574068,0.1044290866,12.501478204,14.1770887505,14.6102956875,11.8233729024,-14.7685449543
outputCount=11
weightIndex=0,187,635
weights=0.000708887,-0.01144417,0.0347601384,-0.0027184792,0.0313892706,-0.0063906536,0.0004270763,-0.0059063998,0.0164305734,-0.0012557147,-0.0008649236,0.0104582935,0.0168799948,-0.0026215733,-0.0025902007,0.0102419277,0.3050040064,0.0000007433,0.0000009238,-0.0000021417,-0.0000000849,-0.0000007145,-0.0000005809,-0.0000024516,-0.0000008746,-0.0000011507,-0.000000886,-0.0000001376,-0.000000042,-0.0000019714,0.0000015441,-0.0000006296,0.0000012119,-0.0000130243,-0.01237179,-0.0048905776,-0.0304413289,0.0258091693,-0.0246029921,0.0223501977,0.0068284106,0.0197513521,0.004667034,0.0145734241,0.0042022391,-0.0116553003,-0.0094941153,0.0125170045,-0.0095796167,-0.0163400907,0.3957552754,-0.0063732943,0.0003763126,0.0001519105,0.0236774514,0.0008864164,0.0130931439,-0.0003072272,0.0033823959,0.0049718923,-0.0096967946,-0.0077927469,0.0194614603,0.0021534946,-0.000917639,-0.0098065382,-0.0081289891,0.2067046551,-0.0000017002,-0.0000001664,0.0000007901,-0.0000002832,0.0000006672,0.0000000556,0.0000007426,-0.0000012152,-0.000000327,-0.0000018216,-0.0000012708,-0.000001157,-0.0000010173,0.0000014377,0.0000006514,-0.0000016606,0.0000026817,-0.0008994528,-0.0122173324,-0.0115787089,0.0006471748,-0.0059096919,-0.0081244745,0.0064671469,0.005909185,-0.01773871,0.0000821369,-0.0097108841,-0.0096521619,-0.0013532055,0.0033295389,-0.0043824594,-0.0077610756,-0.0334178836,-0.0141721996,-0.006392876,0.0108028879,-0.0143188126,0.0063719541,0.0066459937,-0.0006127418,-0.0065540468,-0.0149239188,-0.0149915384,-0.0126071673,0.0057905753,-0.0181269517,-0.0004362867,0.0062784592,-0.0053243804,0.2586535036,-0.0075071713,0.0079924509,-0.0125765527,-0.0100970845,-0.0142364523,0.001275839,0.001657358,0.0169346669,-0.0219363297,0.0131426891,0.0176237531,-0.007532428,0.0073916653,-0.0030700012,-0.0171638697,0.0029852956,0.0912263566,0.0033302291,0.0012884306,0.0034327711,0.0036226252,0.0027378788,-0.013364931,0.0030164615,-0.0142279312,0.0066122737,-0.0054870789,0.0025231679,-0.0059317437,-0.0011555912,0.0037528836,0.0051051771,0.0117233186,0.1802950067,0.0085096464,0.0138659861,-0.0150663585,-0.0155873432,-0.0183141544,-0.0175074455,-0.0063746718,-0.0066757975,0.0115189586,-0.0145433915,0.0123055507,-0.0208610447,0.0049192859,-0.0012177024,0.0020969573,0.0062848986,0.3159600834,0.0096902695,0.0038861071,0.0192709594,-0.0016787257,0.0114886683,0.0095586944,-0.0034281714,-0.0043011267,0.0206232887,0.0076156991,0.0035171989,0.0147160058,-0.0020665828,0.0016861381,0.0287448378,0.0011729773,0.4433905002,431900.5321284034,0.0777232227,-350056.135003816,-488766.1717338723,-0.8044722899,1210165.7224217483,-1223607.429297108,373029.225073236,-54301.8722916102,23387.7042639588,-289813.4896108647,-30211.5878366703,87982.6228004649,72475.7186750886,-258333.2599825852,-107539.3309062351,-47415.385796275,419766.3977687419,-176576.3835032202,245813.0678911796,119626.6828671629,138034.0298358572,-168141.8349381843,-88304.994115684,-52259.8897090866,-255.6905036427,87837.8979351426,-20404.2985361791,-56158.3101029042,-0.5050572602,-652648.2594542274,1337291.4142011208,0.4866286995,850404.5120927133,-542195.3272303626,1957682.1838695994,-628766.5204603954,-208656.8072794734,-955381.5615394398,7326.7457823355,-91791.2238057025,-22214.2863841491,-335125.8490087461,-290134.2663759777,29295.7046248451,-607080.0911529516,449330.1378144611,182782.8217853612,-503672.6099428126,225352.1970891687,118592.4578556286,-35729.084878632,-88329.9452512198,-17169.1326710802,-56481.7507528199,-15037.2662546228,482063.8172543666,-0.8262103537,-187655.2684236465,1233926.0697740256,-0.206122195,300721.0427398145,-1096623.0452685705,978795.1406000521,-1356795.0545800915,487638.6883607006,-243582.0771325465,-36279.3666570248,312872.8788351646,-43976.6466017822,-201322.1870510771,-183146.6672183509,52302.736498892,59581.138886727,194503.4013951093,-171386.8451246349,98533.5380297549,379272.4314724461,-300578.7102065771,65662.9696674526,48412.2369440366,-192678.5176054504,-22087.649016463,4051.6339106148,-790081.7703307766,0.733135079,-684103.7218835327,-1769011.8967179651,0.6775152169,1149044.2966693796,-120620.0033024118,467095.1459622248,1348944.884716755,483376.8178176967,122356.3136261119,-71419.5335626244,224179.3622862914,51337.1871112494,-148982.983209985,424568.4349506975,-14798.5306709972,334883.178137233,-96438.999042537,99491.9569124318,455485.3711121175,238442.6357310578,-176639.650733331,-27584.9323027378,-25300.2369852014,10976.6384509446,-49355.6335438065,-30906.8082480647,-1063655.3901213852,0.7161370475,-535789.0922980037,296286.9836254696,-0.6405718291,390993.7027075485,101325.4362181391,1180722.4977283645,-117718.7234926167,-730553.1534184385,310983.5467569173,19293.3358422273,163115.0940704217,-58124.8239404569,-341764.0938836251,-418329.0172211237,6625.6867437697,72158.7788506728,254899.2344190282,185464.1136684062,-120806.8011480636,274130.1638176113,-548.8235266382,-38617.793720234,-31042.1359618946,178668.3298798246,-94216.8149916671,-107329.1543858749,4354.0520096667,-0.9270626737,-190756.5489038297,-168214.976274373,0.8742626416,735130.095824929,-167070.576425861,-85811.4236887668,84830.6250907462,-132657.8347347786,-218789.3233570501,-75146.1282159139,85396.4912706478,-63816.815769437,-258195.6474902476,201512.0880626637,-7999.0065626833,-254230.997247304,-156085.7270387814,-96201.9748974665,140191.0307667387,148914.1243895524,49186.0310986709,-32421.8335516563,-66268.673819055,-14698.9246868489,138544.6854265131,35673.2314362884,-421761.7162874761,0.6058408762,-497826.0201636084,2364391.372095228,-0.2493013417,210300.110365561,608854.5316028201,45946.3478352388,-1091577.2352938983,-576759.7875451635,353355.6091225083,-21229.1465190565,-118511.4491650687,-15463.4845146103,-159413.8604797356,-267068.1027976161,-5957.2134143824,-2676.699727326,117753.842570426,-127016.8881815239,-178233.7872486192,38434.8506227901,-59957.6644354533,-102054.242226111,-38396.6347883485,44633.0295986183,-68412.8795633653,-26219.3312904362,-485768.6315686814,-0.3485532499,1057682.0747149277,1926462.8879516611,-0.6520513772,-906818.6307529312,-1006807.098801278,138174.3721715341,-539746.460646279,-234135.4278972923,234779.0264507024,-15530.9214629762,-168029.5537279433,-19783.7676742273,-167033.1080816149,-125889.6370745433,-29550.4629499019,57160.8040424608,87057.8577273711,387991.3933436684,294864.2353986342,313471.8673141833,-405320.666199795,-7636.0037089596,-20875.8278084111,-11420.8330628847,32483.4713778944,-36478.4153345146,208851.4333556358,0.1242679059,1735576.8934397972,2349446.9926314848,0.6347754183,-2806792.286976504,794632.8579040196,-2097920.1589675504,-349975.7555281729,-23562.5463331096,-397337.9365335285,15024.3401640957,-269734.4222569735,32645.8531968149,390478.8229786262,407185.5548554583,30811.6405674936,17038.4216325333,-483299.0586643665,267736.1553076182,250437.0155717947,-8639.0689989168,-102862.9420904303,-16991.5191417024,-23024.3623379748,17487.7895997362,-23048.8418233998,-37981.5332574136,-947673.06527753,0.8398267353,-301811.4646899741,1666570.6353541694,-0.4582397603,-236762.3524324609,-452942.8867523072,-239751.4718239832,1609327.317103137,454042.9481865136,-9166.5589983275,41928.5953170215,-163210.3693428483,102427.1415259889,-162534.2337491356,859258.8221839041,43388.3745079075,9841.4318092117,315999.2439505364,-46570.2692684594,-176498.5253670934,11203.6852755553,-254239.285739603,56718.1126853108,14253.8765820028,-1069.3504914424,-18420.9971869411,-7543.9943782704,-342009.5385664048,0.821178535,-1668392.777358593,-612285.5708282273,0.0058570819,1520881.738607018,417582.8688342489,1724261.0587508748,-259077.0587022237,-706704.0691595295,870184.7965974425,84672.734562603,-40061.673989317,-19190.2527263194,90183.4425619247,147113.817298191,-13307.7520281905,-78504.4718376004,-205120.4112596897,-280071.6193479718,-69448.1381211637,112822.2594799983,88656.7637047523,12078.5074444028,78771.0092470733,-38931.861163677,-28572.4547230546,19079.4198603999,-81715.3070257425,0.0315951477,347645.5830166071,1570768.6862835663,-0.4693028713,-346547.9128676516,175762.9756012836,341261.8133321926,-1701660.9166624413,-457340.252573193,208262.1718712088,-18449.6083627998,-169970.7266177009,-10944.548416528,-330292.5138735326,-282872.4770171382,-36228.3248130035,137043.1802815944,383616.1519315502,-219433.0354328041,-404626.8679384198,50062.4691488568,92111.2325632882,30520.2405854333,75525.7651020306,-14481.0791321689,-2121.5957151302,86159.1146670352,1328153.2190784344,-0.3148564741,-657235.6025812653,-556472.8835436708,-0.7684159523,1079536.1016515563,-605128.0873324667,-1169586.1287792542,769808.9582333352,909812.6032038603,-4711.095650455,-1600.912029975,-166504.0806172596,8038.982403483,204228.4718135201,-261036.4012978896,-47931.6023564435,332554.4819196469,-127384.4904864219,87494.2470512577,102850.664990904,-73167.7965888972,175139.921975852,-49025.4823792264,-13355.197555273,40248.1609182071,63228.145757003,-93794.4124909789,-113888.0020233583,-0.8753997165,792845.8452715401,-1107368.9661387338,-0.160390618,-420394.7392305005,-405315.6903391263,-553381.2107787764,1469203.8740548692,-843905.0222422832,330413.7205783074,-13854.6017265053,-221409.7296089307,13857.2296671138,170265.9232735274,-366562.7190267232,-6288.9844448579,-90029.6900232055,-140996.4785563217,324451.3645833916,-197228.4370147915,90468.2715472772,46756.6491359932,-22143.3760389893,70060.7438435934,-35310.0171800724,-30724.3101108126,44293.2787476789,-678863.9856748343,-0.3523705269,532970.4011516663,942373.3964810892,-0.8421126165,-614489.6835881494,-866917.5752116308,468965.8861708759,2024751.1194778287,-559646.9624280935,-909006.0312497205,13187.7887883793,-68330.3388949892,605.5968044503,-42457.9831881144,204067.9496672408,37961.5970493966,-342084.0298774277,385709.0471568517,-25873.1827825252,-72711.1915518214,16324.4451933538,-149113.2217286843,-19675.5477986723,-888.0284653752,-1502.5862590577,25392.023079862,-26364.3004932734,1130701.1050980159,0.0550497659,908966.2086257666,-1757728.6852227417,0.56536398,-507686.1265662707,840834.7037622818,709784.9965917737,-2184348.2330343076,-1216295.2397883371,180373.9867618935,62752.2828062028,212565.7521124104,-9676.8854203484,-57573.9348234327,-395568.2373212929,41989.0591866188,208127.1700973625,-85171.6880795409,-85508.322767691,-108216.9982607288,-61302.4341293932,316880.8367128535,-8245.175207002,-101991.8344414963,56317.8207237069,99814.83983732,-46660.1449266222
biasActivation=0,1,1
[BASIC:ACTIVATION]
"org.encog.engine.network.activation.ActivationLinear"
"org.encog.engine.network.activation.ActivationLOG"
"org.encog.engine.network.activation.ActivationLOG"
