encog,BasicNetwork,java,3.3.0,1,1425326742004
[BASIC]
[BASIC:PARAMS]
[BASIC:NETWORK]
beginTraining=0
connectionLimit=0
contextTargetOffset=0,131,0
contextTargetSize=0,29,0
endTraining=2
hasContext=t
inputCount=50
layerCounts=50,30,80
layerFeedCounts=50,29,50
layerContextCount=0,0,29
layerIndex=0,50,80
output=0.0371468624,0.2272360859,0.5464389586,-0.0615638854,0.6581970726,-0.462182739,0.0673479223,0.3095539234,-0.0063478698,0.0521085993,0.0002979709,0.172263129,-0.0794445065,0.2867926653,0.4721729212,0.001180812,-0.5548957246,-0.0721847975,0.0198850951,-0.1282729491,-0.4200961522,0.1541660374,0.1425978175,-0.0344146374,0.7262028429,-0.2505681947,-0.1742894008,0.3043907401,0.3959653482,0.1150896331,0.1975336192,0.004454405,0.1171279815,0.1732556368,0.0003978513,0.1551225672,0.5010179896,-0.0784404208,-0.0974731459,0.155901504,0.1747996559,0.0667104457,0.0917093531,0.1038743275,-0.6426717094,0.3463367725,0.5218783201,0.435331541,0.2782326656,-0.310848245,-10.7438446379,-8.927582837,-8.5190780363,-9.7338252987,8.8919579132,-8.9701185187,-10.616003333,10.4075567736,9.3481115593,-10.1169379694,9.6009979158,9.4043927696,-7.5382089898,9.8624844263,-7.667820136,-10.535284587,-10.1181214975,5.4221464137,9.5765114426,-10.279657962,-9.1639424924,-8.4901313273,10.3256277906,8.9127636626,-8.960491099,-6.3625113061,9.9253201553,9.2559407257,-8.27430867,1,0,0,1,0,0,0,0,0,0,0,0,0,0,0,0,0,0,0,0,0,0,0,0,0,1,0,0,1,0,0,0,0,0,1,0,0,0,0,0,0,0,0,0,0,0,0,0,0,0,1,1,0.0371468624,0.2272360859,0.5464389586,-0.0615638854,0.6581970726,-0.462182739,0.0673479223,0.3095539234,-0.0063478698,0.0521085993,0.0002979709,0.172263129,-0.0794445065,0.2867926653,0.4721729212,0.001180812,-0.5548957246,-0.0721847975,0.0198850951,-0.1282729491,-0.4200961522,0.1541660374,0.1425978175,-0.0344146374,0.7262028429,-0.2505681947,-0.1742894008,0.3043907401,0.3959653482
outputCount=50
weightIndex=0,1500,3820
weights=##0
##double#3820
   -0.0007973504,0.0044934598,-0.0049860398,0.0029690422,0.0041775604,0.0038794006,0.001126806,-0.0038612203,-0.0038970654,-0.0014722303,-0.0045018437,0.0029200571,-0.0042512258,0.0020626437,-0.0041852275,0.0020552441,-0.0008952674,0.0029599176,-0.0039122645,0.0030902495,-0.0009295969,-0.0044424162,-0.0017955214,-0.004290244,-0.0025791168,-0.0005702017,-0.0004081807,0.0041759408,0.0022837112,0.0916123576,0.0027928876,-0.0024492634,0.0023597011,-0.0086632042,0.0032672794,0.0014837512,-0.0006481707,0.000278535,-0.0052204827,-0.0027439662,-0.0024847243,0.0088213973,-0.0081927329,-0.0069451241,0.0001999782,-0.0023113929,-0.006277042,-0.0058438249,0.0071807931,0.0056516747,0.0030812968,0.0023979787,-0.0008304808,0.0035112425,-0.002310578,-0.0003090728,-0.0062240077,0.0040984983,-0.000657411,0.0705974573,-0.0026095851,0.0006527031,-0.00112112,-0.0031379344,0.0040803343,-0.0024252962,-0.0075132002,-0.0040399531,-0.0057643033,0.0032045696,-0.0035681075,0.0014322102,-0.0119046499,0.009232363,-0.0063340322,0.0067797099,-0.0092886222,0.0041377783,-0.0131380192,-0.0060629231,-0.0092828867,0.0079635155,0.0027018282,-0.0053504154,0.0009608774,-0.0035810232,0.0030001377,0.0038857561,-0.00992061,0.1249415677,-0.0018146215,0.0030586365,-0.0034204694,-0.0011677624,-0.0044468904,-0.000914384,-0.0024288418,0.0080324492,-0.004699066,0.0075487048,-0.0025995122,-0.0005622982,-0.0021223976,-0.0025622157,0.0038076515,-0.0072099673,-0.0025923897,-0.001381202,-0.0019117022,0.0042688858,0.0058484696,-0.0029953605,0.0032707774,-0.0014283449,0.0117320821,-0.0014527786,0.0052771474,-0.0048187003,0.0022921183,0.0983907936,0.0016848749,-0.0008206504,-0.0023047527,-0.0073523411,0.0059739127,-0.003595903,0.0037839968,0.0043652364,0.0015907557,0.0026142003,0.0088027945,0.0105709408,-0.0014746518,0.0030575367,-0.003985815,0.0011481109,-0.0094600115,-0.0006876664,0.0088675735,0.0022067086,-0.0009414701,-0.0043051344,0.0008216224,0.0031519591,-0.0080029098,0.0121480683,-0.006199279,0.0019639575,-0.0011293367,0.0586552009,0.0039491834,-0.002586478,0.0091355466,0.0046054326,0.0008607315,0.0113232995,0.0012837066,-0.0041651262,-0.0000133015,-0.0041574528,0.003765128,0.0030924025,0.0134458969,0.00003076,0.0074326802,0.0028197319,-0.0024354548,-0.0070472194,-0.0119409477,-0.0019811919,-0.0014178425,-0.011751561,-0.0125341331,0.0032727785,0.0024558618,0.0029145225,-0.0030836679,0.0001764958,0.0020538723,0.0928511828,-0.0053009151,-0.0054349269,0.002527603,-0.0006073062,-0.0006409916,0.0003426798,-0.0035675211,0.0060763487,-0.003306073,0.001032487,0.0060876139,-0.0077247673,-0.0102300378,0.006976834,0.0093690624,0.0050285657,-0.0067821739,-0.0068838946,-0.0041541982,-0.000284994,0.0036111674,0.0045045265,0.0059615934,-0.0017358977,0.0060407331,0.0035068631,-0.0007565634,-0.0027101722,-0.0035006114,0.0304767696,-0.0024568165,-0.001777636,-0.0023949702,0.0070828786,0.0016868882,-0.0070337486,0.0024131611,-0.0035132918,0.0020680297,0.0012337123,0.0017376028,0.0061321288,-0.0020174076,0.0020425133,0.0035025298,-0.0051191423,-0.0014426001,-0.005095963,0.0071543493,-0.0092649338,-0.0039397422,0.0045255755,-0.0070935233,0.0044046482,0.0015737252,0.0067595655,0.0088542007,-0.0002082086,0.0092569989,0.0896273202,-0.0041584508,0.0012539732,-0.0065081619,0.0071400645,0.0002179365,-0.0000776981,0.0025522806,0.0009084043,0.0092622301,0.0001435612,-0.0031820485,0.0013504869,0.0007201979,-0.0050118485,0.0042156071,0.0041683057,0.0028386531,-0.0103434587,0.0056963462,-0.0043113392,-0.0008342649,0.008953357,-0.0015359537,-0.0012617401,0.0025983805,-0.0056602008,0.0071607924,-0.0009180042,0.0050076682,0.1005864587,0.0025068657,0.007320704,0.0086390666,-0.0084569472,-0.0048468203,0.0034794733,0.0070882306,0.0027399155,0.0020108657,0.0112759197,-0.0004291108,0.0054202542,0.0061539896,0.0030967621,0.0019934542,0.0036566653,-0.0134405587,0.0019808931,-0.0012955164,0.0021253784,-0.0028291571,-0.0049700542,0.0043680424,-0.0039208774,-0.013923881,-0.0015659645,0.0066138598,-0.0167111902,0.0026238294,0.1600583173,-0.0000036504,-0.0000089097,-0.0000014549,-0.0000013724,-0.0000029433,0.0000010535,0.00000057,0.0000008384,-0.0000021439,0.0000009484,0.0000007823,-0.0000060292,0.0000007524,0.0000015331,-0.0000079792,-0.0000000177,-0.0000026225,0.0000039706,0.00000569,-0.000010678,0.0000053033,-0.000005699,0.000002034,0.0000029947,-0.0000025281,-0.0000032388,0.0000074781,-0.0000015832,-0.0000055401,-0.0002140561,-0.000999084,-0.0028555832,0.0065488279,0.0010854336,-0.0019156694,-0.0008155213,-0.0000470239,0.0031514257,0.0021688815,0.006216545,0.0053006547,0.0049664221,-0.0102082278,0.006398953,-0.0031435763,-0.0021678829,-0.000271012,-0.000928112,0.0007153812,-0.0029893813,0.0014598464,0.0045474441,0.0020187565,-0.0094958282,0.0023166291,-0.0041822309,-0.0023126175,0.0083173931,0.0057353331,0.0048844501,-0.001943311,-0.0000443814,0.002758898,-0.0013938927,-0.0076009234,0.0073177849,0.0097494159,0.0073251297,0.0054747911,-0.0006412805,-0.000773526,0.005290518,-0.0031663653,-0.0036462479,0.0061677699,0.0077937698,0.0025505534,-0.0080428038,0.0000073543,-0.0075550236,0.0053265085,0.008532651,0.0090963528,-0.011312277,-0.0085550529,0.000950373,0.0008800529,0.0072389484,-0.0030571625,0.0593997698,-0.0033748607,0.000691619,0.0013173938,-0.0040842589,-0.0068433677,-0.0026633931,0.0024734822,0.0101459051,-0.0054329466,0.003451466,-0.0035115905,0.0002813782,0.0015864825,0.0046447139,-0.0016294596,-0.0030995859,-0.0002701578,0.008680882,0.0082724954,0.0021727852,0.0066619147,-0.0040139751,-0.0031416439,0.0056417509,0.0040511909,-0.0097023419,0.012060703,-0.0045752556,-0.001539315,0.0104881317,0.0015557854,-0.0022670276,-0.0002520521,0.0008423257,0.0070473649,-0.0021575146,-0.0096834671,0.0047427718,0.005862161,-0.0030962582,-0.0085130528,0.0098242737,0.0082672913,-0.0049344372,0.01030054,-0.0037472146,-0.0032798304,0.0008102616,-0.0064811732,-0.0079018149,-0.0032836596,0.0071456536,0.0016459074,-0.0058502674,-0.0128930744,-0.0142568969,-0.0112587027,0.0002308143,-0.0020531884,0.1895975741,0.0001473056,0.0003012675,-0.0000546657,0.0000158655,0.0000650311,0.000062043,-0.0000244399,0.0001311597,0.0000645276,-0.0001490228,-0.0001711644,0.0000376112,-0.0001960084,-0.0000473876,0.0000844926,-0.0001021394,0.0000290536,-0.0000090895,0.0000004735,0.0000708007,-0.0000242599,0.0000145769,-0.0001222106,0.0000018585,0.0000049551,0.0000340251,0.0000449345,0.0000685188,0.0001687056,0.0040258385,0.0067171307,-0.0051411477,0.0082206768,0.0038837514,-0.0042405607,-0.007094308,0.0039779242,-0.0065401358,-0.0088370969,-0.0030169379,-0.001800643,-0.003433347,0.0053711296,-0.0097429845,0.0036457878,0.0022946456,0.0096480929,0.0012696358,-0.0002891741,-0.0013450587,0.0032050917,0.0029700916,0.0015656736,-0.0075800937,-0.0050737924,0.0136037921,0.0038908676,0.0026564919,0.0045949223,0.1555139311,0.004393738,0.0049326706,0.005802559,-0.0069845691,0.0074291716,0.0016224695,0.0059060536,-0.0012546651,-0.0033712167,-0.0038986146,0.001798494,0.0022460513,0.0011873471,-0.0044184004,-0.0027647984,-0.002477755,-0.0074624819,-0.0075006351,-0.00128384,0.0079529717,0.0028281743,0.000950744,-0.0024068512,0.0029157782,0.000943236,-0.0000963261,-0.004932656,0.0058829356,0.0003194936,0.0807137316,-0.0023744461,-0.0060509614,-0.0074304441,0.0049347173,0.0020147732,0.0017565416,0.0036847174,0.0034573897,0.0075395992,0.0020852771,-0.0029662577,0.0018620135,0.0020801013,-0.0036706034,0.0028580168,0.0056832004,0.0042485684,-0.0104455351,0.0069414254,0.0001640332,-0.0039145359,0.0072173788,-0.0020239481,0.0021589506,0.0027568305,-0.0057693646,0.0054667526,-0.0053017965,0.0026770766,0.0881723899,-0.0015612532,0.0059131174,-0.0004400259,-0.0047104252,-0.0115249718,0.005748063,0.0016278615,0.0021318954,-0.002901038,-0.0057557159,0.0029673675,0.0020675783,0.0014396554,-0.0008175257,0.0002080976,0.005672165,0.0058650581,0.0073646368,0.0046898894,-0.0029189116,0.0072315043,0.0077060252,-0.003032191,-0.0009083554,-0.0046830467,-0.0017933771,-0.0009802355,0.0008915659,-0.0018709926,0.0567171262,0.0025337972,-0.0062974982,0.0016879125,0.0014144921,-0.001930178,0.0036602285,0.0013841709,-0.0072870042,0.003421016,0.0043493738,-0.0039270488,-0.0005063985,0.0002539657,-0.005233629,0.0052432081,0.0015838094,0.0030358672,0.0046011722,0.0018107541,-0.005432932,0.0068657128,-0.0004123955,-0.0142934897,0.005604081,0.004076188,0.0130838835,-0.0017359254,0.0012569882,0.0027955087,0.1226258618,0.0005008931,-0.0001271848,0.0015296735,-0.0017613769,0.0027930318,-0.005403966,0.0003527878,-0.0025699567,0.0065366227,-0.0065351209,0.0038601265,-0.0004292305,-0.0031846751,0.006639648,0.0022059969,0.0026135519,0.0093434267,-0.0007213097,-0.0001071152,0.0004736315,0.0062906512,-0.0054596448,0.004698699,-0.0016520688,0.0028695017,-0.0024610355,-0.0070918848,-0.0039878158,-0.0001440912,0.1042024436,-0.0050451142,0.0002875251,0.0021495452,-0.0015248785,-0.0024809412,0.0035605158,-0.0016578196,-0.0023723106,0.0043725246,-0.0054407274,0.0071255519,-0.0020590325,0.004194791,-0.0026643467,0.0049690454,-0.0060113269,-0.0005720029,-0.0015783682,-0.0050430005,0.0077163133,-0.006796499,-0.0036665976,-0.0023986318,-0.0073669205,-0.0029983008,-0.0056566438,0.0080101591,-0.0022128147,0.00093257,0.0564597372,0.0000087745,-0.0037894622,-0.0059140925,0.003712441,-0.0084890993,0.0056517413,0.0032201609,0.0012798285,0.0193981117,0.0022954729,-0.0009764549,0.0031488105,-0.0010016317,-0.0007548011,0.000747708,0.0039953781,0.0104351734,0.0039802897,0.0027199025,0.0001656454,0.002736163,0.0015972973,-0.0020281038,-0.0011115583,0.0079600592,-0.0009542502,-0.0146799082,0.0024901389,-0.0007872549,0.2445554414,-0.005910003,0.0001290384,0.0030165606,-0.0091712259,0.007676227,-0.0087748063,-0.0034682194,0.0000346852,0.0068188495,-0.0031150017,-0.0007398832,0.0004811045,-0.0144602739,0.0089902862,-0.0030990456,0.008756236,0.0018959846,-0.0056817429,-0.0110857098,-0.0110850334,-0.0110298871,0.0076476857,0.0021882158,0.0047440626,0.0093216257,-0.0046040354,0.0049237727,-0.0060001322,-0.001628293,0.1828806834,0.0011483376,0.0095664255,0.005130821,0.0030740715,-0.0054543421,-0.0010169542,-0.0027362507,-0.0041259879,-0.0028335215,0.0034835998,-0.0019044295,-0.0017581293,0.0059247047,-0.0017184619,-0.0059363761,0.0047911097,-0.0046812624,0.0020062854,-0.002229593,0.0059511621,-0.0024636543,0.0045208516,0.0061509351,0.0008222276,-0.0111431542,0.0009854552,-0.0012022502,-0.0097888636,0.0035015524,0.1443759054,0.0010137421,-0.0008799886,0.0021409286,0.0036707048,-0.0045487378,-0.0026802035,-0.0029630282,-0.0013404148,0.0002292629,-0.0002687942,-0.0002562657,0.0026146276,0.0011103614,-0.0022451499,-0.0017488971,0.002595061,0.0013547525,0.0038669638,-0.0044071346,0.0083971527,-0.0020370256,0.0005435762,0.0007513778,0.0031054645,-0.0026960219,0.0026866966,-0.0002052836,-0.0046901645,0.0055339218,0.0550177549,0.0013339291,-0.0036758157,-0.0026238318,-0.0022639599,-0.0036684058,-0.0049363025,-0.0117179702,-0.0062253408,-0.0039847889,0.0003863777,0.0010304651,0.000175239,-0.0150078534,-0.005484496,0.0017964748,-0.000250077,0.0094178359,-0.0034127459,-0.0019854584,-0.0068688375,0.0031891941,-0.0057937737,0.0073207602,0.0024670333,0.0062758883,-0.008186515,-0.0110637696,-0.0025213535,-0.006517045,0.1799947052,0.000908682,-0.0011483497,-0.0050619657,0.0045317231,0.0030591911,0.0042747888,-0.0081433391,-0.0041222839,0.0070101831,-0.0008362042,0.0065830985,-0.0057330223,0.0063530078,0.005240925,-0.0016811669,-0.0115255145,0.0043378633,-0.0062392923,0.0001270999,0.0046094115,0.0020462564,-0.0038501509,-0.0014741372,-0.0046854516,-0.0007762944,0.0040308302,0.0102021455,0.0023014838,-0.0085906859,0.1346448178,-0.002987525,0.0109650417,0.0109325653,-0.0019173842,-0.0032408616,0.003013947,0.0022525678,-0.0011040634,-0.0004307927,0.0030015357,0.002234319,-0.0005854971,0.0084104168,-0.0032159228,-0.0095445046,-0.0051365326,0.0038178876,-0.005223844,0.0074294487,-0.0021927402,0.0116189594,0.0025443044,-0.0027413314,0.0055619727,-0.004742607,0.0011837607,0.0036845451,0.0006425233,-0.0133232793,0.2252294512,0.0108556028,0.0031820077,-0.0132222637,-0.0024009625,0.0037219312,0.0023066358,-0.002215019,-0.0122461181,-0.0081899878,-0.0025709196,-0.0014904859,-0.0019156545,-0.0078452203,-0.0022165427,0.0087235806,0.0062079707,-0.0022558787,0.0053708879,0.0139966632,0.0057437284,-0.0024827215,-0.0057466677,-0.0041770028,-0.0151918591,-0.0053869273,0.0107961053,0.0017764072,0.0076818746,0.0020423562,0.4046183175,-0.0059668474,-0.0034824993,-0.0033237706,0.0045157114,0.0012031702,0.004804741,-0.007387284,0.0003073291,0.0088242836,0.0057513009,0.0019041906,-0.0140818427,-0.000582641,-0.0002179127,0.0067885943,-0.0015038441,-0.0061069266,0.0018716835,-0.0080235853,0.0032004091,0.0079137093,0.0008175307,0.0038581908,0.0118848891,0.0108274744,0.012783545,-0.0019735798,-0.0005576696,-0.0043866409,0.1377899444,0.0010023083,-0.0013011521,-0.0090382268,-0.0000334593,0.0066277738,-0.005699619,0.0073101222,0.0063319522,-0.0060719056,0.0007823838,0.0052811504,-0.0106466032,0.0065858852,-0.0010822424,-0.0014783185,0.0034987811,-0.0014774757,0.0045529176,0.0018599531,-0.0015631611,-0.0069045147,-0.0006732582,0.0036957096,-0.0060589435,-0.0070607902,0.0056023021,-0.0075813639,0.0000047812,0.0000843955,0.0621570587,0.0018923073,-0.0071458374,0.0001086019,-0.0021029083,0.0074789191,0.0012912353,-0.0031096782,-0.009618377,-0.0021130204,0.0168334428,0.0019304323,-0.0022324634,-0.0032325517,-0.002027998,-0.0033177559,-0.0070262832,0.0131627586,0.0023156682,-0.0004146541,-0.0012651098,-0.0047825543,0.0015554701,-0.0017934683,0.0093277495,-0.0029711001,0.0058464099,0.0074523426,0.0003430666,-0.0034904063,0.1320116079,-0.0000078737,-0.0000211814,0.0000035223,-0.0000035546,0.000000204,-0.0000024914,-0.0000015024,-0.0000058793,-0.0000082781,0.0000112572,0.0000132919,-0.0000075976,0.0000130126,0.0000060737,-0.0000092579,0.0000091347,-0.0000040359,0.0000041622,0.0000111303,-0.0000105998,0.0000068157,-0.0000146554,0.0000102734,0.0000055292,-0.0000053518,-0.0000060799,0.00000446,-0.0000037996,-0.0000135846,-0.0003652335,-0.0021578702,-0.0011356319,0.0022234428,-0.0019173256,0.0003611214,0.0014487538,0.0023464122,0.0030524738,0.001977153,-0.0028036196,-0.0010624091,-0.0060444053,-0.0024428153,0.0060677736,0.0087453939,0.0047933103,-0.0033410006,0.0028449345,-0.0010351872,0.0007176514,-0.0036191246,0.0004943647,0.0031343288,0.0075135855,0.0010468654,0.0028545237,0.0018925465,0.0004469195,-0.0028902446,0.0049691264,-0.0029708342,-0.0033842521,-0.0109631429,-0.0028136261,-0.0036418154,0.0021945007,-0.0102315005,0.0078296551,-0.012332635,0.0010385916,-0.0096315116,0.0047691185,-0.0057412683,-0.0024941413,-0.0019572692,-0.0119240348,-0.0004603348,-0.002392854,0.0074684217,-0.0058059062,0.0024957025,-0.0064233413,0.0063598644,0.0023594968,0.0079936427,0.0033463525,0.0002089617,-0.0008281291,0.0045959894,0.0894567799,-0.0022876386,0.0027295916,0.0015860175,0.0040756797,-0.0066752844,-0.0021147631,-0.0056393792,0.001772196,-0.0094696642,0.0011047556,0.0024014899,0.0001099705,0.0049785093,0.0072418271,0.001254625,0.0056582346,0.0071794943,-0.0018434943,0.005578676,-0.0037705575,-0.0003909099,-0.0017991561,-0.0125650194,-0.0007686731,0.0014669365,-0.0009091392,0.0018387634,-0.0036561614,-0.0076921463,0.115049168,0.0003959489,0.0028544179,0.0036329206,-0.0042317194,-0.0084809871,0.0028808783,0.0029290851,-0.0098164348,-0.0004377472,0.0024877603,0.000271985,-0.0137809357,0.0071907596,0.0039869695,-0.0049758603,-0.002042169,-0.0036580856,-0.0024022495,0.003113565,0.0054161532,-0.0057450639,0.0015579619,0.0030386084,-0.005886807,0.0024492603,-0.0098473311,-0.0019627959,0.0082762573,0.0013467077,0.1648590142,-0.0003386521,-0.0032472667,-0.0019281873,-0.006339041,-0.0014566692,0.0011385051,0.004490348,0.0027124219,0.0029997362,0.0041278376,0.0043027617,0.0017272099,-0.0016525344,0.0009762405,-0.0026061631,0.0081055283,-0.0038305996,0.0016019054,0.0022839889,-0.0014212681,-0.0032445276,-0.002351824,-0.0006394945,-0.002002495,-0.0089299145,0.0053728922,-0.0012531096,-0.0045978036,0.0003739364,-0.0096802351,-0.0037852808,-0.002918946,0.0013078994,0.0016454165,0.0066393293,0.0035705787,0.0010687707,0.0050047213,0.0000226808,-0.0076450247,-0.0000801536,-0.0002765796,0.0065353485,-0.0029503897,0.0008528066,-0.0086098399,-0.0006317841,0.0066053149,-0.0098278223,-0.0052195017,-0.000944322,-0.0003323594,-0.0023039727,-0.0002239432,-0.0099379471,-0.0066877791,-0.004514786,-0.0028037149,0.0033913403,-0.0327219236,-0.0024594154,-0.0006288915,0.0022634822,0.0059089677,-0.0029455056,0.0033681198,0.0035244959,-0.0031938322,-0.0000529144,0.0040205222,-0.0008889184,0.0049244947,-0.0085696731,0.0032554318,-0.0076549236,0.0005824516,-0.0024853364,0.0065819253,0.0015052933,0.0034282102,-0.0032468855,-0.0017349755,-0.0010341416,-0.0098248297,0.0011897908,-0.0083829469,-0.0075318753,0.0072456766,0.0009258474,0.0790839127,0.0000720161,0.0039956016,0.0042379758,-0.0060556011,0.0059468941,-0.0020984259,0.0035344339,0.0034830192,-0.0016739237,0.0004200185,0.0016802811,0.0034743555,-0.0022255183,-0.0047242965,-0.00203484,-0.0015493663,-0.0048090646,-0.0060938601,0.0016285899,0.0086128516,0.0001771044,0.0005426709,-0.0029656908,0.0008115531,-0.0005273639,0.0020522583,-0.0021184606,0.0010504446,-0.0035985323,0.0806687136,0.0080110009,-0.0056440472,0.000936973,-0.0022159195,0.0077470938,-0.0062058602,-0.0059336798,0.0011575619,-0.000575004,-0.0043859119,-0.0039805649,-0.0115937937,0.0100790453,-0.0004604578,-0.0012237479,-0.0064344349,-0.0016338993,0.0029769187,0.0008541509,0.0065375391,-0.0082601912,0.0030600998,-0.0049050031,-0.0150378028,0.0123943435,-0.0101070661,-0.0107480198,0.014243447,0.0026475468,0.2427868631,0.0044279434,-0.0034285233,0.0039061838,0.0115187624,-0.0223782809,0.000453144,0.0050184547,-0.0013311086,0.0002238698,-0.0019759475,0.0023779339,0.0022689903,0.0066916484,-0.0060177242,0.002483026,0.0086551192,0.0008505785,-0.0015215248,-0.0118569621,0.0032084424,0.0007056612,-0.0035933401,-0.0082871279,0.0029532808,-0.0022461236,0.0106380293,-0.0016638314,-0.0050192918,-0.0098372243,0.1713638296,-0.0009448178,0.000614285,-0.0004397762,0.0022426683,0.0084420907,0.0022756204,0.0033286595,0.0010025851,0.0016178435,0.0063847417,-0.0118419219,0.0015779788,-0.0037786091,0.0029757815,-0.0085108475,-0.0096346826,-0.0025387438,0.0040574569,-0.0048310216,0.0105310735,0.0062696551,-0.0120414302,0.0047923146,0.0010183979,0.0013104254,-0.001609457,0.0104226389,0.0018833409,0.0007077848,0.1437018125,0.0018838952,0.0007412014,-0.0083253986,0.0094724067,0.0036127056,-0.0049514294,0.0012805621,0.0063714417,-0.0018376064,-0.0026568804,0.0015706211,0.0049278255,0.0039157088,0.0061817378,0.0006923828,-0.0111053168,-0.0002325531,0.0057203555,-0.0023693847,-0.0064751634,-0.0049065479,0.0015639164,0.0013287524,0.0056313656,-0.0080294692,0.0018435385,-0.0084278335,0.0054531872,0.0011685663,0.0362824558,-0.0027705022,-0.0008785231,-0.0010845792,0.0031965469,0.0014900999,-0.0035127629,-0.0014194469,0.0023860954,0.0004720928,-0.0012445639,-0.0002774401,0.0035684358,0.0015967341,0.0053519404,-0.0029796538,-0.0024143778,-0.0002379966,-0.0011745062,0.0025725869,-0.0043929931,-0.0043588085,-0.0038538278,0.0034931906,0.0034409213,-0.0027997204,0.0042337699,-0.0023047212,0.0039040958,0.0021365705,-0.0009618884,-0.0023632079,0.002889358,0.000315893,-0.0015605159,-0.0058531625,-0.0177057455,-0.009750387,-0.0026612163,0.0106380153,-0.0098124754,-0.0034474789,0.0022840616,-0.0018550893,0.0034420819,-0.0057987444,0.0059576957,0.0086870853,0.004120992,-0.0032432521,0.0038090518,0.0036624096,0.0066016305,-0.0068988374,0.004239233,0.0073966066,-0.0098826907,0.0034680107,-0.0115596134,0.0069999702,0.2595432326,0.0157072423,0.0114807759,0.0073393753,0.0049862693,-0.0016673359,-0.001162354,0.0029544439,-0.0069182045,-0.0085744757,0.0040878135,-0.0008484699,-0.0083383816,0.0039629529,-0.0035217656,-0.0023225682,0.0031176856,-0.0123976914,-0.006664973,0.001450621,0.0001802114,-0.0055846623,0.0042668823,0.0095939311,0.0000686781,0.001376492,-0.0070781566,0.0038980896,0.0016099593,0.0000420743,0.1650345702,4096.8126472238,-187.7786562294,-1685.638455996,-0.5907510432,-0.1581341974,17.5025697725,-5172.2028847113,-3595.6429507363,8350.1595304043,-0.3476280907,0.7797662239,48.9117395568,6.4716088484,4766.745797397,58.2299465254,-0.27593415,1600.0202979021,-0.1103218089,8350.0852298258,-0.5925886972,-0.3259101555,-20295.9443700205,-3549.2361966685,-0.1838759182,-10951.1021818849,2016.7043892764,18231.4221543158,-27023.7883589786,-0.8597961699,-0.6466695804,-913.1327353174,0.8160113923,0.1596121095,-2.4848913781,0.5496308463,-23345.431078904,-1.3297876853,0.5418506977,-3959.0725715788,-605.2787929146,-0.4624744893,-234.1130883408,-0.5550640053,-25.8642704799,3179.0451285642,449.5437402071,0.812128945,-6862.7932311257,-0.2500028339,-0.4113094676,0.9190177536,2858.3203334456,-4103.5437431333,-7652.9508846935,1930.7282892095,-5119.1654138776,5251.3536385711,-192.6710818064,-13791.3679774126,3538.9245045957,90.3174137259,710.8382026905,-3676.4879358789,1647.4756685878,-10.2849902806,-2638.8290518824,10047.4616039747,-2.4884996821,8049.4946713236,12765.7333786012,-7451.371249127,-8402.2676953858,-6088.1861086737,3676.6621497782,-5169.9394113864,1361.9823891353,2370.9475410748,14187.5502891185,-11391.8947881015,-5360.9418607916,-5335.5949132298,-0.4566836276,-3376.5125667965,-0.9271655912,-0.2298935911,-0.0959094749,-29.0287115345,-0.110140953,0.5127854172,0.2279214782,0.523357507,5.1603055633,-1654.0316350891,-0.1428419064,-0.9269402058,0.3447565645,994.2715248844,-1992.9258173283,0.8315155422,-11681.0502450379,-3996.4124232002,-0.9251381795,2677.0083189091,0.4324036567,-0.1089677366,-0.634561615,1.519169805,-139.3740235206,2233.5466021943,0.2333129891,-0.4973573913,-10089.7744738763,8491.0519183706,-39.4670868326,0.4878208669,-3773.474376247,-0.6374198793,2588.930197121,0.2994007222,-16021.264749478,8911.7687025175,0.0744702237,1.1446679975,12.2331358384,-0.8028790208,-2.8121455516,6507.9864010149,7688.9460639355,-3472.6945972335,6253.8592282688,-244.1730646852,-1882.3876177832,-13.7460699123,-4467.3566451331,-2630.1015700175,-1414.9147885799,-9624.5214028818,1152.8363003028,-9586.354817039,-21505.7496121253,-2133.650097371,2887.1742945383,3666.7807094515,-9122.6773004511,-5403.9828179121,-30835.6864283752,-8550.8738441776,3383.0134434368,-824.7750591573,9650.4879431625,-2022.3110818827,185.7681326176,12717.827483236,-1644.8554027649,0.3430700785,-9061.863690124,-723.3079821089,2.0058299008,3166.1638887507,-15273.3653188175,-21335.2742707543,4784.5112609118,-8966.0850542395,-0.4493272264,-15229.623024681,-0.2610684704,146.1767805704,-0.5538779083,540.1082518213,-932.515162327,0.2474366766,-0.6739201061,-4.447906137,0.3002741239,-0.6977760148,0.8513075076,2534.5571879231,-0.3632351054,540.6982735827,-10.2433033426,0.2382754705,8698.153988868,-113.175937558,1194.1621583299,1711.5581401109,6701.6391290237,-97.9727749087,2515.1076205877,-1.4178495563,-0.048021232,-3646.6292250756,0.4332509746,1.292559309,-0.0200024188,-0.0353817018,8793.1993329365,-0.6205399959,-7150.3860373847,0.0345340159,-15887.1940501966,3346.8251235197,0.0878938821,3596.7634997656,1.7430427957,-0.9506880436,-28.3655822574,2683.1795279364,-6887.7481265544,1597.5719130039,1949.1750757054,1.1771320503,-3024.0926477186,10856.0602131584,-2161.4814035198,-3633.3111838544,-1705.7428242429,-2944.8475069792,3190.6700434736,-5305.1891256251,5547.9723774475,8931.6959261538,-5812.773964717,-3369.3278179898,5826.512744009,0.5768029742,16.777329594,-7293.2238723279,13900.2397840021,-8259.057852599,-1667.6501538302,1828.2920544486,6700.6380628273,9150.5219743216,-34.6311326819,3473.8141624178,3552.1976910551,-4449.8124071415,-2233.6144262788,-1770.5580751673,-9577.4943838967,-3028.9344149097,2.3760291093,-51.9233104326,-1899.6827099666,5.9793571372,-19785.4919067441,905.8995912723,22533.3110570504,1650.12312092,0.5320611863,-0.3853474291,-14475.160434733,-0.859824838,-0.1879064532,-1.1867204515,-0.5557718998,0.478999399,-10770.1027483925,1649.652476758,179.7756921545,3365.6134231319,-0.202659732,-1.655209739,-0.9930874547,-7.2813224023,20.5190797698,-588.2678781197,-2052.8838357047,-1.904822082,-0.2373970849,0.5619021434,5329.7907349751,5742.1407889223,37.9924385881,0.1707256134,381.3175368994,2545.9284315935,-1712.9129509644,-1196.9676346601,0.0955512925,1799.8528141332,-16978.131352397,-0.1361071043,-709.2300365099,-0.2053469732,-6.7466197404,25840.5979359976,23721.8642598582,1.2934133335,0.036693802,-0.5169888419,-8820.9851144251,2783.1262573658,-4719.2080426694,4984.2793532566,6174.0390437019,-9.4101677059,-7494.4403525964,6125.4928472232,-7922.5974062203,-4935.7285223804,714.7764388364,-8486.1174095597,-1338.7640625335,-3.6904416589,7054.8682647716,890.988124401,-4243.2658975249,-8062.6314332377,970.0997207597,4028.0383405463,6817.9110512752,985.8730662587,4432.0118682456,9977.4123965307,2858.9326979322,1654.2340564658,-2840.6316340234,-7475.5025645272,-1856.2822493555,30.4191546436,-5297.1355976149,-170.2840047969,2516.2879260343,-0.0700144332,1607.773770789,-0.5338213406,0.8559126414,-0.3563266273,-0.5241434461,-0.1467275355,525.399911144,-0.0182769384,-6936.5637491152,1.2514572557,0.0864299991,1.3264801379,566.2201843178,-0.5447839794,-29613.522228898,2746.7132405442,-0.295866829,9048.5476522872,-0.3771415196,-317.7946201518,-2.4361515594,10092.2698995035,-0.4085231354,4807.9789295119,-5257.6959233812,-0.6734410151,8179.6250700293,-2741.7068397336,30102.0321518733,0.1199113211,2346.8186411473,400.0709305308,-170.3825745788,-0.6348261217,0.6489875939,0.7525642394,0.553832963,-8063.6635130762,1.1306961082,0.3115873665,2600.1702862106,-0.5481219409,18671.1061453032,-5105.457035647,-7988.4901452002,0.666358206,3947.6101166153,43.6398145395,-8046.6701063554,7795.0729972914,1634.2866705299,316.5591619086,2347.3850367227,-2802.0149538093,-1872.0787745998,653.5426404422,-9004.4291297539,9558.5815411442,4601.4114044514,355.3524364486,-3778.7245440942,-3242.4015416067,-811.7190712998,-2.8420353032,653.954726795,-1283.2676832105,-442.5583798204,-11490.2625804748,9882.1300035893,16386.2611706635,-8184.6717306181,-6218.5917016344,632.9009154476,10499.2973671503,-4098.334392466,3295.642705012,-17.9740303422,-0.4977504559,-1662.4899213581,0.4893022304,-4458.4860674446,29958.2193710851,-0.3091262075,-8094.5184373375,-2679.7091711743,0.210989101,1417.3220616352,-4203.1874838402,-0.9924648713,-2.9112748455,0.961550381,-0.1591124836,0.0659667703,-8093.2341039616,18566.6364840694,3142.5509226981,-0.7677005785,-10121.3427495212,0.0293120967,-0.0660034392,2386.9597515364,10495.0715499693,-1.1764335982,-1251.7236532719,1.6402806781,3188.6726229797,-1.0606874279,7536.8943414818,-0.3743549185,0.4376797246,10337.6805854879,0.5639661616,-0.4921235906,-302.1389130374,0.0425083328,1922.5367420791,0.8722313827,-0.2267617655,-1742.3208901728,1505.5592750766,-0.4088979805,13461.0252758254,246.1635665803,-0.3033329342,-1135.9972268957,-0.7361885739,-1790.7394337692,-29.7680025173,-1167.0343996986,3118.6221077959,4476.8177239728,-4422.285424484,-3165.0616911503,10110.6983955865,6073.793091444,7499.5713757303,1843.9056106046,51.0800387545,5700.2367693225,-2715.7902688446,6.2850261654,911.3222532425,20815.9935940288,-3172.1750173451,866.5640963807,653.9549157241,-9428.7882589222,-2130.1876055776,-8171.9360716446,-970.0521067935,-4072.6678116264,109.394688103,4750.6737642115,387.0171370552,-6233.6103459213,-22812.1124343979,64.5726256246,-26847.3424678215,-5.4668414855,-0.9282316394,-1413.2806718602,1036.9178353368,0.3530881191,1691.0398617264,1.9452197066,-0.5645771819,-0.7102441434,0.6082283952,-0.4076095757,-0.2290633643,0.9028326245,-0.223081316,-7522.6629903885,1692.4335062815,0.0527380741,0.5766899313,-1563.6444806266,-23862.8991319498,-0.8068659114,-0.7739665653,7038.0961681408,998.7433707403,-37.3489985806,4015.6624498514,5984.1281230957,2.1111584689,345.6858048621,3245.0553815763,-3763.3596041226,0.673767712,-9497.6543762759,-0.2604386342,-0.5297808923,6.3972448262,-1.0472084571,-18377.84912574,-77.2074916372,0.4724549374,1.0751967856,7231.3134763749,-3953.2693199232,0.4517282361,-1013.5000279477,-2120.2364149725,10844.5564887866,0.2352002131,6793.023065576,-1541.0723277545,-20802.5173970314,-1762.1010188054,15721.792189373,-871.7660927567,-3916.7553800898,-10098.5310259231,-16159.560196224,-217.788443799,3286.6854118602,-3893.6429848648,1768.0337422564,-2796.5073111427,5322.7196607675,-3831.8803096915,-1968.5498447251
   7071.9606747796,-2630.2617289696,-188.5807066467,-0.9891158391,-14051.7494465751,-524.2776925726,8403.1756743015,-23.2873600441,-334.3203201213,-2534.0590908592,4178.4488777715,26808.2901142006,-2908.8749763202,23138.4470178692,-1012.6111704456,-72.5664630886,1.8570900805,0.9958252973,-891.3361828889,-5033.2224762775,-7.7198542915,0.6681679422,0.3214974063,0.1902303279,-1.1212306841,-11921.9644391133,17152.5071579778,0.7223631549,-0.472520245,6061.2184030908,-7.7621083684,-3031.4092927782,-6416.3979243036,12985.0768915937,622.1466137052,-0.5271560402,-0.7718424894,12.3567472972,2496.3260873211,23673.9252186876,3211.007071993,13594.6758221141,0.089851061,-125.1033657522,-2499.4139350474,8294.422605409,0.7611312537,7051.1183313867,-0.4660537594,463.7167200341,0.5583497431,11930.1499994663,4114.7519098198,0.1132754302,11386.8808377256,1.67077358,-0.521349845,0.9697478647,-7214.4848629852,-16606.0164429688,-59.6096419285,-1279.8186691627,0.3669804041,-8600.7658584471,5929.7362660971,-10411.3199943852,2117.7029213259,-5847.2828364184,-19448.2359257453,-4926.5463321102,2673.0027114553,-8845.3167515399,2844.2540052321,4209.0258386528,-4571.587379118,493.109757397,11468.2702304724,941.885073662,11212.9597386271,-8434.6763051005,-1419.2939606714,10396.4448339645,2.9811044472,4718.0319292092,24942.6130483728,-2255.629692754,4520.9882189001,6596.2467459717,5607.398686296,-7551.7438683715,15168.4482072343,7388.2456784485,-13602.6299629931,-15072.5053951373,-975.2800593637,-4.1171729204,3.7745309934,-0.5684557598,4203.2445897691,-5.2581562602,-5224.0009020649,0.186297276,-0.5533627665,-0.2176112559,1.4412112583,-0.5472456148,-211.6585493752,-0.8065530048,-2510.0104655802,0.0992231427,-5223.5010066409,21334.897352994,1633.6221685006,-21529.7266330968,-22.4888814098,-15057.9170037251,1.2057211736,-2726.5845299767,-8296.8323867878,1823.3520919955,-0.0046936681,0.031322938,2366.1384316238,1980.8176202027,5.2803274688,98.1865662059,-0.9718196969,-11561.8318418712,-2872.3828667051,-1942.4126276598,3548.9934639992,24100.3679509405,-4169.3321274525,-7043.9539016383,-21182.7540693709,0.2121477415,-0.9768754803,-10800.9021454649,-2422.6449959774,-21282.4120183586,0.1926534195,209.0837999513,0.0255861124,1212.9893895707,8446.0986439706,13026.8224153179,-15606.6758022906,-9064.8624160031,9867.0304092957,1782.440306815,2055.3972760522,3529.1753873078,4965.1393962592,-0.6424385703,-888.5839741661,-9213.2621995712,-1156.9842474947,-5548.48288628,-0.7198194753,3561.3155692006,-13994.7337631731,-17422.7482166874,1252.7679069567,9309.0008395197,1971.7770683683,10556.512930128,-4967.5293672363,-4996.7952708813,-2776.5457755075,-2786.566483675,1125.6406291888,-10564.4191521901,-21.6393179772,2.0758104308,0.2704776051,2212.037740868,856.3201302654,-0.0702762583,108.7888208718,2486.4826280993,-20225.6199198193,0.3947757984,-0.2792931541,1.1593136574,-2457.2129280049,3322.5091012663,-62.5036696949,0.2128387428,6309.6166552882,-2866.9496836561,-20225.768502806,-0.4644290062,19825.5755951706,218.520603286,-3580.4901099775,7404.2577537866,-12597.7784571119,-5818.0734952097,-3882.8515271344,-43.9967133536,-0.0925869917,-0.5527686457,5485.2229512746,0.8445730665,0.0788799648,-0.6472957296,-0.9041148547,2944.3869429364,12.5417489127,1589.3842246301,-21760.7654470947,-3330.9080344759,-672.6325469406,1834.7366794728,16576.7469945464,0.3196905181,-0.6186583367,-0.2046276365,0.4213610936,0.2616879299,-15191.745315281,-7063.8910084874,0.2324676488,-11412.1036353494,8.3099544229,2560.2621902921,-2.2809850906,1044.5441289658,-2645.735088791,-1822.3126905518,-989.5622610123,3034.4754635694,-5131.714450153,1136.3722688582,-7346.2824612009,-3797.4416948626,3449.3716639465,-8532.3632400843,4986.3997573073,-23.7670040793,-618.0057077382,-3034.9901836244,14376.459069223,904.1673113715,1359.6207220923,1767.0210100125,9801.3228205554,-1058.2510840822,-4522.1356228265,290.3510736763,14.8959686316,-12.5879549191,-1543.4057304541,-5856.8837344355,88.657024045,11235.4445280717,-32784.3527382277,0.356933314,17151.6949117322,0.7178319447,-3017.6074707648,-14070.3964947502,-0.6029571819,25861.6416773846,-1.6504177602,0.7998148031,0.8968262739,-0.1016421812,-0.0877973007,-4126.3343556097,-3019.3919306069,-1831.3982949698,227.6097567586,-2808.0969034175,-11155.366883346,-3.3014629905,-0.910795654,0.8322767172,-3173.5600680129,1.3859590641,4247.2816304578,-0.1215994947,0.6021256246,-3561.0747000484,549.0721685884,411.4246883643,0.2516755855,5758.2741003023,1.2898012701,24271.0969178227,0.5249880983,-29064.6677771736,3.8213466373,3142.863911367,-5838.3703542216,9038.4614433129,-0.3479300035,0.0069356543,7799.3148303356,-10455.7814059655,-3266.3658443032,-0.0123913616,0.8538409643,-7125.7351089479,-11321.7907844536,-1748.4739295221,25353.4405123535,-18748.2925328833,3325.7582394959,4925.2521889152,2.2745672461,16269.649319408,12278.3060691053,0.3386490445,6374.5013689374,10274.7756160552,1846.9059221598,7838.1491985159,-2373.3984529302,-6741.5381301524,151.6515229359,7480.7838213171,4733.7086098271,-274.3751695165,4910.5977020793,8430.942783594,7999.0936177059,-8261.8608071749,14204.5780203993,7358.2269111573,21436.1585196116,-1.896854549,2891.4794661802,-1550.058357001,-0.0727549953,-3489.7182708184,6286.7271755283,0.6084315384,-17154.6772851765,-0.8436700072,-420.7228521556,-0.7228719186,0.9700788029,-776.2291723538,-24582.1013502989,-0.7570050697,0.5154105829,0.7292225122,-17585.629942125,-0.7167322468,-420.8008355341,-2357.7481252128,-0.6423235986,-1.5428565818,6.3688170205,-0.4310818768,15.1427267869,1.069250601,-25142.0964020211,-2.0680894657,-0.4224457424,4.9532551142,-0.1566405177,3.2252001082,-2250.7603779379,-0.8831676819,0.8912862992,4000.1068673722,0.0079219105,0.9572876716,1449.533632783,2944.981629173,-0.0157399002,1606.5648225696,0.5694091837,525.6471973009,-5.7857666591,0.9643043789,0.4672146391,267.8367338574,0.3932191643,-0.4183404079,0.8768277971,-13334.7483535436,-246.0400761047,9775.500425496,-883.9851440888,11233.5866831564,-97.9978082443,-1039.7455650935,-152.3901000899,-9340.525769596,12411.7987232963,211.7489034759,7707.0004312861,-34.5530678525,-5050.1388711984,14138.6756798179,-2541.6182481495,-12178.0003667409,5671.1504879043,8202.6880979987,4673.7797482826,-4632.2195305027,3503.5041956152,-2672.4464975218,-2593.101524768,1254.3199897505,-4609.1406879972,-6326.2464853645,506.2137857121,1666.0450062738,-21752.925385965,-13987.6291018201,-14810.5110795492,-16937.8510925532,0.5099870085,-0.3133078738,3553.8490982125,-2758.5406037108,1.2326999422,-4936.8906899983,0.3137491924,-0.4062969978,0.2386101694,-4328.184548089,2.3378509369,-0.8677478831,0.1406962933,-0.7531848361,1.1426874563,35.5623347183,-1.1503968645,0.0610737874,-38.2113012645,-0.2775686046,-6.9617851945,12196.0122685183,12094.038346678,-1954.8243751414,2926.9653372263,19.9460268657,-2356.521160187,6553.7919183781,28868.8235830981,11.0863074486,-0.991883961,5882.751233071,-35263.5200651846,1.0787372505,-0.0184989911,-0.642160048,13151.0336034359,-1502.5573900923,-0.5182584656,-0.4723164817,946.7945140292,-1193.9807212193,16380.0652381979,-21092.9336063874,4763.8465647096,0.9847168436,0.6027485805,777.1097151009,69.0317184659,7767.48005783,1883.3799257819,17351.8562254969,-18072.4853086353,10573.0803719976,-1070.9835444561,2.5609072032,4240.2183241787,14456.1742736851,-5968.0861710809,-7306.8063673112,4540.1461210689,13399.0138648818,3000.8083105755,2307.111617183,12977.2913953195,-1369.3319018323,132.6128168829,-4101.1696781234,2752.2477191067,58.36064619,5969.0729412183,9926.6413896944,-4811.6606990705,3469.2157312147,-7556.2043444543,-264.0847347685,-18743.9287875941,0.5545068749,-9.2431896589,11349.1498913279,-0.1692729974,5360.1918871711,2325.7291863495,-0.6963189684,-13288.2400456121,-4222.8835035648,-0.4157559601,-0.61859539,0.5024206789,0.5430508734,0.0297045718,-0.8892360253,-0.6896852793,0.1713429653,-13287.878304158,-0.7144344988,0.7225593436,50.1726022812,3745.4849326767,-2528.7797201046,7991.0069370974,-10464.5279873323,3.2661978992,15491.3812553509,3181.326023684,-1004.6957884424,-0.0371632066,-8.8804470306,-155.1945554706,-0.4870292926,-0.1558845037,-20030.203097869,22562.7495038021,1.2080451014,-0.5618026416,-1884.4469543521,-0.1172530962,-13471.3942799732,0.3394285202,7488.702172662,5.5093198396,-7.168460426,-1.4243942025,6380.0112485096,-58.1067986425,-4486.5999498552,0.5934429262,1546.3065822892,1.9387692802,3681.0560431358,-18372.9172570634,9320.5771227002,-2191.9546934505,-17535.0359787833,19.5341433068,-2746.7042399812,-13701.0108924475,1767.921286718,-1885.1380338532,-918.4614605365,-14157.5925098795,7091.7815618417,-5422.9976536745,9771.2913529184,5719.1459199814,-10360.1518759869,3181.2516879095,2753.8134228714,3439.9121868092,0.4160980549,-3623.9164164134,2102.2085882729,10213.2554362536,-5173.3720603253,-642.2712707297,-20885.4629646517,24317.9078265291,0.0539185659,8605.5057951703,-5338.6545285633,-0.3853844365,0.6669709879,5358.3275878098,-24452.2476570703,2552.4907129028,0.6125937001,0.0875263156,-18814.9360536016,-0.9469666413,0.3136624771,3375.5254732128,-0.8516268852,-21847.0028448284,-0.318153716,2552.9630166668,0.5371926534,-4.8822314853,-3.3853391457,-3714.4487172149,656.4327062145,0.1884921967,3.1174000983,-0.1365623063,59.5914271153,-2.9765699235,-0.4202745102,8887.7580726636,15232.9182226555,0.8102289007,-2815.242709628,0.2560404433,28644.9208857468,-10.8724775004,2.7213602039,-1.4346290633,8041.9401559535,-1513.7035247493,-6938.7543322198,-0.5679646003,-10022.5731779658,-5567.7905598564,-0.7473176601,-1639.9514355879,-8251.5701628965,0.64322322,12.3767275019,-0.9385624238,7565.133148201,-121.1177715569,-2598.5477227904,7954.7387741255,6186.3872561947,10065.0844450237,14015.8918570691,-17914.6811508561,-7941.8457840716,-8501.0874600756,-3379.1513419088,3281.6063283219,-864.8563358834,-2541.72941545,-8167.2306109513,-12664.9069976612,-7169.9307538666,-2183.0505918148,-524.0220442793,2044.9169654058,6146.6335910911,-4833.4699176867,0.1607130136,-11463.4363000711,-30.1379286926,-9472.7916966208,4625.5460857078,-14428.4016149422,-4562.8104921961,545.078527675,-6.8579168453,-22135.828762887,2363.9669487336,0.5532199649,3457.9789948654,-3883.0268279868,-0.3985302068,7893.2106532741,1323.2547925675,0.911505333,-3935.6453938758,-0.5070562236,2479.2121601349,-150.1413550351,-0.5442485856,0.8726961149,588.0150926619,7893.6628579899,7122.1763517545,-9825.6478229777,-1.3878821836,0.8144840453,-0.284529837,-29.4437123009,-0.5116023066,6.0465895535,17132.0820126053,1.3462340351,0.4052553355,5183.2912368042,-6356.1624139526,-0.2884236302,-32633.1794279846,0.8217426531,-8972.4117596522,22437.3997077229,4824.8557792701,0.8163868873,19922.5807523392,-5204.3712637461,-2810.3732433845,-18741.901552916,-186.006742226,4366.8644149186,-15368.5770774723,-47.4102361839,7025.9221264815,4941.8904709605,2777.6505323934,0.8380913425,-11496.945562037,2070.8699944222,-563.3142478118,7868.7571106133,-7676.5913433543,-5655.4136779518,-6120.0832215972,11429.8710788236,11059.7699000278,9592.1118200994,7.73258436,1927.890418205,-19792.2952616128,6099.0707854179,10745.5237106557,-12263.8253274621,-14272.4155767412,-10754.3026563075,-90.6791125816,-6723.1762263445,-9326.389033648,-16091.1492057311,10448.1848101071,7381.8844967752,-7263.521223469,6767.4239262983,-2175.0285925336,-1957.1133963251,8449.1237288235,2708.7723671667,-0.6121656683,-6324.7094391742,0.7248145754,1.5247571458,0.2193217065,-9869.2351614366,454.3887914767,-0.9670739338,1137.8021233861,0.8992107301,-3710.9027098922,0.4333882387,-0.6709410018,0.1522987823,-0.6054824094,-0.3710519943,104.9078424424,-0.1319005914,2723.7471413295,9364.4038993361,8546.3726671855,3335.1674977775,0.2684970778,0.6082360494,0.922889,-21660.3789118311,38.6867331635,-6532.651847737,0.1635422479,0.8145162589,-2856.7951505733,-0.8689809153,0.759078497,0.8749940509,-26971.7789138394,-1.1421406315,-16420.3937374327,19647.9260143795,-0.4549844775,854.8377209487,-18620.882490934,-18.3728624571,1.0519687693,-2.1497528016,0.1179332661,23.5350334296,0.4711902868,-0.3277836662,-0.2925181294,-0.4370866472,-6435.9596824349,20.9785700247,-24938.3091076629,1334.2785427253,-95.5937724432,-2535.4621881623,-4899.3353742949,-5258.1834510556,-9825.7413310719,7925.9957224663,-2071.4790793689,-2148.796231777,-1854.6570150824,-5793.5863845171,-29.5953362948,-1895.6916803811,881.6336525888,-2603.6461439453,12801.8207260099,-281.0216439152,-3861.5094514199,5632.4076541736,-8685.7933657581,-3153.2086519093,10734.7131421704,-7554.5331148288,22.1029608173,-5367.3270173196,-13930.2713635079,1913.4610013435,-0.6776570811,-1.7940177804,-3166.7116721678,-0.934172938,7381.8145272842,-24.7696166732,0.4178973408,9440.5212843821,-2.4250760154,-0.9191326491,-8119.7254593379,4020.4698732182,0.0299639212,-636.631782244,0.7768476178,-10.8905118388,3.3598987592,9441.983236357,0.9115555166,3741.4764254295,7917.6283397602,616.9633952162,-0.4360781886,3740.7524937336,-0.4969719024,-10898.1469678046,-1.6888736194,0.0206237477,1918.9697599031,-3466.5620785312,8208.2836856735,-27382.8770932892,5287.6949109793,0.3067562066,-11857.496282482,-0.2420489862,-0.0973967669,-12169.6117749366,-19792.6490392142,-4799.7731048659,-18324.1128867978,-0.2686070692,-9527.0058663565,0.7564255093,12448.6841190939,-6576.5167418811,13291.1946816458,63.7820191929,-1444.0120908073,-0.633067972,-19762.6516940313,5248.8451429473,-2446.9194262352,1149.8803506775,-1631.6505989646,22438.1383546764,-2455.7447488377,8585.145453483,-460.1708213792,1012.7916232006,0.0120501953,1848.5815836923,18873.2170106484,-790.5841142305,-759.7586294314,11449.9479710311,-22464.5581296039,-1963.214761315,11.3649288527,108.8127922898,12537.2584110059,7514.9482798263,-404.6476569569,3146.9749098314,-1672.1743543772,13533.7931379286,-46.8595201702,3.651662066,-5149.8743777469,3870.7314642736,-207.0282681253,9344.3674945577,-16530.7545705346,2.4251252344,0.1405718562,-13019.0306482002,-1.0533138127,-1031.5560344414,-0.3203083453,-0.5003628952,-0.488914317,0.5993877236,-30767.5047383992,867.4969320087,-0.1483622282,447.6427749609,-27.7842173376,-1032.1160212521,-8472.9462351745,0.2379596971,21274.9193606746,-0.6565768288,2214.6032552226,0.0936832804,415.5867064735,0.6309466528,-1896.4981733505,2308.0878903856,0.6378743254,-0.5601324422,-7132.3844388958,0.1096187915,-2945.3666051876,-0.7270088744,-14971.884101912,-18748.6320058108,-0.2003699238,117.9396631005,-1332.1451854933,-3798.592274586,1254.5206696069,5776.2217489057,11.3058190212,28.7646005356,-2.0352763018,-0.2494592928,9918.4149924198,0.8813148736,0.8605031278,1.8193780148,-2164.5686322733,-2780.6037009317,17072.0147701705,-5.9969910611,178.5320813326,0.3730023705,-9563.4280983639,-9279.2684712302,-3076.8756380981,1.1205505933,-56.79291794,-920.7554567744,7733.2654048004,-282.8513631803,-227.1233785194,-1578.7974249028,4715.0664185923,-4143.7279810609,-2089.358713197,-5620.1550310712,10913.1244838882,-4676.0871489223,97.3214680669,6535.5511715753,12.9291000999,-6801.3483506593,-1513.0215117567,882.3058789861,-0.3640663806,2264.1387442382,-1025.5250912647,-12990.7639218284,-6921.7522999068,-0.4049171447,0.6778168493,16017.5170530111,22040.4128639186,1585.8572628822,-2.1937871387,0.9908729044,14840.0900751851,3636.0261638931,-10636.2198482095,-14156.3610993308,0.8011592003,3071.2529700589,-0.7003059173,1585.6948832195,-0.4063697053,2303.6169486205,-1521.0393895806,-5126.089486195,-1.0744605824,-0.5700836333,9521.801530433,3448.2482983705,-6265.0043166805,-0.3318687565,30.6035733955,0.0110983253,-2516.9236975059,-0.919376332,0.4521399798,0.8172785346,-10796.0130692501,-16015.1257681887,807.1593774015,0.4190751606,0.7884024694,8272.2184983681,10721.2895784274,-1.2621293622,-2508.6822519216,0.4631479517,-457.6226849376,4427.8210797694,-2039.3125271747,-0.451163026,1.0400145554,0.7164918524,-879.5464700852,13754.4252179079,823.641828183,-808.957044545,281.4030359305,-2128.7332567856,-2451.0365118282,1376.5516898275,8179.5530875637,-8564.1861571193,-11630.1678491416,6455.3877814338,-12547.838820779,-5.9283487811,-44.6645030375,-7652.8518718934,-4357.9034871139,-13432.2227767355,8865.0874277558,2699.0026320383,-3634.5441231933,16795.4682433828,3414.6165712907,1777.1430669998,1497.0016878285,-11265.9685797633,-4237.5530852844,-3518.3488826653,-10270.213510031,4653.5777899711,3.64605334,0.6940102165,1286.3452418488,-0.4209568482,-6093.0092968932,-5185.2347111088,-0.4081386627,-1801.4515777249,0.1664174003,0.2107845661,0.4176570247,-6612.6577727559,-6451.0000323257,-7114.170150017,-0.8238713821,170.4029065791,6217.5320917594,-1801.8100545953,-1887.1453733826,3207.7289715986,18823.3746588983,-9384.8568107041,13864.2204426468,-1306.8119163731,1597.1370246802,-733.7752349226,-0.3587771088,-0.6127736972,4668.2964218048,-0.8800589965,-1040.7191815266,-0.2025761323,-0.5208163489,-0.7690323127,20574.7027639042,-9403.734476549,33.7676532768,8446.5590114443,0.2784727136,-1.3600468005,12384.2755705504,28327.6965488727,0.5566222305,-1669.3542052248,-188.5073993143,0.0534361567,-546.4327050889,-0.2696385316,-1.077389899,-0.6179101839,-4922.290435931,8532.7354940682,-10575.8621476833,4938.0342444649,4948.2356857271,-9473.8464797282,213.6742955581,11630.6224886408,107.4694958068,-7596.6004436781,2.5334185402,-2924.9487540324,-13283.7676320853,5059.1550999257,3802.563478196,2309.8837229128,520.4737764836,6960.051645979,2280.2070213553,8179.5668713611,-83.7052620856,-3901.5889109134,2194.0636802115,42.3254797255,-315.5353022821,-2766.4610821286,-2662.8617097008,8385.4610011121,0.4838282425,-21.416869695,-2221.5502736421,-6599.162183299,3802.7370006712,-6453.4512119298,0.566775736,-1478.462030626,0.4313305643,0.6011778772,20126.7263419259,0.1006122185,-14.061813468,-1.1932002724,-3926.3711756993,0.2545400029,-0.3415763241,-2.5066046094,-2.9822273623,0.5581486516,1.0746641538,-572.202162451,-0.3113321776,30481.4396950696,-1.1416915413,1.8188194909,-1284.8564639173,-129.3373345491,16869.1674608333,0.4423812524,-0.9793605498,7758.3071399751,504.7424022662,-0.9936227872,-0.9577464847,0.7735928599,-9398.4176775974,4631.0438641417,-4675.5972171346,-0.5510528935,9970.7439017233,24.314584571,0.1901702747,-38966.08908285,-0.617469809,-0.6609005307,0.6569675807,-544.0997625522,-4695.4307325104,590.1424378906,1.2786729848,1.8561907394,755.1463075003,-1721.6087288215,-16278.1793594867,8033.0724103799,7184.830129354,-8806.2522742811,-9924.5584359917,-428.165160436,6360.5867408461,4053.2367799016,-3499.5843811035,44.2942325493,2525.3581082738,-6797.1986133148,-8440.1917748123,-40.6316289539,4508.6104300819,-3514.2377618778,656.0920879948,-2142.936672895,-479.5577915166,0.509812596,11737.5281643884,7208.2595938792,529.0060187794,-413.3482860735,-6333.0281879695,11506.996257338,2477.5773394878,-10276.7349610909,14846.0289939725,-1.7725287384,12971.9864352105,0.7068140191,-1866.4596703897,-4041.7055160154,-0.2230890518,6790.9753828869,7088.466998858,0.5661175103,0.8088679147,1.6048359273,-0.3337240508,-8.3904399177,-0.7565454959,8010.0064608211,-0.8499307399,6789.9513292788,-5679.0217539796,-10320.4021904495,-5167.6397956475,-11997.2087609672,-5.999811237,-2664.0718665644,0.8528047915,-1063.758675943,-0.7357819574,-1227.7666446153,0.7925873103,10071.6834861872,-3858.592133535,0.1679733596,0.6367182603,0.359353441,-5066.6221359698,3649.1931284778,10.7859248268,-0.1064486974,-0.562533969,-14092.0378213479,0.6891251316,0.3112225059,0.0229219159,-795.0441112056,1820.4040339395,-4365.3697359015,-89.3444431694,-3891.372148436,15883.8389801544,0.6268172545,-6714.427227754,7320.8698868408,2866.6013527332,3171.7392311041,-6088.8137114798,7360.7592598138,4444.3157988622,-1732.5395749606,7283.2216378135,13488.5211287281,-2509.0575433725,-13268.0197457755,2.9920984852,-5635.9774283664,10723.3477790397,-3915.145021539,2268.8640868545,2810.6740120768,2.1188224111,-13076.1501925656,-8664.1551898576,1562.3584719488,-7690.3954146327,-7.887435963,8217.1248660376,-7254.7333825161,288.6883817984,2103.0973222294,4324.8731974787,-6049.7913857351,14.7497297446,690.1832263854,16035.1962011195,-2361.9597917064,-0.5791206321,-0.2945350463,1.2111377186,-3068.939640313,0.0018435661,-0.7212168782,0.9956374805,-37746.4285479708,5637.0337567833,-229.5420456332,0.568158422,-3.7127844834,2388.8276013457,-3067.6846863061,35.9452622838,8286.0760779863,0.2164457733,0.0402640109,44.5034506621,-0.772763896,-0.531416262,-1278.1037181018,2437.4605384581,-125.0791570438,0.6211658661,-4302.6253544582,0.8357016577,-0.6747535385,-0.6678702159,-0.2487978805,-163.7113599257,-1.685899013,19.6496221528,8409.205355379,0.1052029147,0.8107397633,6958.2123463156,11798.8281132761,6700.3293388834,-0.0718436713,-387.1793744379,-5.4780352424,-33180.7781529084,17813.2399452975,0.3779276811,-0.3213196943,6956.4172532802,-3883.2209917299,7453.863932049,7628.7821667709,-9111.2540505639,-13272.2519595057,-10136.5223636452,3079.1036646472,-6699.169761826,3573.6553678372,-8.1145983276,8613.6778921847,-7643.4003879633,958.4298642963,-1688.9538536585,-14279.6923639095,8737.8100085036,-10516.5593546866,-1432.1638938384,-6799.8917905388,1873.9682010287,7374.6957978076,9217.4445019825,6375.0705574294,-175.7807542296,-7210.7233094464,-3158.643032622,2759.5082713296,-1667.6178756034,-17082.3655592225,3026.1148326689,-1286.3863869701,1552.4712186313,4.7437994568,-2.7294629005,1657.4615243898,0.9796826991,-1.0269052295,-0.5180594895,-0.3599889669,2659.614169036,10999.2897986906,1949.4566779402,-3272.5488018038,-0.3842798176,13053.1715622902,12678.1646400809,-0.8353018307,27768.6027804862,0.4106612947,1185.0406719648,6329.499489323,0.0053908516,0.1746557975,-1.1604067763,9160.2199978397,2599.6236937547,-5601.8780158605,-1.407236561,-1079.2648378277,-1420.6940391683,1.1233184055,-4221.4812990922,0.0424546453,-8655.1126620918,-6.7205942248,-0.0634287543,21.0303242101,1138.0432064958,0.7050622912,-82.902784371,-0.1780621707,1.1969969821,0.3867030603,-26.8896147042,0.0398714175,190.8652083514,5445.1721526714,2530.129464029,0.4120763682,-3042.5540344787,3086.0806487681,1058.0598836067,1.8954920855,12135.5832469012,1981.9047678672,1055.5293124099,-25570.046733972,-5437.4913415862,3911.4437339682,-5999.553477262,-7903.7317895705,5.4734262321,67.0306993141,6562.6393834335,-1165.3542734815,-3595.6757252187,-7421.9736638603,8782.684279118,5526.6480789818,-17468.5225289121,8941.4729925385,9639.7528856345,-5878.7682277593,-15060.8802077521,-4230.8281192936,-10124.3486897037,5981.210181505,-588.179224691,1611.8503373181,0.1181332413,2136.3226052526,1789.9296426635,-0.3928917963,-0.265879523,390.5938742362,36.6075556117,7768.7186534668,-588.1057921999,-0.9971151996,0.7335100217,-0.8026212709,0.1478714504,-0.7998723638,-0.7546274452,-2342.5101921709,-1366.4493613543,7768.0053402288,-0.1544145934,27975.6471041963,-6675.7034956217,-0.3321679722,3254.8615286888,-75.4996663396,223.8291786734,-11770.8151795612,-1199.0391919914,-1475.8416783167,-0.7476917535,-3579.4959588768,0.8348096454,-6.4464792198,-7060.9205228632,0.3128325223,-21976.9805373175,-453.3293982838,22176.7723302636,-0.9712496674,-8770.6665865477,-20.9853664143,0.1489150754,-15.4031699401,39.0269921424,-0.1334504391,-9792.8395471914,0.0304635646,176.3837345683,146.8406840661,-0.3735414327,-0.1729510777,-1130.9998753461,5800.171602777,2018.3903131003,-6432.575866983,1637.0263573484,1597.1129719652,-2149.524002585,-3147.3834312101,-1699.2975565405,1994.8367479265,-136.7103561405,-6109.0500739569,1340.3320378562,824.7934169849,1150.8319234766,-8598.9587822083,-2413.3080467203,-3002.9405049686,1261.7377444227,-8363.4143845845,241.4301326473,-2345.7808376256,-2912.4019904161,1682.8550949666,1085.0649075519,2993.0483740027,-6176.6580830921,2861.4667973669,-10755.5388757819,-8458.300553385,18493.4176231076,-5847.3478945872,3533.0134373692,-45.2779842796,-0.3514352296,10728.4948145503,5772.0206233804,-764.6697466209,-0.5877986544,-0.3711597756,-0.0781555442,-8266.7772504683,-2981.6249374002,-0.0744349009,0.2568384683,15.8259385173,-3261.2195665088,-765.6345702973,-9738.3942966071,5447.9309998344,5779.2218765563,29010.7898357989,0.7613103204,4414.7160332999,2446.2727240267,61.6993162278,20379.3125225711,-0.3177439814,-6719.1068488727,6651.3192332299,0.3469168979,0.2686596604,-8.9141735588,0.9620269284,-15656.0284518867,11180.4449225912,-2066.0732137734,11.6189663894,-10895.6768595237,-0.2465918807,-5166.7645919641,14187.2950596426,1.0519509616,-0.7942533157,-25055.4920068949,-303.2412101703,-4091.9438020354,0.137549508,0.4522129378,-0.231658482,3274.3344268718,-781.1868421297,4738.8160542544,20989.4413361663,11733.5027713836,5527.5383027122,11327.0736388975,-1.1081414841,18195.8662196763,15038.6542820936,1253.2372748342,-8172.4356042225,-82.6395061022,929.6390045837,4869.8577815904,10829.1193696508,-9850.1729155868,-660.5758500589,-2312.787017402,15804.7656907829,-5060.0087067263,2939.4894780211,2641.0295609055,-3649.0191370717,-8349.3433652009,3082.6984514581,-13072.2833314118,-7698.8837633383,2723.0360146992,0.635208831,0.4246410762,1286.7858413753,-9021.5332759001,-0.5363039329,-61.5722986819,-855.5249804456,-1212.065207363,-0.811483809,-0.1061369129,-0.7721033686,2262.3349138525,34061.5723634439,0.7764608991,2.0368235713,0.9979927317,-0.8894124246,-13599.1396845719,0.8519224935,0.207347571,3828.2752650078,-3659.8967470444,-2034.1830270424,-0.084006157,-25.4301581675,12058.3486202434,17008.6384863726,-1515.2400036188,-0.1613470329,-0.3972913943,899.9777814476,-0.2065123811,0.0981617855,-0.6230165339,-0.5246087282,-16037.6956472155,0.7150468108,-412.454195078,-996.1411686838,0.4081695797,-6.1909844358,0.8484323793,-15686.9682840609,-1723.084791124,2789.0145071072,0.7296308654,4043.6225980178,34100.454958269,-274.7952375475,-5931.8724057041,0.1027731876,-10245.3376094918,-2251.5184938139,3987.4021507028,2624.4591227828,3341.6617968513,-8448.8549754152,939.8920051858,3349.7847749364,7731.8870559616,5758.7268448516,-27.597071116,11575.6573100834,-7444.5025270484,3720.4880513755,4102.824104692,0.6517869759,-7659.2029903962,-5374.6338527382,-14153.4736464929,1453.8104800752,450.0101674843,-2796.0310759124,1126.9883106026,0.5916504136,968.7922933375,13873.7692302888,-4960.7120506901,7080.1211706576,0.6358664194,-3978.1850293856,3559.779590851,260.8272455325,-24053.022159029,1758.8768010725,0.7645736492,-3970.4073098622,1.4042863697,1.7963995872,-0.8628713542,0.3515691398,0.8110630921,-1.4717792025,-11681.3840982951,-0.5744061505,0.4121821304,0.2932318888,0.6762844915,2.2356407873,-0.3254703148,-6754.0348120046,-391.5445241492,10636.15501449,0.2254118604,3862.9397001099,0.1186052388,10494.2075512973,-3577.2926608996,-0.0853862369,-0.8053821981,-0.5474198063,1276.1516059044,-1461.8689575479,-4330.0926060886,-0.7956752059,1495.3057904474,0.6997709378,-96.2206826555,0.7329963235,690.7673866046,-25825.0103748594,-3791.9787131872,0.2380924965,-1.6894374728,10276.5138409845,-48.9725680413,-16579.7084230778,15258.3277148097,10537.3188707887,-3551.5813435916,0.3189629264,7405.6297371894,7.4679197729,6926.9197511992,-2341.597138352,-4820.5843857488,-491.8133780965,1228.1301314458,-0.0861311232,6145.4589351015,-8692.7065519996,9203.0531283763,-12640.8504560712,-2122.882711189,-11280.8215065325,4096.5580392528,1162.3988631548,5404.7617574185,9145.3477420157,-3533.2544368912,22211.8586763415,4571.6426774641,-1293.2336033941,10621.609010841,-1863.5676256316,-804.7000762956,1674.0573382626,-1143.3815746184,-8506.7449646278,2946.8524558359
##end
biasActivation=0,1,1
[BASIC:ACTIVATION]
"org.encog.engine.network.activation.ActivationLinear"
"org.encog.engine.network.activation.ActivationLOG"
"org.encog.engine.network.activation.ActivationLOG"
