encog,BasicNetwork,java,3.3.0,1,1425325247730
[BASIC]
[BASIC:PARAMS]
[BASIC:NETWORK]
beginTraining=0
connectionLimit=0
contextTargetOffset=0,131,0
contextTargetSize=0,29,0
endTraining=2
hasContext=t
inputCount=50
layerCounts=50,30,80
layerFeedCounts=50,29,50
layerContextCount=0,0,29
layerIndex=0,50,80
output=-0.1743628143,-0.0724389033,0.2004529572,0.0276445823,0.0798703896,-0.0459669082,0.1964867063,0.2819175209,0.0793543682,-0.1587742059,-0.0000598969,0.0121855917,-0.0589701215,0.3678194077,0.2505768263,0.00004353,-0.0528793081,-0.2056037504,0.0366947414,0.2264109368,0.1366207998,0.227180624,0.1546404652,0.2264691098,0.649423738,0.0410655861,0.0598993139,0.3439674676,0.0848852674,0.2206631251,-0.353817398,0.2665304759,-0.0579042631,0.1501751605,-0.0000114464,0.1782748591,0.1600430569,0.3661910871,-0.247088162,-0.1220642697,0.3303405704,-0.0516394119,0.0445646467,-0.0743834804,0.0748203543,-0.2147248091,0.3698876193,0.2972563757,0.6307678645,-0.1983079923,-10.3312670321,8.955929809,9.3375376262,-8.7885292608,8.0864465711,-9.8352605922,-8.4966168994,9.9861353131,9.6336153001,9.5765522364,8.9627960934,6.4244711086,8.0991816769,10.3445122766,-9.2248792605,-9.9044328295,9.6984595897,10.1972284733,-6.3786334666,-8.1181951485,-10.6358873909,-10.0295219941,-7.1103670221,-9.3771795684,-8.9203425485,-9.3795240015,-10.0151826858,-6.2133398058,9.670000628,1,0,0,1,0,0,0,0,0,0,0,0,0,0,0,0,0,0,0,0,0,0,0,0,0,1,0,0,1,0,0,0,0,0,1,0,0,0,0,0,0,0,0,0,0,0,0,0,0,0,1,1,-0.1743628143,-0.0724389033,0.2004529572,0.0276445823,0.0798703896,-0.0459669082,0.1964867063,0.2819175209,0.0793543682,-0.1587742059,-0.0000598969,0.0121855917,-0.0589701215,0.3678194077,0.2505768263,0.00004353,-0.0528793081,-0.2056037504,0.0366947414,0.2264109368,0.1366207998,0.227180624,0.1546404652,0.2264691098,0.649423738,0.0410655861,0.0598993139,0.3439674676,0.0848852674
outputCount=50
weightIndex=0,1500,3820
weights=##0
##double#3820
   0.0071259858,-0.001746733,-0.0041836792,-0.0001357394,0.0014016024,0.0001075215,-0.0044790705,0.0006506606,0.0059695181,-0.0001075024,-0.0019261592,0.0059796341,-0.0019670477,-0.003699526,-0.0028033558,0.0039474449,-0.0014332966,-0.0002118704,0.0030077351,-0.0036382832,0.0048130163,0.0026858826,-0.0005400584,0.0016901636,-0.0051188705,0.0013803841,0.0056760053,0.0058366795,0.0037009899,0.0082058414,-0.002783524,0.0103353759,-0.0023279696,0.0059406449,0.0019002127,-0.0002977927,-0.0069232873,0.0010850319,-0.0034507853,-0.0053914251,-0.0025319885,-0.0004076818,0.0034729602,-0.0017232643,0.0065020166,-0.0026916213,0.0019600433,0.005098596,0.0015183554,0.0062364212,0.0036264975,0.0087685512,-0.0078356818,0.0002734107,0.0017571879,-0.0031669665,0.0024934509,-0.0012340967,0.003912585,-0.0464424667,0.0149982091,0.0012064683,-0.0085731364,0.0060765957,0.0004232279,0.0024195788,-0.0066235947,-0.000318107,0.0096370446,-0.008141439,-0.0057821817,0.0128818948,0.0009460333,0.0049097131,-0.0040013224,0.0033553962,-0.000250182,-0.0030344553,-0.0063994621,0.0010672402,-0.0089011758,-0.0058266234,-0.0020483076,0.0030207052,-0.0043694733,-0.0036510715,0.0031284556,-0.0014975172,0.0001431051,0.1466775284,0.0035970358,0.0061857436,0.0003572947,-0.0075261362,-0.0006282007,-0.0005156924,-0.0005870331,-0.0053758306,-0.0036764842,0.0018981775,0.000148105,-0.0078012555,0.0026579218,-0.0019346798,0.006976956,0.0010100774,0.0023269108,0.0034051317,0.0024456798,-0.0015668206,-0.0107017826,0.0033733574,-0.0057847443,0.0017234558,0.0046207139,0.0019774757,0.0045716253,0.0030865946,0.0006372967,0.0867118087,-0.0030362371,0.000684113,0.0025402679,-0.0004224109,-0.0002089099,-0.0032831461,-0.0150208967,-0.0091555367,-0.0058185068,0.0038966384,-0.0032872397,0.0032421164,0.0056543634,0.0085797783,0.0001870593,0.0035199468,-0.0103455506,-0.0032260518,-0.005342888,0.0114497547,0.006553658,0.0072736029,-0.0026514104,-0.0041635661,-0.0031447513,-0.0022893919,-0.0010324598,0.000517843,-0.0006886785,0.1044282524,0.0088958423,-0.0027100207,-0.0046877965,-0.0030151675,-0.0064834521,-0.0054684796,0.001962138,0.0106127563,0.0034751655,-0.0041697329,-0.0011558231,0.0030791635,0.0061751675,-0.0046360924,0.0144000001,-0.0049577807,-0.0038486966,-0.0009064639,0.0041860531,-0.0024912442,0.0028755602,-0.0010785574,0.0186946299,-0.008172435,-0.0004739723,0.0041123852,-0.0053913735,-0.003482116,0.001057558,0.1531184941,0.0036390553,-0.0008525945,-0.0084881195,-0.0017709889,0.0017531838,-0.0011525054,-0.0044820005,-0.0034474655,-0.0002230587,0.0037424805,0.000507079,0.0056427917,-0.0044623785,0.0060016176,0.0025407429,-0.0026755653,0.0051915732,0.0061646493,0.0051280145,0.0080435028,-0.0017946651,-0.0093209508,-0.0049770718,0.0035189638,0.0087600466,-0.0067034346,0.0019509837,-0.0019063711,-0.0072296727,0.1354584973,-0.0030482674,-0.0047581362,0.0060229628,-0.0007258679,0.004263873,-0.0083034334,0.0011704256,-0.0099781118,0.0054273004,0.0040267365,0.0044816087,0.0005743583,0.0114397643,-0.0045797589,-0.0056571674,-0.0004116726,-0.0080195002,-0.0007961618,-0.0041912766,-0.0011859973,0.0081947159,-0.0026634572,-0.0024202209,0.0128312705,0.0040451696,-0.0064332734,-0.0052311351,0.0036762941,0.0047467292,0.1009988427,-0.0001469479,0.0005454753,0.0020390404,-0.0023074921,-0.0027306042,-0.002608826,0.0010700128,0.0014129445,-0.0001407195,-0.0040612944,0.008261727,-0.0019438694,-0.0030038719,0.0031150349,-0.0072639205,-0.0068614283,-0.0030568915,0.0027089515,-0.0047738522,-0.0019413562,0.010908824,0.0021663792,-0.0064478693,0.0074352781,-0.0033402288,0.0001435647,-0.0039579526,0.0101025983,-0.0069518078,0.0402091626,-0.0076573266,-0.0060223663,-0.0000012551,-0.0040555699,-0.0057227385,0.0001065717,-0.0059202417,-0.0136207609,-0.0045213355,0.00192213,-0.0037334018,-0.0035432326,-0.0094251375,-0.0026469051,0.0066162621,0.0036101586,-0.009607976,-0.0069337127,-0.0068223781,-0.0117606123,-0.0090025704,0.0039560816,-0.0030534546,-0.0041127153,0.0004995907,0.0150006545,-0.0083422491,-0.0014895358,-0.0000907804,0.1571191983,-0.0000002352,0.0000018449,-0.0000006967,-0.0000012856,-0.000000451,0.000001788,-0.0000004741,-0.0000016331,-0.0000004166,-0.000001379,-0.0000008181,-0.0000003675,-0.0000004605,0.0000005825,-0.0000008185,-0.0000003092,0.000001603,-0.0000006274,0.0000002152,0.0000002106,0.0000010772,0.0000014941,0.0000000203,0.0000006872,-0.0000002554,0.000001399,-0.0000004202,0.0000010846,-0.00000089,0.0000128212,-0.0040529914,0.003142689,-0.0044834347,-0.0007520644,-0.0029533501,0.0058491862,-0.004300632,0.0009793961,-0.0009314108,-0.0005108258,-0.0033606206,0.0039590814,-0.0028160004,0.0067963801,-0.005754757,0.0027775293,0.0026870742,-0.0040179915,0.0023287584,0.0025605515,0.0017063353,-0.0017966377,-0.0033587793,0.0072699581,0.011676787,-0.0002863331,-0.0034257258,-0.0060599161,-0.0000631568,0.0830827409,-0.0042923913,0.0085305959,-0.0056164134,0.0018834421,-0.0015512777,0.0069921047,0.0034625803,0.0038454614,0.0062827078,0.0013251677,0.0003787291,-0.0036442599,-0.0112938179,0.0054322806,-0.0031580029,-0.002161145,-0.0020830127,-0.0017414112,-0.0006269196,0.0028896958,0.0054490784,0.0005751761,0.0009064074,0.0010074819,0.0065595972,-0.0024833727,-0.0093566362,0.005081548,-0.0182529897,0.1797836604,-0.0023792966,0.0045784076,0.0037314215,-0.0043767863,-0.0012105783,0.0016187334,0.0000101519,-0.0030795213,0.0007598064,0.0029796045,-0.004343514,-0.0094635337,0.0060002299,0.0084108152,0.0028150498,0.0100548043,-0.0019719669,0.0017789801,0.0027294212,-0.0086449082,-0.0089064505,-0.0031541796,-0.0061792554,0.0012652948,-0.0000301885,0.0006836706,-0.0027255255,0.0021457899,0.007207433,0.0515640979,-0.0045650128,0.0117060991,-0.00373644,0.0075454151,-0.0105252162,0.0103558551,0.0077960352,0.0107504617,0.0013288338,0.0018872505,0.003708003,0.0031231717,-0.0074943251,-0.0037049781,0.0017206523,-0.0172395877,-0.008608063,-0.001825556,-0.0005260315,-0.0044783749,-0.0090667843,-0.003073974,0.0009290133,0.006525001,-0.0043538661,0.0024653798,-0.0028222326,0.0006208414,-0.0018143469,0.1859411318,-0.0000008432,0.0000001907,-0.0000001184,0.0000001417,-0.000000109,-0.0000000943,0.0000004603,0.0000017327,0.0000001847,0.0000004592,0.0000001855,-0.0000001138,-0.0000009549,0.0000004325,0.0000009024,-0.0000017508,0.0000004646,0.0000002328,-0.0000021314,0.0000007037,-0.0000010718,-0.0000006355,0.0000004623,0.0000030419,-0.0000003279,-0.0000001568,0.0000008038,-0.0000007862,0.0000010391,-0.000002843,0.0015337673,-0.0026178982,-0.0013992409,0.0058648353,0.0088477451,0.0016614564,0.0066787707,-0.0015384235,0.0004828417,0.0185655816,0.0007295662,-0.002845456,0.0016371615,-0.0101400103,0.0005323828,0.0056087653,0.0036446407,0.000109897,-0.0064829588,-0.0081112126,0.00207157,0.0048955157,0.004347317,0.0040797967,0.0004840915,0.0062080047,-0.0046443976,-0.0005617247,-0.0154373903,0.2077703182,0.0040223705,0.0020353037,-0.0066124302,0.0034187665,0.0003667003,-0.0046208735,-0.0012661886,-0.000804177,-0.0078410462,-0.0027567765,-0.0013429106,-0.0001801954,0.0109155529,0.0058192823,0.0085686758,0.0029011859,0.0017383912,0.0004172795,0.0037949819,0.0015740535,0.0036437037,0.0087161274,0.0060269385,-0.0014538516,0.0013268241,-0.0045427117,-0.0036924119,0.0013703793,0.0019509467,0.0258403344,0.0012822735,0.0029813374,0.0025762275,0.0006597092,-0.0033263878,-0.0041509407,0.0008758274,0.0001758279,0.0002568037,-0.0043189927,0.007369493,-0.0031720543,-0.0022682281,0.0048594855,-0.0059482133,-0.0059015715,-0.004273863,0.0050557899,-0.0034089708,-0.0019159885,0.0105031851,0.0030712689,-0.0069328954,0.008168799,-0.0035146014,0.0006603366,-0.0032565409,0.007869862,-0.0065073847,0.021202493,-0.0031377348,0.0009879854,-0.0055202802,0.0009277791,0.0034571689,0.0070773392,0.0027800844,0.0019786187,0.0069099865,0.0095847966,-0.0007204047,-0.0121130512,-0.0038870342,0.0068320629,0.0023422296,0.0047173245,-0.000568184,0.0006263578,0.0039046988,-0.0030551851,0.0046788695,-0.0045525503,0.000561024,-0.0071934824,-0.0043099147,-0.0035670302,-0.0040167485,0.0018026554,-0.0019370784,0.1030818846,0.0044046625,-0.0035338109,0.0065629081,0.0034755542,0.00166368,-0.0067768887,-0.0010127136,0.0065828286,0.0090398422,0.0049959891,0.0029391562,-0.0006090101,0.008987777,-0.0047188273,0.0014738105,0.0012398147,-0.0070930579,-0.0026754673,-0.0010335654,-0.0012204657,0.0020735141,0.0013928985,0.002077064,-0.0015657455,0.01239848,-0.0065110511,0.0053711824,-0.0040754813,-0.0021358159,0.087461887,-0.0054778855,0.0008796927,0.0037262478,-0.0065077582,-0.0039536717,0.0039619068,0.004110203,0.0004124712,0.0013053939,-0.0049276607,0.0019699382,0.0054203846,-0.0004942837,-0.0010882158,-0.0009899388,0.0002133176,0.0103165971,0.002022185,-0.0003432955,-0.0021517414,0.0028791206,0.0002451487,0.0002957321,-0.0030737374,0.0003818275,-0.0030840983,0.004484888,-0.0013618163,-0.0002042747,0.0417748306,-0.0080857418,-0.0035956443,-0.0064676721,-0.007809782,-0.0050565836,-0.0014898909,-0.0021906514,0.0041816664,-0.0009871723,0.0014241834,-0.0015583866,-0.0017292564,-0.0083400095,-0.003179889,-0.0001326664,0.0008257813,-0.0018444874,0.0019310947,0.0013128003,-0.0010434975,-0.005154728,0.0025530619,0.0065334496,0.0013260183,-0.0043337693,0.0000860852,-0.0057124808,-0.0064599924,0.0017105737,0.0652997057,0.0040712172,0.0093566702,0.004922344,-0.0054771183,-0.0071081801,0.0071911045,0.0032158484,0.013433979,0.0039891575,-0.0045648692,0.012429249,-0.0009184041,-0.0033719813,0.0002384413,-0.0060810936,-0.0054558383,0.003028037,0.0016182274,0.000537274,-0.0030302595,0.0139874169,0.0040576581,0.0050847333,-0.0020814717,0.0088547737,0.0011662297,0.0061634923,-0.0067138487,-0.0078448235,0.2513628839,0.0012568897,0.0024803407,-0.0016947883,-0.0036005839,-0.0016576981,0.0021806786,0.0029723023,-0.0062555518,0.0024278317,-0.0153017062,0.0033945231,0.0085215552,0.0047227079,0.0087446585,-0.0045319433,0.0004281427,0.0082689069,-0.0056390737,-0.0159891316,-0.0017053474,-0.0048104828,-0.0132287943,-0.0075074291,0.0063616196,-0.0064306716,-0.0069491931,0.0006341893,-0.0044639935,-0.0024897272,0.1827070671,-0.0064949021,-0.0011897287,-0.0021007717,0.0088558716,-0.0000018157,-0.0044996684,-0.0024493122,-0.0089270379,-0.0058099955,0.0014262645,-0.0027163011,0.0023510432,-0.0029619515,-0.0036096544,-0.0049820631,-0.0017406087,0.0041095627,0.000799362,0.0025657019,-0.0088049563,0.0037988944,-0.0074031335,-0.0001963191,-0.0038490592,0.0008346871,0.0088394309,-0.0024401436,-0.0014687118,-0.0026531769,0.0638367104,-0.0036219759,0.0044508754,-0.0016661287,0.0085255075,0.0015326879,-0.0039993736,-0.0011812546,-0.0027694589,-0.0033888468,0.0030036451,-0.0005892996,-0.0007640111,0.0008353942,0.000512801,-0.0019778237,0.0033441201,0.0009141484,0.0035612244,0.0019856336,-0.0057341455,0.0019834127,-0.005871956,0.0025471659,0.0009250175,-0.002475883,0.0059356964,0.0029662573,-0.0044049243,-0.0039999791,0.040399456,0.0077448743,0.0133742871,0.0046044781,-0.0005983178,0.0002542766,0.0049176756,0.0085902713,-0.0070903916,-0.001398337,-0.0019679604,0.0060758299,0.00254754,-0.0042114683,-0.0074080946,0.0011840481,-0.0068975455,0.012058232,0.0072195115,-0.0015003764,0.002143958,-0.0011218037,0.001658844,-0.0039858108,-0.0057443631,-0.0001635299,-0.0070657418,0.0124661223,-0.0061167148,0.0105220798,0.1180310796,-0.0090730914,-0.0056799194,0.003631799,-0.0067452167,0.0089313149,0.0007175976,-0.0001981226,0.0086376971,-0.0048303117,-0.0144978574,0.0029817625,-0.0070680358,-0.0045477128,-0.006797272,-0.0005437614,0.0043784182,0.0003776599,0.0007580924,0.0023592073,0.0107573378,-0.0067146422,-0.0051377167,0.0088492079,-0.0026759906,-0.0001323998,-0.000721508,-0.00124821,0.0051391832,0.0028624796,0.1349430062,-0.0039253108,-0.0021842253,0.0040465179,0.0027641278,0.0048586008,0.0009505909,-0.0077526246,0.0006257964,0.0017312065,-0.0019487042,-0.0024252158,-0.0121898725,-0.005704498,-0.0006108548,0.0046819451,0.0065929218,0.0015476552,0.0011060124,-0.0004492203,0.0076660415,0.0060188777,-0.0061158607,0.0035162955,-0.0152960079,-0.0019360609,-0.0017709977,-0.0137692467,0.0197124974,0.0055245769,0.1617656478,0.0032402606,-0.0141114605,0.0021587952,0.0039319138,0.0091532972,0.0094509026,0.0036141329,-0.0016866939,0.0056027002,0.0047007895,-0.0038194181,-0.0012357033,-0.0055587007,-0.0079527861,-0.0051031186,0.0027295638,-0.0109548329,0.0086200521,0.0000345493,0.0048560792,0.0014851289,0.0156647562,-0.001533483,0.0006437467,-0.0029535379,0.0032557409,0.0117876844,-0.00133,0.0020038338,0.2579828434,0.0107280358,-0.0039476142,0.0017844437,0.0005602243,0.0093734702,-0.0113588522,-0.0052002461,0.0054991818,-0.0034494896,0.0000672861,0.0128433743,-0.0049128951,-0.0041332228,-0.0015265878,0.0078896786,-0.0039598409,0.0029465691,0.0063386678,0.0047940609,0.0024255194,-0.0000423071,-0.0084915575,-0.0035545922,-0.0002997189,0.003938692,-0.0039838261,0.0114538508,-0.0042342151,-0.0047737628,0.1219201725,-0.0057094312,-0.0085201103,0.0009019028,0.0018027853,-0.0000437222,0.0089883596,0.0042919283,-0.0037105875,0.0001758263,0.0056149855,0.0066190492,0.0010109034,0.0019601263,0.0006687545,-0.0008589977,-0.005172289,0.0022365383,-0.0074799489,-0.0002568049,0.0120609096,-0.0064897278,0.0078121256,-0.0042934697,-0.0026587055,-0.0068964971,0.0153527017,0.0024672129,-0.0002755096,-0.0062056806,0.1960994349,0.0071542187,-0.0028486431,0.0089196181,0.0088110233,0.0078943253,-0.0054225454,0.0060101687,-0.0032550899,0.0049021095,-0.0003340274,0.0130843638,-0.002425074,0.001836797,-0.0082568409,-0.0030783148,0.0094754433,-0.003585878,-0.0047980682,-0.0037390656,-0.0016068815,-0.0100223027,0.0040208996,0.0028831643,-0.0033424057,0.0042687,-0.0041957029,-0.0048761323,0.0003832694,0.0054343262,0.0698399553,-0.0000009567,0.0000001157,-0.0000013119,-0.0000011149,0.0000000795,-0.0000010796,-0.000001884,0.0000002216,0.0000002802,-0.0000003088,-0.0000002324,0.0000011986,-0.0000006509,-0.0000002061,0.0000007672,0.0000004608,-0.0000015625,-0.0000001809,-0.0000002742,0.0000010961,0.0000002107,0.000001664,0.0000009905,-0.0000003266,-0.0000010232,-0.0000013363,-0.0000003936,0.0000007901,-0.0000005006,-0.0000045048,0.0025064524,-0.004490625,-0.0008669497,0.0002654223,0.0031514911,-0.0055799191,-0.0027103721,0.0036733383,0.0002530608,-0.000259027,0.0008947661,0.0043283583,-0.0041763843,0.0050286804,0.0032686493,-0.0020991485,0.0041314398,0.0031821503,-0.0038426025,0.0011019839,0.0003790873,-0.0026594613,-0.0015483837,0.0031911183,0.0008243826,0.0006371215,-0.000459458,-0.0018330899,-0.0028151612,0.0028751158,0.0018176779,0.0140582394,0.0096392401,-0.0052027577,0.0049409799,-0.0006520543,0.0004577261,-0.0132882937,-0.0033676761,0.0034194088,-0.0074555062,-0.0078901927,0.0031333091,-0.0048602466,0.0061369973,-0.0071815115,-0.0056525806,0.0045515625,0.0035987828,0.0040197647,-0.0050582514,0.0009388362,-0.0091380399,0.0093997242,0.0044445809,-0.0058943186,0.0052096826,-0.0021080554,0.005676197,0.1463309197,0.0029311409,0.0000377451,0.0036665702,-0.0052485064,-0.000465445,0.008361868,-0.0022477687,0.0023696616,0.0052832346,0.0008576476,-0.0037477003,-0.0034889798,0.0033224008,0.003221849,0.0017228396,0.0018967134,-0.0009901083,0.0032549319,0.0005015673,0.0041479176,0.0003583372,-0.0085949703,0.0047789898,-0.0080542773,-0.0043650203,0.001223984,-0.0074563497,0.0085591419,0.0089459971,0.0842364331,-0.0033774952,-0.0126082258,-0.005160118,-0.0012372522,-0.0045609751,-0.0006374409,0.0015644336,-0.0034690498,-0.0108572081,-0.0039575024,-0.0060336935,-0.0061306472,-0.0063755688,0.002317108,-0.004666221,0.000094689,0.0019564198,-0.0031263457,0.0053446667,-0.0011050606,0.0021803104,0.0037644428,0.0062530919,-0.0014301057,0.0058530773,-0.0014092824,-0.0079402775,-0.007380349,0.0075076723,0.1393482505,-0.0041051103,-0.0075908847,-0.0008205758,0.0013180808,0.0000868559,0.0040511712,-0.0045960234,-0.003710576,-0.0022600609,0.0008279602,0.0007199089,0.0013938417,-0.003883522,0.0046600113,0.0002275307,0.0007433562,-0.0056119625,-0.0041083886,-0.0028525749,0.0011318468,-0.0003791349,0.0042782372,-0.0033891213,-0.0069502167,-0.0009314892,0.0035489637,0.0037756781,-0.002927669,-0.0022904271,0.0547155109,-0.0073908094,0.000687619,-0.0020688531,0.0015953509,-0.0075737235,-0.0015152012,0.0009189476,0.0034256898,0.0035468037,0.0087260221,0.0045204512,0.0052912666,-0.0025317103,0.0003976609,0.0032637806,-0.0065602844,0.0019066632,-0.0060388436,0.0017708289,-0.000142187,-0.0084267881,0.0006162662,0.0066128058,0.0016708233,-0.002678925,0.0073096265,-0.0051837183,0.0012190257,0.0037129979,0.0872733969,0.0050300272,-0.0008451221,-0.0055624803,-0.0022786687,0.0002177526,0.0040568026,-0.0088661728,0.0049848353,0.002399266,0.0031013907,-0.0025063759,0.0089862099,-0.004770211,-0.0019786631,-0.0082113806,0.0026152178,0.0029070503,-0.0041318024,0.0032893573,-0.0061130595,0.0073586704,0.0059292091,-0.0028780311,0.0057326001,0.0022132478,0.0026171863,0.0041132673,0.0015366724,0.008976724,0.0385589496,-0.0015219394,0.0061705523,-0.0026264863,0.0003628634,-0.0025059906,-0.0036038092,-0.0076921322,0.0031429764,-0.0047586317,-0.0014061879,0.0000414577,0.0021269586,0.0060302492,0.0026558677,0.0020192502,0.0046364045,0.0018338264,0.0014203952,-0.0020052608,0.005107674,0.0029870629,0.0058826346,-0.0030260287,-0.0016987372,0.0019994612,-0.0010765342,-0.0019856973,0.003533021,0.0014474554,-0.0315877038,-0.000082305,-0.0083056938,-0.0066492156,0.0001542485,-0.0110551689,0.0072959539,0.0111902722,0.0103342051,-0.0101296055,0.0023423281,-0.0019797194,-0.0008660677,0.0081256386,0.0029201071,-0.0063160106,-0.003259777,0.0088730275,-0.007123112,0.0017003538,0.0092177428,-0.0102486998,0.0049433808,0.0114672167,0.0104674685,-0.0021403541,0.0013140309,0.0025647964,-0.0057576648,0.0015725934,0.2879857586,-0.0049833903,0.0063789907,0.0006419273,0.0021050635,0.0043534576,-0.0047073637,-0.001647937,0.0130173696,0.0018138621,-0.0005695554,-0.0054293097,-0.000333911,-0.0019080209,-0.0050740851,0.010023795,0.0004554919,0.0011075692,-0.0080225519,0.0010039103,-0.0011537992,0.0078132997,-0.0084085206,0.0088835899,-0.0079880975,-0.0032285959,0.0031086655,0.0065329432,-0.0047709111,-0.0127851433,0.1718301959,0.0078870627,0.0011768525,0.0074103034,-0.0019649974,0.0047523049,-0.0086030767,-0.0048391432,0.0003650293,0.0001143381,-0.0027974404,-0.00049733,-0.0001538131,-0.0028666801,-0.0036577335,0.0043288675,0.0158059385,-0.0025229912,-0.0031727124,0.0000647261,-0.0079407529,-0.0059114584,0.0042058225,-0.0019773674,0.0100284732,-0.0028998521,0.0027015345,0.0074674793,0.0105606906,0.005928954,0.0252241462,-0.0067494263,0.0025799116,0.0036090036,0.0012383307,-0.0016188457,-0.0054007498,0.0028481544,-0.0033198796,0.0043683301,0.005432607,-0.0016783541,0.0034016718,0.0061779645,-0.0000801747,-0.00589779,-0.0080932852,-0.0034011868,-0.0041599675,0.0034459807,0.0091022645,-0.0000187326,-0.0033711416,-0.0024423569,0.0048629366,-0.0006944045,0.001189765,-0.0025614463,0.0010433038,0.0057104733,0.0829480054,-0.0013364905,0.0033094199,0.0052886465,-0.0025741333,0.0029544387,-0.0036186433,-0.0039518197,-0.006163567,0.0002310777,0.0021727016,-0.0050477987,0.0016913487,0.0053437345,-0.0011956625,-0.0040722202,-0.0052357937,-0.0031346201,-0.0013843199,0.0001224318,0.00289322,0.0034060829,-0.001242446,-0.0027213399,0.0050667619,-0.0015811267,-0.0050517919,-0.0043481974,-0.0032514988,0.0019339631,0.0180785468,0.0001771691,0.0033425973,0.0032016288,0.0005304238,-0.0045429134,0.0058830966,0.005239206,-0.0036551027,-0.0028725627,0.002484686,0.0052131811,-0.0033958134,0.0077348986,0.0103419126,-0.0063825444,0.0054399504,0.0060726343,0.01266112,-0.0072768914,-0.0107913844,0.0089094876,-0.0181905403,0.0047021203,0.0050875492,-0.0124269332,-0.0012954796,0.0118347307,0.0042229314,0.0001231454,0.2493883077,0.0135229166,-0.0090855951,-0.0017587024,0.0056078687,-0.0020707785,-0.0038830939,0.0095618672,-0.0143513777,-0.0050532224,-0.0014952589,-0.0047109711,0.0013796898,0.0050483919,-0.0058205038,-0.0040064195,-0.0032380022,0.0049150337,-0.0054256081,0.0002987155,-0.0011365131,-0.0033618326,0.0077441,-0.0012291255,-0.0097998591,-0.0083067079,0.0050442546,-0.0107673738,-0.0049471576,0.0025738269,0.0896084302,1113.1998955398,-0.7547241794,0.7856912072,37456.1889927423,0.2108598743,-0.7790844804,-8329.945178922,0.2499233285,0.8781663822,-0.6245708712,0.654762223,-11969.1646494198,4.0666703485,47409.4505816547,0.5543475864,-0.1504000686,3590.372573728,-0.2463408088,0.327858483,18061.3087331363,6423.9579783842,34.5677390579,-128.2667915367,25.6074619579,-9316.2510528971,5522.0357919538,23312.310483548,0.6034379976,-28898.8520005488,-12465.9772930607,0.2377303376,-9786.2771718672,-2643.1459445128,-4761.5951223173,0.7927460191,16109.1315695022,40965.5544626147,1831.8472280899,-8.5005537009,-4703.40212956,446.1413866294,-0.9052317996,-7051.2684857793,-1438.8645045742,-0.0896945152,3.9488294973,88.9024845702,34371.5519825353,2.0499592201,-5862.3809881089,0.7426721163,-3026.6385175595,17094.3150249854,-15024.9663212584,-1347.8821785152,5877.7920463273,-3646.4129254182,-10280.975117155,-9427.598631849,-1319.8930843607,12692.0732190885,7511.2826680339,49.792263424,6001.0325333429,2115.1477278912,6217.3447898378,-33.5310083953,15686.1680215288,1260.5123217873,-9664.248459106,18714.7433357666,-22627.3618472312,-6647.4573076734,-4173.6290895064,5054.4863571557,392.1250988507,-8252.2652577452,8364.6193420541,5978.2158889327,-4.1965684599,41985.407538785,-0.8617392042,857.3677509121,349.9052009097,-0.5233243504,-11297.6296885734,-15050.8277242132,0.0266323406,0.9289705131,10873.2452954493,-0.2055807566,-20077.5557184793,-12742.6076593321,22.938855628,1.071695939,0.1840656095,-3275.8465164675,8786.1280434615,0.2104417668,4365.0042679295,-5119.23711411,-0.3157250425,-566.1733126776,-5.6542830038,-0.0777247405,-9177.827707218,-21997.8723240047,1.0917288977,-2248.7271426652,-1.028667306,-0.155492378,-1.1210134775,-0.9317822967,2.2677594406,0.6005561477,12663.8483792033,-234.9081259404,-9885.314238428,4880.7384591975,35352.8788899848,0.4629890873,31719.8945578212,212.3658093397,-0.5249561337,-38408.1789336492,7781.9381020873,-1474.3960534,-5588.6004240955,234.8750740768,-0.612240773,2.5180907555,5970.403944981,6997.0865494489,-2803.8595311768,8455.6866441045,-118.7808008176,-3268.0882227697,-2876.9598567366,5598.8736553227,-2023.1570123088,2533.8353087166,-2498.0170937706,7726.0725621595,-11989.718673469,2961.7777274582,58.4650776945,286.4200459384,582.1816921637,-91.5298656668,-2859.7456152434,3395.2906594869,-2847.1759712727,-12080.3375267587,-1157.5116775137,-1407.7140051788,8904.00906965,1367.4887826781,840.6559761291,-668.5797381306,-7247.7000666116,8102.849903139,-0.0252861769,165.3493852612,0.158544174,-0.8387922359,-0.4995516509,-5569.5363255885,-0.925233048,-1.4113086694,-100.2272546192,0.9289934192,-1216.1531561966,-2304.8952405199,5604.1474431202,-811.3589911776,0.1763170396,-20.4468308238,5657.9143912575,-2.9468172532,-0.1000898143,29397.8336765329,0.2828622646,2528.5447089234,0.7591484788,0.4510642158,-8538.8343271798,-2101.2995910814,-2884.9519085024,-0.7487381959,1.0810630932,1699.4159093255,-7125.8955204444,-0.0990302418,12157.3105641732,-0.3947316951,-10573.3935574246,-5987.2228773189,3824.6657501806,123.198836736,0.8925463665,640.6369946489,-0.3223455405,3378.6701271683,2.1875520703,-2406.133899364,0.7006493764,-0.3722654094,-4609.8520942826,-0.4232501179,-0.4410190796,0.0686877281,-21792.7504992128,2.5780871945,4781.2440855938,-1365.7691099604,4122.429836987,0.3993628332,-6304.8553540642,5900.724650672,-3281.678824794,1483.0772037082,8959.9696787888,-1334.6510668582,1731.7611425534,-3078.6931556926,3834.2317621097,-2591.5311283872,8670.3887031715,282.4441736335,-237.7511689191,10839.620385012,-11310.8581835167,3370.9355796079,-11202.7779794509,4459.2777036223,-1222.8138096074,-11141.4161123341,-4013.2900016948,-101.941339855,617.7701767888,3555.4387024908,-83.4112060943,-16.0066189856,-9067.6496014663,-3680.9789341371,3377.5132022735,-8939.1885290565,15261.9526049581,29584.3101072819,1348.2462156464,0.586880922,10187.9874053789,-0.9459143191,6162.9658917731,3086.2919461094,0.3708861858,0.2196878468,-30319.5399173978,29584.5727437044,-0.0262709839,21229.3697701579,-4561.8321235627,1976.216049964,1.9583072528,0.0184161427,43.1448129342,8854.8223377395,-1618.4182466505,-88.0335894054,-3215.8550942352,3022.0317709076,12915.5635917072,-6.6661381282,16846.5407293496,0.7926141042,-19829.8386376483,4.1237496511,-1.5084073085,-11.4341708213,-728.0943545681,-1962.4995218327,12217.745349737,-32930.547664699,-2381.289253148,-1268.6630439442,22835.8675661906,-8997.6787968088,2434.5630913404,1053.6968046301,-0.2482515672,-1.6940829626,6439.7839170002,-3501.7678625919,-16517.2434046077,14368.98474544,12.7361351734,7586.9421894147,2282.8811218774,2933.1909668331,13789.2683381167,3996.043295957,3711.7823919134,-1105.5416588465,3465.0677821248,-7662.6681537094,10128.0321320479,9403.3283173225,11437.5620619005,-27384.5271122717,-7066.3991017613,-8213.9012829343,6897.8885381093,4674.2911719735,1881.477501595,15261.0419380289,-13.251051145,4558.9524585133,12871.5147070456,-7570.4739339453,862.0259988652,3692.6023211854,-2159.8076164461,179.4076462308,-0.9843146535,-3.0445637578,0.2200710805,-13.6872198884,3859.6938370352,0.6997613721,0.049055104,-0.765581965,-0.1316838313,-0.7479429174,-31.9316439355,10.8155430466,-0.5366412048,1.8199220585,-736.5621104655,1.6780115855,-7721.8366153075,49622.7697620797,-5.0147339291,0.2340101089,542.6001685727,-639.6970854829,793.8722789139,-91.9788843557,-667.0473241341,-11.2310323577,-89.3610650708,0.7819938463,-9381.1649031593,-0.6953509062,0.9943145808,0.3832035425,-12912.6486916729,-1380.0777771812,5825.7344079848,-0.2985036141,-21377.9213139446,-0.66729895,4.6548989023,0.487645452,0.4538998614,-1.6891274422,-2897.6698579287,3.3052452682,-0.3641133903,-1.4131054625,-0.9478580257,-3.4525539112,-2689.1089377369,-6911.3018824942,2183.1628386286,9006.7283522598,869.3518971641,-2458.9362261385,-1587.3825792138,-2030.1788994315,5378.7650132782,-1368.5785389927,-4580.6585968654,8167.8606773,-4479.3938564001,3.9003869623,0.5387647968,-0.6985492129,-13050.9577265867,-0.8326616153,5145.4837243212,-10053.6956017885,2749.6784114736,-4227.0436523458,-2396.2084753094,-3030.8132192559,-2337.4270020409,2330.1762044157,8474.3430797234,8781.7634112658,759.3705972042,6229.9812423059,2.6216665543,889.1739272968,-8765.9828755832,-0.6339644379,6306.537644783,-9463.4315940978,-1118.7507356133,0.9304563849,198.4486906643,-0.7676568015,-7.4712903474,24571.7543476693,-25770.8424909124,9026.9713937978,0.0518422083,-1476.7809757794,0.5460118136,0.1664385151,-13511.9686281101,-28851.0049384699,20757.5693763082,-1233.8375791263,-1.2856981577,1.177263223,-1.0012584772,-0.4558965087,0.7681631662,0.1493281344,0.5180000053,-7.3989447533,-4014.2897633671,-0.1809762551,1134.5654000652,0.6421574957,-20791.6902766299,-2666.4088054028,-1.6028573647,-2711.6324805381,-0.531242755,2.9302919198,0.2780124075,-0.8415326694,-10957.1977578325,0.4160868294,10487.9950624196,-1.0887647871,65.0846026085,-1404.0455642267,64.3023268832,0.8684467813,-9067.9200690233,-1207.551314567,-8353.5647710464,-440.2840505104,8.7264319197,18653.0327328381,-6112.2559287253,3274.3147776379,1430.3234586461,-838.4597143498,-1490.3857006331,548.4623024019,8085.8889630848,-10212.7787796151,2464.0066052915,4101.3402325054,5635.7425893491,36.0712928315,2021.5377447504,-16684.2599037043,-3133.6141547594,2710.3586191083,-555.7839130658,13430.6320242739,-6929.3858889181,-4017.4601571359,-2515.1633721059,-1146.9134646041,-6375.6261704098,526.8719794262,-5.609016302,38.3232979454,-12655.2583801475,-4.2159659996,861.3726732501,-10108.8873841244,-3943.5213337369,1.2220955727,4744.4354907112,0.6590658861,-32.291725386,19363.7406682543,1.2664434665,0.1730983208,0.1394884492,0.8437946997,984.6452490689,1.112949774,-1.2879298793,-1.9622613859,-0.3512108426,6933.3072400317,-0.0071367601,-0.2085316814,4.7698831022,15728.9407547292,-3788.2160224786,0.3508519323,-3782.2757387011,-0.739798645,-0.497569582,-0.1373942575,-13.4011720959,-0.4583201694,2207.4690858787,-2155.5617419388,-9048.2034633173,-32.258051959,842.3157795223,701.8471894081,-17885.6855176119,-0.2589850443,-362.2315361007,1037.8490448126,21896.1582653491,-26601.335925592,-6272.9126560928,0.5870336196,173.9021704377,-0.1340519705,-1069.0059324358,21441.3952717796,1492.0848033056,-1198.8594011136,-12840.0599964612,-4411.008195479,-2220.4442928043,-6978.0333512661,-5015.3631417518,0.2314499154,-3692.1767028491,-3301.4498571074,-16983.6851445954,37.1684886458,-1382.992698202,-436.8790492786,-6354.7570775091
   4961.8048723816,2307.9373733029,-9680.8652296169,3603.6314234485,-4401.0443430012,-4145.449029816,8667.8719665808,1044.3244863121,16337.7928806161,1879.9507092138,-3526.0050112304,6123.3454050223,3967.3179042619,-17653.8029011775,-1010.8162265076,-16001.4760140862,-0.4440702368,-7.5748831919,7383.478155605,0.7268400428,-438.4421347522,29.7851744749,-0.3692314568,0.715265337,-0.1947373428,1476.3467514201,-0.1629503155,-0.8904579843,0.104457734,0.5227343636,-437.6690154733,24427.9412407252,1411.0350198806,-0.5639367867,-909.3914086852,-3332.4704386621,-312.2518997958,1324.7128398127,5311.4917482414,-2551.308756614,0.5034414387,283.665385355,-1596.674974469,969.9016136373,0.3620691878,21084.0032261098,0.0413263959,-6133.829259862,-1626.9848063673,0.0917618549,5.1767599341,23408.7557363202,19905.1267060097,-468.1712930195,-18276.0742821206,-3702.817157977,0.3230277607,3.3674515003,9568.0203218956,-125.2455330616,2.7213644888,-2370.9303617979,0.0455730896,-943.9608953812,-8738.0442626512,2.8363134534,8431.9844303519,-8.2371203635,-10680.0214235765,-3269.4380455308,2486.9757475748,6790.4562116024,2439.3167570515,-928.5892370185,9189.2216840801,4809.3789441162,2.6405536087,-83.0685035002,1.0649549827,-7004.098785359,-0.1235985415,-7175.8594117495,4872.2111064553,-396.4651450335,-0.5471217498,398.6279793751,11833.6532441709,-760.4435513355,-96.1656942213,-4599.6147673241,10600.0699746389,3733.6576302507,353.0781643057,0.4534158875,2918.4663409729,-8115.6053338392,8.1994662434,-1052.2356107426,-4251.475231332,-0.0174975631,-11136.3317830292,3397.1087159793,0.2430985659,-23755.1236872468,-5940.8268066164,3443.1847530454,2471.0615603988,-0.3761256062,-32478.5398122941,-1588.9845903743,-11136.7461922695,1.1435630469,38283.3964033209,0.7011074325,-0.183651581,-0.0686095754,-4720.7171354187,-0.5366331635,-43066.3217432312,8217.5038963428,-1.2990697371,-0.5666964526,-0.2073852558,636.9564543969,0.8168613725,0.6219932618,-0.1835415984,7746.5757899714,28320.6124288077,2625.2114560661,0.0565777904,135.3818968221,0.3393901075,-8176.0315583264,-8944.8102955767,-934.0661569902,-0.3427727465,3.4665107327,6576.6699447011,34213.3897431396,-0.3771567155,-0.442289724,-0.048894344,858.5462028711,8.7842085053,4805.697210611,9320.0682360921,1710.2943035111,-114.699494805,16611.7231079264,-2835.7147431385,5989.0169272652,-2996.3795287446,-91.1097988282,-5832.0691054321,2741.1178130924,-7308.6126702131,-7558.6772326058,1.3870264987,-56.3793656437,11154.5025709077,0.4931002372,-1760.7276033066,-11979.9686140593,-221.5043721204,-0.933386843,-4225.5183213956,1095.4005898584,-4126.5527712762,5921.5987668276,4341.2596210775,13.6214798296,7.7128268312,-0.2520480331,585.2598679476,-10935.0530227447,-0.6178823794,-0.3550727946,1.4668486106,-0.444291035,18579.2779214201,0.824323627,0.5739050259,-2268.763960474,440.6769524448,-4453.1696962619,0.3843697108,-0.3087757935,86.4379514235,-0.8535618323,18580.8503292001,0.9160359811,-3937.3368782244,7473.766338153,-4785.5134638771,2747.3597030968,254.9680803737,0.9101999249,-9969.479259582,-0.7424173243,1796.488735941,6490.85784209,-13005.3954031242,20545.1583841933,-1582.2632812639,915.4754050997,0.8633614649,7861.3211190544,-12426.6676099188,0.6584028625,-1949.6098565754,-0.2334058143,-3041.8994410041,-4.3210797906,339.5367256569,-113.4000435947,1.7478501072,1383.5502376319,-1192.0267502634,3219.0096486903,368.2147607425,4252.2395552466,-0.4656854821,7292.6387763817,-2744.1082807557,8581.6040017847,30.4770176866,-10344.8523658484,-9029.5949418451,-2456.2605764791,12846.9119847258,9803.7899757774,-0.6605611584,-7514.2926670622,-11609.1650517855,2.4293489762,-206.2725095719,-8702.0597281238,-1136.9688494366,-8261.1730570791,-1016.1199790164,-6617.9635111393,-1304.1774178264,-3044.3365762519,-161.1735468169,5853.1010204694,10322.2586022676,978.1463516308,6378.135687814,-14092.2696722569,758.5009416524,4076.1534576758,0.8760579418,-26.4369650899,-0.1341823028,-2830.4422478325,-11715.7254647636,-1.3731640639,1.0129463369,3.2556417163,-0.9649833353,0.6097930205,0.9913889038,-0.3587385936,-0.0669845398,-0.1809266146,-1.0866086614,-0.3923324546,0.7696968936,0.0000561254,-0.787217684,922.341148081,10865.5556388813,0.2523335272,-8.1353651181,-0.2290918388,-0.7441439967,-14322.444240066,-0.471792918,30.4924634437,0.7211441167,-9.0357059672,7527.9495630567,0.4779353649,-1856.8740335144,11466.6716649884,-0.2666427974,7326.8867580069,-1811.0036216625,-4.5303952089,5498.2624375475,19155.9070690011,-5287.0667706897,1.8620526337,-20143.5358987193,-0.8090502157,0.3664837441,-0.5795272881,-26181.4938494732,-13077.5855655631,0.1305934469,-2363.1213150507,-0.4901004565,-1087.7717511691,-22973.4604463904,-9628.8504157883,6815.9922200834,-1170.3049785258,11525.2911034093,837.3797035868,2005.2216386485,-16334.1138841466,2532.4528653062,-11492.9312831545,-397.1545964115,8638.661022654,7096.5617533844,-2654.2127546937,2955.7222957279,-4150.0309918917,-1007.5162795988,4459.5394554148,1224.5568606852,11341.0090396046,-213.160081838,-4128.9477984572,-12030.3258716275,1685.6624537424,-14781.7477251378,-9333.8751859865,7030.8949785504,3758.6066233783,-6737.9275051909,-0.8334932553,-33.2993337219,7838.919776364,-6.9462197292,-0.5879714209,166.784958479,3588.1883880849,2401.5084806368,-0.1336039829,-0.4797400961,-5.1596658344,1.0816881991,-0.031935455,-0.7348296862,-0.2687135947,0.839635245,-10.8362308371,2402.2803012089,31.8029936327,-12395.6303687876,-19351.6809286566,-4052.5757995368,0.1088424829,-41.4377257002,-1694.3182218916,-18.2664927059,200.2002615961,-0.150418149,-0.1611606125,0.1677388552,5484.5649147722,0.5390881425,-406.1849912379,-0.149956506,-101.3080414517,39016.7859744967,0.5083657336,-0.3546953391,20.8163709115,-285.425291898,-0.0696317958,-10721.2503544056,-874.0449761045,1553.6833955666,-0.6025455617,0.4551742086,24788.7358842812,0.61679829,-163.3861797752,4.5064476374,4599.3292686815,-8564.0628982073,5833.3863767984,5007.0842908191,-10528.535107563,10726.9047172948,388.4692172595,-1340.1442980455,1185.9482383025,2613.748557625,-192.2995399997,-5365.1617697978,-7265.8863958208,-7226.9888633198,-3430.3982725837,15.9548445207,-6638.4420449283,9981.9400924508,603.1578636651,-8313.6123802534,17797.5071336476,-6624.2554006913,4666.0663117777,5863.7017302306,-7.305839283,-18815.2042389754,5950.5181219249,-6.7162005348,-154.1038996563,-4.0892844679,4805.1099529901,-0.0080088509,823.9647487042,-4327.9899708619,0.1549294137,-29894.078530451,-1678.3501339971,-0.2553111388,-1090.8845642946,0.0756064728,-0.487785583,-0.4491459469,1518.8827582144,1404.99084091,0.2186625743,-0.1774520899,0.7588955168,0.9654436706,2754.2555362674,20.016724207,1118.6049640411,5877.0207327256,26021.1122252672,0.1415713306,-0.460915227,436.7628655269,-2.7001453835,-0.7697930842,0.8355784307,-4955.2724485395,2205.5916785113,-8163.0649627433,-0.473588292,-0.5895022277,-18711.2370247781,-1126.260962807,-586.411618236,0.6923100253,-22288.3846560043,-25.5780635198,-0.6980456445,9804.4297843703,1792.6866196913,1063.9419578067,378.7356987414,-640.2690149983,-4259.3092139508,12886.9411281465,-3106.9480686459,0.2717602615,356.0728257567,-13503.6404377332,-5625.6037049927,-4746.5238221486,-3018.2886558821,2662.8055146147,781.5673822518,-1604.4368477004,-5257.4892385343,-5436.5345393494,-21530.4580373625,309.2299176645,1581.0512862471,5668.7414376274,7704.0865078419,-31.852326238,-8704.4193359765,-594.3358838452,4697.2137173002,2560.9762627026,2105.2282787294,-6866.6434659171,1289.6866075172,136.8120964536,6852.0785131517,-260.0877071866,2894.5212352702,221.9369535464,-34.9049916926,-21965.6096897332,203.1762981312,-9928.4042155618,-0.4847479534,-0.5074271244,107.2217258677,-285.7770852205,-2288.6401194258,-7305.976511191,0.9687739415,0.5582558497,-0.6028861072,-2.478987021,-1936.4704645036,-3560.4831105682,-0.0742275031,-1108.3488662621,-0.4978806278,-7305.3602705053,-2.95830851,-41431.4783463337,26920.2184513672,12486.0663493465,-0.0301371957,0.2510830939,0.5509556768,0.5383046216,45937.1395584399,2832.5668150195,-436.5107970087,0.2557910196,-9.229909508,-2299.9292154823,-13.7910987207,0.6881478854,1788.50665139,475.4999747319,-280.3195631164,2265.4299318188,-19.095794697,-7572.5099169909,0.0923083792,-46.9147161951,0.8090701715,1.2159374053,-0.4226545386,-396.1306001775,2.111689939,-0.9799004726,-954.4648632832,0.9053610091,-1062.3374526242,-2842.5473677604,-4929.323784375,22.7315356523,3913.3499058767,-0.0367968344,5699.4905751476,-1882.1960240962,-5932.5185120676,4451.4471529136,-5024.1216213637,523.6710340731,2492.3260474723,-676.7782471542,-8859.7395950323,420.6172559156,3411.2500375141,3126.8705559496,-8513.7527692004,0.2983947423,695.6677890238,8486.3766453193,6293.482328353,-6731.3340004453,-48.7561704225,-6492.5917705559,4188.0261653187,532.8982223551,2233.4832240199,1538.5626849551,0.5449164592,-0.7351426162,8295.0517576672,0.4286936331,-4524.7074042586,9930.7806734277,0.2550317298,0.1349358548,-0.2206825872,-0.2580220226,6504.9199852467,-25443.5250111072,4579.0041064333,-1.0950311003,-0.8595520555,0.3386354666,1172.7204485742,0.0500292194,-598.2398574979,-2855.5616395672,0.4107770649,-18498.2366417197,566.3939465724,-0.3408432556,30687.7279931344,32.4465415162,-0.5869349554,-5967.1696666108,2373.6687922041,-2144.452009072,-0.8981840566,0.3042880812,-0.1275638892,0.5685632744,29968.2052589105,-592.6709605515,208.8390360054,-0.7258603315,-23.4993541719,3232.502540218,37708.7465070848,31036.9806158469,97.6944451236,-33.0361053124,-4025.9363205254,0.5519170858,-6789.5385138921,2047.504196651,546.801586303,-0.3963784085,3731.7100433585,-2268.4762476141,1.2789132235,2154.4130440624,-1634.1403433389,9864.2302846517,4223.8460145616,-0.8907517867,1890.895100509,-8604.4901201012,-4368.8107295432,-1972.0472853528,6224.9378098799,-3952.3821769423,4482.8733145821,935.1248957332,2.7202862089,791.4964318024,-2408.42901082,852.5586685814,-816.2613934095,-1131.4438535674,15526.032754767,8639.6845814267,-11030.9479528773,3.8340176325,2653.7055101598,5492.0753083168,15075.9982522139,-12328.7464714099,1357.3932598084,-889.8696838907,30.6020079465,-735.5851805311,0.7441758476,-1297.661031964,17000.7254614388,-0.0549941782,0.9170801546,0.9029163678,3851.5388669176,0.559422661,0.6388757397,-5299.1307716797,-0.3734495459,321.0252244133,1.119308782,-0.2256659371,0.5813913291,39033.5486815473,11952.2663072475,36.3971770763,2824.5293927479,0.9352622949,3393.5918054402,-0.3796898212,1994.4440595987,-1.4340081246,0.7037389615,-35.1095982886,-12458.2948179542,-5.9383315581,-16433.0589052643,-0.119323347,-24966.5632659381,4572.3111928893,-0.323612329,0.1266631553,-33099.9079241445,1.3598716514,-95.3582849924,16869.2909853751,-0.3436407511,0.3342560014,-9890.577455508,0.7649291252,13336.0850576593,6.0053768319,-0.0722971665,-0.5210381342,2994.6639240228,1417.4643641449,-2540.1923311853,7088.3963652532,-1.7122576889,6411.228736368,-1508.3285620826,1005.5295549889,0.3783691368,926.3839856659,1628.1886615003,2667.9478098156,6764.1872765442,-1366.9661101571,1324.421270471,-3374.5293011923,-2319.4693307988,12138.0152215009,6606.31132106,-7335.2776256906,615.894959226,-14394.8018806893,-1822.8605802052,917.2776126327,-494.1184096688,176.1660799695,-4408.794608544,701.5581592846,-7350.101225603,-5046.5260011684,-49.8240220813,-6919.5889706591,4711.9057393184,-8899.070371903,-0.2557022029,6210.9419379991,6441.8876305842,14679.9826932784,295.4081716474,-0.4058046896,0.4489051057,5189.9029713621,0.6819350838,-4000.2475820904,0.470801794,23159.9334292649,2.8954984046,14679.0091980083,1754.8664386523,-5767.1971654368,-1214.8519043682,0.2265062563,0.4459396027,-1340.796228848,-0.0506096526,0.8864675764,2272.2054090765,-554.8050875336,0.8124526125,-1338.5294595859,753.1496535082,-0.2215797676,0.6145335397,0.2739211257,3166.5755022157,-0.4622848064,-19209.6053458988,2762.9763286491,-3019.5366880004,558.0356547911,-1484.4072952513,-4395.3309847114,0.6751669937,-15686.3737888092,2.7554162653,-0.4022756388,-0.5998129848,-2.046120515,32175.4651086605,0.8098270923,127.8913029043,18302.8107766972,-14251.2957212824,-3.9253219868,-9806.1963586312,-855.7621994959,4026.7261102698,0.6187650413,6744.3695700829,3542.970251527,8813.6014052432,2873.7425601103,-1780.5260485258,1990.4481150324,2015.8839711251,-1014.346382383,6958.7858775459,0.9445260113,8061.5587067991,16440.6634852965,-11041.1135602829,1716.6516880028,-1247.8580087051,2654.2576844092,-2798.3751063573,366.3499952631,4949.6394171426,8536.1838820272,20.6461027577,24143.5535634269,-0.4473496062,13338.2992749182,28.228257645,0.9139960242,-0.4386603449,2418.7542448858,-0.1911447068,1.1400975565,-0.2896698828,-0.1507727157,-1.3155515666,-6000.6870683913,0.0552821112,-67.6818317877,-0.3440629576,-4864.5586927001,585.1051320389,0.5079392882,-24697.224096782,10788.19212475,1180.5015432662,-1.2424257953,84.4996087984,1.2938365778,0.5533243624,-3315.4703585559,0.3460480434,-0.5278636083,-9721.2020141308,44.694472391,-2414.7678132592,0.5193371682,-1422.1392364126,0.7599410239,9529.6739928545,-0.8655119988,-0.3140982896,0.4816771189,5.934334836,-821.1340220314,1019.3528067812,876.6960348611,-0.6251793342,-0.651612697,0.3056622976,-0.4950437043,0.2914040118,0.5815102193,-0.6060644685,-0.8956194325,-4513.8845513755,-6129.5985600385,10202.4631770452,-5547.9827912851,2301.6650570926,5480.4384593305,8219.7135858647,54.5006823447,-358.2314609868,-3707.7144219754,-11236.214825371,288.8985031811,353.9886187239,1.2205358588,-200.9774859578,6032.4061022345,-16359.2284391172,3612.0104301895,3791.4656468859,-10841.3158826394,7108.0438384176,6164.7743493555,1659.543720476,5513.1834631847,3273.6938827359,-1596.4037866706,-22794.3164827756,-29.2393108493,-3860.1157909082,16.4479187103,-0.5753255142,6604.5555549163,-6925.1883703422,0.2155643732,-29495.5010549268,5915.1103065777,-0.3095410159,-14.6295878723,-11736.0619821019,0.5453822101,9291.5245337045,1691.1112761011,-6785.4792648901,-0.8860904661,-0.5063550735,8792.9020181323,-7209.5244535651,-13.9710649125,2.1181803884,72.3768208368,0.1323152608,-47975.4549694729,-0.9701779885,-1.0756511858,0.9850935451,1.1099128763,0.5898634587,-3571.0775045038,10493.6660509727,-4084.2928263603,1.2368208577,0.2832767932,6154.6352571849,0.8808642011,1443.6924553366,0.2888260734,43.8197163599,-16748.578107636,-0.9591624328,13.1593824138,2513.3171269081,879.6152586726,0.1679482422,0.5089147712,0.9092760749,4630.5072921643,-0.2279241455,545.3569505313,-3031.926051182,0.5619576746,-907.7420713433,1645.5698875277,-3492.8795718782,-648.7623582617,20947.8540317797,-11131.8055456398,-9437.5675981528,2195.6187266555,4984.6938724403,3406.2095776889,11751.4794572513,-21454.5919898828,5736.8897268257,-1260.6351168927,-7802.9530595905,389.4953311348,18349.0249569184,220.8851350493,-2575.6395528086,1348.7172801119,5762.915507832,1236.1463186729,-10051.0067767496,-1.8139622622,0.8478428556,-24005.0061715442,-7093.4614044884,4132.7049107504,-1064.3367006207,-3230.4320367731,-1132.9984014929,0.9162803309,-860.383201409,-21473.7450268002,0.5789478334,503.0471982116,-13342.5019777543,-2746.9463189709,1027.8897887867,-0.876512806,29763.6611895024,-0.8407412013,-13.1199641569,12890.7390790381,0.9643872134,153.0186773897,-23154.8386772867,-2748.5073438357,-0.3282339379,3200.5593092847,-8815.304746709,-9282.9935976632,211.4390178607,-3425.6814196399,359.8000755986,7693.9860093688,4.5346127081,0.2853353387,0.2317702354,-3.0067742001,4.4637372127,-0.043506477,10947.857103781,-0.3156281802,-5539.3983492617,-0.1562739384,6810.7504525425,52.5291458073,-0.5238046924,1311.0632696104,0.4170577769,-43240.8995658234,403.7512205342,4.4586974861,-0.2446657504,532.8188697608,-8842.7303044581,0.5581820581,0.9711836517,0.9790363459,4293.635588104,5583.0349785591,-2.3933791787,3370.5323280163,-6680.1194671197,854.5344750671,-769.1181265504,1857.7613140415,1756.8408313695,-3005.5703682315,-439.3320569013,-908.0065619499,6589.6076404075,-775.8433770053,-6260.3393891459,-0.8082758959,-767.2135764114,1008.4100851867,11858.6555475585,-6752.4937192439,446.5109907608,-8249.3807544211,-20.0778708972,-5927.8703932253,-5838.2881467576,-1192.7112699362,-7089.3114666351,-2.2827351146,-2.2095026881,3009.1509311062,-10352.7246252899,-1131.866746698,-12676.192241768,-0.9862161989,-51.8814184134,-13476.408976296,649.0471952038,0.5228475073,0.6241032667,-0.7323494356,16366.9718051217,-0.3722733195,0.4106664255,-6131.4875088031,0.6911287167,-2.205382864,-14484.9564349843,-0.1710313485,27662.9900594876,0.4389610877,-6338.575956713,60.6681871293,495.638050358,-0.0338433193,51.6035869643,-16299.846273135,0.8955761565,0.4932575261,-0.7600967185,4411.8527929372,-3230.457582423,-0.5226262361,-34790.1916291095,0.4063035613,-45079.3243270323,-91.4334787634,0.339514802,41527.5674773108,3008.4014979611,-3529.0537643994,-14.8269519182,-37586.8391275824,8242.8011988955,0.370711622,-7081.8170060204,1.5954218238,-40.7015811263,8408.2764273918,157.1554412342,-0.0573881384,23.9573447706,3111.7989834463,381.3225147665,1374.8939776798,-53.4899651928,-260.1702943543,3341.4439443782,-3261.6739860134,2778.3681241176,-6076.707417171,1016.9929668614,-861.8504876884,234.721259601,-2648.1506616024,4113.1743889845,3103.9194470553,2696.1769809361,341.2791018082,812.4159907893,7309.7411201743,462.2111012992,-3.6657800153,1323.0474189796,2252.9078431841,-9305.4690579342,4019.0279149429,15818.7289813633,4822.3927041878,2436.3144898007,25706.0834459752,-2.2300531814,8084.7441383049,-10799.2884055656,2365.6302110899,0.7764180514,0.3133891608,0.7675366501,-0.1229701859,-2.7404269959,-0.4269594897,35583.873355156,23032.1752714442,0.7124151233,-615.4738060239,0.1841041963,117.9539205007,0.3577855762,1.1861814559,-3829.8288333373,-0.6190588804,0.1289973458,-6282.8228198087,16580.8369202676,-1293.2647436815,0.2589570192,7868.4623546764,-25350.2721096141,1.046632255,18.8492839258,1.423651077,-277.0459091152,0.1025804581,-547.0323226501,0.9419972456,-10031.0185075329,-54.0729815408,3.0165749048,-1.2205434982,0.2811534974,-34798.6376533904,49094.92187495,-0.8453914926,0.112041199,20512.120149666,4797.346318018,-5302.2738207888,16733.5928076816,-2970.6541868173,-0.7426379942,-0.1926972943,-1.9777412389,5348.9402742421,609.4377796777,1370.9694352174,3757.455888635,-1.1350846109,6395.7510699147,880.6767759743,-2427.0296918986,8361.677714364,-885.2979847789,3580.6268329413,-59.1537324589,2554.6174768668,-5644.4016359898,1548.918831426,-7212.7009684381,-0.2665079707,-9220.8740847625,-2747.262953694,3135.0311474132,6838.5503866169,6408.9362707384,1.3015219489,290.3620438934,1430.4761737539,139.2911220175,-9961.9685901123,-3458.6973879074,-3630.9605143473,-27582.1875096415,2.1953544116,-8304.3956321531,-2156.2393900536,-0.8805255585,7680.4770728675,0.3698201953,1.1841922417,2.9726203176,-0.9429102081,1.0546476036,-0.2588844408,6704.5186554783,3.2708818263,0.3868902654,-0.9523875593,-0.2449480748,0.9303733027,3.8809700883,9169.2689663839,1.1545798675,-6162.499395244,0.0066866415,0.1376442013,4313.6526344563,95.2654505004,-2943.8037124657,-2930.5316176204,0.0435332174,-6840.6348307709,1228.8520374138,82.5680218283,397.6353135449,0.8125827564,4923.3002520706,-5550.0999972175,-6806.852117979,-0.6481256039,-20.531819206,7751.4691742818,-12684.4945498053,-5584.553489767,-0.3556989138,0.0980864029,759.631649976,738.2207927107,1.0840640931,798.8047937599,3734.9660789599,-1.649326327,-684.8673189015,6273.7247971124,-3677.0277923622,-3347.1104391675,-24.466058812,-1518.3154913956,11245.9970767184,-3586.4196243571,3427.8520876332,-2845.8633972267,-1413.1985022099,-779.8216246458,-3450.7955863616,-5215.5848990763,-1799.1831888328,3495.1537046854,1491.9143996129,178.6081974812,2990.7493796589,-82.9024151896,5618.9122798527,4034.6931501244,7040.4494571827,-20562.808365741,3799.6376280479,-4298.5649525926,17205.4337098904,-8015.4630636026,-19736.5595385177,-3735.442272908,14774.1238619538,9804.6208594793,-2997.871768372,951.5254692653,2.9566708671,-4580.4814362618,0.4945084092,0.5217011983,-1.2824792106,-0.418364681,0.306344722,20013.8341061381,-16118.2438367197,2764.394652613,0.7984610507,-1.0271818686,979.8900099336,0.4241644898,232.761993844,-1055.6701261527,-9253.1613227921,35175.0673695292,-4344.7849358868,1.0157876021,-4248.777613681,0.6981802014,-0.7479960864,7455.583981399,-1054.5805975859,1665.8696344901,0.4835662366,-5176.3630966394,-0.5183302753,-0.3227180334,-5267.579810991,1035.395489683,-19313.4689121507,-60.944241113,0.5027606123,-2086.8491029601,-12.6840743331,-7098.6186792927,211.736701263,0.3323280088,1327.9361508873,-2468.9152699062,18275.401917376,-0.6072793802,-12607.4490208013,0.5798283008,-3547.9551123099,3860.9885594814,-1061.9628852089,-1.2495623106,17199.8353344074,-4.7368247839,10097.0360933421,-3.2744748794,6013.8031265888,-12263.2295726082,-2271.5329589166,-2378.4192634765,7926.4115137706,-12471.1414189499,-115.1615200328,0.3059661958,-3847.1666478592,134.29441307,-4781.5993743756,11958.4674803202,7176.0930058018,6025.8273565266,6193.9123869318,-0.1757821831,-8198.4912788072,7666.4477063755,4604.2643664834,580.9935807467,-4779.5307078096,-1907.4038962221,30156.5804897873,1641.5088896596,617.4465922401,8.9580612898,-3418.3899625928,-5922.6148368609,-1.4066732642,-31741.7148105022,0.8111957527,0.1142802045,-0.2701591191,27.7889989519,-0.2673397358,0.9361267341,-0.3183194469,0.6787387057,171.4300749962,-31742.0797251673,26002.0880095697,1363.2686019854,-6697.3033014047,-32245.8483873604,0.0519003293,-8263.4428116382,0.0115760098,-4870.453316529,7462.6105978199,-7053.8164529548,4000.4377822154,-0.0672080693,654.8861577202,-1.1703120569,39.1265107175,-0.3505341147,-8787.2100465352,25.5122210566,-0.3720590412,1.4552511339,0.7700998609,-10630.4530735823,23.3541073955,1866.507652393,-0.2390606388,1.2744938509,-2673.3644885863,-0.7144352781,0.7998765641,-1555.6564972878,1.1106500994,-0.4668482268,7810.0666579677,-2767.9339914166,-8227.7415945313,0.6159582957,3713.5466762282,6886.7245727537,-400.1549709645,-12793.6271276923,-1965.2094212392,-5329.9954598548,10715.2836822112,-2675.7916233114,-1456.651730076,-3690.6215943464,10030.5795280248,3113.8866075328,5342.6445400844,3.6086732661,199.2040202661,5375.473983774,3728.4226498066,-12562.0299038156,-11691.0204518987,1334.6088889349,15.0595341373,-5560.4529162287,10888.5097632839,-993.6646815062,16.7796619444,2.0368173399,-857.5874242778,-11030.8660964721,-3150.9560512768,4071.2749152456,-0.5035145534,7002.6405549627,-0.7985907504,23279.3641522381,0.9548090752,-0.1773275452,-1629.6102727595,0.3153032385,-5.3907704638,0.0121504437,0.9504538399,0.4524392333,2066.4938356704,23278.7820737782,-13266.2187149316,-2613.0270062039,1.9496741013,-8505.2991665456,0.6837660806,0.6209457043,0.3971567717,1527.6937341395,-0.0685711578,6136.3864053039,7461.4049871796,-1082.83089757,1.7785504333,4997.1371407619,1616.6848264645,0.6347241423,2506.4144988379,-2665.373949863,4810.5576384723,-6879.3175270193,775.8079805945,0.1440935232,1.4043436675,9333.4468170632,-0.2802871366,-0.2997561552,-4179.059069214,3295.0201789445,0.1652758564,0.2290502915,6.9933110536,-0.5816555046,-1425.4806799343,3633.814008502,3058.2468777658,-4800.5826370287,4990.247961437,-12588.3157005731,-3510.2618056239,-3025.1921882659,-2929.1737927814,-23270.647238392,4519.9718959434,-4316.6884757544,2300.6039751201,-61.6059137518,1.983490243,-405.3644007723,2167.9271765085,3468.0801798298,17315.2008156109,6775.8904235811,-3871.8091429002,765.1492654489,6920.3856089115,-11277.773965547,1268.8279957822,-3147.0933278818,-2723.9045229126,-3666.3604745749,5937.7110766646,16063.709345115,271.0839614423,13.6326576025,4136.77939865,0.2979194031,2271.3538004571,2410.233561073,0.8771057275,29.2061660035,-3041.9142968734,0.3586899241,1.7028525431,4869.3877586307,0.7795769955,-0.6112561337,-0.2863189331,-1242.1538146464,15343.1637254703,28.071528179,7224.9415963972,-0.4076651656,-340.5258606264,38.1779952109,-4030.9465654013,-36.057410982,-3030.3881747045,0.7374435639,672.9378380808,-0.3581109953,0.7910683816,-4257.8274001503,432.0437127588,-36372.2875405865,1.2512611995,0.6666947764,-10067.8337073546,3077.2255974243,18998.185830978,-0.1831098797,0.8947390379,-0.663911871,-0.0426753848,0.8261429016,-1424.5437159028,-4119.164897893,-0.7965105513,8599.4746843045,19203.9257418642,0.2434832526,-18126.8321946368,998.9386383729,-938.752316754,-0.2389598212,429.9443583923,-10256.0580209174,-7020.910408123,7604.9109578577,-3876.1633745059,11490.4494073202,-6817.3640354334,4358.864799435,-4082.5318538377,2198.0554891457,-19.3205721454,-5351.1684880756,-12809.4100452204,7736.5697669373,-5899.4452403039,-2673.6223743816,7044.8848240928,0.6566722296,-5256.0299198601,-2950.2587874961,8162.2996329923,-12783.6471664789,-1633.6545179529,14606.7205876395,-9695.9843341812,-6490.7072710574,-3163.0364924771,0.367567495,0.11436763,-0.7118746786,-19485.5023276407,9726.1306371178,-2616.3344269753,-4751.6625174737,-0.5735695662,-2769.3001801812,993.0600476285,0.5645754376,-1.013517802,-853.9242538703,-21237.718722911,53.6339879601,0.7182028201,-0.1519942467,-3261.00078054,-2769.8818067601,-32324.7691293495,4964.2518915564,12285.3058688715,-0.8778515721,2307.7554695431,-0.3515759901,-0.908817712,-0.0456506829,0.3341082515,-0.2760687187,-0.7971037574,1.3018708603,-2522.7442610203,-0.5007982367,8019.4445940931,-0.8384172358,5672.4301320289,-0.1356467555,-5498.9893886366,-0.2291168509,2233.8387177833,1.4520873971,-1.1133518152,2807.0323835253,0.3406157475,-381.0112381947,-0.2795941849,10538.7189954295,19927.1248146057,-3127.2855901203,0.6346358467,61.0570496002,7954.6585143103,-141.9480730004,-7012.0982633001,-11515.1206637725,-2864.2968140819,-3928.6080912637,-2012.4441385964,7931.4154731273,3156.1220825954,4801.1872896823,-8452.6324945465,-883.531943998,-13725.088326255,-54.139184427,-293.1401062646,-279.4527538894,3381.7092585645,4217.6817101434,-3.1110973514,-2225.3917452289,4967.1970745433,5421.521081097,5024.9714419191,-2067.2530114898,-1895.0759549012,5856.0313404661,-6781.8625854172,1762.7274271894,7700.4169969394,37260.135228858,-603.5481357343,13095.6807853211,1626.1133162305,4.2941467932,0.0097196877,647.8883812777,0.3142904463,-20824.1472815398,-8748.412324032,0.1792170082,2723.034494246,-0.0034899824,-1.1120410952,4.0720958183,-0.1899737362,2.2604161995,2321.8133720463,-20823.935616073,-0.0808065581,-0.766739872,12807.1892960085,-1.0869669788,0.4064028858,0.4235902295,-5746.0932670375,0.5718895151,-0.2414107669,0.1161579298,-0.9047216856,-79.3990441448,-5212.7430852581,-10083.2023809723,4617.655418595,-0.5624052742,-12199.5191414953,0.9262662265,-0.6233670558,-0.9724954367,-32709.879639191,5512.5883021304,25051.3202624987,11648.4701420885,0.2964621536,-15.7351272871,25080.9748781501,15132.5194383949,8332.7563936928,-6.2445727703,-2851.7356569161,-0.1232398225,-1101.7296387068,-14038.3194609795,180.346884738,6423.87655783,-4274.8034224437,-86.2184428476,9557.3292439219,-4875.9008524063,-7010.6300914089,-62.2594391076,-267.5319447872,6234.2129172272,2053.5858394205,-6029.3174742559,-3288.2375009576,-5184.2499170727,10307.7708192254,1509.8274219487,-404.5891942659,-3611.3813756511,-459.9845046184,6776.6878572908,2814.9010628347,7744.4162526704,2840.1554606943,6980.9047453742,5172.3498189075,-7883.6349263978,4757.3204508954
##end
biasActivation=0,1,1
[BASIC:ACTIVATION]
"org.encog.engine.network.activation.ActivationLinear"
"org.encog.engine.network.activation.ActivationLOG"
"org.encog.engine.network.activation.ActivationLOG"
