encog,BasicNetwork,java,3.3.0,1,1425320179678
[BASIC]
[BASIC:PARAMS]
[BASIC:NETWORK]
beginTraining=0
connectionLimit=0
contextTargetOffset=0,38,0
contextTargetSize=0,14,0
endTraining=2
hasContext=t
inputCount=11
layerCounts=11,15,26
layerFeedCounts=11,14,11
layerContextCount=0,0,14
layerIndex=0,11,26
output=-0.0545501061,-0.0000735241,0.1553647095,0.4081076547,-0.0000898058,0.1351428834,0.4135693449,0.2226830821,0.437659706,0.7876111479,-0.3734437148,-14.4137706785,-14.257965543,-13.9036434396,14.1439825686,12.8086162706,14.3099953852,-13.5968448192,14.4619967261,14.0185254726,-13.5519197751,-11.663279641,-14.2169303559,-13.0561993393,-12.2819925337,1,1,0,0,0,0,0,0,0,0,0,1,1,-0.0545501061,-0.0000735241,0.1553647095,0.4081076547,-0.0000898058,0.1351428834,0.4135693449,0.2226830821,0.437659706,0.7876111479,-0.3734437148,-14.4137706785,-14.257965543,-13.9036434396
outputCount=11
weightIndex=0,165,529
weights=-0.01993035,-0.0061257311,0.0425617305,0.000611346,-0.0119910813,-0.0368598428,-0.0050626045,-0.0131793535,0.0203268516,-0.0002242412,-0.0178929607,-0.0058390682,-0.0104884989,0.0028698809,0.2753841605,0.0000011207,-0.0000013023,0.0000017605,0.0000005535,-0.0000006521,-0.0000022889,0.0000005801,-0.0000016184,-0.0000004389,-0.0000006082,-0.0000007208,0.0000007192,-0.0000002393,-0.0000014681,-0.0000083181,0.0029547268,-0.013832833,-0.0042123271,0.0015032394,-0.0133988919,-0.0039824459,0.0067953487,0.0073223212,-0.010890871,0.0070620389,0.0145526838,-0.0010097079,-0.016026437,-0.0066603044,0.2487159304,0.0073270862,0.0282723809,-0.0057097449,-0.0019543998,-0.0335735912,0.0219657377,-0.0137229039,0.0637294341,-0.0073679687,0.0030199952,0.0027119084,-0.0031509256,-0.0012424585,0.0217807796,0.2548781766,0.0000009176,-0.0000009582,0.0000020475,0.0000003385,-0.0000026061,-0.0000000676,0.0000002746,-0.0000009507,-0.0000015063,-0.0000001196,-0.0000004466,0.0000010161,-0.0000006404,-0.0000011652,-0.0000086714,-0.0179488559,0.0109529409,-0.0060237913,-0.0049700423,-0.0050178106,-0.0045740078,0.0163229417,0.0048144061,0.007872114,0.0180563427,-0.0009570219,-0.0180900868,0.0038920049,-0.0087145139,0.1109605658,0.0054379013,0.017664018,-0.002672451,-0.0031394388,-0.0113634431,0.025231299,-0.0115848523,0.0487248037,0.0124097462,0.0282334086,0.026796595,-0.0123422178,0.0209420503,0.0210288287,0.550782927,-0.0100364783,-0.0007887529,0.0164223281,-0.0022024248,-0.026130919,-0.0159989026,0.0223756162,0.0073395259,0.0217443741,-0.043794916,0.0056637443,-0.0060866517,0.0159630123,-0.0084009235,0.2744248143,0.0137656417,-0.0186532556,-0.0179879178,0.0056787198,0.0184906387,0.0259757532,-0.0055726977,-0.0496025481,-0.0206034815,-0.0045971714,-0.0177915508,0.020190647,-0.0270535023,-0.0106214821,-0.1048696599,-0.0174653352,-0.0029953853,0.0092697973,-0.0005880842,0.0008091499,0.006161964,-0.010640883,-0.027545129,-0.0092907266,-0.0092285572,-0.0295454434,-0.0010802147,-0.0019964864,-0.0299933036,0.0362763417,0.0335562225,-0.0323057414,-0.0211502799,0.0051657036,0.0576395215,-0.019925218,0.0047873651,-0.0371306052,-0.0115386654,0.0028388481,0.0103146303,0.0239354858,0.0028194579,0.0173108694,0.3416491199,-349360.9889619791,0.7305145516,287780.2109648854,68595.6003577631,-0.2253731759,-177747.9135335177,205084.7278223004,925082.3205905019,-308415.7197958637,-752708.3647260373,205335.2339835633,59662.2670530643,-154940.0728615393,19487.9305349571,13545.2878903608,49729.8689377307,-38789.3039025913,242606.9455803299,36415.2129886772,-167978.9582755302,21884.005645569,-77036.2026335018,-29503.039000467,-66354.5828791028,-19584.084637605,-25228.065581449,126215.3865987168,0.7721755732,-373146.3403785125,-297466.8756863688,-0.5146744187,742660.543428985,36653.9422741399,273695.2601256013,166633.6260895388,32730.8755071088,-73842.5422647108,-55504.1486398195,251590.5370981882,9601.5919961807,135997.5471620501,-129295.9571090503,3167.6979177681,208806.8015299862,-189389.7308498795,-3966.4951723026,-23882.9688600136,95778.598658271,-144917.5456254176,-19844.8413260548,-67047.2220878282,-34781.5854635442,-332931.3075554079,-0.1348683765,-183452.7994941162,-10458.1756433642,0.6870385111,813170.3214120185,-416597.0096063528,556889.9172728029,-482075.9776918922,-296656.31631025,229047.0791522751,-54022.4248610564,-222805.37327645,-3299.9400452052,12164.7811062179,-127107.9676684315,-47095.9608336852,75849.6758383985,168855.3800686508,-81703.1806053539,43841.323276285,-42086.1079084161,130611.5243712238,-14027.7226974795,-85.3595912614,-47012.5597298134,210003.8892626727,-0.8122921971,413524.8650720764,793113.2931764799,0.9127257276,-249399.548242624,-365884.3479232758,339803.7369065053,-652933.2324778176,-355249.2756519336,148036.5079229117,-7202.9789902594,-37572.8346721503,-62723.122971183,-67664.9115005949,-79581.5200878369,25136.1906989616,-174078.2706732429,-80839.3522072684,-101346.791518061,-98759.2802743209,54326.2947250579,-25678.8655086668,15202.8606588838,18465.7853571152,49443.0652366922,942120.7833679083,0.9639724388,276337.8630219056,-18077.2462586481,-0.5968992822,-229818.3311767486,257576.8271433971,-170738.2375811562,179333.678883114,-204515.1228736101,-750581.9393539462,17020.9759929378,21330.2918038574,-33105.3790426369,75777.8697903724,-194002.5267014869,-6259.0058388362,-13467.613397213,-180389.3358818936,-139326.813644883,-140297.0894297853,9432.553054441,-233363.3391232796,45667.015998252,-20631.8855241109,-1477.7784395618,977538.1011990578,-0.9587962334,-88905.7501760106,-637840.5204092365,0.0354060168,1204606.0665781011,321100.3198192781,475249.3327975928,-1694678.9630314081,-580405.259719701,38554.985255598,-60324.9850928956,-71918.603225417,-40476.7127083919,25545.5479087679,20810.1187480269,-26946.575994206,208999.258092882,-30784.8508603337,-97168.5123698336,-139444.3572691446,-184094.0612608344,408638.8670433204,28997.9745052632,3196.0340696886,-6934.3027305955,-172214.9090478349,-0.8306723253,-20759.9202527746,503260.9894064143,0.4219192264,327614.9352932295,-334731.4286159513,633007.6462618405,571283.220506701,-418142.2909379755,-269072.1644020805,30714.8176525115,-128813.8425746181,-704.7439850541,9684.0316908302,120576.0483017455,52562.4559930908,-42998.0037668728,176374.4212914073,-199940.5141258718,-120645.0414130055,-58226.5370845236,-218383.2857636256,14606.5878236589,12313.577387598,-37207.1049199952,512265.509956453,0.3162271007,-51528.6856409677,-566780.7766065996,0.62529093,198848.6221320011,-126034.5553431972,-93238.3155129459,910715.9385361839,123157.8844862288,-509293.0812271357,-2664.9505419705,119532.8877062151,2699.3781978513,-76471.1789914407,120026.2826885398,-8694.179486895,176972.6402955786,-91514.364930472,1346.0819109678,158604.2346094804,-199692.5950486653,-39714.8984749468,-18739.5139578177,103461.6666912011,50441.4420796283,-181252.9204442919,0.5630096706,108710.7180808499,-205121.3659576621,-0.3738663382,124779.2115706027,177526.3008434743,742672.0985368397,-632644.1921522025,-626184.80573468,316854.7106559532,-18396.0681733816,67658.4432880463,-2335.3233359926,-31924.2766174123,151096.9291656681,19700.9314933639,252900.1411047188,189660.3767094805,-137288.9446515074,-104940.3287649733,-101821.7405157914,-221659.5950945553,54003.6512367377,-37384.4036854739,68961.6732359269,108853.0044075819,0.0875215836,889429.3088723805,825474.6112313699,0.5967938679,-1354272.0357746743,472665.2789125115,-637343.7503107638,325083.8858382021,-283145.6523531548,-346443.1714231097,16025.5481535432,-33905.3373069648,24307.9385205849,-26165.8172837998,94934.9933407029,-41086.154093544,-216218.5673603152,-231683.6689319751,108689.0426535549,184908.7500857109,16658.0947626727,-210503.6237369023,-16549.6451896148,15612.5063977337,-19686.0572348514,-122695.0103029341,-0.0446450402,12165.3687034595,550139.955750535,0.2863322557,472492.7233133109,-765183.9972855492,-167913.4572433809,150219.596285998,140890.6359150431,37525.6122978773,6393.3978621317,-130890.4616543837,904.8423430878,15596.6860990521,-181821.5283504091,16342.9926085058,41190.1561478707,87575.3304281162,3738.7874030517,121364.0584569517,-100661.5941213914,53644.8086088524,-15313.6665946545,-42733.9233566508,67741.6818317898,736268.4599293395,-0.412154538,1120220.4876487174,795515.6316783082,-0.2000250575,-620131.8590381411,-564662.5106137651,-115712.2377791713,-664266.6469329287,-480192.634181438,-859125.5021106867,15007.2725830568,-186154.2348228872,3946.3225810388,35220.2776793329,-30538.3249968525,4869.5694346611,-157795.0231087009,-147535.0891884903,-39303.301046262,63740.0212651412,-27551.1230951467,44325.9677790657,-39982.9711545597,-16814.8834868814,-28736.886837361,142454.9244857485,0.5366484975,751508.432730371,-245880.9326311689,-0.3994036514,-311797.9346477722,408596.3696676263,239408.3753228162,-576851.6523357518,-1009234.702952548,-241685.7024109529,22082.736241752,-106818.5547417312,11808.4627894588,-39991.386017059,181453.2392748744,7893.7713353054,122804.9925489453,-90607.9957301275,-9562.8390573218,-68984.5421771106,7464.8917680591,-25783.3130595613,10451.241106213,-11587.98028841,-21699.7960650631,-484252.8948658615,0.2104732498,-177381.2502271848,1338746.5996763853,0.9543802292,-395058.0603266046,-147677.970319599,-318175.1248498563,-899032.0780516724,476515.9190976828,285991.2051140468,-16306.1876621516,48513.1904878531,-20062.4190689758,-18552.3837733444,-57811.0678777809,36087.9071647055,-257593.0646198255,-144305.0190267126,-13958.3105028157,174139.3498998485,122941.4439962222,-129805.7851051762,32700.7934173522,-10763.4546706686,-14200.258452715
biasActivation=0,1,1
[BASIC:ACTIVATION]
"org.encog.engine.network.activation.ActivationLinear"
"org.encog.engine.network.activation.ActivationLOG"
"org.encog.engine.network.activation.ActivationLOG"
