encog,BasicNetwork,java,3.3.0,1,1425337357204
[BASIC]
[BASIC:PARAMS]
[BASIC:NETWORK]
beginTraining=0
connectionLimit=0
contextTargetOffset=0,131,0
contextTargetSize=0,29,0
endTraining=2
hasContext=t
inputCount=50
layerCounts=50,30,80
layerFeedCounts=50,29,50
layerContextCount=0,0,29
layerIndex=0,50,80
output=-0.0417528346,0.2951564315,0.0881232865,0.1697741633,0.4394631975,-0.0854541122,0.2320727554,0.2228711616,-0.2253268897,0.1520114163,0.0000325803,0.1376423326,-0.1428566103,0.4813606013,-0.0985234969,-0.000007726,-0.0020626765,0.153949132,-0.2115203677,0.3054018779,0.0250714725,-0.1656181198,0.0917672326,-0.2216566867,0.1298272013,0.0689596429,0.0140169378,-0.0792490073,-0.1020351687,0.3488112083,0.0843063796,0.0200736744,0.1417889882,-0.0340560568,0.0000539075,0.1305324537,0.3466350701,0.1503796885,0.2572069892,-0.0288928177,0.2572058933,-0.0056110293,0.197233322,0.360095073,-0.07188009,0.0682684957,0.5775555814,0.2024229056,0.0127636441,0.0882640539,10.2698655659,10.0090652117,-9.5693652752,8.5570424691,-7.5220603258,9.4115547778,9.0173374866,-7.9135543823,10.5334503141,-8.803706323,8.5065061641,-8.1665383955,7.1097086372,8.941121073,9.9452298294,-9.7975147463,-8.5961500709,-6.4184008992,-9.9753771856,-10.777885888,-11.0125088757,9.977223698,-10.2719719547,10.8216705115,-9.6910661061,-9.0961708534,-7.6917578891,8.6400828623,-9.2432190016,1,0,0,1,0,0,0,0,0,0,0,0,0,0,0,0,0,0,0,0,0,0,0,0,0,1,0,0,1,0,0,0,0,0,1,0,0,0,0,0,0,0,0,0,0,0,0,0,0,0,1,1,-0.0417528346,0.2951564315,0.0881232865,0.1697741633,0.4394631975,-0.0854541122,0.2320727554,0.2228711616,-0.2253268897,0.1520114163,0.0000325803,0.1376423326,-0.1428566103,0.4813606013,-0.0985234969,-0.000007726,-0.0020626765,0.153949132,-0.2115203677,0.3054018779,0.0250714725,-0.1656181198,0.0917672326,-0.2216566867,0.1298272013,0.0689596429,0.0140169378,-0.0792490073,-0.1020351687
outputCount=50
weightIndex=0,1500,3820
weights=##0
##double#3820
   -0.0033407484,0.0031356325,0.0010503014,0.0029031639,0.0030872876,-0.0034905194,0.0016235695,0.0031516702,0.0064190652,-0.0014265722,-0.0001190541,0.0051415298,-0.0001023728,0.0058188745,0.0016210949,-0.0002544956,-0.0003343253,0.0014776811,0.0011323246,0.0043073572,0.0019190158,-0.0042344568,-0.006733446,-0.0041414344,-0.0002899308,-0.003391198,0.0051845685,0.0003229779,0.0013187286,0.0246498043,-0.0048468975,0.009259141,-0.0000705897,-0.0060123133,-0.0034183914,0.0007304817,0.0046893618,-0.0014549476,-0.002446456,0.0016927673,-0.0091905121,-0.0016973463,0.0000321383,-0.0038062678,-0.0014750084,-0.0023783525,-0.0030738038,0.0034145356,0.0037699731,0.0003934029,-0.0029335908,0.0053688531,-0.0079352028,-0.0011435204,-0.0005399046,-0.0033748143,-0.0030871077,0.0099167154,-0.0004754504,0.0793843817,-0.0018324545,0.0043198044,-0.0018970909,-0.0005816526,0.0008988026,-0.0004590422,0.0060194249,0.0070597781,0.0024090465,0.0088799232,-0.0003482749,-0.0019239416,0.0012951905,0.0010292052,0.0092965871,0.0027591962,-0.0120427702,0.0016841843,-0.002584764,-0.0032049874,-0.0045552483,-0.0061881328,-0.0038433784,-0.0138796455,-0.0016876473,0.0049794714,0.000050115,-0.0033679979,0.0084093892,0.1248285069,0.0005567744,0.0040769377,-0.0042124494,-0.0090663289,0.0011508599,-0.0015570761,-0.001425694,-0.0071680199,-0.0044700091,-0.0022503522,-0.0000891511,-0.0004889812,-0.0032091058,0.010114055,0.0026636042,-0.0035863733,0.0078021515,0.0022617899,0.0003548154,-0.0069285418,0.0014588344,0.005124281,-0.0007521784,-0.0037162905,-0.004385889,0.0015929686,0.002652893,-0.0058600866,-0.0012486393,0.0741194353,0.0064512386,0.0102822182,-0.0009699197,0.0076788326,0.0101692079,-0.0043338069,0.0036378194,-0.0042714499,-0.0069776715,0.0021978791,-0.0020978177,0.0011328544,0.0171814726,-0.0058214353,-0.004346887,-0.0027027716,0.0029694392,-0.0043633953,0.0007017648,-0.003857504,0.0028513457,0.0067622578,-0.0086910181,-0.0008355285,0.0004472026,0.0006717833,0.0014008233,0.0092244046,0.0044967119,0.1422985549,0.0127937226,-0.0178901709,0.0090924712,-0.0044709849,-0.014364032,-0.0133813427,0.0084247936,-0.0052335805,-0.0052634674,0.0005951089,0.0082447369,0.0050314441,-0.0034360255,0.0010003707,0.0023822648,0.0077451,0.0031857733,0.0007448203,-0.0012395999,0.0130031934,-0.001489564,0.001722234,-0.00253123,0.0028472364,0.0007486858,-0.0045764779,-0.0023613454,-0.0044625113,-0.0016246361,0.1278584307,0.0086920617,0.0084894993,-0.0021772473,-0.0097088923,0.0010454794,0.00544729,-0.0061285892,0.0032362592,-0.0047241079,0.0071878668,0.0088350714,-0.0028689665,-0.0000212097,-0.0010482405,0.0064016732,-0.0042512444,-0.0019941183,0.0048147025,-0.0020580516,-0.0068293848,0.0010520932,-0.0027621325,-0.0003247598,-0.0054910097,-0.0079796985,0.0070427007,-0.0065159763,-0.0036243908,0.0011462361,0.0695868063,0.0052504591,0.0028212026,0.0028447758,0.0035045379,0.0072704905,0.0030186207,0.0058008422,0.0065084732,-0.0025396198,-0.0108487003,0.0006931396,-0.0095719614,0.0009921936,-0.004244231,0.0021892728,0.005665556,0.0029881398,-0.0043186473,0.0085299886,0.0022062901,0.007655795,-0.0105391738,0.0018674561,0.0070581229,-0.0031636493,-0.0031559449,-0.0051758333,0.0060846074,-0.0049145407,0.1171527287,-0.0009965336,-0.004354795,-0.0015181491,0.0021220146,0.003995286,-0.0032295564,-0.0030423832,0.0069297562,-0.0010373331,0.0039369343,-0.0010000807,-0.0018121908,0.0019551425,0.0010051049,0.0007239677,0.0055201588,-0.0033815119,0.0021610252,0.0071497944,-0.0000786132,0.0093223848,-0.0023577111,0.0067331436,0.0081270119,-0.004050719,-0.0011968963,0.0045756595,0.007927911,0.0019846722,0.099397655,-0.0000824994,-0.0002717265,-0.0045307734,0.0035427612,0.0092715832,-0.0029329703,0.0056523205,-0.0116698581,0.0007071387,0.0059420443,-0.0035423585,0.0102062281,-0.0043370548,0.0017161927,0.0031068807,-0.0019395459,0.0089429178,0.0011194523,-0.0203167089,0.002944791,0.0056473728,0.0073517427,0.0044653759,0.000230649,-0.0054308032,0.0070298294,0.0047368613,0.0009205951,-0.004803641,0.1006071225,0.0000001953,-0.0000000566,-0.0000003956,0.0000001529,-0.0000001567,0.0000017894,-0.0000004852,0.0000005752,-0.0000004176,-0.0000007091,0.0000001391,0.0000003193,0.0000006799,0.0000005091,0.0000015646,-0.0000008711,0.0000001508,0.0000017491,0.0000005836,0.0000015373,0.0000000272,-0.00000036,-0.0000002029,0.0000008457,-0.0000001357,0.0000003845,-0.0000009391,0.0000002827,-0.0000006512,-0.0000028817,0.0064756186,0.0038649094,-0.0036051859,-0.0045511503,-0.0012096664,0.0087817357,0.0005226402,-0.0015935591,0.0056736891,-0.0007448995,-0.0021768614,-0.000448489,0.0074588993,-0.0023573158,-0.0040698172,0.0006748669,-0.0064582951,-0.000236479,0.0000784043,0.0009928578,0.0075267211,-0.0058154768,0.0044097465,-0.0044273669,-0.0002295644,0.0048537106,-0.0063801473,-0.0010378219,0.0029628204,0.1092654195,-0.0013418619,-0.0013189179,0.0111986029,-0.008027193,0.0075786839,0.0012823659,-0.0027207697,0.0038303042,0.0019929121,0.0031756889,-0.0024027452,0.0088372609,0.0050194721,0.000616547,0.0028690101,0.000140899,-0.004131535,0.0010334961,-0.0021157482,-0.00339896,0.0033922324,-0.0038834708,0.009175624,0.0053821485,-0.002535029,0.0016900208,-0.0082616744,0.0127021958,0.0095157725,0.1219411781,-0.0007321841,-0.0007294472,0.001113988,0.0029963187,0.0028360752,-0.0010436869,0.0059496939,-0.001706925,0.0029506715,-0.0084003718,-0.0025124518,0.0058659128,-0.006277224,0.006215956,-0.0026040897,-0.0008067273,-0.0048370016,0.0009870057,-0.0012210381,-0.0089520875,-0.0018718269,0.0130555366,0.0008022646,-0.0016942055,-0.0077886062,-0.0048103612,0.0030465944,-0.00691832,-0.0057698004,0.0589216489,-0.0021530544,-0.0043665732,-0.0029523311,0.0004419514,-0.0060480727,0.0029634652,0.0022671733,-0.0002849266,0.0064262244,0.0100773527,-0.0074840283,0.0039464898,-0.0060022723,0.0045322508,-0.0021937769,0.0103247792,0.0052301041,-0.0016719417,0.0085983141,-0.0033319449,-0.0164339686,0.0009780803,0.0060297574,0.0014494364,0.0023849292,0.0139040499,0.0062920725,0.0109639417,0.0017464971,0.1402210693,-0.0000004475,0.0000002177,-0.0000001566,-0.0000005653,-0.0000026206,-0.0000010678,0.0000001921,0.000001217,-0.0000005205,-0.0000002578,-0.0000003548,-0.000001265,0.0000000615,-0.0000006605,-0.0000013555,0.000000956,0.0000008384,-0.0000002207,-0.0000017027,-0.0000013719,0.000000911,0.0000008568,0.0000008985,0.0000000205,-0.0000013123,-0.0000008891,0.0000005384,-0.0000001946,0.0000018692,0.0000072881,-0.0100179536,-0.0040555072,0.0061051623,-0.0138747387,0.0062050724,0.0058769102,-0.0036202635,0.0065959448,-0.0039530689,-0.0124968714,0.0081412194,-0.0013821249,-0.0069546611,0.0014585355,-0.00149853,-0.0027418788,0.0009342896,-0.0022953463,-0.0061205004,0.0028727831,-0.0029694932,-0.004615223,0.0029687798,0.0005703807,0.006487978,-0.0024661517,-0.0082111583,0.0113875461,0.0012425817,0.161548604,0.004986006,-0.0051450434,0.0067091852,-0.0021847366,-0.0060766443,-0.0077210317,-0.0027935005,-0.0010854989,-0.0025486825,-0.0027877134,-0.0019909636,-0.0052183642,0.0074922894,-0.0027398419,0.001152078,0.0003552271,0.0011293158,0.0043594069,0.0031831965,-0.0007642955,0.003453626,0.0046568349,-0.0088168475,-0.0049433013,-0.0004449015,-0.0071108687,0.0028155221,0.0025561454,-0.0033611981,0.1357851665,0.0016956254,-0.0016283992,-0.0017271261,0.0023865337,0.0044272845,-0.0026004775,-0.0046327491,0.0070759252,0.000040057,0.0035674827,-0.0030716145,-0.0046239468,0.000131341,0.0012851511,-0.0028994654,0.0054793143,-0.002207464,0.0007233287,0.0079719595,0.0020290991,0.0095048039,-0.0017451222,0.004331186,0.0072134486,-0.0057398535,-0.000569969,0.0041568477,0.0079143339,0.0031773907,0.1031337522,0.0017410791,-0.0036944713,0.0049478789,-0.0007325341,0.0025729511,0.0006776645,-0.0040148653,0.0045743837,0.0062941093,-0.0014804135,-0.0010341958,0.0080201874,-0.0073885592,-0.0006630192,-0.0019426802,-0.0073789762,-0.0108080427,0.0040381531,-0.0020774224,-0.0061087308,-0.0075270065,0.009177384,0.0014545724,-0.0008196657,0.0011022893,-0.0084391574,-0.0012301375,0.0061346743,0.001690467,0.0468228029,-0.000711287,-0.0020611803,0.004897516,0.0006083371,-0.0018788456,0.000480259,0.0071905712,-0.0032615217,-0.0094084827,-0.0087387453,0.0086752053,-0.0035964039,-0.008642516,0.0028058446,0.0006709724,-0.0025152114,-0.0040005679,-0.0003244222,0.0061468814,0.004912005,0.0039908884,-0.0054449208,0.0051053174,0.0001262807,0.0062114072,-0.0030015597,-0.0071476034,0.0016732121,-0.0027919031,0.0742003766,0.0001495355,0.0000594526,-0.0032875475,0.0038553311,-0.0019788234,-0.003013555,-0.0044600584,0.0044116176,0.0032647812,0.0007167019,-0.0009347605,-0.0006515366,-0.0008336972,-0.0042915806,-0.0000253369,0.0022027224,0.0055680998,0.0008701435,0.0020953256,0.003305723,0.0004416507,0.0028836258,0.0025563092,-0.0005943106,0.0044339635,-0.0040322772,-0.006002556,-0.0082917592,-0.0013076245,0.0355295726,-0.0022706736,-0.0115953379,-0.0038174243,0.0022653473,0.0025156807,-0.0004098853,0.0014431746,-0.0007312606,0.0061773911,0.0009117397,0.0016814611,-0.0036706743,-0.0005210599,0.0018965339,0.0067479035,0.0002520546,0.0036245213,0.0073758907,-0.005082179,0.0064644492,-0.0026161127,0.0009434221,-0.0017288006,-0.0007568831,-0.0009601228,0.0061267277,-0.0017722912,0.001288505,-0.0002015602,0.069477327,0.0033835784,-0.0022173039,-0.0021940531,0.0088385065,-0.0049712522,0.0003838325,-0.0098603607,0.0004328928,-0.0047768869,-0.0031212456,-0.0023139895,0.0009823197,0.0029998642,0.0044674954,-0.0069178257,0.0080799971,-0.0042663071,-0.0007112611,0.0120652761,0.0062220207,0.0095545366,0.0000707232,0.0119100399,0.0063389753,0.0066487729,-0.0015865838,-0.0083862603,-0.0044024259,0.0063613097,0.244494263,0.0078894126,0.0035221634,-0.0054276723,-0.0014546869,0.001632386,0.0024009159,0.000652379,0.0134055373,0.0011030891,0.0103326646,-0.0042203277,-0.0204231409,-0.0047442578,-0.0079921728,0.0127860076,0.0065042885,-0.0085489651,-0.0028791545,0.0020687135,-0.00073503,-0.0003314891,0.000647929,0.0046910735,-0.0043073069,0.0030349003,-0.000725691,-0.0004576171,-0.0087390632,0.0041739969,0.1929678707,-0.0086765514,-0.002742167,-0.0068917418,-0.0013623676,0.0019560586,0.0036306036,-0.0043788233,0.0000106629,-0.0035908799,0.0021449166,0.0007042396,0.0006954696,-0.0068464278,0.0000222189,0.0015879169,-0.0035339641,0.0019164316,-0.0068073029,-0.0091067916,0.0020258384,0.0028751769,-0.0054814247,0.0000473975,0.0060333119,-0.0040674376,-0.0053194585,0.0009962394,0.0006706929,-0.0016118048,0.030279207,-0.0039286393,-0.0018450076,-0.0058368639,-0.0026767351,0.000378027,0.0011371197,-0.0005224585,0.0033971305,-0.0028743248,-0.0030314053,0.0042532101,-0.0011636046,-0.0037429679,0.0004850525,-0.001365872,-0.0009055049,0.0025966252,-0.0025152468,-0.0026956087,-0.001702118,0.0004091913,-0.0029560004,-0.0032955431,0.0034018049,0.0001732124,-0.0032593686,0.0018015942,0.0003693379,0.0049763932,0.0014804965,-0.004097947,0.011292473,-0.0069248861,-0.0009331593,-0.0093011031,0.0048984585,-0.0055242265,0.0043947049,-0.0020153152,0.004843274,-0.0052094944,0.0029621512,-0.0094358376,-0.0061758977,0.0071905065,0.0041240897,0.0075586417,0.0046714942,0.0050237018,-0.0060537053,-0.0011176545,-0.0005209835,-0.0085520327,-0.0013689825,0.0132610974,-0.0035112894,-0.0056335366,-0.0105396812,-0.0056191594,0.0756775827,-0.0075922075,-0.0042399494,-0.0004163944,-0.000369122,-0.0022707022,-0.0060404244,0.0025570923,-0.0048516923,0.0028143032,0.0046541896,0.0034360259,-0.0013745385,0.0086297955,-0.0053895807,-0.0010386243,-0.0100446508,0.0035555068,0.0060600868,-0.0006000572,0.0065656529,-0.0066936218,-0.0064424773,0.0058965172,0.0069686319,-0.0008970853,0.002329329,-0.0012995934,-0.0136194669,-0.0004611123,0.0913592557,-0.0031351187,0.0015416347,0.0064195151,-0.0018805493,0.0004207658,0.0015893465,-0.001205018,-0.0062951388,0.0029258096,0.0149063641,-0.0030621774,0.0041608277,0.0014090379,-0.0061377878,-0.0159534262,-0.0175785272,-0.0054643585,0.0058657741,-0.00519059,0.0044531255,-0.0059461441,0.007124839,0.0025458771,0.0002172895,-0.0052486798,-0.0152511479,-0.0042446825,0.0003922069,0.0007079349,0.2391313037,-0.0175120395,0.0082607219,-0.0037590894,0.0000352155,0.0069262597,-0.0025568509,0.0056217515,0.0070502559,0.0052332982,-0.0104049498,0.0030314724,0.0101315432,-0.0000934096,-0.0006905786,0.0010116251,-0.0057077728,-0.0020488401,0.0039739737,-0.0029171932,0.0078726409,0.0001002386,-0.006905789,-0.0046343337,-0.0034022932,0.0066243162,0.013892402,0.0001128835,0.0077211683,-0.0142846342,0.1930906432,0.0050492004,0.0056886982,0.0034596026,-0.0017319185,-0.0024454314,0.0051632812,-0.0089312802,-0.0073902742,-0.0108926684,0.0050325863,0.0154890645,-0.0057360491,-0.0048103438,-0.0012738044,0.0040221048,-0.0089302042,0.0001642235,0.0072293691,0.0058052988,0.0002587177,0.0007324105,-0.0023324002,0.0001842687,-0.0006179681,-0.0003622526,-0.0001597203,-0.0013262551,-0.0093944381,0.0090492937,0.1108833847,-0.0027566308,0.0025685922,0.0039451112,0.0049460029,0.0001220845,0.0025275322,-0.0021182433,-0.0028379975,0.0035767519,0.0017741662,0.0078369205,0.0072079366,0.0034313591,-0.0055861637,-0.0049712967,0.0013336416,0.0028975504,-0.0109409312,-0.00753762,-0.0046645949,-0.0003632498,0.0065094968,0.0008947792,-0.003093831,0.0037362506,0.0128870569,0.0106969805,0.0069821562,-0.0051481042,0.102534324,-0.0097908179,0.0041618362,0.0075607215,0.0078784303,-0.0043218888,0.0058771005,0.0013710968,0.0006593189,-0.0034194434,-0.0003869037,0.0046111453,-0.0055086505,0.0006846174,0.0008446186,-0.0015991689,-0.0010976202,0.0047621006,0.0048443931,-0.0001836046,-0.0034675022,0.0009360133,-0.0092929765,0.0034895738,-0.0000505992,0.0089698028,-0.0032265693,-0.0024942506,-0.0060546885,-0.002350715,0.1171577706,-0.0000004989,-0.0000009683,-0.0000019984,0.0000007485,-0.0000004942,0.0000003427,-0.0000000538,-0.000001147,0.0000010346,0.0000005882,0.0000007936,0.000000585,0.0000015362,0.0000004156,-0.0000009386,-0.0000004441,0.0000006569,0.0000007897,0.0000006748,-0.0000000985,-0.0000016569,-0.000000777,0.0000009375,0.0000009034,-0.0000005414,0.0000000914,-0.0000002884,-0.0000003062,-0.0000011957,0.0000010162,0.0048497609,0.0038046774,-0.0010415283,0.0020433707,0.0009073782,-0.0041354518,-0.0051483561,-0.0003779506,-0.005630693,0.0000189826,0.0027227,-0.0035525227,-0.0013477108,-0.0024703281,0.0030813548,-0.0008090679,-0.0045521687,0.0024468204,-0.0026938749,-0.0006065682,-0.0053596133,0.0001156392,0.0003524582,-0.0004976068,-0.0058958909,0.0054581427,-0.0034270305,-0.0013819685,0.0045291816,0.0167235213,-0.0001023563,0.0104518671,-0.0070079314,-0.0086896258,0.0022802377,-0.0013946579,0.0036921272,-0.0139292622,-0.0048227468,-0.0076214143,-0.0044049523,0.008027023,-0.001442789,-0.0004755244,0.0039280096,0.0048970528,0.0074602933,0.0013630557,0.0059958327,-0.0129815621,-0.0005320916,-0.0004027948,-0.0075788172,0.0005453852,-0.0020836386,0.0012989702,-0.0057819015,-0.0023362917,-0.002315071,0.1003945703,0.0016543469,-0.0023027363,-0.0022596504,0.002283119,-0.0038059108,-0.0060657649,0.0052663381,0.0017761071,-0.0007084848,0.0045833321,0.0034277328,0.0100560328,-0.0029335439,-0.0011199436,-0.0103714224,-0.0054153723,-0.0066665499,-0.0020118964,0.0022758796,-0.0006808289,-0.0092906192,0.002340138,0.0000858836,0.0012078117,-0.0067452716,-0.0017616502,-0.0024127974,-0.0076651911,-0.0063340624,0.007066579,0.0058681816,-0.0077512031,-0.0099661922,0.0042055472,-0.0052141105,-0.0013382448,-0.010152495,-0.002276334,0.0015627475,-0.0087999189,-0.0115301256,-0.0021881406,0.0081936762,-0.0015379521,0.0061324871,-0.0060491484,-0.003631199,0.0055283224,-0.0042334162,0.0058992674,0.0021678016,-0.0077061898,0.0032160022,0.0004820318,-0.0014009809,0.0041057481,0.0043610655,-0.0030451972,-0.0078488546,0.1768685359,0.0036621891,0.0047923289,-0.004864925,0.0043226535,0.003231184,-0.00382739,0.0028981967,0.0037808139,-0.0021619722,0.0025792593,0.0033211779,0.0061910682,0.0035736957,-0.0047120268,-0.0023940781,-0.0064838237,0.0019689053,0.0019197966,-0.003860093,-0.0012354579,0.0022239332,0.0033201194,0.0000617592,0.0007129259,0.0049108983,0.0059157076,0.006958716,0.0032529569,0.0008922043,0.0076728868,0.0022362921,-0.0051836397,0.0038903355,0.0065877927,-0.0057509472,0.0031984863,0.0010043655,-0.0036660534,0.0083157713,0.0039918436,0.0017100727,0.0002113836,-0.0046219833,0.0032327952,0.0004942268,0.004360538,0.008139259,-0.0047750589,-0.0055223892,0.0011261819,-0.0075545093,0.0046791954,-0.0008408914,-0.0023045659,-0.0026938218,0.0062236942,0.0048301677,0.0071948165,0.0021722537,0.0404043445,0.0021642937,0.0044039241,-0.0033405558,0.0042547978,0.0018857234,-0.0003193932,-0.002446786,0.00104617,0.0083433842,-0.0060679825,-0.0058761776,0.004036102,0.0042415345,0.0073142175,-0.002864699,-0.0010473271,-0.0021467349,0.0010796818,0.0046301288,0.0075487299,0.0039866762,-0.0068759476,-0.005143419,-0.0062274289,0.0006380561,0.0004585655,0.0033763874,-0.0009235277,0.0047562561,0.1029116903,-0.0017915817,0.0035043582,0.0044463856,-0.0003006466,0.0019395463,-0.0030860956,0.0004857204,-0.0041503745,-0.0027466547,0.0019292351,-0.0049610808,-0.0050271625,0.0044755504,-0.0011697769,-0.0043652451,-0.0035102445,-0.0016689409,0.0003171238,0.0019763217,0.0001110123,0.0017184255,0.0070427745,-0.0069840179,-0.0007213469,-0.0028507138,-0.0023353807,-0.0025671604,0.0035527123,0.0017492266,0.0769939804,0.0052444123,-0.0125677209,-0.0013458593,-0.0038169648,-0.0086848768,-0.0003043707,-0.0088253245,-0.0023381866,0.0082209643,-0.0125879121,-0.0050444753,-0.0140886797,0.0054360082,0.0013947798,0.000173729,0.0015654939,-0.0034099841,-0.0098212139,0.0050229708,0.0011476392,-0.0084228987,0.002043412,0.0008791223,-0.0038279031,0.003824012,0.0167735252,0.0136640463,-0.0003110282,-0.0072369005,0.2813191931,-0.0014338742,-0.0100436307,0.0010263338,-0.0106791748,-0.0007927665,-0.0029900005,0.006717419,-0.00514525,-0.0135530222,-0.0014583515,0.0076289369,0.005253185,-0.0094187971,0.0011534516,0.0014029707,-0.0111642057,-0.0028935554,-0.00543104,-0.0025290073,0.0063396305,-0.006592237,-0.0072118233,0.0022695463,0.0017442398,0.0037284159,-0.0121157663,-0.0052913194,0.0046227394,0.0141186186,0.0696550329,-0.0092422596,0.0049155884,0.0053486683,0.0025248229,0.0021190282,-0.0016917177,0.0038379004,-0.0058047004,0.0095733222,-0.0045040146,0.000976212,0.0053502392,0.0030076921,0.0099256208,0.0007979017,0.0009426524,0.007054452,0.0058293083,-0.002264598,0.0007718339,0.0011565568,0.0006684515,0.001808812,-0.0057761266,-0.003780737,-0.0076048543,0.0086177509,-0.0089796583,0.0043004915,0.129693638,0.006586186,0.003645231,0.0035129899,0.0099546714,-0.0031190266,0.0058388211,0.0017534775,-0.0056102773,0.0015346038,-0.0057694834,-0.0014857759,0.0007186641,0.00492241,-0.0011468491,-0.0007185456,0.0048814356,0.004454956,-0.0130439435,0.0019598777,-0.007227881,-0.0070660908,-0.0028657658,-0.0013386746,0.001149467,-0.003465191,0.0017923321,0.0026686961,0.0074871804,0.0020308933,0.0431637312,0.0036480923,0.0019390697,0.0012360882,0.0048101183,0.0058539338,0.0023910929,0.000713292,-0.0025307387,-0.0035347761,-0.0033056956,-0.001116813,0.0035545584,0.0091433746,-0.0024682632,0.0027840644,0.0029089288,0.0036051979,-0.0055094322,0.0031418178,-0.0037355687,-0.0008149457,-0.0045114364,-0.0025775692,0.0026625407,-0.0030565149,-0.0005518904,-0.0044698966,0.0012085087,0.0024435613,0.0264000014,0.0013638484,-0.0090558718,-0.0170503694,0.0035974121,0.0061494809,0.0009507099,-0.0000248958,0.0133283666,0.003485934,0.0012613066,0.0013447273,-0.0087687153,-0.0122745301,-0.0021546594,-0.006803265,0.0041082325,-0.0028323182,-0.0069746965,0.0119510562,-0.004309471,-0.0009865088,0.0036140994,0.0018591843,-0.0012500013,0.000902304,-0.0109913706,0.003058669,-0.0120509932,-0.0048095437,0.1255572447,-0.0032057355,-0.0051769507,0.0078034807,0.0010886775,-0.0045956696,0.0025400126,-0.0088092361,-0.0029392924,-0.0032996789,0.0007222178,-0.0060063436,0.0018840799,-0.0012380549,-0.0018126548,0.0085393918,0.0070045456,-0.0035853032,-0.0054725759,-0.0133148707,0.0003457742,0.0051573198,-0.0016873542,-0.0074948087,-0.0022464415,0.0016549282,-0.0007520002,0.0095167828,-0.0037236174,-0.0164369367,0.1409230338,-18173.9874732857,3629.6461360239,-143.3984050185,-5914.3263355469,-1.6236076715,-5664.9785511401,-2965.4471359187,-30832.8636698805,-5482.0599617786,-710.044860225,0.2689716407,21.254143078,-1.2016174239,-5219.0633787894,-0.5059748625,-0.2314399279,0.8228982164,-2.1049765457,-5481.9006321762,29846.3807521112,-27051.8577719966,-13.4328403275,1.7730947758,0.2809876971,0.6194572423,-0.6899407541,19325.7682104983,16107.2439972813,0.4045016768,0.5023969392,-1190.6841879871,3440.4765177208,1.2925688551,-0.100913741,0.72827512,7621.297585081,0.2001855993,0.8262827231,2587.3574758715,1040.8914864894,-0.2793152452,5117.9288194988,-948.4457976193,-0.7271849757,2099.3334611502,-1.1117040084,-1437.7823081402,-12054.8112432292,10216.0908355669,-101.8480676053,0.3356187774,-8657.2449459006,-2121.981711435,-33.8226756957,211.5726239836,-1321.9450812653,7897.9464137669,-3177.3155262757,-15505.5943391757,-3493.2279829576,-1591.586520438,-8689.4256296385,-5123.4099022053,-3231.687626478,-10379.8281629171,3666.2687697829,-12093.224377525,0.2646667482,-76.056431045,-3743.2738061741,2354.638648127,7744.1599404622,-2172.9009588666,-1448.6998546107,-9477.3810464774,10927.1328557428,4072.0170502569,-2277.2088899728,7859.3200566994,1512.0031452597,32209.7914413903,11430.6184619725,16780.4378365629,5608.3307961439,3956.663303802,1448.2597837424,-26343.495292621,14.3479998495,-12502.9438469871,0.3741036714,0.2420731466,-8789.1061820668,-0.4576994683,-5970.0070014756,2206.7544374333,0.1929689396,-0.7114020685,-1.3530779932,-12503.4151479824,-0.4619608341,3128.6097646641,7.3414292728,-772.3688976786,-0.6356448546,-6609.9540293305,-19657.6491010061,-39453.1499408,13238.4435127268,0.9130439726,-0.236609835,7.261031942,-3252.416255649,-1876.0079696231,-0.7927188075,0.2544518262,-29565.651976418,18794.0434995532,13629.8116244807,-1827.7082298681,1550.7985848795,-39.389217273,15715.7329411131,3023.5548046667,-16.5836640802,-0.4857631184,-0.8935523736,-2.340509453,23747.4719567108,-8960.205198651,10.6217976831,-0.7316502885,1093.782237596,14136.9033799375,-969.7486541788,97.3568846478,6272.0093587581,1452.8929666667,-9329.6308424192,-2105.6238555007,-6084.6608511149,-10013.2681407499,-16.6561378783,-14518.7351878231,-68.7441714132,-2094.8966401737,-1655.8237415434,-8742.7553114462,1.5934659673,13296.7620745411,5345.8911355815,-2725.7371855425,2178.04013727,-5461.4456829546,2623.2038608856,9656.3833037084,-3102.0373872458,-35.9318193122,6163.004309044,-0.2759559393,1924.5989960144,-17660.2652255771,-0.2479181248,-1226.0722150441,-6307.4310440037,-1.215694016,-4220.9683278744,-13285.6282020867,-2278.0654092726,-1329.5715306426,46.1163836006,0.3873206032,-9530.7920508889,-3431.5376280501,193.6198910153,21.4694985611,0.6137848252,-11353.6755441462,-2220.7833597529,-1328.641688642,2.5248199935,45186.8481712795,-0.8973123435,-3328.2230712577,6606.860790119,-522.94644721,29689.7898849185,-4.2057616459,-832.1361587965,-2301.9534393424,5226.0591735799,0.8447279749,15107.0708124433,-7.1841786875,-0.9223755028,-0.3770991664,10785.2735650286,1397.1752572091,-0.2880311574,3087.7479511636,-4652.2518227622,-124.513774438,-1222.49537123,3228.0140905098,-1761.5866034471,-0.021831506,-1519.0141328403,0.9802364301,8.4737090648,0.2550688944,-1.2157445125,-0.4056600479,-2836.0658137581,-6345.4675521309,-9006.0104340418,5702.4921853404,-0.2648670702,-1689.009028788,1387.4822092834,37.3439983616,-867.3150369093,8119.6111220726,-487.5290264978,-2157.0090500439,-1008.5864920997,1678.7727992945,5535.6860866029,-280.5087954345,-2.192251106,-0.2758105422,-5245.0565815025,-10809.8273618183,0.062382369,604.3844064617,-968.5737049594,6690.635794453,-11711.1679024081,7.7467241603,6542.1010125918,2037.8128932703,1310.8456643199,-122.0627129776,-38510.4382847823,-1753.5227294718,2527.5991096723,0.0159020082,10711.6854951154,-1365.3494185162,5.2970059404,-26399.8824004779,-0.2254114551,-0.2806498379,-2787.4618480093,-1107.6492958011,0.1655980401,-10451.6829438647,-0.6467982079,-0.6709855921,3049.7078264704,-26400.8651353391,-0.2944309288,-0.711623478,2106.9222955867,0.0925013459,-1.4748584439,12440.4427987725,-21213.8027333159,2306.0526301313,-7481.866739509,22.0356253733,-0.743620031,0.5306793646,9466.3761309594,0.2115517399,8070.8304631433,-0.3821881698,-14346.3161380791,-2052.0548456062,-5605.0835632207,-2488.5002851854,1.4129947487,-3.484128189,-3187.3492713665,1.1748625056,0.6139217322,1529.2146552208,1.0913052503,0.241957823,4879.3604051887,2590.1159201289,-1044.1477013171,0.1420258609,451.8698059451,-12749.1245635385,1893.2989878522,15609.0000065586,2815.7126717544,3576.9816686662,-2160.054725699,-412.3969052444,-3930.1428282045,-3759.8480826034,4.9550159836,4544.0470540583,-12221.8332251684,-40.9129807625,-1401.239416396,-94.8765214263,1717.0811695339,3396.1962697482,-88.196835347,10565.3644123851,-4358.4827062134,-5213.2515132725,-3453.8712111354,4792.5347665152,4566.9141240282,0.7612691786,-4686.5980009655,-5994.5533315039,3226.5228502949,-2075.9583356979,13.0904075571,-1.0762817515,1.5700594703,-0.3819841034,0.2073481382,-1967.6031167246,8799.2705373918,6032.1780781279,-76.9834456081,0.3135687312,-7296.250808086,-2077.7134360463,-19139.7641556395,-2859.0190326954,-0.058491721,-0.2403739866,-0.1188198373,6032.6776216776,-9834.5109023154,8.2790628996,7283.2876281912,14040.0161470014,-200.3603779954,7620.1660194377,-157.8902638176,-38454.4262816126,299.5694659457,8385.9593943169,0.0987249055,-0.4094249877,-7683.4284327017,0.5955523756,-20849.0662807162,0.7976090844,-3170.8313478006,0.0501411572,-0.1318220731,-1.0407761806,-238.524720228,-3693.2928164486,-4764.369648416,4105.9136186075,-0.2024821215,1.2536046182,-31413.6378142327,-0.0475431063,-2084.0733628858,-3995.0581661716,0.4211034937,1.0323773244,1752.7639689354,2171.9550138039,-3688.2013055965,-1623.8664955198,-9469.6593200552,4040.6445453052,5738.1579277121,-3.2170218619,-2069.4908489787,3865.5521179461,-619.2988259755,-0.3051769238,-17.4270407975,-2371.6050097019,-2592.9888925539,24.2038031135,215.4760506633,4051.5738283944,16761.0194703323,-9906.8637433258,7924.9483446036,1009.5171480812,-2661.5134443898,11091.5309784278,5683.1233818894,-4890.7055899858,1479.536923472,4958.8121480623,2779.2558414336,-2.6323173616,18091.0104230769,-0.4801980353,3130.7882475044,-5949.643790538,0.0068740012,-15539.7427184026,-1762.2503887765,973.6939878472,0.0412906564,-0.0051862499,-979.065226032,-0.3194093762,-1313.8265266757,-0.1331674942,-0.2364196754,68.3106488536,0.796426553,972.4564121716,-0.5200103281,1490.5567048963,-0.2873243298,-770.2561193575,2480.3096512438,-57.7293971657,-1494.632925694,-26213.8870673545,4583.2605282723,-12.2382881715,-0.2681711672,0.0520579679,1667.681205557,-0.8153572285,672.9569933374,-0.5199512412,12940.4411050742,-1348.7788176646,-0.4064430857,0.0150552346,-0.4302876167,-2144.4947215415,388.1581104773,-1993.7833493377,0.4126208106,-107.6796644563,3437.3358132373,-23270.7762258369,-10011.3691668437,-5341.1294412615,6570.2566217945,0.6950201804,7208.6465108926,-12574.3273979119,-471.9769530866,-4331.2125754024,-4851.0181828024,-12281.5888876555,11369.9605281279,3131.4884270682,7354.5102197867,-2404.8894318401,-3370.4233852617,-8312.2134363275,5448.2567813545,-657.001631243,-460.0737299049,-736.9514250236,1283.3602284911,-5272.5569520527,1244.7950169292,10530.1181975904,10493.0447919346,1764.8125298595,2531.5882145985,-2995.811740412,8726.9492699039,-5075.818235859,-3585.8620689923,-6352.814502923,-5821.6723952052,3557.052579155,2349.7438081172,5933.2324263785,-23.3312951838,1642.7679312458,3.1080964934,1336.0065048027,3670.1729154914,-9471.4320043055,0.3371627457,-0.9292279411,-8948.793822699,-13503.537147962,-8.5018812498,75.9453948816,0.1557478455,-25021.2918682688,3049.8322922362,-9469.82138064,1.0926608367,22693.5925307312,0.0696477522,1345.0505727671,0.8227359221,85.0465070253,-14272.7605213613,-36503.4334847608,34.379921592,744.6541516117,3.7335009174,0.8804473426,-1345.8130850069,-678.3020613852,61.9790554115,0.1690610782,4562.1632585389,-1517.8536164559,11585.0441508471,-2.3343096429,-6897.8635361477,15765.585299308,-875.6651163062,24210.1975123338,0.8091136508,0.9253505683,8.4391517612,19867.8282543113,224.5811829792,-98.3564289086,-3514.5077779462,0.3907687105,13001.6075359497,10114.6368634792,-1966.9467644238,3251.5404428617,6.4446646985,-8859.0866386113,3883.1364329702,-5406.0536108129,9792.5360035411,-12914.4450502021,-5890.5535619413,14279.8761049042,405.2560386511,4514.469606107,15902.7327652826,-1025.878900551,-2455.5888310846
   123.2385512681,-8169.1240724951,-4312.2022175124,-3334.9473277694,4417.2001584093,5355.8999874897,3432.4029543963,10440.4268344393,-2413.3715189639,11912.4313509487,-7266.3284467348,323.4275616855,3476.7276463826,0.7390925787,-3684.7178711354,-157.3574108658,-7981.4137421298,14041.6263072793,-3566.9294462211,1505.1064951233,640.4122178625,2107.3342136621,0.883859479,0.0818741313,12383.0496342313,-15487.6961291486,0.1960679537,-0.1998565867,-0.8064016545,-0.7492481041,640.4289675107,-0.4089792484,-3999.5905768551,-0.631543771,13858.6608286279,0.4804428028,0.560806087,0.5892880117,-0.3270745074,8489.7190407678,-0.1216784277,-9687.4776918773,0.9014600421,5.6238165013,-2495.3688157627,-0.3819264068,0.003794562,3285.0782351721,16755.7350956046,-4631.6378644494,322.1647961079,-0.3733851612,-0.1240392872,1.0171947371,-32946.676332534,0.8604586311,13.3947142592,-0.1951677514,-1807.1043538054,1791.4316691934,-0.8074217684,0.3432984162,0.3711196007,1563.1806277143,-164.7649107061,-6882.5541589525,12049.9728001132,9783.3187560202,18951.6295501377,-10506.1186418689,4820.5380445458,-1946.4513929846,6445.4093394271,-22212.5970493922,1031.1374743053,2632.4042642274,426.7371630603,1229.4384302247,-75.4077349621,-8723.414325148,-10000.2234028123,11582.8781315276,-19382.3606809221,-7626.79683626,11844.8817478191,-3120.7108398922,-9608.1686191845,-1454.3737565155,7188.4792435308,3058.9125134648,196.5327878978,-10022.4589229006,-1.0669672378,0.7521939866,-0.0785755839,-30229.5972202852,4156.64602299,2.3735995832,4736.9150233495,8.7461495792,-11155.3954713771,27.9371352734,-0.6192713518,-0.3718175887,22801.4414734245,-24662.30133612,26.8286653147,-0.1498633755,-0.1485758835,0.3353661619,-11154.2713961674,0.2807475861,-237.9304800129,7194.5669489796,3741.5962990539,-3.0596597847,-0.6908787875,-0.0380577921,0.0973621546,-2257.8022923984,2730.633991008,-0.9741150034,0.2738061126,0.882137494,-0.2731831621,13769.0162025348,-0.0399597921,17158.0018917522,-1.2268834715,-24102.6367089939,0.2710532521,-0.4620409475,820.6152836467,0.2792794946,-31.6022747649,-4328.3749538335,-0.5075881557,1305.749057913,-0.1906370967,45162.3673900506,-9005.3039725766,-0.376968333,0.0491114967,-2740.0195392893,14254.8531067614,-2396.9425710175,-7620.8096433324,-11552.3300912312,-13620.9072372999,13329.1780033448,-14718.6129820541,-5188.0747666473,-2161.6408000568,700.3874687007,-10818.1784105344,-14884.19946337,-782.9286570286,3826.9711652507,-8634.5092139908,4509.6570478416,15706.7171739685,-4625.1812730756,10545.8273098995,2135.2563219356,2157.5252253145,5426.7242358952,-7247.18166943,10483.473347066,1331.3936387632,-54.6791350425,23090.7750646019,-1436.5794838359,-28.9896168026,-2486.5465497378,-6144.265547625,19391.886213372,0.0937042004,1.0312250188,19042.3568131213,643.3033980903,-3628.130501949,519.3918903481,-0.3065237373,6519.3799026904,-38643.233845154,-0.5583825274,0.7649963976,0.5639051648,0.2046568966,2.163396716,-3628.1630294949,1.0513251892,-5065.1686188261,85.7813814154,-6021.316753689,-458.0051965324,-2132.2608088364,-7.2796456603,-2.4475736692,4717.4387529706,0.2223849684,-127.2863563037,8485.9504852857,-1977.3184649247,12269.5719619438,1408.3270410811,0.259987372,15851.8361198069,482.844227389,-0.6962785286,569.6814769807,26070.8673346285,6785.3764518281,559.5563769148,-11859.9144539889,12.1030315062,-4454.0681896407,-0.2345474025,2388.3558316472,-88.7869111003,-163.2555454556,8.6774018831,0.3756569757,-3378.4418735846,-2807.557864565,3.3921691426,-6126.6947900667,49.539970122,488.6602344378,1642.8438919438,-6306.0467370714,-5176.2185036895,3403.2572455995,2231.8850605389,1060.9678435398,-7811.9474721858,4756.7132488536,5155.6545874274,-1886.0900172753,-7.5441206512,-169.9428521161,2975.4015143331,-2307.2150618548,811.544138565,2941.0414826701,-3820.1067890902,-85.7406694732,-450.4452219231,-3356.4779354224,91.2756422817,-4927.6879615766,2862.8983167029,-17317.1014738816,0.0341767,-3672.9417371259,694.819102821,-5181.1280936832,-17.393910197,4877.4841074969,4858.0818667126,1895.0733295641,-7040.1177565393,0.176825335,-841.2863303251,-454.9804213529,16481.4506525695,1115.8491712498,-0.6031503953,-2593.405954512,-29.9125698105,1896.1279528039,-0.6513923278,27560.8285825902,-65.293290324,6.1132318483,1415.1519565096,-0.0213706611,3342.6211090084,-776.9570183403,-2.4856382161,0.9642879213,855.7203099746,-3719.7648440442,10979.900153043,-2619.5955040931,3582.4396932339,0.2820621774,24683.7474117771,-0.6532522403,32107.4485815153,-1.598570133,-28476.1155915103,1.1033872152,-14369.030394924,-0.1766716869,-1986.0885357406,-1597.3808646929,-14597.8271510432,9.3006439531,1003.5831727176,-0.2195999083,-1.6663906861,0.8034186072,6517.0946464148,4677.5615980381,561.912860058,-2091.6522770221,-601.319088525,-512.5606839449,-2780.2436519542,3658.6998082726,-6232.8124388314,-10346.491657866,7485.8697083499,-2974.2364913914,553.7800397397,1292.0872077256,6503.7097538937,20.5846131732,-1.6052479465,-4491.356588507,-10183.7645438344,-2599.5425243229,3690.2293556943,555.1321872441,2834.8406748421,6259.5001118586,6121.8339784985,-4817.2677688691,-10698.9471150318,-2468.5267057407,-1498.4478236644,30607.5990651906,19.2362903555,2.257168015,-3007.4391200593,7013.1476174951,-3868.5503705613,0.9000488307,-0.8181184229,-0.8370095101,1128.0802110498,-0.0313574495,-0.4242704889,-16.4692988413,0.8685725201,-3.4131987663,0.990546729,-369.0784211092,0.7389838681,0.7193385682,-5189.2285254068,0.3677324909,9744.5031090971,-42526.5273413939,-1.7755631754,-0.7054609201,2.4620686721,-14572.0390459108,2830.6838485394,-4.2827826458,3501.5457012854,0.6022339703,-2946.0686588462,12519.1333671549,-1992.9446663916,0.1481935706,4289.9627165045,-1606.0001611767,8257.5032715863,-0.7335563396,1975.7873436887,2.1871061226,3405.8036324361,16387.1754675105,0.0392560151,-2.8418942473,0.5826015624,23407.5221226028,7971.5877853116,-682.7285398082,11.2064000346,0.2727927018,-1079.3930886042,3654.3150780706,-4755.0886733112,5153.922101619,2956.5207010006,3835.838297867,-2287.2913978278,-4188.8270472931,241.258370836,-861.7117694567,-636.0597494877,-6073.0318190084,4328.6048033249,-1177.6219491096,-54.3738184677,6679.7576185583,1743.2613737196,-0.5153255862,567.0213738909,9830.2351010339,329.4190743629,-7707.7990651941,2862.9202908717,-3699.3653182725,6248.5897420288,8081.6158313404,14818.1487494242,-2883.5198074986,10.8632588043,-18085.7799667544,4.9846924241,11564.3199899137,-11065.9542234095,8.1135916767,-147.0539930616,-5908.9097766522,15.9904067628,-5999.3323507896,-12712.2085333763,-0.4188261963,27396.7304800168,1.6525034209,-11973.4319928956,5403.4092234511,-0.9036224307,3263.037887311,-11835.9841537663,-5997.9544644291,0.6270525924,0.7650706162,-12379.2516982478,-16.0296782549,-0.0812078289,0.6193685177,-340.5690553571,-0.14593062,-2539.6926078073,0.7166447285,20.209418558,2.007446166,-8931.1147514849,-0.1857681626,0.3697137355,-0.2774407161,-44706.8160625861,-0.7879280764,-0.8109349337,-6421.8263785933,-37.4352006997,-0.6614137747,3.943587837,4513.1609732593,-0.0730805125,2224.9713336503,-12533.2744893637,-0.3031195573,5787.1714049476,1.0767285544,-8964.0747662241,-0.5778252354,-699.858624612,75.9278717902,-2161.3410151039,-12073.84906818,-8983.3313845828,-929.3653519997,-513.1871976574,-332.6164069622,6155.4920078148,-7862.0203373037,5324.8243802425,4448.164056163,648.7099495591,-10942.4242443212,978.2668366462,-2529.0864688545,2.2162133397,-1551.2145174172,2463.9700774373,8655.4971562139,-3597.2775937966,5110.5041248989,754.6238151524,-0.9077059179,-2281.0446479427,-1466.6418217868,-2092.978273917,2050.7708748217,-87.4775065212,-0.3129936164,604.8073898321,-718.9252725521,-3505.0254912831,39985.1734382312,-1.0969203447,1623.8694857845,11062.5095622076,-0.1158031553,-0.7788042126,-0.7619062833,-6415.4649052378,2.0544508265,0.4218259364,-0.8197644964,-0.3245185205,-0.0623021397,0.2756896236,0.395795559,11943.0130723996,5743.3094291077,-5500.6648787761,-3325.0701144643,-0.3686032383,-0.4657667769,0.6366496383,-6.2097570372,-10216.5153697708,-5522.311061911,1468.7156800078,1.4636028943,3766.9671065435,-3.64617402,5.3687536631,-0.3039120013,29457.8172353144,-0.3853722564,1.9403826177,-15887.0508923646,-5917.7759784648,1815.7135116868,-2224.2877304989,21853.6183983687,-27957.2064082637,-0.3699192962,0.5842196091,286.7812507406,24544.6187480082,-0.510774028,-2.2068705037,-0.1789469916,-23948.5526593276,-4.0091563316,2997.9643657351,-6960.7950536509,-4155.5704599039,495.8715441846,-2392.5785507093,-15342.6701157312,-1493.2510317201,1240.9807263671,212.7306587279,1277.7667806379,-8430.5288442453,1966.5394709541,-1773.6847750377,-25663.9584277615,-8669.2558434888,550.5804787457,-22052.2736924827,29335.9694753447,-20084.2551570112,3677.7406251265,-4569.8990236405,-3880.645446199,10735.7538267363,-4727.2410688521,-2349.8116728203,13585.5513819733,-10326.2387927811,2347.045847202,23726.064214865,18050.708693009,9968.5641430726,-0.5340831393,0.2360749899,25425.8245980421,-3.7713159529,0.2998854804,-13.5847866652,0.436721828,-0.1494873605,-0.7430918437,-0.5040728395,10.6466988491,-0.2086112655,106.0710975417,0.964430516,-0.5806151022,-595.2658933654,0.7305234092,-22621.5060574914,2524.5456419425,-3900.2380729234,0.6499185579,-32.1973047457,525.4132141293,1410.5585857601,0.1636096424,-2526.8721052687,707.9919821301,0.815466382,0.1196802353,-108.7483575368,0.8245574165,34169.5444169042,17341.9753112748,0.7557113865,-0.7106753971,-1.4908990548,0.2678330835,0.017601227,0.2255696096,0.9657908625,1.0917138133,0.2037927267,-2636.6805348858,-131.148909935,0.3790275458,-0.4926311084,0.6295083805,-578.1249078964,698.4513493478,362.7344021831,-4358.1645379488,-10673.4997010633,0.1171464772,6781.9598770034,-10162.0325643679,-616.9274937346,-6798.7374521126,-5574.6660282818,-1404.9973909967,-6693.222403288,3590.1218439215,1.2402472778,4600.5982993216,1853.1935964296,9916.583793236,-5783.304678568,8037.4384080281,1277.2760714365,14307.8557851858,3860.4018366515,2085.1288391598,-7410.0841589832,605.9488423618,1298.864815237,2096.0583357738,1.4136744145,-4599.9510296107,-0.1574191974,0.8927468809,8304.002435098,0.4261355112,23.9926771789,-9466.6371605345,-4084.4834449458,1.5691336648,5702.3356102528,-0.871462185,-15381.3084294603,-2155.2721261505,8719.6750460829,184.1825250991,0.5345821808,-3939.9939928273,3650.6419928602,2.4678848741,-2768.6076181645,-10008.9564827616,-582.224208331,5409.4356862731,-0.5861790172,1.4191907923,0.7023862227,5639.0798942541,9.2408583428,-0.3566718896,-10044.8729099498,-0.5385618837,1656.8015503979,-267.2366407311,-5373.8095826631,0.7857451134,15587.3474461411,2907.2423077238,-12927.6051383349,0.5816098209,28452.0307196524,-9328.7737391895,1.7343693191,-0.7883969447,9.0222959908,-0.0132306754,13431.1958222055,-6342.7682636767,1120.7146038173,0.4298738754,-1502.8974608884,1.9371902857,-4417.5989259121,6751.2502695682,-1444.2085049834,3937.4809557587,681.3719324408,9319.3696999862,4509.9215669244,12791.5329465809,-10206.6622446583,-6927.5871044311,-1150.8504071502,-3545.4521755485,8.5614713669,-1219.776864454,-1381.2167628633,1328.1841188036,-1364.6266893543,-9565.269204962,13994.0435136744,-2808.694280804,2745.9121833264,-5194.2286812459,-678.3236679975,0.0949620306,519.4281787003,-4668.5720221691,-548.1830191844,-8360.1367617678,-0.017860343,-5593.5300505948,727.9247215005,12018.2740771954,-32.8245339522,5.3506190081,-1009.231289766,2344.0519875486,0.753393021,12.7584672482,-17.6719848734,-0.4009436176,-0.7188780715,-4636.5922308633,-1493.3345769655,-0.0839817372,-0.4978829514,0.6994894037,4615.2279572175,12.9112794587,-28581.9624555758,935.4752786736,-28039.3527828365,-4626.863800773,-0.1061161819,-0.1602999028,-0.4512453142,-38.5061029853,-30457.8164243405,25.1846283885,3475.8674123278,-0.1126101025,23300.6820597871,0.08766318,17316.3721778199,-0.9156027439,39868.748185291,-7771.2371552622,20327.6085844753,-932.4232821123,423.7661050871,-4365.9299201754,-1.8032161946,29344.5919738101,0.1438114229,-0.6584463751,-0.8854398051,-0.0053384978,2927.0140314997,0.3489291855,-0.9162925839,-1.4889442376,19650.1832437077,2558.0506728666,-1053.6164094757,-2173.3401752897,-5494.8186284704,15663.9326277474,-8428.822134454,4783.7377661643,1714.897856962,-1417.0279507325,20.9747557635,69.2671622988,-5896.1112741214,1203.7254578398,679.4495501605,5225.1797627032,-32.4602364032,-1418.2743200065,-995.1168948747,-15382.0553695581,10.6460774661,-8924.0306073113,2.4429598612,1127.4931181309,2444.5854760892,-60.8885839594,-138.5927429764,-6068.6057010191,8.0311055892,10425.6752640432,3515.5336993037,1265.8223279385,329.4618366276,-0.7659620657,-0.4924704793,22442.4368070154,-0.2715550452,-18269.4290829046,-0.8063196491,-0.6574122074,0.9232708592,0.7060342395,-1.0303341886,-7971.302190367,-0.3357535928,0.6666592151,838.2511444748,-18269.3692922774,-0.8391169799,21233.1009207104,9.7667892604,-0.279598522,0.2788378791,259.4375064615,3429.500805517,-0.6505935828,-57.514552601,-9403.608873568,0.5714173122,5749.4841287677,-18406.5702861645,-0.5880376466,-4671.1226919844,0.4663390593,33386.451739772,-618.7695484516,3594.5559930255,2370.5151308779,-0.8046900328,749.1071899414,0.648352882,6765.5860146724,-5593.0470359489,-0.5618696566,-2595.578828538,-0.9573004122,-5348.7908378875,-1510.4275037301,-0.8398738798,-0.6175352854,15760.403966404,-11580.5034056243,-3267.2825127889,4212.5848686172,5515.2454566725,-37.1666126939,598.6601141031,7924.6276848341,-9469.3809674894,-0.032616769,-6793.4375998533,4579.355888159,11691.6721072017,-4364.7132566422,-7639.3517542067,-2041.1295965416,-1.7608750948,-10825.83517729,-7082.1167696187,-11167.6840151212,1529.3130480335,-76.2445806679,-1620.5091264312,540.786115129,5705.1310145385,-7638.2735341816,186.4357495795,-1111.1315673227,-610.8801696886,51807.4995922052,0.0789382663,13616.2055291946,-5777.7179185346,0.7193922379,0.2783081885,-6386.0068112442,-1835.6318874327,-552.0748685517,-3014.2239185536,0.0957553242,0.5760405518,0.1854986932,-3449.9006000705,-0.4133928758,-0.924874936,-635.8517830712,7191.3429826039,-551.8541209454,219.5985375456,-4637.298652159,0.469443242,13774.8352544922,-0.3211791212,-0.0274531376,-3116.3100396815,0.3131418178,-1526.045716316,-0.4457228731,-3544.6029375458,0.3491367545,-0.935322767,-4632.8354364267,0.6053968161,0.5908676755,-13.8661981595,-2637.313246023,1857.7325168728,21862.4916721755,46018.1301387431,-0.4666156194,27280.5743232469,-209.77155129,-0.7854257278,-10.0587976935,3439.9372252112,815.0888788425,-18.8309081827,0.3867215157,-25693.8731744033,435.2138210632,-1819.4989821659,-908.6289049066,-5472.4417255405,-54.8210649312,-2834.793785997,9.8183443139,41.5447427711,6006.4726716297,-8944.2696163735,421.9479195527,853.7649489343,1.202651791,-3.32521178,117.7694191522,718.9340972932,-1151.0514623517,-1242.0622324374,-3661.0272277113,-1535.6230305259,11446.7084510087,7010.4986666534,6199.0031409338,2147.6535663582,173.058808445,-3568.4725312901,2.6397707232,-13.917282609,-49.6765051698,1.6026414601,-2483.2380527668,-32976.9869998284,-0.3127800364,-12188.7933611944,-0.8626532808,0.1691891115,30909.2775755618,0.7500590375,0.8134341933,-10161.5641548053,-0.1506165523,2057.5683134964,2531.8710329447,13545.8617716722,-4255.6431260754,-0.2054385399,0.8941123768,0.6301368467,0.9025775038,30253.1012445137,19.0334332097,-33040.4258807791,0.0126946944,-887.9451118754,0.0123130485,-0.8515458352,6.6463992137,-35671.6274241228,0.068476418,0.1282596829,0.0208091667,-0.2363661393,3293.8926691793,-667.6748965995,0.1846732034,11624.2800148157,-3521.5737167153,1.180451727,1.2431000674,-0.3292914808,4402.7989967707,0.5991526226,-4321.6874588986,1527.4170246592,233.022331341,-5262.8013361994,17679.7774195299,655.0049822988,-0.6003805766,-0.2215268875,0.0238628451,5253.8523083892,5734.5413510833,1256.3237966109,2715.5352611686,-7.1681675365,-0.1328455991,-16192.5687387261,-265.7773282702,-389.0590317114,-0.3545576428,4470.6547945234,4.2340775754,12803.3361430318,15447.4164974285,-358.4575619754,6656.1609987846,-115.9858267011,44.7355254039,-3864.106058207,7569.6718092916,3028.5800775065,-4219.2539813031,-2840.7642905404,171.5259547387,221.8788304083,-3927.0805238305,-1162.9709738517,-10633.4606026008,-698.2090621493,-3060.6708696571,-1.0646147243,-8082.7467963903,2278.1421754438,5800.505775461,-0.502008452,-14580.9747630606,1.63904,5050.2548844803,-487.963540423,-0.799697467,-4.6857275297,0.0051663684,1462.3116408826,-7805.3554951884,-0.7211937714,1220.1641129121,5138.5320218312,5050.375010975,15291.6074212318,4489.2595928398,-35745.5096585893,-1006.0295620459,-0.4532973549,-10547.9803105679,-0.3738664162,0.4301450226,-0.8571871421,-0.2931930036,0.3716973375,11235.4362217919,1794.9781209782,0.8969157067,-22178.6913278755,-0.7587832205,3700.6706201612,416.6182618647,5319.0690261724,62.6210976787,2745.3825560305,-56218.8468442616,-1.0773385246,21.8416582508,11.3076513277,6930.4693309044,-7938.7371683657,-7803.3583141086,-6.2583612141,648.0355586788,-0.6552473582,0.0641297488,-3817.3282068155,-3206.8135939482,310.3825105332,0.3257101214,-19.4809517366,-7494.3703373008,11.1797495888,-2492.6329546001,-6265.6818620587,-293.0848851531,911.5105298116,3925.1499420352,-3913.9129396195,7269.013180032,23262.1739996315,3.2362321704,-7130.6716317483,5129.6635453601,-8481.0188265367,-601.7664690049,-3580.1258457253,-1.0110845853,4799.7800712046,-7269.1899176155,-10509.4663760769,-2699.9592646139,2658.8972626194,-9464.4194538721,9208.4927605847,-2519.4746562815,2462.204508458,-1.3693278292,-1165.9506798662,-1.0114502331,0.2233870231,-3.9880200997,-25932.5358024446,0.4359831604,-0.7909711479,-0.1015628013,-0.0949483744,-5141.0704705928,-2203.2038051629,-0.8980455028,0.3689872433,-2970.9818982211,8167.9553917932,0.2387290069,-2399.390296489,-35643.5836062715,47281.1439218794,0.2130779221,5459.0011190654,6334.2437181756,-0.8239405091,-22.5073585565,18324.8220870037,3386.9738065394,2.4096373563,-3633.0137004645,0.6257353543,0.6740737012,142.8853910012,-0.0733048284,1730.2196231297,-38233.3408826757,-0.8369683345,2743.2906039496,0.1943619264,-485.8241712798,1587.5459246646,33274.7827487651,3632.570517342,0.8783755254,-651.339130589,-31576.0895098149,-45461.434106737,448.5154877739,-0.256766232,-0.5338778704,4095.0688604931,4627.0246513706,6274.8651077936,-4438.8782011743,-8423.2502245836,10472.6601907216,408.2440788307,-1133.1424707009,-8231.8632795267,-737.6114390288,-14.3614590857,-463.3453694999,6692.4211763408,1.1697552543,-1504.5087065786,454.1647481083,-414.686501524,0.1646927349,6960.6617982816,9394.3150138212,5417.1848641252,1538.9104421512,-6252.468427684,-7819.6078359301,-12726.2358088058,2.7596883744,-11995.2609681221,-2403.3369798079,-5724.0297115729,-10178.8444557224,3300.6380461017,-26377.1780053189,-1.46646372,-0.5226133733,0.2653977281,3673.8150401148,-3050.2964540503,-0.4839880327,4891.4966479782,-0.2879489985,-18360.207995245,733.4803376794,0.0695716241,-4769.5847389669,0.5452770115,0.6074118045,30386.2177685886,0.4325244193,14213.909425561,4616.004944838,1573.8260269831,4115.222839763,-2.6354196199,-0.6118964524,0.4723031363,-60.0219898041,1586.2163336539,-0.6830139916,1.3426217511,1936.0014018323,0.914358702,1058.1612676036,2031.7351204464,-0.7712788007,-570.8311726643,-14783.1147041576,-1.3448654753,1895.7738106766,36694.8470770951,5837.5285925264,-43532.2505147187,3.0683924537,-0.9750558622,-12.7787221781,-1.3159620668,-1282.8974582354,-37923.2948003402,-0.7414690255,676.4224955551,1.2504064554,-1352.3173585278,23373.1236647036,-9021.3005235443,-4546.3995225904,10331.7162723271,-1439.2705106498,2840.4765532728,-8335.0380029542,3117.7653092491,-1.9365946934,1037.0537754125,-7.0141604201,-808.8972072094,-13039.2865599908,1.7231259007,17153.3858822862,-2.0086937276,5324.7985689399,-4260.8792455218,-11296.5378917342,-2040.2411172559,-9653.6273962812,-248.548511355,3672.5383815024,-16910.9188127967,390.7830850795,-4931.8989046733,6812.3378950579,6130.9090374539,-11590.3674887606,-5876.4962436428,6019.6403007196,-4110.137023954,0.4534118172,-11535.2483450288,17388.0133897086,-5518.5340738377,-0.8288766179,-3.3267142333,0.9112910648,0.7165193142,-0.2905155463,0.6379135632,-4913.1947783142,-0.0799918855,0.2059515258,-5481.5826027781,-0.0012752773,0.2248304622,-0.2834641902,-19829.9951635958,-19.4165437915,-0.3397312825,12702.2119643776,2.0851407179,9.9311791052,-26634.9350357782,3.2433220415,0.2632959683,3.2729848252,2564.1658346089,21661.7334342369,-1813.9921680586,0.6595761625,641.4840777429,-38869.7005521728,0.2724932815,0.2777620773,26895.3688688251,-3704.5000238425,-8675.9748542428,-0.4632923968,882.69864142,-0.8600295847,-844.9022948952,-0.6424411201,-32469.392564955,10990.0429845845,0.3242170123,-0.7584076188,414.3705510887,-0.3769069971,29089.1878661657,-8800.767880972,6153.5494752643,-12229.0503107591,17629.4197230827,-13632.9163090154,7916.6413326965,-2602.6499199096,14864.2271201687,-1763.1022842407,-6159.2732384102,472.2355974284,-353.8856277719,1849.110596555,1264.1347325366,6066.5398176401,-2487.5089445268,11852.9288042656,8753.7641559809,12262.2610076614,-1294.1296674761,-0.5239125274,24457.0183544421,-18976.8898084196,-8295.7982911828,16511.5631655756,1893.0820633204,1123.5313333531,-24912.2845141447,14.6617929755,-4882.1150203885,-122.5082766884,32726.8362224364,-5145.1801872943,497.0950093904,2796.6500167385,1934.0455017177,0.8107358753,-0.3157585628,-0.7922618784,12901.7823155063,0.2200339684,0.4821329875,-63.0441431865,224.4761122661,2798.252057252,7181.1728375663,-1567.1107846909,-21717.981597201,-1205.0720594658,0.207988556,-2.3151226974,-2842.6001554259,0.4247099725,-21215.8129399756,4510.4571576524,0.9172078395,0.1333764429,-1423.6144489703,-11914.1939600774,1.2431829982,-0.4031952403,-16.822489172,2167.7288597321,24964.2317872332,5476.2997150166,4934.5574372423,-96.9592025498,2223.6629172727,-34897.1871412014,0.0219890044,-0.0385773364,1497.6465384639,-0.1112416387,14715.2057897964,-0.5127342317,-1.1077146499,2.4100518388,-20165.387794151,4515.3344284613,9257.9294189402,1968.3381369848,-15887.3720399595,6599.799059079,2172.5556380832,-15051.9496749609,5353.8990748951,1986.7531096091,3084.4518999226,-10589.5543664354,3824.6001159577,12806.0889222041,-25600.0704065555,1456.6958961442,986.7000286481,13221.8285047549,12712.8793772619,15120.3311419425,-18261.9691350129,17.238266117,-19475.8908257611,-982.7279024674,-2546.149921943,162.0939394914,-735.2312565751,-322.4338869447,-7766.8277378334,-2413.630633965,-5.3605929027,13606.7618837213,-6750.5795064149,0.5610179751,1.0089304105,33474.4280571145,-14438.4530649847,0.6227062601,-4727.1259471464,0.7017179321,5007.4394963902,41267.4281111033,-1.4020177801,9909.4646220025,-0.7004835082,7.1079792084,-4129.2386226402,0.1987350045,-0.7100071073,-25999.149898666,-12343.0232459576,-463.6869101839,-496.8759143961,0.048032044,-2189.060788827,4183.9351202905,-597.6879704163,44749.1976368914,0.8269368593,0.015147169,19626.0358463233,-0.6171386201,14199.6232170906,0.9326463305,-13814.2242942288,256.7025434924,946.4733961171,-50743.6536551592,3941.7148366191,-7091.9233931159,-8332.8584155904,-0.2782010321,-11416.6374409035,14734.2613396552,0.410546102,-0.8178381107,14482.5424424851,-6245.1797228521,-24069.2264812851,0.7183716271,1574.7011194002,641.1296978196,-812.6404756182,-10.9208607251,-483.2719385929,-4102.9531439125,-367.5831800197,-1482.725405801,-1784.81992954,24096.589718338,16309.3524274243,-1.4542436935,4.5207310765,-0.1493339125,-95.9615194537,-4003.8392358287,3.5593681323,-29.1889450719,-99.7831646671,7769.6121982646,490.3163037197,-3322.1719260579,1.3070943692,-3072.188413387,-4244.2727935557,-2095.700834892,-16622.7010967911,-7217.7338546732,-1125.7872607998,-996.0035653973,-8.9696983298,-2179.6996108245,2004.6809811621,0.2082820979,-0.5923105713,9.1329931752,-0.6343897606,0.9988935211,-0.8651167612,-0.4503289327,-0.6339207864,-0.0563884395,0.140987633,-0.2225694108,0.0702473824,7673.3352092209,-3142.590367605,1.0079795938,0.3253301142,-5076.9216693967,1.1637481877,27342.3223678674,0.0334832215,0.1882185654,0.4560402393,55389.0575596988,-0.7675107323,22319.5451214964,1.0042800369,-0.9387123965,1102.0750085782,-168.8669394004,18772.0240008977,0.8772159549,-5472.0794854243,-0.4955222371,-3.0719065344,-12975.2856660446,-3053.4374278095,0.1272947929,-867.2646587022,0.6624478512,-44.5457272228,274.1651260507,7333.2193036444,-11.0961336713,4291.8107285903,1851.677685343,-0.03026694,-0.9038884278,-5846.2983578778,-487.4323628856,-2847.7282491743,0.1741678895,1620.943978462,-15562.0191531721,47.7013475488,15562.5720031966,681.2815611395,4949.4568828314,-3455.0982701235,197.9507112876,1777.6780745868,-6886.7878242496,-1.4801383952,3033.6903920538,3219.997814448,2430.9263752474,5045.328271186,-11245.2009657334,9616.4741288087,-5679.5038283221,4250.1078268918,8199.0146365846,-6076.3710758486,-5117.3448259323,-16776.1483066855,-10548.8709973023,10361.8464748759,15037.7731121282,-9763.0575872906,3708.6857222089,-46808.7810915895,-0.1423080312,-77.9890151412,-78.9769925194,-21.1779776546,0.2567340265,1079.3015662314,-0.2733714597,3463.2121122819,-0.7950754045,-15.2654546425,0.6767268354,-0.3507360746,-6264.2445729995,-47528.503929492,-0.4476482886,5.5580424742,-24134.8004525254,-4940.3360591868,-7656.9250757009,-1.1115782177,-0.5434529154,41.5954525978,-2532.3371708689,-1.0810076271,506.3165610735,1381.8147646863,724.8755781405,25160.1487551027,0.3642974088,-3136.9031751422,0.3554380015,11625.9529437142,1543.7758815314,0.8365423558,646.3266739467,14609.5593474353,-5050.2215869948,32370.3239350323,-34289.9901374993,-0.1669061203,0.7184529592,1868.4596630692,0.522162228,483.3475160723,0.4622787984,-0.5969910907,-0.5490245905,6948.4424725643,-1590.0185993348,7907.4414725718,1538.0797270088,-7219.6928407907,3267.5974684268,-10335.3557262441,-8298.621473345,-4.3973616498,1684.2418138298,-8486.3553955466,-1074.2286208683,-3322.156287171,-1953.7234239706,-5847.0402202573,-2859.815444248,7022.3429175555,-88.0521876533,4723.1671948572,-832.4554013174,2109.0054401494,5141.7207132398,6712.8872275596,956.3399061991,-1292.9328368355,81.9030195964,-1293.2331159672,1448.5050242093,3503.8274942537,-16226.336653175,36.1690708497,-8.2181556164,5766.4673755564,0.7608976758,-2102.0602874034,0.8110409003,23134.0390226489,10213.6734886092,5764.8506768192,-0.5384095786,-749.2595087246,-2237.5233628107,-1709.5705885766,-0.187198408,-0.1543348126,-6176.6653016104,-446.4708330779,10213.9182376484,15721.4454852142,-12896.0107265104,-21066.8090743445,-0.1863216947,-33655.1284002777,-1.0435264378,0.838482138,-18498.1293266818,1212.0700922472,0.6513486801,2560.8653256978,0.0451961696,2418.2554251506,-2.2605406035,4.7625133686,-0.9916796713,1237.2816533714,5.016735112,4411.8611214436,8310.7403186944,14133.3730091058,-0.9605440953,8182.3884158929,-13627.6633375574,24.9079941406,-5613.9394091193,-83.1556149625,0.332182252,890.3362152387,2115.589120535,-0.7524266069,0.5705173781,-2548.2952986901,18338.6182645122,-11241.637512136,-1229.3177044756,254.1612652489,1121.0837647635,9338.9533515954,7156.6035939824,1206.4220286323,-9.2739816641,8340.7522426172,-2720.8929137966,0.2175429003,1997.3905110099,1.560951856,13536.1543796662,-6680.3500103978,-2110.9158223203,-0.3693067002,4602.61012536,4.4113808235,-13831.9812509456,-3627.6695853995,-2016.8658548129,4690.5513064083,-296.9986798293,8045.9288586692,-6389.4144166175,-5623.9259658098
##end
biasActivation=0,1,1
[BASIC:ACTIVATION]
"org.encog.engine.network.activation.ActivationLinear"
"org.encog.engine.network.activation.ActivationLOG"
"org.encog.engine.network.activation.ActivationLOG"
