encog,BasicNetwork,java,3.3.0,1,1425320476861
[BASIC]
[BASIC:PARAMS]
[BASIC:NETWORK]
beginTraining=0
connectionLimit=0
contextTargetOffset=0,38,0
contextTargetSize=0,14,0
endTraining=2
hasContext=t
inputCount=11
layerCounts=11,15,26
layerFeedCounts=11,14,11
layerContextCount=0,0,14
layerIndex=0,11,26
output=-0.3527082918,0.0000395011,0.2131621337,0.342708451,0.0000675946,-0.2754104511,0.3561256258,-0.1026686746,0.7782343044,0.3694882977,0.2317956574,-13.617369311,13.2984136777,13.153069504,-11.7218931962,11.5781400072,-9.2841798121,10.8825253744,-12.6501110925,-13.0790645507,12.7089729272,-12.3945866219,12.5713502539,13.619299682,-13.4692941868,1,1,0,0,0,0,0,0,0,0,0,1,1,-0.3527082918,0.0000395011,0.2131621337,0.342708451,0.0000675946,-0.2754104511,0.3561256258,-0.1026686746,0.7782343044,0.3694882977,0.2317956574,-13.617369311,13.2984136777,13.153069504
outputCount=11
weightIndex=0,165,529
weights=0.0044417515,0.0256628021,-0.0155458028,0.0120984081,-0.0067900072,-0.0030016938,-0.0134965871,0.0124545701,0.0038202979,0.0062033115,0.0200236537,0.016446462,-0.024053194,-0.0048943558,0.342192448,0.0000000175,0.0000006673,0.0000007466,-0.0000003709,-0.0000021695,-0.0000013364,0.0000011091,-0.0000017946,0.0000004837,0.0000002664,0.0000003223,-0.0000010627,-0.0000006745,-0.0000024768,-0.0000092436,-0.0013558391,0.0048387943,0.0141894791,0.0010211135,-0.0021460247,-0.0049298501,0.0051317235,0.0253219323,-0.0119310959,-0.0091330176,-0.0155995849,-0.0021935482,-0.0120703418,0.003682298,0.2074782792,-0.0097976438,0.0072596071,0.0110346815,-0.0062989254,-0.0059679014,0.0160891364,-0.0107183709,-0.0228588193,0.0002421916,0.0033652826,0.0133266399,-0.0008738946,-0.0067004348,0.0025008554,0.2012243338,-0.00000017,-0.0000001615,-0.0000013762,-0.0000001421,0.0000023482,-0.0000027769,0.0000025174,-0.000000956,-0.0000000819,0.0000009872,-0.0000022582,-0.000000189,-0.000000943,0.0000010973,-0.0000202038,-0.0024564345,-0.0129174377,0.0053757188,-0.0002573865,-0.0170191746,0.0140312202,-0.0006438072,-0.0063824307,0.0174898,0.0003423029,-0.0261489979,-0.0019605443,-0.0037039085,-0.0000486922,0.0175124575,0.0205673069,-0.0034708932,0.0042712926,-0.0129553023,0.0008824067,0.04191928,0.0057335402,-0.0188328961,0.00950586,0.0313706018,0.0072168911,-0.0096075398,0.0331956191,0.0052645254,0.1073283309,0.0024311923,0.001126821,0.0123162272,0.0380538676,-0.0092291006,0.0115289701,0.008018341,0.0097098498,-0.0411875063,-0.0049842763,0.0297156097,-0.0143776275,-0.0120465572,-0.0051567112,0.6173020262,-0.0092189169,-0.0049698308,-0.0037883042,-0.0100219503,0.0236018789,-0.0194810812,0.0131704511,-0.010688741,0.0204341311,0.0175431617,-0.0207583163,0.0078355646,-0.0228711476,-0.0023281709,-0.1128943073,-0.0165062294,0.0040810669,-0.0303901184,0.0074971556,0.0143799408,-0.015099293,-0.0038727328,0.0174504652,0.0061975867,-0.0143850852,-0.0308226092,0.0005701117,-0.0117191259,-0.017555132,0.3320960462,0.0214549136,0.0044478865,0.003414566,-0.0049545422,-0.0012224508,-0.0241363211,-0.0086071986,0.0109220443,-0.005692616,-0.0018051191,0.0155873141,0.0049514187,0.0300590536,0.0167768705,0.2797463177,-298370.785712753,0.1198821657,235738.5773501664,351577.1429118133,-0.8396161493,-201944.8991411872,-109590.0970961175,146353.2078282515,-157962.5435990873,-151934.3578413026,87983.8866469387,8404.2820771348,-22551.2300007123,8221.337762983,42071.6397470888,-44916.4598075471,115358.1339903631,108261.5043419459,10196.9884560783,1606.5122226098,-91120.1814278836,39636.6466869667,-83134.1185849985,-56675.9166088695,-27644.4507548699,10227.6936618142,566575.8571390911,-0.3620086525,148853.5456776433,438927.0408614868,0.4623816112,3937.5150851501,-517141.7599842203,-626835.1796564835,32273.5067239369,472894.0861576999,-493549.3371931804,-42987.8475734653,-169905.149186724,-15598.1820397339,25216.3842629481,-145931.2075750064,-44811.6434037586,39513.8221971954,-20314.2883871434,24682.4585126637,66485.2913753647,60635.9752579906,-163754.5336625844,-9099.2752375299,-64938.0352250422,-7218.5392591155,77005.8169576352,0.8196731604,-95524.6818079268,-651226.0899965776,-0.4798550756,166057.0116608804,146969.416948104,6447.1946005064,202783.8225758734,73439.9156533241,-91029.5225112167,15186.2688957101,153715.0086209511,-63877.8059891395,-66289.5295121004,-12355.5763438588,68723.2130669502,-80838.1019849156,67796.3697384772,7756.8311412815,145281.2226068087,-9642.5189132627,67366.00852272,-16585.9249893828,5599.8699427686,-44111.9403391503,279049.5648696896,0.2299475064,-172473.9930754267,-320172.5987085449,-0.5730538085,794965.6181873442,-147692.5537185401,-10306.7572018447,-350156.4201152935,-104292.2717759164,-173586.7558269806,-20711.0615802869,51599.8434446409,-121969.5532878702,-29485.0779688582,63947.7146262529,-39641.6721981078,12558.0337888987,-22167.4464671768,1142.2902640929,-66391.9221232127,-74209.676446842,-13729.5370337762,11286.0580374641,26804.8061304841,811.134586264,301425.0034901364,0.1249971077,-219977.0069767868,-376208.167593906,-0.9779996451,288745.7553895996,31619.9627524896,-154288.2222559193,-449695.9501422903,34320.7414614594,96244.6897962958,-703.3237154875,-97713.8604469811,-144720.4664740622,-17465.3416768267,40471.4283661778,30755.6505296223,64500.5174448684,44848.6305839401,-37566.9684983742,12467.2102453806,-3661.280218397,2856.6024156806,-20315.7527485232,2008.4679378981,-7959.5160924584,51688.4345871376,-0.0380787206,283229.8125680111,60665.3466795336,-0.1856404217,-242336.80369597,-68413.267375388,-118613.7993670072,-26558.7939697096,-79522.5625840935,-122998.9531017905,-23994.9653406665,81647.5803517861,47647.7442665496,9989.8224338082,-2914.4837518583,-10969.1520741072,-145649.1202353343,-118843.2825573412,-136041.3587036106,84791.1294407658,52932.112547333,35853.3035608464,-2993.6539121831,15936.6263914899,-17531.2999894666,-159257.2804411289,0.8353472328,-436947.9078982712,-231254.9784567339,0.1898968822,539105.0626227477,-228332.1118060798,328058.7790144797,183357.3002115036,123994.2786271781,224549.3369053798,-2866.745229698,36857.2837471782,-15261.150896516,-36139.0495396804,50098.1694960772,-93523.0143717253,27163.3183679708,145225.3723136661,6396.9193953322,-134928.8091868962,-60410.6641708413,-39778.6480267961,17481.9305077161,11545.9201950366,5772.7953823879,-73558.8665424034,0.3158930655,-65065.4992710782,328643.7395188946,-0.5101891439,-192729.7419704946,-156369.2137783491,-35375.2436565236,125677.0890611814,165071.9052074937,67815.9765313305,-22258.3826860449,-112978.9342019345,64495.2325724852,56233.385553559,100554.4547349009,-268831.6526810788,20490.7871337975,-36188.2545587281,29669.7824000661,2255.0306619577,-9874.987539209,-21400.486079789,-849.6675732269,31174.249022649,-22212.0905300968,-117907.3041452248,0.3491657933,27410.0058376542,-202847.9589114389,-0.7122651392,-373770.8097679723,193190.6796038179,-145411.1206599626,-18186.9870998992,60761.2338756312,127107.0197256646,-8965.3846633377,-155719.9452386105,-29160.1218356145,14375.3473028978,-28085.2783378879,-73686.8665614463,51395.973016314,17640.0952883935,14088.089855748,62217.7920392534,-4888.611721986,-134447.0442497467,6387.5235621943,19481.7727468552,855.7588232609,-225817.4720841187,0.0999770058,-175102.743857498,529593.7670652965,-0.3257990604,49464.8393802714,-87370.7829949156,253000.6464402922,-160684.163144534,-17020.74546134,259543.9341778373,-246.4453587629,-93190.446802432,20488.574213586,12097.508200047,91051.2639129509,8596.6915492807,80589.1036581692,17524.9881420166,14050.1038293793,-171689.2458094269,-8170.1588946766,-55246.3457739027,23871.644523501,-15528.909208197,6619.8058463347,78625.8885722466,0.6620357867,122170.2423300801,93779.9155473484,0.836836679,-194573.968689932,225520.9105959072,-4613.0126971891,-212298.782930185,-40859.0909730721,-224363.3676815151,-31134.7094654251,28686.4275266806,33943.2536278906,53310.4490108946,-10743.9163229454,93696.63093383,-53864.489495436,5956.55628765,-130051.5100014091,103264.4871255212,12851.95668463,5915.0375581681,2423.0274970825,19930.8185470083,-10853.1090163449,-156623.2235592103,-0.9166679053,165935.9307331932,499484.3190717538,-0.5103377731,-553985.7307671956,-190828.2749518831,-80749.2033979503,-117635.6002630099,205519.0597358619,153872.8811877264,17829.1721024832,-22704.3135697548,176202.145850033,60267.583269819,58293.9634822218,130303.110171662,14631.5968676938,-98681.6272121821,-15256.8033535768,59242.5445072624,69522.5196136718,-31763.4007133587,10640.8566863023,19031.1894727522,-33359.120582091,73105.934473952,0.0493949383,55185.5955236933,529389.1472775118,-0.7459947164,-85044.9720720555,-126648.90641082,-7656.5365320952,-90985.8475486337,-174507.6265976722,71080.1869044115,22282.2535425201,27141.5498430521,35389.0174860801,96128.606100392,-80574.3078689854,60471.9958094367,116391.1362966068,89264.5374436889,-191.1172411451,-79337.4013297999,-8119.00050031,-12820.5683008366,55957.7255371691,30008.6241733297,-22010.9484446886,-200938.5631166927,0.285690563,17262.5457827595,758217.0743314652,-0.5497218192,-651706.5901221698,-58386.9520076759,-150568.7907647062,363897.9912312716,231933.6958947802,-218882.6289373639,-1315.5137117352,-134944.0652498705,21073.9051649892,-41994.0662884537,88853.9594263115,-4490.5900771513,-2792.7674287622,85297.7539527389,38975.8610892902,102195.8884893615,46802.2877321446,-130587.021150156,4208.6504996786,-1457.2807684366,8029.4263264773
biasActivation=0,1,1
[BASIC:ACTIVATION]
"org.encog.engine.network.activation.ActivationLinear"
"org.encog.engine.network.activation.ActivationLOG"
"org.encog.engine.network.activation.ActivationLOG"
