encog,BasicNetwork,java,3.3.0,1,1425320284392
[BASIC]
[BASIC:PARAMS]
[BASIC:NETWORK]
beginTraining=0
connectionLimit=0
contextTargetOffset=0,38,0
contextTargetSize=0,14,0
endTraining=2
hasContext=t
inputCount=11
layerCounts=11,15,26
layerFeedCounts=11,14,11
layerContextCount=0,0,14
layerIndex=0,11,26
output=-0.4112948589,0.0000536847,-0.0740692663,0.2505680795,-0.0001103145,-0.4445045872,-0.0671606234,-0.4752625931,1.2678770831,1.0625311417,0.7281210016,13.3996724266,-11.2277138502,13.6457077068,-12.5030827213,12.5415966331,-11.2553778724,-12.3909222783,-13.5949529168,-12.8881957306,11.793110719,-12.8900565172,12.8739282564,11.5551755304,12.3768099476,1,1,0,0,0,0,0,0,0,0,0,1,1,-0.4112948589,0.0000536847,-0.0740692663,0.2505680795,-0.0001103145,-0.4445045872,-0.0671606234,-0.4752625931,1.2678770831,1.0625311417,0.7281210016,13.3996724266,-11.2277138502,13.6457077068
outputCount=11
weightIndex=0,165,529
weights=-0.0516320031,-0.0159655038,-0.0180362888,0.0046161154,-0.0170023586,0.0153107455,0.0004978025,-0.0046077937,-0.0723304184,-0.0305209529,0.0017532193,0.012377286,-0.0123973563,-0.0045921591,0.2252981025,-0.0000000627,-0.0000002152,-0.000000764,-0.0000014092,0.0000016642,-0.0000009562,-0.0000013963,-0.0000000355,0.0000017236,-0.0000009822,-0.0000006184,0.0000031783,0.00000154,-0.0000021399,-0.0000109034,0.0099983849,0.0021863049,0.0118115421,0.0031758032,-0.0007322494,0.0000364276,-0.0031134465,-0.0042646334,-0.0004837014,-0.0131740287,0.0184642853,-0.0065910149,-0.0078642405,-0.0045485196,0.2272264727,-0.0155582845,-0.0038938816,0.0045275423,0.0092331223,-0.0013946429,0.0071452195,-0.0007713452,0.0002110581,0.0011376529,0.0014137026,-0.0076619424,0.0067147061,0.0176639041,0.0061883504,0.0922916968,0.0000035022,0.0000010773,-0.000001307,0.0000012921,0.0000002742,0.0000024337,0.0000004073,0.0000002963,0.0000022504,-0.0000016878,-0.0000014661,-0.000003013,-0.0000002696,-0.0000019748,0.0000182311,-0.0015643469,-0.0007309468,0.0147373908,-0.0082812517,0.0102825732,0.0073748945,0.0144311855,0.0190630255,-0.0047619035,-0.0090699953,0.0090393502,-0.0057639565,0.0011173879,-0.0105305825,0.0093679735,0.0158599316,-0.0066778215,0.0123694957,0.0006064064,-0.0215881698,-0.0049674475,0.0273128876,0.0147800516,0.053064876,0.0156516897,-0.0007865238,-0.0086793715,0.0174008889,0.0139007182,0.4661526323,-0.00631471,-0.0078642719,-0.0350306358,0.00622919,0.0209390883,-0.0195754904,0.0331557459,0.0184392307,-0.0134833554,-0.013753671,-0.0135231945,0.0041542854,-0.026489418,-0.0086602641,0.4294302007,0.0170020986,0.0166174096,0.0077741243,-0.0178601491,0.0154282339,0.0059941112,-0.0295766197,-0.0142462455,0.0070468189,0.0121720868,-0.0017698353,-0.0030774468,0.0042192494,0.0127118371,-0.0309542217,0.0140255159,-0.0113489937,0.0008859078,0.0030211986,0.0262281902,0.0109662983,-0.0055651047,0.0024247091,-0.0313913917,-0.0065712966,0.0084883881,0.0015954478,0.0094173143,0.0022568162,0.1563923479,0.0022428496,0.0136539472,0.0030126216,-0.0217709785,-0.0245930778,-0.0371547976,-0.0160112134,-0.0102821673,0.0308325283,-0.0001199727,0.0059865387,0.0098060057,-0.0071039734,0.0062823959,0.4441695157,-58340.9531717007,-0.9842521585,227055.4814647759,-417477.6707671839,-0.7776461504,456946.8022879948,-856953.6012644514,16077.5153637176,522226.4098348499,-180144.6801024234,143938.8977420036,1493.992349235,46217.8724174291,-94949.337904621,-125761.6762316741,41794.381972558,-35102.6934401536,12606.0383548734,128422.2315099446,63257.7679021881,-120585.3323495441,-88911.8843598664,-24676.4107695525,-62226.2656098736,-9638.8618217925,9295.5349436797,381768.8540522368,-0.343376738,-383485.2992462522,467455.1612138501,0.9534002274,63747.8563532625,-101389.4182096518,-119419.7836661089,136075.4251165623,196608.3937258465,-470392.7528323068,-8495.850546416,68095.4661714677,-24324.8848156209,-18202.7882585381,20834.4542814656,-21789.6652798233,-104379.0088698122,73857.5700276576,-126949.6635607287,-88835.9834900081,-30763.6478343068,89645.8428815745,-18720.0147955983,-43837.7458978948,-6124.7724803062,3971.9129901454,0.3494730809,-127680.8968161382,-334635.931054781,-0.6991637717,403030.3730033754,-479158.1067910701,-327061.5384519775,1032884.8926102329,176389.5640995136,-16082.5597766754,20274.9800302756,-45861.1560622879,-93852.6930375135,125939.8291905612,-110794.3759710256,-30656.8684802703,21586.4169070915,-250606.047921714,-43302.2476611339,225321.8174571504,1415.8086538044,70810.1092249576,40045.6948089107,60158.2502075098,-48237.5379287901,-208532.2897718184,0.9288965254,-41770.0184989715,-109355.2483047839,-0.0843694371,329108.2624109344,-492297.7955304254,40269.7452136257,184203.5158299202,214628.3158016458,152165.0650769505,15490.2533114656,-115236.5613149301,-13043.9112785374,-102954.4962000281,97307.7967287998,-83270.6087764723,-82331.7057818254,205672.5194160465,-38577.2180828282,28875.4046803508,30705.4379861286,-23151.0583050312,14818.0863898934,10029.0385434452,-1728.5602409534,-209700.2052951846,0.5703120788,-634280.1101886961,-300264.5970741852,-0.8981166506,591179.8509759901,154100.4835568629,320718.1354053694,-6753.1534574072,54553.5472628329,297300.5149764333,-4917.1908659796,40407.1465938075,-43717.1243663537,93460.863793357,4117.2593193688,-20828.2313750894,117504.833899234,-45982.7221616674,-90658.3874284613,103446.687093473,78998.5796177422,-13373.7771594673,371.5918971037,4649.488867786,-9772.5019312815,78395.9340654173,-0.154535088,67968.8546318392,-808045.802410836,0.020306234,-276190.0362407194,369355.5074623795,-293984.4021294448,-159941.408025755,187093.0079285745,335128.4296594716,-33053.8524305016,-24654.0086035904,21035.3192921897,53391.0858370664,84779.0224539723,-72748.1911273376,61988.0825957789,-20693.5391013894,-34421.1012656076,76507.9209461367,-23260.4715904641,102436.8885302372,4008.1972865546,-41526.3893279755,4940.2880758889,196129.0143067284,-0.0013131661,433172.0456793438,-55462.1026389393,-0.534889432,245460.1643213545,170394.690107471,193691.533568851,-742310.1462632153,-645864.2209296447,-268250.0384239345,-9863.5466304336,106176.8607973623,20719.5339415158,-14368.9550738426,-42669.171350347,82658.0362955519,-26607.5539463791,-109278.8292956304,104339.125138419,-305138.6331926134,-41477.6155201381,-59162.2743905411,28531.4646995605,-7123.5992789149,-13725.1228306551,292794.1280016928,-0.0077111908,722579.1004572093,-8316.3788898564,0.4343011973,471970.3136728829,-399817.3885966067,-376049.6002876204,97147.0881526535,-69647.0853893977,-238075.5721846208,6263.8810498442,-24571.4582190816,42290.1602743741,39494.4437744907,-104896.037402592,36566.7082058105,-94966.677882999,-45271.0179063978,114353.7324908934,12027.9455896603,71624.5867780008,-120118.7193731472,-49992.8326255871,-19578.3615909169,80544.2595893918,182656.3506284822,-0.037485588,537557.0580205396,9044.1187263232,-0.7248657316,-530551.7045272987,351851.2104554826,-462507.2106970485,112377.7910869277,-63404.1573247008,-212940.2368533142,23390.5980365909,-25526.6638176481,-40005.0368827302,-128589.6467543206,56691.6386836768,23699.2197675318,-52418.1143835686,49552.9912672818,189573.2613045876,-99563.3828523623,-44924.028837981,81306.955021902,53831.3408051351,11546.3579979635,-5717.7939498219,-234725.1934831385,0.696727476,-105019.2931198487,-112378.4948872142,-0.6913662101,72566.0027946166,463748.4606896121,211648.1461195261,-75596.8288136179,-283858.1213477398,227904.3739363819,21665.7290185873,-28116.970505108,-68299.3282686203,62486.4064455958,97810.5220476726,44521.4009382921,39640.0691917042,-65578.4265625842,-50309.290079691,54268.6124809659,62313.0591024134,56260.1479685987,-55891.9117799468,-21502.6147149225,27071.6209241563,-221644.5922504529,0.1724207827,-200230.6884871882,2361.7770987493,-0.4053101292,-660761.3404149491,108587.7723291974,-54385.643846582,560527.7712185258,172929.7065607206,72381.6883329548,19248.7351171932,-75892.2158847207,-47632.0034277102,-66624.2722692486,-26249.8777009616,-66267.8430860511,-36563.9953860257,92181.8402912938,-115904.2256246582,219188.2555378134,50837.2280723937,-2712.3517661665,-25618.422353886,-8887.3044326131,27064.6004557473,547260.982925544,-0.221635396,266601.6861542011,217407.2794493071,0.4045208751,1074616.8474270978,-277159.8425456111,-157681.0406788709,-1018306.5322202009,-198730.8860352711,-8008.3868160499,4129.4368245488,-74521.9583613247,26956.9986651269,13048.861956338,-99762.1009562643,12352.0104169162,82440.7140309475,54739.2174600318,89530.6632208258,-271707.572716427,-55048.6995994373,-32093.5993426286,-1765.115308265,-30795.1050996429,-15851.6705366385,137372.004435359,-0.7027742567,252576.0755513518,959062.4970276566,-0.9003883306,-267523.6539152236,121064.9518558644,-176179.7712148771,-122241.8179529494,-97009.5629794214,-348883.6205092691,31424.2766139668,-83275.945835573,99406.126401738,41208.9624173806,19954.1294575663,82136.463731588,-66097.3007324167,44396.0800478105,36639.2485337957,-176966.929494615,-60739.0132044378,52718.1651294844,-11322.6786750272,-5984.2494169543,-15819.2609260923,61597.1861806968,0.2866599478,-514123.9463766304,-419541.4459906571,-0.6950353913,328841.546575772,139571.4469434481,167397.3683153451,-722654.749221881,128872.0279597482,301701.4561392716,1291.7225362558,-49708.3131171985,-15106.3126223488,94221.9073322832,32457.2442417056,99582.1551296921,223922.2808382116,161430.9509012484,-133545.8616295088,-344769.3318449477,-118470.7883902978,150726.3989029944,11888.4157270032,-181.0271449039,5969.6521300711
biasActivation=0,1,1
[BASIC:ACTIVATION]
"org.encog.engine.network.activation.ActivationLinear"
"org.encog.engine.network.activation.ActivationLOG"
"org.encog.engine.network.activation.ActivationLOG"
