encog,BasicNetwork,java,3.3.0,1,1425134055845
[BASIC]
[BASIC:PARAMS]
[BASIC:NETWORK]
beginTraining=0
connectionLimit=0
contextTargetOffset=0,28,0
contextTargetSize=0,4,0
endTraining=2
hasContext=t
inputCount=11
layerCounts=11,5,16
layerFeedCounts=11,4,11
layerContextCount=0,0,4
layerIndex=0,11,16
output=1.0087785065,-0.3782083153,0.9704967541,0.8023377294,-0.1368963873,-0.6743835725,0.5305653579,0.5586912892,0.1890705631,-0.4867249434,1.2151325233,-1.065525334,1.0125621451,0.2854106802,-0.7179222475,1,0,0,0,1,0,0,1,0,0,0,0,1,1.0087785065,-0.3782083153,0.9704967541,0.8023377294
outputCount=11
weightIndex=0,55,119
weights=-0.210952118,0.5477994221,-0.017689443,-0.2789197276,0.0341288009,0.2327585216,-0.2194222749,-0.2560665425,0.0555152361,0.2049202247,-0.8181761566,-0.1918152077,0.2779206008,-0.270576341,0.0193598672,-0.0857038509,1.0433788239,0.4828507358,0.343536358,-0.2366461577,-0.6455425899,-0.8972546235,0.4729946329,0.0397338311,-0.0226842234,-0.604515345,-0.9881066984,0.162742044,0.5252893096,0.012678015,-0.7626020418,0.9940632564,0.0558379681,1.2171126118,-0.4307017914,-0.2119109259,0.4491857521,0.2487624176,-0.2119925636,-0.3451272882,-0.164584756,0.0341469092,0.2047151629,-0.0980287065,-0.1496794148,-0.0371380892,-0.4069309298,-0.6847222177,0.5669247077,0.4881812311,-0.4507498224,-0.1101051849,0.2587281207,-0.7091029001,0.2634109938,0.0208022051,-0.299368931,0.1688351115,0.7553177812,-0.1733733359,0.2966214401,-0.959401753,-0.7885119583,-0.1994047758,-0.0192474474,-0.8311826465,-0.7317544582,0.9736548091,1.0168204077,0.7059456249,-0.80317085,0.3015082965,0.2170652437,0.049993256,0.6496645969,-0.862813783,0.0945253064,0.7143948039,-0.74569825,-0.6699613376,0.3225494423,0.7177591834,0.6064232891,-1.0482602904,-0.4651474755,-0.6798669152,-0.0433375753,0.588386202,0.9330195331,-0.5060942047,0.5339040256,-0.571660809,-0.6092372652,0.3499429061,-0.7942582063,-0.4362606154,0.4190502413,-0.1837060802,0.0433702661,0.6794650469,1.3382656255,-0.5888276172,-0.3256270762,1.2752812307,0.6865630823,0.0717804099,0.3664309459,-0.6221758645,0.1781548593,-0.8904856935,-0.0284458425,0.0857182718,-0.1039229548,0.3206977434,-0.4078210347,0.8663428861,0.8982668493,-0.6254690069,-0.0384398869
biasActivation=0,1,1
[BASIC:ACTIVATION]
"org.encog.engine.network.activation.ActivationLinear"
"org.encog.engine.network.activation.ActivationLOG"
"org.encog.engine.network.activation.ActivationLOG"
