encog,BasicNetwork,java,3.3.0,1,1425320222762
[BASIC]
[BASIC:PARAMS]
[BASIC:NETWORK]
beginTraining=0
connectionLimit=0
contextTargetOffset=0,38,0
contextTargetSize=0,14,0
endTraining=2
hasContext=t
inputCount=11
layerCounts=11,15,26
layerFeedCounts=11,14,11
layerContextCount=0,0,14
layerIndex=0,11,26
output=-0.060032969,0.0057094029,0.2454571526,-0.3651339184,-0.0615254384,-0.1082877544,-0.0995584177,-0.6839170116,1.1505654397,0.8862647986,0.7043691965,11.6033886516,-12.9273069963,-12.1285629556,-11.3275438595,-10.5837724837,-12.4023092123,-11.3531741058,-11.6957762757,10.0264520529,-10.9516652886,12.6450609648,-11.3915739034,-11.6124393133,-10.4074315685,1,1,0,0,0,0,0,0,0,0,0,1,1,-0.060032969,0.0057094029,0.2454571526,-0.3651339184,-0.0615254384,-0.1082877544,-0.0995584177,-0.6839170116,1.1505654397,0.8862647986,0.7043691965,11.6033886516,-12.9273069963,-12.1285629556
outputCount=11
weightIndex=0,165,529
weights=0.0103448902,-0.0101239433,0.0209721418,0.0078955379,-0.0157588802,0.0168938512,0.0055797557,0.0164590388,0.0038862807,0.0060363309,0.0169201403,0.0085561971,0.0404275946,-0.0436792357,0.2569674031,-0.0016519932,0.0010064373,-0.0018036331,-0.0002504101,0.0002080706,-0.001128521,-0.0018004406,-0.0005909066,-0.0003131975,-0.0000033922,-0.0008361666,0.0005669387,-0.0004235724,0.0006691361,-0.0037891951,0.0002495106,-0.0138725002,-0.0078596865,-0.0156227517,0.0296048413,-0.0038018196,-0.0010010303,0.0045338449,0.0128999897,-0.0028001664,-0.0041553665,0.0032990994,0.0065585941,0.0205490829,0.3189189669,-0.0583541031,0.0214279385,-0.0182586737,-0.0088506729,-0.0138332863,-0.0030338249,-0.0318402356,-0.0141119326,-0.0206405448,-0.0078617659,-0.0054666832,-0.0115726253,0.0051631028,0.0268535946,-0.0457221384,0.0115187803,-0.0036835431,0.0116385706,0.0030212578,-0.0013803393,0.0020089872,0.0090745115,0.0012741957,0.00043223,0.0004633843,-0.0007007128,-0.002509268,0.0020755939,-0.0075669048,-0.0128161452,0.0492464618,-0.0070861174,0.0064057364,0.0115674995,0.0023941989,-0.0004883739,0.0012853696,0.0007733425,-0.0053294521,-0.0073908673,-0.0403471379,0.0005895795,0.0004927491,0.0046454581,0.0237970415,-0.0052965116,0.0094146875,0.025698536,0.0121503964,-0.034979921,0.0038659956,0.0087806366,-0.0252160099,-0.0054307768,0.0052259527,0.0017776415,0.0023849052,-0.0270910757,0.0315628355,0.145689436,-0.082107289,0.0169543019,-0.0277079977,-0.028276625,0.0132671189,0.0251526233,0.0035205312,0.0246267072,-0.019189308,0.0097838604,0.0332396341,-0.0034973371,-0.0195675013,0.0472036364,0.7154158381,0.0602432547,-0.0125748007,0.0023074165,0.005996819,-0.0017412474,-0.0157568928,0.0122541822,0.0128087269,0.002907269,-0.0179614819,-0.0111200602,-0.0042102186,0.007316155,-0.0358996871,0.0381071135,0.0036093199,-0.0191677993,-0.0417916345,-0.0044365713,0.0083519761,-0.0014616091,-0.0003950462,0.0145240108,-0.0096269751,-0.0140041242,-0.0011522846,-0.0120597055,0.0183534592,0.0082672234,0.394637744,-0.041535019,0.0170154056,0.0141670405,-0.0128051909,0.0059466122,-0.0068368497,-0.0024289305,-0.0230742388,0.0348812026,0.0069540946,0.0363634774,0.012805061,-0.0165498797,-0.0136193447,0.1923004273,-10600.324885437,0.3384202543,-32624.6291878623,-14175.4109684992,0.9436090813,25514.1480617737,12909.8380720474,-26015.4403178016,33656.0131724889,71919.1082293721,37270.5202199496,-356.6088689175,162.5668567333,74244.9718071287,-17459.4894674797,27309.8961144794,27591.5648381326,-33919.3163205638,49185.4444324972,15562.3240511368,19531.7247540307,-1874.5043290284,7399.7195239599,-10347.3038183021,-251.0717415973,-5655.431567155,-6611.8409618502,-0.8051988055,19217.7498339622,165851.592337664,0.0131751325,-111221.6981636959,14604.4750595441,-51191.7203664943,37195.9315485233,87785.5015430572,3972.2065654278,-2392.5178523434,-18219.5757126659,14378.5667773811,-3966.4863241159,-23564.4886825836,24676.9207437395,19848.0234975991,30668.8465007873,7501.5458381786,26236.8245452374,9974.2748758519,-24751.8348764139,10457.4019513742,-24403.782380249,4002.5613860379,-75366.2397685587,-0.5858043785,65457.7128390539,130081.489517317,0.6234901283,-130715.8427368106,92402.1799741609,2557.1735117644,-46968.114922897,-70537.0351567349,57038.9801640047,210.804734785,-32285.181266716,-5336.0585900742,-26291.323378712,31767.4085017841,-11669.5461828051,-13705.1877424438,-91372.214713682,13748.0193260499,8510.2973634276,11253.2548838499,-31869.718954776,-549.603819027,919.1555268411,-17482.4928261122,32097.3607543155,0.618344749,43958.1446463375,101134.4206271983,-0.6132756903,-71036.7969880644,36843.4736210281,-18411.4746685239,-76212.4098073315,5199.8154173184,-38204.4552370844,-2383.9308075347,3832.8839675275,31331.3907822994,46072.7341872481,-54104.9180056644,-3209.0627489962,-14697.7270801018,-19089.5567444406,-22520.3199288406,-22174.4150500395,-8301.0402615965,7458.5752215082,18599.6730795571,-629.1537480441,20134.8627907223,-31773.1848598622,-0.3481000558,-18397.9351490934,38761.948749467,-0.7413702566,-15584.918765609,-47506.9751538099,-5742.2094200679,107189.8920952642,29122.3881558152,22596.194268925,1279.4865612305,10473.1957502274,18566.2940278817,-7501.4483629586,-2733.6679641727,-4697.6412541616,28323.927249853,10665.6608152195,-19750.4317744944,28958.5592498412,-1214.5495922695,-22864.1768377292,1403.4518152094,-348.3242623121,-275.3266328927,42158.3738562298,-0.6290131452,65111.7191596082,123581.1685933574,-0.4144685129,-71468.0950342344,1159.8191070217,-62990.9919969044,-5808.9815776616,9389.2605819775,-55844.0177773916,-12200.533133976,12618.8712409025,20609.055324014,16632.3206283761,-48985.9363115401,44017.6293292054,-9048.9965335047,-31689.0342285729,-31982.5543091882,17236.4302855791,-3366.9261923956,-20956.9105844395,9728.0110782786,-17580.8100578777,12828.718743822,-39504.5298946182,-0.9282323893,-26649.5064200125,-75944.3732791482,-0.6285978898,66086.8423929121,9237.8786898357,22583.0188433914,-4970.5702281432,-74094.9607961343,39720.194933056,-422.5888891991,-9288.4076403706,-38499.8953722465,22998.7448772605,15701.6466217427,-18933.7827028855,11947.5373709662,-20327.72978871,-4170.8002787524,5853.2820195947,-9782.7725224629,-19654.704773316,6342.0836699541,-3497.7653811912,9023.1598293155,-32232.818867711,0.9801396656,-67484.4674132025,9454.6884371275,0.1156503808,69775.5629894617,-5502.7710031331,38985.4028706924,-23054.1928122157,-11235.0514460971,25814.0707489086,-1241.1438705372,-15774.0829729926,-48114.6349904778,-1844.948476318,-1273.2725822757,25988.0036342406,17680.0504114191,-2761.647988907,18414.3434002905,-3764.5547519277,-8867.3835293792,-43323.3616628455,1581.298620377,-4488.5451411942,1479.234910068,-68128.9783074245,0.3029825051,3269.0537940537,-7521.3007483987,-0.7206175132,-87958.2941480218,32387.9842650677,-5535.6295125961,75785.9999947398,18850.3825034126,39311.907970172,277.3780178675,6842.4193615516,34317.4354066889,5257.60484815,32554.1644080028,13052.1121907653,-17796.701773127,17612.5502609372,32693.565367992,19932.0153772092,4982.5805944298,11943.5502301439,842.7210621735,38.1349957697,8548.8958650613,-30972.9774184234,0.6667385467,-23925.7562469076,-95207.8640896436,-0.1797429865,105420.6590217762,-39140.8052291157,81716.8783069038,-39118.7545186875,-43843.4870028929,20862.8403367298,1910.594849074,-15959.3057149849,-4561.1363042626,-25312.0149797655,25963.0988188903,393.0784648383,-30607.7143940346,-7515.4967669582,864.9923506864,-4273.5285370422,20351.1606020164,18972.6707292108,-2569.3922325304,-9205.0905898882,5525.0973828486,-15193.6203445553,0.2322358588,-67959.2773520594,-68365.0757434152,-0.5836402981,109679.7034637422,-54253.9014493496,45412.987082554,-26799.6271871862,19648.3599088187,58979.5099239099,-639.8175131998,24878.0268635963,-62582.3146032612,-1579.6252546398,20204.8905252639,-12731.3273363992,21996.2532408185,8219.6236626251,15174.6319965333,-7041.9256057173,-2860.1806834159,19569.5788486534,-13276.9565029879,8907.9125546371,-4651.2119808209,-38322.326501007,0.3501811636,28610.9389037826,152668.2819532703,0.4635800182,-28984.5538363279,-25878.6949723418,518.936370783,-56196.0447251452,-13568.6158581019,251.239263647,-5476.8777533358,-1973.1168268015,16370.0324282768,2197.2939862461,-11976.4253738447,17373.8549428106,-25057.5985370521,-43583.3719332936,7064.5363332332,14361.2089949722,33242.9928459059,11304.6339795063,2681.7833270936,-1323.0784757394,-357.7059748069,13239.0196760511,-0.3132714433,31759.7889358307,63061.4682405139,0.0914492046,-93936.0037891639,24944.9270487352,-51845.4438873733,65068.0666553835,63996.3700740157,-34935.9268183392,-1395.169301113,-19498.0057552848,67538.2607805298,-3582.399674241,-2030.6506247303,-27255.7723161805,-8476.7819883464,25176.6449363653,-19110.2361865609,7745.0443314539,14136.4736949817,12851.5788644446,2957.0304804196,-4545.1767388975,2056.4937228188,1672.4340416079,-0.7120810854,19021.6132657645,-135629.5677032189,-0.4185592643,-76074.7955328054,21077.406530372,-18034.4968122959,82429.7489489215,16266.2197157267,-10821.2570768564,2134.0773441562,-12171.3243294342,41958.347002492,10374.814799701,2051.6598130467,-18726.0937873897,24161.4188665345,12377.2619046804,-4273.8366442383,5859.8085020372,-15573.2514065763,-1135.9868898015,-1112.8401720236,-4261.3742644367,3084.6903078846
biasActivation=0,1,1
[BASIC:ACTIVATION]
"org.encog.engine.network.activation.ActivationLinear"
"org.encog.engine.network.activation.ActivationLOG"
"org.encog.engine.network.activation.ActivationLOG"
