encog,BasicNetwork,java,3.3.0,1,1425320125612
[BASIC]
[BASIC:PARAMS]
[BASIC:NETWORK]
beginTraining=0
connectionLimit=0
contextTargetOffset=0,132,0
contextTargetSize=0,30,0
endTraining=2
hasContext=t
inputCount=50
layerCounts=50,31,81
layerFeedCounts=50,30,50
layerContextCount=0,0,30
layerIndex=0,50,81
output=-0.0310477382,-0.2179965052,0.1923528535,-0.1701015755,0.6076715511,0.073654611,0.4541498941,-0.0117222168,-0.1870433427,-0.1429971263,0.0000196707,-0.0837815184,0.4013511969,-0.0998129931,0.2182151814,-0.0000766592,-0.1271918497,0.0187740919,-0.1960198912,0.3334334768,-0.2763431262,0.3932031911,0.2245914576,0.2127744911,0.6239964868,0.1270149393,0.1478444186,0.3058731717,0.0258221122,0.2532567122,-0.2537052006,0.2456112558,0.2249151221,-0.3038854095,0.0000825214,0.1397310706,0.1910071995,-0.1395452656,-0.1172377569,0.006506318,0.2664534045,-0.1822979014,0.0221260423,0.055146856,0.332873729,-0.2975993121,0.6737331545,0.5180996082,0.4024500738,0.0627823111,-9.6164781927,8.2844455417,9.7426178061,-8.2488798473,9.0813342415,10.7583249042,-8.971402196,-10.6877255365,-10.2914967941,-8.1186999454,10.0555573818,-10.3019826976,-10.4942703114,9.9580115438,9.746268558,10.3129776217,8.9741169908,9.3219874474,-10.3966090176,11.036831447,10.9308613896,10.0805847069,8.6247430662,-10.8672788054,-9.5476320865,-9.9057492107,-9.2111047758,9.1889484062,10.8897331957,-10.1144167821,1,0,0,1,0,0,0,0,0,0,0,0,0,0,0,0,0,0,0,0,0,0,0,0,0,1,0,0,1,0,0,0,0,0,1,0,0,0,0,0,0,0,0,0,0,0,0,0,0,0,1,1,-0.0310477382,-0.2179965052,0.1923528535,-0.1701015755,0.6076715511,0.073654611,0.4541498941,-0.0117222168,-0.1870433427,-0.1429971263,0.0000196707,-0.0837815184,0.4013511969,-0.0998129931,0.2182151814,-0.0000766592,-0.1271918497,0.0187740919,-0.1960198912,0.3334334768,-0.2763431262,0.3932031911,0.2245914576,0.2127744911,0.6239964868,0.1270149393,0.1478444186,0.3058731717,0.0258221122,0.2532567122
outputCount=50
weightIndex=0,1550,3980
weights=##0
##double#3980
   0.0042899979,0.0043199534,0.0048558178,-0.0044230957,-0.00100107,0.0004261316,-0.0042488666,0.0009149731,-0.0001490319,-0.0013097324,-0.0022346849,0.0038598799,-0.0053591021,0.0011734061,-0.0025452925,-0.0009942174,0.0031276191,-0.0061738059,-0.0031393064,-0.0044827378,-0.0013748549,-0.0008936727,-0.0039280942,0.0052251194,-0.0049396003,0.0043702504,0.006121208,-0.0040855284,0.0038985236,-0.0025336469,0.0669899514,0.000082374,0.0048164658,0.0025849093,-0.00316466,-0.013994657,-0.0040820108,0.0085827307,0.0006049461,-0.001163692,-0.0051807185,-0.0101025015,0.0024100582,-0.0016420052,0.0044937187,0.0016584694,0.0004011864,-0.0003069687,0.0061504351,0.0072436003,0.0021184279,0.0024815016,0.0012263241,0.0037224208,0.0037105556,0.0032004928,-0.001613633,0.0027984658,0.0013278048,-0.0046717976,0.0132486725,0.1152782476,-0.0014922549,0.0058640321,0.0001347334,0.0066863683,-0.0029645578,-0.0114623885,-0.0036853018,0.0001791127,-0.0036758983,0.0002069771,-0.0056824665,-0.0016459585,-0.0050681251,0.0016306103,-0.00534565,0.0066251906,0.0162654788,0.0032138505,-0.001435176,-0.0131495859,-0.0071489512,0.0056416473,-0.0006935746,0.0020065678,-0.0033342238,-0.0092939786,0.0038545116,-0.0060459187,-0.0044657837,0.0027420265,0.2676087023,-0.0010152094,-0.0061844684,0.0011454906,-0.0014373428,0.0036983817,0.0058069828,-0.0101316348,-0.0027213307,0.0012648155,0.0060373138,-0.0024778742,-0.0025860516,0.0048415929,-0.0044771325,0.0028899101,0.0010213448,-0.0071083638,-0.0045210676,0.0037144211,-0.0013996617,0.003695776,0.0048526475,0.0024424482,0.0062667543,0.004150053,-0.0013814883,0.0060602873,0.0008084177,-0.0028816725,0.0073047186,0.0466338074,-0.0054988388,0.0125261076,0.0120064347,-0.0052696158,0.0013154413,0.0042301837,0.0045854823,0.0039187941,-0.0125709514,-0.00404639,0.006826574,-0.0069436118,0.0075568526,-0.0004052529,-0.0043010409,0.0002101981,0.0071757832,-0.0034077217,0.0044516585,0.0080724219,0.0019452948,-0.0031092975,0.0031620805,-0.0029128533,-0.0030857417,-0.0061184332,0.0084187866,-0.0069973965,0.000534647,0.0065467365,0.1247120306,-0.000933355,-0.0066222705,0.0053097223,0.0065589257,0.0006071092,0.0050575741,-0.0044634635,0.0039989134,-0.0010735109,-0.0047000252,0.0090575382,0.0050483392,-0.0022590122,0.001799937,-0.0003665859,0.0078512505,0.0005748213,-0.0017695357,-0.0009890205,-0.0065927814,-0.0115573999,-0.0132308154,0.0044936267,-0.0087566607,0.0026191741,0.0126651463,-0.0068190441,0.0072263525,-0.0019136349,0.0069757028,0.1696337882,0.0002381749,0.0007826865,-0.0040042062,-0.0045109003,0.0085888605,0.0053969496,-0.0069081628,0.0023538706,-0.0069209211,0.0087360254,-0.0009703229,0.0039538235,-0.003570898,0.005199534,0.0001874219,-0.0034047838,0.0031291896,0.0058198549,-0.0036462665,-0.0048356931,0.0015374176,0.0059762768,0.0097054978,0.0045148117,-0.0000770635,-0.005434788,-0.0019218753,0.0036864203,-0.0083163021,-0.0001505018,0.0774285654,-0.0025385533,0.0087173424,-0.0045917529,0.003699638,0.0072582045,0.0061203941,0.0016345433,-0.0059442732,0.0050302502,0.0031085735,-0.0042520402,-0.0002881883,0.0149482014,-0.0062290685,-0.0032035783,-0.0098460364,0.002008396,0.009949253,0.0005320367,-0.0014178522,0.0009270898,-0.0022691446,-0.0023124778,-0.0066771169,-0.0055979658,0.0067481261,0.0024768063,-0.0007530346,0.0133495603,0.0027679456,0.051020743,0.001721841,-0.0016563104,-0.0034526901,-0.0004998195,-0.0029003827,0.003603107,0.0032821771,-0.0027446497,0.0104505635,-0.0006114847,-0.0004139257,-0.0003247734,0.0035623429,-0.0010273344,-0.0097895031,-0.0110179896,-0.0009333734,0.0005081115,0.0046627595,-0.0087810924,0.0004916817,-0.0020186077,0.0022279159,-0.006844664,-0.0048631986,-0.0001760447,0.0029642636,0.0094307011,-0.0010399147,-0.0093519171,0.1001102728,-0.0002178647,-0.0111002095,0.0161228865,0.0118097942,0.0089346517,-0.0039539258,0.0033083812,0.0061056768,-0.0065557756,-0.0145158271,0.0064479616,-0.0111801362,0.0035272812,-0.0056217296,-0.0058642703,-0.0027924353,-0.0042099495,-0.0113410626,0.0050991761,-0.0026487519,-0.0034038676,-0.0020605704,0.0040121237,0.0078972415,0.0026190563,0.0008510487,0.0044699018,-0.01029389,0.0003591547,0.0032182009,0.2899424383,0.0000004888,-0.0000003179,0.0000006886,-0.0000012117,0.0000012085,-0.0000004828,0.0000007451,0.0000002317,-0.0000003619,-0.0000003839,0.0000003534,-0.0000000696,0.0000000128,-0.0000004579,-0.0000006934,-0.0000004385,0.0000003495,-0.0000006917,-0.0000011459,-0.000000402,-0.0000009825,-0.0000008813,-0.0000023169,-0.0000004286,-0.0000003873,-0.0000006823,0.0000017757,-0.0000003081,-0.0000009664,-0.0000009304,0.0000591717,-0.0003685712,0.0026516797,-0.004996033,0.0016299068,-0.0009505426,-0.0045971869,0.0053266568,-0.0043290186,-0.0047240448,0.008516108,-0.003249533,0.0003834168,0.0018268317,0.0040788266,-0.009573765,0.0009174517,0.0063449851,0.0046929292,-0.0019392546,-0.0029972051,0.0006105419,0.002180162,0.0007357203,0.0094498172,0.0075171101,0.0017964513,-0.0017643553,0.0041891014,0.0084928384,-0.0034831954,0.0190180764,-0.0067038625,0.0118748098,-0.0007464058,0.0004174225,0.002005098,-0.0041831838,0.0024508746,-0.0012132429,0.0014166253,0.0040379817,0.0126735096,0.002561179,-0.0044710281,0.0049374798,-0.0033099661,-0.0089534991,-0.0020170695,-0.0022238566,0.0003872069,-0.007914286,-0.0023853324,-0.0018223799,0.0045974599,0.0036493675,0.0035474792,-0.0090579902,-0.0031032216,0.0116828011,0.0034816524,-0.0083962576,0.1198836941,-0.0023346775,-0.0117521122,0.0092624887,0.0059682223,-0.0006508655,-0.0018084709,-0.0037700644,0.0006555134,0.0022240034,0.0071184631,-0.0058472599,-0.0008644025,-0.0024933607,-0.0117800807,0.0023286358,0.0001157758,-0.0004490403,-0.0042266163,-0.000021216,0.0013747034,0.0066362275,0.0037017092,-0.0031758859,-0.0005730519,0.0044258657,-0.0067597613,0.0012681769,-0.0012777421,0.0033645708,0.0044789751,0.0771869845,-0.0003829609,0.0036426505,0.0052241301,0.0027236698,0.0055831633,-0.0017107587,0.0140693526,-0.0016456267,0.0204408751,-0.007567811,0.0067387941,-0.0009764284,-0.0125508382,-0.0014502483,-0.0005042641,0.0040239613,-0.0005482891,0.0005192293,-0.004565115,-0.0040763338,-0.0004815256,-0.0022067868,0.0057284043,-0.0049325873,0.0095208242,0.0041566684,-0.0007720324,0.0045833281,-0.0075662503,-0.0025633939,0.2109359216,0.0000005985,0.0000008141,-0.000001629,0.0000006567,0.0000006001,0.0000010127,0.0000004637,-0.0000012076,-0.0000008298,-0.0000013173,-0.0000009529,0.0000004226,-0.0000005175,-0.0000011593,0.000000614,-0.0000002,-0.0000013651,-0.000001259,-0.0000004799,0.0000008747,0.0000010663,0.0000001367,-0.0000008767,-0.00000001,-0.0000009307,0.00000006,-0.0000000371,-0.0000014715,-0.0000003145,0.0000020353,-0.0000518956,0.0095505687,0.0090311534,-0.0050556158,-0.0023789412,0.0012624572,-0.0066803723,-0.0043070018,-0.0035621941,-0.0024589443,-0.0008363386,0.0031729465,0.0051841472,0.0040751171,-0.0026799998,0.0104275664,-0.0083674317,-0.0112516659,0.0109204535,0.0076194777,-0.0009262193,-0.0087376374,-0.0000594853,-0.0113225879,0.0063550053,0.0063361844,-0.0038728434,-0.0004195653,0.0053445215,0.0046125278,-0.0055360054,0.1610511686,0.0016577695,-0.000101279,-0.0021742097,-0.0070868531,-0.0053737945,0.0020289308,0.0026393557,0.0041766958,-0.0035806005,-0.0036575775,0.0017709185,0.0010568361,0.0038594609,0.0053904629,0.0022944942,-0.0003063677,0.0062902682,-0.0086759739,-0.0006743304,-0.0008435976,-0.0033804458,-0.0019285127,0.0035493941,-0.0066890504,0.0056706178,-0.0047809534,0.001850067,0.0046597229,0.0015523475,0.0120541271,0.0535625352,0.0014604787,-0.0013472704,-0.0034129032,0.0008292869,-0.0032477421,0.004398004,0.0034409596,-0.00181605,0.010330719,-0.0015802702,-0.0015959141,0.0000114964,0.0029580999,-0.0017667867,-0.0100338246,-0.0107868951,-0.0011391877,0.0003327664,0.0046835237,-0.0082762466,0.0009139233,-0.0009365481,0.0029630951,-0.0071701832,-0.00487702,0.0010423771,0.0030570848,0.0093695713,-0.0008535301,-0.0093110826,0.0943209579,-0.0066415647,-0.005951733,0.0046471586,0.0033938456,0.0017991252,-0.0061475163,-0.0016554253,-0.0060857665,-0.0027143596,0.0025149223,0.001527933,0.0060335036,-0.0071002178,0.0003940089,0.0093744151,-0.0051598142,0.0006975501,-0.0029173207,0.0010584561,0.0057514833,0.0015896815,-0.0003998653,-0.0048554287,0.0004634521,0.0034110416,-0.0047076495,-0.0023423094,0.002436198,0.0039460837,-0.0061734094,0.0327741226,0.0014380456,0.0052220128,0.0015699139,0.0063101001,0.0007029642,-0.0003740488,-0.0003414834,0.002233065,-0.0011897059,0.008433556,-0.0032153627,0.0028432545,0.0092504966,-0.0003286986,0.0020878124,0.0004978233,-0.0077662007,0.0059007659,-0.0064906975,-0.0020442055,-0.0032038286,-0.0123399413,-0.0039341748,-0.0034697065,0.0013574849,0.0027908217,-0.0044425658,0.001879276,-0.0009219155,0.0029698437,0.0900423867,0.0040638437,0.0013411885,-0.0014555884,-0.0000392072,-0.0026047408,-0.0001946952,0.0019864131,0.0000571822,0.0016623025,-0.0017690503,0.0007116723,-0.0008701298,0.0009559696,0.0012197627,0.0081339277,0.0062143126,-0.0001105083,0.0005133544,-0.0025111387,0.0026260959,0.0079393317,-0.0030415184,0.0043892306,0.0041357141,-0.0071963127,-0.0033748426,-0.0054445383,0.0010637587,0.0029444707,-0.0023326345,-0.0052830135,-0.0012068305,-0.0047187145,0.0008072244,0.0046316062,-0.0002342975,0.0012159938,0.0061505664,0.0038593292,-0.0014882758,-0.0028262268,0.0053026113,-0.0060999271,-0.006687094,0.00730394,0.0031088756,0.004924273,-0.0025219729,0.0021366167,0.0021596828,-0.0081879937,-0.0009926813,-0.0026512205,0.0046820176,-0.0066991627,0.0015003319,0.0045941956,0.002939266,-0.0049263005,0.0044825107,-0.0052596471,0.0595697404,0.0039846709,0.0046801278,0.0020606904,0.000462648,-0.0082208361,0.0009954196,0.0103051709,-0.0015922516,0.0034793791,0.0106837994,-0.0000915049,0.004177643,0.0051451055,-0.0031124126,-0.0014543086,0.0088070335,-0.0036985702,-0.0051972112,-0.0029423741,-0.0028853739,0.0055152883,-0.0109285145,0.0073379919,0.0010506445,-0.01155346,0.0046215628,-0.0101018465,0.0103306543,-0.0050795594,-0.016487986,0.2272278167,0.0015453686,0.0001017982,-0.0112125316,0.0054074088,0.0038444823,-0.0029384009,-0.0058095314,-0.0006441119,0.0044532143,-0.0026670427,-0.0078628023,-0.00452222,0.0033434405,0.0080714771,-0.0036235243,0.0066178569,0.0141541391,0.0025183796,-0.0029260155,-0.003217133,0.0031089434,-0.0000242047,0.0139539259,-0.0027202244,-0.0014640378,-0.0088739885,-0.0070024783,-0.001041744,-0.0009508648,-0.0044196334,0.187767859,0.0048985475,-0.0009231668,-0.0007263229,-0.0041271798,0.0039003347,0.0070964643,0.0017936374,-0.0001168365,-0.0064665406,-0.0085615647,-0.0087609297,-0.0054202783,-0.0017775665,0.0033495971,-0.0096555845,-0.0018606212,-0.0111559361,-0.0034964833,-0.0026416562,0.0032225084,-0.0061156914,0.0067327417,-0.0086032473,0.0038663075,-0.0002066515,-0.0049970879,-0.0045546358,0.0032501986,0.0033846846,-0.0008163939,0.0318272803,0.0059886093,0.0019685735,0.0015270793,-0.0061095731,0.0001010525,0.0070390293,-0.0026789615,-0.001968607,-0.0023647804,0.000053245,-0.0051786953,-0.0025761408,-0.002182558,0.0014604204,-0.0047542915,-0.0001310811,-0.0051272762,0.0008321846,0.0003187203,0.0011917764,-0.0064218987,0.0028573944,-0.0047277787,-0.0007662253,0.0035025301,-0.0043364599,-0.0037683438,0.0026356789,0.0012588357,-0.0026293751,0.0075115438,-0.008291099,-0.0011996098,-0.0020847238,-0.0059036065,-0.0005813654,0.000217256,-0.0047619496,-0.0065618347,0.0066103042,-0.0033816881,-0.0107655361,-0.0037724791,0.0068301267,0.0062124236,0.0145228963,0.0035797702,0.0008149867,-0.0010997476,0.0002903567,-0.0029184437,0.0070501617,-0.0022010316,0.0043724342,0.0108896356,-0.0017672236,0.0070052214,-0.0102241886,-0.0045118716,-0.0099636218,-0.0014078439,0.197082758,-0.0070485033,-0.0058872459,-0.0109011047,0.000148546,-0.009423838,-0.0018625984,-0.0051553475,0.0079087407,0.0005797408,0.0053682323,0.0062716048,-0.0062935258,-0.0113718743,0.0042167568,-0.0011693509,0.0022139852,-0.0051733097,0.0041185742,0.0045685039,0.0063361999,0.0006685644,-0.0043998647,-0.0049779316,-0.0047193322,-0.0048152584,0.0017802178,0.0024804973,-0.0118364087,0.0012767602,0.0043850403,0.155033104,-0.0093020008,-0.0070931393,0.0020063756,0.0062943129,0.0017184024,-0.008005987,-0.0021542316,0.0110413916,-0.0034615374,-0.0006908546,0.0014147671,0.0043103362,-0.0129555917,0.0063677633,0.005546749,-0.0082059614,-0.0035523449,-0.0121778214,0.0092264168,0.0180180648,0.0015598235,-0.0017370887,-0.0071093574,0.0007798338,-0.004416393,-0.003839292,-0.0013322017,-0.0009478477,0.0031216806,0.0075476252,0.3155912217,0.001100339,0.0073097079,0.0017337966,-0.0049905964,-0.008248464,0.0009562617,-0.0032538671,0.0159525944,0.0017894668,-0.0011734824,0.0041756509,-0.0027096183,0.0018370103,-0.0041317535,0.0077333055,-0.0120108498,0.0002607755,0.013836787,-0.0085160367,-0.003232702,-0.0025923437,-0.0071248271,-0.0096263091,0.0149666393,0.0026982154,0.0093700158,0.0070754072,-0.0180720725,0.0002542878,-0.0084622615,0.315188974,0.0061586521,-0.0021485669,-0.0041347814,-0.0003995267,-0.0024227927,0.0044671024,-0.0128244396,-0.0023730957,-0.0074416287,0.0110633808,0.001158677,0.0008215642,-0.0018799037,0.0069695749,0.0072073637,-0.0040170629,-0.0057845383,0.0004881487,-0.0049356699,0.0022842156,0.0035472406,-0.0001653069,0.0054335013,-0.0104377717,-0.0073902833,0.0024165395,-0.0009967641,0.0010457681,-0.0187328091,0.0049483147,0.0473167761,0.0034831587,-0.0008477999,0.006565034,-0.0093088907,0.0064039005,-0.0117361323,0.0011046913,0.0068852198,-0.0010434507,-0.0065212008,0.0113491659,0.0032246456,0.0060968594,-0.0053555873,-0.0012684465,0.0000526735,-0.0002012827,0.0050738985,0.0004682345,0.009179766,0.0057457854,0.0016289473,0.0006295054,0.003217529,0.0018044949,-0.0012668832,0.0045175108,-0.0073532451,-0.0076051089,-0.0074250942,0.1907827552,-0.004847905,0.0038844653,-0.0076818805,0.0064645544,0.0012774884,-0.0086126342,-0.0060605024,-0.0033161983,0.0014567701,0.0004877962,-0.0061554546,-0.0034941933,0.0071882828,0.0012857489,0.0051044438,-0.0044559176,-0.0048871972,-0.0020882734,-0.0014219839,-0.0029916667,0.0018932769,-0.0041434251,-0.0094218803,-0.0103586725,0.0017775248,0.002161902,-0.0031505168,-0.0153315026,0.0015711766,0.006610477,0.1117343815,-0.000000691,-0.0000007491,-0.0000002027,-0.0000025558,-0.0000009192,-0.0000024578,0.0000000171,0.0000018864,0.0000002109,0.0000013521,-0.0000004549,0.0000006932,-0.0000006992,-0.0000005416,0.0000002412,0.0000010983,0.0000023794,0.0000006657,0.0000018701,-0.0000002596,-0.000001385,-0.0000018495,0.0000014927,-0.000001281,-0.0000013482,0.0000006309,-0.000002377,0.0000001169,-0.0000010819,-0.0000035718,0.0000751172,0.0060703538,-0.0022470647,-0.0024997901,0.0034428238,-0.0041403025,-0.001126549,0.005858481,-0.0030443876,-0.0064617826,0.0019254905,0.0018110933,0.0051216654,-0.0032574956,-0.0032694048,0.003641774,-0.0003864712,0.0042930792,0.0099273021,0.0043708464,-0.0019385157,-0.0013449469,0.0069923328,0.0038349451,-0.0029599148,-0.0093909466,-0.0089208617,-0.0016827635,-0.0015863914,-0.0082912067,0.0037281637,0.0535496225,-0.0102390301,-0.0002228421,0.0079760521,-0.0053146077,0.0020777398,0.0075947913,-0.0065947588,-0.0040311891,0.0075372777,0.006376045,-0.0019509585,-0.0064433865,0.0081756944,-0.0095543138,0.0051720518,-0.0034321405,-0.0018280598,0.0015623285,0.00111438,0.0003296102,0.0015216331,0.0077777982,0.0043599073,0.008812296,0.0002467466,0.0040260615,0.0007593553,-0.0006167307,-0.0025737006,0.0108227638,0.1838247358,-0.0065251031,-0.0120442404,0.0005717526,0.0096650165,-0.0057665668,-0.0038388018,0.0008448565,-0.0013951103,-0.0020985663,0.0036828074,-0.0050466324,0.0062828362,-0.0116298849,-0.0093819101,0.0044325627,0.0060295948,0.0042135702,0.008401893,0.0089802637,0.0039232499,0.000732479,-0.0024195463,-0.010974942,0.0028780517,-0.0042511787,-0.000756565,0.001656197,0.0050053192,-0.003402514,0.0045347098,0.1280882923,-0.0016355247,-0.0110436827,-0.0115667193,-0.0057996142,-0.0033125937,0.0018285606,0.014262107,0.0054041938,-0.0079059512,0.0019597295,-0.0013396599,-0.005172975,0.0036888178,-0.0007211679,-0.0059395682,0.0025215678,0.0003056275,-0.0115553445,-0.0074682054,0.00039012,-0.0104797363,0.0039920797,-0.0006136349,0.0038679843,-0.0031660427,0.0020066661,-0.0016469962,-0.0024046505,0.0043418611,-0.0040149909,0.2453442926,-0.0001579271,-0.0002252235,0.0049630592,0.0001624054,0.0000168838,0.0016264603,-0.0002408264,0.0000513122,-0.0076468408,-0.0030708677,0.0057910269,-0.0046303056,0.0030540551,-0.0029708382,-0.0027810137,-0.0049111886,0.0035612828,-0.0005449689,0.0009223538,0.0045282889,-0.0033211318,-0.0046762118,0.0003663617,0.0034840485,0.0013601375,-0.0015051869,0.0041614115,-0.008537502,-0.0066032494,-0.0022034857,0.0857564175,0.0043761367,-0.0041655053,0.0071630139,-0.0015146269,0.0119556878,-0.0038109463,0.0060130332,-0.0022047336,0.0049717302,-0.0062715766,0.0044078671,0.0062042467,-0.0053216048,0.0074862329,0.0003274849,0.0062315879,-0.0037653429,-0.000031692,0.0000842654,-0.0005522648,0.0003041194,0.001831627,0.0045670544,-0.0059678095,0.0045742936,0.0023818572,0.0019825038,-0.0014899679,0.000262226,-0.0007544334,0.049321569,0.0062286273,0.0044117785,-0.0005454247,-0.0014214971,-0.0006890006,0.0034469673,0.0028819225,-0.0045117948,-0.0031926359,0.0055856886,-0.0052675543,0.0053385052,-0.0021427453,0.001032002,-0.0050797206,0.0022223497,0.0076708061,-0.0079502019,-0.0019520377,-0.0009220096,-0.0007247372,0.0024959973,-0.0054143425,0.0095306806,-0.0027985793,0.0095287393,0.0057713306,-0.0047877738,0.0071270686,-0.0062365313,0.0480478982,0.0003868708,0.005403108,0.0027707514,-0.0021692151,-0.0021867612,0.0009210612,0.0025474989,0.0060225871,-0.0033417031,-0.0013943635,-0.0042619516,0.0008970617,0.0017785381,0.0063845245,-0.0002320104,0.0022938504,0.0002529571,-0.0052381913,0.004762314,0.0024881792,0.003212278,-0.0012674555,0.0034737909,-0.0032613985,0.0030430916,-0.0027068265,0.0036755515,0.0006265052,0.001330991,0.0061776062,0.0326471754,0.0026549746,-0.0074033546,-0.0165350314,-0.0106546856,-0.0023946572,-0.0069261516,0.0057548137,0.0024473555,0.0071912186,0.0041271228,0.0058948963,0.0006402026,-0.001487739,-0.0076737898,-0.0000452844,0.013386809,0.0085360589,-0.0014978418,-0.0044926598,0.0057322984,0.000253119,0.0059688415,0.0024340612,-0.0042515794,0.0115185971,0.0075745841,0.004532278,-0.0008494399,0.0004929395,-0.0088084868,0.2046340906,-0.0028086844,0.0050620362,0.0036791338,0.0046061728,-0.0019198031,0.0105804809,-0.0125754395,-0.0022271334,-0.0052341643,0.0015778215,0.0068867412,0.0068040148,-0.003097078,0.0067075506,-0.0044960891,0.0022569875,-0.0094492758,0.0062870831,0.0079590418,0.0075802391,-0.010937977,-0.002534517,-0.0056374079,-0.0009010057,0.0050200996,0.0019214252,-0.0104870619,0.0044109542,0.0010157773,-0.0015697771,0.026210278,0.0065001515,-0.001836938,0.0058196419,0.0023387976,-0.0073028278,-0.004479916,-0.0141016355,0.0017904962,0.0048282763,0.0022448691,-0.000607837,-0.0029065818,-0.004985325,-0.0024225001,-0.0032819506,-0.0044863868,-0.0042052576,-0.0099171783,-0.0026507546,-0.0011537704,0.0030611408,0.0060067401,-0.0037247741,0.0005088434,-0.0017059476,0.0021070449,0.0081928256,-0.009196603,0.005854305,0.0080840458,0.0855805586,-0.0046025243,0.0047129976,0.0060565645,-0.0129070665,0.0091767255,-0.0037226397,0.0063704819,-0.0065567646,0.0031016463,0.0011459109,0.0053447047,0.0021119703,0.0027434258,-0.0034453664,-0.0047963862,0.0073637751,0.0013010986,0.003325865,-0.0021258363,0.0038718149,0.0047703851,0.0049257609,-0.0033123895,-0.0052161422,-0.005855173,-0.0061127873,0.0011414703,-0.0002987997,0.0052178889,0.0044302945,0.0592454788,-0.0057615045,0.007068672,0.0035500117,-0.0050515415,0.0039295985,0.0011486731,0.0015330117,-0.0051299603,-0.0010099331,0.0025014964,0.0046812155,-0.0033914907,0.0037859659,-0.0041704272,-0.001423048,0.0012807466,0.0050077184,0.001669533,-0.0004344651,-0.0004491129,0.0009216844,0.0002693986,-0.0019935812,-0.0029772439,-0.0076466507,-0.0007099662,0.0009836481,0.0010713859,0.0068066981,0.0027894026,0.0338363318,0.0103845608,-0.0096133899,-0.0024428356,0.0033872668,-0.0010934557,0.0062064343,-0.0041473273,-0.0038759751,0.0072020233,-0.0002373775,-0.0168461516,-0.0094916699,-0.006729258,-0.0031887528,0.0022507456,0.0051414901,0.0032802103,-0.0011589955,-0.0037574808,0.0094267874,0.0006760053,-0.0033442975,-0.0019008727,-0.0025766746,0.0018919439,-0.0074461154,-0.0012720136,0.0106121931,0.0023702816,-0.0092123417,0.0972631913,-0.0035239031,-0.005671728,-0.0087113399,-0.0040860554,0.0008326036,-0.0076111928,-0.0022529825,0.0052524388,-0.0032614391,-0.0220176125,0.0008230503,-0.0030498965,0.0094475125,-0.0030182764,0.0023001539,0.0027771706,0.0000393228,-0.0103628974,-0.007337794,-0.0083222247,0.0040803577,0.0067254938,-0.0066039281,-0.0017505634,0.0015137895,0.0024491572,-0.0060236382,0.0025644141,-0.0005046306,0.0013593203,0.0796773413,-1909.8210601121,-5.7105242495,-17949.5348364454,-7763.146217238,8027.2964142286,4.3060296766,6632.8863577864,52033.7260510639,38928.9764885107,-4726.9734512503,0.7356738598,13.994998672,-0.4676426315,-2341.0225837283,-6985.0110600147,-0.7661090613,0.5212436689,0.1840223926,38928.883476133,6.3208702859,810.9909857416,-5037.3208177285,16187.9392113238,1199.819698737,1035.3944330069,-663.7924395769,-12.6673514129,1.0266061851,-0.4516295821,-0.75699998,-0.8343122956,6987.8444778738,-21.1984023421,-15.8005598598,0.2484660278,6929.2643674916,-0.3902400166,13.5406823402,4.3916091951,44.9274862115,-0.5611949303,-3.0969438966,42.5279487717,-11.0453766636,25.3816904076,-8505.4067780325,3005.9651822598,45745.6511239432,-738.5034425813,0.0308106828,7.587693799,1680.1675977618,-2907.2181806876,-3498.1759818204,17736.8895302363,-4600.9067441886,5018.7372623909,5842.011699617,7881.8572032356,2575.6513297354,-13240.3892264809,-5.1022434986,-936.2324828112,0.7002600699,-1596.4778425952,-2760.4397070374,1062.1119955973,-336.4504423425,8532.9653443093,244.8921770567,9803.719060044,2.4429275382,-5205.2393404747,927.8810752039,-4871.0471887799,-1462.6838753993,5961.1089006886,-5225.9005348643,7747.9283598648,8.8648951654,1686.9799249583,12451.0338149253,-0.4070019373,10533.9687277413,6791.6219861078,0.3805419717,2.0671072431,-19270.9576426419,1654.5921143799,-696.4413813714,4473.1439569066,-0.9384424184,-23.2288441061,-113.648083485,1303.1452486989,1903.0933070335,-0.930744097,-5628.8985026116,-5526.9772297572,-696.9036688244,-4172.279486315,2422.0824505561,-37268.9161753372,0.222072259,-2951.9157256611,-1158.6228710071,0.2000350976,-42447.1066740553,-5498.0638080871,1.3078158109,-0.5394087088,-0.8875441029,13.0204654854,-4108.2921372237,-549.5166770506,-0.9238320952,-13034.7356951906,16900.5842332651,42.5546538039,112.487852968,4.0758035541,-2967.2189464118,9.2746233481,-26386.9621836582,-0.2540023917,-1900.6574132958,1040.9743601048,-0.7080174712,32228.9463132088,-0.4826618441,0.0389888874,0.4957534316,8775.9764022005,4731.9935487333,3123.1679502212,5165.5155016318,-20.7025574675,4117.5398148727,2.7012720018,4474.1017495853,-3873.029783623,4651.4915271772,-2999.2724999428,6481.0622154354,-156.4509597747,9256.1561013582,0.2721215833,1.2263758867,-24.631979761,5.7459784998,3346.4548036807,-2854.9392570134,601.9081682389,-3044.1194099263,-2484.8317054292,5551.347535358,0.5148768608,58.2119356344,-2361.0237196078,-7566.1988738375,-16.8993707076,-4397.1559434727,-12.5545316059,1062.0747000252,44.7664632025,-7060.8303120796,1348.7033895933,-1.5797063207,-2275.2083977384,-0.2887842268,1.2396046558,-1.6261708312,-0.2160384882,-456.5417008439,-38125.0273147001,-5437.5684293474,0.0611692887,-0.8686551586,-32351.0511369457,-0.0118020532,0.5274157134,-12004.093768989,-4059.4050539917,197.0994485442,-25158.0177325501,3559.6293451418,2901.7432526067,-1.3166178373,-48092.9205331573,-774.2766243721,1531.1723666962,9946.2521111215,-79.7508842114,22.3197181386,-0.6454764137,283.6831536628,-0.9874680566,14891.2559950864,-3937.5656858079,16951.4382786476,-134.2734527836,-0.3795836992,-4.1236066057,2135.2782448646,43410.9602316058,-0.0611762203,-34.3563253491,-5782.9107279843,1.1345487381,-224.8982234909,0.0881591219,0.2546244047,-1.0751790784,-323.2951931829,-11335.4043093881,11196.6866701137,4252.144405772,5735.3474039028,-121.1200667714,-6787.7069217429,1109.8591161976,3854.6224040128,-7425.3122618575,-2922.0913036995,-5244.221865415,6475.2063746009,-8983.6694974257,12.1056036024,610.7129449081,-1932.5903394914,2637.7770130289,-8486.134961637,4627.959643608,-13283.8891976962,275.3426965929,-3810.1891716321,1538.0766594682,2799.065906376,-5036.2941250646,-35.8697012744,1973.0085591749,-167.3352122863,-1654.4489098294,2508.2993896474,-17.0925631008,-16009.8203378726,18938.2147791135,-0.2448547323,-680.1836031511,12533.4798565629,-0.2447325555,-7.0698718916,7712.1926000705,0.4849965176,-3196.9180515323,-7360.0268648172,23089.9884365951,-1.2146892505,0.3930106386,-866.4541075308,0.6722699107,-7.1078811402,17799.2942370081,14018.2363821448,16.191569257,28925.0945167495,-296.9893759078,-23.3327265892,-3678.4799645956,-10871.6718220248,15306.6646007442,-6784.844386431,-1492.0830356339,4858.8346372597,2837.976697053,2804.3126616374,-5346.9707269178,0.2694008147,10296.8058563695,7.9909579926,0.8223777219,458.3552407911,27983.8422620844,4946.7456319312,-1629.5961798383,7515.9317244503,-0.7112477678,-14382.6423566812,-6073.8936030939,-1079.0694708514,-8207.7889659774,2691.6514294331,-3.0209432182,-0.2375091011,2294.4015792551,2727.6940822187,7819.6960652835,2330.6799593409,11243.0243342709,18564.1111771045,9441.5594576786,2720.4539349888,1254.8073875879,10179.572647406,2217.5260011829,3809.1419126588,6382.3774990467,-1867.512160605,-4972.6627411694,4631.7885763996,-5790.2187235344,1332.8858309301,-4805.1989124483,4511.3732369466,214.5653325822,6155.7348793676,-3394.7488584554,-4276.5684316825,-13510.4898716681,547.3873326467,-598.3029574503,3116.2678817637,1216.6504116598,6333.1744600004,-55726.533424353,11518.5845444715,-1328.8638505017,-3.8472632506,-13662.9327181498,0.1667810475,-10294.4663731303,-3111.1443715447,0.9632944496,-1054.6213584696,-0.6734818435,-29030.9709099091,-14100.2719452984,-12.9503117031,3775.3852124739,0.4567790615,-375.9901087955,1.2070099514,-0.2855088576,-31209.1129251998,-9.1598903283,-18.9189858881,2595.8597474903,-26.8087905325,165.1408947687,1953.8402060628,-4.7474124,-2.2214578602,5040.8638439335,605.243310739,-2185.1796430488,19984.034233204,3943.3970677837,4567.6117022341,0.3031752227,32278.5422592591,-761.0135121877,-441.657031293,-59.0730577106,-4218.6543538853,-0.0782125094,-51388.5174911207,2529.5879216015,1320.9201365263,0.5212904188,-0.688653102,-18590.0731200242,-57815.7731797717,0.3099814119,2702.1809669053,-1.0697979492,3.129816538,4893.3937538301,-4730.4375417933,9902.1816243166,-1994.6442235624,-3462.2495580229,-1989.0854228424,7335.2590080335,-6153.1745554907,-10078.0581422302,167.0727694934,2586.4541421633,5087.1419672089,22.2496442202,13133.7009134405,2794.3451435931,-4633.0454155849,-4746.0769242507,30.8996091624,-11769.3842890697,56.9449466719,6086.5627253158,-4358.2198396074,1409.7706560642,-363.9338859418,1026.4692482934,-11555.1811312195,-120.5093488718,921.7517634367,-2640.4984492569,-10615.3656732438,13191.8944450792,35039.9385832894,-3746.8510425884,13704.8190783719,-339.374689574,10083.268202083,831.1533319862,1.2209998177,-1644.3357166362,-0.87375348,0.4638683126,-7658.7389666467,7992.092573292,-0.9216211068,-0.4399194892,-6716.1511693911,-611.3702980135,0.6060382555,-0.6789522658,-55.6381508247,-19938.2941283092,-0.063951771,-12690.1850189232,29909.8493790232,-2970.1563637639,-15394.5419600731,-9715.58802236,-0.8962858474,-0.5677148244,-0.4068252395,-1696.2709381509,1803.936983222,-2619.5902895933,0.7457995675,9420.5081873422,6.8089478669,7652.3067518916,-1459.7740393826,6325.1428294726,-8450.767143915,-1432.9755334287,17294.8000988224,11642.1233987248,0.7527608419,-15082.359546895,1516.2071562464,-16276.3813443217,13098.4262589449,-7937.7481321285,-5.0279327252,0.8893579719,-10803.6498795103,7242.0483336698,6101.3863699218,4753.5968115781,10875.8648229807,3860.8095342673,-4904.3789711067,-122.9529691575,5066.5152981019,1526.5225119032,3717.6616366205,-4011.2000022363,1065.5022805577,-105.0330606342,23.0073164425,0.25838252,3194.5934999377,-3604.9076796476,16792.6240612512,-105.2666251681,-5219.4221474751,5.8184140063,5042.3118842419,-150.7796501676,4303.6029580674,18709.5609826596,-1.584740752,10179.7328538552,7378.9770491805,9261.0530184451,-17849.9740312455,1670.670537068,-20984.7398875094,-5109.315167763,0.3750088197,1268.2213688538,-42707.717877154,-9770.8291568152,0.2291079597,-0.9505177058,11757.4003014899
   17493.7032992117,-44061.8964136198,2069.4057466974,0.0805459634,0.9216330247,-2111.6170566788,-9770.3967648942,28952.3362860106,-6792.212273915,0.378290118,-83.841573057,1473.7891320232,10.0377216921,-9.1282620794,-7529.3384952941,-9320.923813024,0.1092503482,0.6072850423,2075.3851633588,6380.6243861137,18051.0308296565,0.0294705053,-0.1365700124,-3452.2185644798,-16141.1373918215,-1848.9993951269,-2025.0089156873,17948.3301959866,-0.9573321254,10652.9974859971,-19128.1342157152,0.6729629882,0.0242995271,7006.4307036861,-29483.746855783,324.0334447989,-1714.3581348433,-0.8003253763,-0.5243969506,67.4795464971,-694.9698614812,-53.5470856282,-7191.3457099194,-7446.2876188084,447.3705484656,11313.1542094747,-3411.3926863563,4928.9202860442,-7425.3805138184,-1534.1377010682,8.5198441835,2348.0026514939,-4296.8573766141,-16263.5141234263,-8.7582532815,11324.6954236939,706.5899980692,127.4933373747,2495.7948587516,5838.8030108719,13466.6870458833,36.7940052619,147.3255516213,8162.9690603765,-3.4037661365,-1677.1138888519,-8842.5911952217,1702.7388607348,-286.0000557343,-1298.7436030713,-1.48803719,-18463.0872013539,-671.1020867041,153.1729605607,-0.745573465,9394.2400680883,1301.9136441851,1570.5940584421,-457.5113966995,-0.1062151102,49246.5828353932,2212.8135988975,815.6784260278,-2650.3611932957,-0.9074294345,0.2956201315,-139.316029413,1568.9419450021,-18630.1562269923,-1269.315832425,2.6429684247,-5323.3849739258,12004.1761447347,-2746.8227374845,-1.2111923664,-0.1639445866,2.3962262027,-290.5567581843,-1.0299158309,5.9328006046,-11533.4970565918,1728.359764507,-2068.3890264725,0.8831234065,-33097.7000789527,-0.8511787698,6143.7921954242,0.1847847471,-14544.9203413621,-1.9973638889,27983.3351723239,8142.6010406899,-0.5839360151,0.1832160758,-15510.8350887248,3.118352729,260.9261661634,-1.9818311864,1.2029993066,0.5375636025,-9305.7018427072,-1739.643111188,-12326.7494180023,3442.4423884709,-15455.0940541311,-2022.1742336499,1120.6842377154,4033.5212543765,-1260.3127032996,-8864.799523829,-12854.338522562,4529.9719847569,2387.8049863119,-4872.981032868,9802.0548049359,46.7354357345,-3807.6721230487,-5491.7403217891,-9899.3205181771,899.3298061701,1241.2104036062,-3735.6379103618,0.2290349245,-2.6807626337,-7210.2385598449,9821.0404375576,-123.6034374801,-1063.8045741311,126.048148687,-8421.03437972,35360.467327167,-3343.486294725,3740.3975305853,-23185.6748278351,14918.3116211041,1.1136426552,-12.231541391,-0.8141140229,0.8343823549,4901.6729785066,0.761804127,-10937.9918633693,3910.8798598588,-4.9186403406,0.1923414272,-0.4206407486,-13206.9691006766,1.1124559271,0.4874365255,-750.2290839718,18.6101872279,3.5269853038,54457.6816035992,-0.2993142197,2615.0189477874,-1.0135253982,-1.372085337,-37717.7398360952,14406.3466588241,-894.8596959946,3850.9568060841,1.0130601676,-0.8924931926,5771.2156396428,0.2081971197,-423.5827510168,-4278.8489766704,-59905.8705906719,0.1684023025,61190.5209379708,4.4128543782,-370.501189984,-12174.6714492878,-74.8065588368,-4682.8975956297,20817.4637475841,0.4324748929,6.6120111656,-1.5542893214,-1.9219044047,0.7166290369,-6991.0261777514,10472.3496111094,2472.4915785886,4.4086416655,31.6969067417,-4201.7400764017,-7384.0955596328,-2820.3315093701,-8209.4122729957,3113.0098486102,56.0941476751,959.8370955616,-7746.6542260506,8524.5612802407,-8381.1883345791,14.7926640618,-4660.7513358577,6744.3513558723,-11129.5034360149,-70.2633974,8881.7809574862,-5931.0487259653,7389.7694556301,5547.8763670472,1852.5052148751,-4681.5204207582,-5365.2350707191,-6563.1143352058,-2.0186067054,-2948.6678561036,-13800.0433066661,30828.9571551195,7438.6398263972,-2397.1284369063,4791.115484434,1.4916122466,-1455.2316622964,-0.5375472829,-37586.1194244764,-6.0653321495,-0.5855275246,-599.4886493804,23478.2331144176,-29412.6738874881,1082.1500587399,-0.8089659036,2311.9562531001,0.7059976507,-37584.6756047814,32655.7577705451,6197.0564709456,-1527.9045266458,-7161.6785226848,6.3622991503,0.794048038,9036.8581042305,-4797.2754820498,7167.2905399998,-3793.8181271325,3407.6120641265,-2.4913811209,6.4221676545,-5863.3752857547,7758.5850585227,0.4273212311,-10465.6226327502,-10.2551050729,0.4867686795,6563.2791008023,45.2138923308,-0.3588737455,-21037.0831894243,1059.0419187765,-61.2163840878,0.1443611615,-4725.4111344816,1813.8670558536,-0.0701081169,-2472.6990464246,-22996.20307722,0.0296251166,-2338.315356138,4808.3769039999,-2171.8443402896,-604.2494136254,-1605.8528740517,-5636.1598591942,-1875.8252898138,-4184.5063769219,-0.4770412288,-3343.2349755522,-1266.9750340336,11403.1664447693,772.2943274125,-902.6045186927,0.9810360926,734.657030532,-0.6170787362,2120.6328837927,5009.232447703,4484.1864447525,435.2415555304,54.4475984255,-2030.653787619,678.6077139448,-3186.0392948431,-3250.5963028818,-8351.714606307,-726.3560935657,-8943.606416551,7040.514766835,-2684.5750774627,-16108.3771418487,-2.1360131987,-7127.1404879483,-1132.9632493302,-4985.0751121933,4084.5788355257,0.5273910788,0.6254573852,4.2857090001,0.9427639789,-1878.4661482144,6485.402931414,3330.0171729351,2994.8831892231,-0.2553730484,-11224.715188751,-4405.9914407981,0.0691999211,21533.8953308422,-2.2462025789,-36395.0898128155,-6170.5889384514,-3139.8428219896,-1666.7002473095,52827.7543461864,8564.3212523644,-476.7321045848,-2417.3347665312,29862.6630411224,-1082.1940672971,2657.9002695726,7156.8825062645,10978.545093228,-0.3413092976,-98.7590340044,-2034.1131427006,9157.7993755913,-353.2098214008,1.9532719778,1919.4852582724,-3574.2964772614,-15905.9050427465,-2977.5401383764,-0.90917388,-72.909103261,522.3611513387,-3374.3241709795,-2624.0763419824,8411.9940389917,0.2749926158,-2210.5925694473,12369.6168655291,5747.4228053255,-522.2655682912,5481.5170543081,998.6857664617,2588.5200829257,2040.4389480637,4264.0322028558,-2099.5671704145,-1044.7499436403,-9255.8323534848,-449.2192843351,560.2048815507,6489.8538666629,-0.8194697078,1797.981017099,-55.6418113113,1.0430755846,2312.8587767467,-2.8744400734,-10409.3535696981,-4510.8904814383,-2742.5397925085,-2891.6281705618,-86.5445602294,-1571.2481321975,1262.1649782068,6962.3983290281,10102.658131451,219.1597200978,-3785.7838766335,-6003.4430948734,-7636.5771252009,-9.8854220825,-10999.6042859322,-2049.944184532,-0.7308507286,1.0675222908,-2.2283470332,-0.0407905049,-8325.4227941403,-46.2125930168,-0.9072295244,6299.8163694822,0.0802881716,-53.7026085542,-6925.7949419167,0.8287722327,34357.2210378284,3193.5514525557,1427.2550189913,-6361.0567289407,12.2030511405,-11641.0048493358,39655.4059913324,8929.5342874003,0.1159530413,-146.5969895404,245.5578146183,-0.4392227877,20559.7638073299,-477.4896230215,1558.8412948585,0.314980237,5354.1278587515,0.414353484,-0.305518162,7384.5818714203,-0.1635007413,4021.7417272083,3008.1851680923,-6004.1217621103,2612.71860665,-0.5601720675,-0.9159358944,30915.676953052,20041.3595897564,-1.5145450415,-1851.5852881958,-1.171069359,-7104.7679343587,-12628.7580948061,-8572.5450476206,-4387.8523402456,4687.4705297234,-1635.1604910575,3040.5956565324,-23296.9261860424,-2219.6430455034,12532.1491951634,289.3261950718,-2134.7282389907,-10993.7400100971,4729.1637425372,225.8446894047,-1751.7052534858,-0.4181769761,10398.4049404761,-1864.6526673522,8454.8773615833,682.0423558048,15702.4408392082,-5179.7608716506,12004.4822901497,-4400.1963015692,7219.5650695159,7214.6034488897,1998.4288092037,-6558.2342710043,20772.1510138712,0.4960216349,1496.0179898438,1697.0774074086,13917.4299934486,-0.1004759209,19538.8137122442,-2304.4663445629,-2284.8116504481,6853.1374025332,-5006.8607894396,-0.8344334057,1.2864014465,1982.5552710223,35524.6669418737,10.9380898189,0.1022412921,-669.9589814339,-0.1451303992,6854.3221786696,17318.9346910388,0.9424256795,-45423.6639460934,-0.1455018858,-2.3209171082,-5890.3486476346,1.0210836413,16539.207956132,-24824.9008638173,3.3095189261,17.5410562062,-2.2712918158,0.777775538,-2.2416550795,-5920.1436075667,-0.6435224541,-15477.6787387231,7532.6221854027,9926.6000059364,-0.6725337654,0.3762964468,-40914.6013632604,-208.2438142638,0.2374160328,-3.9556669239,27477.979089944,1.0698110467,-29304.6761430515,0.6911469385,3301.5251162554,1847.9996228797,0.0757635927,-7745.6765755388,1364.8487409998,115.1012415167,890.4151425347,-1293.0929119722,-6073.5364882947,60.7038009203,-1399.8224956618,344.0450344954,4426.7613577738,-7384.3353021866,-4884.0500438453,1924.9008818762,6717.3782786713,7203.2553591999,766.6549040681,-1.6064802257,445.9492969701,-12554.4942363409,9050.6989256226,902.5131492183,-11284.7239379919,5176.5997576705,7403.802187306,-2116.1348779113,-5087.7583624855,-5436.6479836104,446.6485907648,3530.4538835069,2753.0710923301,-17323.374423454,0.4615586926,-4338.7398147823,11996.7721926472,-13044.4805393757,-4484.3729690563,662.8702891624,27478.6183610785,-4409.2558200775,1.0059317034,-0.5653142303,10197.4986791681,-14863.9084581132,5623.4371815492,-0.76565072,-0.8251088872,117.9465073814,-1.3046621791,-4409.2251562102,5.6978828204,12393.7429956955,-15174.1027565605,-10451.3452786764,-4877.9071881996,-0.2059428977,4085.4351401998,2046.0485211479,0.7106504674,-7111.9947291813,-2305.3669896499,-0.1257569417,-94.8137893743,1.1747928915,7204.3690031532,-0.0081535765,3635.6796744395,5792.6232071451,-3.3051275069,11673.7874867848,0.5982963566,21.3996962994,12917.9360429026,-20588.0640947808,4.4772192997,-6818.0686513792,-448.5426339358,1.1829334772,-19529.9186060444,0.8666627125,1282.5247166586,-1.0114248362,7465.0296516939,448.9477489935,5682.1976610019,-3700.0070068911,7133.187268042,2398.7818264094,5761.3457052353,2144.3830867725,-8918.6627376205,9641.522242742,1692.887181347,8075.3194436794,12809.0571548968,-0.7421201585,-0.6104399783,-709.8589178169,2514.8745650605,2082.1722691844,-16363.2870365034,15069.3524548254,-4.6042431498,3175.3748814192,-6099.8587647875,-1040.6707829099,-3040.0697725535,-17060.1491753001,-6171.5294373798,9065.1763590405,10284.9014204216,2504.4081987924,37619.8934921644,1221.5438192564,5.3118075805,2342.7547787665,-2.3609676471,248.73104344,-3029.6271678757,-16.0532366721,-5242.2216166147,-13.0742033243,-0.9654816445,-6351.533848057,-0.3669439593,1.0145549448,-4840.5859070304,0.0810824215,37.2900884609,9647.2084879644,-5242.6740551829,-10880.2041442999,16759.3009179345,41800.9157773449,-8092.5001119913,51341.9880153572,-10.5718802672,1506.9020920698,-0.6957083705,-3.8205811834,-13724.8002809754,-0.9741842088,-23816.9835765161,4352.8975498608,-1.0705744698,21.7596734074,-0.6429800206,19661.7082113118,-4417.3450595971,1570.4525342892,115.9901808799,-25506.1514662758,-0.3679766363,20846.8336284795,6390.4456582438,-1201.8132719932,-53.2048046348,81.8187788933,0.7877714067,6.5091625788,-0.7446231088,12243.8485524464,0.3808983906,4697.4563789795,-7344.4988763441,-164.3196608998,-1212.2655854616,-0.2852550126,4379.5357836478,685.2864058493,3772.2058783728,-1600.3494574741,12545.4234013902,7056.7179054931,22571.1481793422,131.9587040028,-4619.7375511371,31.9890959549,-503.0866255927,-2.4081586563,-5119.3703002883,213.922732481,-2901.5476630214,1347.028279512,7470.6807051422,-1292.0558415028,5704.1522820309,4264.0323270345,4946.0715884469,5501.5955561669,-2917.471632501,7345.680271722,-5890.9422984045,-2793.4787263511,-1399.603163711,-4986.9391361581,-3087.8428607069,-2337.2589303345,8804.8589708865,521.3737624868,0.1821211535,-811.7496887388,-0.8308798766,-0.9231095505,56.9484049013,10086.8889758829,1830.2109139075,3207.3192397695,-0.6777779232,1.392917012,8221.8426260354,-812.3844657496,44785.4794249101,-46472.7819014765,1337.8355060732,3556.0377555108,-3368.3421499299,0.4034857414,-0.7959963551,6308.0632434601,1.47828825,-7298.8691405982,0.6692659211,-5474.5136818945,18.1388306416,-676.6508318437,32631.9811348882,-0.2345830552,10707.5104675738,-0.3534278356,-3.5945699525,0.2276637195,0.7941703437,54067.7072032269,408.9650027432,-15150.0979542752,-0.5481520259,0.8236999493,6775.6314115402,-0.7581125137,-4037.0246102161,87.469098153,-2916.4676310041,-0.0417814395,5440.9699061036,5266.8334275954,488.0255963993,756.3626707012,-473.1246627531,-3941.4688358907,-662.299902366,6451.2732722198,-1892.0647198066,905.5491678347,4477.8294221927,506.1537684388,-4.2788292809,14600.2066964856,-1178.4993067253,-10.2860010633,-12579.7053997188,15254.1696935215,1.3119236117,3290.0880313359,15854.9944036974,-1714.9848243248,1454.0261326734,-4802.4228573629,2364.2218946769,3.9910608289,4978.231298487,-3.7695009377,-86.4714772874,-3777.5192941405,-0.0575554619,-9595.1819269175,0.4458390943,23438.6840065252,-7246.9668488155,6020.7689229728,2947.7915104092,-7586.8503335638,-522.8886215184,2315.1385459941,0.0849032039,-0.8275844351,-1270.1978991964,-0.8782095524,10427.9172399084,0.3220638649,-1367.2855515433,-7017.7303061636,-524.6581850287,-840.859668627,-27136.0338476575,-0.7617625796,43980.4845412594,-2.0067605896,-988.627006049,-569.2919479526,16884.9453153625,25256.9141437625,1216.6896710542,-10695.7257165516,-0.8077421063,0.3237261687,-13522.577728317,-87.4060192672,-0.3328476357,-22349.2264287273,36591.1178478904,-14.4256899998,21.5841293176,-1.6487868084,-0.7624885628,-0.1829496305,-33729.4495807458,0.2384746048,0.6385695456,0.3666653729,-3406.8020138908,23730.3649046416,345.2178037267,-2801.0973609438,-0.5788507161,10106.271497298,-5470.0952753715,-11377.3299408604,-6.89098921,-14440.023972787,4512.6107712038,3854.5195672311,-1676.2894567712,-17060.1566339778,1185.3784571572,-7467.7897946303,273.3086521702,2602.8336815098,-800.179473725,11075.3166438099,-2.3598737435,6760.6055865644,2050.1462736979,-6268.6658908158,86.6029177256,-7157.5541152721,-0.2684613987,1270.0482572475,1504.3964451056,321.8428154463,1625.4995928132,10679.7147763218,-3206.0229018385,71.7478755343,6237.4693439633,28207.2488996063,-2234.3685098054,4009.5177052307,8.4164525383,-8426.6601441579,963.8330133926,642.2805414103,-4843.1031818105,19962.6284238702,-5360.6701678125,0.6483120358,0.5215011738,1.6696809182,0.5832599225,0.1980551514,-0.9673769233,-8098.1539098899,0.9653031333,19962.6722126836,-6024.004698701,14295.4985828434,-0.9567795759,163.3151453118,9.9700114827,0.32956779,0.449153687,-32138.6202792964,3694.5456308743,-1.1101754255,0.7312829991,-0.5295360338,53350.3857930118,-1908.8807498166,-13.6191766601,-0.3187392631,-4755.595130524,-0.0670025536,9766.7520838949,-0.7994629399,-13822.8585048474,-0.7172940995,0.9019110334,-13782.1362222387,0.0580867759,-63.3242755829,0.1336960558,-0.6600746156,8953.0275299755,-0.1059650618,-0.2537406878,-0.4671496735,1410.0243277802,-67.2643024709,6258.6955219552,9065.6878723868,1382.7496225382,-4.6343077027,2417.7181818689,-5025.0739669651,9995.8731763584,-8739.3151283792,7325.1014947405,-4957.3616148615,-5690.9698759485,1343.3691709948,8958.665535197,0.6691665452,-5935.1612779377,-2028.543680452,3963.4594097062,-997.202607065,1124.5331747267,-9945.0098850414,7506.6135506873,4308.173927632,-1057.9370933493,1285.693146619,-2839.1650783529,-4.4622922103,-3602.119583354,-1970.1366198833,-4449.3050173171,3.5493826979,-4014.6159149172,3185.6432850854,-2229.1927075814,-3408.5501853981,5.8377076062,0.2386949783,0.3320093674,0.9369460648,-0.2068030495,11792.0115929303,-0.8428240277,-0.5341355633,16.5919312313,-0.568657322,0.4478702687,1762.2955973839,0.2034154037,-21317.4147519777,930.2518099142,386.6885239119,-1.5831546903,1.419190254,-22.78313674,-0.6898961399,-24405.849522034,6748.1726621083,0.4334334264,-0.4438958357,0.3999705357,788.2837165187,4375.6829850767,-91.5214778343,-0.8638555416,24678.3300576926,-3516.8628189644,5341.2705340108,1889.3276530683,1.0496458584,4745.2310946136,-1.054019328,9287.9426695999,489.6480052798,-0.0887685008,-38.2134221848,0.9278612165,-249.2867722844,-1.981918169,-3.1723962192,-0.0342844837,-7848.7365558862,5712.3526483603,-20967.2367200515,-0.7760324461,-9767.9893761065,-9451.3644299911,-19.2555269236,1.1462743592,7038.0104509555,3599.1676159082,-466.4409036347,20958.4426077571,-380.7623031378,0.8129938325,-4674.9635284818,2725.0882064328,-9241.9697570107,5860.6058575684,-2420.8445033816,-5693.7087950687,536.211369321,1950.8542484492,2.5751700723,3392.4644498768,-2731.9566344187,11456.331866365,56.2920035347,-15673.0601067746,-3542.1427709496,-6672.5474263285,-7046.5916253774,-2208.6920181886,-1776.5559093585,-2842.8561270485,-13440.9019784275,873.4624839402,-4467.8908722433,1365.106528596,4.125098528,-3699.2179054454,0.7160634427,512.0319053208,-0.0661864171,-8768.8516119178,-1609.6289048733,-0.9345647723,0.7163019194,8395.2252706203,3.24644543,-187.8062869495,15.2668343766,51784.0169911534,-644.9194194156,0.866545271,5387.0924128184,0.8470475965,-2968.5458536323,14194.6690576947,27318.4544871092,1.915533552,-761.4315892981,-11738.0420283271,0.9769962837,33093.330603684,0.5221239359,-29770.6883381325,-43559.2260764747,4.5306791662,18943.316956249,-7657.643907526,15497.7481366404,-2.4481692452,5561.9479529392,4860.3925067392,0.2433389757,0.7606781091,-0.5402918875,-23997.3099315334,2468.3268116071,1350.3990249715,0.3716942298,2243.5224533707,-857.1197364191,11945.2858037934,-5265.2788385757,-15334.2908381484,5068.2761275873,-4746.5526251662,-4332.2287481852,113.5276527074,5985.9236063581,-3344.6754640703,-4541.1202186014,-5236.7899771594,1226.3788367902,2040.6401163175,-1547.6604441594,3.8131150791,31.4724243054,8433.5949648981,2576.4320743303,8033.4009128272,6158.3725151089,21.1940207527,-3.7947841268,-512.246488982,-41.9228611238,-1486.5144081908,-706.6318914532,16983.8647705916,2731.0689624759,-8718.7135567101,5144.2077202668,-2863.1127859806,54.5349494937,13035.2104497949,1.3302353297,-2926.2398406856,-1.0330714212,-3489.4055893411,-2.1459109131,0.1091412539,0.8604367811,-0.95217419,-8846.5973410371,-4160.7027674033,-0.843209803,33.5819851033,58521.5533727733,-3489.4466137799,-1127.7956006541,-2948.9392212121,48302.9428938304,-11115.6356789177,616.5883212318,0.4063588874,-16649.1407540506,-0.1450360592,10000.9801953739,13053.5413384918,1296.4728182851,-0.4446173532,-7480.8242249993,-3363.922442011,44371.5809530976,0.2096520728,7004.5844340822,0.1985489674,5212.5058685013,9536.8418708878,44699.0183192159,-4279.1666566303,1551.1582338849,8560.4481417287,4479.2573797442,-4.0152086002,-0.0935835064,-4938.5355683289,-8369.2981876998,-317.5031333093,-3526.0438738944,0.1217700079,9981.9172047746,-4915.4002554183,6978.529973695,6548.0431456169,6278.680481968,11795.4416781301,22.0738197592,-5961.6565620589,499.6785526119,2697.9770868253,16139.1802204609,-14970.8208304289,10866.0252729818,-2340.872883559,7881.6876281512,-12280.1505391143,8373.6031840078,-2830.5447745845,-5074.457878455,16530.4811148454,6100.4687032078,-10028.3745376929,-5108.4287270283,13.6972411342,42.9306861842,-4143.7802766937,-2816.3662349569,14.6416353485,614.6105827704,13990.0395959467,4.1855428157,31740.8740935595,2149.2832341296,31080.8363781036,0.8323562297,-876.3117916005,-8269.9660534798,5237.2712862459,44833.4863352111,-0.5080580668,-0.4409775699,-3383.141844349,13040.249085904,-32872.8428398581,-0.6611054743,0.4476943928,38165.1164904684,860.2508472205,44832.0121054377,-10398.5891987496,-18746.0916338292,-2023.991437098,1.1745980634,8.208388179,-8729.7024036927,-3814.4853190994,-4699.0042750804,0.7661306344,0.5066950178,0.6398572471,-6766.4824241814,4216.6145621608,-1143.0574721636,7398.5394861661,0.0761267226,894.5380690859,8100.1673158078,-0.6787734323,-1105.3259156135,-0.665628129,-467.3258806216,-0.3388508658,52540.0676265524,-1086.1717610607,-22535.4971316558,10017.8081339467,-3548.3538389424,17229.2249190347,-1.0687358341,4591.5460632857,-0.0064863789,-2420.6000438728,10265.82129257,4974.1833136148,1846.8960067606,-2436.1076849916,-9363.3144068326,-1435.9552490147,4136.0767347765,7552.3667165142,11944.9815769434,-9365.7626821226,12258.8310179233,2498.940920447,3941.2372479698,14.6625922247,1540.3923314566,4700.2299256596,1725.8135812891,17757.4670657555,-225.8382017929,-11836.1857011057,-611.9935254012,-3885.0957470721,-6999.9430364125,6314.9697663169,3420.9625561298,-235.6483072738,5738.4611687786,9612.8602982467,-2031.4787139883,-5877.8243469104,5253.1170321514,3420.5947666422,4243.8338585455,-0.0393230875,7512.444590885,-0.1903776009,-18582.9490169631,-8388.9121793851,9.5409242622,-0.0574543535,-0.2371455153,0.7535605156,-5436.2716398376,1.1835573781,-0.1364362502,0.3065593494,23176.9169773352,-8389.0285861759,-1124.8620803404,-37722.8715833414,-6961.4723492746,-0.8347781719,-3449.8291407261,-230.0784746293,12.436021053,8166.798917425,3756.0980443382,-1.2288580246,392.0865978328,0.906388451,0.9609301317,-2610.0079286573,2681.9846870049,-0.7103453604,26637.1279029805,3181.9769305571,41.9169665123,1559.7690614959,7684.5686360207,-4.6117174982,-0.4508250456,-11234.0517980728,-0.9282117917,0.4866653909,1447.9028071255,-16278.8139953369,-27016.0827367987,0.2903307386,-0.9175625172,0.9177959292,4553.4383076782,1296.3891065516,-230.3101461668,-6367.21209305,-2772.776300515,-3587.9464370019,-1945.8814572338,-1988.991602824,727.0922991729,-4478.212252828,210.9630554221,3270.9176893233,-263.4834207427,-3566.1088823765,-2332.205330566,-2075.6406692639,30.7847975787,6368.725963535,5228.2402863316,-10622.8616108611,-5394.8742649642,-10164.3508387694,6810.4189257501,2366.0918105649,-2522.0351354339,5742.2412435691,-14046.3525669147,21.751573528,1566.5477168687,-6885.5435272255,45610.2295673423,8786.3986455366,5606.6874046413,-75.1255078093,-0.2946328402,185.5264089254,-3717.1485872446,-8.7875891656,439.9042012006,0.448388713,0.0088267966,-16825.8580960054,9105.1463536224,-50.7130109507,0.6099843972,-0.7683267123,-69.398905562,-1.0520300461,439.4759297566,-635.3778599247,-16241.2975681778,-7675.4832419181,-3622.2683614369,41.4490494935,-13.4645015843,-5.7502769898,-50793.7831533393,3323.2770881275,-0.0727143465,3152.2613386583,0.9234130909,-10.0194941126,-1.0522472801,-57877.4656909556,-0.3248269676,-2139.7234576285,-2.5521380875,0.4714744549,-24.786115021,-0.0819318345,0.6599702647,15711.8498747318,-335.9001860174,-62.9249444568,1197.5215849858,1756.5341611965,1.0339071305,2227.2955098558,-19740.3152847301,6200.0593585533,0.0584247017,2790.2484444955,806.6209182905,-3516.6225559403,3737.2631972854,9550.8693068539,-2795.0169900913,0.5034538252,665.0994315746,-3837.160248577,-9551.0401321589,-2.6017575898,-11505.2048052564,-455.1497898256,12.162146648,-181.4637063619,1669.5745359697,-58.007074286,10617.4734830172,98.5423271844,-5723.2295047549,1282.2166349488,1296.142751927,-877.3963541993,-10422.2578653757,-5798.8372701136,-5887.8663998175,-6013.2345640547,-1212.4955747952,-3841.8815313712,7037.6382234377,14701.3266873909,13814.0522637494,-6716.524993916,-17438.4171570316,-1516.2098432259,3392.8449302151,6708.1664891912,-8775.4538505509,39043.1539722506,6800.3475948912,-0.6043637587,0.6522247164,9886.1569758113,-5850.7268976848,1914.9826533727,0.7595143423,-1382.6382409241,-18482.2936219699,39043.5045034378,-20272.4323085942,-1.9851390847,-4619.1700424694,6922.8671868488,23785.5041307413,-16920.6212345466,44733.6718266809,55497.5148460041,-332.7596393449,67.9848923126,-0.2788431637,-0.2544678981,1928.9170688854,-927.4068784031,0.1977613233,-0.1865431955,6993.3732943731,-1824.9633886079,-7052.0613846419,-0.8215031425,-9755.4794423856,11812.987446806,5370.1995646148,2259.0397033104,-26193.1041391299,-0.7070165912,13248.8601230664,-2192.0026156268,-605.3737099626,-3009.1211553592,4612.3383193303,0.2966500219,-2719.0698357569,-9467.2605822476,3383.4217597886,-3529.3682345479,5795.9473149678,2825.0219143463,1367.8192482724,13.9759826953,6054.8807470403,5989.8305735553,1.2361488654,-0.0140773823,10587.1679143318,-777.110469233,141.7355067414,12.6127904457,-3821.171087039,614.6957191611,-6478.8928400479,8629.5542907477,-611.8595038628,4811.4549349175,8975.0434034012,8812.0504635117,3225.7036102405,-10901.6318351261,12807.9088698171,-811.3148017872,-414.4771140076,31140.1662484468,20942.3839634852,-4195.1420007892,15752.3583018526,-34073.8915621591,497.0033521703,0.1581472146,-5961.2782941654,-1.0150069003,-2651.9563280295,-16392.1439483925,-0.9668026792,-2379.3073312286,3811.8534101135,27765.4810705988,-0.2099256927,0.9890572997,-1.4005919605,-314.5816038544,-2652.1413261669,1856.3413545566,10331.89025569,-112.2223905944,3.6001367448,0.6571277865,3.4663676399,-4220.7463558371,0.3892142824,-56976.3385962467,453.8490413533,-0.7029680225,2428.6718760367,-796.9542889115,0.8967037725,-2.3498739557,0.2289547721,-1515.340800851,-9206.4863698949,0.4416330215,0.8344257292,-6.2723062214,0.0464345441,0.0950085434,-853.4334762516,0.1963576751,745.6712417252,5907.3890348618,20577.3409134689,901.3753868458,-9.5359953091,-2683.9230937389,-0.2141726549,-1.0667727413,5434.7490109298,20566.1362105285,1084.9842823506,-13511.3631525356,-2757.8314755203,4529.7734404295,1214.4057619925,10120.786433225,-6051.9190992562,-592.5478834791,-5185.2606590514,11449.8203910635,4859.5708106112,-325.6472655272,-6331.6435704998,7165.0932298027,-1708.6976371239,-6103.2616282352,4441.576564793,-3743.6060856696,-3107.3433396099,-5464.7030283126,-1391.0936166357,8.7293674942,-4302.95877909,4181.6827295239,1086.6617125514,26.9980169564,-7387.1825663298,-0.0504076425,-26.9733905744,32.5128078441,-269.1051232705,4577.9092558109,0.8793350913,0.2290312328,0.088488175,-988.6638207564,-1010.2933919284,-0.7056095295,15128.1611659686,646.1874210657,-40315.1881094856,0.9818365219,-0.9851187374,266.3385168356,-1.4724407693,-987.2204811464,-1851.6406663515,-0.3963398614,-0.0555688417,3008.2917075167,666.214680284,-0.5442700484,-0.3860954214,-1105.3497183547,0.3909878893,13050.326961607,25.1332748504,16.3186046262,1026.047078729,-8910.166407759,-0.8051303397,0.7272904168,2467.4090971897,-1.4261654677,5724.5807291248,0.0045408791,-3122.557014886,-72.6062898261,1647.5260231562,4173.9806212871,-0.2342582658,-0.2677000207,-607.061745348,-0.1151159318,53657.5270704477,-1226.1490709021,-12325.9654863406,0.1248063008,-5529.1375158354,-6637.829750764,2086.7710461114,-6766.3242423094,3821.7141157765,92.6480116891,18.3348978744,-10154.7076417772,863.4955273511,12883.7146042478,3.9499476135,-2897.6063597455,-692.0717634155,4282.7107972096,6309.6952180063,1.2291939113,1014.817737718,-3891.5518371755,-4.0636134515,-2289.6368276403,5892.2261058632,3817.5707468877,-201.6810644594,-3637.1039420687,97.8046534478,1839.7708331889,-6593.4220565014,175.3801504045,27.0560820369,-1060.4017720266,15.9798685564,5412.5017910173,-1320.6212820601,-183.7507687021,0.8853557862,-6315.6864943239,-3271.360614552,-1.0628583119,3204.4743382356,-2328.5299200463,0.7727563527,-176.8951541101,-7482.7620403409,-14453.182692591,-2554.5359301189,-0.3888497836,0.1769423147,10.8067525635,3204.8503142683,4.3561309411,-8789.8117176353,-1918.2782656072,-737.4922261647,-5025.0523458288,390.7763379274,6184.2922471818,7879.8665202978,22792.9390659082,-1386.070983058,-2.3287334573,-0.8380002742,782.6963984368,1387.3306008406,-2939.546193799,-0.9193545042,16836.7414386316,-5454.9202003434,-3373.1549328863,12656.059608533,44453.8216889498,0.7686322234,0.462095803,-1.0469635017,74.0583074106,-6.6299772678,-0.2859401688,0.0384797063,-14244.1915194724,30640.7195689319,-667.9503536694,-0.5928798353,-11.0283701349,-4843.2006392602,83.603955796,-15426.538412184,231.7910538362,-3.0336271803,-6698.8229699948,167.7122062051,-1120.2932384483,2604.1070649598,73.3774073748,6.1929465428,3056.6786293025,3905.3982845867,11198.0849461887,-8596.0832031578,5456.1831423697,-5656.2865568224,12610.9272497063,9467.07102336,3811.2868364446,-1.3770753578,-184.5842878424,1.5455709858,-6405.9404172111,7663.448070976,-9675.3760360291,482.4289759555,3726.5894875296,-6971.7149936725,-2486.9987997964,-2841.9519156291,5868.7981749797,-20603.7256431629,1.1387112371,-1975.4657533362,-3570.7068676571,972.1101825797,-17238.2388279351,3.0456060537,0.6653031848,2008.5947340607,0.9239351946,-0.4509377876,0.3765379878,0.7834200416,-0.1404967133,-29.3155909231,-17238.117696371,-138.5489018096,3282.1916464945,25116.3909940779,2081.0769462563,-1.1614249707,45978.773451051,-1.2452758315,-4459.8139878677,-1683.753994285,-11.9735039132,-2.0852112908,-0.0411366756,-4454.067900086,-0.2745653402,-3578.3525178213,0.6830309972,-22068.259358927,-3809.5888980721,-27566.1206304162,0.2232833591,-12087.1255294345,0.4775262673,-5324.8207336711,28953.5756191738,3453.1879108472,4816.8560114118,-2.7995571819,-10.2546877721,31591.2507308514,0.5823463707,0.4472346336,-0.6474548037,2.7177617235,958.9509829353,-3729.3872642468,-8380.4270736717,-334.395630442,430.9661850461,2367.6332239148,-6155.3526696256,17873.4011461432,2.5291976786,855.9260983655,-2414.8602300871,3597.966515538,581.7537505009,6.0580706814,-2756.9501350504,601.5874377135,5387.1658007195,11565.4259991741,-11508.2503224915,2294.4546781228,-17565.651821989,1582.8221705678,11378.181791957,3141.9886232448,17076.1483286808,-5396.1207492457,10592.6242396925,1826.9260007999,2563.1191678649,-4408.7243760872,232.820142892,2479.5424484014,5593.6874817637,-367.66592358,-3784.3530125461,1049.0823956068,-0.1545115627,-48779.9048395364,-15.5624369992,-0.6168881099,12992.4428130134,-45908.5878529278,13.1184821801,0.4349903189,0.3561098368,20312.5761214671,5646.5677974849,-48781.6789798261,-3705.668980869,21594.7341418735,701.8905156921,-5045.3617814968,1155.0486249929,108.6576725705,-304.1582417574,-1.7437936165,-2.1093650376,-1354.3041604688,-0.5492942172,-8.9616480617,-0.6385875003,-1.4051778379,0.3458260914,-0.0741836136,757.1699015504,-129.5743016817,-1095.1377150323,0.7210282664,-25369.554806599,12023.478095856,37732.5156008898,58898.64033151,10591.1866210281,-0.6015510197,-0.4684009925,2795.5367143283,-305.3222807551,14.9000523609,-25472.5479891959,-0.5136140964,-5278.4603488422,2455.033803757,2401.043556346,-7.5324819716,-9828.006110343,-5691.3704149885,0.299159354,8925.8926294544,6.5001234402,-15908.4049340134,-29.4027865164,-696.4660254352,-3347.4678502442,11228.5841245869,-524.6614061766,-4710.6924841263,5986.7499815068,8.191592133,2183.7474942935,-1087.1552109326,1036.3825107724,625.7996810072,308.142910315,-10085.8446284919,-2689.3370261106,5900.1742292063,4685.1808803879,-100.5434561099,-2972.4822393562,724.4306626734
##end
biasActivation=0,1,1
[BASIC:ACTIVATION]
"org.encog.engine.network.activation.ActivationLinear"
"org.encog.engine.network.activation.ActivationLOG"
"org.encog.engine.network.activation.ActivationLOG"
