encog,BasicNetwork,java,3.3.0,1,1425320200407
[BASIC]
[BASIC:PARAMS]
[BASIC:NETWORK]
beginTraining=0
connectionLimit=0
contextTargetOffset=0,38,0
contextTargetSize=0,14,0
endTraining=2
hasContext=t
inputCount=11
layerCounts=11,15,26
layerFeedCounts=11,14,11
layerContextCount=0,0,14
layerIndex=0,11,26
output=0.0295139566,0.000033028,0.3040316032,0.1307902202,0.0000195221,-0.2847632249,-0.5044875425,0.6597763912,1.1309043459,1.8048765626,-1.0272333229,-9.7385771129,-13.8143271973,-13.6574151125,12.9945643508,-12.9446788099,8.1030761137,-9.9684420486,-12.8045141396,-13.1903094419,12.9880359614,-13.2837688032,13.6676983642,12.2769335671,12.8228203885,1,1,0,0,0,0,0,0,0,0,0,1,1,0.0295139566,0.000033028,0.3040316032,0.1307902202,0.0000195221,-0.2847632249,-0.5044875425,0.6597763912,1.1309043459,1.8048765626,-1.0272333229,-9.7385771129,-13.8143271973,-13.6574151125
outputCount=11
weightIndex=0,165,529
weights=-0.0111304383,-0.0066462154,0.0214327901,-0.0076354618,0.0079628505,0.0114678554,0.0088082349,-0.018546591,-0.0042519241,0.0200759838,-0.0127016294,-0.0236753473,-0.0316659786,-0.0014145834,0.3266485394,0.0000006126,-0.0000010583,0.0000015079,-0.0000005726,0.0000007853,-0.0000002712,-0.0000015807,-0.0000028779,-0.0000000764,-0.0000006716,0.0000009138,-0.0000007264,0.0000005743,0.0000026891,0.0000004139,-0.0145085437,0.0014692483,0.0165724576,0.0088987899,-0.0132718157,0.0061775494,-0.002829372,0.0002993612,0.0117877092,-0.0233004373,-0.0083926192,-0.0015140357,0.0252266459,-0.0023257202,0.1349435979,0.000771071,0.0233963045,-0.0304991531,-0.0004880459,0.0038195642,0.0048268767,0.0043797559,-0.0078359986,0.007678978,0.0157539254,-0.0064884944,-0.0129819854,-0.0185760373,0.0006793137,0.2122233858,-0.0000000948,-0.0000007924,-0.0000016976,-0.0000005443,0.0000016761,0.0000008315,-0.0000000808,0.0000014643,-0.0000010474,0.0000011496,-0.0000022165,-0.0000014629,-0.000000483,-0.0000009652,0.0000045537,0.0001961587,0.0126893763,-0.0048740682,0.0098052389,-0.0094221121,0.0228380011,0.0002843704,0.0000672416,0.0020108398,0.0019578146,0.0110952551,0.0024918275,0.0007913418,-0.0390286361,0.0002983759,0.021298203,0.0158208704,-0.0355238134,-0.014021649,-0.0113715906,-0.0342637723,0.016501121,0.0190403515,0.0110772747,0.0022788227,0.0134321764,0.0110774523,-0.0045558319,0.0034903197,0.311974173,-0.0050785423,0.0155533799,0.0360656999,-0.0054663494,0.0186391198,0.0070763671,0.0017448286,-0.0041366009,-0.0383003451,0.000197391,-0.035573289,0.0014978921,0.0420745288,-0.0027821066,0.0554893401,-0.0023782591,-0.0126727354,-0.0060828525,0.0140681807,-0.0312635688,0.0090886185,-0.0182212278,0.0104513295,-0.0097406825,-0.0054166503,0.0143241279,0.0167179477,-0.0157442527,0.0051789337,0.1711707471,-0.0049438985,-0.035878888,0.0352568226,0.0212098695,0.0041507288,0.0439506534,-0.0234481606,0.0076746355,-0.0137224027,0.006889235,-0.0272641572,-0.0005838019,0.0066150001,0.0009637124,0.3108727564,0.0014198104,0.0087456676,-0.0410285791,0.0012899631,0.0398647749,-0.0376689478,0.0141901408,0.0089907827,0.0390828367,-0.0199008775,0.0456419705,-0.0047084116,0.0132697265,0.0328990645,0.468017749,16015.6372629303,0.6605648204,-296218.5708058958,-257465.6641019233,-0.6616299715,-414378.738614287,385932.2919212109,-58041.4233496516,-41609.071096069,134438.0845406106,11256.4187518847,-28333.1097584249,-18636.3182494296,3415.066104641,-634.2566856198,39709.8627189199,-27355.3479634682,86907.01796998,-49271.6123396884,33988.2353463787,-116785.8827929197,31010.2535855422,1308.4659628012,-31587.1982319333,-34784.7502451087,-7004.3575181798,212175.7928855832,-0.1089662478,95459.4117353979,81057.5312901294,-0.6060698399,75224.6160886738,-26218.229935021,-57560.825683449,-324559.2763880818,-135522.7451396432,-268898.7700847696,13587.2420449724,-30905.9523355163,24858.9758888689,-5468.8919071029,-37842.2151772721,-31453.8240233043,-15109.8783335527,-85407.0716333576,19766.6837774933,-5559.0957659864,-19584.6753149399,6543.285983779,18046.2211109735,-40796.2643909203,-21279.1415110606,-177607.6267863235,0.3210167307,103979.6739350107,27243.7706816101,-0.1518691723,57918.7506200174,-205903.8524042898,189103.2843383949,-141370.8760395269,-46001.6948614439,107584.0267968801,-476.9630229254,-95484.324041253,-855.6706245632,30565.9857241611,57508.9299371934,11317.4060328935,-1391.9993536694,-18703.7311823529,-78243.2291795652,-9904.079635547,55158.9611056952,-36941.9621497216,15494.9694244856,-3624.3922965366,-31578.4268862379,-63.4084145933,0.1336210468,-131257.9509826944,-377715.9294636672,0.823965064,317249.0612530764,-53612.829500174,118408.6322789658,89143.7676822742,-7878.9258596289,40284.0752482166,-19887.506687408,55651.5725908032,-6643.8704098973,-44189.4444119333,-23772.8827107652,615.148624294,29786.5572322413,50253.8691764516,-29916.9205154968,-23508.020294916,-31173.0383351192,44683.0474912804,5708.4533863511,29886.6438306309,4835.5398383835,135445.1499883625,0.7122675435,216965.9959976353,327260.9590563854,-0.1211834502,-268918.338722971,40674.1911728242,-119755.4468398747,-294910.6461435826,-32597.1112186595,-189148.8220716521,-2284.1904518692,-64899.8291237402,6285.8885313743,48690.1558841196,456.0535361048,48013.3816964612,-3670.4495777111,29725.1299098894,3347.1273795008,25736.6411042312,-44778.7495290668,-21346.5875489276,11010.9381118537,28760.608741708,-33599.8711185028,-126171.8907289409,0.9203358168,-258056.2494811913,101383.2031778012,0.7707115766,96591.2829003637,-153051.3694773608,60597.2696389956,-42056.1821710968,172919.6854841487,193167.5590678024,-18413.1079071842,-16331.3682667715,-1465.6111757843,-25612.9825653781,-21057.665408508,-68407.5638776197,-5932.405723421,115222.6312238341,-1871.4210989044,-27662.4152564231,6660.4352936719,50898.0569645872,1291.5124257807,-17565.4222278117,4095.4242706218,698.5182289449,-0.9263518492,255179.4636262928,59153.3927111372,0.0043554012,-488.6446938554,-30577.8136742016,104368.1707201862,-270867.8738100332,-101193.6634247271,18444.03423853,-8729.2277002193,24036.5876840032,-27062.6833877564,-15293.7143891634,32394.4020967343,49071.7950286091,-4898.1920817673,-1450.2121228598,37815.3120062203,1711.1342850749,-54891.3370034944,13286.7591605923,-4057.3194441403,-8880.5754626586,-3994.628608706,25191.6872308943,-0.387512384,270473.1855929338,-178537.1343525966,-0.611407873,-423833.3173630065,364575.2132786147,-182373.8124031129,-128729.2386638654,-50905.4543908391,-88571.6133415394,12886.3039969435,21708.2610647374,22033.3374599466,37630.879868251,33450.2863621354,-21040.281249747,84633.701551824,-95377.9718922362,95202.8021479627,-59959.3527188203,1061.0980242464,-61000.6038150861,8466.0590441231,1514.7679172961,-9576.2615478284,162345.7691803825,-0.8500883786,252586.0992765644,-154730.1933397467,0.4582910663,-496440.8615246597,165636.3682481631,-402474.8507861801,67096.3118288385,191430.7412419382,-211047.6104964637,8382.0243046662,-46661.4415082207,16559.736364902,-62732.8242799795,-8239.4481790253,56568.7354323373,-39647.3010450867,-54578.8702998876,162602.4784346643,63473.3879907815,21513.1232217311,-29781.6298661237,14340.1133340331,-14694.5053693517,455.8871981892,248105.8830963927,0.0340509976,122027.5786909473,195509.8028305116,0.3909075836,64219.4947487472,-70408.3629375519,-97995.3165506698,-607543.7669002301,42477.2628650522,74523.0352994493,-25047.7282306528,-36050.0809502586,-72113.4649124828,76927.0078470928,-27962.7378546729,-69595.657566676,-34918.6903725376,20901.9615319577,-8300.5760304116,2312.883206158,-66679.5459691518,33107.7071849544,-7226.9010728569,-1250.0364801866,-127.8755089276,-38871.2962193842,0.9464126769,16466.798017163,156136.8615452872,0.8846961536,-59953.5849753093,-117039.0294452923,-129503.9140705354,275737.3443301291,-4262.1595898314,38702.3317286123,6838.5488906478,-35349.905324878,19704.3186656733,9133.5025248514,65592.6772023664,-17321.2708042717,-998.0785819722,17624.7115229609,44266.8316514866,11621.8516551776,10654.6893363918,-57128.2329534195,2179.4517879262,-10855.2331302066,-26409.9657849714,150466.5916877079,0.9979001943,-75252.851614505,-152840.7043964281,-0.4647686205,180505.9217918569,244544.08450691,30719.1722461461,-442224.9954403142,-206314.0897283833,70579.4424651766,-25466.102707107,48354.548257216,-28915.4856579317,60834.6701062942,123492.5258058426,-43844.9630002487,-5853.3398429914,-74345.0924345885,-51632.4963808178,-240463.3841542352,-46498.4313970193,23259.1449583595,-10695.0013696375,6076.2451671312,23480.1278145897,24550.1257058832,-0.7006411983,-264984.381903899,-306535.3448602474,-0.4502829746,460798.2878777354,-98753.1474818014,157172.5884133789,161569.1160695358,-102800.4493699493,209800.6265347438,-24964.2981478471,98500.5419877199,-33773.8738156802,-4613.8043852415,-48590.4504574272,-11831.6013136646,-17168.1399826948,77786.5466009431,-64060.4846935766,85602.7944153068,-46194.1318370316,60646.9765060698,3133.7127912253,-12161.2183249253,-1925.2978611139,298361.3747417958,-0.8454231955,-281708.8648338285,-584900.3115069763,-0.1338799691,343434.63316176,141724.2355398623,61731.6008993541,-300024.9475089908,-108260.3369013464,64183.6526477257,-14822.5180912719,69323.3553848669,-47139.2143677819,40748.1356907535,79214.9177560326,-63886.652680502,152118.0965250019,35352.890800799,-131707.6903577505,-118356.1768303046,-55292.7677847807,142938.9739679864,-8579.3600361868,-4196.847779593,-32110.3307106735
biasActivation=0,1,1
[BASIC:ACTIVATION]
"org.encog.engine.network.activation.ActivationLinear"
"org.encog.engine.network.activation.ActivationLOG"
"org.encog.engine.network.activation.ActivationLOG"
