encog,BasicNetwork,java,3.3.0,1,1425328207912
[BASIC]
[BASIC:PARAMS]
[BASIC:NETWORK]
beginTraining=0
connectionLimit=0
contextTargetOffset=0,132,0
contextTargetSize=0,30,0
endTraining=2
hasContext=t
inputCount=50
layerCounts=50,31,81
layerFeedCounts=50,30,50
layerContextCount=0,0,30
layerIndex=0,50,81
output=-0.1354446614,-0.2948722055,0.0837953568,0.2458544057,0.382795319,-0.199783388,0.3726135069,-0.1298990801,-0.2770347757,0.3955302781,0.0001462888,0.1857502617,-0.0478107396,0.5153826588,0.0077361686,-0.0000523016,-0.7561186667,-0.1119033852,-0.2540939474,0.2627404014,-0.3218735869,0.2644050252,0.2025012022,0.0307437976,0.5638506432,0.0683082779,-0.0450318887,0.5200931419,0.3618575177,0.5275807622,-0.1991028964,0.3109659882,0.3306129938,0.0336703585,-0.0002905812,-0.136132001,0.4997565417,0.0428466968,0.1206438998,0.1764209076,0.4198080425,-0.0934872961,0.0149721564,0.0571053299,-0.1655564044,0.3359715688,0.5640524767,0.1610242021,0.3782356117,-0.2021470865,9.3527085339,-9.8034064323,-8.4608279753,-8.2098454623,9.8305651579,-9.6050216788,9.8717995267,8.1847431721,8.153885971,-8.5178747641,-8.884166941,8.8942399503,9.7626742884,-7.8402339694,10.2861539216,9.7154247972,6.610174675,-10.1271097205,-9.7944802947,9.5454915786,-8.4751994086,-9.1456630174,-9.6387328917,-8.5804722039,-10.3797178224,-9.3042453381,10.792962146,10.0289321352,9.5781787479,-10.1398512348,1,0,0,1,0,0,0,0,0,0,0,0,0,0,0,0,0,0,0,0,0,0,0,0,0,1,0,0,1,0,0,0,0,0,1,0,0,0,0,0,0,0,0,0,0,0,0,0,0,0,1,1,-0.1354446614,-0.2948722055,0.0837953568,0.2458544057,0.382795319,-0.199783388,0.3726135069,-0.1298990801,-0.2770347757,0.3955302781,0.0001462888,0.1857502617,-0.0478107396,0.5153826588,0.0077361686,-0.0000523016,-0.7561186667,-0.1119033852,-0.2540939474,0.2627404014,-0.3218735869,0.2644050252,0.2025012022,0.0307437976,0.5638506432,0.0683082779,-0.0450318887,0.5200931419,0.3618575177,0.5275807622
outputCount=50
weightIndex=0,1550,3980
weights=##0
##double#3980
   0.0010021836,-0.0054687958,-0.0004361357,0.0020315979,0.0021317416,0.0013030196,-0.0012161296,-0.0028619962,0.0005149227,-0.0012149887,0.0046028378,-0.0017695695,0.0070792847,0.0064083266,-0.0055415962,0.0036343783,-0.001244084,-0.0006775554,0.0017962835,-0.0005996823,-0.0027805755,-0.0036113429,0.0006526497,-0.0023830275,0.000525758,0.0040367212,-0.004923741,-0.0036369306,-0.0023892531,0.0013056691,0.009138785,-0.00473725,-0.0008491576,-0.0046167974,0.003849753,-0.0002037953,-0.001085239,-0.0066435944,-0.0000477962,0.0002664861,-0.0117859904,-0.0020162629,-0.0137102064,-0.0050274679,0.0023237168,-0.0019190877,-0.0059425329,0.0059346587,0.0046613382,0.0057078359,-0.0070186867,-0.0051646391,0.000028639,0.0097444834,0.0053934188,0.0017894566,-0.004872658,-0.0022868387,-0.0039547899,0.0055859857,0.0105640826,0.2562155449,0.0020733953,0.0030080178,0.0007433281,-0.0041992848,-0.0029598183,-0.0006561077,0.0071009708,-0.0064187997,-0.0044573456,-0.0030157831,0.0022539705,-0.0063297369,0.0061250504,-0.0031058874,-0.0006408319,-0.002285128,0.0029708333,-0.0099299978,0.0047689583,0.005870652,-0.0013166864,0.0029216139,-0.0041418524,-0.0053043769,0.0118034826,-0.003817313,-0.0134279464,-0.0066222908,0.0030760814,0.0081317233,0.2544906208,-0.004305073,0.0024746439,-0.0105388225,-0.0003672761,0.0011757184,0.0067424593,-0.0094955686,0.0041294539,-0.0013224304,-0.0034418948,0.0033721402,0.0045831046,0.0003510955,0.0033740745,-0.001485528,-0.001466344,-0.006223014,-0.0016767521,-0.0052066759,0.0026247901,-0.0099462496,-0.0024545534,-0.0091027997,-0.0067862416,-0.000137461,-0.0074365503,0.0016135683,-0.0046538367,0.0032646758,-0.000975508,-0.0325797485,-0.0026055308,-0.0032797685,-0.0016456852,-0.0013463915,0.0121025401,0.0031059418,0.0137602007,-0.0063283363,0.0041141377,-0.0089246049,0.0037382504,-0.0001114632,-0.0036113223,0.0035490093,-0.0031916642,0.0052131858,0.0121905578,0.0049918012,0.0037601918,-0.0090185113,-0.0003177446,0.0020540182,-0.0015410925,0.0057063621,0.0035588771,-0.0096384726,0.0004599659,0.0073002138,0.0016692603,-0.005891609,0.0831926921,-0.0021809399,0.0141496799,-0.0057529526,-0.0039524678,-0.0029719794,-0.0005111364,-0.0074658849,-0.0054109321,0.0006841117,0.0168551016,-0.0039754616,-0.0059579887,0.0037014172,0.0101532209,0.0025631565,0.0110086698,0.0001532795,0.005996124,0.0041149538,-0.0018250116,0.0024350044,0.0000919765,-0.005805718,0.0069920378,-0.0026521208,0.0089942825,0.005914322,0.0010984006,-0.0021702789,-0.0034522285,0.1963529746,0.0010235952,0.0001257047,-0.0050386313,-0.0007513446,-0.0078401655,0.0084405425,0.0061922049,-0.0031738007,-0.0036791399,0.0022497509,0.006031215,0.0013808856,0.0070462457,-0.0009844199,0.0114181073,-0.0008717144,0.0081773163,0.0017098785,-0.0053625447,0.0023642368,-0.0048997282,0.0051498325,-0.0030871116,-0.0012804642,-0.002736951,-0.0031646302,-0.0010548116,0.0035473753,0.006846461,0.0029862881,0.0791014813,-0.005165253,-0.0020797159,-0.0014063466,-0.0027985659,0.0022631673,0.0101014903,0.0004593561,-0.0023102617,0.0063794069,0.0009522285,0.0032505626,0.0071480196,0.0021695143,-0.0047703993,-0.0020223524,-0.0004363943,0.0031038467,-0.0058493478,0.0034765225,-0.0088115337,0.0000927183,0.009884932,0.0061593548,0.0081563047,-0.0100899514,0.0002285051,0.0006216896,-0.0118629819,-0.0031050313,-0.0044084549,0.0938035826,-0.000933927,-0.0025118529,0.000033648,0.0075276024,-0.0020451442,0.0080926296,-0.0040953105,0.0034095713,0.0094589541,0.0068637815,0.0030837173,0.001294033,-0.0017142764,-0.006320802,-0.0022132983,0.0024693801,-0.0018411882,-0.0007801003,-0.0055362231,0.0014614345,0.004804892,0.0031373853,0.0050162298,0.0092188273,0.0045508423,0.0010033189,-0.002455152,-0.0035245939,0.000397707,-0.0005993266,0.0841910689,0.0017604599,0.0042026509,0.0017482677,0.0022465365,0.0100634843,-0.0020725708,-0.0127173445,0.0016605498,0.0144657532,0.000898017,0.0097441233,0.0019652458,-0.0087790491,0.0058765723,0.0087765416,0.002059246,-0.001820848,0.0070182986,-0.001332324,0.0027068248,0.0020335169,-0.0049953762,-0.0113482201,-0.0067679936,0.0005906615,-0.0101847107,-0.0012505535,0.0037336153,0.0001159627,-0.0019638112,0.1416162172,0.0000005785,-0.0000011536,-0.0000054782,0.0000020719,-0.000002576,-0.0000010166,-0.0000020551,0.0000008292,-0.0000000862,0.000000638,-0.0000013105,0.0000028158,-0.0000004327,-0.0000004485,0.0000030751,-0.0000005131,-0.0000013887,0.0000035164,0.0000025345,0.0000021568,0.0000023207,0.0000011323,-0.0000050303,0.0000031504,-0.0000024976,-0.0000007649,0.0000004555,-0.0000024814,0.0000015678,0.0000042995,0.0001459064,-0.0046223944,-0.008805614,0.0022014035,-0.0017281123,-0.0066125532,-0.0013438708,0.0068468437,0.0020549349,-0.0049166796,0.0059523287,-0.0042896915,0.0009255834,-0.0008083699,-0.0002580005,0.0052752414,-0.0042535138,0.0050573361,-0.0039490858,0.0008036963,-0.0018609495,0.0004087866,-0.0022731442,0.0010317619,-0.002726063,-0.0063618112,0.0025711653,-0.0035967138,0.0028655217,0.0050076822,0.0043142761,0.0373566547,0.0032976017,-0.0120053982,-0.0039953822,0.0016014816,-0.008566013,0.0003090508,-0.0005542795,-0.0048606129,-0.006163751,0.001046074,0.0009149903,0.0030062743,-0.0019167205,-0.0006849759,0.0025946408,-0.0035046105,-0.0024428215,-0.0008894526,-0.0082962208,0.0052602181,0.0033352149,-0.0004503242,0.0121662042,0.0070815885,0.0054201876,0.0033196765,-0.0008453345,0.0095771601,0.0030958062,0.0046782435,0.0725467269,0.0041088429,0.0017076306,-0.0110835794,-0.0027367203,0.0059205939,-0.0024798763,-0.0044915417,0.0009894358,0.0057149455,0.003086385,-0.003655338,0.0000198468,0.0039885073,-0.0005988393,-0.0039542801,-0.0053762667,-0.0113415791,0.0003913219,-0.0029474939,-0.0007190464,-0.00926075,-0.0063406411,-0.0080281738,-0.0021587354,-0.0032987314,-0.005361634,0.0005943688,-0.0046033577,0.0077422739,-0.0001805964,0.0321667866,-0.0046447263,-0.0030471783,-0.0018033938,0.0077207862,-0.0122048559,-0.0049497315,-0.0052035236,-0.0093625935,0.0002799359,-0.0024162027,0.0022387258,-0.007693889,-0.0011730028,-0.0079116947,-0.0018966633,0.0141970508,-0.0062092646,-0.0071378357,-0.0044497105,0.0007295281,0.0125242546,-0.0039594223,0.0009248288,0.0010068762,0.0079419157,-0.0069610773,0.0016255709,0.0029850689,-0.0043744049,0.0037140903,0.2217722022,-0.0000007892,0.0000000541,0.0000019848,0.000000206,0.000000549,0.0000006524,0.0000005814,-0.0000021279,0.0000010346,-0.0000002378,0.000000059,-0.000002472,-0.0000016138,-0.0000015916,-0.0000020473,0.0000007978,0.0000020237,-0.0000005452,-0.0000007754,-0.0000020246,-0.0000008445,-0.0000023927,0.0000009185,-0.0000030588,0.0000017262,0.0000000754,0.0000029971,0.0000005434,0.0000000773,-0.0000018303,-0.0000768029,0.0048054977,-0.0009378465,0.0083270683,-0.0019553207,-0.0061486065,-0.0009731929,-0.0088734691,-0.0035601923,-0.007719962,-0.0061307329,0.003570695,-0.0006525655,-0.0131777432,-0.0045874111,-0.0007880785,-0.0202621966,-0.0078023195,0.0067843879,-0.0025810917,-0.0076706247,0.0009815772,0.0092061029,0.0082483142,-0.0012536823,0.0036566904,0.0002338756,0.0024506398,-0.0027593664,-0.0046045693,-0.000517832,0.1675657133,-0.0027952,0.0031289165,-0.0014647436,-0.002249867,0.0003657235,0.0073278674,0.0034660804,0.0061415378,-0.0033655234,-0.0024831802,0.0002130494,-0.0028152199,0.0047328411,0.006538388,-0.0032999711,-0.0006352585,0.0028176861,0.0023525294,0.0041419601,-0.0067470487,-0.0075016946,-0.0062715294,0.0016325937,0.0111091943,0.0082878523,0.0017198769,0.0060043249,0.0008530455,0.0043245694,-0.0043729324,0.0179503809,-0.0045445306,-0.002202947,-0.0004285823,0.0039147706,-0.0023933995,0.0068661849,-0.004431014,0.0039814948,0.0096925945,0.0068089298,0.0016609785,0.0005468165,-0.0021513434,-0.007612513,-0.0030824643,0.0023381709,-0.0030612979,-0.0042830739,-0.0059259355,0.0013710729,0.0011652813,0.0017876095,0.0066064782,0.0054219256,0.0061432246,0.0026515129,-0.0025378026,-0.0033245843,0.0003580271,-0.0031209228,0.0113772071,0.0063021874,-0.0029959682,-0.0011672709,0.0022688202,0.0056030679,-0.0081329502,-0.0040058892,-0.0075929003,-0.0005612488,0.0036927188,-0.0087525944,-0.0016319395,0.0040835446,0.0001849345,0.0063189933,-0.0066292566,-0.0012947227,0.0022516627,-0.0002076196,-0.0020910359,-0.003475303,-0.0015814325,0.0071229405,0.0001205351,-0.0007134979,0.0047779335,0.0034593097,0.0048342464,0.0042353117,-0.000245672,0.0686817349,0.0002428171,0.0022092668,-0.0047409602,-0.0029407716,-0.0059785047,0.0032943893,-0.0032591537,-0.0010271648,0.0050653336,0.0061886851,-0.000876967,-0.0002457064,0.0037073327,0.0009341451,-0.0039556596,-0.0079685538,-0.004686793,-0.0016975304,0.0047262693,-0.0043279159,0.0067793746,0.0130816601,0.000200786,0.0019490433,-0.0055652982,0.0001477906,-0.0011663001,0.0046944207,-0.0058388156,-0.0009258555,0.1120997306,0.0049165109,-0.0004572879,-0.0031585857,-0.0031877158,0.0010053298,-0.0000346915,-0.003890481,0.0040632287,-0.0030991198,0.0019621056,-0.0040728049,0.0044798053,-0.0005452346,-0.0043555922,-0.0007889598,0.0050175025,0.0058337273,0.0026583307,0.0055781907,0.0043542658,-0.0036299185,-0.0041129566,0.0057413598,-0.0003750947,-0.0011937563,0.0008554158,-0.0031607049,0.0002702524,-0.0017352754,-0.0033016465,0.0477608303,0.0034587423,-0.0009279434,0.0062314215,-0.0047744491,-0.0075007099,-0.0018752553,-0.0020393048,0.0036047144,0.0016065208,0.0015485392,0.001881177,-0.0004016546,0.0026798005,0.0051629763,0.004353512,0.0065128302,0.0006989687,0.0076484584,-0.0029523402,0.0037298111,0.0100990876,-0.0061282518,0.0011583089,-0.0020823822,-0.0022503799,-0.002188062,0.0072509198,-0.0063739359,-0.0001363476,-0.0024833209,0.0968028422,-0.0017743117,-0.0075687484,-0.0102498589,-0.0005528692,-0.0096559639,0.0034942744,-0.0014290226,0.005192306,0.0049303714,0.0134282148,-0.0102213772,0.0023704693,-0.0075029581,-0.0035487825,-0.0109732692,-0.000713817,0.01123801,0.0023926521,0.001529805,0.0061763278,0.006477358,-0.0015004887,0.0037645619,0.003171694,0.0012824282,0.0053190471,-0.0098818313,0.0046593504,0.0030088389,-0.0032200747,0.1813965642,0.0029976236,0.0023573762,0.0052941052,-0.0080273857,0.0049145807,0.0087811815,0.0064352343,0.006508054,-0.0051907566,0.0070042743,-0.0009245678,0.0002421174,0.0110517252,-0.0174569299,0.0090892508,0.0054523175,0.0027542053,-0.0053172979,0.0023654845,0.0077588992,0.0039982494,0.0035449128,-0.0011643934,0.0015106962,0.0039817642,-0.0032360069,-0.0125300899,-0.0021320603,0.0025448883,-0.0022021852,0.2236754312,0.0008910353,0.0047987731,0.0006192165,0.0040987509,0.0052816671,-0.0054213459,0.003413516,0.0043209721,0.0015267037,-0.0012863913,0.009681974,0.0019517857,-0.0113569443,-0.0035099803,0.0084647927,-0.0071352176,-0.0037114025,-0.0003158325,-0.0004148518,0.000424096,0.0003616226,0.0014516363,-0.0040452564,-0.0057283235,0.0006234073,0.0045621904,0.0016414568,-0.0033523082,-0.0027544167,-0.0041524144,0.0742290928,-0.000964775,-0.0031960805,-0.0022603124,0.0012051136,-0.0000257217,-0.0016317523,0.0013770026,0.0010224663,-0.0047480278,0.0012745609,0.0043861146,0.0027356266,-0.0032889081,-0.0050989832,0.0024275338,-0.0034817707,0.0005758847,0.0053368905,-0.0011879976,-0.0023128242,-0.0017372586,-0.0000475606,-0.0025449384,-0.0064978567,0.0023452652,0.006360328,0.0039533274,-0.0064873756,-0.0020140846,-0.0025525649,0.0158033666,-0.0011776934,0.0052319894,-0.0062460018,-0.0027723672,0.0056525818,0.0015066643,-0.0104898461,0.0067702168,-0.00864628,-0.0107441102,-0.0025062728,-0.0026398735,0.0038205037,-0.0138027455,-0.001271582,0.0025444944,0.0108074357,-0.0052212502,-0.0022340262,0.005799411,-0.0073598274,-0.0038759413,0.004658193,-0.0029229002,-0.0022623092,0.0008506634,-0.0014175866,-0.0020097623,-0.0010892536,0.0046350361,0.134638357,0.0053493946,0.0023571388,0.0084100457,-0.0001645385,-0.0034047475,0.0023496553,0.0041128475,0.0048558572,0.0009138603,-0.0027634871,-0.0060893691,-0.0063228728,-0.0005300484,0.0050434521,-0.0046387923,0.0058664838,-0.0063729658,0.0083334446,-0.0061323543,0.0142128324,-0.0006255065,0.0042220528,-0.0034479539,0.0013459926,-0.0135870782,0.0041128342,0.004767033,-0.0039434878,0.0002731647,-0.0010097981,0.2019130134,0.0096187036,0.0039506087,-0.0011583369,0.0107349631,0.0102609456,-0.0021144443,0.006289995,-0.001531374,0.0021020577,-0.0061611296,-0.0130558827,-0.008841317,-0.0067254002,0.0134406456,0.0130534286,-0.0050393644,-0.0075691341,-0.0008567571,0.0003412093,-0.000025179,-0.0071315781,0.0023259209,0.0067507391,-0.0004503951,-0.0052608465,0.0012742388,0.0037545249,0.0116350538,-0.0030925872,-0.0047413744,0.2112517691,-0.0014018268,-0.0041489898,0.0157818011,-0.0025348799,-0.001008567,-0.0028225311,-0.0003157819,0.0051338954,0.005124828,-0.0070483511,0.0072797355,-0.0033153966,0.0069629245,-0.0000658979,-0.0140062223,0.0036435996,-0.0098321658,0.0115194874,0.0021705314,-0.0032641464,0.0056815905,0.0042092843,0.0084228043,-0.0065652849,-0.0061423068,-0.0011956272,0.0012264332,0.0056890119,-0.0016329598,0.0160079588,0.2408251148,0.0045663029,0.0019305031,-0.0113515764,0.0084192116,-0.0067801678,0.0102438084,0.0031866192,-0.0008545079,0.0021795879,0.0050423703,0.0001160757,0.0041438668,0.0092947431,0.0067421424,-0.0003556871,-0.0038582948,0.01268338,-0.0006398823,-0.0074904757,0.0028261185,-0.004871548,0.0134707794,-0.0077973888,-0.0067527861,-0.0020525548,0.000344885,0.0029330556,0.0024410606,-0.0028449089,-0.0033914937,0.0702344123,-0.0054652922,-0.0001243701,0.0087374967,-0.0027819144,-0.0022962077,-0.0047393787,0.0021501697,-0.0019044443,0.0023719181,-0.0075590265,-0.0047121071,0.0063490313,-0.0038332013,-0.0067882281,0.0015413037,0.0072307464,-0.0039033705,0.0108253363,-0.0021212311,-0.0041644907,-0.0069569043,-0.0004242533,-0.0066866849,-0.0054779197,0.0067956283,-0.0016258904,-0.0018912501,0.0143087135,-0.0028021965,0.0038783536,0.09764343,0.0090132515,0.0033387063,0.0023461884,-0.0013687313,-0.0009446703,0.0096017431,-0.0018638436,-0.0013485527,0.0033489379,-0.0111237276,-0.0032244716,0.0027465284,0.0034446079,-0.00699122,-0.0065426322,-0.0115250258,-0.0000981815,-0.0064773371,0.0001536595,-0.0002770876,0.0006101529,0.0072765913,-0.0016580453,0.0008787461,-0.0071885757,0.0039556594,0.00223122,-0.0014932194,-0.0121485349,-0.0001845509,0.107414008,-0.0000083154,0.0000040542,0.0000173503,-0.0000166886,0.0000095601,0.0000096151,-0.0000007357,0.0000010117,0.0000030759,0.0000053788,0.0000026233,-0.0000147192,0.0000013892,0.0000031876,-0.0000077604,0.0000078734,-0.0000000444,-0.000022225,-0.000020586,-0.0000075876,-0.0000194112,-0.0000068702,0.0000223133,-0.0000216179,0.0000182467,0.0000114378,0.0000174539,0.000011684,0.0000009062,-0.0000197494,-0.0007466323,0.0042955863,0.005470023,0.0007269243,-0.0068320342,-0.0052782522,0.0017328842,0.0016643949,-0.0027760909,0.0035701469,-0.0042988648,0.0019050615,-0.0050901003,-0.005120673,0.0019673658,-0.0012948351,-0.0033417796,0.0041540205,-0.0028921668,0.0002676638,-0.0025157814,-0.0054386023,0.0066099295,-0.0001476687,-0.0001402212,0.0059232072,0.0002584608,-0.0052526971,-0.0051816283,0.0089555813,-0.000533214,0.0728528308,-0.0065652381,-0.0017750326,-0.0127133386,0.0000626674,0.0075760919,0.0037633911,-0.0051994489,-0.0010563865,-0.0041685337,-0.0093769534,0.0084711371,0.0038614211,-0.0020902234,0.0017331785,-0.0043085216,0.0040595926,0.0034919985,-0.0075090397,-0.0093175771,-0.0011697759,-0.0051170383,-0.0015883654,-0.0038317227,0.0005536819,-0.0088349917,-0.0087174275,0.005266269,-0.0082552813,0.0037241696,0.0065684599,0.1070288304,0.0038284523,0.0090646038,-0.0052664648,0.0025529948,-0.0007859815,-0.0096589622,-0.0031542695,-0.0067685827,0.000017132,0.0003563908,-0.0109711524,-0.0116483729,-0.0075523311,0.0001949782,0.0010106696,-0.0033518001,-0.0023556061,0.002175458,0.007836655,-0.0001706416,-0.0115811687,0.0007161481,0.0026176771,-0.0007575352,-0.0047844833,0.0026024886,-0.001911273,-0.0093373843,0.0090656738,-0.000934469,0.2158843986,-0.0020376926,0.0094625806,0.0122124991,0.003777784,-0.001769394,-0.0093490743,0.00329266,0.0124079418,0.0028579894,0.0013534518,0.0016548577,0.0039529558,-0.0035413623,0.0065001869,-0.0010751225,-0.0047987467,-0.0005093773,-0.0024014539,0.0032957134,0.0024293966,0.0060247106,-0.0087495403,-0.0017160979,0.0071152558,-0.00537962,0.0042581219,-0.0018319226,0.0006546939,0.0061661391,-0.0046848519,0.1654416324,0.0009352533,0.0001964563,0.004660187,0.0027589738,0.0046048207,-0.0011491415,0.0018972817,0.0008588568,0.0050027801,-0.0005090747,0.0011141106,0.0012219146,-0.0008998676,-0.0019995976,-0.0022591927,0.0033224777,0.0058194809,0.0085072231,0.0010415079,-0.0004688088,-0.0029882911,0.0045391971,-0.0024861561,-0.0069474259,0.0037915476,-0.0021237567,-0.0001873423,0.0064186029,0.0021459863,-0.0015415562,0.0036169375,0.0011705767,-0.002781724,0.0023181584,-0.0060648642,-0.0085001963,-0.0044291284,-0.0040110245,-0.0051962638,0.0001018133,-0.001659498,-0.003066624,-0.0002830868,0.0019457831,0.000361553,0.0086115642,0.0114108981,-0.0039210247,-0.0022904394,-0.0033321005,-0.0029319341,0.0013361829,-0.0068229312,-0.0061209043,-0.0009835555,0.0017430784,-0.0009572713,0.0046827938,0.0024451194,-0.0059482661,-0.0044982959,0.0443074804,-0.0047104528,-0.0092874474,0.0030559757,0.0029652678,-0.0019220412,0.001553445,0.003545424,0.0003476651,-0.0002052575,0.0013237825,-0.0015986538,-0.0010137339,-0.0005156433,0.0072699889,-0.0037677276,0.001749979,0.0024348605,-0.0032712579,0.0061270291,-0.0034905618,0.0002401822,-0.0067855896,-0.0029153161,-0.0033294814,-0.0039321598,0.0055450957,-0.0073895406,-0.0058142565,0.0022084223,0.003558252,0.0884265365,-0.0049974271,-0.0013717261,-0.004564747,-0.002535749,0.0011229572,0.0037903252,0.0044470233,0.002430591,0.0009204111,-0.0047614255,-0.003087058,-0.0034405433,-0.0000557435,0.0059569602,0.0054241584,-0.0007420196,-0.0003571251,0.0032124869,0.0073182564,-0.0047876438,-0.0018103438,-0.001360764,0.0024683335,0.0015212835,0.0059354566,-0.0036615791,0.0014241605,0.0058105499,-0.0015501296,0.0019669901,0.0541914083,-0.0184914247,0.0029569412,0.0180326604,-0.0024452345,-0.0079634591,-0.0083013766,0.005504199,-0.0012627844,-0.0096138678,0.0031116834,-0.0059156987,0.0076294029,0.0030872354,-0.0045592921,-0.0061208839,-0.0037794861,-0.006041436,-0.0023865093,0.0057772748,0.0021264988,0.0091657446,-0.0193768231,-0.0086142431,0.0046411402,0.0019543821,-0.0028431449,0.006959302,-0.0006720082,0.0034723848,-0.0016581327,0.149061939,0.0055637855,-0.0016818044,-0.0071784176,0.0043813578,0.00020881,-0.0008330599,-0.0015285315,-0.0061924971,-0.0126800069,0.0039652466,-0.0055113333,0.0017956645,-0.0069939856,0.0035025547,0.0037066133,-0.000129186,-0.0050862875,0.0172185324,0.0004399241,0.0017941079,0.0093446675,0.0152672361,-0.0059385174,0.0045422054,-0.0024276258,0.0107664418,0.0000490745,-0.0012347457,0.0038412801,0.0019885851,0.3939153514,0.0066003613,-0.0113587046,-0.0003396999,0.0035677963,0.0047447827,0.0069666432,0.0010760138,0.0010861458,0.0017537846,-0.001695089,0.0044644818,-0.0003776916,0.0046651058,0.0106592509,-0.0095767749,0.00130241,-0.0056490475,-0.0051701888,0.0001337698,0.0057976203,-0.0035952869,-0.0042427539,-0.011462921,-0.0057025801,-0.0050451969,-0.0012907819,0.0016834961,-0.0034671065,-0.0043040665,0.0031980406,0.0563631908,-0.0018435223,-0.0033560118,-0.0057751189,-0.0044615471,-0.0031195709,-0.0063795141,0.006320982,-0.0085469622,-0.0001606634,-0.0113963653,-0.0029223438,0.0085410274,-0.0029125121,-0.0033262397,0.0004990794,0.0094164497,-0.0006540647,-0.0053772193,0.000413202,-0.0037125611,-0.004921797,-0.0003980549,-0.0066283876,0.0102951554,-0.0044811114,-0.0003160642,-0.0035256603,-0.0013183511,-0.0032534138,-0.0002517894,0.1467725223,-0.0016591915,-0.0017078076,-0.0056818287,-0.0022257561,0.0038769074,-0.0005476404,0.0051772052,-0.0059778296,0.001487393,-0.0028361138,0.0030014367,0.0033823783,-0.0035293767,0.000256902,-0.0031387362,0.0030943815,0.0072737196,-0.0054216389,-0.002881878,-0.0025799047,-0.002856892,0.0010188221,0.0019117317,0.0048956567,-0.0029947714,-0.0018817094,-0.0023113467,-0.0028033594,-0.0044161822,-0.0027741195,0.004479301,0.0020518118,-0.0027069507,-0.0047806542,0.0097377032,0.0055053096,-0.0070563926,0.0019728757,0.0086749993,-0.0085363863,0.0138032789,-0.0032569782,0.0022657845,0.0045379425,-0.0180546693,0.0052865753,-0.0008370731,-0.0006167993,0.0035190923,0.0056274567,0.000429123,-0.0036021167,-0.0021489051,0.0038318466,-0.0055182348,0.0019746831,-0.0008172397,-0.0051456714,-0.0145796901,0.00064563,-0.013912381,0.1631551553,-0.0015017925,0.0182467507,0.0095411237,0.0028389144,0.0101234462,-0.0022502937,-0.0024672584,0.0039833127,-0.0001041518,-0.0038546957,0.0044274781,0.0056156528,-0.0041850583,-0.0010355489,0.0026657336,-0.0063135412,-0.0041258634,0.0002522564,-0.0009371498,-0.002353036,0.0048349633,-0.0094352602,-0.0032833249,0.0066660209,0.0071213783,0.0010642521,-0.0026659525,0.0086813789,-0.0051631715,0.0070882574,0.1596939613,-62.205613205,-1468.1690598193,-4.0019438871,11588.9780097845,-1277.2973536483,-0.2729056143,8567.3231803374,5020.2885329051,-1320.2945134053,1856.813838851,0.7115104233,-8058.118558193,-21953.2088983742,-0.0118113276,-175.7362579665,0.0490625238,-0.7260528769,0.9936251318,-1319.1906326692,-5928.7399790296,3118.7113801149,7125.5903035682,-6163.8201428278,0.2278517126,13.5448975664,4033.7965563587,-13591.7776282542,11268.1425424257,-4154.4473151825,-0.2866021438,0.637434285,-0.8993853364,177.285254213,-0.9466720712,-0.2137276434,6697.8074149377,3776.626886341,0.7594353774,1606.5610898092,0.6527333615,-0.6831506494,0.1292451844,-0.1090959116,246.0609400285,-6379.9754003251,-9138.4406731822,4016.3019091778,-81.477295387,1426.4418024162,4830.4260151393,-0.7184214268,1865.3303547548,-5858.8306242341,-11120.5322470765,3710.6537483795,-17.6999522224,9454.0956382707,-1788.6763978547,8547.9996382295,-7994.5854990595,-2963.893195912,-1636.1300888443,-9127.6696992812,5.5207129117,2357.6096917218,-12684.8149514766,3996.180481765,39.7851218958,10652.8445788609,903.9649502778,-4460.0935752157,-542.4981501017,151.046281659,-0.6340886046,-51.5897810356,1655.3229733202,-432.0830436201,-4679.2358918461,6352.6052108517,1810.7629533923,1252.6336065944,39.0967158993,-555.429192278,-4.7782142268,21672.4525579819,-30579.6033006849,-0.70606878,10.8730559664,-9029.2009546539,5067.5469424503,-2498.4321706405,0.3260102736,0.7021181879,-2.8273826337,8744.9695476754,3869.0050260256,-0.1544131941,8964.009198021,-508.4865999053,5066.9199568175,-987.1378597767,0.6863207919,518.1269811866,-1381.8461759668,-0.5829843637,-0.0234616454,5647.2890226675,23486.5836148746,1825.0337043655,-81.972852028,-16520.2911876742,415.5211154633,-0.4123919027,19167.7470885516,-4167.057424503,-0.5521647696,3157.0540077941,2663.4024443785,-0.2695746365,-5466.0435056802,-16065.9804234086,4572.8987869197,8.3641041689,-721.4337755573,775.870455954,-0.1735584437,2145.044117918,-0.3496942526,-12118.5686009581,5434.5429902751,0.1464593635,1.3154810301,4.9443921905,-552.3309389659,317.403141012,-258.3965354899,-1435.2013995351,-2.5579946898,4453.1452775954,1068.0859202061,-1231.5458688468,2828.686359553,-5964.5555921383,-58.3008286884,9101.5790245541,2552.1087277961,-1.0524780942,-13352.3301477479,1420.487201837,1.3789668751,-3767.663261613,3572.1560608011,-3402.9244282561,2128.5528804406,-4063.0765471903,3512.8963388135,-8496.1152855326,-0.652213947,-1309.3418533271,-10975.2331340501,1442.3958993991,-2566.9561579876,5.8050049134,0.473638204,4.3680562193,1093.0364270971,-1249.4398752007,2495.9843168289,8440.4383361715,0.2834914777,1736.4296921889,0.9777080387,0.3144742725,-0.2045517095,35526.9212069004,-4811.4010430946,-0.2436092717,0.1534515839,0.6666031128,-2061.0281965816,1735.5016551994,-11718.8043262343,-0.5549282569,-0.3095238601,3873.383751517,1.3507097506,-0.6057966562,-0.7174012374,1.6497482654,0.3959689386,11613.3385230047,-1542.8789851291,473.9585305185,-0.8085019021,-0.3332792868,0.5466135457,0.0662613713,-141.7419656191,6351.8777769702,-0.5789175631,-4371.6414350108,-20.3467823837,0.4232570534,0.1539556896,-14334.2050942724,0.885776228,12755.6694516631,1996.7702081581,-0.0803630007,8111.2080740455,-6073.6445648121,1783.3054369145,-0.4667791325,-5255.229588444,-9311.284707546,-1181.5730398294,2786.8882459277,-5118.7591714882,6755.2620360229,-6026.5312259444,1568.9760523306,-4241.5839823898,-526.2821021085,1131.0786349071,550.1556774686,-0.6359453915,-7007.4042266241,-15.4840417439,-5609.7604086543,-666.4603533484,-4523.2691496696,9931.9271623454,1606.7684795029,3.9106632549,-166.9445535614,-1237.5562057346,-2838.7955198017,-1429.6462469261,-17.7530670868,8833.1886093811,963.9035391377,50.0656255453,6272.0745990758,26.6291719664,-0.5526767967,-2277.3847489399,-10949.0746900063,-0.701999314,-6404.2159579366,-495.4094366918,-0.9202161897,0.5267874934,-0.589391107,-0.535826139,-1.1259966062,-359.1630317306,-0.5467526011,-7231.4849171936,0.0958172162,0.1328082711,-4826.8319233053,0.1705483374,-0.6746294713,-0.7189858501,-0.1771333575,12867.1847471282,-0.9197123873,0.6282102331,0.0394580914,-47.2247851942,0.5412661048,-0.9992955209,0.3367951204,6938.3613476097,-1265.3239346137,6149.7228958383,0.154221907,0.9166980093,-6042.8961405181,-2191.011551049,-597.8119028485,1.3695120702,8372.9935738903,0.1752910015,0.764876845,1.0483033229,-0.5114553483,-999.9172159881,-0.1452360503,-0.5995830617,0.6594952225,0.1295849606,-1.1336217859,0.1107646766,-6066.03925989,-634.5943878567,-258.5912138357,-7874.4907430051,1595.044448277,1642.8552202061,-4344.6781471658,1354.3517552338,-776.7376999256,6969.8301087106,-74.0243244479,5791.9132634297,-6143.6838881319,-3270.2513750069,92.3837448796,4304.9163711993,12121.1980400615,-10800.9684259867,43.8679038805,262.2794897639,-719.3358812502,5086.9798250671,5019.0199510839,-7646.6823204781,1247.0814966444,-406.8584073739,-120.5716290396,3319.3868203325,6036.9385242478,-2369.1971866425,-7279.1262697491,0.9970973844,-1077.9132039503,18460.8978400502,-23.8362058159,0.0578412538,-20456.5815744693,-1079.2962491334,0.2657353304,779.6097798779,-0.7757144689,3004.2335270848,-636.8279862438,-0.707646134,-0.473905281,0.2433807895,-0.8230095026,2824.4503228307,0.0147835871,-1853.0130280901,-2204.3451264935,18061.3134953678,2.5208688688,7074.9069169512,5511.0505664758,-0.1809049836,0.0214319936,2.5716217,-558.426469385,-669.2264519571,-3306.5744735707,-30657.0945337606,-811.5002732312,-1.0363914797,0.0290200573,-17410.5491739787,-295.7386263178,0.5437170835,17721.6893425059,-0.1140533079,0.6918292573,4105.2084155282,7523.0520716952,15472.8207996797,-1427.9852154503,-2.513444292,-678.4387597901,-1594.6777377194,1823.2984142116,7605.0323007021,-0.1851962676,-753.067744977,30.6652387585,7700.6079317522,7139.9192433326,0.2140946235,80.5868544322,3735.3301280795,11468.6518905197,-3843.2186180414,-549.4741587994,230.9677656748,-2556.9899414411,-406.5995996399,-2736.9124526058,-5.4648761235,1483.1419718269,-354.5505419715,6153.9400235178,1073.5885959222,-8240.2489896059,-3016.6320376117,2.6318205879,-4722.6768577977,-4611.5593538241,4.3596049409,-3118.1525644397,-1290.7354179861,-3157.1953744401,5521.5358076278,7561.5603679483,-731.1202797635,6569.6445079827,4.2784186156,29503.9134310714,-1.5378829898,-883.9568575492,1.0836000876,1.1048588915,-2229.1460742895,-0.1959622413,0.2473807129,132.6661723701,-2466.7792260821,3051.7395898643,1327.3813333086,-0.7268100089,0.9646645884,0.7532493792,-2229.1624460334,0.9926792201,21720.3524105945,-20923.0055701066,-1.184883853,0.6024751112,-46.229322469,-130.5050774863,0.2334365388,1109.8262729452,-3511.5799239552,-6704.3332041534,0.8210214025,3.2618890817,-3008.0434720033,0.448261079,0.7178349098,470.9241261023,21523.037516489,-0.6759895686,13079.069401556,8132.1500170435,-6816.610178239,216.3311604373,-0.8101243658,5452.2152879012,-0.946383475,0.406059003,-0.6942591519,-13550.7752260996,-0.6355910352,-6015.7400860585,-0.1817720377,-4318.9221241604,4113.5095221745,-3190.7184514998,272.8828295212,15.3599643738,10603.3185167389,2.1289120046,-283.1783385829,2611.4715270293,9474.5711668052,-2190.8213842302,3082.4137955492,2933.8568407321,1429.1728243747,-1100.0554284959,1393.8158048412,8047.7538401466,464.3883925669,3685.1733645177,-47.0709186879,7799.1056619184,-8654.681156666,3027.0804792279,273.4360774955,-5691.9620403634,-8829.8188383782,-5289.845493537,21.9514464286,-0.9530578229,109.4519879095,-28640.2144699478,-2.5507576891,0.3750949347,8.047263017,-448.4858409648,0.0459340546,-325.2287998157,0.6344291026,-1687.3953841118,-2348.2874108787,-0.0386325761,18327.1743048456
   2242.7635879723,-1.7948809562,13550.3349225417,0.5762828228,-0.3838364967,-16603.4208985595,-1688.8823734716,-0.2002388611,-2755.8590571925,-8132.3573593846,-2608.5923804943,-1.5728643039,0.177948193,-0.3502859635,1516.4653364432,15959.4257740287,2376.6769252861,-0.7142886234,0.3588013645,-71.8147900421,-588.6104030518,1533.882724289,-0.7781566245,-31779.1508677032,9867.2874458912,2339.1246744689,0.4551356279,-852.909423299,-1219.0171495393,-0.9506473959,-28623.329479218,820.7021005813,879.9750705875,-0.2373310386,-3527.3323384143,160.4086678373,247.8964474795,-0.7425391658,-0.2972075127,-7744.731038036,7968.8826085689,-5735.9865347318,-550.6519591798,-5899.3722577047,-6469.6723698634,1786.9584774995,7763.2591302363,6481.1679136304,156.1730043882,2639.1826613856,-1284.0963323642,812.9702073235,-5094.6521891927,6751.6611475857,-4107.5934080282,739.3039791338,-4764.5487359851,-5907.3617319765,-7686.9609258671,4301.5323865498,-2588.1385108062,354.4074947789,2792.7667868891,-22.174659956,-289.1891657272,-2057.930401178,4264.4585115467,-3669.024856917,-16.5248832431,-1.7100058935,0.7063938366,3226.0947229782,1.1782663306,-1.152164994,7420.6826734077,416.2528818251,36.6305048907,0.3943230182,0.1801851809,0.996361472,16172.7697653001,22071.5649247735,-0.155468393,-15255.5114668638,-0.3089310372,5073.8887731423,18882.7962009863,0.591764241,0.8004503125,0.4665661493,-0.5136428628,955.6336612755,-0.4264187172,40.0252721003,-340.5767022495,1662.0203897964,-2982.6947314951,0.4025007679,-5205.2760135723,-0.6080612656,-15159.3686041486,-0.011407958,-2103.2985505589,-0.0244837364,-3676.1730372508,0.3533960648,-3.7972771285,807.2727392418,-0.1036734937,-17878.4103362253,0.679418456,-604.9884814509,2237.1024497278,4563.4445046145,1.0233662445,-8737.1730569987,-7634.3771040589,-0.8422729267,7520.4839928021,-0.9606689462,7759.879470643,-4749.1527593406,2762.8507220754,-8200.2772455917,-686.5503215675,2.8856063759,8822.6671822373,-339.6176374367,224.0460144755,0.4852763577,-1269.2564416823,0.8231037026,-4.4456622825,11617.0422597317,-6970.8958211173,6733.2025131931,-5360.1410911333,1916.3397454444,-3613.8135012758,8571.5995095339,5284.2037700012,57.7379741577,5245.0529388479,-66.2609438912,1618.0409494685,-7295.1287654214,-2404.318274153,-6526.2612988419,-2767.9289445332,-5394.5189247265,0.8062351014,-10.1701452111,-4.5781047381,3076.2674756805,10948.8665495672,1.1787952219,4895.1308194061,-2782.3961584538,-29260.6974821425,-1063.265524824,0.7512151602,-0.6188122616,0.2049902095,2263.6981968101,-14157.5071999206,-0.4816264257,-0.3904661806,-0.2072835055,-29259.409093432,-0.3376504753,1474.3769094352,5586.4527636529,-1897.2561480256,-1.0095087409,-0.9046995764,-13239.8295062051,-0.6684528085,-2034.128532418,12335.8795915193,3293.1282174187,2064.4674817406,1.1380586716,20756.4881324689,0.1508519949,0.7669769391,-6552.9743000974,25.077905328,7560.5878078747,-2.0577401343,133.9452114036,-10134.9848557197,-0.6008865004,106.9724286714,0.0646335528,9653.8436054307,-0.0702896616,-0.1629452342,-1589.8091315737,-104.7609721627,-8520.8029747774,-0.4692347015,-1303.2614913506,-5330.3471237993,-1436.2915329569,575.2012119005,-3670.2418719822,-4681.2152342158,-2989.5667721477,4123.8114120479,2761.3786236686,-9484.9946598292,-5153.455385607,4345.0367439235,-422.475917017,-3635.7211652098,-3649.729292857,11045.2514128571,46.9024475215,-4631.4446230193,-6185.4504738006,-5176.7983537957,-0.4298395887,1443.4828946058,1273.9424538273,-794.2625383101,16254.5517483127,-6099.0163562443,-7146.0038710565,651.6437548474,1684.7450520983,-6291.0775037869,-38587.068159719,0.2815433911,-4404.1929102088,-10074.7506318299,-1985.2527773852,-0.2766573635,5203.4375824484,-46.4466140638,0.1778128386,-0.1796777947,-0.9660648142,-0.1410323617,0.0255702786,23649.4554578918,-1299.7263576084,0.4440668243,-0.3379971368,-0.2580166948,-0.4016375175,23081.6160962324,-2289.4288957412,0.9099781424,6243.9972307498,-0.8175315126,74.0410424462,12.4664906907,10052.03971721,660.4791004258,-0.8043443225,1.0880977482,0.1091575346,-1.3494076431,7.1121589104,-2.2029572817,0.6424431291,4455.9182061976,1.0436921147,-0.425742887,0.3310401649,1684.9493388869,-1078.2161081476,-32088.3240530352,-27.749060807,-0.3104604862,10.2450210524,-32196.7584318904,-0.6265595565,-4424.4470337729,6777.8985226402,-0.2592840325,0.2014354984,-1414.7727069223,4853.6426726299,-5334.4668934233,2562.5222483827,7210.391510863,2162.375943784,-961.2977437161,-0.8898268796,861.7627253826,3056.3609446001,20.3062074068,1465.6002553004,2346.0344013564,-649.8853089738,7074.618748872,-1156.7526081139,-4680.2042660692,9620.4003413178,-2790.1020214268,-6786.69138302,3003.4572786686,-2281.9760100369,-11.2173041607,-0.0995747301,-741.2890023036,-2131.8852593873,-7385.3460883295,2345.8233999595,-1551.0654432846,176.3545122222,-0.4351140344,28021.3488665028,4220.036837836,114.9735777681,23491.7297138317,464.0461681961,2365.7118515878,0.2738261876,0.9817000196,0.4791608455,0.4889401902,-1.0739569978,-1.1325739835,-1.358076322,0.4312928093,0.8441943723,0.7881462724,480.9797062442,0.0152510498,-6984.6275470038,0.6849122184,-22110.6473289804,-14.2281708691,-2787.8278975792,-1.6407054053,-0.2933633398,-1313.835798836,-3477.0674717214,-0.7167015867,0.6021318059,0.7115142749,-1.1857642744,-0.9968993795,-12666.0437976863,0.3996642506,-2737.9665242462,12603.9668346658,-0.0486294196,-3808.9132083495,-0.2917043064,-6227.4497832814,-0.9167880966,30980.1032305904,-1734.0540562884,5.664082041,-0.7844821339,-0.8840800484,3849.4621753876,-7493.8666989117,0.0510358939,10.9553636919,-1666.3796008088,3609.626772865,4946.3946213867,-7652.3243903125,3911.7830163694,1018.0878170646,546.6473240352,14073.8868817599,-3667.4628233527,-11371.7000254636,-1159.9755671907,-4.1708545949,-5593.100707383,-2489.1162011215,9400.6191623042,-10249.1949455429,-1493.8459068248,-2.561066791,10354.7548643576,-1051.9015712972,-10.6519993279,-0.2549633601,2366.2428810789,3555.4692798892,-5662.2083292877,5356.4607167632,18464.3573919323,-1631.7558831114,-12.0128071705,-1039.1064585433,-25926.5838720722,1058.5753069172,1088.9125485978,-0.4944507797,1.4568753039,0.8283619683,0.3647105239,-0.720417128,-0.4180145268,-0.3271325603,0.5915767957,-1148.6889145274,-0.0111365175,1135.1375379397,0.6655332531,0.4404268726,-0.601940246,0.1530019096,-0.3165865743,-0.213367897,-7634.6983057912,-0.4744471282,0.0331445997,-12.7414132869,1126.0321538116,0.5278842259,-1.2562662711,-2348.9902499241,16366.4825346627,3961.9800717806,-67.703498231,-0.7307680484,0.8525061115,67.575637828,-0.9230519273,-6015.2421397636,3.1549493193,0.3275481029,-14.8056377833,0.5120815973,-7258.553446088,-22946.0410924371,0.482250015,-0.4678337037,1578.5955328639,2825.9415534521,-4991.6189976001,-5559.2251580936,1620.5580504714,1000.9854644463,0.7133499621,-6029.6326494318,-1560.4083514369,-1142.9809278707,5566.2739534349,5359.0547789703,3827.8968419712,2221.091270788,-4088.015017056,-4928.9706045454,-3316.2976555966,1400.1347251032,-4539.5425540815,0.6003810416,-11211.7706245705,6019.6347944484,-10974.2517436221,9563.0603480941,-0.5310012065,2820.3693206665,4167.1666872304,44.4715721861,-6562.6817198063,-19.3731468086,6630.1789824484,3856.1272801802,2.3979538372,-1267.6442405617,-136.2129274346,14816.6070509927,-889.5818305663,0.0860389956,3709.5170866177,-0.2790296296,27174.985372279,63.7984258776,1749.7714134083,8583.0997505591,0.153298797,-5761.2001774071,19.5450695823,-0.8017657577,10.8332194581,-0.8468569363,0.9380979585,3697.8250122249,-0.9781744988,-0.4139882753,5640.9613208001,-5761.5913774735,-5.8971343586,-0.7231093809,1711.813292648,7483.5356748148,-792.801294373,-1085.9706401161,-412.9039294589,-0.7114939929,22091.085654006,-0.7299527382,-9184.8980542619,-0.5259653036,0.2584128861,-12366.1487975042,-0.4851050482,0.5818206712,-3893.4808539326,25071.2545596437,-0.4553889732,0.2860823293,-1.2331349322,-1425.7730606854,-0.6754104742,-0.0812056682,-645.0412491756,-3.0521403974,0.4001748193,0.820413393,-5326.8763835829,-0.6404051011,0.1757771258,0.0053449046,1608.4125624678,-995.6917362878,5903.901507331,1574.3784493056,2.2634702107,-3458.7898750882,-1098.6362221681,8.0695133669,-0.6211587231,-1284.5721620367,12.4634157269,8698.4440767397,3412.4542455692,-448.8835587398,-5317.5174257221,5339.2194700539,-561.1139794211,-11309.0894970173,-1669.6545556262,9536.5222184525,3718.2969118944,6550.4833357198,7075.551327904,-1676.4617000553,-8193.3790399171,45.1215187696,-1125.7868404515,2241.7350423963,8707.7869327436,3049.4466260924,-6.2975857345,1.0779639727,-585.208830005,-4918.4893723321,0.7231169655,-6174.8693402264,3176.7666166337,0.3623230953,-1708.3405734402,-9691.2119694265,0.8753675902,29401.9542103297,-2.185198963,0.5221464389,-91.1452866286,-0.5444457585,6336.5464474256,-2043.8878042593,-1707.3968337056,0.9139556747,10352.4994056851,-0.5614824628,-35976.794483065,725.0623867549,0.1093850872,100.6715010139,14302.7453435165,-1.7219753798,-6085.4953419059,3544.479628641,-0.9744644193,-0.0719166961,12994.9895787243,0.1263140345,-0.137065644,-5990.6845736106,2.4408965921,2836.8907376126,-104.6247150968,-27927.548630389,7509.1242397259,11291.0603774577,1.1256549859,-0.5587679035,2043.2142435765,-12806.1137507176,28808.422916291,1301.9881661144,-0.6320651318,-1293.6795248619,0.5132357107,-6779.889035028,-11443.8812379371,783.885772405,-2438.341112911,13620.5463834072,-7369.1619711647,7857.6675132406,-6178.3606227534,1009.9728779936,-1469.7511434456,3318.529632763,-0.7146537335,4.8014498597,-2186.7340739601,5745.2811993579,2894.1339650253,7113.9603193903,-6299.0891501992,-183.1858874338,-26.3419672004,-7654.6390863701,-767.6443780396,8303.3987268554,-15.1987222704,-41.6568372852,8374.0326862404,-3742.1819519594,-1517.5425254317,-4418.2866548959,8020.5796702547,-15199.6486640137,1209.741261462,-2230.4082464059,458.3123622053,-25850.7674366626,-3.0012610912,-0.0912547938,-0.2685664927,-0.7160044862,2635.3799367551,0.0077232951,-0.2386744418,-7488.7652337635,-8.59278013,0.0930403905,0.4272736725,8285.3261698778,0.8397536573,-0.6603848061,-14502.6910037501,-20391.6498886199,-3027.4906396129,2203.233255268,-6567.32726097,678.8013591513,-0.3192664274,0.3172939982,21541.9312597394,0.2312175479,-2965.3572768427,10184.7385619657,-0.1989651733,499.5903313641,2290.0739779311,0.6962768171,14077.0025882184,1.3046541422,-10759.322365881,1.3373373643,-88.7382039596,1499.7557969914,-0.8515615625,0.7691514895,1386.2582328621,-23043.1876703959,0.0377215203,-2.4289916918,-16614.8260041059,-0.3436981449,6526.8914392798,0.141381745,-0.3836494236,-8095.4103616873,-3107.8243940173,-9004.5081293663,2341.4376725328,-6289.0102509049,-0.7804790648,942.8961946496,-711.6537689212,1664.6719809873,-3081.5378032166,8808.6055082294,-7.8535441175,1411.2417919242,-3533.6020477868,3999.5715187237,34.0312818974,-4663.2373945546,-2112.4552910512,-5205.5495738217,-0.0213458272,196.7212626852,930.9473634473,324.1877580944,-94.7407531232,-6805.3626794942,1462.1720733227,5813.2897801591,1194.9208802673,-1340.2919124059,2311.2792890101,-2586.9287934732,5790.9097809059,-1886.6730875027,1.0994294106,-0.3561757356,1453.3914968192,-8.6226271132,-11079.3899728601,0.0189486936,-0.6652274184,0.0690838431,-727.7166516979,0.3193995138,4742.4667163835,-0.8055438206,-10238.9427049992,0.2742588782,-11080.2496544283,2.2155704769,-28142.7437223994,-1246.2177844302,-4171.8314003822,-4184.632117429,-0.0941884331,-0.4630606665,5875.0494231694,7.261524736,13378.5476502964,-0.8429148889,0.5510369685,1.2435239622,1099.8566282887,9495.0732309621,0.6389187077,3966.0022169855,-1.403503121,-292.9086500402,-0.5808958435,1.0382475031,-0.5919581346,1.7899151843,-0.4498349561,1034.9453783237,0.6375649791,27.7892520299,-0.6928224024,0.6274907429,0.8979213908,0.2420268025,0.4411739851,-993.0245203602,203.9622397802,1872.3408193298,12.3269856326,-5427.3246019436,-2529.2530011223,-24.0374209967,6111.9502925209,-6908.1551285752,1917.6640326768,-0.0436050688,-2473.7306050919,-11710.827524246,0.8588567076,2648.2921688732,4043.1244181728,2024.0908971359,5353.3492187654,-1053.7191096117,-3365.4069757763,3310.5648017987,-97.9500595498,-31.5239769661,849.8071630655,1993.7982810705,-1336.1114176753,3099.179599973,-6243.9753190063,3149.7484221516,1226.9925103377,-660.7639881336,5452.9862027574,2897.4272329482,6393.8826002599,-1033.8456319926,-0.4499676128,-781.1318496176,-10.3153141086,-2809.9047566078,-0.5243640304,0.852374776,-2121.0106822834,-1230.0229698517,1133.8120927563,-0.3575709147,0.649240919,-882.3348971326,-11.1213538244,-2810.9175768144,16736.822516137,-0.3327781675,-15491.7443359756,-0.4239333676,-890.3603827559,-1050.077856483,-12523.1946443768,-1075.6559620726,2051.5975860241,-60.1337841927,-1847.22585581,-0.6441705285,3.4073413423,-8722.8029409951,0.1543140622,-0.1445364401,4248.2999391775,6569.7979866998,27693.069261764,3030.8953662855,13164.2709986956,-15110.0791044751,5125.2850587988,-18750.2826419043,2325.4767001468,0.742120564,0.7494765984,-3822.2809252172,-1033.2633141996,-0.9115252183,-747.7934420175,0.4261509159,3227.7131125344,-11939.8299117193,4835.5348078629,151.8317355235,-4419.9325612127,630.4940528769,-3981.9097761939,-3155.1972559184,18.832705968,-3484.5671151925,-38.9002195722,3088.3126495414,3926.5847288348,3988.1346740029,-1638.0959980598,5240.388771441,2661.6791591183,201.4572002052,5195.3897810721,-8.0299937394,5312.3280338263,-3076.2837499575,-1454.1711514955,-12106.1555115449,-2918.0546128722,7080.2350123228,12280.3854399227,-1586.2974340939,-11687.6025446293,976.1975736241,11122.4615246317,-2086.4040125382,3480.1242750157,-25330.9664224811,-550.9917771119,3834.3953028396,8317.3271830726,0.5916938404,11353.1724629853,-12290.8220598965,-0.326263787,1.4066973441,8.0903535507,-7459.7857872538,1576.4353713592,-0.7784259332,-20594.1110017549,0.2725152962,11351.9113820029,-5704.9321019007,-2007.3813249634,0.9973976898,-5781.8796993621,2407.9652191418,1.8636401379,5312.5963512076,1.8882974507,0.1643931616,1.2284749243,1816.7612627718,-16024.2413565911,682.3613639772,-1.6570775302,-16372.7004434472,-0.9583184307,2981.7856611337,-12335.2353906094,9374.251234039,-108.7598873068,-23493.4112684725,3106.3407234774,2095.8877202998,-2067.4742544784,-215.0061662826,-0.7861710193,-5894.0391559743,2782.6110369777,5640.647118538,-10.6070087602,1404.0845393501,-2.15500732,-3428.3402450094,-7334.4575226214,-18311.096304921,-5073.60621679,-1322.9014195981,-5977.6973820816,-2171.4871385116,1577.9765674072,6116.8647567424,-5070.1177605024,-4157.9183642081,13308.5869335725,-2119.4312359621,2418.2329032538,-1735.93641024,12823.0012368169,1962.5817741206,-3366.1930155514,5716.3993471356,-37.3388671679,3766.4777579295,-1835.7773231361,1.4205142777,-6646.0713480272,4493.8721078378,-5144.0755515169,-795.7763597228,95.5436555911,-3198.9867542121,-19.23026064,-0.3918836219,-160.1131948101,-24806.9985913599,0.2680740577,-0.8999389754,1981.995558051,-16776.7574848007,0.3237531495,0.6828097697,-0.3293621152,-0.1243767556,-1.0738011601,2236.3537374111,0.9224437757,-0.2520599198,0.0768348291,0.1116180478,-0.756236716,0.3542272917,8.2173214831,-8279.7123333695,1385.0705649992,0.2356636624,2600.8303544825,-172.1395442942,-0.9828710216,-0.6019463968,0.0926654085,8.008446969,-0.6599119616,-0.0256008057,0.4775375447,-263.436559226,-0.2915801673,-0.369564056,-17410.9511308657,0.1870779769,0.572375772,-0.5849923569,-1850.6043553046,-0.3097681533,371.9117857493,0.6446224591,529.3765568645,3453.1123103398,-0.6215372141,-0.2647746298,17645.8138054279,-0.687178372,1926.6492304238,-0.1884924004,6383.4675597581,-1046.8436244745,-6006.8190321147,-597.1818224706,255.3327426075,8175.5642284677,7450.9071517187,-4478.1420665431,-6479.9458949063,-9522.9956517589,-1629.343978266,-14028.4486647943,-8235.6630143424,13.3366243673,-972.4866405563,8471.7819433328,1.7088440302,2478.3154109568,315.4245772203,6276.1195788364,10207.6988589813,-3799.8093525293,1624.414948658,3097.0641328475,4026.2686738502,6411.0920812055,-482.5653536904,0.0823633484,12.0844011293,-10642.9032201263,631.3821020913,3.127478358,-2.837581564,23.1785284647,0.1585684173,-0.0794974087,9352.3294773791,-0.5535679782,-2279.4721362658,3674.1267056573,-0.4174651612,-2480.2444061779,1.5033562671,9.6775363489,-1.61973252,0.2992069378,0.1362334031,10189.1194051154,-2279.7680046903,0.5378013362,-62.1203309436,17001.875426371,104.810210901,-27410.5418837095,-1.870742786,-0.7846718692,-11811.0722439482,4555.4363304687,0.5831036901,1.0038520261,0.353842162,-9784.6175728636,0.8430950643,16678.7426591523,-0.9936195559,-2149.1504057929,9.2519600135,-7.4259276733,0.4564479719,228.091783704,13928.9317543209,-19772.0990936566,0.6364104926,-697.2772107162,-15711.6050950937,-0.3628693889,2220.7050625277,0.4286345152,-4510.8732201905,1123.0246937921,0.5206391795,-87.8203022154,-5086.5042024406,-5239.5004641708,-5607.6221445723,1822.5010053099,-10463.5203705942,3320.6761897938,-2648.2479050834,11360.1644635843,8.2732870797,-1481.4534619224,7266.3549272498,-716.458039409,130.7298428848,9061.5025539401,20627.6927125611,10440.0221421234,8.1948600884,-11305.3627595549,2996.9098461637,1883.3041308186,4112.3049891976,1579.7783696551,-14695.1017889321,-3969.1739127096,7263.0830036497,10899.1041376689,-35.6462442899,-7550.6247722341,-8004.0104114009,0.9357711175,-7776.2746018167,-0.1469714283,-14855.9891479404,1.0909895926,3.1402682488,13618.3601700702,-0.7507112702,64.9092655895,1593.9357003091,-0.8108997922,0.0909521026,0.4661057848,9839.6096964577,-5.294588969,0.2600407712,0.3467177016,-0.3026559093,63.1230554151,3817.9450564202,0.2793631072,-15311.4476257509,2268.29937229,-604.6697029211,26.0336552427,-0.139765185,0.6847715763,-5121.1624527088,0.721816103,0.891495781,0.2331884642,0.0004864234,53.779384131,0.3950536346,0.7255340208,-3676.1978832836,-610.6028011648,-1371.5988158731,-4.8923959415,1384.4895591781,3.1311092338,-0.9567892514,-17357.5605658722,-0.4175998623,-0.8345321807,0.8306764678,-0.3543525522,-10036.016706517,5.0311953943,-0.9623653819,0.8118511779,5611.1564909894,4784.3081327722,654.8903163871,339.5665600494,-4109.5097862845,-4209.9325922262,7063.7640979691,-860.9578277011,-1290.3719868778,-386.4448790864,-11313.7728096245,38.0307439592,3454.1300586743,13238.532546044,-5856.5406117322,7395.5727177083,1932.7066275339,2865.0122655226,-141.2665665941,330.8861334814,-3654.9337260886,1088.9596312521,510.8643094815,-3.6470624229,1352.2776596397,31.6717278923,-9193.1785842134,-1531.4429076394,-1217.1221489487,-3751.9433280115,-0.3681862821,-1641.205797485,0.0733858646,2480.2715329008,-12309.4213213049,890.7791548926,-2643.0548998501,-0.2544567907,1023.7457332542,-38.2312445249,-0.917217992,-919.4119911142,-26951.0238396119,15080.613237347,-0.4039293646,-0.1002640465,-5924.5631035683,-13733.1044495182,1022.3137844624,0.6086728187,21601.9049475927,-11474.0454380193,-592.1165552137,8201.0480732011,-384.5179520424,-1.1056171398,-16282.0167355954,5.4005017085,-0.4678169594,-0.0289160092,0.8858721973,-0.7926627842,-0.5423465621,-0.6869724933,0.6758375301,-4790.4760784366,-10.4371550191,27645.1863562265,2389.4025613253,3132.3221633569,0.0715884061,-0.3804807584,-13947.8340103587,1.0433820789,-1212.7276529391,-3479.8558788655,-0.3394228113,-16541.6897539025,2967.193632183,1.2578315784,2.219188279,2674.337921661,-3336.3353100779,-1.6383136398,-3016.1741085258,-4.3002209007,492.473262774,8435.6338111841,-5830.9325088106,6139.727123494,-4886.8757755205,-3784.5096015478,279.4028813188,-9700.7779196585,-8734.7372320286,3826.1341259008,-43.3927145149,-8785.449976192,-1798.0896481579,68.6287044001,6228.1510818096,-11025.1189440132,2435.6465475932,597.9396002723,-16767.5536702356,-1793.0982610294,9862.9345801941,-5067.3785551557,-2928.2728744228,6862.3804953052,1226.6152609725,6226.5852658554,-4243.4117554442,-167.34930858,0.111491384,0.721897169,-0.3158298857,-2252.1412587063,-3.8030159899,1.1739743116,3435.4254018378,0.0366982102,2980.7688287066,183.6965568131,-736.9952073697,-1079.447514207,-0.6363553579,0.3849810621,-618.191179756,0.8827114566,-401.5090272273,9130.6485676444,7250.8750889707,-921.9386570014,17166.6734505306,-0.6548225187,3735.5185098033,-11.3935185024,6117.7205953692,0.3133248365,-9790.1568896468,16901.9207770325,0.4470035976,1.0685712949,-27683.9800987141,0.9640074343,-87.9620817427,0.1511030703,0.1613050736,32245.2822098933,31772.1007106489,-3477.5415227291,13169.4813164154,-17014.359530691,-0.2760559825,11.1056886827,-64.5714724965,-0.5664601854,95.6892770818,-0.5590326739,0.6687904686,0.650220785,-11323.7651641464,61.7100601787,366.6767416777,-14044.1106439376,-1623.7217327056,-0.3965236485,3495.7516676467,-5620.6560324719,16047.8293746945,-2491.1116241652,5283.7739568109,273.441522732,13.6568479833,1341.3343984806,9668.6744977965,6006.9739283242,2858.0067475116,-4239.1965000895,-19445.206262178,2487.3615168577,-0.9768602714,-2291.4140319007,-2541.3017921526,7827.3745448981,504.6185890965,-5455.9911549468,-6847.0386604232,679.9577460041,10957.6296613931,-3017.9692577399,-0.8791836038,-15161.2556698529,1.8015105192,-11313.1553310001,-0.1943384922,-8159.6091180823,-5121.0101064088,-23294.6624028072,-3234.2725143591,1.3172398498,-0.3310275092,0.1305622003,-49.2325549222,16489.5042748375,362.5873403677,-0.4852168842,0.6735394309,0.3208000812,-3233.3633195009,8045.8623468914,0.9025835159,-8217.8930867778,7.5419837847,4.3812655013,-0.1375096945,10236.7431231471,31756.7076655708,-1.2236585113,-7.5863901217,-158.9905673955,5.1063510721,1818.232440184,366.8581604625,0.1577626727,-0.3067237795,1887.3783590798,-11774.8691412818,-14716.4702012449,0.9558627277,1850.9325321757,1.1793532762,-0.4359104748,-8981.766891654,1965.2185613419,-0.2943457027,0.7361715042,-2197.5287706115,-7697.2154533292,3669.9463521474,0.2052449382,-1.7893030931,1277.9475774248,-12366.5294824782,15.3670085116,16757.7543032525,5071.9532858567,-3299.6868586305,-1.7129234671,-3245.2559608386,3484.5724231587,-5079.5437510952,67.1520636192,146.3826155363,-1862.7519384595,-9090.2476314425,-31.4808808175,-213.7904482939,-4934.8130470594,-33.332258706,-3193.7702773034,-7424.0785516128,-1213.9886728419,345.9796760379,2288.4386133158,2146.5732816166,-5149.3989655115,-7448.4849466807,15516.8650873974,601.2418886142,-3493.1097638803,-997.3274476217,1494.6870574674,1.3679597594,-11865.8385427525,9258.0413011691,2887.7086115946,949.419768464,1543.7219804467,-0.3179171247,6032.009381248,36531.4311793926,-0.9767969653,14028.852762266,0.7999525954,1543.9917800341,0.7109168415,-0.6775413563,-1510.859074256,-0.2177435307,6031.0217839156,-0.0897553285,-21465.3035511276,-1.6863389555,1360.1756833761,0.7192544024,-1565.3035138717,-1166.0087536271,0.1636702502,-2.8121405009,-6.5006777542,-3151.9982854552,4.9340416138,15.0640346645,0.3666170317,1.8376502719,0.7086512981,18903.3024049665,8324.3688880832,1440.8284812344,-0.5613298684,30870.0310942384,-0.2223080167,14349.6977559089,0.3627699312,-6231.6185662403,-2292.0020308651,855.2950373188,-16783.3867466083,27756.7984766842,-1121.3153770027,-0.4846633216,0.2329545519,-1668.9813810321,-7290.9865159607,-17149.5235193731,5788.8920980086,8382.9393954403,894.1120376428,5380.4112007214,6904.5389556427,-853.3794275534,7525.1989134136,-4644.4385344925,20229.9959672781,-6209.8124235542,-1960.5496818736,-4958.3770879456,-0.710006469,-1444.5754072043,1024.4856674456,5.2037053578,-1507.2026606522,-2273.6260749333,2148.3259688745,2786.6016716687,-2530.5798474994,2513.6800561772,22759.7764797523,6241.6364062109,-1719.1076558315,6309.7633764317,-1738.9039363249,-75.8893636798,-23807.1337598088,-6903.877754985,-465.068817612,-962.1640280025,-9926.3105986006,-20.8469305227,-1.0317966654,-391.0458820359,3.51767712,0.0052609894,-1.2108309519,0.9256672609,15341.9678749322,-72.0547237613,-0.372209307,60.4456695411,-10227.2340164836,-390.8181390183,16132.9384912363,1771.902579192,-0.3619910012,-3025.0625659858,0.5343546887,-0.5936893142,6334.9477367036,8821.6338904426,-0.7297102805,465.1726801846,0.6801527437,1267.2008897495,-15.420394568,1490.4245581614,-0.8507768724,-0.2380495782,-1179.0767295889,0.1260701076,-0.813178674,11.7153714996,0.520822576,-1.4685543904,0.4820466884,-31093.5053784075,0.2490029311,1.111229969,0.5546134409,2991.9331953092,-44.8335187603,-0.4766453385,-0.7728719661,-0.5048249572,7642.6276104606,1665.8727988848,-0.0195772816,-1426.7998634075,-2282.1130969156,-6241.6763165344,4488.7253039868,11646.4909088249,-6957.7963520998,1546.3373344928,-5357.006224988,-634.8804894955,4532.6429585424,0.2109530683,-1369.0813326217,2660.1653605229,1.3693444684,-68.113275146,5792.8854756957,1819.6993404269,-6823.7196422299,-566.2992029304,-2172.2761846836,-3542.2809732055,24.4804930289,3444.1956621445,-1803.6336021446,-2448.4900194632,448.8616802475,-3416.4873717373,5399.6272213773,-2069.428485246,7652.1789271655,-24938.1905207738,-0.9056006475,-3442.4638988189,7784.1422608803,606.2104896632,-0.3072626569,-22.0916802545,0.1918353188,12780.620494106,3197.5403438682,-0.9100176206,-1.1331919162,-0.1808000928,1.1125834994,0.5124696618,-0.3954752296,0.7769783585,7529.6976006408,6.2009935952,-6495.7016355806,6705.6691578289,-0.3014895884,6724.8897497181,21016.3814999542,-6696.1192512383,-0.3334399938,7442.0423844329,-2962.5416188219,744.4299221541,-0.5215355419,36558.8904503562,0.9513431459,13438.6988939864,-23205.257922014,1.6113228311,-0.9265197606,-2082.3339483285,-1.0515097444,7983.6779687444,3090.5903659915,-1051.2034433091,404.233183403,0.5508838242,1981.6767075292,-14378.5706531791,-1.2379839982,0.5556091028,0.0508505983,-219.2195608438,-46.3622469243,7559.3699176638,-11513.7563490982,-1638.1779405348,-1122.1961973968,2176.2158090767,6794.2436629416,-1419.0774661307,9407.5575253488,-336.0927995967,6894.7351670301,-15426.5789436329,4663.2915935009,4.5671089604,-175.2920000911,655.0408607422,2719.4756223722,1.8377692391,-7318.5346730596,-652.2790174443,-125.4140471868,2926.2675871059,-567.2169608775,6105.9051524233,-63.5131666138,1832.9026841444,1085.0479137144,4726.6747345538,-5146.5254121392,-7778.3617475954,-1.9667412487,-0.5829716143,-0.3926202342,0.7524970664,4581.0808651559,0.4363904361,-7854.2594961986,0.1172163538,1647.2052102532,-0.9525130215,2290.5566651733,541.4846109256,-0.1966056093,-0.5342658418,0.3380449895,1814.4205951927,-7566.6354448269,0.9486092482,0.8927507723,-6131.5386670884,-1.1391050472,-22948.9646006056,-0.3129422546,-523.5934579528,699.8818225033,525.5465966856,292.4438931984,2482.0829155182,20325.6735920099,0.6929639222,-0.6412063961,9999.9974116064,2278.0692744125,0.0513928711,1369.5184712582,-2.6328633634,21359.7079125912,0.6763352331,12243.6392021242,1.1477493201,510.8154541561,-9882.7469873612,-0.8171863371,0.4469644985,-1.3689864965,-8111.6089736075,-32193.7523019914,-3542.7148644396,14433.9214184453,-1.5166891571,14323.9364041843,25016.6179875664,4345.6632167193,1786.8177743683,1.1033118338,12221.1174487143,-8163.9897410619,-250.3661918921,-4066.4844242261,-2594.7717337832,1217.9925776397,0.7467278398,45.4737470061,-918.3701555568,-354.6050858857,-3919.681407242,15049.1465886112,1694.2471096771,4764.4445798119,-5242.3267724513,21.566821179,4445.4710833857,5423.2418019863,-3.1144693513,-3250.5781237318,596.0674237001,9576.957873142,1.8724782051,-9244.3833354947,2.8239398661,-4.2645926024,27691.8075292657,-0.052630715,3733.8459321802,-0.9376609848,-1689.5948384094,7937.8327991232,-22036.2161039995,-2810.6068446472,-1.4831492397,0.1751730683,7501.4678385763,2949.1075448353,-4565.086929843,-0.8330353749,0.8679563798,43.9135158605,5.8172206627,-2810.668845982,1061.913376405,-25925.4790627164,-4540.5040325069,0.0463238908,-8042.7930874528,-327.2565062863,0.1387708286,5.6257086376,16069.4435011721,-0.3840614039,-30.0077102412,-1.0414931309,-16.2671048279,-0.0072092539,-12002.5635988069,-0.4507363394,1520.090305918,4772.1899032228,1856.1983089908,-0.8287357478,0.8304245194,1.3597708392,916.0037325375,7723.1402397556,0.901798715,0.4823381912,-0.3457263613,-0.9332582227,1660.9182367024,-0.3822309986,-20.4417500298,-5.1674334813,11571.1933453334,12387.7043071968,608.0452234657,-12703.35491861,3112.6960548196,302.829867252,-6817.1561088589,-7.9927377012,-9328.2638740693,2851.0771344086,437.3736998686,-5543.6756752951,-2844.6328086074,-17602.4992900927,-4402.2898729972,-11674.427417042,9938.1340924907,-1400.709315269,2763.3676591657,57.7541488084,-13878.6408530919,-1001.040869808,5184.4065795305,3106.0986062676,799.2990224318,-7501.959001821,-1537.151478794,11457.5632735772,0.881249013,12951.2489121021,34801.7821690636,6766.4713370692,1536.6003538027,2390.5868885255,-0.7852800632,-7593.5524337201,-67.6217499299,-0.0912665272,-0.2268682301,-0.5860426291,-0.0222279332,0.6346655319,0.4091639143,0.3723368362,311.868594624,0.6588494756,0.3496872316,-3930.6339879228,-0.6033612201,0.2415590885,-30.3732549594,-7937.4936998807,-26773.5213434771,-0.2011869619,-9074.000839204,0.3375635958,-1778.1440840475,-2.2508455315,-20277.8176929695,2034.3872825601,-0.1258431009,-285.0620154493,0.2305247592,-5576.1384368011,-0.0803350398,-2677.1894004767,6895.2723111971,3003.0927336647,-12675.6274052373,0.1132531544,8.7772393626,14365.2470392983,-0.8153255257,-16919.4472787633,-218.2185865051,1865.0430137944,4081.8260596731,2900.2539087611,-14527.0898109442,-48.9181510515,0.0436385348,10302.7689844627,-10671.1393906281,-5400.4618510076,4034.378529886,4078.61198962,57.9262114532,-2984.3489026054,8415.0742358948,-8290.6277854036,-1501.7881657516,-10218.7228680271,-1885.3866912478,6543.217234767,-7269.0514876324,4454.1919585792,-2104.200921,-15275.3579828905,9274.6356699493,-3790.0866280422,-4.8391805828,9148.8372312704,6293.0655519322,-1024.3586434788,2853.5966675473,-1807.8200834175,10352.3154898395,-4.478770542,-8654.32429213,-0.99763237,-8334.7518699822
##end
biasActivation=0,1,1
[BASIC:ACTIVATION]
"org.encog.engine.network.activation.ActivationLinear"
"org.encog.engine.network.activation.ActivationLOG"
"org.encog.engine.network.activation.ActivationLOG"
