encog,BasicNetwork,java,3.3.0,1,1425434396769
[BASIC]
[BASIC:PARAMS]
[BASIC:NETWORK]
beginTraining=0
connectionLimit=0
contextTargetOffset=0,47,0
contextTargetSize=0,23,0
endTraining=2
hasContext=t
inputCount=11
layerCounts=11,24,35
layerFeedCounts=11,23,11
layerContextCount=0,0,23
layerIndex=0,11,35
output=0.0244243017,-0.044695798,0.2948600854,-0.0868839563,0.1611995942,-0.0096471337,0.5199891266,1.0403423336,-0.1358172588,-0.0640955534,-0.0903920243,16.394061838,-13.814811448,-12.9285345999,-16.871901503,16.6718876801,-16.4677842264,-17.4816500392,17.3833605553,17.5497286975,-16.5054677475,-17.0066155192,17.3942290504,15.6362031258,15.4511926477,-17.8671640275,-16.9083392193,-17.5641046215,15.7082201934,17.0909538755,16.024899658,16.8287179576,14.9492864191,15.42698916,1,0,0,0,0,0,0,0,0,1,1,0,1,0.0244243017,-0.044695798,0.2948600854,-0.0868839563,0.1611995942,-0.0096471337,0.5199891266,1.0403423336,-0.1358172588,-0.0640955534,-0.0903920243,16.394061838,-13.814811448,-12.9285345999,-16.871901503,16.6718876801,-16.4677842264,-17.4816500392,17.3833605553,17.5497286975,-16.5054677475,-17.0066155192,17.3942290504
outputCount=11
weightIndex=0,264,1069
weights=-0.0043015622,-0.0040548145,0.0028414241,0.0016847185,0.010387699,0.0058911373,-0.0047789115,0.0058716729,0.0001107159,0.0055404172,0.0062575289,0.00186507,0.0014656392,-0.0000595297,0.0010214491,0.0067104742,0.0138889937,-0.0010959562,-0.0001095937,0.0067495094,0.0076037666,-0.0032250703,0.0050999295,0.1119551254,0.005855849,0.0014492157,0.0072598751,-0.0024974442,-0.0046077278,-0.0075405466,-0.0020531562,-0.0011990413,-0.0007502437,0.0021981503,-0.0034308995,-0.0074388955,0.0113364431,-0.0085027136,-0.0023347754,0.0045998416,-0.0009234422,0.0028744393,0.0042492472,0.0014724645,-0.008063178,0.0042727446,-0.0012748268,-0.0867935524,-0.0093420018,-0.0032931829,-0.0093219482,0.0012086761,-0.0014114147,-0.0189865652,-0.0032149181,-0.0044682024,-0.0014109708,-0.0122309704,-0.009008849,-0.0018224058,0.0001316128,-0.0066918419,-0.006426447,-0.0101008148,0.0057167912,-0.0105977922,-0.0045126898,0.0008694076,-0.009920705,0.0084652153,-0.0212646295,0.2503588742,-0.0060520605,-0.0050643387,-0.0097630341,-0.0007945795,0.0001543516,-0.0095901397,0.0001116991,-0.001221085,-0.002609253,-0.0048748872,0.0035132178,-0.0058345042,-0.0116131055,-0.00876046,-0.0027322319,-0.0049863665,0.0004919023,-0.0029258134,0.0059092685,0.0035020827,-0.0073528015,-0.000191697,-0.0104587861,0.1612359623,0.0057081519,-0.0005965024,0.0012723781,-0.0034358104,0.004342056,-0.0009769437,-0.0003480067,-0.0068027069,-0.0008171545,-0.0003580966,0.0009673144,0.0075329421,-0.0051052347,-0.0009240157,0.00513117,-0.0043356503,-0.0019300897,-0.0053011228,0.0020125259,-0.0036582848,-0.0011857454,-0.0054612649,0.0039555354,0.1620512744,-0.0073423284,-0.0031398445,-0.0044800788,0.0032129888,-0.009025978,-0.0057776331,-0.0033767684,0.0010642101,0.0021826452,-0.0015137541,-0.0060983198,-0.0017740399,0.0040182228,-0.0010558183,-0.0022108672,-0.0034233214,0.0017661442,-0.0052869746,0.0037297682,-0.0068701829,-0.0035203897,0.0018422023,-0.010072745,0.1089097951,0.0039670546,0.0057807715,-0.011885124,-0.0041355326,-0.0070750803,0.0070971737,-0.0078122012,-0.0108714556,-0.0098224355,-0.0010758415,0.0116996075,0.007167859,0.0055527544,0.0026252823,0.006247741,-0.0072197411,-0.0079659076,-0.0027804803,0.0065213735,0.0111745407,-0.0076000845,0.006845899,-0.0036034575,0.3840905024,0.0177718677,0.010800622,-0.0036316585,-0.0021579034,0.017813012,0.0075128472,0.0095615758,-0.0013207531,0.0045743067,-0.0020562085,0.0041357923,0.0146173587,-0.0040660626,0.021802808,0.0063582318,0.0087838253,-0.0073759828,0.0006581128,-0.0064995843,-0.0036686164,0.0103236595,-0.011443655,0.0127480114,0.3530360556,-0.0045644349,-0.0037492452,0.0108346654,0.0040997224,0.0042417928,0.0066686012,0.0073130765,0.004790704,0.0031442313,0.008423078,0.0021466261,-0.0021408613,-0.0117186254,0.0038399688,-0.0017853561,0.0005957526,-0.0037514208,0.0131665901,-0.0075262305,-0.0070924652,0.0094223269,-0.0027294403,0.0062225471,0.1956115658,0.0023042938,0.0073327655,0.0091671541,0.0028482079,-0.0099447968,0.0025384747,-0.0042377976,0.0133043872,0.0018555323,0.0107572466,-0.005937162,-0.0084476591,-0.0060918295,-0.0057916003,-0.0031574003,0.0128564935,-0.0089094102,0.0114578785,-0.0032306437,-0.008237501,0.0073438169,0.0039317496,0.0049691415,0.1966395882,-0.0051113267,-0.0052622164,0.0015103821,0.0092883625,-0.0028029446,0.0074054102,0.000725721,0.0035158879,0.0024655909,0.0008263824,0.0020457615,-0.0056140261,0.0065083511,-0.0068763116,-0.0018104427,-0.0073065444,0.0055510446,-0.005763999,-0.0045721744,0.0106135441,0.0003136985,-0.0022813249,0.0024983869,0.2549865548,-13860628.826345352,21950732.944343638,-5444516.368498731,-22586206.581189092,15174416.803256694,27097375.250071704,-3610256.914154962,12307841.666979134,-9468464.582738148,20438471.522031456,-30413443.333134267,-265793.1469784325,-1206443.6109125437,177530.1659603547,1718260.8378162165,1406281.5536780409,-3601453.4298712285,971278.4964741084,1792109.3861759221,-3460438.1474703075,-2423990.047512499,-485853.6464293603,-296647.7847361158,-48353.6031705389,145042.1379696026,-448667.6451348815,254304.3465398766,452703.7235590648,-29872.8015709496,115272.7328265595,-257547.461338075,403086.9473881867,416468.5469090249,799640.6302451779,441171.8900510948,4803006.983991102,1644367.8881729722,7420856.333793056,-12229223.008794438,-13788584.386896806,3614063.0163835958,-2882832.959632894,-9045868.328561038,23646950.14227869,-18692050.319471452,16047781.211936114,285730.4955839475,455196.9760095511,5992991.498998078,1673278.5932782714,995158.2382926771,4150922.4504738506,1565677.4180953517,-511024.4376218862,1361384.6003352623,-881238.0607948615,-1814393.083671579,-1641063.0243148073,181015.7958605843,-775210.3196129772,259770.8391716424,-16786.3245896176,-217880.4172753644,209523.7020497698,140072.0117012501,62302.0753297474,-131457.2068978379,378799.2835681161,-520728.1121917804,614113.3239284845,9333675.59641367,17006545.98597016,-12971580.418408548,7427471.530379196,26258109.521590192,4224961.712525114,1155428.1334586262,-754749.0501771197,-10546738.876489496,-3942559.253185501,-4724766.966111465,255358.2419308853,1676222.7723892722,-578232.4889197547,2751083.528390514,1489554.6168471791,-656333.0281656832,-790095.3271714367,641668.3460805811,-1437340.173528136,2326515.8781671836,2694199.7589828703,114152.5633234627,-362808.2032350802,-253781.5979573474,270874.5753505564,81526.2852273335,-76363.3743845654,372390.8410830966,-49517.622846166,-148595.8049224176,56260.4087522306,364028.7765882832,300857.9578847566,-159432.8876383483,-6939754.405920096,14678553.673549565,3991563.0107032754,-8039389.676756074,-19008025.145155102,2741019.5291338773,10017260.68688981,10889100.90400151,9847851.383536186,-4991024.987161417,-17996544.201832406,391734.1568006878,-1362534.1614339543,963754.2254269273,324735.8418140268,1316310.5314994378,3711469.0254217843,1508233.5476276688,3432022.14350361,-158335.5341381048,-3101845.8183998372,-3394137.5499891317,1218759.7320943428,20550.0512202232,-530110.9885403777,485037.1263239892,-185457.1789399944,-99496.072868532,822478.336007607,185085.307388238,255995.8199028082,58745.6907149099,-95673.9656472814,-94960.5909939515,-34745.1086560617,-28889828.90214906,9515853.668915786,6782364.401545471,29640552.764403023,-8866190.63345647,-19577918.543521363,-2298904.628291563,-7561858.724796716,16818940.145385794,8819587.680802561,-5920147.581901374,532081.284503845,-2021068.9053237017,-2348172.3947048676,-286098.7505869042,3048924.3582656514,-3187171.7237932757,2102033.001954633,3757059.013038127,1548935.1348713825,-185389.5043369175,2163799.7354751807,123762.5346088925,59011.9225842134,-375637.1553961689,305533.5570363627,204844.8309796957,-922116.1098378028,200411.3868095122,61614.9012597839,-180423.006237192,152420.9425444616,-419606.2933833802,-616477.6654530994,-53396.1765076899,-19987684.202107582,-7345810.883056491,12382607.835070582,16053076.511918524,-22189121.25895753,-18318326.600888204,12817872.500785345,15187067.634228226,5784591.724081223,-880809.8516962059,-9278057.98616396,-495446.7346462951,-3047263.019034201,937817.178247099,279075.3301028432,3936753.996174783,-192968.6979171798,815381.4161005802,2245560.1871885997,-1051112.173494549,-2769183.5832200223,-3131466.3052091184,-296988.6194392246,59066.2241144127,-200421.5162338586,-400978.5536515607,98047.8739704907,728383.0924998478,119726.0898175244,202618.5771202277,-413808.8352992327,-247835.4312862701,451701.1082948542,515139.2312503976,210413.4654785,-395819.5400484062,21557969.49710477,-1615227.1287263897,-22346953.299500015,-139208.0879153169,17530358.89205992,-2117662.9710182482,2619765.9860988413,-11087254.27778004,8820369.98493048,-16112631.609552255,227991.083661024,539769.749896898,781862.0441868913,431917.6037644658,1298125.3291776276,-841756.1357941264,2313681.7275911015,2668594.919807586,-605201.7317763314,-551483.2188350632,-1562722.919705807,-951606.5490680577,165448.5671489413,40322.9828687524,210478.9910953611,-787298.4766772884,-59006.5700024202,680553.4697416169,-478693.7148823732,67996.339552388,44876.0800364865,81974.7842766517,-839798.327668238,-453220.6548882881,9030470.313867882,5597265.353626638,-1878962.1710299333,439803.4800883759,-9233084.782397378,8926438.108171131,-14973262.06068546,-11654047.113129359,11114133.694605438,1700797.4315230555,6617731.90400987,53611.9989099063,894472.5805960674,-3132109.6912399945,-603827.670650855,-752120.819094443,-2294525.353579269,-24678.9832966354,-1012740.4603012486,956247.123746027,2472128.099476708,2123802.412566115,-615290.2472409098,-379692.478707857,-682357.1325483389,-95574.0683018136,574483.1769395994,-117055.8232942024,-415062.5664774066,115545.4790668235,181945.027588121,124022.7531239785,258704.1332407132,-138966.7359689772,169688.5164875813,-22666975.099485572,-591992.2602890602,5324787.226130131,3951489.982927082,-10374511.144532109,11263952.75726713,-10213818.289276468,10665333.535518337,15733813.123684652,983863.7167120322,-1299017.7765153826,-247826.2021302918,-1258991.9720482423,824131.9941896421,-1672653.4518214564,1900712.293473806,-5300141.291595333,2328067.902553133,831184.7828361872,-2526766.915253255,-2778774.4078354235,-1040444.2871959553,2940487.6454456183,171378.2333045663,104549.5021416455,385861.9450701533,46443.6218081005,-676943.4352759882,-199517.6079854775,90942.8967905223,558949.3680317865,-542338.6894182139,97961.7979876045,-221727.2376524767,-319594.6545015057,-5040051.653611783,-15901995.26977869,-11680183.546775639,1545744.8028372845,6436481.398705151,-3909135.9114297424,-1639455.3229417922,7115250.960618468,10646186.798716588,-5398622.905398095,18732425.976834092,-443712.2037697934,222465.9707021394,2789972.2555159084,1387657.0405866343,-1415236.8919637753,-3885676.848317772,84357.8184128574,-4275775.133134839,-1042935.5712759832,3197617.1869729115,2565288.8916699835,-2836662.8999742763,183182.5902028297,850689.3523299999,30422.9928179295,-419954.4950564655,119251.7930607861,144918.3831961494,-211689.0629097356,90777.7433799252,475532.9135300156,-248255.3427819923,-498278.5115229614,-427365.9840273738,30018294.057118148,-7198507.901547529,20760254.616667774,-21531.1429903283,-357708.2368060267,-10366260.100719223,4309962.418766481,-28288608.02675711,-23343838.367357496,8722297.779326268,-8639179.614070535,224425.3402114236,-123560.2256981614,-614934.6051310428,-1532005.3990423973,1617746.267068598,1088044.4684228853,-944712.9012696681,6854600.574993686,2198279.0644905744,-1161504.9864138095,-3549445.647446993,2131599.808378158,116644.4653019257,-465128.0735533403,45638.6071141573,22163.253431014,33606.4994556024,705814.3555001522,-176839.5448171505,57617.030272029,6425.5920304194,-364729.9498319472,752230.1581943296,198567.590220742,-3027199.892147844,-837913.4444837789,-6020638.818887585,-5985534.457105759,-13802248.296238938,7103133.2129676575,-21441549.14855015,9164139.500714587,26036627.214173786,1112716.5290146437,-3787771.004597961,-63885.3976525436,-1732823.0113394998,-1004964.1484260808,88251.5132800483,2203213.4200423663,-1721491.8041910382,1293004.3742671136,2594605.524267757,503899.0145355706,-267835.8831604462,-2389898.5720584253,1526809.0656283672,40786.8307130296,453264.1092721092,656720.79212949,-93175.001458191,96787.4588740928,267155.6980271973,-488472.6954013878,349303.8455294463,59513.3531208698,-412272.8557112981,-216929.5246138516,37784.6003723823,-19552866.40737262,1044008.7405132006,13498420.10858361,40054661.9437538,12969719.93777755,-39714420.650571175,-964721.8518543044,-7953304.781572699,7516843.118529026,3906075.4635955966,4956777.0950532025,48217.3887097422,-2711419.637392791,-3195609.1866489076,-69741.1613783508,2042099.6487061572,-235915.873733718,-3197754.459102164,938356.0301464862,2334353.556656555,-636428.3679813563,1845679.2940685083,-1564567.9847160913,319426.1760863936,401125.1427025123,105551.4160002052,-91814.2146819497,-510560.1342125926,330032.1610895888,245808.2345116352,-201665.0806715368,-124452.680005143,-39342.0668867631,-68476.1689286358,-225425.2343067097,-5712308.045721336,9854010.51930129,-31677914.18969028,-35206815.94920204,-5283016.591823384,35037595.69201967,-903239.4325476753,11532068.122905191,-7372379.153565677,1922571.7546439194,16618763.214869225,-275702.3587644666,5361178.525363303,-2238803.98943434,-946472.4387743186,-2328067.3974787914,-223653.4195930721,-2327285.265613197,-2181663.520039633,-6433791.553783856,-486261.2289752747,1872730.7281023525,992989.7709048121,20832.5260504853,195801.3647187734,-240252.3067619185,-34941.9969871865,339018.3428025336,-35871.8035359307,118446.3644189712,461831.8673862705,-416064.6304572784,76850.2506512029,57197.7337920682,804.3324861657,4508066.874673719,-2364425.836797503,-10008388.187411219,3906552.6500957822,9128020.671328476,2050504.8120505412,3924390.0479064267,3677114.898574458,-5066133.758359115,-10386565.87302524,5844163.105757222,348136.6514458796,1721354.1201478862,-2334916.9823069707,-1395185.1280105666,-2448034.4871848808,-932833.518774704,-1310568.7317684693,90706.9015752894,-1136788.001649485,975498.7762755116,717780.1547033165,-69447.4841975084,122754.768693912,-628961.6473302889,-501472.500103207,-233577.8627035032,557375.7359374741,319568.0885147081,30542.2630407066,-176506.3938064676,458601.1654723852,206971.6360395269,51573.2720971249,33972.4584149207,21448976.96521972,-22931730.46642978,1388593.060270635,-10433131.888113411,-140516.1560388781,5946334.768826796,34970558.88842946,-2539202.953893316,-42366636.32672718,-3736738.1047406085,-4426012.653350528,828857.243954094,-2405903.1455881787,-2500606.1924837884,-2120888.315092097,-364510.9953656199,5506733.398454358,-3797638.671518527,-1219439.6364359285,593478.7754399803,-124164.1371648758,-920064.9068295273,558550.4805616268,412465.550779463,1176509.6155509702,215056.5183371808,-396208.8749347542,-124198.1654544359,-284588.8939429087,-615092.5323143363,657212.4375896332,449909.5092617091,-43401.7260558235,-95376.7051093661,-98750.8961597696,13150273.925074026,-9902762.894198453,2574965.6798649514,-10372976.523090335,-2376514.124792747,-4150462.4077346106,24918088.921937577,-11083236.059015006,-20149984.813819684,9162972.98622321,-2386079.652034999,-582504.4116638342,-1221295.4554665084,-2322862.0355229247,-465940.0028679408,1597650.650655265,4191371.6633367245,-2599075.8037760444,1010530.7146067355,2599132.1616276708,-2208608.1374335927,-3295741.7786072623,1124219.5597959133,207351.9512858741,-192087.2282257882,-238604.1234853329,-53510.3805824385,-20117.4251501787,-151656.0499417809,67728.3692408338,-127808.2822708519,1241161.0381321951,-217023.9401524707,266087.038228777,395726.796534741,6139368.189281169,-13156621.297820816,-1640487.1592468969,-20529696.02891092,-18058812.708550263,6856706.06400173,9982017.681487648,-3737926.364563624,-11443824.394062854,4581009.21737454,3199965.4409670113,1284352.771965236,-3137990.5720313108,-432427.7996422169,-2089.9107190178,-427788.3553418538,4336148.089199692,-2204692.2742812345,3186402.944615462,1099892.6353596367,-424076.6175046773,-1497879.5510166413,2981154.8992751795,-234319.2996413464,272386.2127103954,253348.8147919619,602771.018985641,244343.9616064049,-472852.0342530027,317766.2258538643,-268947.6362813444,504732.9305777098,337394.8436781486,-5736.8511246552,137941.6198305564,-1804951.0188205736,-10360449.352256462,-11605974.608792592,7498612.95949845,4310795.159561292,-2811622.4493718664,3641743.8666577255,-7755242.760458314,-9749678.13327854,12265516.90794457,4357389.417049826,131094.6243284734,-3377656.2692642454,4101199.406728627,2212254.0748285325,-617691.1690006753,-3147133.8222275223,2119269.2548312796,-1048676.2435021673,-2256218.049629569,2020742.8276071127,-1230183.9747099257,1500608.5504719438,-477494.3166684206,178816.3893758694,71191.4982327308,253548.1717243546,499379.9686606961,-576854.1666846409,720606.7606996245,-435327.543758494,-125564.2902800313,364585.0415104032,346389.4264187314,850619.3803330018,2705661.070867534,-9316277.622778548,21952110.90005468,22176721.373604853,2286179.2236567573,-22311201.6771787,12150819.555259256,-13921933.159792203,-16569068.831319973,18150311.26770362,-15267729.644157931,-1153719.1177233313,-5905116.9923014585,252901.9316024504,956256.684642485,-111557.8370245476,364003.9869080923,3012380.139015976,53626.530529467,4741249.131449823,1109591.132883689,-142898.4067509184,-1657974.1796633317,-8006.0330185165,-148585.2319816633,-64568.1962885102,143438.7156626645,-239040.7099208048,-139927.3532481847,81252.6224737666,-214665.3821737367,-265600.4254203417,470860.4066187165,-510857.9110099703,307904.9995081317,-2961742.105677025,-11727069.730973361,28170197.986919623,15624414.808614396,7057518.220784153,-8575488.258474687,-1306199.4484607687,-2145716.9023466306,-22618862.953169152,-7328599.16170306,-4112056.4254882205,550396.3770150418,-3768999.417620471,1197869.2785264254,2806438.0472911866,1882621.8754240312,3539982.6433731643,-785835.3144116984,-439593.949584428,3543581.6435620096,-590571.2554494381,-2962847.8329718304,-4556819.131026332,-206194.464058636,-232444.2588938487,-51751.6728710076,273168.3461238592,-520485.0514536165,-852308.2067398543,813509.8030436734,268731.5431969728,-231311.5431445571,743848.947553181,883078.4754848769,261413.8424215764,-3184227.3898140863,-2686750.7168616448,378325.0378488271,-11669808.496653177,5450691.596851905,12431825.225563703,-9312709.078459565,-5574500.769014218,10766386.081117203,21112944.67218382,-12075820.105438018,-903679.0343982236,845630.7693099428,1620609.0418377048,1736919.6344830964,3893271.1334246085,921471.8843044069,5497127.494322917,-3835341.411697346,-1017455.8289210908,1071063.682309906,-825802.3909339601,-4129406.555929053,-319225.7068541733,-500798.1905959148,21700.5957234832,-556863.6845544969,-371135.0447544456,938676.9190935489,-434068.4750099293,285453.4757915451,-441636.1844481706,122063.0226032766,-783580.3540347976,-816789.8748345416,7289222.293913953,-18946045.1037033,186871.2760530827,24559694.828134652,7683831.795706282,-21768149.604935918,-11291289.351689843,-18266982.063557196,15528967.639780032,5154331.016746809,17320540.005414203,-686319.5446195616,-892893.8281585237,2072961.4487701165,1513857.7713784573,1414584.0724963874,-5614101.711483128,-5045.5550555777,-1556756.754196319,421846.6625895511,3908179.2270509084,-2063648.4454500324,901155.5852876242,326760.326999984,-589242.9604395623,247370.7971409724,-56412.3180138378,190065.5693022965,-211555.7577596543,-140816.0218645587,151434.8203479905,-44253.1416596474,-364811.0596451272,-607331.4139738,480395.8802468461
biasActivation=0,1,1
[BASIC:ACTIVATION]
"org.encog.engine.network.activation.ActivationLinear"
"org.encog.engine.network.activation.ActivationLOG"
"org.encog.engine.network.activation.ActivationLOG"
