encog,BasicNetwork,java,3.3.0,1,1425320197594
[BASIC]
[BASIC:PARAMS]
[BASIC:NETWORK]
beginTraining=0
connectionLimit=0
contextTargetOffset=0,38,0
contextTargetSize=0,14,0
endTraining=2
hasContext=t
inputCount=11
layerCounts=11,15,26
layerFeedCounts=11,14,11
layerContextCount=0,0,14
layerIndex=0,11,26
output=0.1931269177,0.0000789834,-0.120044394,0.07604968,-0.0000748876,0.026804209,-0.0007853107,0.2166508108,0.4532833422,1.1757491625,-0.1135072786,-14.2570540248,14.1793242404,14.568891656,-13.2974830816,-14.0143914691,14.1344908115,14.2467114106,14.1868113093,-12.7547008415,13.7277280695,11.1660235236,12.8590982666,14.527108351,-14.2334623729,1,1,0,0,0,0,0,0,0,0,0,1,1,0.1931269177,0.0000789834,-0.120044394,0.07604968,-0.0000748876,0.026804209,-0.0007853107,0.2166508108,0.4532833422,1.1757491625,-0.1135072786,-14.2570540248,14.1793242404,14.568891656
outputCount=11
weightIndex=0,165,529
weights=-0.0059099991,0.0108944719,0.0161058195,-0.0042391352,0.002183735,-0.0165477706,-0.0060379884,-0.0253378214,0.0196804827,0.0149829212,0.01100025,0.0013600532,0.0149033223,0.0131073571,0.2484401114,-0.0000016373,0.0000018749,0.0000022039,0.0000015144,-0.0000010235,0.0000001422,-0.0000001576,-0.0000001635,-0.0000006006,0.0000006621,-0.0000011402,0.0000009513,-0.0000004071,0.000000369,0.0000002103,0.0106959166,-0.0067877916,-0.0047995863,0.0008713979,0.0046026852,0.0158867483,0.0024020529,-0.0016900194,0.0057183705,-0.0007852805,0.0025756322,-0.007256975,-0.0166875597,-0.0168812712,0.1903314401,-0.0128555702,0.0062050236,-0.0006397793,-0.0031146376,-0.0024367897,-0.0009672025,-0.004550216,0.0065171411,0.0024447573,0.0036480252,0.0103940597,-0.0054246252,-0.0187601244,0.0063304525,0.0220102073,0.0000024216,-0.0000011279,-0.0000007591,-0.0000002815,0.0000014169,-0.0000002992,0.0000008548,-0.0000022249,-0.0000007605,0.0000011548,-0.000000222,-0.0000018303,0.0000015646,-0.0000003259,-0.0000004891,0.0020761196,-0.0184832874,-0.002692606,-0.005270724,0.0068172571,0.02426094,-0.0006889313,0.0017688826,0.0007728209,-0.0034401382,0.0055141189,-0.0007461086,0.0167780595,0.0187612616,0.0533757902,0.0030572283,-0.0490635234,-0.0021781193,0.0069979865,-0.0123967902,0.0017377866,0.0072967853,0.0916044158,0.002682582,-0.0158423832,-0.013785444,0.0185466999,-0.0363699398,0.0153902756,0.1759889808,0.0070928799,0.0437297912,-0.0050461514,0.0107937685,0.0161268341,-0.0288026914,-0.014886495,-0.0051323521,-0.0245738274,-0.0137649639,0.0014636802,0.0044335959,-0.0270785285,-0.0286895344,0.6199723761,0.0031796791,0.0158490155,-0.019124423,-0.0091325503,-0.0139112126,-0.0078214056,0.0041666066,-0.0025371438,-0.0027439576,0.0073799782,-0.0140243299,-0.0090152347,-0.009512539,-0.0336474539,0.118782538,0.0305684464,-0.0028077639,0.0145981837,-0.0053128507,0.01022017,0.0107280944,-0.0014789429,0.0106974162,-0.0064170191,0.0195287985,0.0079210089,0.0035233317,0.0043049031,-0.0251126063,0.325288246,0.0106837527,0.0161146698,0.0043944408,0.0071141498,-0.0340615924,-0.0071366369,-0.0054237918,-0.0221922188,0.01159726,-0.0192575208,-0.0097827172,-0.0020366418,-0.0106175286,-0.0176617717,0.3070816864,79280.6508336214,-0.3561961342,174624.0151967525,292494.725200437,0.6766551677,285776.3381693821,274487.6695390762,242161.0869424098,-492632.7500643812,-706399.6901261148,-176806.8175157385,6421.1575985387,-80579.272055259,-5042.2848287166,8803.721297129,1650.5770824244,-19528.7898384142,-363981.6980435904,242031.8089415784,-171871.4241229921,260542.6900954306,-20251.8128623295,-105429.87000107,-49590.591958656,11648.0841691392,38782.381698441,509623.8133696667,-0.5903576235,-967794.1106997785,297243.8573010497,-0.5771867064,1078523.5403298512,134943.5691845594,104927.3210962512,-184678.8372423577,103465.2564947962,-541112.9423287092,32442.7556457923,-89144.1181802908,-17765.7055372285,116021.997372478,-124824.8519833368,51632.7140106805,192813.6928189119,-79893.1093657109,-10392.0727674877,-324169.6169807448,77755.6061713376,-218785.0904058384,-3626.4691279745,-98077.0911641318,-30739.8006872044,141858.3104981751,0.2286501089,1219697.5310665967,195544.6685787733,0.8399848994,176014.33944819,-1512124.3142729865,-593835.7617161362,1143295.4555830797,80931.500038922,-14951.5353119485,-56399.968060642,-17348.6579211375,59997.7314594346,112136.225146109,81641.2119798646,184781.9459239042,-87192.8245718816,-1913.9738026213,72772.179765254,-427485.5019352969,-189079.0480303689,48144.0721153573,15012.303322452,-52785.3637639706,-79900.4231224291,-243809.4720354851,-0.5782923373,-132893.4918020574,-220636.3386178981,0.2406703888,308934.625642675,-45113.1264958051,556581.74363859,52310.0686775644,-523434.1167993241,214164.5231767011,-70065.277839302,-25814.3978859253,15774.7811334899,107648.7744189339,-80243.4748576295,107335.4781652589,438169.4683167818,-310467.9584531148,-43098.8748403468,156762.9536615381,14284.2433000111,-201801.5898541172,-44683.9787930177,18042.2505019015,-41472.5474062227,-330897.8240886563,-0.6689041328,-1299536.3255425396,-643765.2333364927,0.6577883041,1165737.3049861314,-34226.3460998112,371821.9422338437,823802.0895103437,-99091.6983046095,255778.8087163077,-54951.0902820876,-105766.2395948335,51453.0915227326,131175.3773491658,22258.4520242649,-7605.0250717486,107156.0992727023,-238364.7090817594,182336.7048920771,-20446.5340202769,134854.3066054955,-288073.9271510831,-42270.8126941336,-3017.3694557807,7132.4683531939,377897.1268352968,-0.1823875221,332253.2885891991,-1189549.8921363987,0.6027971217,-515138.3767640626,485666.0812186589,-253248.8497878893,1115357.3358986804,143568.9328836335,-313474.713478857,-51319.6632711141,167860.6554941444,31193.2755346468,-159983.7939518421,-90232.1379556146,93549.0657457985,175297.7732269711,91288.5337134057,25852.503508176,45542.2506329266,-150571.3121990791,81780.243225293,18110.9825751561,-10465.9486087544,-46273.4587107433,-144258.9504741083,0.8732714979,71265.320306478,-1607993.3226647668,0.4990886441,-930660.5705421354,779168.8279415674,-281937.7458518101,450075.9847217295,248837.7608411577,172028.0575140826,-27731.6617918626,-7033.9416814134,-16379.3734810038,42104.8706056933,66309.50076256,21048.0077438302,575311.1300927936,134001.7855715468,-10835.058916851,133366.5627295628,-53802.748902387,107797.0274930842,-33.2811636469,-50160.7360269107,-43884.6990518059,443545.1479097377,-0.4272356862,-570358.2180282474,-1248696.7194775182,0.5831089337,1884695.712316951,86499.2965809476,333367.2053662925,-624899.7389106045,-502683.5465553193,132902.8460668248,14649.2049637954,382539.9646158165,36297.0681338298,92567.135713547,247431.1975001412,-36493.6250448318,-26381.890122679,-60503.1219568173,-122443.9798363433,-194188.4884663418,26383.4270223868,55497.2487294742,38722.5644039281,4649.8332338732,-4102.0515564661,-399648.5720858673,-0.1726737654,326361.7889385889,279475.9481676393,-0.1206692394,-802755.097567783,-163028.1684490683,-288463.8556473299,641055.5156569487,465439.5293998546,195807.942387532,-39068.6457101834,-274410.9300163817,48926.3687602325,-164652.3339515615,225803.9626929987,-90438.3891083364,-331317.2144493977,75009.0322862682,112741.1401845944,189097.2975282927,50925.8184260367,-287541.3163602832,8452.5533257293,7862.3291185634,-20846.3651134729,640464.3498853788,-0.8330766197,42320.1554487637,-635837.957873982,-0.0718244586,67231.5039080812,985116.0965759075,-182876.3003917819,-1879156.2448144925,355162.9822712501,220107.9219294526,-77474.5528827262,71832.2319241918,-69215.9990972304,-6917.3974103513,76866.8707815794,59712.8017994483,367051.2751556578,74247.6684499813,-229188.3747166444,300544.5226691906,-138569.5423742443,290354.2093369086,9022.2256934371,16162.6655431989,13114.3513481351,264045.8372343019,0.7288698269,362643.0983406978,214072.6641795488,-0.4772771867,85080.255682949,-139379.0262272962,7270.8405975025,-181558.8363755281,-216184.9601840038,-405663.2122206325,72561.2310428536,13704.5748492339,15716.6887896273,-32315.8424868278,44132.0913057035,139865.4699362105,-362997.8394498127,-116300.9511983955,-14460.2249732087,121656.1334296036,53594.1250175376,-6028.8316767443,-9819.9686572071,-23143.8852551597,2237.8186187895,96781.1799540034,-0.2998820469,1607025.032749087,11542.2164788371,0.1364900557,-1347072.92296932,967992.1415891327,110476.0662396645,-1144770.21749996,-1147083.4990930976,-101482.4979450999,-68033.9152033096,-17946.3600696228,3752.6116125502,-85609.3915919597,158887.1314197619,120619.3882378982,-350011.2839060759,23018.3354567924,-360937.8418683491,137427.9402941399,-120190.2535578907,217372.4889464875,16036.0391936761,-25526.2044896157,22950.1255585804,205909.0323852252,-0.7254991715,73619.0327143696,1107342.4099167213,-0.7454464949,282298.3703037241,488124.5142080563,-62417.366646462,-78591.22364535,-675184.3109184119,-55397.5208584345,65658.7380344645,77581.3196477113,-18674.9813894988,70077.4027568681,-215445.4986574885,89162.9096448235,-529347.0657680333,-28919.5725103417,-117285.6932151952,92531.5048212646,-12070.2340631845,85359.3703370018,21965.7222088268,-30877.1808637455,-60611.5758627259,21542.417347356,-0.2423041286,1341852.0913915145,148646.3445310447,-0.7328107314,-1716170.027913971,600662.7781960518,-285488.8554793808,-210888.5868090537,-242614.6333652364,-246458.8004318609,-32129.0119714712,66199.495452233,-15464.1705164705,-166300.2337520673,315251.0130122533,-33693.8653013408,55314.9711666382,85975.8226081041,-132375.4127254165,121667.2435583987,-18275.8387941171,36272.2947119606,-3645.4365775238,10371.6248431534,80118.4646148157
biasActivation=0,1,1
[BASIC:ACTIVATION]
"org.encog.engine.network.activation.ActivationLinear"
"org.encog.engine.network.activation.ActivationLOG"
"org.encog.engine.network.activation.ActivationLOG"
