encog,BasicNetwork,java,3.3.0,1,1425328842502
[BASIC]
[BASIC:PARAMS]
[BASIC:NETWORK]
beginTraining=0
connectionLimit=0
contextTargetOffset=0,132,0
contextTargetSize=0,30,0
endTraining=2
hasContext=t
inputCount=50
layerCounts=50,31,81
layerFeedCounts=50,30,50
layerContextCount=0,0,30
layerIndex=0,50,81
output=-0.0434036142,0.0925286753,-0.2080235702,0.247459442,0.4484938247,-0.290141645,0.1705965364,0.1256394119,0.0290641606,0.2835174587,-0.0004500825,-0.0550700608,-0.1041577614,0.4683144751,0.3144983812,-0.000028649,-0.1613750543,-0.034109735,-0.1055797139,0.3164141279,-0.3485166494,-0.1787703511,0.2481210548,-0.2417038153,-0.3969875093,0.0710095183,-0.0301451026,-0.358831417,0.3283605169,0.7089768139,-0.2530048686,0.336219074,0.1800162831,-0.0732639411,0.0007061937,0.2358956478,0.4347156211,0.6014561084,0.2724775618,0.0149324856,0.4387547446,0.1597572441,0.1039507996,0.4042707062,-0.1598002036,0.2907829205,0.729951513,0.2759337569,-0.008226356,-0.4018851259,7.1243153756,8.698591359,10.0289175296,9.6413569865,9.3072372832,-8.5478653156,-10.2737277149,-7.4936494229,-9.6619085282,-9.3798318162,10.5011073653,8.696663878,7.6983521018,9.8208107259,-10.0106214298,-10.2525721156,8.0471867926,10.9362632517,8.0506167875,-9.0272845304,-9.3774507277,10.5060477337,-8.3101905502,-10.0158252354,-8.574844034,-8.143123628,-7.1554223347,9.8743778607,-9.8796162653,9.2703628669,1,0,0,1,0,0,0,0,0,0,0,0,0,0,0,0,0,0,0,0,0,0,0,0,0,1,0,0,1,0,0,0,0,0,1,0,0,0,0,0,0,0,0,0,0,0,0,0,0,0,1,1,-0.0434036142,0.0925286753,-0.2080235702,0.247459442,0.4484938247,-0.290141645,0.1705965364,0.1256394119,0.0290641606,0.2835174587,-0.0004500825,-0.0550700608,-0.1041577614,0.4683144751,0.3144983812,-0.000028649,-0.1613750543,-0.034109735,-0.1055797139,0.3164141279,-0.3485166494,-0.1787703511,0.2481210548,-0.2417038153,-0.3969875093,0.0710095183,-0.0301451026,-0.358831417,0.3283605169,0.7089768139
outputCount=50
weightIndex=0,1550,3980
weights=##0
##double#3980
   0.0052935253,-0.0020391331,-0.0086014322,0.004073205,-0.0025540597,0.0028972582,0.002693895,-0.0066749109,0.0006067756,-0.0010300748,0.0029619063,-0.0011148542,-0.0020064799,0.0017168177,0.0015310977,-0.0016446171,-0.0066105902,-0.0011292564,0.002073115,-0.005665682,-0.0033998032,0.0014419409,0.000386993,0.0041058189,0.0025343852,-0.0009500582,-0.0026832067,-0.0027663067,0.0042130309,0.0044835078,-0.0011583336,-0.0004987447,0.0095507056,0.0030753319,-0.0071592189,-0.0029975254,0.0075418117,-0.0026692423,0.001366839,0.0004388185,-0.0010653706,-0.0088860646,0.0023369247,0.011654664,0.0019574151,0.0045218593,0.0030916855,-0.0065617974,-0.0009378722,0.0050760287,0.0008913235,-0.0019584481,-0.0078883729,-0.0075263431,-0.0046261637,-0.0003864385,0.0064785644,-0.005479243,0.0007129503,0.005099349,0.0066253422,0.1396555137,-0.0035533724,-0.0035013269,0.0005658532,-0.0032987381,-0.005143349,0.0046255277,0.0022270145,-0.0102186196,0.0010656858,-0.0052312123,-0.0000838718,0.0061547519,0.0010949691,-0.0123194147,0.0055359419,0.0022347751,-0.0060398783,-0.0013822846,-0.0090186801,-0.0065220609,-0.0004121579,-0.0005394809,0.0069669716,0.0094064719,0.0018802698,0.0063866793,0.0076786346,0.0042284252,0.0112407906,0.0093114017,0.3444824755,0.0018270497,-0.0029104183,0.0049601592,0.0008563935,0.0054517598,-0.0050993792,-0.0005498409,0.0029305797,0.003687097,0.003952047,-0.0003827709,-0.002272715,-0.0036734411,0.0050662361,-0.0034462366,0.0061548605,-0.003411968,-0.000334662,0.0087410849,-0.00159765,-0.0022113606,0.0049890336,0.0004807266,0.0015195195,-0.0018579466,-0.007121418,0.0059129696,0.0090644539,0.0024419233,0.0001489491,0.0213590033,-0.0016790561,-0.0001909076,-0.0020166652,-0.0063930988,0.0006203267,0.0094097871,-0.0098499275,-0.0036554539,0.0074061167,-0.0002182713,0.0023166975,0.0052185106,-0.001039821,0.0089706423,-0.0035508056,-0.0047812275,0.0030947845,-0.0003088439,0.0066970617,0.0093152346,-0.0047251352,0.0002339482,-0.0085231589,-0.0017740755,-0.0011755146,-0.0012337669,-0.0049377703,0.0073938479,-0.0009536616,-0.0016722843,0.0760866342,0.004195884,-0.004614794,-0.0043380011,0.0031848097,0.0084410587,0.0119008827,0.0079866835,-0.0012191758,-0.0001072805,0.0115900413,0.0009488628,-0.0031657671,0.0060019588,-0.010319339,-0.0020488608,-0.0027999073,0.0064836132,-0.0101891677,-0.0009699466,0.000879599,0.0036770879,-0.0003180928,0.0068978967,-0.0073339404,-0.0016336848,-0.0027300089,-0.0077596083,-0.0109015856,0.0130773618,-0.0000759254,0.2026380313,0.0031829936,-0.0046203497,0.0111934002,0.0035957986,0.0006685667,0.0014167758,-0.0120307998,-0.000367115,0.0047682392,0.0051225002,0.0043546723,-0.0010957389,-0.0002861025,-0.0024134675,0.0054258615,-0.0013719025,0.0053434624,0.0039230358,-0.0048655713,-0.0032217929,0.0030960202,0.0035918232,-0.001733246,0.0121568602,-0.0019110091,0.0013129036,0.0048352817,0.0135023472,0.0042514659,-0.0056700924,0.0577746911,-0.0009214945,0.0025562254,-0.0083330044,-0.0081197146,-0.0015914212,-0.0052489472,-0.0035231403,-0.0020347471,0.0064915583,-0.00472711,0.0007815487,-0.0035421274,-0.0023351172,-0.0025341215,-0.0126473499,0.0005871434,0.0037022807,-0.0009000202,-0.0040940461,-0.0084020567,-0.0041984524,-0.0000985087,-0.0110627395,0.0059400897,-0.0042107883,0.0081493274,-0.0050539254,-0.0047478856,-0.0010697118,-0.0102062618,0.1449887354,-0.0022711666,-0.0062848528,-0.0086613689,-0.0009668928,-0.0026750588,-0.0119797806,-0.0045097411,0.0006818465,-0.0002423751,-0.0023500204,-0.0095440574,-0.0080876118,-0.0025352931,0.0022072447,-0.0002902327,-0.00014927,0.0018893292,-0.0010244242,-0.0026763249,0.0015827721,0.0031725784,0.0011870947,-0.0045242245,-0.0016965283,0.0000345412,0.0019778083,-0.0129279083,-0.0011822045,-0.0039385967,-0.0005097996,0.1128608471,0.0030506723,-0.0075322562,0.0062593637,-0.0062377486,-0.0057827075,0.0019995293,0.0084617447,0.0059144654,-0.0096932818,0.0068017191,0.0017831645,-0.0004336809,-0.0011698929,-0.0059355706,-0.0156562517,-0.0000608725,0.0011013895,-0.0008120933,0.0009937282,0.0110212688,-0.0034457701,0.0048002164,-0.0018059967,-0.0027128444,-0.0069350074,-0.0111977435,0.0000574623,0.0003540403,0.0004793435,0.0070343877,0.1443469981,0.000006567,0.0000006497,-0.0000120382,-0.0000074421,0.0000077602,-0.0000048912,-0.0000100466,0.0000071962,-0.0000031865,0.0000103414,0.0000049711,-0.0000214268,0.0000128299,0.0000093388,0.0000123096,0.0000066874,0.0000053667,0.000024825,-0.0000148025,0.0000031166,0.0000003965,0.0000066638,-0.0000137445,-0.0000083623,0.0000131061,-0.0000084618,-0.0000020414,-0.000005784,0.0000158422,0.0000068309,-0.0005241768,0.003414529,0.0004977138,0.0070699422,0.0013214202,0.0011604653,0.0013374277,0.0005323998,-0.0085810716,0.0067513709,0.0012279592,-0.00600559,-0.0028262937,-0.0021153458,-0.0071331779,0.0010786509,-0.005142504,0.0018079166,-0.0012216223,-0.0064450799,0.0074144924,-0.0017447866,0.0033209036,-0.0081877025,0.0002560823,0.0105669416,0.0020943559,0.0093278464,0.0056186571,-0.0040235385,-0.0008790959,0.0714641637,-0.0127468883,0.0001826555,-0.0036501442,-0.0003959456,0.0027514899,-0.0027587174,0.0022071199,-0.0033173328,-0.0068602571,0.0051978511,-0.0078979172,-0.0097603476,-0.0021416357,-0.0057985901,0.0048895988,-0.0050657361,-0.0018613833,-0.0031802298,-0.0077285679,0.0023865891,-0.0035250632,-0.0000927145,-0.0080419769,0.004625298,-0.000947695,0.0004342082,-0.0022884245,0.0088071969,-0.0074901622,-0.0070897285,0.1595836754,0.0030345949,0.0078230119,-0.003080733,0.0002217394,0.0018198875,-0.0023487735,0.0021501789,0.0042780464,-0.0015704846,0.0020046172,-0.0025386679,0.0068933893,-0.0047847139,0.0062691801,-0.0110576908,-0.0033111561,-0.0045452343,0.0012616314,-0.0013349382,0.0018310507,-0.0014171693,0.0096268454,0.0020952777,0.0020730664,-0.0002314677,-0.0035176101,0.0039741422,0.0095717531,0.0016110796,0.0049879471,0.0722706197,-0.0123793867,-0.0035721405,0.0049254717,0.006261834,0.0060432276,0.0031931218,-0.0100035342,0.0074923414,-0.0088455555,-0.0089926105,-0.0127157218,-0.0063134074,0.0038004836,-0.0099030793,-0.0012154093,0.0038677146,-0.0029900383,0.0035188596,0.0073591363,-0.0047144849,0.0005968055,0.0018701887,0.0060365171,-0.0086977368,0.0071582391,-0.0048986289,-0.0058279832,-0.0135942877,-0.0077225204,0.0069779106,0.1683346133,-0.0000006749,0.0000001648,0.0000018424,-0.0000007116,0.0000000876,-0.0000008467,0.0000020917,-0.0000009027,-0.0000004795,-0.0000014856,-0.0000012513,0.0000017911,-0.0000029395,-0.0000026642,-0.0000011605,-0.0000003495,-0.0000016583,-0.0000030101,0.0000020951,0.0000003587,-0.0000008335,-0.0000013034,0.0000014567,0.0000013533,-0.0000007232,0.000001171,-0.0000007239,-0.0000011745,0.0000007362,-0.0000003326,0.0000666518,0.0009723418,0.0085725551,-0.0014841152,-0.009351411,-0.0002527504,0.001304797,0.0110842507,-0.0018954407,-0.0061596266,-0.0055639007,0.0036577222,-0.0078473878,-0.0062331642,0.0090107766,0.0002354822,0.0073542085,-0.0027050445,-0.0042567302,-0.0043159777,-0.0058026924,0.0157770215,-0.0065023944,-0.0000305997,0.00151073,-0.0067001253,0.0048783504,0.0044249359,-0.000320566,-0.0063096444,-0.0057811567,0.2209147044,0.0035368754,0.0045130166,0.001126796,-0.0062914944,0.0047411277,0.0040090174,0.0021533408,0.0039004775,0.0076022586,0.0038358961,0.0034723158,-0.0029514991,0.0004597747,0.0014709588,0.00509852,-0.0075990231,0.0007317486,-0.005997232,0.0013034645,0.0003711262,-0.0012657666,-0.0073111166,0.0035530546,-0.0016917837,0.0012044905,0.0022656667,-0.0077045037,0.0026981358,-0.000846086,0.0004614939,0.1105165719,-0.0038714483,-0.0053789877,-0.0096417153,-0.0005278367,-0.0046573277,-0.0122288162,-0.0055346582,0.0026208303,-0.0016817454,0.0003547794,-0.0060473981,-0.0087055625,-0.0052274355,-0.0017503466,0.000117537,0.000494908,0.0002422035,-0.0059682086,-0.0022657215,-0.0006442004,0.0008627308,0.0006922835,-0.0066382657,-0.0001915256,-0.0009836135,0.00200731,-0.014216366,-0.0041311971,-0.0004253268,-0.0022529701,0.1452902879,-0.0046357178,0.0102590948,-0.0080258124,0.005465753,0.0071231741,-0.0021423736,0.0048010028,-0.002035649,-0.0038588033,0.0018223904,0.0075001212,0.0042815514,0.0014223259,0.0012328308,-0.0026620586,0.0023183819,-0.0015190243,0.0007116334,-0.0080918454,0.0031998147,-0.0002141619,-0.0002369412,-0.0011298338,0.0007041874,-0.0002286861,-0.0024842758,0.0027425713,0.0095496209,-0.0014330301,0.0021641082,0.040866018,-0.0020674422,0.0001418407,-0.0052357643,0.0006469704,0.0053895207,0.0052529969,0.0026917734,0.004487582,0.0036424929,-0.0041536159,0.0007699541,-0.0021492258,0.0018882981,-0.0014158193,-0.0050015077,0.0028349528,-0.0044962963,-0.0051405025,-0.0056297408,0.0012779255,0.0007754358,0.0029494577,-0.0010187684,0.0038879512,-0.0076172623,0.0038209386,0.0061237355,-0.0082519512,0.0023868015,-0.0057657361,0.0766256464,-0.0037584424,-0.0053911477,-0.0011799778,0.0010862681,-0.0037356891,0.0033177582,0.0028183483,0.0032661817,-0.0005232318,0.0061753079,0.0032215069,-0.0023006477,0.003188131,0.0041247233,0.0062940794,-0.0010270009,0.0017545367,0.0010118799,0.0041221024,-0.0023279072,0.002319572,-0.0020568189,-0.0030132303,-0.0032793395,0.0017438047,0.0038576807,0.0041863986,0.001732276,-0.0041496887,0.0049464856,-0.0822521441,0.0048031873,-0.0016537098,-0.0037093326,-0.0008154369,0.0005225893,0.000340941,-0.0014315362,-0.0050137546,-0.0028187267,0.0069917069,-0.0002949873,-0.0027275909,0.0057107519,-0.0156406109,0.0011009075,-0.005005029,0.0008568514,-0.0000433193,0.0037052685,-0.0025304335,-0.0026707844,0.004486027,0.0029021178,-0.0086627947,-0.0046058395,-0.0059459051,0.0000752241,-0.0018601911,-0.002024738,0.0018078201,0.0539463813,-0.0042812218,-0.0060562423,-0.0071238964,0.009518896,-0.0029176219,0.0023891893,0.0038617608,0.003046639,-0.0018349427,-0.001516305,-0.0191540194,0.0025986898,0.0040599388,-0.0027629302,0.0088274138,-0.0019105369,0.005424927,-0.0121537871,0.0054465313,0.0070095373,-0.0015708079,-0.0026554131,-0.0051292897,-0.0010588124,0.0018898862,-0.0014823629,0.0071795014,-0.0039182131,-0.0125752355,-0.0026373277,0.2055117403,-0.0043579436,-0.0116234729,-0.0023304559,-0.0051584964,-0.0079859259,-0.0012320764,-0.0038715543,0.0059642236,0.0046502606,0.002319104,-0.0005299509,0.0015213254,-0.0075615873,-0.014570359,0.0063004175,-0.0034399314,0.0091935212,0.0000742256,-0.0044251829,-0.0065233108,0.0033900638,-0.0074393042,0.0019818204,0.0018662374,0.0068866447,0.0081423536,0.0051434286,0.007273543,0.0025837381,-0.0000540557,0.3285318384,0.0030256122,-0.000687564,0.0048448056,-0.0052014005,-0.0056208652,-0.0033495558,0.008164635,0.0016185218,-0.0083144601,-0.0014823325,0.0041135238,0.00287166,-0.0028770349,0.001676669,0.0002170383,0.0035157509,0.0062557153,-0.0020499289,0.0028558191,0.0017014731,0.004648889,0.0009531161,-0.0004457828,0.0035731969,0.002561739,0.0022524754,-0.0047131553,-0.0043278353,-0.0021946243,-0.0010649992,0.1258018422,0.001201782,0.0003962033,-0.0005013813,-0.0011192724,-0.0006166686,0.0000096922,0.003657112,0.0000307346,-0.0015486049,-0.0011097743,0.0003502307,-0.0014127731,-0.0055853004,0.0052174786,0.0024098666,0.0019848131,0.0053673995,0.0021183178,0.0046812036,-0.0008535291,0.008492421,0.0026211378,0.0036780391,0.0002257169,0.0002555609,0.0043422177,0.0007624939,-0.0020430445,-0.0035007058,0.0016986584,0.0227815059,0.0004521601,-0.0077268914,-0.0010593255,0.0015712036,0.0054579897,0.0010786857,-0.0062764642,0.0065637612,-0.0021579481,0.0091774512,0.0002114754,-0.0009746783,0.0097848593,-0.0007869911,0.0032693722,0.0062049625,-0.0038261628,-0.0050394875,0.0146471042,-0.0013718455,-0.0009913802,-0.0073601164,0.0021543268,0.0060510487,0.0107677677,0.005596861,0.0145059857,0.0007575599,0.0032910828,0.0033842756,0.0815008461,0.0011378328,-0.0074518763,0.0047159251,0.0037606048,0.0039307734,-0.0070529364,0.003020862,-0.0006882048,0.0029555438,0.0044357344,0.0047998293,0.0079618895,0.0004025836,-0.0003307069,0.0073853144,-0.0069094773,-0.0046296807,0.0014434738,0.0026774807,-0.0039660156,-0.0018609768,0.0040967886,0.007326099,-0.0132483712,-0.0065146704,0.0025511423,-0.0046205438,-0.0045330827,0.0058430382,-0.009390537,0.1374854341,-0.0037485567,-0.0003776677,0.0066769325,0.0072445884,0.0086788413,-0.0050948057,0.0119616141,0.0038562392,-0.0062272689,0.0020952477,0.0174676091,0.018055552,0.0008614496,0.0081783916,0.0048728324,0.0003174207,-0.0089929854,0.003594269,-0.0064737187,0.0103780912,-0.0000647313,-0.001053302,-0.0019219422,-0.0064538579,-0.0061195455,0.0029715745,-0.0127385119,0.0042804339,0.0023833577,-0.0038860446,0.2203272665,0.0109162173,-0.0022068594,-0.005266024,-0.0016108025,-0.0120569818,0.0079127581,-0.006612647,0.0032624473,0.0057536963,0.0034745497,-0.0021328939,-0.0038179953,-0.0014663768,0.0008402135,-0.0049322701,0.0022187793,-0.0216255911,0.0103984768,-0.0010700129,-0.0063159997,-0.0080355263,-0.0033434364,0.0044181552,0.0051727668,-0.0063444603,-0.0079889103,0.0058454695,-0.0167159881,-0.0042617053,-0.0005915991,0.1243346991,-0.001848056,-0.0065152461,0.0077013687,0.0107292457,0.0076208042,-0.0031914536,-0.0039528032,0.0040226319,0.0083980811,-0.0053185971,0.0030107987,0.0060953217,0.0058480336,0.0109239856,0.0092479282,0.0032819989,0.0078145408,0.0037182775,0.0011968016,0.0026567635,0.0076655465,0.0029683789,0.0075583882,0.0042786314,-0.0171672005,0.0021291222,0.0045189407,0.0034356524,0.0072555268,-0.0063144523,0.0931782801,0.0028878493,-0.0043887687,0.0048348974,0.0014410815,-0.0033210256,0.0044782218,-0.0111981751,0.0001368165,-0.0079343706,-0.0002541717,-0.0010162974,-0.0016372796,-0.0059328958,0.0081808661,-0.0091032266,-0.0046376001,-0.0017434013,0.0013692057,-0.0018365296,0.0087245185,-0.0002960051,-0.0088472274,0.0037979951,-0.0020576818,0.0028128805,-0.0101792196,0.0067172693,-0.0037469,-0.0017076777,-0.0017123844,0.0819445872,0.0077000544,-0.0042570428,-0.0028558631,-0.0077965603,0.0167873061,-0.0061723391,0.0047333185,0.0054946082,-0.0004587826,-0.0108815921,0.0044983033,0.0003221683,0.0024122339,-0.001530496,-0.0000652216,-0.0043909832,-0.005247633,0.0046543348,-0.0010303093,-0.0011077063,-0.001711063,-0.0008437242,-0.0000072213,0.0026459434,0.0009577456,0.0093964598,0.0145694458,-0.0045785144,0.003318056,-0.0087593703,0.0448246382,-0.0000142804,-0.0000002694,0.0000193131,0.0000113118,-0.0000088887,0.0000049341,0.0000163566,-0.0000071782,0.0000077727,-0.000014273,0.0000085563,0.0000195368,-0.0000131866,-0.0000156188,-0.0000197183,-0.0000026164,-0.0000157308,-0.0000304954,0.0000179067,-0.0000021543,-0.0000016936,-0.0000021655,0.0000235036,0.000009321,-0.0000192976,0.0000096527,-0.0000038116,0.0000108812,-0.0000234489,-0.0000029781,0.0006252205,0.0004020691,0.0040111981,0.0046361281,-0.0026527139,-0.0054519165,0.0046333914,-0.0058870949,-0.0011638287,-0.0030103989,-0.0048233041,-0.0000362366,0.0039042833,0.0029741866,0.0047511416,0.0080761274,-0.0018550164,0.0028068128,-0.0019364643,-0.0078783836,-0.0066557378,0.0065937762,-0.0007369412,-0.0005784499,0.0008447692,-0.0081085335,0.0038901921,-0.0022759663,0.0053407821,0.0060123713,0.0035257323,0.0777383801,-0.0034957604,0.006326993,0.0089557303,-0.0000705467,0.0029984263,0.002887297,-0.0107410097,0.0024565815,0.0052732481,0.0043328705,-0.0064357993,-0.0028495522,-0.0030520715,0.0025864669,-0.0069428542,0.0080422147,-0.000605349,0.0025317325,0.0166993511,-0.0052813697,-0.010685162,0.0056714218,-0.0009548279,0.0104577846,-0.0012576712,-0.0022666535,0.0013269985,0.0048005926,0.001791878,-0.0028163117,0.1240354545,0.0031042584,0.0051486596,-0.0019121824,0.0034453192,0.0015946854,0.0017629283,0.000740688,-0.0105598711,-0.0038229983,-0.0016236821,0.0013364232,0.0108624708,0.0017367853,0.0076920866,-0.0020031761,0.0037019396,-0.0030659122,-0.002246716,-0.0092981321,-0.0020616281,0.0032692806,0.0064233088,0.0000900104,-0.0036312052,-0.0026340273,0.0049122004,-0.0090351524,0.008037165,0.0088671449,0.0064962973,0.151361394,0.0123341566,0.008695321,0.0059777933,-0.0037162295,-0.007060825,-0.0085211464,0.0043297478,0.0031497046,-0.0031542606,0.0012084237,-0.0008581277,0.0043083216,0.0044544503,-0.0115094097,0.0043186666,-0.0062062808,0.0057236341,-0.0102887152,-0.0040654792,-0.0023388713,-0.0133327757,-0.0025519768,0.0075205724,-0.0020695402,0.0074906153,-0.0057688898,0.0018774747,-0.0045292513,-0.0075462986,-0.0012938642,0.1910369701,0.0022021628,-0.0040424135,0.0019711787,0.0018956061,-0.0049021286,0.0068635188,-0.0053237387,0.0037066534,-0.0012560736,0.001083186,-0.0012757467,-0.0011147787,-0.0005113869,0.0013577531,-0.0043519673,-0.0040372333,0.0020912984,-0.0015855786,-0.0010243041,0.0077562588,-0.0032344584,-0.0017156128,0.0010965877,-0.0022918117,-0.0030512711,-0.0007577659,0.0007956273,0.0018165444,0.0000053103,-0.0028052322,0.0346039375,0.0003218293,-0.00151618,0.0004350569,0.0016366592,0.0053280441,0.003185805,-0.0043851002,-0.0024488055,-0.0075572543,-0.0046462675,0.0032625212,-0.0057221008,0.0012244331,-0.002428749,-0.0039424102,-0.005803421,0.0050389785,0.0012320542,0.0040652531,-0.0050915255,0.0042178886,-0.0022711083,-0.004178598,-0.0062052778,0.003594331,-0.0075801244,0.000064169,-0.0040921732,-0.0024506656,0.0043841584,-0.0629562022,0.0110224622,0.0006844336,-0.0041729251,0.0068316431,-0.0040200525,0.0050933875,0.0005595044,-0.0083304372,0.0043094356,-0.0060490446,-0.0045915282,0.0003799638,-0.0005294305,0.0031884886,0.003846731,-0.006116736,-0.0018367945,-0.000314216,0.0005711496,0.0000410699,-0.0044686542,0.0025380392,-0.0036153159,0.0014683331,0.0081894184,-0.0049624041,0.001816863,-0.0005016599,-0.0013736512,0.0035479635,-0.0147073604,-0.0002819156,0.0027660821,-0.0024858707,-0.0041540352,0.0007153907,0.0020217727,-0.0001815163,0.0008183212,0.0043365758,-0.0009565865,0.0012608899,0.0048379218,0.0033544989,0.0018029434,0.0026982582,-0.0001787244,-0.0039955392,0.0001520541,0.0028764441,0.0047657946,-0.0014747874,-0.0022860968,-0.0058889101,-0.003380095,0.0018831673,-0.0020280047,-0.0031657748,0.0038744596,0.000732648,0.0006050835,0.0391339443,-0.0003135164,0.0076302301,0.0058639667,-0.0032274131,-0.0000340121,-0.0082439898,-0.0059772734,-0.004196176,0.0085549127,-0.0021505158,-0.0004870074,-0.000170859,-0.0033634098,0.001643498,0.0019248655,-0.0044269226,0.0016794746,-0.0004192365,-0.0071432327,-0.0008319744,-0.0003724489,-0.0035496598,0.0180709815,-0.0165006042,0.0111107426,-0.0110482079,0.0058986141,-0.0094678901,-0.0097845216,0.0106082485,0.2079193801,-0.0021083042,0.0032252358,-0.0089172952,0.0064899675,0.0098376466,0.0071932255,0.0122460046,-0.0015984045,-0.0056665532,0.0009451448,0.0005136756,0.0028280748,-0.0050393586,-0.0012926507,0.0054162935,0.0059186967,0.0082456564,-0.0055619846,0.0029311913,0.0029360396,0.0047547395,-0.0001715358,0.0021931,-0.0050354543,-0.0011363928,-0.0018110281,-0.0016870194,-0.0014989651,0.0105525522,-0.0075048448,0.1919278457,0.0027279739,0.0006058967,0.002642913,0.0050780163,0.0009848699,-0.0038435985,0.0103614528,0.0016503387,0.0024192666,-0.0055819893,0.0009878236,-0.002616243,-0.0049851063,0.0068884621,0.0005868098,-0.0033627251,-0.0090699182,0.0080900627,0.0078824909,-0.0026981341,-0.003125614,0.0053743645,0.0027723119,0.0019939109,-0.0053994404,-0.0032327936,-0.0001664191,-0.0018769789,0.0059603969,0.0023936419,0.0282776732,-0.0101572593,0.0048338354,0.0022369187,0.0012974391,0.0040297791,0.0001703985,-0.0104607041,-0.0094483713,-0.0012282288,-0.0060392809,0.0037249059,0.0042840502,-0.000994561,0.0123021973,-0.0060501793,-0.0053305792,0.0065094549,0.0021749171,0.0039686726,-0.0054110151,-0.0041616911,-0.0015126232,-0.0016426228,0.0011142888,0.0042469309,-0.0010966191,0.0013130525,-0.0013335312,-0.0019814514,-0.0009516694,-0.0055577822,-0.0057173826,0.0038398135,-0.0008753696,-0.0044609687,0.000109187,0.0004260511,-0.0058355461,-0.0063067318,0.0035433813,-0.0005697523,-0.0006939345,0.0021877025,-0.0001541335,0.0038635444,-0.0041167145,0.0010530375,0.005066804,0.0016779895,0.0032933906,-0.0021264563,-0.0037579123,0.0035540015,-0.0062352929,0.0051276125,0.0012912028,0.0003881359,-0.0012834532,0.0003780048,-0.0016340596,-0.0036758483,0.0218253993,0.0025522406,-0.0013591985,-0.0116248795,0.0022213021,-0.0064498673,-0.0051516324,0.0018964355,0.0082479894,-0.0009984744,0.0022813068,0.0011465382,0.0019653635,-0.0105555634,0.0035469865,-0.0016780119,0.0055575162,0.0118801515,0.0051474261,-0.0030692072,-0.0029017938,0.0073082945,0.006043595,0.0064631135,-0.0046333859,0.0044046879,0.0177357356,-0.0006397898,0.0004744074,-0.0025815015,0.011611491,0.1458385632,0.0070489383,-0.0001267773,0.0027320252,-0.0124965326,0.0001398485,-0.0056003851,0.0039075483,0.0031748052,-0.0051671672,0.0072789075,0.0079998737,-0.0044994049,-0.0019301501,-0.0000618268,0.0017594882,0.0007996142,-0.0004683971,-0.0030096745,-0.0048481573,0.0061775018,0.0057398952,-0.0124769393,0.004647492,0.0120174674,0.0065731419,-0.0063757335,-0.002138131,-0.0071012655,0.0008158958,-0.0005211139,0.2191306247,-1804.1811455621,-1035.7732162369,-0.5990637537,49.6181978304,0.1716811307,0.5932065338,6042.1942124488,-0.5757125096,0.2187227102,-12121.0043350699,-0.1398940026,3825.9799637438,11903.0243405969,1619.0647374485,-2262.6442378083,-0.4375292638,9194.3875565661,1051.8916688833,-0.082968824,0.1772560452,0.572402727,11.5443411922,-346.5016105483,1.0299332314,-1.2424436102,-0.9090220456,15245.7278994077,-527.625977277,0.4564132653,-0.9348591536,-0.6668924048,-4731.1871932136,0.7990060841,-0.6810670885,-0.6017406035,-2505.1160534779,592.5361308578,0.3386515235,-1681.2445736792,-19028.7646060948,0.858391439,-4772.0031689679,-1.1499203241,-435.2502452927,14674.2368374138,-0.0577396648,8339.5218333526,-0.1223336476,-0.5533383526,-0.0422714861,-0.5166090089,444.9590303032,9.6897907244,7788.4842296838,-3269.9741057895,4386.6434762573,-3379.0339963894,1113.0769338001,-5967.5650209589,-303.1951426588,2943.5415647171,-1598.3756007555,12181.6788391765,-0.9733404466,-105.6169304824,-8248.4963370151,2048.1768980284,-2990.3207577385,-27.7615826794,8174.705227226,-825.9609101358,1.5193583227,7401.8410994202,4966.3429757685,0.9458255885,-1773.4248473617,-690.6089157218,800.4563470822,-3356.4309800805,-76.9784071406,-0.1192564387,-1113.8555255335,0.2432105764,-83.5492343883,-6443.0859127058,0.0290880818,-7787.5058875246,1128.6616185832,-0.6354209709,0.5764831032,-6628.872012569,-0.5730446898,9092.8083231883,-0.1329590168,-0.6308594311,-0.2387953768,-0.4699262936,6801.688249295,-4402.2619841552,0.4499299928,0.2220374584,-3.900727629,0.5061064483,-14441.6611406582,2745.9702044292,-0.6750001939,21887.0507290746,16821.9151800507,-4160.208024538,-0.1368410177,3001.3110974745,-2789.6470131608,-0.8491547213,-0.388617549,0.0966722557,-0.5240329969,-390.3968358041,-10325.8102790076,-0.9132351572,-2817.6751970942,-11366.8345597964,-3552.6406902691,-0.168268532,88.6465928166,0.625121521,4948.5859346922,0.185296625,-0.3851265599,8332.2619248675,1675.4467238165,-2.3642643198,-0.0818980621,7851.1192264299,151.8660975494,746.2769357866,1703.2403163199,-2631.6260210729,-9389.8134686819,-4969.3428524244,-123.8926292655,2693.0636035516,1.2659957961,11975.4694206429,-563.172185887,-2151.1946569232,-2813.5976731718,-583.5854432931,-3196.9634618978,-8649.2752677659,6.3635236107,1567.870855019,2255.6493834361,-0.085512348,-2846.0087665322,-1570.9481852552,5501.1148991288,3010.0732810265,-4168.4772526017,190.4503399549,15133.1066627515,-3325.847793832,-286.6170281144,-0.6667921516,24060.2153968451,5.6560688138,0.1076495074,-811.5174281549,0.8953717367,3173.8342401714,-0.076673062,0.7841287708,-0.4931294153,0.6607402299,0.905038371,407.3807835102,-4151.9816980252,3057.9369970815,-0.2558615048,19200.0589033136,-6279.9440758848,-0.4862419126,-4767.2362067299,-33.7719901079,-18300.3133240436,-10260.3927128934,-1682.0315167127,-5591.0530746405,-1.5698933339,-5621.3432362487,788.9747212008,0.153548872,0.9871749316,-0.7596660848,1176.5970095148,318.0122486483,9201.0270446232,0.5284203499,273.170346904,-0.1368683893,359.9599480626,-22961.6530284505,0.0551632412,992.6721210089,6104.2315375315,7982.411198002,1080.4929720973,-0.3054351482,0.1205066872,-0.2418086313,-12302.2152555778,-9897.9045193999,8655.7469562824,0.6505379965,2.5014048554,-1364.8196927189,18.1934456053,2289.8529697617,16.8361289366,-3685.6260205213,-1045.1112487841,-29.7569310629,3550.0220721926,-14066.8216071798,-3135.5154404793,-6591.0542545499,-3636.9934531611,0.8787378003,-340.7459780955,-1060.0013800853,1934.3559976709,4125.054510356,2315.9665516314,-3181.9498203418,9.0956024241,10261.9697607201,6064.5849808746,-746.655852319,5990.9783747489,-7086.3344849678,6865.5216197589,2198.9939584634,280.9465169693,1363.8515715943,-109.0438072132,-116.7736695748,2708.1446547013,-10343.0513550522,-0.5369800898,0.7145846348,5262.9521939789,1874.3214414793,-0.2574799532,0.2064621717,-0.2825648802,9.5392991574,426.4160634055,-0.4392340854,0.1220800843,-0.0563252659,-159.735792889,-0.7522155862,0.0805693135,24781.4872247883,0.2243368962,4966.7620117582,-0.2758315257,-578.8981493303,-108.2231042756,0.4729634589,-8847.5829390833,-0.720211194,-0.7953226066,14.5655262259,-3.5368607635,0.6872532612,-0.8074049551,12842.8476387451,0.4435299707,-2812.4996767639,-347.2119098599,1861.1655770906,-0.9870172213,6883.736330666,1323.9509160806,-5750.4301785119,-14260.3829431053,-89.9485458229,-1740.1965852676,-0.5919190952,18207.5330956961,-645.7929523145,3981.958187148,-0.1110598461,-0.047552146,915.2925597861,6722.9706617523,3955.4395572906,0.2912350458,4216.8115643437,-2189.9673710609,-1290.1005899654,3122.4171830149,-6157.302961729,1661.3575162811,6877.0471856856,-7517.8099125375,-0.3811767857,-1567.4100573582,-1822.7750499216,1961.299450745,617.7398881573,2375.2305083988,-4657.6913223561,-2052.9867285311,-7.1089181743,0.7634554672,2105.6134649731,-1406.8835858549,-7587.905227435,16057.9978489286,-6645.6327858024,4896.9908693432,1.6568536095,5605.2297834181,-6607.7685322585,1662.3030050713,0.2849595394,563.4924105929,-0.6280318126,-7392.8830497074,-5956.5729810116,-2229.2382206435,-790.7177727438,0.2271550666,-0.3748214201,-0.90007299,-3161.7092247678,1605.8292394508,-0.1945109307,-0.305013867,0.621246397,-0.244907112,-790.840423726,798.0299921134,3964.6189058668,1.7281000173,-0.0281270843,0.7324634469,-1.1026491153,5951.0100118447,0.3871757308,-1.0352348904,-5699.8027852805,0.9202053864,-0.3630742023,2510.5058402072,0.6005340489,4475.7191586447,0.0993915016,20559.4142275767,-588.3912152518,-0.5612826603,1942.4132822819,176.6794060581,11185.2597705532,0.260112621,752.4305683766,5.5783988024,-1253.4960220474,-0.8493635734,0.3055798471,-23202.6169322439,528.2099824519,-0.6923683499,0.3999969781,6889.4656232895,1.0711752775,6671.6854866206,-4.1708127458,-0.0682798967,-4400.7488862685,-20.0121062978,-8287.5210525248,-9339.8244942241,2797.2674823146,-6459.5080586525,8.9699131685,-7325.0561180105,8.5272557067,208.7591400906,-0.2599172157,-1502.036686324,-8484.5456877162,-4908.6061193832,-2989.8407875683,4906.6058155002,675.8509682461,0.38752284,5588.4328792341,8037.8013264619,1946.8957632351,4767.0695790741,-0.4479247372,-36.8733248416,7423.6280754535,9211.3835863479,0.4490971898,1.1139498518,-115.2957290979,-0.3420379275,13514.0238915765,-40.1065418232,-0.4766159071,-0.9231456493,-6305.0478045061,0.0283017014,0.603255614,-5700.6778066105,0.1281137639,-0.2900666125,0.7412955925,-5902.9235096949,-67.3938093686,-0.443142136,0.2064841186,-4664.5048398783,-57.3125762697,-18164.1350733216,-1.2014219652,-0.2878482526,-2611.6267410394,1.2302102606,1.3241101099,-0.3686464686,3524.1128523324,-5924.9292025433,1878.2501077859,-2213.4967156128,-9966.1216164498,0.9652222761,-666.7753142735,2233.4229944806,14146.5790937445,-4.2053974706,-9777.150285891,0.2745829339,11100.5626463741,-0.3134199719,0.7175915511,99.5200433665,-0.656977292,2.8714102676,-311.2072949701,-0.2665891897,-0.7133659327,0.1048345541,-1177.8560560065,-14879.6580849049,0.2766143742,1293.3162934063,-1153.3350127599,1665.0324211703,-2053.9395380104,3096.7141220564,2358.2358604082,3634.6305662054,-1973.6720244104,-738.5256002703,-5210.775112425,-8156.7168376531,16341.7336380826,5052.6151487473,3073.091620347,-1375.6737556621,-945.8714194155,5536.3857892542,-881.5924945179,-890.7094673572,-5083.788038375,-3657.3274895655,3434.1113266705,5710.5410685584,286.8826169319,101.7249223768,698.9840344688,6013.0946410307,-12028.6302351653,-4.5749543431,-26570.1604875425,2.6969254329,0.3232870854,-4392.7335423833,-3687.6633417231,14910.7421902072,0.7195496665,-0.1641815906,-0.56469557,675.351405881
   -42.3539454526,6046.6687049715,-1935.8459460332,0.0497437881,5877.4884014722,-1.8616487222,0.9049577992,-4.1127271468,19452.7500573828,4628.4265367926,-1.3279141189,925.8196564783,0.0623385112,0.9156275583,-1162.8026767421,0.5694896445,-15237.2066171503,0.5390325832,-0.229215223,-11860.0855205061,0.5222723483,-6763.7517993197,0.6486577638,-2491.5026907596,-0.2297568231,-2539.8665159062,358.8006536577,-0.9650348435,-0.1516989602,-832.6836759226,-0.0241110605,-13.3366005933,0.6785028571,-9834.4204460756,9249.9496621306,10982.2157041762,-430.6442875572,10968.3403973415,-0.2705164127,-651.5835074008,6042.4692122894,-1886.5106635188,-2262.1999084493,8628.0288347251,5222.0026628677,-11761.7813875641,-4.216470258,4203.0502036247,-213.8467980233,-0.5342782674,-4280.630944287,-61.5713648247,-0.6039038714,-3738.3295471524,-6203.5254082956,777.755313537,0.5237692233,-3526.4806309902,-3744.4901987682,10.543515167,41.8500948297,2186.293627741,-9011.1889220628,-415.7994781609,-2932.6050925132,427.411659581,391.4547157533,2.3674882971,6.6751475208,11996.8888067553,1.6455113061,3835.5113691769,0.8309346085,-0.7234617873,8677.2344784265,-1466.6645157321,0.5989582799,313.0095250084,-3381.9962706297,0.9624094977,0.1426029859,-1835.7215218844,-0.0409450933,-17973.4580610444,0.6842880882,-1780.1752750638,17481.0901824912,313.7591852531,0.811569285,-0.7689743157,0.4619598828,0.7225542706,-0.1066250013,0.6409812213,-6235.4934845595,-1371.5587339974,0.1431388034,1.5260345574,0.0377327415,3728.9636581335,-274.4385936521,-0.4498740506,-2057.1927372229,0.31919736,-6927.0461939856,-188.4300147656,-0.7201008233,4768.4803147398,28.9209393744,-21.1831064142,4056.1511953274,-0.5532312823,4316.0149662797,-2411.1031689705,1663.5165450252,-724.4837748769,-24695.0802521593,-0.0220488414,1799.5283588413,0.2827837702,18449.8756207599,8160.4374636959,224.696141136,3084.1599189436,1121.9521252365,4575.9777912105,150.2899661666,1955.0913422237,-6817.5479723318,9619.7328142883,4805.3443013827,-6646.0234528844,-6966.5426728234,-7518.8990273533,121.1545212054,4305.6544429978,10702.3920251068,9493.8837105063,-4482.4383093482,6836.9003002756,-3311.507991903,7649.5586560543,16126.8477066886,-4.7018123342,-911.6308923929,12340.0259377435,-1989.1109840652,-4593.4516609119,-0.4642823287,-8313.3377735607,-2214.3471106418,-7.8881771635,90.2872724432,235.8984215389,-0.9378186483,200.1112953702,543.9065640203,-1487.6868808139,-4285.8006256641,-2142.8908465833,-0.861639732,0.9433223511,10599.4052524526,0.3757894309,7871.1227057089,0.0157364287,3564.9334808324,-0.1470878167,-4285.2078946703,3680.6217353203,0.8693782335,-2.2453752025,5241.2809496655,701.5674284411,-1705.1955247219,-932.2385751575,18048.6679293395,-2.1193372841,-2048.9525807036,-1302.4639422281,-4225.2797437718,0.2184444891,-13296.9559813926,0.4310315308,0.7605855387,-15540.0136494148,-0.0255264198,-0.0782698507,-0.3816670384,-4807.5445821729,7.1205241724,-1.2190786744,0.8931649095,2.5958450272,5282.429337188,-4129.8386916,-43.8787443064,4.9082750535,2.3036360977,-7074.6779742838,0.2493346862,13920.1381970383,3475.3857970815,701.8701123501,7.0211571833,-429.5291009972,410.8654254484,-1847.9849343467,2436.8204549053,-5182.1613184255,-599.1531663833,1.1289969829,10271.3621948027,-10451.5499996968,3895.5238864328,-55.6127568168,17496.9448112116,7073.0907619782,-8.4539046962,-1962.3468838375,3627.3722546053,-3997.3604544354,-4403.3623911701,4762.228936077,-3671.162075488,-3800.4557394705,103.4909046891,1627.0558838886,1.1750731286,-6802.9429404156,-0.5676159589,158.8542349923,5687.8029483467,203.1234586658,0.1453678888,-1.1043358215,4.8460132037,3371.5846058442,-8510.9975264043,0.5586625903,-27.0057649124,-0.1262212034,-0.7628108839,0.1610875191,1.5213299247,-7.6938479916,-0.076966999,-897.8623882659,7966.0258498858,-0.4308397701,-0.5921590493,-19331.7037054856,-4421.9248607765,-2040.9252825527,0.6362820991,2.6557831676,-1.0322192074,17576.0303419497,-9.2346893006,0.5482222371,1.3922968646,-0.0100126242,-12344.1704404291,-0.8906576609,-25971.7250298637,-0.3049355012,-1887.4445331018,-0.8108607682,-0.3802688104,1789.3484340373,-0.0899394706,1425.0107601055,0.2071734845,973.2602794477,0.9949122381,0.8906446445,33.9899471286,1805.976058307,-15421.5430765951,-0.845363299,1.0084645999,0.7650408812,-2833.9670694516,-0.4392962162,5747.8570257414,-15295.2840895852,1.1472479659,-17214.7121850099,-2174.1996193177,-4131.3688062266,-8394.6263375978,-49.1665689502,8.9382408374,0.0072056492,2036.1147055217,-3595.3903209557,7783.3504171297,4697.0586837766,-1636.8663505224,2485.5281918373,2478.6582059108,5527.0396878911,-14471.8602628781,606.9208756157,-5811.5441781562,2244.1293788174,10859.5859156955,11545.7204325636,-857.940550293,-1557.1207285133,702.4556618407,-1413.1370602017,-6831.019995181,1.6653401775,-783.0173373223,5627.5288655363,-10260.0185995754,-5013.5347014792,-2342.4091786169,2455.3378537517,0.1346381781,1.2355556601,-0.8388118479,2232.7140571656,-3345.5787175805,6.9200251773,1.0660989984,0.1136215945,0.7602530164,-92.5795409716,-0.8095317914,-3325.26169123,9132.629394331,6382.3902675954,-10295.0465701816,0.4891560019,0.5936882946,8917.9599881376,0.2617241317,1326.1611516738,-1355.8399478574,0.8343697945,-1754.2016082221,-4.4707644815,-0.4331676595,3177.4874376591,0.9397808582,1306.0768413251,74.0464718827,0.2643227338,0.691467278,-26049.7442081754,-239.5546450168,-0.1644471797,9.1313964149,20.9347178314,-727.1123340397,0.6580937664,-0.865036619,-1302.5462781083,1191.5470373734,21832.4969482829,-0.084190213,-258.0812824943,-3231.4268683193,5464.1403225939,1495.6765121417,1677.5202784828,12575.3183688823,3192.5319089467,10380.2822237434,4048.9088015884,-5261.9157348509,2069.165006727,17028.8731445214,5930.2667823893,95.2411621333,-917.2205233317,4335.1647112758,4921.5830913357,-7006.3446194147,-1375.2329473388,-22.1534111175,0.8310644105,-3942.1434383691,12201.8468210968,2695.1071752395,-1887.4799039563,0.0458893563,2829.0084681519,-2764.9595333078,5554.3548146249,-880.9996391376,111.4711413541,-29419.112346544,-192.567854534,0.3071335043,-29302.7690323315,-0.8948969094,0.7108308516,-0.0634737714,-876.8551918808,0.0243119131,-0.2399110364,3587.5362955602,-4284.3662755659,18.6872039126,4.8647080366,-0.331215819,945.1822190662,-5919.523289007,-876.1048843249,1.2215746004,-0.3370270022,6996.3069632597,-20.2055608239,0.8249913162,0.6549454568,-1.3291871757,-4531.4622458879,3477.523183416,-7534.841626693,-2085.7785682699,-0.3327983348,-4714.9997600016,1436.8317119274,5968.6556762879,-0.1687070718,-8286.6079727757,-0.0338387749,-0.588034218,21.069432635,-13720.0171996294,16606.9538374071,0.6502978874,-16102.9531863707,9389.2326846392,-9002.9897094349,0.318088057,3853.6179048449,4964.5824823064,266.8230281973,1788.2186458955,-0.1920330157,-8427.9170123011,-119.9606919155,-8899.7991512853,10499.3045674153,-3405.0382714176,-5971.7738671831,1333.6812945945,-696.0021715977,-5831.3883102137,-9366.2846490226,-169.7842307027,-1589.9346316905,1749.2575962422,-1662.6544077316,-537.0297684984,-4775.6964219859,-6716.7991327397,-1.9799847291,16.1751084861,5131.4582212765,-759.8546730648,11877.6122466627,-4430.3417895959,0.728881835,7172.435283162,-4927.5224467801,-3405.6983077743,-800.6032106506,-17906.6981786072,1412.0414605992,9540.1527665357,-0.5440159134,2.6072349824,0.7631269384,-0.8098537358,-998.5173505896,9003.2382621464,-0.7829425992,-4089.8461727316,0.6014866935,0.8340642203,4963.8289526339,-6839.9943733202,1585.9250287413,1.6346741902,0.2699189519,-0.3825820651,-608.4108617052,-4089.9350974235,1.1935174638,1.215408871,-1.0269557207,-8083.9577419057,-0.3026863275,-2979.0352658781,-0.2827876089,9504.2728959674,-0.3748383007,-2085.6106392475,-0.2644762452,41.7920483676,1456.8924136245,524.9327310851,-0.4182468493,0.004485122,27918.4237230394,0.6768320849,1124.2231336791,0.357480259,4780.6857352478,-0.3508863502,27161.1427773281,-5490.0140519559,0.2602554437,-17.0485944684,-0.6367508049,21.4174641778,0.7967243693,-0.5100996568,0.0967758869,0.0061276866,-2427.7382928645,-4030.0069407926,-4045.7375947126,72.8539456514,-9.1758599439,1952.9340515881,-5.4740708462,-1935.8271109221,4585.7977803564,2492.4048489367,2578.5921847437,5200.1741664803,3777.7865993828,-1021.6607796727,-5393.0534510348,272.7660968822,10153.1231541749,-3537.648156552,-14505.7961906765,5627.3940245771,2.9284948074,-2342.6144531343,-39.6995271245,-3867.0488207961,10594.0499809112,1850.9952419638,9741.3110930283,-2280.545312222,778.8955320897,-368.4727678475,-0.6802136033,-1707.8075030522,-1497.0476329823,0.6239529607,-0.8306672249,-0.7611184511,-1609.6308773412,9472.8320326063,1387.7229910254,-458.1423534995,0.5646769445,0.3709672936,-0.1026685064,-2124.7986087862,-2.1833847402,0.8503829994,1275.4468498799,-0.4963959831,1387.2631044055,-0.7764034059,-2707.6946182861,13928.9815865238,-1873.754355149,2278.6202925249,1.1460427743,-14.1031304721,-9480.7392214201,-1.0782018404,4.9238259592,1565.3753879252,-819.2966156036,-1943.0008908346,0.0229419909,11206.8022910346,0.030811904,-7272.6564997053,-4507.1408758274,5022.2455031591,0.3519008888,-205.2616194174,-0.4002878435,3440.057446759,95.0312859083,-0.0707126008,-1013.9255193369,0.1070355796,2.7663645268,8979.6863237793,-0.288258118,0.2354914919,-0.2942193776,-17.6340949725,-16.5377588086,1203.3313825698,-1935.1407256873,-2.2828736087,-374.9822159309,-5919.8850577898,145.2809135763,9959.9747020824,5.2598410577,1098.9320452836,-353.5462520569,1166.7502203452,0.5031625573,962.4857909898,9005.3302832078,9492.6409040347,3187.1983704899,3553.0669912143,-812.4771139178,11180.2374929264,-9133.5937598025,-3943.4117808641,-1603.4368738178,619.5921875148,2894.7189555845,2931.7804269487,2280.9930513235,2981.3566413977,8569.4916558473,-0.8569025645,187.3428006037,-0.8604900463,6626.1465844571,5767.8789685332,-1073.7883155208,5007.7909438551,18925.6895378714,-2555.4310762178,-0.5279379569,-0.9207188923,6092.8824987903,9922.4763862335,2689.9611186268,-1170.9155416599,0.5319577415,4385.2634537417,0.3670918242,-2556.1746867853,17205.9916356502,1.4944868623,-6165.9950281736,731.3372874264,-1501.600716591,-12029.237374916,-0.4173417159,1138.4325518298,-57.4446544778,-21901.9017189527,-2020.3742702693,23.3401000945,-12838.1115079466,0.307823335,-6978.9844519565,0.4263382747,-407.6489613444,10028.1018284767,-2260.1995825396,10.4008881712,2.1968389376,3.7116353675,1748.0925099851,-4586.9979469775,134.0229714575,0.514487252,-0.1340834022,9756.8177164447,15132.4092272081,-1033.9258899531,-118.7481683359,-0.1740540184,-67.4535239056,-6729.9579074063,-1029.1041296345,9336.5026026703,-15719.6437052169,7419.2747940553,943.7516346797,-0.4353752625,-6371.7337832463,1864.6229321379,10128.0778982222,-2799.733063865,-1117.6655801525,13626.976198788,-5057.6630194083,-8046.3080658411,1240.5716536597,11895.484228846,7190.7687898515,-3906.2335802634,1949.1628202307,2.3864516866,4829.9513147012,4927.749130824,6896.4190977759,356.6080702314,102.4268831635,-638.966291665,-21570.6357542449,1657.5332407679,21495.3259121157,-0.6267570805,2433.1895370563,-0.2286352654,-0.8627340374,1.2700095473,-17056.1282199743,0.2135038138,9000.2113340867,2.620848429,0.4194370329,-5579.7583797926,-5513.1530703209,0.6715624372,-4.0693538005,0.1678007708,-4.8194804368,4356.3022840259,9000.165200889,-0.5974296086,-0.7168305662,-0.9355177518,-7.8966451822,85.7945307954,-1.8156591719,0.2080966801,-4384.6852612764,-3223.4186541856,-1964.7957768039,0.7583748608,-0.9126788663,599.0317720778,0.2251582669,-36644.4894145023,-0.5327946234,15372.6737562988,-7077.0717836834,4068.6465513979,1492.0481403156,0.3867311255,88.6771198686,7688.6040563362,122.044961917,-301.2348094384,-1607.9395145102,63.9795603416,-0.2022991392,-27.5506077446,4030.3450671738,-0.2080544144,-0.7147672725,31.9299117104,-2266.8207197462,-2187.5328270809,-576.910867901,-9119.9746467412,1685.5894335674,2107.7008184433,-21869.9529726304,7445.9789023338,0.5239885375,-674.5102919393,-953.6523428916,-576.9580317773,-8058.2087343238,-2139.4191519513,1.0743414346,-1788.1771722865,-5411.2158934768,17090.7469110577,9063.701894528,0.6058208329,-1334.2918087446,2713.852569509,-3752.16710135,672.772027457,-7033.6754531755,6200.3517635418,6328.9067523521,5188.5281380433,4907.8130651628,-19854.2276958761,0.798914902,0.9972725022,1792.9732705221,-0.1459379022,-1486.0831307006,2.2663083481,-0.3256739368,3890.924589162,-4.0059798858,-0.4137310418,-0.8420114837,-1847.3406283936,2167.4068667669,-1.2706128831,-0.6051455919,5265.2165753441,3037.7365067866,3890.341221684,17414.8892005666,-14246.3148008209,-3851.7140205877,1816.545669961,-6066.348334095,0.0977067364,3078.1166438741,22686.6822787064,0.9042787223,0.1730108164,0.5018929956,-6.6180089362,5836.5154884258,-0.8180649051,1.0086906574,-0.1215972178,-1523.5267722425,-2960.2660716539,0.0733114814,0.4149804801,0.7538972919,-1125.4635945685,-5347.5034977466,-0.076690412,1873.9006441863,-0.0197129819,-960.6900800358,-2318.8525348159,-18725.1360637064,23594.5320510041,0.2897913517,0.0909899328,-3378.8996828224,1657.8823874111,2783.8221061274,-1.1860120296,-8211.4119748133,8499.6608405787,3014.4450485804,9101.2423136078,-869.3118147848,-239.2112948807,10692.8984025571,-5505.0331887654,-18.3638283442,2.9588113373,1697.5625392268,-895.5217098231,3662.0438347645,2213.770592723,-4648.1114434418,-1031.6255036965,1004.733025401,-3021.3923840278,-1774.3103129816,-9087.9346324979,744.5225028756,61.746170219,-12478.4582288982,-2353.1345317029,-1.5315232692,532.4174376782,0.9953963177,-0.2044189084,8520.5476921921,3022.9081178694,-0.5478855153,-0.0838938209,-2776.0395637387,23579.0233616666,-3.7359843309,-1593.7362515683,0.2784780847,-0.3227945297,1.008691397,-8591.8129271104,1.0159681905,0.7819211244,0.6448129703,-38.5792094588,-2.5467872071,-4896.2724510762,23503.9386143361,6293.6738229612,2945.8728388559,-0.4288102273,0.1985737229,-2293.1702079431,-10244.1990308632,2131.4927625014,0.615777315,0.0510369599,-1.1507443716,-3980.2472706525,-684.9925264734,34271.4019698829,-0.8671255992,-5528.7743311678,-17.2585579866,-0.2322521415,-472.0253599851,-8745.0499052484,-0.1020920349,0.0238609422,3217.5180990419,0.3845758749,-7811.6816437723,0.7841051228,-2.2052843189,422.3780094744,-578.3949520973,0.4951487345,0.8609962064,1876.2749696967,-672.9741985082,-2003.8967374331,396.4746768778,4019.443486253,7627.2652770672,-1.7617790076,3.0805873455,-7821.1787208211,12178.8201372746,12017.4453655423,-5447.3510297379,4933.7832782124,2923.9092986428,4680.4289473146,-9.2362779979,-2583.3214146018,12238.6454143726,13725.4753657253,-7899.2408935027,0.2347327805,-9803.8980963054,-1148.7638988218,9693.0325341497,7084.5793483064,-668.866110309,-2249.8499734317,8804.1260938936,8761.3938871535,-6236.9411012745,27679.0668083447,537.4698133161,15994.4288103861,1.0103231803,11.2415049251,1.5936146591,-13969.1050570875,0.7788790895,-870.7505223945,-4497.4852705746,0.3498085606,-163.1776027739,-89.9101505976,-0.9500648601,-1485.9642226472,0.8792804563,-28.3383407014,15423.1929794792,-870.9138068276,0.0094676291,-0.2866711408,-3204.8797247933,-6394.6176568823,-2310.8681390184,-1872.078643335,-9806.4472988409,-6330.3763858307,-15247.0851153476,-281.980962217,0.7745443459,0.7752221245,-1454.1373434041,-25.1290263293,-0.2171286171,-0.4734873152,851.657931926,-7.3828875989,702.052516764,0.4939867028,84.877974798,1.2486802911,20954.771562467,11781.1347023307,2.7798510288,-0.0099189452,7476.6920616854,0.8229638784,-2356.9009788534,-0.2439090823,1262.5416872645,0.0777736827,6136.6690743294,-1813.0978862584,6596.4357232143,1876.0343537809,6557.3599415596,-414.2375593697,5510.2677120174,9193.927634366,7192.9659199968,34.3575379061,1.2467840818,-547.9848727847,2613.2362633277,-211.8747110873,-5315.7422224443,-3847.4924764232,-820.1011557333,-1.4263587012,5506.5883880814,-3823.0014697253,-5779.6889274196,-1322.8277408104,2215.1773807894,-3121.5255217289,-2921.9550771893,-12563.4686753129,-9045.4266083625,-3328.1167936626,-410.3937058382,-3209.769820747,-1890.5290602351,-0.7482420707,-2975.5057943382,-1.4480347504,-0.3141743609,20.738736599,-6941.4848322428,-563.6089266208,1461.9665352359,-0.188736227,-0.3813848125,3446.0627298,0.1906674701,616.2510290415,-0.180833042,-0.1933815379,0.2096906558,-0.6453902557,1461.7068529304,-2.0557602491,-1656.0152807144,0.0332817158,-3832.4545706415,-0.8361735066,-0.1166626518,-0.9584893347,-0.0958831012,825.623021093,2796.9285903407,5123.1840286268,-1.4756017751,-22221.126060024,2.6430826005,-730.1169381163,0.7496229233,-20882.8834636024,-771.0015390154,18480.7916276217,2.0358886806,0.270648416,-0.536753357,11.4760100722,0.2769566872,980.0640715254,61.8514549515,-3014.6659531816,-3.7014578208,-30445.9718649773,0.6632005074,3088.0029892403,1.4000529117,-1062.5161697746,-201.6673456102,77.2869170116,1.3212110419,-436.5245803989,530.2245847239,-2.8785001074,10447.3614389522,-909.2676479735,17.7365567298,-3449.5345987601,6289.245233671,5646.2462360917,4880.2801569406,-6394.2697368534,1817.5924125221,1178.8033719331,-11263.4126259779,4075.1493168336,-0.3700484635,-864.7359713552,7976.4753850965,4510.4407111472,5241.9516480466,-8711.7789374354,-20.108584958,-5802.1974862595,-1956.5108095515,63.1192253204,-4571.3956507717,-683.1398907159,-0.8487322821,-5.4926057341,-0.1488426821,-5979.5351063817,-189.0916589456,0.7222860199,1.2691337039,27843.2002904495,309.9102140132,0.1986283145,-13.8078783461,0.3556965266,0.7275870205,-1.0717215194,0.8268024327,0.0758694693,-0.3416685074,27842.6825804681,0.1995959688,0.5263841989,-0.1143036619,6600.9413967524,-0.4638022796,0.7515093141,1836.6172014169,2902.074685123,0.9272122573,-1.1228126537,0.194749996,-3.1014934862,5552.1731315814,-0.5652606419,1450.4043761177,0.7413234393,10250.1220491011,-2276.7567459706,-0.0927833808,1181.8835444597,9.7681973402,7.786319611,-4778.408656667,-5416.5472630546,0.3095570521,-7125.1779761164,-0.6473617169,-627.4729511158,-5350.8719432746,2484.3387813179,638.3432744584,-0.3020180485,-13248.2621598367,1.1471404393,-4828.8572585948,11904.7667321346,6068.8009335977,-6249.0541016551,320.6784443882,-3069.878037364,1164.5660972118,2542.7519143573,-187.9434151599,1732.9706794356,4.8334311544,-5.9690575006,905.9702149791,2094.0597850579,-18877.4101731518,2610.4644718425,-6348.3816912533,1584.2291494563,-683.6376776296,6707.5072214802,-5189.8439125015,-3728.2866631227,0.3852306975,-17.8484437469,-2347.3333149859,0.6915990584,-9867.189793449,-3216.541505053,3213.3118595167,3999.2756779109,2516.1495864915,-6248.3551122243,4168.1563333006,-8.6507456346,2530.8827261521,6982.3298049768,-8.4764198831,0.4527121082,-0.3628509768,-1.7832034302,-3830.2123366861,-0.664600054,-1039.1415309748,0.9538097484,-1583.3041424099,-1.0801507411,-8.9201632972,171.491865773,617.1529357374,11310.3895262039,0.9569079731,-2.0899973859,12753.903849099,-0.1529329475,-7889.5515559327,-0.1075558519,-0.248350738,2250.9366199284,0.4262544567,-872.7929115411,320.8206867029,-0.2913849477,-0.7311922296,2361.3930713149,-10.0708078519,0.3887820645,-1740.4500251637,1.3878277412,1643.8293755535,-59.2194760796,19075.6297547049,1.2651301194,-62.2389233625,-8329.7369180341,7475.5138299578,89.4200127757,0.8882805178,-2731.3620231748,8.0797019946,2244.2903262449,-3545.642105781,-834.1284264745,3285.4076400666,-1.5548570386,1187.037703345,642.5917203391,6156.8390433196,3673.2349101517,66.0174424484,2803.2331297873,-3885.4218435101,1229.7684279356,-11091.4945069773,-2433.5366876083,-3.9627483737,9091.8201794612,-1218.7480000855,-1922.175408374,17400.3098680306,0.3654139855,73.5350559134,-489.6690206177,-4091.7509777606,19129.495664152,-276.3611357961,-5210.6059448041,6039.1553630319,-9540.0750593516,-315.6808545917,4154.7399570858,441.7082463622,1107.5614025613,0.6795391606,0.1424343974,0.7069581333,5465.7148978298,0.8647488879,-1.3538203167,1.7692959481,0.0107501073,1.0194152779,-0.6426665175,-0.8284445754,5.4148023351,0.3541146874,2.3678355827,-2.8606031183,0.2294315554,-2103.9967388534,-0.9598380291,1926.7582558325,542.9874346135,-797.5723316243,-0.9136066346,596.1996749434,1600.0868335388,-22.8717028034,-2281.3175091385,-0.3654586544,-2812.7861427262,-9.860905452,-0.4148430737,4071.0520172951,-0.9904076368,-8665.087519764,-0.1057022322,2772.8557943297,-13803.8690109323,-1078.074360967,6234.7315323616,-0.1881995801,-3116.6935822622,-10487.4057547166,-20.5495237683,-1.0533645538,12.7061956368,4817.5175414541,-1.0463460916,-0.5280723589,0.7916605908,76.5865021858,4302.8573099653,-8581.2362522581,2079.7792531869,-18619.3556580581,-1181.7484344222,-4155.2716730749,0.3586729781,17047.1795020367,1558.5585223656,5823.5169939083,606.1553092926,-189.0193146644,4836.7325352189,-4153.6210139909,23.4402349695,-2406.5632412971,-12185.2989244149,-4387.1171803072,3997.6078384297,-15088.4525658964,-4014.3154713844,7471.5907659199,343.1371012492,3893.7063796616,1566.0767639373,9619.4564292737,-2185.6082752269,3835.6030076989,-2938.8991025303,20.56448909,-0.1257954902,1327.7299365051,32588.2259055268,-0.811337855,1233.3821037456,-22664.2785012425,-0.2042494708,63.1656199663,1879.1261328518,0.1376603242,-19721.9877261851,-5931.6192086782,4620.7448812301,15.2654855846,0.3638082501,0.3570243576,3787.8595228526,62.6394362163,-1.001898423,-1829.6443825536,-2.2125254022,507.3164373334,14.3087374645,-210.4667545148,-3200.0409276168,-1647.1912298279,1478.4521805602,-1.4543076054,0.2990854409,567.5402231399,-440.4739078534,0.0867418586,-13090.3813430802,-0.292093365,-4700.7512479238,20087.7940958763,-0.9954728032,1.1254063377,52.5099308608,-9068.1666514557,0.5460969127,0.6771221247,1028.3126645981,-2662.9569101462,3080.0966166642,-2872.9545906129,58.7634754297,-1.1715334688,2277.4641065414,0.7382375162,-4252.9256067351,1281.6899441349,-3150.1726973187,-1.8205432654,2.8314612526,-12008.7765093404,-7372.0969040715,1.1186749156,-765.2378094847,6563.7278817559,5918.8792119162,-3031.3760113435,-5559.623019192,-4.9745768358,-3104.9760865124,5746.8143670137,11880.9169663799,-4673.5028700856,-2442.6150677059,-1238.7660755869,2916.3324611848,2035.1299217366,3316.6241519681,3965.875322944,3773.0869615525,2968.3362974172,-9.3475980123,-8947.2683342338,-6410.2352786731,-5769.5615107849,-3969.8366606376,-1.6637559405,-89.4658999766,0.6008706213,0.6328277904,18.7460098015,-11333.2693243605,-1.0434578973,-0.2012269699,1.1459224094,0.6062942768,-0.2757348592,4.4111055087,0.0014769738,-0.2123884057,-0.6639893094,3511.6142969302,1494.2550256456,-0.8057841153,1154.8280646599,-16979.8154574458,-1501.0161205797,7799.5287906706,0.9820222657,0.6961255226,-0.5380515175,7939.7631283971,-595.1939122439,-1423.1141751943,-0.0775445078,-1074.7422884488,-0.0427162623,-3331.3247088215,0.2970206478,0.9410661692,-4988.3199903876,1761.0253024669,-11519.2663441043,0.0552788507,0.4240200998,-305.1394679956,-1.0097613848,0.412117383,-0.1844380683,-0.450417265,8141.0431022048,-890.6105460398,625.7001221777,-0.5572801522,-178.7714991408,-1.5448876817,4878.2991823709,-2073.8886919769,-8322.9457467764,3214.882519842,-4424.1655623837,7636.93552174,-7.0059474002,-1.1831663222,-2882.1273606139,170.7201934599,-107.820076837,2167.0307021831,-7660.5635653339,252.948246984,9556.5773843559,0.4250569587,10830.338786042,1945.3697650657,6834.3181068362,676.0042564173,2086.3803464996,497.5841808956,-1890.9652853832,-4.2835552162,2320.3618441505,1076.4682843089,9118.2703599682,843.7430737002,-7710.0141075022,-2730.6488639224,-21.1238633268,-558.3062194597,-1.4926792107,2882.8421494845,-493.9233662403,-1969.2175674122,-11895.4567689235,900.0187503582,517.1101718659,-2.4512242893,-0.5282461135,0.6646994727,-15623.9092138205,-0.7886937,32.100106858,0.1137161428,4.7167209293,-53.3360884225,518.2406973725,-8640.268629814,15138.5013344572,-0.0936301753,1777.3712098016,0.4854286321,0.3424027712,0.7409076552,-1.3954172891,2578.7167486187,-1.9054546154,-10655.328349469,0.8286521097,-1742.0735456407,0.4855921695,-1666.453014698,-0.5620973213,56.5465849157,-1.8150437096,1273.8532271897,9588.8475308822,-6363.8367974016,2.4995971929,-3.1162442574,-7937.5518432154,0.4641834487,0.4598027056,-173.9668697593,-0.6387960472,511.7681711002,1.3938204932,-0.2463201503,0.9856417593,5041.2590285239,18.6200094016,-34.799973601,-3622.9562832352,-114.5600627504,3950.3277177338,0.1300398338,-0.8204884066,-7497.3486261328,3056.6390409347,-3466.7860265663,6517.2505473012,-229.2954312611,3.8436411498,-36.2795954349,1919.2070850645,-5623.9034764974,6666.3767692436,16945.6834531246,-2972.8398321316,-6414.6329315506,751.0798661592,-4454.3424460137,3933.3167844788,1.0709972289,2931.3962127447,-666.9627057876,-3666.4792622634,2227.7304629004,-11144.9843231874,-106.7307730922,18822.8206807846,12.3876610965,6219.7838632719,-1492.0606921414,17739.5756906294,-4009.9839940263,-1344.7006325809,-0.4356419307,-1042.54065162,0.8155750698,-5137.0146227732,21325.0448522844,1368.1134020988,-2209.2737327839,0.4951674453,-0.9921736122,8891.4285236258,0.3963771944,11331.8664502059,11874.4834461728,850.4345037013,-5439.3025004896,28.5098323118,-0.2157336586,-12996.9773882133,-843.5168753687,18.666505618,-238.9035754685,-0.5866239049,-100.7002630892,27.5315315919,-20254.1789489935,-2521.5666098938,-0.3693730573,138.2094899281,8495.2990944802,7280.4943641515,-2862.9691666371,-9785.1090378224,-8340.9048895568,-3.227040606,-0.5058575954,-5319.3254754682,11207.9968895904,75.4921378976,-6816.1211298909,-2304.9632713896,-1135.0017895224,3210.1641950249,-0.6665261795,-3994.552977147,4273.9140701933,3828.5340580343,804.4752193557,544.0123082568,10979.6771580404,-1573.6600402105,7939.3894716505,-2600.5575435683,-2652.9288796637,5462.2397279244,-1620.2503109758,-2210.9473744858,1312.7620853057,1453.3352570748,-12890.6113521472,-10713.4376719256,3296.0614310723,11512.887973719,2842.3577837982,3916.4677819849,1859.3970797492,-3485.050717442,-1537.6834925853,1432.1119544045,17759.3616908125,-1853.2133065784,-8345.0114436513,896.8728637145,2236.6117896671,0.7569224493,15032.7259713838,-0.3388255243,4146.0591091955,1.349199501,-1.1956460233,1.9765390943,-0.8951515332,-0.8763855163,0.6282200428,-0.426790046,0.5128577462,-0.7972774315,0.2946027563,-52.5159904181,0.8733835363,-0.1827600426,0.069876643,-0.3436391113,-0.0731198997,-14218.8105898545,4619.3992238709,0.0936396052,-32.9400747535,0.7448495005,-800.3408120764,-14903.4185913634,33017.8796474211,-1387.3326226558,24.1375404368,0.9256763192,-1.8034652492,0.7499522322,-9841.2466225111,-0.8377177169,2281.7133794659,3606.6758920314,-0.4908716765,-0.6378090282,0.2026192059,76.3887797543,0.377089014,8855.2389382054,0.1294021817,-0.1842790782,-2140.1317659592,0.6396790222,3808.2541973029,1.5437842143,0.6115259518,0.8358635937,-8.4392133085,-0.2090836239,-38.7242353421,1361.768720182,241.3030336695,1393.0429946076,-3572.4808092727,-12265.9651129725,5253.3635529832,4127.6629303855,-8991.6493541872,-2593.0947910985,-6662.1680262976,-7115.9106243873,-8327.1385945924,1630.0710374309,-5285.1456183896,8811.0350356222,1582.9429981022,-1874.0513302944,46.4656423886,-481.6832901708,1665.2709297114,2638.3103060348,1077.234129655,-871.8075251858,11.8385243074,-24.7459758746,7311.5938410393,-2897.211722683,2750.6473241657,0.8870461018,-3723.4989488362,15654.6961255443,-1799.2426035225,0.4455596306,1357.3720520201,1.9068916441,-1543.3422439198,0.1996843432,0.60191495,-722.3924432683,-16189.6011104975,3789.0760255388,-0.5058736371,-0.8926038849,0.4195357647,16.0756089595,-1542.9600878202,-25.1077847865,-0.3188732676,-8773.0537339807,-1.2128222895,-2118.0707014738,-5228.0712855315,1254.9662216038,6521.2904603402,2.3464431459,1.0041291332,-0.1241922564,-1.8447851449,829.7891097179,0.5327390261,-1374.7714631004,-0.1791111341,16049.2288455859,11930.9854993626,5438.7590089776,-0.7517474076,-12137.1643748172,2232.3801719226,2077.7279403771,9107.7284143774,-0.533373573,0.5261928021,0.4249004508,9199.5284569252,10661.2033054361,-2534.496169674,0.1410027342,0.5357787592,5420.3809249537,2584.8408786387,-6168.3136590399,5689.6004140019,3216.5676396022,-2123.7551772124,-12.0346283033,3878.273016716,15315.5806525902,-7594.8092429217,-3650.0316105833,-12550.828465285,-1593.6735482454,8027.9253349867,-3318.5746090119,-16677.5627327028,3439.3290215846,-902.3645710364,11667.2692581001,-7756.9653221362,1059.0304091114,1846.1706576759,275.0554265938,-3739.8700999785,-11519.8205337141,-14327.5133142999,-12256.0500142928,5310.3339665056,2399.6671070933,7.0921999269,10586.1228803758,-3271.2414308366,-0.4991557538,-0.1231444568,0.0411803742,-0.7987148037,1021.0048137175,3.0245452893,-6444.1089238549,0.587645894,0.0230425753,-0.6674821432,0.7951076511,-6336.4639546989,0.4126445665,0.1873586871,0.5331444356,2996.5441447328,-6443.3951516137,-1.0040896355,-25701.5669866895,11617.5034914034,9461.4176927783,-0.9282840756,0.8739230205,-1.5919922162,-0.5006376857,0.9733330905,109.2845214265,0.3578638808,-708.0208154726,3683.0819691637,-714.7753534277,3933.0570501379,-0.0558531051,20817.4988396772,-848.9528957972,-5088.1296002211,7.9249946421,5951.81736732,7296.9650480601,1575.9113012009,2054.9241296552,-7962.845119601,-0.6552833365,5593.8722296207,0.0323526416,12834.910074043,-3350.2822465367,-0.7912941836,-0.6765240615,158.476739669,15804.6830523758,8393.1188064815,6245.5686006723,6258.3171484619,4482.0095595722,-867.2388918323,-1075.6301836603,-26133.4785624187,-861.0101006338,7191.833724594,2351.4094184049,-3604.7877008722,251.9366335633,-8794.4894937507,8379.6515823035,19512.3135998716,8840.468307633,-16127.5683715064,-1155.4763637463,1820.3426816098,1895.4538089066,7576.7653720963,-3065.9695394222,2.5228350482,11627.8702755712,-7847.7818301156,-0.1151889565,14044.8540887508,-10996.9517017674
##end
biasActivation=0,1,1
[BASIC:ACTIVATION]
"org.encog.engine.network.activation.ActivationLinear"
"org.encog.engine.network.activation.ActivationLOG"
"org.encog.engine.network.activation.ActivationLOG"
