encog,BasicNetwork,java,3.3.0,1,1425326864024
[BASIC]
[BASIC:PARAMS]
[BASIC:NETWORK]
beginTraining=0
connectionLimit=0
contextTargetOffset=0,133,0
contextTargetSize=0,31,0
endTraining=2
hasContext=t
inputCount=50
layerCounts=50,32,82
layerFeedCounts=50,31,50
layerContextCount=0,0,31
layerIndex=0,50,82
output=0.0321216082,-0.2266347954,0.5063053102,-0.1866803963,-0.1213086204,-0.0516787634,0.2851607789,0.5152581244,0.159294546,-0.0806651957,-0.000047349,0.1357982233,0.2315376605,0.0400130473,0.5768412619,0.000118113,0.5506029564,-0.3315822889,0.1355633985,0.1899312447,0.1448921537,0.1917529647,0.0947821741,0.0494590683,0.599566203,0.1741818963,0.2116187707,-0.0749029277,-0.1327737545,-0.1201518464,-0.1029134625,0.0565568505,0.0520948424,0.1165183846,0.0006066048,0.2704689864,0.0771375364,0.2183001135,-0.4863585771,-0.154471129,0.3235893311,-0.1081515531,-0.1765586844,-0.0345678823,0.0555176517,0.0475974803,0.6142817752,0.3677050365,0.9935495236,-0.3271112986,-10.1444001205,-9.0158442957,-8.7381664986,10.1803427412,9.383924783,-8.790774728,10.1470543067,-6.0323881392,9.2645059749,9.3252878549,7.7221252067,7.758518048,8.6382261896,-10.2426764905,-8.1205449769,8.6825846101,-9.2419635182,9.7899555164,-10.2588438692,8.928337201,-8.5888067143,7.6938609545,-8.4969347675,7.0248201982,9.7153556346,9.7088822915,9.1233190082,8.5981580067,-10.1784653851,8.5575037349,8.0471901792,1,0,0,1,0,0,0,0,0,0,0,0,0,0,0,0,0,0,0,0,0,0,0,0,0,1,0,0,1,0,0,0,0,0,1,0,0,0,0,0,0,0,0,0,0,0,0,0,0,0,1,1,0.0321216082,-0.2266347954,0.5063053102,-0.1866803963,-0.1213086204,-0.0516787634,0.2851607789,0.5152581244,0.159294546,-0.0806651957,-0.000047349,0.1357982233,0.2315376605,0.0400130473,0.5768412619,0.000118113,0.5506029564,-0.3315822889,0.1355633985,0.1899312447,0.1448921537,0.1917529647,0.0947821741,0.0494590683,0.599566203,0.1741818963,0.2116187707,-0.0749029277,-0.1327737545,-0.1201518464,-0.1029134625
outputCount=50
weightIndex=0,1600,4142
weights=##0
##double#4142
   -0.0013774178,-0.0037439712,-0.0002977547,0.0012582872,-0.0048960612,-0.0041416774,-0.0038325142,-0.0010113695,-0.0001987461,-0.0053099487,0.0057327218,-0.0045421329,0.0007320352,0.0004125612,0.0002795762,-0.0034423674,-0.0008238733,0.0035732949,0.0061760784,0.0012549749,0.0000858185,0.0037729569,0.0009785683,0.0019545573,0.0019262243,0.0003251205,-0.0004880065,-0.0017127535,-0.004303567,0.0037027391,-0.0043838645,0.0166430317,0.0049748916,-0.0095735407,0.0020589177,-0.0013890135,0.0034491355,-0.0000781209,-0.0022680997,-0.0015737417,-0.0028593786,-0.0032669761,-0.0012712244,0.0099823657,0.0001634022,-0.003961337,-0.0072977691,-0.0054738338,0.0111668694,0.0000697713,0.0023079162,0.0008452214,0.0095539998,-0.0034294365,0.0062844539,-0.0012003009,-0.005183247,-0.0019944145,0.0034392704,-0.0030545976,0.0125128962,0.0022648525,0.0037144125,0.1173434766,-0.0023125332,-0.0095313357,0.0087512393,-0.0025299862,0.0096132286,-0.0122380122,0.0011352285,-0.0035348104,0.0021788911,0.0006965036,-0.0028751404,-0.0070049771,0.0033422926,-0.0084393647,0.0026902996,-0.00275217,0.0025397084,0.0116829789,0.0054819047,0.0078557515,-0.0049045105,0.0041087897,0.0031909139,0.0083553977,-0.0054729107,-0.0051285036,0.006927622,0.00129704,-0.0014783408,-0.0041745321,-0.0094653977,0.1641345659,-0.0005147428,0.0018979465,-0.000687957,0.0000041267,-0.0005292346,0.006461278,-0.0039337672,0.0055080384,0.0019933758,-0.0029334207,-0.0031608204,-0.0160123727,0.0020366485,-0.0023636551,-0.0029020733,0.0057834501,-0.0020597163,0.006562106,0.0018503258,-0.0009452546,0.0028130425,-0.0027913572,-0.0047449957,-0.0062953051,0.0028418123,0.0011539786,-0.0005572766,-0.0011244304,0.0049150701,-0.0064871622,0.0032864728,0.0447274061,0.0043877576,-0.0018922186,0.0014828127,-0.008842637,-0.0035157155,0.0003412854,-0.0051664104,-0.0004638998,-0.0095537424,-0.0039676404,0.006684136,0.0016388302,-0.0097244463,0.0040653492,-0.0036758668,0.0035090322,-0.0000977411,0.0062338297,-0.0003948726,-0.0066778823,0.0038439994,0.0011393474,0.001877878,0.0000712398,0.0031701627,0.0014312279,0.0006285107,0.0079565344,0.0026440066,0.0029512745,0.0073607142,0.0781686698,-0.0040626614,0.0026918288,-0.0012252292,0.0028332075,-0.0095697213,0.0009308296,-0.0019407911,-0.0031444722,0.0104019902,0.0089225549,0.0044715811,-0.0002663126,-0.0133864903,0.0026240105,0.0001375788,-0.0032301665,0.0058190612,-0.0058401112,0.0038680205,-0.0062784947,-0.0086480542,0.0031418168,0.0064223206,-0.0019662112,-0.0010938325,0.0029149162,0.001370876,-0.0045422411,-0.0046013968,-0.0049922193,0.0047848902,0.0930542019,-0.0018777696,-0.0043714116,0.0031645859,-0.0042568625,0.0060440656,-0.0027545302,0.0048931211,0.00071796,-0.0038402861,0.005980802,-0.0059871009,-0.010360713,0.0014118339,-0.0082495117,-0.0041464087,-0.0066917132,-0.0000860891,0.0065057387,-0.0047024674,-0.0027947379,-0.0013973292,0.0036644364,-0.0034691448,0.0005459112,0.0022808102,0.004137123,-0.0027216556,0.0019716149,0.0012263251,-0.0117034355,0.0024987514,0.0823935257,-0.0006216864,-0.002031395,0.0044135309,-0.0057513209,-0.0020275167,-0.0066717207,-0.0024569021,-0.0059358189,0.0019484607,-0.0002369095,0.0134577196,0.0013817392,0.002685122,0.003388708,0.0038700913,0.0056157728,-0.0047796169,-0.0013435552,0.0027389995,-0.0023858382,-0.0071800011,-0.0087473981,-0.0154367335,-0.0007655195,0.0084226629,0.003723973,-0.0003404327,0.0079343625,0.0012917631,0.0063801588,0.0011797895,0.0651341278,-0.0008197833,0.0025949241,-0.0015364439,0.0027259406,0.0006807312,-0.0024467959,-0.0043158331,-0.006558726,-0.0057342,0.0018729433,0.001174354,-0.0046464861,0.0002588781,0.0009202978,-0.0060987892,0.0012379781,0.0057487873,-0.0067394311,0.0011660451,0.0076123609,-0.0070003528,-0.0055799826,-0.007812061,-0.0042223523,-0.0025171197,0.0058717676,0.0004986496,0.0003206926,-0.0029776415,0.0058937873,-0.0057950738,0.0543087912,-0.0007104698,0.0089392324,-0.0050425899,-0.0007301544,-0.0093375887,-0.0000947892,-0.0008540179,-0.0013081195,-0.0095558552,0.0035059418,-0.0034753561,-0.0054021128,0.0008065925,0.0111670786,-0.0048753599,0.0023358268,-0.0046839887,0.0032287637,-0.0022044997,-0.00445573,0.0071620367,0.0099053832,-0.0036526953,-0.0099855237,-0.0030826648,-0.0060705628,-0.0017421043,0.0056153817,-0.0053618014,-0.0040502321,0.0045723491,0.1822548942,-0.0000043518,0.0000016015,-0.0000001368,-0.0000047041,0.0000003617,-0.000000515,0.0000047268,-0.0000028123,-0.0000005885,-0.0000030594,-0.0000042804,-0.0000046357,0.0000000606,-0.0000069615,0.000000951,0.0000041873,0.0000006117,0.0000032514,0.0000000487,-0.0000007797,0.0000020036,-0.0000017713,0.000000043,-0.0000024707,0.0000021816,0.000000341,0.000001724,0.0000000472,-0.0000045908,0.0000056033,-0.0000029827,-0.0001821454,0.0028944207,-0.0036762646,0.0040305535,-0.0047267606,0.0021463605,-0.0046785388,0.0061165757,0.0077777768,-0.004388396,0.0025387806,-0.0045156946,0.0027278316,0.0051950971,-0.001701021,0.0036997667,-0.0003368698,0.0000067538,-0.0008156571,0.0005738898,-0.0009742318,-0.0016399553,-0.0065991095,-0.0043071124,0.0089968087,-0.0030758395,0.0070303152,0.0003811706,0.0009984477,-0.0040343205,-0.0027492136,-0.0034937819,0.0599623029,0.006447864,-0.0005314474,0.0052312303,-0.0012228981,-0.0030043838,-0.0009302319,0.0036904027,0.0011353037,-0.0005159248,0.0051881342,-0.0005573444,-0.0031218069,0.0127622049,0.0019208009,-0.0075815548,-0.0052570555,0.0040265834,-0.0075766937,-0.0081329515,0.0026086279,-0.002527275,-0.0032158407,-0.0030248149,0.0031583181,-0.0011224862,0.0012025793,0.0018762259,0.0000990662,-0.00798713,-0.0009974036,-0.0059590681,0.1344314594,0.0054029366,-0.0006060062,-0.0070011442,-0.0007479243,0.0039160372,0.010262975,-0.0013507055,0.0027113488,0.0028146472,0.0010699513,0.0020276127,-0.0080647759,0.0031119867,0.0066421043,-0.0038898925,0.005285424,-0.012673182,-0.0053203287,0.0058469252,-0.0021201495,0.0011437817,0.0017792631,-0.0034788841,-0.0054840536,-0.0003085588,0.0034240445,0.0013260583,-0.00129209,0.0070716144,0.0001053053,-0.0018265903,0.1673735588,0.003529539,0.001213944,0.0010905667,0.0142285881,-0.008169916,-0.0037792983,0.0009947227,-0.0066552652,0.0092919284,0.0084796764,-0.0115725546,0.0052587404,0.0049852236,-0.001115377,-0.0110878535,0.0068029914,0.0024054785,-0.0038599497,-0.0102736508,0.0067313958,-0.0026160176,-0.0101741219,0.0050602847,0.0001683354,-0.0067103621,0.0018822234,0.009342112,0.0023433781,0.0001115104,-0.0023136275,-0.0017709553,0.1301530873,0.0000035458,-0.0000046013,-0.0000006542,0.0000059306,-0.0000015045,-0.0000029665,-0.0000023569,0.0000025481,0.0000024792,0.0000019679,0.0000004453,0.0000002145,0.0000004904,0.0000055971,-0.0000025998,-0.0000047599,-0.0000013275,-0.0000061601,-0.0000025713,-0.0000029309,-0.0000023625,0.0000049561,-0.000001746,0.0000039828,0.0000009431,-0.0000013078,-0.0000096483,0.0000015343,0.0000019278,-0.0000030925,0.0000026186,0.000150693,-0.0049418427,0.0033780027,0.0084209939,-0.004497976,0.0061979826,0.0093920045,0.006177777,0.0001599498,0.0073085459,-0.0017847028,0.0048711399,0.0152352628,0.0147060826,-0.0033517985,0.0001281261,-0.0087022803,0.0097994454,0.0028932423,0.0024318349,0.00317521,-0.0027007921,0.0065939796,-0.0069687232,0.000798929,-0.0043022468,0.0003788471,-0.0063607629,0.0031899081,-0.003991907,0.0053214605,0.0054200726,0.1803511217,0.003636542,-0.0034754001,0.0012306566,-0.0003488176,-0.0014027927,-0.0057320996,-0.0051362931,0.0003964877,-0.0006013544,0.0005587662,0.0058211443,-0.0004589496,-0.0032310836,-0.0020975335,-0.0032982459,-0.0015069981,0.0033320174,-0.0065881521,0.0071528729,-0.0071518988,0.000623142,-0.0026698202,0.0065759588,-0.0064261847,0.0000691484,-0.0016722059,-0.0109229863,0.0015240726,0.004567279,-0.001139869,0.0065107921,0.1226610732,-0.0022837255,0.0020065532,-0.001512492,0.0026591327,0.0005441429,-0.0022428621,-0.0055539922,-0.0053452164,-0.0076865197,0.0020860663,-0.0000671292,-0.0036104212,-0.0008802088,0.0024366801,-0.006669465,0.0019767376,0.0061089128,-0.0062526799,0.0008123793,0.0091099013,-0.0071878004,-0.004234502,-0.0069978934,-0.0038881946,-0.0032192175,0.0033091981,0.000883028,0.0004556395,-0.0019931478,0.004531351,-0.0052222645,0.084518242,0.0081074023,-0.0004811185,0.0031511849,-0.0020175891,0.0029650927,0.0050258762,0.0036712712,0.0020207181,0.0086516682,-0.0005216197,0.0025168069,-0.0014502299,0.0036274948,-0.0021285554,-0.0027580131,0.000481515,-0.0101627304,-0.0075285993,-0.0038280625,-0.003963477,0.0009846637,0.0035132955,0.0008107595,-0.0013409217,-0.0040214774,0.0082232868,0.0056224645,-0.0041189453,-0.0025771732,0.0015461494,-0.0004684473,0.0253103071,-0.0005738073,0.0036177005,0.0032071804,-0.0011470907,-0.0017421188,-0.0011847343,0.0001992172,-0.0028951566,-0.0000275454,0.004554365,0.0048828833,0.0019686372,0.0003002317,-0.0000950518,0.0039066068,0.0027038627,0.0046146203,-0.0085806467,0.0010176371,-0.0031298081,-0.001943523,0.0050325614,-0.0025932775,0.0057858434,0.0123107159,-0.0009189884,-0.000057123,-0.0007711152,0.0024608865,0.0027858469,-0.0055067275,0.0962589966,0.0016800742,-0.0012404423,-0.0017454253,0.0069532971,-0.0001848827,0.0044546374,0.0041572433,0.0018293072,-0.002255926,0.0005983346,0.0047440073,0.0005894845,-0.0034829459,-0.0045832621,0.0003586431,0.0034107578,0.0001405235,0.0052610688,-0.0010280173,0.0034975279,0.0053054361,-0.0015799844,-0.002458493,0.0043913168,-0.0000017826,-0.0028659056,-0.0030430529,-0.005378323,0.0008075418,0.0007635854,0.0017113031,0.0556405346,-0.0057091133,-0.001691013,0.0041801527,0.0003056891,-0.0024288409,-0.0024446244,0.0069528359,-0.0091376684,0.0016087267,0.0034656268,-0.0049279107,0.0009363375,-0.0008155049,0.0080651711,0.0046708535,0.0010363555,-0.0010472048,-0.0010157108,-0.0019319199,0.0050768429,0.0016721839,-0.0012237066,0.0005329911,-0.0080606429,0.0044400347,-0.0006881804,-0.0018071528,-0.0037525296,-0.0048099958,-0.0009120772,-0.003014007,0.0482641398,-0.0002873437,0.0062304358,0.004960899,0.0094042451,-0.0034748001,0.007154749,0.0013717846,0.0060245681,-0.0101996284,0.00596174,-0.0002504382,0.0024807414,-0.0101043233,-0.0025076322,-0.0087674421,0.0045800172,0.006055684,-0.0068275793,-0.0028702419,0.0117155715,0.000975498,-0.0046707414,-0.0031966327,0.0126742334,-0.0020056244,-0.0018152781,-0.0060196116,-0.0055112047,-0.0025708901,0.0031534066,-0.0147037461,0.2619422328,0.0074406521,-0.001090792,0.0082578281,-0.0009661235,0.0152001116,-0.0084376591,-0.0008999695,-0.0024943902,0.0020591333,0.0152330629,0.0035412502,-0.0106933597,0.0032584327,-0.0034546118,0.0070162224,0.0057828953,-0.0012822678,0.0095438066,-0.0032528132,0.0070302413,-0.0024218566,-0.0092132108,-0.0023752702,-0.0014806014,-0.0042750745,-0.0063341856,-0.0003385583,-0.0006874514,-0.0028737018,-0.0012383171,0.0009110752,0.2871306736,-0.00469393,0.0067286729,-0.006433978,0.0003397532,0.0070780315,-0.0064029813,0.0008769198,0.0023570263,-0.0041020867,-0.0016181226,0.0049496699,0.0031166237,0.0027994378,0.0062682503,-0.0043098934,-0.0063128384,0.0018759558,-0.0029195553,-0.0066193607,0.0011162214,0.006750727,0.0075870927,0.0003550487,-0.002410699,-0.0012006276,-0.0058858112,-0.007521826,0.0030979851,-0.0059316161,-0.0022229971,0.0020629942,0.1011369345,-0.0017399837,0.0034059194,-0.0041359306,-0.0005355609,0.0083016938,-0.0032878881,0.0003841836,-0.0010939434,0.0008394269,-0.002444353,0.0020427268,0.0010103167,0.0039761023,0.0013897601,-0.001740695,0.0010799264,0.0067733079,0.0018178266,-0.0021215071,0.0027565151,-0.0008378013,0.0020429056,0.0019661642,0.0010961321,0.0023055065,0.002673262,-0.0045756437,-0.0046585013,-0.0039145079,-0.002946314,0.0034666479,-0.0000965727,0.0141718298,0.0051219759,-0.0031103135,0.0011738645,0.001674072,0.0022062656,0.0012630039,0.0040441217,0.0092792942,-0.0062386977,-0.0024343169,-0.0048387614,-0.0073919738,-0.0111759533,-0.0011716169,-0.0034541383,0.0024514744,0.0066279825,-0.0009289254,0.0122899154,0.0094175093,-0.0088346537,-0.0034256325,0.0025575507,0.0029464715,-0.0027576414,0.0047149133,-0.0061482198,0.0086667938,-0.0015074795,0.0038841538,0.107733473,-0.0099810687,-0.0071493747,-0.0041904109,-0.0015015264,-0.0064181734,0.0057138814,0.0067593027,-0.0035833395,-0.0064180435,-0.0013092513,-0.0068859512,0.000884086,-0.0033787007,0.0092695495,0.0114101076,-0.0065777782,-0.0017762072,-0.0003455305,-0.0054447985,-0.003744183,-0.0109146629,-0.0068638701,0.0099512576,-0.0020970944,0.0087303707,-0.0039816421,0.0067228464,-0.0089423026,0.0043375755,0.0012898127,0.0015659695,0.1051173289,-0.0016754415,-0.005045874,0.0003831696,-0.0069015457,0.0003522053,0.0111346408,0.0050342039,-0.0003538586,-0.0085407656,-0.0051394227,0.0058126359,0.0030546101,-0.0049963901,-0.0096564143,-0.0032272132,-0.0091589577,-0.0108687404,-0.0096094249,-0.0101097088,-0.0175445588,0.0031643671,-0.0006580403,0.0132117199,-0.0039238942,0.0035966243,-0.0006493864,0.0060267221,-0.0045564669,-0.0008937098,0.0024520266,0.0058185827,0.0856386415,0.004983273,-0.0032751442,-0.0055107482,-0.0064284112,-0.0202619231,-0.0035614167,0.0013976131,-0.002995392,-0.0025079054,-0.0068052789,-0.001594333,0.0013350479,0.0072200309,0.0068800125,0.0164318414,-0.0057766202,0.0054445739,0.0057431063,0.0026799526,0.0085800951,0.005958702,0.0100926121,-0.0001510312,0.0019341321,0.0087507986,-0.0036104167,-0.0005617608,0.0056142419,0.0096389375,0.0098678406,-0.0046006212,0.2035346435,-0.0077485631,0.001440339,0.0054712384,0.0006963444,0.0090641597,0.0042706827,-0.0051236354,0.0091884441,-0.0016948046,-0.0009885982,-0.0130595366,-0.00110167,-0.0081098516,-0.00351587,-0.0014035077,-0.0053746597,0.0007414711,0.0013768301,-0.0009177529,-0.0091089313,-0.0140751087,0.0005906336,0.0018839831,0.0001878865,0.0092382287,-0.0012295137,0.0059239482,-0.0069906166,-0.0004737794,0.0005034958,0.000615914,0.1638868817,0.0048230706,0.0068009692,-0.0121343465,0.0045872221,-0.0057498377,0.0071400592,-0.0060423501,-0.0045930424,-0.0009526114,0.0042262871,-0.0058898263,0.0084743074,0.0050177794,-0.001700742,0.0082940058,0.0048078947,-0.0001209005,0.0065865769,-0.0044209553,-0.009759736,0.0060154121,0.0126947387,0.0023294074,-0.0028863006,-0.0077190192,-0.0036492602,-0.0067020202,0.0085199984,-0.0011840094,0.00185263,-0.0025794696,0.1353355718,-0.0035897913,0.0116298487,0.0018251967,-0.0043111675,-0.0015968569,-0.0033457257,0.0029385686,-0.0063448454,-0.0036864143,-0.0045881516,-0.0003360413,-0.0002692618,0.0048791823,-0.0165639625,0.0138658193,-0.0024977908,-0.0070732449,0.0029522217,0.002011967,-0.0015205013,-0.0025537589,-0.006749233,-0.0038631264,0.0002595203,0.0089737439,0.0042163494,0.0072383943,-0.0063698951,0.0064096564,0.00722162,0.0057481456,-0.0805385572,0.0000959887,-0.0000173048,0.0000288699,0.0000730433,0.0000355462,0.0000006971,-0.0000315914,-0.0000080648,0.0000433074,0.0000074072,0.0000509495,0.0000346025,-0.0000320088,0.0000657812,-0.0000255961,-0.0000959234,-0.0000175033,-0.0000205263,-0.0000119862,-0.0000465441,-0.0000352635,0.0000140864,-0.0000010762,0.0000172793,0.0000032821,0.0000526323,-0.0000948207,0.0000096798,-0.0000047588,-0.0000187336,-0.0000362285,0.0017529419,-0.0075053555,-0.006095323,0.0074677981,-0.0001022979,0.0100883208,0.00401417,0.0016536478,-0.0040830917,0.0023410795,0.0011132978,-0.0047271887,0.0067744661,0.0007814179,-0.0015866456,-0.0044181903,-0.0076159091,0.0035441985,0.0039612122,0.0052256885,-0.0053077369,-0.0026950281,0.0022245724,-0.0058523914,0.0022713582,-0.0037539705,-0.0064757541,-0.002661058,0.002218652,0.0000351384,0.0033339093,-0.0014543213,0.1411060132,0.0049870857,-0.0062272029,-0.0033905442,-0.0040398494,-0.0056465278,0.0042204534,-0.0013920843,0.0098113417,0.0072953773,-0.0024869401,-0.0001358231,-0.0037769619,-0.0012137895,-0.0013318237,-0.0101937756,0.0004144436,-0.0026705544,0.0063163636,0.0020778841,0.0081953625,0.0088549674,-0.0093291215,-0.0042727387,-0.0047258192,0.0066904892,0.0012829705,0.0039941673,0.0055208215,0.0076793074,-0.0071750525,0.0033133539,0.1007922281,-0.0049132121,-0.0073801986,-0.0031499882,0.0025350905,0.0092302077,0.021966158,0.0064678729,-0.0071134742,0.0020797113,-0.0014103912,0.0017041911,0.007848481,-0.0094832098,0.0074136089,-0.0050445032,-0.0099548652,-0.0011518486,-0.0005089311,0.0055419701,-0.0085220543,-0.0061314739,0.0035725102,0.0004374673,0.0013405654,-0.0058337762,-0.0005707737,0.0032998271,0.003249164,0.0024670016,0.0053283256,-0.0021230114,0.2118893638,-0.0046604173,0.0026990568,-0.0051564726,-0.0064319266,-0.0056851168,-0.0111490923,0.007983559,0.0032122382,-0.0029169266,-0.0069276088,-0.0084177029,0.0009889109,-0.0020333945,0.006530383,0.0067487181,-0.0074480037,-0.0031041661,-0.016936695,0.0085380139,0.0051178247,0.0091981017,-0.0006399631,-0.0019781127,-0.0014007455,-0.0061327438,-0.0052027195,-0.0096738216,-0.0001905472,-0.0045679109,0.0008157844,-0.0027188442,0.1820754227,0.0063542242,0.0048583325,-0.0049517617,-0.002025103,-0.0017860297,0.0014441077,-0.0003161638,-0.0042517962,-0.0051324694,-0.0033728852,-0.0036847728,-0.0019802159,-0.0006924409,0.0057773208,0.0038044128,0.0015233965,0.0021318053,0.0029179264,0.0010472666,-0.0054821142,0.0013964959,0.0069074681,0.000506312,0.0022734343,-0.0000553129,0.0018664141,0.0021040772,0.002054242,-0.0010780233,0.001623874,0.0018529653,0.0475803119,-0.0030686569,0.00601005,-0.0007617083,0.0078855327,-0.0009001538,-0.0007007325,-0.0045608154,-0.0062357278,0.0048126278,0.0039289969,-0.0051705058,0.0082721402,0.0021273406,-0.0022694326,-0.0002599446,0.0046218868,-0.0049322489,0.0001062894,-0.0040959443,-0.0033904963,0.0027411082,0.0008681594,-0.0003272932,-0.0034673075,-0.0049983549,0.0048716425,0.0061255678,-0.0004267052,-0.0031227704,-0.0051114535,0.0007921952,0.0160157088,-0.0024109039,-0.0014561808,0.0038477579,-0.001105654,-0.0044055458,-0.0035420116,0.0013680905,0.0012443844,-0.0031324821,-0.0068896972,0.0020822622,-0.0050070037,-0.0006847831,-0.0035476168,0.002434743,-0.0017111048,-0.0015588333,0.0027352369,0.0104189152,0.0024387848,0.0030349226,-0.0015628688,-0.0003650074,0.0081847027,-0.0040520307,0.0073361233,-0.0026996534,-0.0037651165,-0.0065233521,0.0061418705,-0.0067125054,0.0048376819,0.0028547582,-0.0041992047,0.0023032887,-0.0032515059,0.0036745524,0.0001483538,-0.0022025504,-0.0032523128,-0.0047438309,-0.0046766364,0.0026899582,0.0002929452,-0.0021744778,-0.0052043024,-0.0016575504,0.0004236525,0.0012881559,-0.0030141628,0.0009775721,-0.0052214246,0.0055551254,-0.0024269484,0.0021905051,-0.0019719968,0.0024691664,0.0019539367,-0.00402359,-0.0021843802,0.0021730806,0.0038714444,0.0049822711,0.0085137951,-0.0035479939,-0.0000475706,0.0021186229,0.0115741101,-0.0035437149,-0.0041026456,0.0032104264,0.002365912,0.0083361654,0.002489403,-0.0127413928,0.0022762498,0.0030875577,-0.0000920003,0.0167386607,0.0113817082,0.0009198419,-0.0026977287,0.0011597502,0.0056776171,-0.0006656847,-0.0025408682,0.0096353978,-0.0046200247,-0.0083912266,-0.000497147,-0.0136647984,0.0062324595,0.0014237759,-0.0082401959,-0.0085732439,0.2340608471,0.0010028318,0.000779487,0.0024871569,-0.0079861281,0.0007311912,0.008980434,-0.0055033757,0.0003843978,0.0082961166,-0.0009391506,0.0050398506,0.0044013296,-0.0034179328,-0.0019867717,-0.0034179144,-0.0041698505,0.0088746442,-0.0040746945,-0.0067770419,-0.0016863799,-0.0078416448,0.0042810622,0.01099939,0.0054242287,0.003967969,0.0056184329,0.0032354121,-0.0125104055,-0.0134705356,-0.0056067726,0.0034164172,0.0732943057,-0.0048920953,-0.0062717998,-0.0045848993,0.0050030581,-0.0098345467,-0.0006727231,-0.0084968308,0.0085049894,-0.008100052,-0.0008700335,-0.0004394251,-0.0072807478,0.0063981842,-0.0009388551,0.0005552412,0.0015066724,-0.0086315974,0.0065568083,0.0060295768,-0.0045782113,-0.007329524,-0.0004975758,0.0014114729,-0.003732558,0.0058074152,-0.00156643,0.0023541096,-0.0106302206,0.0029466225,0.0009878122,-0.0002044928,0.1336566402,-0.0061972284,0.0002560019,-0.0041113026,0.008352801,0.0008066934,-0.0013070076,-0.0024633925,-0.0046328955,0.0074438252,0.0009261469,0.005871962,0.0087554237,0.0012651313,0.0000906694,-0.0032163258,0.0051909544,-0.0029393459,0.0019639965,-0.004680884,-0.0044640952,0.0055035804,-0.0070605038,-0.0025438579,0.0070335485,0.0010167571,0.004496707,-0.0029533555,0.0087149875,-0.002216757,-0.0013309403,-0.001085882,0.0107412427,-0.0028825381,-0.0036910377,0.0059618501,0.0005833212,0.0031353309,0.0023719547,-0.00089124,0.0043740713,0.0054113959,-0.0023303829,0.0068744081,0.0064906122,-0.0036293459,0.0081978523,-0.0047521125,-0.0031163373,-0.0026803565,0.0038930062,0.0015475858,-0.0048065409,-0.0033760973,-0.0069204933,-0.0065446472,0.0002949668,0.0059092217,-0.0008881535,-0.0029636717,0.0098311477,-0.006691785,0.0064022126,0.0008511864,0.0765908924,0.0018957986,-0.0048384149,-0.0125111418,0.0020970806,0.0199729271,0.0000865915,0.0118321585,0.0024052096,-0.0018399267,0.0030096694,0.0029919271,-0.0028179859,-0.0030598149,0.004068631,-0.0069112567,0.0210132418,-0.0020456888,-0.0033177006,0.0020618863,0.0095421826,-0.0025605275,-0.0018897028,-0.0010475594,0.0060464074,-0.0026291532,0.0026202775,-0.0001750163,-0.0018298466,-0.0031060104,0.0072212344,0.0035194034,0.1499454885,0.0015764238,0.0195505786,-0.0077761559,0.000203424,-0.0007899123,-0.0039813814,-0.0009104473,-0.0014969547,0.0085525698,-0.0005559117,0.0092673835,-0.0015810258,-0.0044204306,-0.0043865212,0.0110264428,-0.0144891815,-0.0030813676,0.0000299022,0.0016081095,-0.0000059088,0.0076807646,0.0039830998,-0.0016881892,-0.005124377,-0.0100638704,-0.006986478,-0.0120123371,0.0053561131,0.0043529337,0.0007026715,0.0002568498,0.1531237833,14474.8619787356,3149.7116507725,9.6282728193,0.8603416077,914.6145707812,8720.051910756,-20516.3748471675,-12875.2987069147,0.7972643397,1826.8585730809,-0.7089411893,-1372.4776972824,-1.8763389685,0.3282615311,0.8678975616,-0.351227958,-6252.6434254088,0.9669308825,0.4951566781,0.749008109,-19201.2680528115,5749.1731221127,-3.6638934745,3601.4717232341,-0.6445111521,-0.0546521725,-5709.0934534546,5229.552314078,0.7676233923,194.8629517582,0.0233155023,-0.50623123,-0.0345283797,-29120.0498493224,0.5755384166,-13710.8029112176,2141.2102531569,4765.6303811682,0.5388001999,1404.3909516176,-12700.4718554382,4550.268806944,0.5760156447,-0.7049777858,6677.280315278,2144.9898226838,-19087.9215502311,-4007.5671224891,0.3143700402,39.7684023053,1.3281705607,5504.1762790064,-4606.990908826,-1292.5558277977,950.5866993721,-12581.4991110379,15047.3977621278,-0.6971346247,11921.8638422597,4018.5357027581,61.022944738,3496.1478073566,0.7934149999,5361.6036446664,-8854.2935647802,606.0127482998,2.2017004382,-8904.147858372,-1996.4567880528,-7751.7036068167,-5232.2699191835,2758.6341145607,-3037.6132677467,-4160.1213672427,-10075.8863544882,-9537.3587239331,-564.0260230832,-659.4557395413,1032.8970672104,-0.6021928999,0.1414588046,-25.7140862444,-3693.7033044006,1.1426289761,-2322.0978105052,2386.1386406274,0.4084588145,0.6820769788,-0.3761504159,-1411.24534747,4189.6178208109,-1.1483720262,-0.321648684,-25531.3599216323,-54.6146474538,12420.7680481383,-0.6615951578,-0.0483429942,-2.2847278598,36.2201394826,4189.9204007367,0.0546423461,-104.223107113,0.1575111412,-0.8174472467,0.727212175,0.4268134247,-2.7918917672,2095.6317844697,-3472.9323818867,3308.8282495338,2528.3752427403,0.8522484293,6.0244344497,2585.4853700264,507.2726059254,0.0462438701,-1509.8200264659,-1.7202203481,2389.7452298216,-0.0361041853,22.8484440849,-0.896018162,-11168.0814532817,2.2671781963,0.8103900651,-0.8527216072,2003.1212498124,-3098.4317813336,-25090.5437895606,3991.3700171688,-0.7784241929,0.3303069202,80.8353367256,680.6886674675,8242.7993627322,7236.6972370056,-5338.7436530872,1358.1338112809,1106.1493043382,-4032.0754847037,9098.8504554167,-1242.3988696685,-4280.9426299843,-5482.5398156575,5143.548576522,6421.2814408676,-16508.4982824737,2907.984739732,561.1438531485,-4703.1906237731,18.5765530093,-680.6112723898,18377.0581315258,-1058.5304588006,-6556.6423902847,-2440.3245732435,405.3290374521,1052.4183113804,-10985.8819569261,-7074.1801369107,-3701.5146584114,1030.9114653693,3669.2370425618,-1628.7466224744,0.5970333644,3.6213522779,0.8245850498,0.1942089883,-0.6708681556,4.3378653031,-2128.7521374617,-345.4800686119,4878.2242598813,0.3495670996,1.2608120598,3307.6489619918,-0.5984863211,2581.860947979,0.0415216361,36.6810741753,-4465.0750023518,-345.313930576,-0.2355642546,9731.0897956385,-21421.0305760427,-10.0433662551,307.4849546839,0.2694110289,1657.0330400902,190.2695371858,562.1555064496,-25326.5138884554,-51.0087680925,638.3192251475,6745.2792285926,-3553.3623617356,-0.0461943038,-0.3515946163,8167.1239767815,9566.6924797595,-0.6927188893,1147.410550575,2049.4739517529,-84.3709891064,-0.3392139129,-11137.7029319232,-976.8384246626,-1.573095182,-0.0072654174,-1279.4704295969,2.5351103077,-117.4056967186,0.8438615692,0.0532109228,-9017.2690531973,-7710.6123693852,2430.1514989251,-1250.1821569696,20.482528947,9257.6929391881,7053.6341649716,-11955.4756053897,-422.133853328,-310.1654455329,-12849.1381952646,-50.8882668062,-4423.0472755793,-13802.5937336362,-8658.6076851373,-2056.6256230135,-6081.3188152146,-0.5350201304,-0.3204969619,5599.8372228346,5095.3444996578,633.560526303,4949.1904761451,1.3485317404,-2760.800475899,-10558.8001628261,-7707.6888344767,-1617.6264717712,-1688.9130889651,15765.1864160915,-9636.1664389762,466.8078475702,-2517.5637824659,0.1628878108,-2087.8293891055,8451.1442467564,-0.2478877776,-4054.2124206849,0.1970870669,0.5648097277,147.4564920547,0.3888550121,-11107.2084859642,-54.4933632783,-0.0584737565,-0.3287994266,0.2208234418,-4185.0311112745,-0.1776998366,0.1403641384,2227.3028846709,-4579.2822169343,0.4829657766,949.3672101463,-0.8457221167,-0.6716948953,0.1995456428,3778.7812900023,-70.4166195241,-0.0386618206,1.0264857692,1.0627249552,0.3245534979,0.1880700722,22851.5606933045,0.8127799401,3984.6442801885,-532.2363469941,-2217.2361506365,-0.6887958308,32639.3755426957,1.4779995007,-0.1637589882,1.1614979036,-1.6445448199,0.1379753787,3470.7504326833,0.4257093408,-84.9756631838,0.8064425078,-53.1246007694,-0.3135118011,-7222.160039358,2521.0677021838,56.9163557368,-323.8445726689,-9455.358520067,15431.7758012789,-1666.7528570113,-4775.7051172013,-4436.5061913854,4980.3731458057,9376.0876723512,208.6241988191,-17887.8187322225,-26.1419729608,-7743.0741099001,-5933.6986551149,1275.3346614529,-682.0480082608,73.4661265865,-1371.3752381212,2336.9249971585,3063.870346197,-5409.0324683228,-6963.610280526,0.7561534062,-6315.4154093855,238.91367262,109.4990804652,-6578.7512997389,-8382.5827737927,5512.1944766105,-6345.8967153375,2883.3726222031,-1997.8269498263,27632.4798670327,-15753.8411585815,-1.314413634,-195.6015415375,0.7625653844,5475.4264674058,32.2968187376,0.6775910515,-3228.0269214017,-17238.4617127751,0.4931690742,0.7234580809,-0.6358954366,-0.9169001372,33.1000697155,5476.9879524779,-612.5341736224,0.347299946,843.0289115964,-0.1315450593,-0.6745004115,-2413.5325173515,-0.1061873803,-2658.8619522675,24864.1129041352,22.7713373613,-18.3155204117,0.4630381371,3199.711804613,1.683496109,-0.5714257596,-0.2685921637,4968.6607351582,2756.4062301364,2.7586484661,52.9180721827,-0.3087457172,0.9947438089,0.4278663301,-1890.2957231143,20.9837931169,-21643.764193009,691.9554707372,-6255.2472753881,-2907.7041584618,4871.7103570743,1250.4168886335,-0.2008461538,-1303.1082260078,6560.1960055455,-12339.4600679296,4855.7791714079,91.982952224,-3310.8790188435,-5250.4102027248,139.1405282879,2727.7184561361,507.7155648742,-1551.0192420974,-1.0790455832,11.7034431467,6974.4143799147,-2473.8921877033,2268.945593054,1555.1672296858,7771.2179775889,1204.251310424,598.7857128643,3156.2691852393,4839.9148354264,12917.5738756296,3511.2206083004,-261.1150792016,-8209.8857989377,3797.7453518232,0.7773502032,-273.0955797336,-12290.1035221653,-3369.3240994272,0.1162264453,-11.6751942343,-3049.4947967026,167.7465647953,-0.1114695377,-2598.4248909401,0.9933947056,0.4326784606,0.7408672355,0.8549827099,-0.4715724272,194.8086048933,-0.4399517022,-188.5652450814,-0.5858170444,-0.1532109532,2814.9313711346,1514.8115345406,-0.8339662978,0.8053102473,1330.3944970013,20752.0726935996,-21129.6495644135,-0.9904136605,-2659.0419129235,-0.1427695937,-8532.6004211239,-0.4585536191,0.3392405747,3356.6509753105,-0.8537365815,-2.0368135732,1151.1303375592,2285.3543382174,-0.0272035297,3406.0214472759,-16198.2054374854,2567.7159796149
   -0.03092822,0.9533695802,12191.4073277949,728.1222810922,10846.3879892881,-0.8805280077,-144.3268733619,-1.3198049798,9927.9123810114,28.7208426557,0.9203295453,2.0523941405,0.1936847963,52.774459942,7171.6076179446,-4176.6381639947,-11237.2485363858,-1713.5619753249,4545.8505210831,1648.1220033736,-1947.9460974074,4770.2401904346,4971.3370551099,-2238.9283918405,-7973.0372677973,2122.1928128269,1105.1639765414,2264.7408701235,-9283.2318764091,-8559.1234977149,4377.5436293567,-3153.6846228213,-1165.9359660582,4.8986138527,4408.0160870173,723.4307631901,868.5640302253,-2360.4002122434,-547.5538410641,1243.9212482267,-922.4979870298,-3741.5235548436,-3586.6486295712,-2697.9901442661,-235.3738083704,-5.7704595213,-85.5760417857,0.8422426273,-4483.1837842704,2211.1678712201,-2303.3710692651,-34.4354383103,0.6546318338,-0.2349228381,0.4912009405,-0.5014850879,3736.9450089691,1409.3958312902,-502.6862798003,0.6765894768,5877.1338506448,20.7777156928,-0.6095890387,-0.1952526504,5305.7307531459,15769.0681912381,2.2081036465,-1.0095544302,18.8113660458,-0.8969245337,-6995.3446398226,30.2599637513,0.2125915046,-3433.1044115218,1.6390720897,-1760.5272939166,0.6558992701,1358.3290351978,-0.7547393216,-3884.1168240651,-603.9654888982,-10.3403465666,0.7661195769,-2.9880957082,0.2530735355,-3767.2369646899,-1661.6505845704,-0.3439160999,-0.2137998172,10.1245180564,-1.14248655,-4886.0804559483,-0.8205063692,15206.1784610553,0.8769844611,503.8571761497,-500.8398234468,11021.915170522,-1272.0334691016,5045.9010524538,8398.0707194949,-884.4938227242,-2.3888557216,-15.8028500509,7012.6149680747,1597.8825350508,-3149.9698441895,4799.4014963387,-6896.1080058075,4898.1561088338,-4750.5126809341,12564.0950474864,4271.4689437733,3.9872182565,-2136.4322339627,-669.5011911251,0.2497684955,-3332.6924847564,-1898.1284968649,-235.2022690927,-3579.6853624035,-4816.1240684796,3491.1910928275,-14562.3535223067,-17.899286395,-3548.9111510339,0.4378767892,14285.5841819634,-2178.5858060186,-1.8738119821,1150.7094860506,-1.0193466518,-12351.6437783676,0.7376189377,-0.6471539735,-1.2760948414,0.7469028888,0.2711902996,1.4690187576,1038.5928554127,-55.1420390858,0.0453316269,17217.4773189759,7162.8422817691,-1.4717860743,13586.6321036034,7516.4525646312,-2311.5849755893,1219.2737989414,-1.2183146664,-4248.7460781136,-0.8897622504,-12184.096812632,-0.4822743195,-15749.5861240527,6877.1039072846,1.1014394049,-17300.6743154119,12.5087277976,-0.3720466572,-0.3637755524,-14815.0205805823,0.1610590119,8616.6503438176,-3.7622730601,1.0582188013,1.4926763717,-1.1324698137,23884.6571888436,0.1458561612,-0.4661043583,-3.5930934111,0.2471348899,0.9330845208,-0.966370905,300.7341906925,-0.8866437388,-1023.1181220305,10082.0314681705,-1963.0511151457,-4655.8145818389,4389.3897056061,-1121.7701334107,-9508.284741182,-7424.8028292768,3668.4837433434,-11507.8588469227,11.6623892151,-9674.7357639337,-0.4640825841,4579.6100312341,-3733.1522577142,-6854.7348177692,1807.5822384967,-2910.4304854936,15928.248105081,-6279.2025589238,19.0010031161,3.8891424124,5775.0660439322,5726.3573961237,5420.7244598169,2287.4955600106,1579.9426392386,3796.1275759714,-1435.2770020483,-3351.9279714488,-553.0866659813,7136.1098272566,78.5896055078,4345.9549656715,-3019.2395696101,-2.5999616209,-0.3653087251,-3606.8130319045,-1415.0270939716,-0.1043397809,3288.3858579689,0.0358632451,-13736.0555131825,-0.2006691794,4261.9420022417,-0.5225279572,0.4289007389,-0.3393966107,4.394303503,0.3550964101,0.9739882059,-2240.3733941796,1.2386329085,-0.6666896925,-0.9486678917,2422.0928830157,18644.7134030129,12187.5806205943,-5608.287258573,-1.9062524377,-0.3462273843,-13409.8874245207,6023.4331812688,-0.5729956278,-0.5086263318,0.5047963067,14020.413223967,633.5066144377,-1703.3920475841,-798.1390792624,-6614.3232334404,4459.2615119138,-1152.9923930309,-6493.9286155846,-4050.0900338165,-0.0502246226,13132.8855917183,9.1205294863,-709.7245224843,5646.4987323562,0.6345847121,-0.279290077,11242.6744671591,3338.3543431733,-1444.6866618755,3146.1096034361,-734.6903915503,-6913.8544946034,10563.5306643283,2926.2338163934,6586.038124321,2232.6495764797,-2827.0173942652,-5760.8064048609,-4313.9610891173,9413.7072869934,1312.8035954465,-85.7484836537,-210.5025337694,6388.6544044941,4502.3938142582,-8157.0204455768,-14120.0814048127,5184.4823420485,-4960.4008677962,12301.4945373438,7203.4889074503,-1833.4800945026,488.5471362035,612.4479408566,-12180.1151674308,2651.163904033,4032.7258420588,-0.8346007373,835.5702848049,0.6370037187,9.4148614942,3.8679113332,2412.5326262233,61.8702969636,-9622.2175826353,0.6212569354,0.1049097932,0.2671421095,-9703.0576061669,-0.9616097595,-516.7281025992,3040.3895139249,-0.8878175201,-761.0262995585,2.5679765275,-0.5992528192,0.0227174131,-6459.4246591215,-91.8854919062,2932.0500674597,-1.4079263351,-564.5802441206,-1.859919827,11935.7930269065,9396.3418798698,-0.7971034477,-0.6678535606,-0.2266663949,5057.6729536068,-0.2652470352,-1.2462305833,0.8512766201,-456.3957599632,14.8504879181,0.1483664438,-0.741335063,2675.5036848006,8.8960072285,-0.7403760374,-0.4731882067,-0.5245073978,-0.9388083531,-5.9318006817,-5825.3862065871,-7724.8489254098,2552.7499685183,0.2656016261,0.0449882139,3505.4183626987,4089.9759972293,-7310.8228155577,1794.7395259761,4.4912514568,-1805.6223348606,15015.832176715,-0.2363766122,-6244.9827956481,-14087.7377185408,11351.4668728189,-951.0254496021,3249.4922644606,10240.5300058136,76.6735557258,11343.3700399118,-13317.1917669531,62.228402836,-4933.660565489,13308.1355388022,1407.5987092747,-13583.5077646916,-43.9631716222,-9249.5342030036,-5980.4896238685,-8889.5998254291,2229.5347646257,15091.888957544,-1.7087016271,-5001.5304365034,3058.6415418336,-1.4166297079,-712.4790621776,-6279.284423934,11.5540830773,2.9234526623,-1.252069868,-28714.0513876045,0.2543828986,82.1277838979,-0.0407062685,-0.6858593279,-11155.5721776406,-17468.5215175794,199.8119729493,-0.20564442,-0.6650497826,-0.0253641184,917.2970171875,82.6309445314,-0.3524768135,9.7999239663,17062.8215661545,-1.3701161916,6660.0254889265,8273.675981532,0.3001314814,-12964.091176727,0.6767517715,-2578.2004682765,0.0921058719,-0.3337032479,-3432.2493088698,-0.1809324559,-4580.869560498,-0.1947032819,-7856.9733835997,-0.4746210485,-0.2847524757,21975.9791101135,-512.4609366828,-1.0180580613,-1.1130584718,1479.3917031318,19721.8597233654,221.0048863933,1162.5428133676,-0.1334891953,13239.5440863405,13823.8221726828,4088.7180405632,-3.7320788915,-0.6388252634,-1.6003202736,-5271.8013957359,-13040.1072388903,-1907.879020854,6877.1259588128,1588.4707303476,7927.2295887471,1.6286050077,-1925.0194975015,10089.4858650302,6740.1724785461,15008.3091695995,-3202.0438474378,-669.0744070138,5898.2236450619,-2195.782686822,-336.2393791405,-1115.0445488824,-10800.0005577707,-6840.8156240541,10519.7712911837,741.8236180318,7028.6078494269,1425.7209659713,6955.4159917076,3326.2907676882,3.1963234614,-4949.3209816577,-2411.3810921207,3121.4614686455,-0.2252893731,-15083.5566809947,0.4807708228,-3.1424296953,-7470.7603041138,-0.5417934064,0.7568734389,-0.8492170935,10653.8930989142,644.6257106708,-0.5697453134,-0.1932351705,82.1985394598,-0.0586400247,8.6632109452,0.4198671743,-0.8746616799,-4438.1525934974,10655.0799469619,9.6192472502,-0.0329794198,0.5602410993,-0.5020197434,0.2199919793,7187.4142030475,21.8043529646,1261.8326146884,-7556.5545932733,-1.6059788528,-0.2494410533,-1700.3036333018,14746.8775142463,0.021289205,0.754759997,0.15248658,9778.5459545103,-25358.8723449353,-3777.9240196612,-4.3927284021,-1.9760928801,5335.4584011099,-0.2271711862,-9324.2389438587,-640.5797542834,-0.7770271599,15439.9568811228,-918.2294773574,-3959.6847795482,-0.0894071962,0.7624441706,1.2184993774,3.1236637562,-20304.070426004,3577.1657485324,-5534.9582265552,2438.0514364324,-1573.2827891017,457.9419112982,3437.0858602099,3331.5514394557,-14279.2001229288,3780.891082614,8536.7504120968,4133.4292136548,-522.8662508703,-4571.6812367245,-1160.0493440032,262.531906358,6353.8776609511,2613.8859642662,1174.3948203395,-45.2731587926,-4713.059310242,5839.0055742178,-2229.8579146018,6.6072437668,129.1698805474,-4260.8828209283,-673.0284470929,-0.1428158778,4194.4075344444,1.0405754452,0.7888495206,11180.9712182353,0.9240696125,-6395.3316003018,-0.2373618161,-0.8525736949,0.8913507114,5110.3750167919,16828.1396485448,9320.6728894592,-0.112385724,-31.5407857301,1396.9582634476,-11955.7363354151,0.4552869177,-0.6263850093,-0.4307855457,-6408.4173899722,16830.0214110215,-4928.3730631437,2835.800178434,-436.7821984402,3703.4398844061,-0.0065701984,3.9967571942,6584.541513463,-6650.7298912815,-1.479563761,681.1536471286,29.7565628482,891.4731087112,4054.2188609068,-8408.2711914947,0.530352495,0.9215598805,-2061.2485354225,174.0644782933,-13068.6664526834,26.8895850794,-1496.4165777692,-11678.6550406832,0.6118880257,27.8910567389,-30215.066180498,0.9754922114,-0.1505346711,-11240.2187387465,8590.210225055,-18291.4444763256,13051.9490894768,1.3374589466,5225.0388642605,2893.073599757,-6080.5831326728,-610.1331875179,21512.5776923286,-665.4698421121,-2891.3004927698,12.2060314413,-25.6607273613,3226.0548671181,-4350.8777229401,-18297.2703520876,4482.8799250221,-872.0201082739,-15193.0918658857,-1019.0440425174,1346.2004097443,3890.2611129262,8869.1420361835,-16574.4093554576,1266.5371289518,21.8831086818,3018.2537965144,14829.2897760093,10.2398633041,14586.3425138355,-911.1787018461,4782.3341777064,2975.5311986279,2684.7581110909,-3632.4340979437,3716.3424944939,52.691139398,2524.0038293208,-19209.6620929973,-0.1163468892,-0.1262985088,4875.1625264179,0.6725170707,-0.2958884199,-23227.037187789,-0.1538785491,0.2663374266,-0.0312719154,0.3075038607,-3601.1065253434,-0.6449183815,-3773.4971332382,5.3948004239,1.0084856558,0.0337323978,-120.1015947776,3181.324782904,13834.2786847933,-10387.9359461682,3571.5114689338,-5359.6223591586,-9.2266019259,-1.3790676978,3512.2334346289,0.1856447265,28.5469667916,-5595.9217541954,6650.3438719364,-26372.9166630085,0.7667653791,1771.9915814353,-24489.2349856832,0.5970770414,-13039.4459582211,83.9999518975,1200.9908227991,-13225.6258534944,6035.0486883538,0.4379630854,0.4112995445,-2830.4959770872,2485.778220036,2982.4372743214,354.9852445683,-0.3335177252,0.4074132261,-36.0592884698,-4321.5902858549,-1670.593314905,1424.8330662341,-6733.463264473,-3351.8187353256,5800.4894421704,-3383.2530579138,871.9171064662,2325.339114986,950.866529941,-4729.3684282675,2627.3119387449,-14222.5810596024,-5089.6475545466,-3736.2761161323,-2985.5651310718,-4024.7507066844,0.2527156841,2887.5414526996,2280.2635036587,9225.6080986077,-1800.3622816461,-4403.2544606265,40.1607126571,-1440.857025146,6992.8593683919,-2289.8952187567,-3061.3233393592,7256.0031536876,-18378.2099508793,-19521.6034004925,-59.0340968757,0.2560098338,0.458071915,-525.1869061288,0.7770279211,-0.9435936835,0.108233228,1417.54220284,-54.0208989408,-0.5900311643,3409.3774441649,34029.4051856434,1364.0953714805,-0.468497407,0.7301658635,-0.6810551172,-915.8929868863,1417.592530662,162.1132072508,2563.3969410357,2188.0609078142,-0.5706675805,2345.9799160617,-0.9788624321,1.0387192419,7833.011704279,1615.9544131902,0.5352943402,-0.9086432593,-1587.4503879695,-0.4963677322,-5155.0272809787,18.1361746648,0.013388097,-20717.8323333299,0.6075741945,0.2784987954,0.0325550485,-20788.0219277536,-14.9610900933,-4146.889743727,-3515.5774910541,0.234448331,5014.2767968003,3266.1350471184,-0.0715210774,0.6989091502,-269.4960512735,0.5281654421,0.4168228935,2171.4905496617,-1452.754755038,-8281.5525139423,-6188.6343679628,-8776.3659401682,6934.4360711364,-1036.2918227531,-6858.8016448699,8434.1798934769,142.2535391055,-3421.2507634331,-4170.6891635042,622.995953261,7940.7042926608,13487.0287260883,-3156.4266023459,4789.5748499586,-774.3603518075,-201.7123228685,1431.263110939,-6179.7600413187,-1188.200463642,4661.5135634158,-3216.2494410698,-8953.2402518354,-7052.2033528252,-2743.4365850809,1637.2691940317,-3442.9411301158,-5324.8034330813,8244.4758633325,-2624.6599777578,0.6796720459,-0.0144962285,-4909.4589248393,1310.6333075904,14287.0274719276,-4.3152124035,7.5635662182,0.6008301693,0.871203675,0.6782945043,-4734.7699488413,0.1624086345,-1653.1775669032,0.1933049384,0.1937717882,-7806.3065239874,2067.7655787159,0.6616463447,4248.5531748373,0.3404413932,3161.1802080825,20170.5124758969,-10.1209924922,2580.1162346413,-3875.0336710487,850.508169089,1543.4526378657,25021.5235829295,20.8832227029,-0.1585046843,1.2129652669,-1272.5472814959,4365.9686092123,-0.8628722546,-3341.2166483084,-1340.5871963629,-0.3315014089,-0.5520136413,4444.9570702642,-0.1566223558,-382.4473330864,0.7554454512,-0.2037508496,0.0302434043,0.8422856996,-241.3495322254,-1440.1911136776,4395.3790281697,-4344.6056979373,1.0393754553,-4812.5329137163,-5934.3639276238,6602.3185240015,-19980.6067133194,3226.2081135931,2795.6741824652,3741.7018968162,-7136.9770007968,5526.4847227199,-266.9879903743,3052.9093243952,14.8857047749,-1072.8474566783,-4917.5438473511,1004.9523191324,1475.3425741481,11257.2684861896,6166.6182657145,-15.1125900319,2576.7667699973,2703.2753494729,-6505.3201906893,7166.2650453227,7934.2504355868,0.715082266,1363.9672483466,-10123.4657145655,1266.4512885079,-3258.4694682502,6466.2628244036,-10019.9745008419,2536.3450837496,-0.3586689872,-2.616529212,0.9374001822,-0.7701894188,0.1634066201,-4.4764061965,-10.3039332986,24494.0025171421,2691.9106330866,-0.9102569607,0.5927678762,5396.9163174861,5827.3408335423,0.0884051344,0.2021675252,-1949.5994133496,-2323.9915717022,24494.3463330443,0.2216218456,-60.5822073638,-26210.4461010903,-0.8000905067,0.1125286936,-14625.5486702117,-0.6422648862,235.5540336669,580.847686789,0.4184670571,-1073.5278319493,-0.6075421597,0.6621767352,0.675267382,-7989.6220320426,-0.486679817,4149.417674248,6.1704135591,15347.7853205238,0.981745832,20580.0476890478,-0.5896358343,4191.1629870401,-13650.5158425539,-3330.6044508133,11.1097461961,556.6731400362,-159.1904557653,44.341664564,0.1547404842,0.1271237838,-0.800626932,3436.7894712874,13543.7875712086,9698.5223325526,-9011.4640989146,-283.2200155772,5790.7318678066,-3.1206014697,-5095.6984300759,2530.4137674845,-9317.932203011,5523.8929347442,-6461.4932751091,-3520.6792397453,3170.1788802436,11294.1898881075,672.9084427145,5006.097112329,2130.8717892726,3239.7377591188,-12878.0820337857,-11236.3228766444,5668.9073628713,-8148.1624316878,9077.1627734497,0.908236838,2340.7925488212,5674.8200994482,-4973.5845758822,6815.4650127419,4.4020239528,3097.3284692353,3450.0700918502,11490.7103252774,2374.0074628799,13649.9312542688,5548.5089109987,1693.8857071553,-8109.3781535585,-0.5349400003,0.581029671,-2712.5090453023,-0.81002143,-3173.2482359748,-367.1028126955,0.0114124016,-0.9082960348,0.6075029491,0.6299717398,2935.163762988,0.3510029269,-13380.0724326716,4617.5297530162,-336.0825610031,0.3697403382,-0.4258530192,-8181.7720294757,-21248.9363108039,-19655.4036955166,-4771.4926307677,-0.5651247429,-0.790062478,-294.3222510252,-14.9381965761,-18152.1694525997,0.9978254486,-0.8393358052,8344.3554809869,10455.4967658887,14345.0658266215,-0.1818282739,-31379.4834090149,0.1135905886,-0.9290167814,31270.20768281,5.9603202822,-0.1946548979,0.8444630261,5769.2147243381,26377.3722384349,-9667.9342704927,-1888.2397909387,-0.0811161725,2014.0395937401,-4789.4799479207,11977.5454514731,1392.0874174164,-0.0512171627,2903.0948744562,-9005.6110077668,3683.6650713175,-10218.8631062179,-3330.628273591,-3123.5980916914,7.6765120896,90.519090135,-4616.4076928487,9050.9884919589,-4200.3814480127,5448.2707776651,5981.4356473961,9994.5312600729,350.1983115877,-1998.1058463668,-2418.664171051,-4686.4430589764,-10436.3118457121,18014.7376573246,351.6877976051,-7922.8376277811,4212.4154962755,2811.6892982859,5846.4004309959,-13637.8520807509,22.510442118,174.0660919619,2119.1612805604,747.9802411717,3110.0392745239,0.2234564997,-576.2316451412,0.9917428661,-8832.3789329056,-12315.85214316,-0.9552302142,0.2607837929,5989.8564049973,2815.3648986316,-859.418791905,-0.2961604525,2594.9461788203,2898.9990379947,-8832.4702670339,-0.9091014043,1568.2737618789,5235.3093391046,5275.1506773492,945.6282170277,-2793.592607087,-4097.4660234262,10716.3140003817,-5055.2056052746,-1.0802539019,-1268.993426017,-5878.1996678688,-0.7847672497,-19048.9340787156,-14.3776976186,0.5359047959,5160.2692055782,289.4925319489,-1.2389453721,1.0718039298,-11347.130518708,-0.2252663738,0.8581164466,2537.0476597196,-0.2070386371,0.0824135792,1946.6860976116,6421.9266817562,29289.7671211078,2.2236358984,-26489.7521140131,3.0689392277,1849.8529466087,-8389.4468868485,-8992.540849064,4550.6294752473,-13659.4138230809,8165.2856001163,649.750696301,-1.0026382396,-4056.4357419398,-13051.0084727428,-674.0028596505,-6206.1418441271,2148.3092693021,1626.5674500741,-16376.391622587,5198.5495807497,5125.7042996356,13921.2641629164,-7.8493417064,-44.6004096465,-1023.568506005,-9570.4561748912,2402.9782400963,-4553.8331095284,-612.591738397,-4311.4472465983,-911.3063363991,16020.5502617964,-3627.9516720831,-171.3250507114,4228.8986136887,15478.3879963182,0.2929951859,5782.4019072036,-1.4270368839,0.6907871711,7952.8216110032,80.0224163927,0.6466218326,112.2075953857,-0.5918775611,-0.8319647367,-559.769164629,7390.6211763007,-0.6213551273,1.0687477574,-0.3019456538,-41.9442359586,0.1963771837,112.2026940546,4152.9667226306,-7035.4962813025,0.013927349,14526.8035846538,-586.8153235136,0.6035223446,-0.8850679534,-360.4958090487,-16.4288018876,-21.1577378278,-0.7299032228,-809.196991413,-1.1919264033,-2.1257284468,0.9479091848,-0.0804038609,-2114.7658361976,-0.5435427835,-10579.2491968062,-0.8712693832,21.9291935067,1.4531228983,0.264295587,1.0778205828,-3694.4565069808,-0.8568764608,4366.7293207932,-1092.7849181583,3620.9273386991,-0.5660559742,0.4258652548,1.1291991609,15180.9117742345,-50.9036198904,-7197.9371701815,2100.8349030923,3778.5350327925,8526.0414695697,506.9691909809,11114.9449299156,4439.290561303,4157.9776341421,19143.6126312539,1951.2171482125,546.6204953408,3243.0152731196,-3517.2953781085,2208.7426780012,-16489.1301148407,-125.8913172158,-747.9705346988,-2297.9130324885,-65.5053573029,1982.4082565854,5915.7343365827,-3007.8709403622,5727.2570444937,310.8614236305,13907.7918464414,-5729.3916792622,-4920.7966183339,-4617.8541824403,568.9136256318,15659.3769002984,0.1474721825,4207.4555883344,-252.0358546994,-0.306387761,-0.2665410358,-1.7730676126,-11.2712384052,970.3782879953,-92.3540493104,0.4007689671,8023.7511490991,0.6832404293,-1125.0294329535,-409.0258874449,-0.9206790096,93.6754837949,0.2195787865,970.3262361699,-3282.6693195134,-22883.4606954536,-0.4622524742,-19563.734964044,8062.0234840223,-0.3374527443,-2079.8984690473,4.2808983576,-1419.1437873296,-0.4050435895,0.0492373518,-0.4704101912,-0.1039078259,0.136731003,-8091.0661336884,0.4883102676,-4113.2307295311,-1632.106083519,-814.9085959357,-2120.493231396,0.6613017911,-16904.4063832281,28231.5631183311,0.3393539924,0.5512268769,912.3588921328,3134.2396729258,-886.8475847978,1097.4396375615,-1811.875614081,1501.9772998125,0.3987266488,-9618.5315905427,5312.7593793058,4183.3114382345,-3886.7816865294,-7807.0733248133,2838.5743435364,1772.6483796933,3779.1931295222,-8090.7051278916,-1329.6162379066,-5095.5514494666,6618.9694613108,-3776.8878788623,8463.4298279861,-1581.9364950937,-13559.5930542773,1154.6763205734,-84.2144024758,-1319.3529654585,5878.5962069403,-1494.6527075201,587.539024408,489.3756095905,-8045.9301184703,-921.7991048045,3810.872903936,-5638.5150018119,-529.1883377379,6287.8980227191,4954.497852819,-81.7146587407,1.156912758,-562.8600729672,-8704.9097433889,-0.6042961986,0.3463048609,1061.3214386396,-637.4829418463,5.4707012755,9751.4441667652,-6.3089016021,0.6412376108,0.0299627164,9.166727532,303.4838331331,-0.8433193766,0.5675877259,-3996.8087047011,-0.8030725949,9752.6647350376,-4204.8599426634,3.3944874291,-33.9167320824,-4707.9554567396,7012.7742087756,0.4418588523,-1.0155977001,-4656.3566208062,1.0744099091,364.0488305474,151.1722874864,-354.7102920774,4466.3732143477,3841.7918820166,-6189.6500934583,-0.6678162881,327.2555720667,-0.1818619674,17367.8068373532,-3.4992072636,-4193.5833735326,0.2003169746,1.4537612711,2492.5103231644,-5506.7149162402,366.5223088459,-0.0307487495,3032.9098309885,16484.1947541996,0.8512718361,7692.2547355154,0.2485193378,463.1825321177,-1201.7425369222,2811.9118925856,4571.0029802095,2069.2833931404,705.9138747898,7755.6226465854,5323.6289362897,1342.4620799934,-3911.4776013172,5835.7389256561,-3041.1732231695,-3118.4427455074,-8564.4371524804,193.4142369069,6111.9099449173,-8947.8339937108,-4988.334645485,2683.6285519447,-6652.7041646283,122.0094424744,6065.6354817873,5750.0771873774,-94.6278369514,-464.0365203757,-1121.0207738543,-3632.6138659594,5125.3823789516,3105.185570275,64.274907042,-10526.0898770534,-4167.5742256295,-7475.5622560229,-8191.8794276102,13.2714077761,-3621.7459625415,-2576.7605126018,0.4969170469,13771.486933132,0.6394534925,1.1109763117,0.0119799449,23397.2308217555,-44.3575899617,-986.7130985136,0.2278804285,0.3540491726,0.04622966,-6902.9985693675,-0.3361435169,-0.5575598352,-3.3134471481,0.6992661771,-2915.099181919,980.8909913832,546.3093509489,3175.633334551,1397.1756572543,-0.7738298536,-8.0362041516,-0.7343876587,-1712.7342099351,0.404530921,2.3423641786,7507.7322679872,0.4061436157,-1643.2997485998,-36.1530542507,-3.156372026,2.4561453517,-2.1279495545,31895.2537196054,21806.5775995354,-2494.5942983591,1.1741140197,-4472.1175726889,0.0801758362,24426.1321276186,-1563.8253838884,-0.0573651172,0.6900491835,-0.1567905428,-2545.6866926121,-3261.8145323542,4404.3268131665,-4020.6403701059,-1852.3523569054,2094.103880791,-2584.3591193526,19759.1210285216,7109.2974955304,8046.629249097,-2660.1422719368,-5974.265206371,9467.6173625733,-434.129729068,-22034.275961092,4639.8653175767,-121.1393289258,-1272.2171895698,5243.6093180826,-1.4846495864,576.5007519766,3127.5187338508,1113.2770813296,-484.5838975592,-2107.0730674935,1617.9965264989,-355.6936112891,3285.4238734133,2.7504454299,5465.7291888342,-1884.3910340409,2118.1219003755,-0.4723015999,-76.2983128215,-0.1739799348,-2.3449826412,832.3962962347,-4561.2514568701,6258.9690971452,0.3952691175,-1.0638620614,0.2298630068,-2033.9315900415,-0.6068186416,119.8909645694,1853.2009016416,-0.3927039974,0.3409779619,0.3118350489,0.1960959009,21210.8871704847,3116.051085068,-0.1378132826,-0.3890498332,-0.9800401552,-0.5541435815,-852.6009182585,-19760.9654448124,2386.0395561854,-0.0742143206,1.0575717788,-0.8242141696,-649.5176579151,0.8905637466,-0.9651163185,0.4417385662,-12362.0898729625,1.4022665591,1040.4418485717,0.4875743636,1.0982639129,-0.1834847067,19.4494760847,-16393.4400110616,-0.1535563548,0.5582389956,-24.3670574749,0.7188647107,17722.0923517396,1.5419016061,1.1138642544,0.8043373253,2938.552452441,-3815.7812500059,-22942.9605464445,19678.7727790121,-9120.3936858852,6779.679154953,-1982.5959665556,-3366.1626863892,3013.0060453463,-1839.8724292163,8501.6468442876,-9856.5046007003,-2986.3297565177,11100.6515828652,1698.211999478,13883.9818458438,-8814.3673595029,1117.9538959615,-10747.6187770323,7592.9120015213,1958.2816424139,-6912.4163890635,-7933.1375395963,-11983.613347041,4381.7878615092,1660.316249566,642.0045352908,11098.020377075,-1895.0653349111,1449.6181900187,333.7597734508,-0.1480289213,0.0509199767,8365.8389783381,-0.688985006,-3204.9409488484,-2398.7746987545,-660.2409399542,13074.2559506452,-4117.2115984973,-801.9841133129,-0.7188006026,1677.015117124,-2042.9708874898,23.5216996461,-4.7992174782,0.1797473671,13.7233614388,-1712.7548909921,-4118.3309838656,42.2404096113,39525.0206185369,-761.3921452106,-5660.6277199315,0.5171376881,-3031.4686959688,-1.6698949469,-21033.6979478154,-127.8470497012,-0.2043031339,-14.6493724162,3.8479639466,-0.9573931702,-2297.8436758571,0.499199507,-0.8398713571,-9654.5194723416,-0.5581153861,7684.7339439772,-1.273594808,0.7049220431,-20.4626219601,-0.9603765145,-591.8648531905,568.4161964618,-1.0658511925,-1235.9272368898,-0.8032087716,-8755.4695282719,1734.9158320032,-5.3311374986,0.335238746,5159.2620621755,2984.3446833759,6850.7859552421,1946.1499823365,150.6141621753,5.9926889431,4155.2226313931,6971.3388722484,9330.1420658195,-2773.3934374517,-4759.0806496986,-5045.9723421766,-9140.1952899014,6985.9606589249,-3216.2452604889,3667.6493475707,-7534.2798147862,7801.5219905084,73.5052816131,-957.553965195,6006.351424733,-28.8461411814,-12566.9099254648,1399.0235357659,2261.0651481372,-6790.466293666,-1037.6008478151,-1162.0198693603,3615.1327115371,643.0124466,3.8033207588,-4870.6003911711,0.0406334457,1.8387129775,0.1121045437,-0.4351192333,-2000.8918133648,-5738.6227022401,0.0142681266,-16.0867182231,0.1471624704,-0.5647100864,-1383.906299464,-6047.4324313868,-0.0732959174,-0.3807567233,-0.992706369,0.2001661568,-1364.6475595918,-15.3591522615,11843.905214368,0.5022199313,15745.9588521748,563.0570405864,1.2275541567,12012.3427016884,-3259.7312684148,-9451.9517811906,1.8119168759,0.6867571906,9425.2998230464,-4037.138181862,2231.9828854103,-2.9636554593,543.1809009768,0.4542048367,-482.843083168,-0.3270726714,-664.079059217,0.5980158735,0.194988766,-0.4375116011,0.1712678861,-11.8421944443,-0.1277315337,-0.7525306189,6.0994438089,1.0410598538,-821.0702035226,20927.0866985839,-3973.1209111311,0.8136525052,-4264.4916340894,616.7467322052,13737.3281323574,-12843.4330664976,10360.2825593172,-6458.7385080901,-1187.3757136984,-64.2317960266,-21356.017879669,1447.7831161526,-1221.7431193614,-3746.3100758451,9109.9651114535,179.7477967247,1862.1528914475,10380.2657265572,-2773.4295559789,-7658.2315058417,19071.7830089349,-9780.0256743958,-3635.1262480685,3694.7178163765,3994.1128404473,5505.6397783057,3415.7383949819,-4595.5188962029,-5517.314532632,-2103.4326101763,7237.6490167308,17101.1050933612,4050.3739330744,19255.930740008,-1.1443641796,2257.508877819,0.2673373803,-0.5885172028,-0.7215266511,-2537.8824732216,92.3577910468,-7196.40675441,2069.7949798029,-0.7699488892,-4045.0873176197,-24333.5913865646,1.445854613,-0.6051861376,0.2880515184,-1037.3211300693,-0.6034740316,-7197.3394649092,0.3859691113,1025.9838118111,0.6622174833,12.0094366344,-69.0310569478,0.6423469342,-2.9692448906,-25300.5467730723,-0.3020725223,1.0077104145,0.8711895005,6060.3626370043,0.5388731188,-0.7257688264,558.3083573573,-0.75079851,1263.2092623872,-401.8661423443,5165.1359247359,-0.3891147477,0.3002182244,21690.2234462032,-0.2855770222,-0.5792528755,0.341365821,-1332.3412403135,-26.4685498061,7073.0999115691,4.7644548118,-0.4694898319,-2.7647709636,0.400280277,1512.7843161794,2258.5398842641,5948.9643096599,1978.3699694811,-605.5727253162,-1380.564967889,-1826.9383620889,344.868450868,-4682.531773138,-1972.1506643229,-1834.995350998,3584.145330349,-443.6729967204,1.8194996932,-500.392831986,-2835.6558818008,-3504.98074849,236.4609964635,-5479.9492336922,-1020.8813016346,849.1433778904,767.0151106898,-21.4406026754,1980.4018313736,-4240.1599751008,3270.0424095062,83.7250307524,7284.2828532532,5846.4449467153,-3037.3172981116,4359.0122734148,-3722.1902590417,0.1255611674,-0.8359679385,-0.0810528314,19.866437757,-0.3924538818,0.1380313852,-4919.3441730295,0.2591261948,-1.0517828165,0.0001732721,0.5835898039,2078.2559316434,-2057.0635917955,15251.5840061973,-0.493574557,0.8503440229,-10945.424735589,-0.7921504308,-5770.7021240216,-1504.1879298342,0.5055567995,10306.4469364629,-1.1231534405,1.5822254935,-0.1421216539,3352.754558176,1.2839415368,17064.6611253412,-0.5665682176,-0.5981088392,-0.6473131393,-0.6171422122,-188.5891497323,0.9236380399,2499.0861951611,-0.2464621039,-387.8956502774,-2844.7777932513,0.9834771853,-1620.1918537981,-2.1290980809,-2.3258105944,0.3128665646,7580.3266655636,1067.9278341392,-4423.1812056292,7536.6540774575,-0.6892572313,-0.1920368885,0.8130652184,-4181.9695125839,3670.3718183125,-11.1212417304,6097.1471719193,-295.7327758735,-11.7764187375,-6892.2817545247,-5881.8015327905,-386.193953745,-3566.7388228627,3213.8196863772,-3630.2714702262,-2445.5259806231,-261.2859430328,2382.5947796733,-4617.3343273629,-7049.006769225,4141.9492582525,-113.3371166474,222.1091775876,-1872.1254118345,-3677.7047594866,2955.246393063,4972.6788203357,1637.0343746459,15.2741270087,-5070.4665853854,727.9433046337,2177.3109735538,-2286.9127246943,13116.8713759327,28772.4060966244,16.6536131514,-255.2436634318,0.3252930266,-0.6238493427,532.7066104994,-1.1661776805,-0.4843173417,-0.3582968861,-0.9834106626,-0.2206480105,2681.5302808151,0.5840112676,0.0551149612,0.7366655753,-0.792219853,2631.7902431719,2.1743777429,0.9794524122,-12434.7230492842,0.3661077667,1.2531662436,17.6292115576,8946.2287055775,-5932.5224973906,-4045.1877730811,1062.0254261932,-31.9058071939,-0.279646737,-2345.0798942065,0.0137103535,-2.9291524165,-6419.7160005689,0.9765793904,0.8035927882,-1337.5216767333,0.1423459816,144.661152567,-7655.5291798342,-25.5431577899,3815.938707156,20170.5913968205,1320.0865527371,-303.0746604583,0.3000769668,351.1564576842,0.3570938129,2356.0767784289,-2.0793272292,-18109.56765977,0.3128558182,-254.1334223161,0.9368752119,-1594.7748311031,-1027.5067442592,-4949.4208497282,-71.5868045165,596.2213930727,-3140.8981254887,15.6614457278,-4185.0256004846,-6988.8985830189,585.5642487546,-2093.6819740592,3022.0002374683,-13161.2097468656,-7651.1359480125,5950.4749473618,-10546.8543059736,4340.2931883123,-0.5333917503,-10287.2868485315,11515.6559754546,-19.3682083229,12003.8231449724,4265.5934330123,-14457.6306720467,-68.7878959405,1699.056789088,-6702.4277394827,10533.3954567767,2.0389972132,427.8880401662,-22554.1735835096,-981.2459509737,71.2656660766,0.7507759675,-68.3645317349,-1371.5077589913,0.2630418306,-703.2037642399,-0.0091316671,-0.3911062483,2015.0504686329,985.994827198,9794.3163112123,-3057.1885760649,0.7694839955,-0.5230762714,-1743.2063776398,-704.0284227317,0.2970627708,34132.0116574358,26132.5440330168,-0.2659866421,20320.2238387555,5.9887267061,-2855.6413475578,-13474.1546811465,-1111.1725364577,982.6050048918,-0.6814513778,592.5116886827,228.7815732328,-0.042991799,1120.0974848022,0.0842980538,-61.795597952,-49.2302429725,0.2129548354,2.6419870745,-0.0239568727,0.065132886,-0.4702836475,-13778.4405061973,-0.4309106136,0.5031501785,2632.8285118527,75.7285261681,19499.73614838,0.8799202828,1.1039905312,5.6025097242,-421.6709964794,-12181.5895456906,7349.216409603,1922.0523581516,22147.091747722,828.7882074457,-8858.0948115774,6843.121398712,-0.5269476478,5230.7162080619,-3221.5749778,-8.7982008119,-9814.3307000961,6447.5984589929,-7293.1306129572,4499.2465817921,-12213.132989438,5438.5439396344,-877.7310765215,-5562.3891651703,-4250.7113824603,8453.6651006352,13742.3613883641,7341.1324528286,1559.2810436826,668.8820278867,-7024.024856319,-1955.5976906096,1379.810880165,73.4931195509,7946.6555797099,-2294.4348100492,127.3842254612,900.1401355237,657.1162177365,-13100.9586661522,-0.7790544948,-0.8642175372,-0.7386194811,1.184512194,-6.6357631933,-0.8265881848,32.4963420443,-6321.7381974346,-429.5848408236,-0.6941825234,0.5428234306,-0.8297445106,2223.6342274342,0.643417862,-23404.1022745993,111.464516092,-1.9094347509,-3159.9206502201,7191.7885178059,0.6170559046,6531.7338857242,533.2033625834,-975.2259369027,-0.524810897,-0.0279647586,0.1227048982,2446.0621551025,-0.7790687242,2744.7970039551,-0.3272163117,1749.4367332506
   -1010.0826722477,-1.8897925122,0.3333182396,-15979.0981338923,-0.2682728588,743.9471954374,10971.7994903446,3300.7804577473,0.6486320187,-0.7612925003,-0.659330115,-1587.0601799673,-0.4041182418,4.0591729853,0.0652515349,7280.1596626757,3446.3374356918,1515.6078840316,3671.7214109467,3932.9736777434,11765.0169222271,-4403.6211245238,12129.5143468218,-4839.0878733054,1978.8900794806,-1992.4406799367,1489.2557667727,-3953.9403251805,4288.8553561712,-1243.9827168508,-4193.9993035994,-4117.2193124858,-2204.9986885433,-4905.4513187603,4201.2383852042,-810.5281547686,-13660.1393590255,4692.4328519866,6164.3625638097,1305.706147767,-2603.6621908739,0.0552634837,-6215.2756281068,3737.7754777032,-8376.5964856345,-6022.7972354101
##end
biasActivation=0,1,1
[BASIC:ACTIVATION]
"org.encog.engine.network.activation.ActivationLinear"
"org.encog.engine.network.activation.ActivationLOG"
"org.encog.engine.network.activation.ActivationLOG"
