encog,BasicNetwork,java,3.3.0,1,1425322045428
[BASIC]
[BASIC:PARAMS]
[BASIC:NETWORK]
beginTraining=0
connectionLimit=0
contextTargetOffset=0,132,0
contextTargetSize=0,30,0
endTraining=2
hasContext=t
inputCount=50
layerCounts=50,31,81
layerFeedCounts=50,30,50
layerContextCount=0,0,30
layerIndex=0,50,81
output=-0.0863154555,-0.2575004784,0.1028715577,0.2698787917,0.1681477163,-0.4883063533,0.480816659,0.0916981654,0.0092912064,0.2803689802,0.0000989185,0.1992950278,0.2651794238,0.3856244624,0.2064577585,0.0000297791,0.0578119374,-0.425291804,-0.031120457,0.3766966071,-0.2578635124,0.2155590334,0.0789039745,-0.0079801506,0.5255453443,0.1000065073,0.1262959589,-0.0102760351,0.3440437113,0.6103202623,-0.3792445938,0.3343549686,0.2475526234,0.1379732598,-0.0000802794,0.1181161124,0.2055085093,0.0835662464,-0.2634432124,-0.0133376486,0.3202207211,-0.0669776827,-0.0404447141,-0.2858628999,0.0255385737,0.2222172807,0.4141535159,0.1840470159,0.3501473038,-0.503463805,-9.3705024879,-9.3411134816,9.8079631298,8.3104024548,-9.5768930512,-10.171783339,9.2378577764,-7.9243697373,-9.6955691419,-9.8195289364,-9.2635200102,-10.4746718408,-8.5082017503,-9.3335138209,9.0087339666,-9.9382970901,9.2444124634,-9.2107021343,-9.7640384462,9.7589774675,6.6479196479,9.9178685606,7.1234290426,8.9362094157,-9.2541349314,-8.2466774733,-9.9023802346,9.3052701847,8.1594412533,-9.1765353206,1,0,0,1,0,0,0,0,0,0,0,0,0,0,0,0,0,0,0,0,0,0,0,0,0,1,0,0,1,0,0,0,0,0,1,0,0,0,0,0,0,0,0,0,0,0,0,0,0,0,1,1,-0.0863154555,-0.2575004784,0.1028715577,0.2698787917,0.1681477163,-0.4883063533,0.480816659,0.0916981654,0.0092912064,0.2803689802,0.0000989185,0.1992950278,0.2651794238,0.3856244624,0.2064577585,0.0000297791,0.0578119374,-0.425291804,-0.031120457,0.3766966071,-0.2578635124,0.2155590334,0.0789039745,-0.0079801506,0.5255453443,0.1000065073,0.1262959589,-0.0102760351,0.3440437113,0.6103202623
outputCount=50
weightIndex=0,1550,3980
weights=##0
##double#3980
   0.009291032,-0.0012424668,0.0038024554,-0.0086318821,0.000425363,0.0004373923,0.0031392572,-0.0042020481,0.0023873855,-0.0012525228,0.000669524,-0.0004652997,0.0044126261,0.0035093216,-0.0000221781,-0.001669398,0.0026918829,0.003093571,0.0060050921,0.0009510116,0.0026236567,-0.0009774829,0.0030251625,-0.0030068664,0.0021246786,0.0000267193,-0.0016840043,-0.0001545273,0.0033417134,0.0011477631,0.074333083,-0.00641233,0.0072675991,-0.0043633143,-0.001880753,-0.0042217929,0.009785773,0.0015812738,0.0041951725,-0.0054325406,0.0049098175,-0.002208577,-0.0055882848,0.0020447694,0.0109833496,-0.0034182392,0.0013696529,0.0017286606,0.005477948,0.0021286544,-0.0000942391,0.006709499,0.0015914924,-0.0014841441,0.0021252615,0.0033114177,-0.0045169499,-0.0031825053,-0.0110036431,-0.0078063475,-0.0006081978,0.0770888345,0.0048031712,0.0039730357,0.0028983878,-0.0079213915,-0.0022817566,0.0069019073,0.0164730749,-0.0083328041,0.0032743199,-0.0043077949,0.0019585575,-0.0028262777,-0.0009275972,0.003412706,-0.0092151262,-0.0083270749,-0.0074474414,-0.002847369,-0.0033991075,-0.0043584915,-0.0034453589,-0.0082298715,0.0042598201,-0.0028123807,0.0141220487,-0.0073780428,0.0049274657,0.0010456735,-0.0008332224,-0.0090520714,0.2386635223,-0.0005414328,-0.0057211419,0.0037729269,0.0116479046,-0.0012351236,0.0023051863,0.0038114037,0.0048495536,-0.0036834185,-0.0042887023,0.0089429017,-0.0029663132,0.002607722,0.0014468249,-0.0003388471,0.0088981544,0.0055503093,0.0020782662,-0.0054532939,-0.0022303812,0.0033137624,0.0012934827,-0.002955735,0.0025709136,-0.0054945977,0.002110309,-0.0053801146,-0.0005290861,0.004168671,0.0049432188,0.0226471758,-0.0034000962,0.0041158899,-0.0011882711,0.0027799304,-0.0009183847,-0.0021391671,0.0025013657,0.0029257845,-0.0003412671,0.0145464733,-0.010184776,-0.0015761603,-0.0014874861,-0.005567431,0.0009111029,-0.0061958485,0.0003805446,0.0163201522,0.0006360229,0.0037380881,-0.0001752549,0.00021085,0.0027667578,-0.0012914973,0.0024676839,-0.0050212578,-0.004232397,-0.0092120058,0.0007389608,-0.0061174813,0.0975888696,0.0186099728,0.0009730944,-0.0016657511,0.0043105444,-0.0028128888,0.0043823797,-0.0063892758,0.0118586115,0.0048619556,0.0009125959,-0.0016793186,0.005552572,-0.0017335157,0.0008264158,0.0115378651,0.0048912604,-0.0005602521,-0.0018484365,0.0008438219,-0.0013433929,-0.0040554777,-0.0067652938,-0.0018334133,-0.0129626349,-0.006051948,0.0028796488,0.0063806849,-0.001293309,-0.0018172526,0.0046640878,0.2157021077,0.0032813251,-0.0107049482,0.0016317297,0.0084433723,0.0004574593,0.0047841217,0.0061807614,-0.0004326096,-0.0021141946,-0.0037951079,0.0037419015,-0.0048547698,-0.0055816489,-0.007925091,0.0029496824,-0.0093433263,-0.0014417289,0.0034113272,-0.0103173979,-0.006767758,0.0047621467,-0.002128792,-0.0050945522,0.0027774966,0.0058669133,0.0051112268,0.0005796528,0.0026612101,0.003250025,0.0020281462,0.0835676863,0.0031588554,0.0047374846,0.0010434638,-0.0010093398,-0.006371871,-0.0129348774,-0.0058707781,-0.003155861,-0.0081220093,-0.0040393397,-0.0013413631,0.0003127562,-0.0003173331,0.0013962512,0.0133560887,0.0020247354,-0.0110159299,0.008996747,-0.0049916553,0.0022869554,0.0027360849,-0.0034330869,0.0003927162,-0.0100024205,-0.0004728022,0.0053969681,-0.0025644441,0.0000174853,-0.0010552832,0.0005365648,0.0271085748,-0.0054915237,-0.0000878072,-0.0112423693,-0.0020228045,0.0035564611,-0.0005065531,-0.0078127634,-0.0028207088,0.00375504,-0.0036779436,-0.0018978657,-0.0090095902,0.0045369183,-0.0068113667,0.0029060461,-0.0028089401,-0.0056158829,0.0066180079,0.0038834424,-0.0015209771,0.0006097668,0.0014483026,0.0009059883,-0.0035610152,-0.0049894397,0.0042083464,-0.0070068875,0.0054004759,-0.0080901628,-0.0007472235,0.072717424,-0.0004660141,0.0014456736,-0.0015999671,0.01326579,0.0070697549,-0.0041815724,-0.0073069168,0.0052918089,-0.0001441389,-0.0009747588,0.002415559,-0.003185587,0.0128670251,-0.0072930524,-0.0031097191,0.0027668126,0.0073776807,-0.0033268383,0.0012002794,0.0064705067,0.0037346472,-0.0019536472,0.0027368775,-0.0020007646,-0.0039704507,-0.0107961229,0.0091333723,0.0070125329,0.0029015779,0.0032192964,0.1524594046,0.0000031629,-0.0000000843,0.0000005774,0.0000023796,-0.0000006154,-0.0000004067,0.0000004396,-0.0000016117,-0.0000005137,-0.0000005596,-0.0000012238,0.0000017515,-0.0000001797,-0.000000016,-0.0000013721,-0.0000003248,0.0000006181,0.0000005457,-0.0000001583,0.0000001104,-0.0000010744,0.0000006314,0.0000005962,0.0000016677,0.0000000155,0.0000007584,-0.0000009922,0.000001205,-0.0000003983,0.000000921,0.0000549353,-0.0106080776,0.0015850923,0.0019332528,0.0006627644,0.0039259505,0.0015107013,0.0004283083,-0.0043401813,-0.0035046603,0.0035650368,0.0000534438,0.000897795,-0.0031349554,-0.0016544523,-0.002731755,-0.0042309757,-0.005640279,-0.0042238027,-0.0059209154,-0.004007154,-0.0013079832,0.0003939094,0.0042834433,-0.0043294261,0.009698386,0.0008728831,-0.0060175073,0.0038817747,0.0057636056,0.0011065994,0.0280792095,-0.0114221792,-0.0095190525,-0.0044651371,0.0027729727,0.002436907,0.0018120542,-0.004577489,-0.0040233566,0.0135005376,-0.0092063704,-0.0062062056,0.0017464369,-0.0041833378,0.0025831072,-0.0033922795,-0.0001474731,-0.004579861,-0.0019143072,-0.0016305812,-0.0051132064,-0.005803581,0.0013667627,-0.0027645728,0.0020258118,0.00136096,-0.0023573703,-0.0086724328,0.0004670684,0.0010501181,-0.001624221,0.1258168152,-0.0037048011,-0.0023532409,-0.0032136796,0.0054658542,-0.0002824054,-0.007369206,0.0043540133,0.0061788379,-0.0018212602,-0.0040356095,-0.0009958299,0.0065988515,0.0039718988,-0.0002077742,-0.0019834886,-0.0007477805,0.004115286,0.0029654657,0.0002906871,-0.0016215256,0.006148809,-0.0014154254,0.0099175465,-0.0007430141,-0.0080407782,-0.0047130658,-0.0006647794,0.002706949,0.0026696114,0.0041660109,0.0794884948,-0.0012729339,-0.00276036,-0.0037225916,0.0009866641,-0.0024470671,0.0077069188,-0.0066577938,0.0002171775,0.0078149344,-0.0036700485,-0.0027949573,-0.005606468,0.0049134516,0.0020177051,-0.009163905,0.0033448573,-0.0188415896,-0.0043024319,-0.0015547276,0.0050967262,0.0051854276,0.0045541572,0.0073955321,0.0073560598,-0.0154584576,0.0082241661,0.0036734833,0.0025602127,-0.0047354806,0.0030812066,0.3225971279,-0.0000002241,-0.0000004877,0.0000003063,0.0000005597,0.0000013351,-0.0000005093,0.0000004509,-0.0000004755,-0.0000000101,0.0000000654,-0.0000007721,-0.000001218,-0.0000024327,-0.0000004514,-0.0000004259,-0.0000003217,0.0000003611,-0.0000006199,0.0000007293,-0.0000011129,-0.0000022632,0.0000001048,-0.0000003282,-0.0000011848,0.0000002836,-0.0000000107,-0.0000014406,0.0000000877,-0.0000010265,-0.0000002659,0.0000007609,-0.004491012,-0.0000355336,0.0048724285,-0.0100903344,-0.0024202136,-0.005101392,-0.0008698679,-0.0110270971,0.0016391556,-0.0058499168,-0.0035504599,0.0108933171,0.0041015876,0.0098940391,-0.0057209058,0.0079894978,0.0145224635,-0.003565887,-0.009425775,-0.0009537884,-0.002695192,-0.0002308447,-0.0104510502,0.0045650825,-0.0002410865,-0.0029131523,0.0012111871,-0.0041631933,-0.0132720466,0.0023708204,0.1534592428,0.0074488545,0.0004223256,0.0026243157,0.0060495033,-0.0002410732,-0.0027661852,0.0002184996,0.0057080534,0.0050279004,0.0150158576,-0.0018167005,0.0030198425,-0.0014126814,0.0051527217,0.0009664457,-0.0040145253,-0.0030004999,0.0031987368,0.007056837,-0.0018226347,0.0048475971,-0.0026705715,-0.0005327546,-0.0030384613,0.0080000831,-0.000172828,-0.0019715333,-0.0064603052,-0.0073520359,0.0037376869,0.1602638135,-0.0064335109,0.0018390608,-0.0127976968,-0.0040934626,-0.0027922399,-0.0000193289,-0.004976093,-0.0022891523,0.0008816369,-0.0060238341,0.0017238654,-0.0069198117,0.0051435917,-0.0045765141,0.0069909508,-0.0017312771,-0.0025015897,0.0061577116,0.0040954684,-0.0029355426,-0.0001455653,0.0033332963,-0.0038160969,-0.0045267434,-0.0034937553,0.0085066993,-0.0045867478,0.0081388593,-0.0046371994,-0.0023125157,0.0172521706,-0.0095142208,-0.0036112698,-0.0011851428,-0.0004018242,-0.0028940248,-0.0008490312,0.0047307324,-0.0010159917,0.0024515144,-0.0100113912,-0.0054053631,0.013897815,-0.0016943926,-0.0002847988,-0.0002271945,-0.0031274205,0.0031378133,-0.0054152537,0.0062759587,-0.0031182141,0.0021800921,-0.0001396079,-0.0000348353,0.0027946074,-0.0043066173,-0.0027430329,-0.0008051394,-0.0025010867,0.0036083088,-0.0022467198,0.033280654,-0.0008163996,0.0014581556,0.0031505705,0.0027357632,-0.0060620467,-0.002899741,-0.0100044533,0.0009258498,0.0050313674,-0.0096510886,-0.0071980163,0.0044321423,-0.0026480078,0.0008636087,0.0024813087,0.0057137223,-0.0000506081,0.0062450961,-0.0018487303,0.0001023743,-0.0012047111,-0.0081102909,0.0020645492,-0.0070906272,0.0068626607,0.0038451605,0.0058072991,-0.0031069643,-0.0012726958,0.0050674123,0.0749601416,-0.0011602724,0.0014074607,0.0037793758,0.0029109243,0.0002241583,-0.0019293769,-0.0038727645,-0.0043265615,0.0007416984,0.0055186376,0.0052391533,-0.0041616637,-0.0030503033,0.0018172303,-0.0002335461,-0.0003156798,0.0020119213,-0.0099150563,0.003431826,0.0052167472,0.0017763688,-0.0051049741,0.0039946848,0.0003576173,-0.0021027475,0.0004112367,-0.0030390779,-0.0008818414,0.0022191056,0.0015665733,0.0350424221,0.0022155538,-0.0007804817,-0.0001731084,-0.0019238984,-0.0055654123,0.0059022623,-0.001470692,0.0057539125,-0.0001674426,0.003763703,-0.0014756386,0.0055604193,0.0029870451,-0.0012671135,0.0047337744,-0.0001536389,-0.0063009959,-0.0014424288,0.0020291558,-0.0002120951,-0.0002980559,-0.0037550266,-0.0026979285,0.0081860932,-0.0029017034,-0.0035172814,-0.000612974,0.0120611475,-0.0012601863,-0.0004265304,0.1096462012,-0.0114208513,0.005893315,-0.0053669709,0.0015417575,-0.0016761502,0.003866877,-0.0131498696,-0.0070484373,0.0089058522,0.0022366621,0.0039073759,-0.0011809499,-0.004563986,-0.0026694854,0.0041651516,0.0061383294,0.0014710268,-0.009185899,0.0012878049,-0.0010073181,0.0015965833,-0.0037641758,0.0091559914,-0.0066311171,0.003666463,0.0123304261,-0.0064368285,0.0013675107,0.0073885047,0.00232079,0.1257628854,0.0019277171,0.0041222925,0.002966224,0.0051651848,-0.0028061997,-0.0023291218,0.007015329,-0.0127582121,0.0016250134,0.0026546537,0.0085059396,-0.008882621,-0.0131672537,-0.006339286,-0.004736804,-0.0141733257,-0.0145486837,-0.004397898,0.0010271373,-0.0032883907,-0.0083375831,-0.0076116832,0.0001054474,-0.0015417887,0.0004007312,-0.0019554882,0.002621726,0.0064593343,0.0019674841,0.0014988292,0.28300735,-0.0028095281,0.0031123787,-0.0005775,-0.0043950337,0.0081584299,-0.0067038281,-0.0046042583,0.0023287025,0.0017577258,-0.0034554771,0.0058773535,0.0013162299,0.0060622821,-0.0035063585,0.004042626,-0.0061158996,0.0084395755,-0.0041838236,-0.0048062387,0.005832373,-0.0013468844,0.00174259,-0.0021366101,0.0061983285,0.0042464117,-0.0013209984,0.004310901,-0.0023290876,-0.0062606674,-0.0048563124,0.019249841,0.0006009477,0.0021609426,0.0007796877,-0.0040300003,0.0060573636,-0.0024395782,0.0003668932,-0.0026238912,0.0006094886,-0.0016583278,0.0023932981,0.0008824092,0.00172529,-0.0053479755,0.0023875143,0.0004064172,0.0059208895,0.0013458155,-0.006268642,0.0064928745,-0.0000935121,0.0001510652,-0.0012513105,0.0032041903,-0.0017451152,0.0014711036,-0.0031746133,-0.0046477488,-0.0068072874,-0.0039871341,-0.0054531168,-0.0037029505,0.0027999283,0.0021992918,0.0052638745,0.0029102846,0.0036682618,0.0065538397,-0.0053069365,-0.0040601568,0.0015220198,0.0115847474,-0.0096438735,-0.0024824554,0.003731833,0.0044779841,0.0110718983,-0.0046820821,-0.0021618383,0.0080944469,0.0016974337,0.0028518049,-0.001744588,0.0008455834,0.0079571926,-0.0022485246,-0.0001732569,0.0034264789,-0.0096018414,0.0016590201,0.0123057123,0.1512169091,0.0097652221,-0.0049747182,-0.0020110228,-0.0016157265,-0.0041782841,0.0071966826,-0.0025973185,0.0086051347,-0.0095313014,-0.0020641126,-0.0024875093,0.0023565732,-0.0051372288,0.0016140762,0.0011388292,0.0042287891,0.0065871477,0.0005704057,0.0030403607,0.0066783615,-0.0091873993,0.0047858417,-0.0018367781,0.0084638467,-0.0027680297,0.0055653505,-0.0060939838,0.0060966646,0.005416403,-0.0093147065,0.0731532308,0.0082471019,-0.0004541368,0.0029894194,0.0053506213,-0.0026848524,-0.0038623883,-0.0055057593,0.0128655541,-0.0035918339,-0.0088308782,-0.0104794961,0.0101948349,-0.0050629445,0.0045405824,-0.0033586215,-0.0090165711,0.0160166415,-0.0016092126,0.0075347854,-0.0004231242,-0.0033920688,0.0094978443,-0.0014846324,0.0100340684,-0.0066245252,-0.0015737434,-0.0039798218,-0.0065174742,0.0000577998,-0.0003367518,0.2329724312,0.004186276,-0.0111281658,-0.004592754,-0.0034149658,-0.000862746,0.0038746962,-0.004499179,-0.0082073783,-0.003144805,0.0064608304,0.0027028417,0.0031916592,-0.0000216873,0.0094212165,-0.0038714631,0.0124033415,0.0041052303,0.0192341908,0.011742275,0.0072654208,0.0039072878,0.0009481271,-0.0018944165,0.0002357654,0.0095287806,-0.0021471706,0.0121686417,0.0062686265,0.0042233077,0.0042555419,0.2706482499,0.0020931145,0.0012554569,-0.0000915968,0.0068214511,-0.0039709434,0.0042953445,0.0026232111,0.0038266226,-0.0035460803,-0.009938095,-0.0083323081,-0.0038657398,-0.0047453069,-0.0120607099,-0.0006018223,0.0026096292,0.0115589627,0.0062801564,0.0001039901,-0.0067096808,-0.0015521856,-0.0085630718,-0.0062233963,0.0097519669,0.0002222772,0.0126744531,0.0027985718,0.0010719618,0.0044769455,0.0036254855,0.1413976436,-0.0040154952,-0.0088638229,-0.0006007019,-0.0015483221,0.0079239688,-0.0014364451,-0.0009471965,-0.0056696731,0.0013327134,0.0133539112,-0.0041552676,-0.0107792428,-0.0039142161,-0.0029221908,-0.0072762755,0.0010977757,0.0007842595,0.0032027403,-0.0042039144,-0.0029402995,0.0008856875,0.0076462651,-0.0059680421,-0.0007477583,-0.0044524481,-0.0032381366,0.0079946594,-0.0002819985,0.0039726747,-0.0078326424,0.0664759584,0.0022805096,0.0042746065,0.0044633691,-0.0004307641,0.0036216505,-0.0090666995,-0.000746239,-0.002476501,-0.0095575747,-0.0107731949,-0.0047997386,-0.0061266251,-0.0046903329,0.0002067007,-0.0003821215,0.0154990864,-0.0038134783,-0.0009532537,0.0024828679,0.0029075507,-0.004638107,0.0035156286,-0.0007164808,0.0031972044,0.0092464914,-0.0033108104,0.0007924377,0.00065965,-0.0034858996,0.0002241256,-0.0134725201,0.0000015377,0.000002495,0.000001108,0.0000005526,-0.0000004899,0.0000010049,0.000000579,0.0000008441,0.0000002957,0.0000002303,-0.0000005957,0.0000011934,0.000000827,0.0000002576,0.0000005407,0.0000014973,0.0000000069,-0.0000004256,-0.000000857,-0.0000001329,-0.0000001901,-0.0000009235,-0.000000108,0.0000009077,-0.0000008335,0.0000014614,0.0000018944,-0.0000004587,0.0000005316,-0.00000087,-0.0000125212,0.0004359746,0.0025532976,-0.0062837586,-0.0017268611,-0.0049814329,0.0062228217,0.0067826576,-0.0009879266,-0.0044794773,0.0007554619,-0.0019398032,-0.0022517765,0.0053485351,-0.0052400002,-0.0037676567,-0.0047691518,0.0064835478,-0.0043479834,-0.0053719666,-0.0018368971,0.002751179,-0.0034853084,0.0001432287,-0.0041537958,0.004880201,-0.0036281708,0.0030265307,0.0017450438,-0.0068390153,-0.0029319373,0.0484496594,-0.00733324,-0.0021908659,0.0017813231,0.0049852177,0.0018740086,0.0006547891,0.0096266794,0.009274026,-0.0078486953,-0.0054138777,0.0067526012,-0.0004285327,0.008565698,0.0004014459,0.0061958,0.007666754,-0.003196238,0.0104150789,-0.0036474012,0.0023325939,0.0012219489,0.0023768172,0.0029586325,0.0005115393,-0.0062729105,-0.0044951028,-0.0011215727,-0.0064241955,0.0044457631,0.007869748,0.0916558755,0.0054780314,-0.0011109374,-0.0094413123,-0.0020919084,-0.0009694679,0.0060726089,-0.0012038239,0.0044233333,-0.0080301702,-0.0031797827,-0.004681949,0.0049046955,-0.0018561647,0.007414092,-0.0065565112,-0.0054001709,0.0039722194,-0.005904737,-0.0011513597,-0.002516297,0.0016232055,-0.0039803697,0.0048049532,-0.0071062593,-0.0095235135,-0.006258998,-0.0026067879,-0.0076407584,0.0014892916,-0.0018253278,0.1476942437,0.0003735716,0.0009312932,-0.003579704,0.0065230983,0.0036601311,0.0023232192,-0.0080035285,-0.0024949586,0.0018169337,0.0099841476,0.0047832489,0.0154790365,0.0113213673,-0.006202738,-0.0031635028,-0.0070589399,-0.0070384585,-0.0104647659,0.0036680183,-0.0000218827,-0.0034488094,0.0072567938,0.0022080759,-0.0061088781,0.0210946482,-0.0043448949,-0.0002119337,0.0034678365,0.0036002379,0.0054763884,0.3018007027,-0.00274437,-0.0004461253,-0.0061278278,0.0049432887,0.0042813516,0.0009378108,-0.0002647057,-0.0012370016,0.0001589892,0.004831249,-0.0013320506,-0.0057209704,-0.0031522403,-0.0063643897,-0.0053526424,0.0033653672,0.0058744882,0.0048690084,0.0044791474,0.0038230505,-0.0011158985,-0.0012760237,-0.0037401091,-0.0052677212,0.000198161,-0.0045708224,0.0021118665,0.000056294,0.0022349476,-0.0009578789,0.0394041188,0.0015330719,-0.002614848,0.0028009278,-0.0019687041,-0.0043672996,0.0016012209,-0.0017961733,0.0052059301,0.0001675954,0.0019665263,-0.0066264333,-0.0069838815,0.0024757145,-0.003826305,-0.0028543926,-0.0014994192,-0.0072691517,-0.009256336,-0.0042542719,0.0015730303,-0.0004321602,0.0003813252,-0.0019208958,0.002537669,-0.0084233865,0.0004833493,0.0018627895,0.0009229973,-0.0028362589,-0.0005526856,0.0830314853,0.005346251,0.0045191431,0.005393214,-0.0077600024,0.0014780138,0.0048262197,0.0024182882,-0.0076172245,-0.0011243893,0.0028391129,0.0019161386,0.0031773942,0.0039230659,0.0012539144,-0.0001593575,-0.000588665,0.0019114161,-0.0032984965,0.0042065557,-0.0013486133,0.0041155678,0.0019753614,0.005311565,-0.0078264784,0.0062236567,0.0029352234,-0.0035385724,0.0041881807,0.007685132,0.0035411357,0.0950572478,0.000039821,0.0028982223,0.0044670611,0.0046812609,-0.0060896396,0.0027579406,-0.0017012442,0.0034379026,0.0010035768,0.008384696,-0.0042525127,-0.0003928028,-0.0015433056,0.0046719985,0.0006202648,-0.0031268306,0.0015409136,0.0058121145,0.0014111617,-0.0027766111,0.0020150034,0.0011484965,0.0007756773,0.0027342234,0.0021659204,-0.0007491021,-0.0044185845,-0.0038976988,-0.00517936,-0.000225358,0.0313385372,-0.0034044274,-0.0062348943,0.0033963982,-0.00107394,0.0027808683,0.0093792709,0.001656173,0.0027209446,0.0005735879,0.0182125404,0.0079654603,0.0078957835,-0.0038916438,-0.0019379137,-0.0104578764,0.0007714902,-0.0098974628,-0.0081556858,0.001523909,-0.0004971516,-0.0049105873,0.0071904317,-0.0039983938,-0.00902925,0.0070614744,0.0026409977,0.0036772388,0.0092706987,-0.0042842091,-0.0004055667,0.2945995265,0.0062672805,-0.0023797452,-0.0007459603,-0.0031066594,-0.0000017375,0.0039232315,-0.0059948884,0.0008848927,0.0072931902,-0.0129583417,-0.0007609565,0.0090069674,-0.0055799375,-0.0056016717,0.0066049645,0.0029647708,0.0148359018,0.0036579161,-0.0009752254,-0.0000326928,-0.0096711986,-0.0007954727,-0.006461704,-0.0019479174,-0.0119324499,0.0023601562,0.0002953758,-0.0142742293,0.0011628731,-0.0015524928,0.1424324314,0.010844212,-0.0006746731,0.0078863305,-0.0041910705,-0.0007414853,-0.0057162991,0.0056672491,0.0060513522,-0.0017207418,-0.0081932046,0.0012905448,-0.0052562777,0.0047380104,0.0016393348,-0.0046178752,0.0095533741,0.0105660437,0.0054059833,0.0082719601,-0.0007077221,-0.0008982018,0.0005196213,0.0024814317,0.0035414574,-0.0014783126,0.0002050315,-0.005497019,0.0070257031,0.0050132637,-0.000718904,0.0692664291,-0.0009062073,-0.0027035842,0.0054897213,-0.0042315841,-0.0044437055,-0.0061640451,0.0018986263,0.0025131575,-0.0029618232,0.0038559461,-0.0027490739,-0.0028374458,0.0021996235,-0.0058747101,-0.0004389003,-0.0025106811,-0.0122059921,-0.0037321466,-0.0072923366,-0.0001977717,-0.0010121047,0.0038729811,0.0043702996,-0.0012341126,-0.0035253767,-0.0002422263,-0.0007132696,-0.0096591768,0.006273936,-0.0095254081,0.022691738,-0.0010621765,0.0023218675,0.0000910136,-0.0016925555,-0.0043948165,-0.0042683267,0.0035317004,0.000213297,-0.0033434609,0.0021328016,-0.0028000466,0.0057023575,0.0050917215,-0.0036006228,0.0022384958,-0.0006237625,-0.0040911824,0.0050741115,-0.0042593188,0.0017159109,-0.004440659,-0.0007515092,0.0074937265,0.000791358,-0.0025560789,-0.0004492452,-0.0032913916,-0.0051702337,0.0022480931,-0.0017519672,0.0546670804,-0.0046113096,0.0123974136,0.0004122628,-0.002811587,0.0035460233,-0.0057463653,0.0035005756,-0.0027912354,-0.0034928131,-0.0061951665,0.0105438717,0.0050562899,-0.0052548962,-0.002576692,-0.0023601203,-0.0108955046,-0.000785787,-0.0073476765,0.0051012266,0.0101171872,0.0058609118,-0.0102752127,0.0001882643,-0.0039590967,-0.011798282,0.0054096559,-0.0050485536,0.0024824683,-0.0077017585,-0.0029568645,0.1489646202,0.0090663628,-0.0008577244,-0.0018988651,0.0036371473,0.0081872078,-0.0133881789,-0.0014145095,0.0010849101,0.0051299049,0.0101521601,0.0102742952,0.0041973774,-0.0021106184,0.0081206328,0.0041707068,0.0040718995,-0.0068262952,-0.0032662869,-0.0034541375,-0.0111261241,-0.0032043114,0.0050582922,-0.0057987567,0.0018263638,0.0113751837,-0.0067361114,0.0131170849,-0.001037765,-0.0029876755,0.0003726095,0.1961247988,-7431.73431308,-10535.4218798653,0.93446183,-1416.0095955151,-5845.6352340733,-6480.711901411,2788.01898593,4388.9980844438,0.4563274998,-3652.4284047813,0.6767901696,0.974729476,-15.7775302782,7921.6628654422,0.3633833192,0.0279097502,4.5790571889,-2494.6488912552,-0.8452856539,-14.1399266837,-5.4597998001,0.3116228523,0.5325550744,3505.8526273437,-0.5711010012,230.1203531332,2009.6176476764,-2794.3089678112,-1558.6120518837,-4114.2198895235,-264.2389502938,-3.5185871981,1103.8362303913,1763.2250884267,-0.2962837293,40.7339400423,-0.7725372195,-1619.9552394501,1.0115208509,-30240.0446785118,6749.9078569467,117.1171829064,-362.0012801741,0.4124126345,-387.6106821599,-0.3708563635,28295.0243576376,1573.7120616173,-0.4613876622,-1244.055193359,1.0564657323,-1.8407831036,6686.5603622903,-6484.0215327849,2102.5071603285,-652.8191964422,-3342.4493090577,2289.3696495023,996.9151470393,-1539.7587258164,509.7621530193,-4.9182928886,835.9143160375,-772.3432107183,8.7883575742,-3377.6004537804,-1545.5504145289,-1262.1354306978,-8464.5535217142,-3762.9875916152,4412.8889584013,4336.433680688,-3910.4657658372,7632.5683559769,-8866.499831572,1.4056963094,433.8988930081,3563.8105908107,44.2829869591,-4738.0613470627,-3494.9429539215,-1.1476301112,-23432.668470716,-3169.2779197221,4033.1039803251,-2593.0652116093,0.9569872519,-2962.5009373141,2.2999402742,27.4211570094,-0.0197823023,0.9946199305,-0.3687768973,-1626.3866622277,16142.2864824852,-3686.9327807315,-0.421896009,18.6251671726,5518.0605705277,26.9740773987,17464.732561772,485.8856907668,-29.5589928664,15229.2354868251,-3366.8161660999,6911.5161217096,-2797.6545573062,-0.9283331935,-1453.7807271258,-0.3542572203,-6416.7664343907,-3.8345415515,-0.5497918804,-1092.9243741168,-86.0531441812,0.1109075682,67.4554892783,-2294.0621300649,8.0191935436,13035.2670587746,-1139.5824926484,28.5785806303,0.4175360596,-6.2524225865,6556.5331098121,-63.841814196,-0.9117190044,-85.2997418602,579.4115203643,1893.4733307504,1406.495284908,0.5788756647,2516.0189252683,6504.9731304731,413.7507057389,3008.211738299,142.0927362836,7089.5042632628,4184.3269903716,-1638.3094911891,-113.5168280552,2.4672938206,711.7029875503,-9406.1519068593,-7291.593129627,8731.1426201121,-4101.562580022,2.9169186639,8795.0163398575,13433.8879276196,6499.888800601,13239.5144584613,-28.9926317445,-482.4055593978,462.5545416313,-3856.7569137627,-6138.9869190936,-19709.7091229279,-99.8723320047,-5685.5235430542,-3.5197599925,-576.4947871131,-0.2543027414,9779.213859793,-1.0741252535,6123.7718866733,0.235470936,-1.0828548177,20.185880324,19231.8243269686,3622.3450831758,-537.8769935345,0.5251227221,0.2064911741,0.6393219527,3974.4188430999,-2225.7671070235,-0.7143649089,1158.4119040385,21107.3706843022,3623.2863941187,-0.6217342059,10484.544197072,-3908.5608005702,216.7493512314,6997.5642219785,296.5106349603,-1770.458729777,455.3714482973,-56.2654049969,-3815.218299115,-132.8173590328,-9744.3916928441,1685.6667313639,-9185.1963622774,1104.8340885609,0.1965552501,-557.6101813036,152.8162979869,-15221.4709485934,-1.0004411272,-36803.5614010785,-0.057474896,0.5410978896,35202.8082871081,-0.2404575601,-20.6936496837,279.3199758991,-568.2001512255,6.4321605614,574.8727589655,3795.9694030567,1.6755783942,-8675.7841492005,13424.2474151701,3564.5375008523,-9565.555491353,-915.4744966862,15037.4070512262,-7294.2486423985,0.7054302047,234.0784100742,-4863.4423857806,4604.6655772458,10893.2345347394,13653.5500438155,-5933.8595299577,7183.3319836263,-1888.4479706656,-20.6369389812,11230.2441673868,12.1785661459,8045.3011267229,20362.6945049727,-4004.3259265162,-9346.2498573351,870.9169882797,-9.8044825925,-11914.7772058981,9649.3858416504,1770.7612873342,19949.4881188353,67.5154841155,0.9630715717,2058.674333808,1198.9126314267,4.3745351138,0.1195883684,0.2803370757,3539.3070666026,-14738.7156128419,-21155.4903080398,-4199.4672175389,0.161618823,0.652548761,-4315.7967976424,0.7552046028,0.2721232047,0.5017399323,9.5738785833,3880.7288662679,-21154.7881838599,2197.4595909244,0.550839167,-0.3812200267,-0.5327067118,167.3835522034,-0.346778343,-2097.7495394159,1.859941105,10419.6290112061,0.5896170773,-0.6892998508,-0.5110426007,-4296.7685018801,-0.2290755828,0.9788785731,0.6944537127,5298.7893437738,-4847.0492151621,0.5011543679,-0.5765562185,0.2066123207,-4071.6089951668,-0.9852980527,11.5535204343,-0.103305548,0.3523039055,-40.0535382645,-7767.8137066751,-27746.9039540221,-1.3110179426,4317.3964229836,-0.1585562155,-6406.8352745418,9086.716795076,-52.9685841599,6594.9269697189,2598.6703867351,3804.1172092562,-1746.4500873159,67.3637118777,-963.9469943153,13470.8660139901,-19031.9116789847,11845.6300302471,-3267.8757562043,-1930.5877705596,5002.1375222566,-2668.6233280993,9240.0712526391,5907.0032900183,543.70057262,-8844.3237079497,-894.6669871133,8790.9804021077,-2144.2592358682,140.7734291138,-16135.659217461,1934.6408255806,136.8498839399,86.7361498901,-265.7931022592,-4607.2074889912,0.5424004407,0.8115238128,-1239.887112983,1.119774445,-0.5129789648,0.8217803585,-4512.8305479232,-0.2072592713,12280.3563720847,-1642.0059445815,0.1530894404,0.5598377987,7069.7215453548,-0.4980675115,-2.1808322602,-0.7401302108,13780.0514699639,0.2409008118,12281.5499547331,-102.1318414354,-17835.3947983913,3643.7998492016,-1.8009107173,-0.3307255246,-0.5335366615,0.1479391713,4546.2628547701,-0.6578327244,6590.410703048,0.1650835408,-0.0440987408,-14231.4995490793,10341.2299575211,-4244.8830940184,0.7611505785,-9271.7112094144,1.2590458297,0.2737151736,-10148.730722298,-40.6685493718,-5987.9085755015,-0.3087958234,0.1638089339,0.8707495779,3581.8581508532,89.4820293499,-3339.948469486,-4742.4849000096,-0.5448615311,3706.7026453298,5.7986211854,3732.2305306122,7596.3005116657,280.9235441971,2789.4725989795,-3209.3906109032,-5630.5821631246,-19369.3905243002,16303.3465512133,1853.0683199448,511.5649099207,-1404.3427193442,2785.7290097115,944.5425702273,-441.2173498684,2229.5605128173,2183.8749549352,2185.9912996132,-11427.1234769966,-14.8159671313,2167.971142456,-1685.2082324265,1677.6175310189,7390.946313806,-3550.528231074,-6247.5585143694,-7.2763381997,807.5437451782,1721.7498008176,-1858.5610623253,69.2642541526,18537.2834585932,1.3796207323,193.7753148651,-3861.3490227893,-0.7092478971,1.6506170418,21845.525951518,0.8804562606,0.9062592103,2.3412975876,-0.7985554403,1755.5865097931,9966.3609345259,-66.5291207519,3498.9262852127,-0.8448118554,-0.1245472615,838.1074080655,0.4358907513,11825.4636668281,-9549.9008784167,-9034.959650053,-995.021081764,-6110.1797832726,-9578.2770593213,2730.9274568812,-0.8914423061,2.8578063662,-6453.253932215,234.4925885595,0.2380370597,-0.0534530998,0.4939303751,0.310289173,-0.0081522968,17873.8325351075,0.8250800661,5514.7494741505,-364.2968027659,2250.2996082493,7175.5967261781,11347.1882732687,-11597.1895769545,-6959.5487371503,-1417.0940193459,-0.8380867187,-0.378802789,-532.7728463762,-9087.5518768087,0.7067265737,-0.5022858197,2936.4818255553,-9062.0981385893,-272.2962716713,140.3831222724,0.5728565616,-8101.2485771996,-1793.1804640413,1354.9861514646,-6028.0367759997,-7444.1806724487,-2151.9455793259,-771.7627878152,-13176.851842195,15518.2162485008,2800.3286852317,5404.1456621519,1865.7734220054,2648.6184952852,2.2629698387,-215.6405801192,3893.8894709406,-35.9521059812,-4895.4304923612,-23.6747570743,-5354.8395377493,-10066.6616074284,-4414.5535087843,-2.4803858661,7162.5496672591,-1643.8221722108,2178.6443641267,3943.4869479898,-1.7594303754,38976.7434445438,0.7372162099,1.4154373111,315.2692702232,0.5401398741,0.807143695,860.8887786942,-0.8468561205,0.0160271906
   29.8669136687,1.4136186751,9765.8473557826,-0.3072397304,-1.3288801775,1468.2616728131,0.1745404954,-0.9227944126,-959.689610612,-3863.3344546844,72.8689625027,-1.4090031032,-2602.9929931659,-60.4130539407,0.0555835797,16249.7552798825,0.119298072,-0.5320057373,-189.4873270733,-0.4562935743,-15574.9778043367,-295.2476600278,-0.4634766826,6322.4613936137,30963.9376246868,3721.4812421885,0.8006139392,0.5968884535,40.5051489564,0.4957924062,0.7653423399,0.9032854717,-3469.2983261803,-0.5610341105,-0.4641410364,9790.4596284869,-134.2028397908,-24.0127128452,8.626388749,1335.999165226,-749.3212565703,-3517.6928899703,0.5876164005,-1027.3567482518,-1126.7218064443,-7755.7228523795,3190.6408892978,2978.0480266567,14040.853959605,-4263.8470696988,-2810.9523690226,-10102.0431190712,-10150.9375993653,-1634.3272385487,-436.9330808864,-2.2834055581,511.6718176741,-5500.6378925908,-5809.9275648611,-1370.7261947309,20655.9238082834,-546.8638465661,-7135.0464046006,1510.3086736973,6544.116595837,2123.9286078944,333.9633168362,542.897757975,-1139.7257403459,-22.8757016975,5562.2698588637,3748.7096978529,-16340.6231652919,1.0909449778,-11374.8454907485,4580.2532867406,1.5343880142,-2642.0265031659,-5.7048561683,-0.8877660028,6322.819534955,-3232.8558321935,-1905.9689249184,132.3683364175,-0.6318699544,-0.575897933,-4267.7840500793,-2642.3317061926,-2860.4643218874,11567.0696681036,3005.920368012,-8450.6420091145,-843.66606777,936.6350224669,88.814926385,-0.2517412788,0.4274354581,0.8248384783,-0.9861095375,-0.7017025608,-3481.8405572812,6731.1000194063,21082.5468903637,-0.5709162218,6900.3346042557,-10183.8326249938,-0.0777062395,-1090.7539056711,0.0720340837,25254.5883933244,4.8861299216,15833.8303988471,0.1788083414,0.1879450527,-3381.1340247467,6328.03111258,-3480.7505717964,700.362150245,-16234.7191656142,-2.5956480403,3352.755170828,5688.1810872487,1.3903396092,-3593.5354381289,-7395.1371634684,-8234.899147444,-8655.490915327,5463.693426756,1416.0487816221,-10478.8112447529,2157.5430542371,3534.1045442727,-5989.0598662234,-317.8828336088,-2519.2936035561,-346.0650328843,9616.5648285847,9602.8656763751,-1591.9643262616,-3313.4521619139,2577.9574051555,-2785.9898559981,-0.0878115756,-7431.169996355,-0.1286666584,-7485.8507142198,1527.5081294809,-3064.0674762546,1015.54731021,15025.7221481617,-29.9854024382,0.982184001,-307.6718503344,-2261.7488406444,0.7863808164,-333.1088750642,-0.920136229,-8.3993420789,3021.6922217563,15807.4964949796,0.9422587636,-3866.7567980633,0.3566724045,0.4506143933,0.3311688329,0.8317736804,-7932.6601435935,-0.7326002049,3020.7965324695,12927.345784234,-29894.5666194624,-14981.8130815659,-1.3704806022,-9876.0995979459,-1.4157250057,11951.3383573853,1.0149384339,3259.9584873964,-45.4418322983,-0.7711617156,11.6968242177,-0.2146681366,1608.1745865438,-8505.4792213666,0.2740016356,1542.3087611548,1815.8993494473,-5549.3938488464,5.2985498856,37408.6852026031,-494.3526526144,-66.4536618209,-12680.7998309211,-6744.5840322297,-143.1230799514,-0.1137873914,0.407334723,-877.2386264359,-0.8801011597,6521.9266082412,-0.541215285,-1377.390502638,502.6398419332,-7054.214677255,-15094.1615386768,5610.6066794122,765.5121175443,7189.4024059587,-7322.5923304195,5845.5015259604,-4134.587939069,-3967.8026178957,1332.1420334436,-16920.0657737611,7940.3566923973,-11061.4327790997,3086.2552003795,1366.3872678403,1917.184413564,4739.010959317,-1309.2029587547,1574.7889963752,-1687.1362259578,-4356.3258831588,-18396.4162811978,-2950.554866521,-0.7782409418,-5088.5386274654,435.6442728594,12991.0062850348,-358.1593869697,0.6505298105,-13061.2948323477,13.9043873038,-4403.295763848,1203.5687852263,914.1897429992,1066.8962542683,-0.5330533346,5.6484821735,-5170.2312538255,-0.0819037362,16443.0829775136,30083.0973405816,-0.7726551375,-0.4792164221,0.78845811,6829.591836899,0.3974456176,3.9241475776,2.4922469381,-22416.5765278578,196.6450367174,159.3551091972,4882.216219015,-0.025377999,-2196.8567722832,24886.9381921913,-22488.2457900725,6453.167731207,2524.9815134801,-13680.753931958,0.7415942511,794.5615870171,-0.1638156229,0.1646910928,-6191.7276023306,-10131.5529273657,-0.459473941,-0.6662474197,-5886.1449172819,0.4610198836,0.6151904725,8524.8860853914,0.3631366441,13923.5834525346,0.3231025974,-1118.4198069168,-602.9682398122,-0.0891434887,1.0522947382,0.2339595918,1615.1186981533,-2099.4115249686,12801.9583647879,-4217.1607503487,-466.0242463258,-583.0018170772,1120.2454687161,-1.8834518868,9612.4449431134,-2444.8458390158,5026.4981310722,7270.7923437878,-13814.9619610995,-6608.8512208656,-5.6568079053,-2796.1361409437,-630.6802960124,-2533.3799687842,-1.2234336563,155.8773318591,-6059.6246696153,889.5187309984,-5244.5458384293,-253.613775461,-6310.6612277934,-6636.5690645954,-2177.4315574124,-1235.729694926,-965.019996667,2055.4904394431,2992.581836276,2675.9452767402,-1.5315506112,10885.8562763376,-0.4739355237,-0.1354131689,-1153.1508994626,-356.5859498759,307.8269724554,0.1635818709,-0.72913515,-51.0948597379,5112.2939454108,-0.287936839,-21.1145885832,0.2493269233,3546.2840485164,29839.7353949367,309.0444245011,0.7107085453,-27561.6007180924,-11390.1205472943,-2880.9720034557,-11831.7373776545,-0.8079582995,-0.2758312008,7507.9076607959,-0.8472163289,-2806.4845890724,-0.7461542916,-0.0273412618,-8920.5324442626,0.3460925943,-16588.2831157878,-0.8238488497,1444.5682068476,641.1006875125,-0.1415292297,-1.0176359032,212.7247845778,0.330119794,808.9239696896,115.9858429429,-0.448856754,0.0409381745,4891.9370203778,-3816.0842617888,-930.3941577484,-0.2434620788,12818.4375333207,0.0696311471,-9697.886931779,257.1803837666,-0.7380487254,-10425.1183829654,-1676.6799855882,2857.5655233642,9706.9146484068,1474.760845209,-468.1033732783,-8355.8196645313,-6146.8093180599,34.3555277762,-3394.637371479,9701.934885728,-947.1154030723,-3002.2906103837,2468.6003135101,581.1642104326,19498.1418733614,-1.0964499344,-3740.8167952631,1984.8421388078,15968.9440585728,2.1696742792,-4676.1007162327,-14753.7498641038,-736.0236280733,177.1573257001,13649.2876712042,-11081.1719521959,6.8547360197,37.4666990437,-0.8774030453,-23802.4457657933,-21133.0021744802,-0.2914328248,5.1418332958,-0.1175546371,-8.0669882219,0.2646654023,0.0215768124,2468.8737488459,8692.59391864,-0.1096909729,-0.4268019795,0.2152091825,0.5430377231,-10974.2518686204,-8.3937083225,-0.3785142689,5726.0384721544,24781.0932577865,-0.5495784515,-0.3581694723,1930.1822561009,24849.5068628821,695.1896849608,0.7460489386,-24762.8489066228,0.1917047502,-296.4715914576,-4056.7192649267,0.5321599057,-38381.368919663,-0.8771791046,-1754.3022545178,-16135.8457641998,0.1232704178,-0.4148295027,-26671.8755088819,3219.2349620519,0.3792260459,0.1013283709,-713.0194104191,1245.6706830423,-18723.6701332619,1382.5988514853,8.8935317551,1569.3777179288,4038.5161042375,0.323980269,-1568.0441460834,-5112.6400192229,2871.2988410728,10252.7233162348,-5698.2085447394,-11358.217404358,-11166.0740591952,2273.6436075891,-240.650562132,9331.8607985508,-57.565640195,-3094.7239846416,1281.4992120296,-8279.0713857072,-4121.8908108865,-2685.3029637125,-6127.004009364,-9521.076031575,3416.166229092,6897.5736009449,7819.2519277233,-6507.093028511,3312.7397997761,1941.7021266523,8991.8493053927,-3104.9078637696,-2337.5645040315,-9976.075186423,-1951.9542227436,3668.0461060152,2761.0082812142,167.9003621865,10305.0280878215,-0.3115239671,26828.8053081873,-3431.6233459905,175.2073705153,36.0170700305,-3609.8689239656,-0.2445332661,0.9624145642,786.4991522359,-0.4353001069,-11481.6511190652,-1483.1153431346,0.0886677188,943.551199024,-80.5243978967,-3609.6847897961,0.4808335082,-1345.3800345628,80.6205205313,-1932.5515055404,-0.4795221728,3034.9673948114,-0.434515374,-1.2297986205,0.9674989302,0.1652474024,9940.1864237583,-0.4197418148,-1646.8678879825,38.9073511982,-1712.5719549322,-0.515887188,1404.8905956059,-4.3047279555,698.4026271128,-8836.8187903472,-3156.7803307858,-0.3544085408,-0.532980905,22492.5877097743,-0.2211545327,1980.1621537739,-1.036645091,0.2826618132,8381.2296515448,0.5206290962,-14.1594956039,-0.3935176694,-300.4986318705,18284.5608920001,-12204.2339635192,-5070.5362386907,54.6329945171,-16458.3572756752,-1733.0318826776,-4145.8234130433,10282.8340753277,-13553.4032128887,-2674.0861884565,110.4244550361,-13346.1485964947,-8063.3209661257,-3152.0810347143,-226.4886756933,551.9856599334,-11860.3372523419,5258.7133720013,-599.7952860002,-4935.5088418616,2050.9408795317,13828.4692976121,-9559.2796959652,6857.2233723508,4854.3033790807,8098.177530761,-9165.8350772637,4796.6004424129,-4859.1021580558,9506.9886089675,-0.5741801885,-1234.6649123819,22.1087164557,-0.6521402623,0.8777743945,-19390.761424742,-0.9225187385,-1.4249267574,3857.1072717186,0.7684211062,-0.2197935865,1556.043064589,0.5551812834,-0.0738046749,-0.2868420326,-1015.682238055,-0.7145909368,-0.2076516677,-8811.1506630097,2.4391542605,6866.9326583756,-205.6776365429,9382.8662210486,-0.4354140333,2.8768885311,0.5929531736,-0.5975992876,-6276.937478661,-0.3496141368,-0.1976660689,0.6917734531,-10.3337242339,0.1166707198,0.725452826,9621.7469359464,-0.4717910192,-11390.0824311239,964.0874531279,-0.8602830698,-0.8804237856,9388.0646904979,-0.3276371318,-0.3258001471,-5.4116652296,28.2235373848,2927.8469207895,25216.5452487039,-1344.3477184496,-0.8798183848,0.1434265058,1704.8739029325,-7.8278924943,-3652.0391697284,593.5509111403,7249.4331887397,-662.6984018276,-5292.0981832416,-7090.1488628917,6299.0114312204,-3208.4518486655,3662.5183458313,6268.7719142309,-7605.1963492161,24.9273799546,11001.4553456248,4241.1859890828,5154.8972841231,24.7486009728,-1153.8137717809,-11959.122538645,455.4309788907,-1753.3413344226,9331.2325318629,0.8326838927,-8232.3287091453,761.957337137,13.9043896858,-2690.1382992846,-5100.7147890741,-2854.5862689095,-5861.3573643653,-0.5929057106,-4.6562533692,6.8389358145,-1451.2513251152,-771.2870242571,0.7004720429,-69.2254107998,-0.2498640024,-8165.3394004488,0.0024763594,-348.4434249967,-1614.4690473199,5477.0620786926,-138.8847298655,-0.3598549829,126.8211832653,0.905804629,-0.3978522091,1453.3318400516,-3976.3536791588,-11582.9807204286,-2198.7534706369,-1200.8867373214,192.5411279342,-0.0226459492,6764.5109411841,-0.5801763053,-1.122573923,-0.809286991,0.1174758601,-61.1793713764,0.3204317759,-9023.4791420943,0.9394071585,7883.2297106052,-4.254865267,-0.3633981683,13735.8568480572,2693.3477934376,-4102.5295282838,-0.8896584032,0.3167478579,26003.8480787908,0.4540922075,-5393.8187647957,-54.0722607031,-8007.575922978,10164.949959805,3076.9853445179,-0.4600808769,5330.3302128062,-7817.1647558213,9389.9474706688,-6366.1165169928,10454.4263050026,3913.7590616355,6333.5444355969,737.7917879676,-769.476318001,3348.7177117465,-0.7935435515,-2126.607178215,-1453.0630667942,20477.4088248738,6203.9060800621,1650.5118269632,-1872.0517501424,12112.3901698326,-10076.9565307912,-1235.4305018365,11319.4907856848,16196.2218060317,-12203.4040066377,4584.9365468469,-559.1394554739,8721.7273034257,2173.7873752722,4671.5662864687,-6747.762236975,-7991.232684756,4006.9250678621,-1252.991535934,3318.5862136309,1.148495495,3184.2429849065,0.0055866358,0.4988988703,-0.658546918,2.2853524173,-286.3475990506,-0.0025639538,-3377.7204589027,2467.7203534082,22829.4814950804,-0.0884915519,-0.4358354589,-1232.4370404162,0.9532443472,2.5575432074,2213.0477737673,32672.6740221775,-8165.0340870872,-29964.038522334,8132.7452536474,-7795.2188385547,-0.6011698532,-0.0979023307,-29837.8450605768,-10238.3958679669,-1.0421384732,-6914.0970949085,-0.2637007165,0.4966080348,2.513679786,0.0922273463,-1131.0842532027,-1.1760500209,4094.146409018,-12002.6474560952,1020.7500948359,-1.2141286358,-4374.4182075823,387.1532083737,-2602.1461859181,134.1578084061,-0.1672138272,2279.854744677,-56.938308661,2.8443820031,-1908.2472983811,0.5469642415,10698.3643865811,8247.6897020998,5.6056983603,-142.5125736824,17.1841223211,1338.9443503383,1212.9912497239,-22.4426705839,838.6031451711,490.6579852607,8800.7577529345,-7222.1850524886,6962.4366466874,234.6912317783,38.2660402348,194.0065491925,-11297.5830135253,3376.3694194639,-11232.4816292309,2845.7422826601,5687.6801415993,6155.8340201079,-8093.8404874735,-294.8538020195,15917.2608362305,12538.7517704444,0.6359539762,-4808.3335878667,-7355.6635940038,18499.5505945914,30.2036404511,-1.3297967623,-12002.0869255652,-2448.1373868813,-13.7601791186,-2104.9037907899,-561.6875723423,25341.0961052493,11356.1953374362,-1.8835971464,-0.1014806072,7803.2027266834,-8788.6165859303,-0.2984389096,-5842.4901845939,0.4865575384,1.8919341082,-1.0135425744,11355.93229662,7779.2018941462,4495.4275064328,-0.2876204337,-14098.9672302937,-0.51603639,-0.2166069382,7414.2867686518,-11458.3251898993,-0.8867638336,-1375.5947256212,6379.6796129806,-2119.8866785746,-0.6300483997,2566.1986976612,-3031.247864934,0.7356689018,-4293.1816279867,-0.971904483,16312.2864613465,8770.9140834499,-2797.6163061243,-0.61853171,2619.1648930402,15779.9427598906,0.6343190461,-4689.6904828903,-19941.507271569,12577.7398996806,16295.1408957235,6298.7926340655,25408.8348674948,-0.0205685242,-14.9648518812,4084.1580394193,-2870.2810769015,0.6071386539,0.3268511016,2496.2797662668,10231.0083978271,1557.6510775216,-273.8193741072,1360.795277786,-3113.230861597,520.1631614639,-296.7933121493,10042.6859613992,5808.8748664744,-2.136490126,88.8133163242,3967.5860184729,-8.5253168976,-2746.2645954082,-3149.2975548742,49.6737703863,1032.9443380661,3396.7102463682,0.7375873812,-188.9911403716,3059.3828031352,-0.549965483,-35.4328453578,5854.9123807582,7880.5717437649,2.1263340007,8000.2952965681,3796.0682592725,20.284199066,0.2296657546,-1.1399259849,2437.7157763352,0.4500987232,-3.0695207524,0.3294636268,-0.0969402895,-0.8977913198,-3.6967396008,1.0004880608,-0.6457117461,-10439.3611943282,-1.8546675541,0.2406621689,-5882.5567551221,1630.3533802946,-10878.8398351576,-1368.9588192742,4238.5217283667,-470.7968195076,-8237.9644441015,-55.5735945665,-123.5409702143,3792.8401050117,-2.7746158666,0.2227361928,-11914.4809046593,1397.1090920206,0.0600069319,-0.9973413678,-11308.8789362491,1793.6035716568,5919.0451988493,-1287.2492239201,1945.75912192,-3347.0701165887,8362.737861621,0.8361009062,0.6277913303,967.1225806251,-0.5885889276,758.1480737898,-6.030394307,0.3280552385,-18160.8236555736,0.0598916285,-0.0854744369,24.3069023142,-683.3262699435,-1029.4087584169,594.8158869557,7543.5437518011,2944.3551250108,-290.8961280915,-7575.6120867961,-8613.9434617277,-160.9966784141,33.7422629183,1431.1461580872,-4738.21647534,6.6988450492,11308.8268992498,6577.642952281,-480.1051216451,9404.406491641,4590.2398998302,-1007.3301235653,-4154.9708255509,3172.4416241457,5254.6631660524,-5935.7576935767,-8985.1629523554,1413.0538777083,7731.8968388282,5545.6829292072,-892.2163905506,-0.5300675211,-3517.7918271765,0.0288405797,-401.698587481,8122.1512665209,1.1400161638,-1.0238717358,0.3196202471,-22739.916382956,0.7553435433,0.7180571814,7629.1315666314,1.9222360697,-0.0840741069,-5290.9297600625,-0.0047915507,-2868.495280367,-0.5168825604,-22740.4237130055,0.0054966181,2982.831838384,11696.2914020887,4010.7519898539,6337.8838857516,0.3446982872,-856.1335931459,-3.8823246999,0.3026694827,3.3743536574,7.9219813029,0.4537945123,-26819.8096106819,-172.1000229008,5437.5542093419,-0.2400492345,-29550.7152059065,-0.2085650079,2.5967824642,10806.9447756769,3.0181021864,-279.16023324,5271.6355906772,0.3601964757,-0.5348101867,0.9254340516,-110.8501996183,4541.7548403342,1986.5229265984,-245.7819269642,-5371.2445336074,-8.5016716287,-2734.0385436525,-10991.2785053507,856.4375396699,-472.6192777485,-8376.5263357026,-148.8617695179,1347.0589135953,9513.4387709512,94.519505808,5626.1978445828,-1186.4223258124,2937.8128208704,-1878.4015603591,45.1190855598,223.0880116333,-1693.0649859247,3931.3984401908,7764.3500567113,2136.1353896857,-7486.5926760506,1342.7046388884,7285.1157130092,-3083.3010940972,10437.9089238649,-11475.9054532552,11156.2238717088,6593.7330949762,-11699.8536398092,-171.0547494383,39.6414131888,5761.1955320609,-1184.0085709126,2.1596384362,-8482.3978374765,1298.9278255819,26181.6118559571,-2906.5715483087,1226.0197673927,-0.3351033675,-0.3350724821,0.0929607869,2844.3268073578,0.6645838612,0.3180055284,-2003.0265204994,-0.6326646262,-638.0783147269,2095.3467711559,-0.2773406469,-8296.2566353769,3826.0923036934,8506.7798131266,-0.4559061876,0.8170060996,5761.4505677777,0.5026035393,-0.3359298897,-5844.7557306144,-0.3146072251,0.3162529673,-221.6020173368,-1259.0827535221,-0.0066905965,2.3508662018,-0.300479045,-10164.6536925652,-59.3337116385,441.8786862667,-481.1117558282,-0.2888063673,3.3573893254,178.3796363349,0.5467376643,-0.152385769,3098.6902943375,0.470891983,5.0581267638,2533.491732512,0.6022410628,0.4543689011,-0.360365938,5614.5959927565,-5.5422012235,8025.3028612072,-0.342550061,-2846.6364866011,1066.1613967143,12164.1890725021,-11169.8805857743,8388.7025930101,-10436.3552047914,-19.6507387059,10824.5534207996,-12819.2122407145,-0.2616624093,-76.0919436774,13.3797892572,-6384.9802404669,-262.368650436,-8759.0512307964,-20474.442708514,-4782.2946433918,-9824.9727457892,8228.801407087,-10006.1969345787,12954.7916351917,-4327.453514567,7554.3271727984,-4439.1860400252,-4501.5227992294,5622.3668998498,12227.0137859032,5392.1265390804,-1.1110797885,-1.3373628032,2950.5531324193,-0.1735779579,0.4968391612,0.7888125602,0.549611993,-0.3044145191,0.8983924809,-0.1781551125,-3335.3050337128,-4903.6623810908,-779.3085894109,-0.9128404455,-1.175902866,-2.2616693686,0.2090014169,-2084.4321259659,1.1053460885,14372.4766329109,-861.7523325599,13361.416791734,-0.118563454,0.7288810486,0.5971675236,6501.4515734414,1458.3703170282,0.1455019796,0.6476742788,420.4560112348,0.6429562991,-3399.4009087256,-0.6751068122,19735.3817394126,-0.0185889914,0.6344822189,-0.903278499,1.8887234466,-14204.9883185168,33304.7428588052,5886.2959402245,0.3495454883,3870.7645775964,-0.7676746865,1.2025216759,-33.0464317561,-1069.1176102747,-4414.7418498092,0.9837773559,6342.799384645,-19464.7748706662,-568.5104024865,-5268.1552662469,736.699502941,17255.2224503573,9671.9100507799,3528.4877639902,1.8340925817,-4994.4744043976,-7343.7038920346,1417.530615543,-2623.2842967275,-6056.1560840859,-10085.7053072835,-2456.5870444501,-776.0177636197,1152.5561682759,-3335.4577826168,-70.7492621209,-1021.7417731645,-2345.5693001292,-4652.5107314649,9735.7020002668,2606.7237433373,3059.9800333155,-14928.9302710101,-871.8633511826,-508.0961873665,9660.4307658303,0.4169927394,0.4914930361,-0.0540611577,-852.5143041425,0.3367408194,-15841.9338931228,-2930.4825110213,-0.0621324998,0.1615457806,6196.6836997435,0.8404586803,14672.7327751702,28.4116056537,-8766.3484649092,0.8142809148,0.5470200836,10068.4182199282,-9754.6254338473,-0.2998255804,-11515.4406772937,2313.8356282576,16.9881438492,-0.3901056362,-0.0159052722,0.1912042587,-0.4326966133,-8554.7276847501,-3946.699435366,77.3924170075,5704.4545125479,2196.8457710964,-624.2429573844,22025.0744074952,28998.917439942,0.5765741213,-10098.3914924254,-1809.9638855602,-18042.5156315086,0.4989673285,2684.7079293851,0.9959235512,-3.7872557125,0.3834142965,-0.3299057352,-0.4615387401,111.716010845,0.1773881358,147.2171500567,-3324.4835021613,-0.3087035658,0.2493157846,2254.7868333128,-8557.4220403757,-2957.1247133427,-5.6654535527,-11241.913623206,20482.3714644008,-160.5113123304,-4643.1298028921,16081.3375157945,5185.3152634798,7629.7887122076,3232.9081348146,522.6080416717,1721.1378892747,3.3832414942,-9510.8771795745,8736.8590683163,14547.5296148772,-9219.6368416867,-9051.0263593427,2391.4798227354,16389.5270299961,-6719.0012799072,2359.7108794947,-6696.4843516288,-13.3250374209,-6563.2949478954,-2813.1308612122,9095.4990877039,9840.1891099644,5405.8619188912,-6811.5683394982,91.2874190779,-3531.927998918,1133.731822601,-663.7618803473,0.1132010834,-0.0262957596,-8781.5566299832,-0.1807863033,0.4971513623,-0.4852467873,0.4222013446,1.2251149287,-7.5466950621,0.6030871903,790.1251957949,5.3780774759,-8781.2914598225,6414.5114866316,-1.1420463348,10328.2875748038,-1.3087198772,-0.4554706881,1158.8201043427,-3922.9575909831,-2178.7103732663,-0.5656666898,-5146.6533916432,0.1723191948,-0.6505470425,-0.311587554,191.715338762,-0.7729980303,0.6864035114,-5951.0084071163,0.1743509541,-10052.2516689161,-3621.8635805857,0.7471101218,-1.4153665856,0.6264031203,0.8166198229,-0.4093908545,219.6757617508,-0.7433051162,-0.4231291666,14904.5303699197,-0.2672822058,408.4377240663,0.6391569026,-211.5766390824,-301.8988784265,-8388.9543358777,7009.2410993018,291.5186097528,3824.9452076536,-5048.1171504888,493.1213723057,-10316.7343733339,2755.5116726769,-946.6160997365,-21.2067975795,1090.9256555823,-0.6409744008,6122.7104240529,5684.3087926282,5904.3803726186,14118.0412511083,-9676.2901699712,2065.3090432565,-855.526766457,9878.5259603292,-5469.7543253684,77.1757641938,3473.4634291031,-19247.604811015,-3827.6183498493,6675.407616266,-10698.7919685264,3579.720832953,0.2596804412,-1.4737838681,3537.4166556387,173.59472315,-5984.83813897,-1.0842946206,0.7277157262,5144.2984622315,0.3176343178,1499.8906445086,-0.0658718932,2202.1771051514,0.1740729149,0.208168559,8.404189353,-0.1972877076,-0.428558338,-0.1510907937,0.0319936443,-17275.0912770679,13574.8537326229,-1.3488535871,-13123.2415955841,-0.5750208324,677.2754154747,0.9831758909,-28018.828340925,0.0189342049,-3596.4311120881,0.682426871,-0.4157671857,-1929.8736645285,0.3444415669,9098.6852442082,-0.6372032967,-594.2135365084,0.2871369572,-2.9374493236,6091.3421443864,0.0842682734,-0.8756929782,11.5698801805,1.018532378,883.3956712317,-26488.8749906728,3061.3986274591,-2.7962128397,-590.4365743724,-1349.0315565571,7845.0206499211,-0.6420722583,888.0955216305,5213.8371590647,31.8687416466,15510.6281940926,-1805.8195170989,-8522.0089348629,9945.7267392669,6868.9037213494,-12.6656654635,1230.4768284263,6049.5435874647,-9629.9412109514,-1050.62392017,-480.3152996038,-12941.4564442939,3323.5645333028,4096.6181336044,-10642.7300392286,5490.4337625374,-1574.4071715639,-2792.6371654486,-3465.5125241574,-7092.7622934315,2528.0975173868,1953.6755016506,-18790.2544470311,-10939.4356835982,-7486.4322010613,-4973.9281758727,-2577.256157687,-2981.7437282688,-942.4075689909,-3.4848333975,11182.5252323273,-1.1832776027,-1.0148670869,3108.7294330018,-0.6527389213,-1.5291419061,-0.886093433,-0.9949713275,-0.8068946212,11289.602187119,0.6444274496,-1.2073684121,0.5309176495,20768.5446238738,0.3117927777,-1.4421897644,2035.1738023649,-1.6178758379,-8991.024278419,73.6023025266,-0.4158357001,-1782.44344497,-0.4990008107,9937.6324738989,0.1500279104,-793.2390541189,-9.824327585,683.577545421,-55.8384594394,-2768.3882430981,-7925.2078694666,0.5037952376,-24012.4998195211,27824.0602406764,-1.005911186,0.1000166393,-1012.1594688568,-5110.4409436167,-0.2057172682,-1.1810980944,0.5399350378,3983.3655990738,-0.5806445777,-125.4326680086,4911.3025259708,-47.5393993557,2363.4542704566,0.2279849289,5277.4293301073,5748.9676897117,-4295.042308394,-2211.2528995417,-1205.5458447458,983.8378532783,239.5190587504,-3239.2166202217,-10637.4521287898,2642.147689485,8167.806540323,4547.8078449708,-1528.6968951797,1685.4170058161,-5408.9322783598,14995.794654347,3626.744551071,-4158.2561757728,2241.1052976595,-3343.1648290278,-2210.4403087106,1.8106795854,-7613.7054386636,752.6259676859,4720.4465352376,-15495.0784976897,2537.9850941974,260.6748094645,-5288.4751096535,-0.6598006744,-0.0966677694,-7.6721818297,0.1994575967,-3546.3188754294,0.6352735546,-4503.5609420566,-3.4127525643,1113.6805916729,-0.1859617189,0.1613811303,0.5165024998,-1.4337529517,-0.4345581595,-0.6242685666,0.8934343421,0.6626709472,-317.9532505107,0.594156165,-0.049608905,25997.0848089006,11.1580612638,-0.7547439107,0.4895389668,-3.8289390132,0.4263864985,-0.372694797,1.4778217543,1.6068748049,0.5420999724,0.7590118177,-6.0373257167,5538.1557219579,41.3403732755,4374.6331796693,0.2420359292,-2446.6354773309,-0.4821385536,-12.9456539102,-0.2175610444,24942.6828527443,0.9571866502,-0.7973632903,-6940.0059009666,-1.1738628656,-11.0374166166,0.0465143465,0.1484387122,-6309.8634829925,0.2611056852,-1997.2154688289,0.8022720946,-1.3858998594,1797.9615717824,-961.6268733761,-7685.237322953,293.6003171712,-998.6173373853,-22723.5294674062,2879.4211409741,598.7035569444,-408.5507303645,153.5175548918,-4630.6555585488,-6721.7071275522,-0.9121645562,15.4768431548,4544.2153062299,5765.4252241148,-9387.6493703466,4314.5525118438,3545.1720336943,-5296.7591957849,-1702.1124200228,12451.7331684894,-4.3304316907,-893.415111413,3372.2770450951,-4289.6768701366,2570.500486178,-1536.2516131408,-6725.6919715053,16080.7630232367,-9289.9000070529,688.3979485027,8513.0855680051,-1069.6928772985,3329.6488617337,3.1399287074,-2673.317152586,1849.6868567203,-944.9504683641,0.6205969695,-14655.9829999446,0.0952750639,17946.8609578591,-0.5231703668,-0.8623928261,-0.8096614235,0.5115545708,1848.079081475,-0.7411901642,-2485.2950319945,1144.6168111899,-9.3252335703,7404.5543415843,-6757.4155447786,-0.4696935356,4442.1500225045,-4213.1790290126,0.9297365302,-7636.4732548892,-3776.1830147915,-2.8090385041,7958.1423866979,-9716.9630525864,-0.4647750241,123.8285942442,1523.2714948539,2767.9373515265,-11983.8468478869,-12114.2665521394,-651.4757140908,3.7017352491,-5749.4121754869,-0.5940067306,0.1350712298,10599.1329161358,-2.9245720997,-2885.8407815245,486.8808444188,1751.7527633967,-0.6393045116,11691.9273284449,61.1259507547,-1.1314202145,9352.5827415729,-21504.2302882918,1974.9698326262,11620.0100741477,-6506.3995590441,-1778.5807559769,-14097.661316156,-11064.0901457816,-4681.2061446409,-3012.1005979337,10168.1725509501,4806.179850245,3620.7495344903,3277.5588924907,-1861.997318714,15791.1254972172,-8324.6526365445,-6219.7925240513,-1773.4153457436,85.6716629852,8060.7379841424,-3720.9384343075,1010.2656330624,-4121.826700393,-381.7607216359,10616.3952120221,9094.8625310775,-16578.1869241458,-150.5621778042,-3.2158283984,-7.2888197809,1309.9108497697,0.267821566,25898.4505379524,930.9213927244,-1.1214981571,1.4499135918,-0.7965583055,0.1977671058,30343.7493627839,1805.4376975172,-4001.6207441659,0.9073425384,0.6917042175,-5877.3061066845,-0.1577729054,4.1358213389,10999.6541245579,1676.3412931147,22293.6805378407,-0.2655739626,4111.7701353769,-72.4996369237,-58.1954613869,-0.5379489818,4.3758816934,0.8203508508,8025.3506263456,-2.2114022845,0.0855868287,2052.1665910592,-0.1839299568,-6662.9863625669,0.5717517648,-4285.411730556,-10.9376690914,4307.8345494086,0.2143454394,-24937.5213458318,10353.6467196426,-3009.1547132088,-0.8703621683,-654.1874773081,-0.3781381435,2026.3789704943,-6408.3968664281,-6100.6097650038,0.1507130379,-3955.5488709209,-1647.728533652,41.6555692793,5421.1559767788,11068.7608015743,11042.7946042998,-1133.9068972463,-9416.9773923742,-4520.8282472709,-2987.0516098356,-2762.9473510997,-660.7200159832,-3778.8181823862,-9523.54447245,614.5648986251,4786.1531379047,0.1827754232,15857.9884132861,5311.5626942873,1998.1882323213,0.2292101951,-3472.1670424162,2320.533508509,-4198.0105714988,-160.5459147354,773.8741379007,3922.1067014052,7594.019444749,-6464.1922934547,74.320558706,-2200.805211926,0.7580106874,355.4849495197,2571.3372744588,36.3010388425,0.4369802844,-586.7647341546,-37.3605982723,-21257.4490244056,-1.0201837758,-0.2175305834,-8283.6159206338,3302.881904257,1219.0710843935,72.5490708214,0.0928756273,0.7740061423,-0.5307666228,-21256.7471739488,21297.926037764,-2734.2055510293,4075.4378308454,-9262.4137924865,-0.7242957291,-0.7175299663,-47.7247518244,-3204.3437064976,70.8059834242,0.8915061317,9657.7941021548,-0.400867532,-5052.300975375,0.3095236124,1.0250253582,-0.6008644821,-11677.9738698474,0.9204467465,1.059417803,-1.5009992549,-0.31338794,-3.1964925214,-9337.832457727,-0.8424541354,-0.1735920509,-0.6339900226,0.4945652337,2408.0077751857,0.1615764979,-0.4879347535,0.4471854759,-0.4326090254,6095.7436716308,6997.444410128,11088.953754081,1190.8225452799,7.3453123753,1900.064448428,10132.0587619707,9471.3417082351,-55.7607984422,-13665.6885431631,-0.352979656,-5612.2978432641,-14790.8740009636,-3125.8840500979,2844.6509576867,1653.8797255648,-712.7892115713,3616.8449342243,0.2836079783,8280.7750621222,-1347.5239769946,5903.8912960642,1083.3610856041,-4026.3582277805,505.9333928619,-7790.9462556201,1951.3098718317,-5667.0555195327,-1169.8710827277,0.1937406943,3736.3468590591,9145.938459322,53.4107918246,4204.3879993873,0.1246519338,0.5408067353,0.0741090826,-7879.0339841448,-2678.1403951481,-5128.1025994589,-0.8947571565,-0.5344637324,0.383986972,13.8387934141,-0.1077703714,-0.4332043869,15.9892779042,6495.3904752022,-2677.6453633513,0.5304120558,4240.2432514958,-0.2706528425,-4185.7570996382,814.2004601902,-2182.4349177843,0.5047185232,2.3523101021,174.970713876,-28528.9975983193,1.0237377496,-20.7059318171,-0.0815302459,-1853.380620301,-1.8699917018,0.6067448898,6321.0370935743,-6097.5591335641,-1417.3882473174,1.1357995445,-2.8023077287,-4289.1603933622,201.3406093671,28.354236265,-0.7898468131,-0.5532032172,-0.2943249006,-2792.1699893907,-14490.9897265622,-0.7409589933,0.5682707606,0.9811343875,2508.1947441706,-5656.6253325077,5180.2762981134,-6624.6690175694,2027.2670546735,-1506.7247940149,-1181.9305394725,-9696.2834966133,-1390.4745164452,-3922.1686097208,-3.9633235915,-1607.9536991752,1.0111422163,-3484.9367715029,-21535.0262408534,6377.8177966144,1751.5545653048,-11762.229841837,-7640.3698225556,15935.5119016986,-8281.7324339029,-277.622129663,-4978.0445085233,-426.7114794973,-6583.6823845851,-3048.5303536662,-7.2595313892,-564.6452337635,-7611.0482146672,-6874.8041110534
##end
biasActivation=0,1,1
[BASIC:ACTIVATION]
"org.encog.engine.network.activation.ActivationLinear"
"org.encog.engine.network.activation.ActivationLOG"
"org.encog.engine.network.activation.ActivationLOG"
