encog,BasicNetwork,java,3.3.0,1,1425340431546
[BASIC]
[BASIC:PARAMS]
[BASIC:NETWORK]
beginTraining=0
connectionLimit=0
contextTargetOffset=0,48,0
contextTargetSize=0,24,0
endTraining=2
hasContext=t
inputCount=11
layerCounts=11,25,36
layerFeedCounts=11,24,11
layerContextCount=0,0,24
layerIndex=0,11,36
output=0.2466972407,0.0227747664,0.0324538974,-0.1399549664,0.0508241761,0.1445874815,-0.1732730941,-0.0942031374,0.4076300572,1.2796800775,-0.379532979,-16.0597639183,-16.1965752313,15.1299263933,14.3073683739,-15.318011484,-15.9532396835,-16.1030626757,14.9509420057,-14.9975967318,14.3519571819,-15.7874237797,-15.2398997926,14.4950542294,-15.4432621665,-14.6687010637,-16.3996509551,14.0666979108,-15.7086460837,14.5456599576,-15.7610293227,14.0404016999,15.3064546596,15.5070599939,-16.0837464881,1,1,0,0,0,0,0,0,0,0,0,1,1,0.2466972407,0.0227747664,0.0324538974,-0.1399549664,0.0508241761,0.1445874815,-0.1732730941,-0.0942031374,0.4076300572,1.2796800775,-0.379532979,-16.0597639183,-16.1965752313,15.1299263933,14.3073683739,-15.318011484,-15.9532396835,-16.1030626757,14.9509420057,-14.9975967318,14.3519571819,-15.7874237797,-15.2398997926,14.4950542294
outputCount=11
weightIndex=0,275,1139
weights=-0.0051986943,0.0027325385,-0.006297094,-0.0002732772,0.0069927111,-0.0081272114,0.0081868651,0.0085418584,-0.0037800433,0.0064816177,0.0021266187,-0.0030905024,0.0030987863,0.0024419824,-0.0083875135,0.0117607951,0.017055742,0.0108155505,-0.0042998175,-0.0031740678,-0.0009857796,-0.0009712658,-0.001372228,0.0029870586,0.2281535087,-0.0020310868,-0.0024230481,-0.007405175,0.0171448834,-0.0054382853,0.0039616757,0.0108331391,0.0083125729,0.0117117527,-0.0135185464,0.0042187786,0.0060910435,0.0038551786,-0.0029509721,0.0043235595,-0.008755848,0.002650245,0.0063196076,-0.0225070532,0.0139357689,0.0282387462,0.0092825035,0.0025832601,-0.00805746,0.0959828559,0.0160823451,0.0032101948,0.0060354921,0.016886419,0.0068423941,-0.0046820149,0.0042066361,-0.0147695204,0.0061953021,-0.0107517599,-0.0088583979,-0.0049539983,-0.0127318354,-0.0038669204,-0.002432351,-0.000083248,-0.0156808502,-0.0113921843,-0.0085165464,-0.0047685739,0.0182711398,-0.0166257914,-0.0067680544,-0.0201461151,0.3173648638,-0.0155523481,0.0009901319,-0.0078444908,-0.0265907014,0.018415319,0.0097363614,-0.0319506698,-0.0196816572,-0.0004451103,-0.0183609981,-0.0063912104,0.0065632958,-0.0039416046,-0.0128921819,-0.0135625898,-0.0047267875,-0.0018320657,0.0064246574,0.0019148408,-0.0157889651,0.0132872203,-0.0055874372,-0.0112070636,0.0079420836,0.2306334286,0.0005295719,-0.0009196999,-0.0057007422,-0.0016547428,0.0035886676,-0.0007267111,-0.000749221,-0.0012990402,-0.0006287151,0.0309217908,-0.000808523,-0.0012814466,-0.0003185028,0.0001887174,-0.0019955989,-0.0013067787,-0.0015416799,0.0005157803,-0.0009220661,-0.0018515678,-0.0275813971,0.0029760584,0.0005826368,0.0005367995,0.0317290677,0.0111916573,0.0054680885,0.0029603882,-0.00465243,0.0009866857,0.0082744465,-0.0015006062,0.0027145911,-0.0188737933,-0.0074392789,-0.0047676407,-0.0071792733,0.0207382733,0.0026127763,0.0048089803,-0.0033560515,-0.0186318619,0.0131988046,-0.0022765978,0.0063928755,0.0062130958,0.0079190606,-0.0005301617,-0.0071378621,0.1995739141,0.011884544,-0.0179875927,-0.006796314,-0.0160675154,-0.0017233203,0.0029714809,-0.0025231108,0.0004491584,-0.0037191516,-0.0203323747,0.017378365,0.0030783315,-0.003702769,-0.0043870699,-0.0034430565,-0.0116377314,0.0089050076,-0.0062493559,-0.0035392803,-0.0034669891,-0.0078766152,0.0056972696,0.0173913695,0.0119857325,0.0543684033,0.0028281836,0.0066912621,0.0193924602,-0.0348857353,0.0014108543,-0.0047564019,0.0151397331,-0.0018618365,-0.0099215975,0.0378561729,0.0003318783,0.0041436049,0.0029273917,-0.0108216279,0.0077217794,0.00669372,-0.0032428345,-0.009958594,0.0214673261,-0.0017410328,-0.0339913489,-0.0081065788,0.0111941137,0.0238674795,0.2335481309,-0.0108739757,0.0036349643,0.0055031528,0.0199912207,-0.0049215005,0.0009138711,-0.0151414234,0.0023189408,0.0043648349,0.0074627446,0.0021893063,0.0062900899,-0.0039721916,0.0124287327,0.0090238283,0.0062807308,-0.0010934356,0.0005593999,0.0075650845,-0.0050069504,-0.0128095902,-0.005332581,-0.0037535526,-0.0161791779,0.0516263618,-0.0169935324,-0.0072292876,0.0045990617,0.0182394664,-0.005033526,-0.0010767624,0.0084241668,0.0137587023,-0.0024678918,0.0111660221,-0.0069777136,0.0132891844,0.0136871816,-0.0064991144,0.0068138886,0.0139167864,0.0032176013,0.0033373576,0.0062348748,-0.0028369778,0.0046038906,0.0062023144,-0.0132189493,-0.0039494088,0.172970381,-0.0057459271,-0.002341427,0.0037432743,-0.0028569442,-0.0099839579,-0.0040874336,-0.003262325,-0.0022174887,0.0166034825,-0.0101297982,-0.0023542531,0.0007578517,-0.0224266125,0.0190487606,-0.006548615,-0.0000029386,0.0119031087,-0.0079028499,0.0009730516,0.0110968621,-0.0021834914,0.0029945144,0.0030690526,0.0214108386,0.2796623657,650011.3580261881,-1483993.6650889923,700934.8249329082,-4489311.433574276,2668873.1921811705,1981889.77738239,994939.8315955971,-1825887.5421263224,2532527.772288607,1242203.1729604953,-380494.8849478756,36392.8464074849,-129396.0542852462,127153.709168647,-99174.0181276595,232140.4101029376,-576969.945701394,-6933.2536280444,-417369.8784427533,696058.6287849029,-318170.0540241345,-332030.2587819598,579741.7945470328,-266268.0906515359,16101.0767247875,114129.0894222512,-55678.8879603275,61433.5785915045,-98266.9995088426,-36317.4231739052,129915.4533009123,-35702.6359426783,7439.69090174,-19113.0570781982,-1327.8220808444,64492.7049434813,1824168.3446489004,-2971690.73685092,760342.4972276955,2675652.467842454,815308.3117459647,909009.7144313406,-983798.7625410113,738421.9944528743,-6977414.56168351,816105.4046791729,-3209313.941323909,-133255.3986750696,-242785.9890873214,-240969.6115402845,-307292.3139493089,-534276.3088912948,65708.500190161,-752665.9783121895,181781.6369892244,-175004.9431193191,507263.5250617157,101791.3875641086,69157.4091561844,-89694.8748463926,-136771.4711453118,-82149.1380616279,-59233.1278930405,-36444.2663067049,-48731.2520217337,-187299.5819412383,-1662.1468926998,9598.3051100983,45236.3612776822,-53916.4145721088,4849.3678960423,-38021.2489614164,3503431.5508074984,-491322.319535,-955291.3651364252,-4860626.048986258,3922419.140043766,-839588.8896724252,616128.2684504924,-2872270.9849546296,-448272.5557921825,4515744.437087896,-1083121.8708768627,-66710.8218619403,50366.2019783789,-52633.2088329345,579258.1655912889,-373475.8341905826,-509352.4583411632,674834.5453330581,320401.3031379801,-55791.9624703177,579163.6249226908,-458751.2160846482,128881.0349438025,93224.6514719189,-144096.3754362562,-140106.5019680023,75943.7358865441,26283.1921662551,-69199.9642238117,107840.7317555194,-113512.8517060648,-168751.3058995016,52317.313695697,-15212.6841800163,52095.8656988165,-111414.6983984912,4687434.745084449,-1099350.8582295736,412398.1312477845,-4591634.470100089,3838007.1442209953,2575085.0069673155,1788523.809271686,-3394025.9535525334,-3272486.087800618,-692601.6742810155,195753.7072560234,168882.3877048637,186173.090486993,-471131.4849029976,-94977.6195509948,-420651.7752137144,736742.9764371084,197795.8313658256,-163286.8082258522,660676.8985186865,757117.9136731975,51141.2834020847,145090.0519875647,-44304.9089650241,23981.2757251241,123253.8421233365,-239583.1317152883,-127.3442200308,25567.0059879177,-54224.7205129694,133140.8466442794,112340.3393669053,-67700.2942913838,12424.6665251529,118529.2232412741,9736.2911528906,-3223503.790933282,-1703472.6097050023,387121.4668886798,-442627.4521440518,-1833470.9401827105,-2349762.0317625655,1742583.198735945,-832458.8455802463,4635057.43063049,566499.6834270105,2501357.3726874758,-96423.7896929676,-59937.9946634087,-246392.9294080577,-29114.744467515,504057.9231794999,-175900.5783465439,96261.1785594322,-86757.5038596618,1098919.5725994217,-10681.0060859165,281641.1715296154,-121486.4803118784,40496.56198169,-37948.3543819935,16566.413161203,-98647.7991210738,-178108.0953815481,-23215.1373642141,-4507.2859455584,-4751.0181118397,-25446.7040601796,-6514.4210325194,-52535.8686199375,52097.7613905252,104549.6020818656,1725532.9710470673,-1974654.12059411,1625646.4596705227,-444212.1812799926,-5332329.03372797,-1634489.3630996766,-746251.6451330937,-1042013.4922467673,4410071.655731008,570694.6642105095,1031425.0987399446,106313.6469112718,124525.74980797,120648.2468539842,107341.3693516557,505924.7839422674,-317855.3593949061,-128898.8774931281,-185044.2408812351,385409.5045061664,-26913.3130734247,264916.1466702314,-164666.8805587027,-28854.9381547534,-65493.4434910426,50935.5884906736,30881.3363333532,173969.9599209144,-272981.9499172841,-106262.8026884639,100622.1446475112,-63429.3609159591,-17550.9542749227,-143376.8217335718,-103273.4237153972,16061.9629855272,-1389021.4470946204,-1451808.6534257007,1105211.1437501053,2448098.285762193,-1725672.0572570912,-3287199.9847111315,-3299718.109260769,-949355.649289985,1704744.5547861496,1346694.5245795378,2652833.2315884978,83562.0593756495,569454.630813001,441174.7424919416,-190827.2562239948,-529785.2426802022,172738.9750858893,-1006306.4913343978,-254125.2078105259,273708.4671971286,-292561.5023709197,302761.1285520113,508999.0665468083,27451.7346227407,-232934.0956761342,19228.1318344045,-29917.1571512033,-44236.9824389674,23790.0503261105,-210221.2222086367,-58858.9446304496,-7577.6180531042,60470.2584739023,-144553.204712641,-90419.4629529153,-48522.9952683175,263134.4044025177,943393.7552694291,1510275.064085819,5197119.795815545,1005834.4231792327,-6229286.439453263,1460129.2113317098,-2951820.532249756,1389964.8315751643,2497961.3763606,-3213229.3381507434,1871.8103990619,346108.1338547975,1011847.0933620548,526204.6629692481,-723566.7611111436,-773559.2821278878,405079.7527134508,-559240.9912426327,-279459.1751444681,-46410.0616905228,279033.916635059,216572.4989798168,64271.3448070032,50786.5770821173,12595.9306040579,-24766.2586524663,54087.3645146026,42026.7167175134,-81668.2106789885,-234121.6724183437,49059.3668846449,142407.0474327903,111155.3233282095,86254.1204524066,-88418.3952945958,-3740280.865445068,2581972.779834569,-285995.4162112356,1031192.9062512576,5156486.416674329,-416245.3948811217,963967.5174924817,-400849.1652389416,83704.985148545,1702760.558243852,-2280089.6454549944,7587.7394301272,281241.7528874356,389213.426601636,-550706.429840675,-968008.1898805049,-39610.9202701428,218307.0821420182,-393892.8467701448,478070.7152619615,275374.1908130142,108039.4717742817,518671.4171500266,7219.9835517883,-17555.1446941927,-46448.3863377513,17452.0518507574,159690.5705025714,68704.115260184,-28239.6006923649,12391.4613044798,-135248.4129774125,20563.9831879611,48850.7716520371,-97079.6020677182,105407.9102835452,-1278489.1929731623,2814357.6420959756,-3509045.8120390275,-2230214.1743585384,3666437.4168163114,1804268.4055868401,1383215.8134942525,5007169.181775532,-5166181.404934472,-3388.696345798,-3111939.120182523,-133169.7801532991,-224682.8352702363,-330549.5506263479,-1015408.04744576,-379046.161215288,-46321.9119607645,178623.3265280906,-392043.6146411651,69002.069834545,22249.8519275095,81367.751546581,-185934.2463277065,115532.4172539351,68487.547746145,33005.0036976945,-124811.3553053646,-63552.0519289218,20605.5664177943,254462.5826776389,56654.6595290277,55247.1633911071,-231710.7314898925,14851.2275647577,-32787.193936616,2460.0402515703,204723.5026916302,3599047.895922786,-4759305.702293888,-3951503.9608925683,4812407.69154594,-1151307.1971327967,4178172.649958632,1726020.08287288,-1651908.7760650746,590221.9432025006,2126444.2918763272,-89418.3111659022,-63680.6360081191,784634.6436004362,563285.1945430803,739184.1718491742,-84438.5420311125,503804.8095197156,-723776.5046616731,-17391.2935695635,-120273.0131727032,568967.856643736,120447.2334052237,34488.9145137693,14862.1363630638,45434.5789378506,-60694.3406977252,-48370.5582139839,-24369.4164590116,-172045.9892220092,54881.0171973955,-124747.5251199353,-158124.0265178598,-146567.3131676684,-138642.0281802869,15032.6050062776,5493467.037143902,-2014455.1848353215,1841053.5352614736,63671.785469475,-2307725.392743832,-689186.5519765341,3929828.505742969,-3299039.628973458,329503.9773861931,-278832.461775785,-363505.7499796125,10332.99655,-204447.6010927078,-43508.8161577646,401911.2797660084,-258041.6226550387,-221390.677797642,-86129.3285879283,663505.7523233291,207592.203795228,-33640.5105315839,-134699.0942304628,266229.1608394582,-146163.0155084502,63235.9782278127,149486.2494598971,48130.3450412456,-141407.3525736153,21445.1354100746,60527.430304739,160843.9244608584,-35525.0359559545,-87003.6515433963,-75403.8140292171,-247510.9762092373,109826.1499990219,2001006.2093625378,-575070.4614572545,-1549172.8496499248,3754792.527056656,3402106.1642510947,-24100.2056583718,1024993.1660738471,-582152.6970963348,-2142425.869308435,-1843221.2230483005,-551383.5662459274,-78443.5460708981,-179793.3567261621,-244933.7167689813,-200448.0942813705,440706.2405324281,694666.722759487,-36689.5289076215,530518.3994765598,-568826.8965541583,-18917.1018683561,378681.3606560344,-158285.7353133097,47174.395008974,-45185.2669211753,-16363.4102606498,-23374.1277234549,-49650.3388467547,-21972.1401648956,133745.5944087959,-46399.9827317581,33325.198594048,-66964.067960052,6163.3818710929,4746.1747658066,-170524.0038741202,-1101548.8747124092,-3721796.323638827,3475793.5216143844,5356316.60146158,-798688.5640608341,-9488578.910996195,2044847.425200338,-710371.5118387948,6347219.601644318,-1771154.7929032983,-1060189.7887371206,66170.9801968592,-87439.6969484677,1838098.0588965372,406121.5681299871,1183067.5161407238,-18232.8638354464,-888192.6307948701,-205315.9433910171,457476.8052950725,-322272.3456755444,9647.6150932436,-1116605.760169863,-21301.1068861488,1888.6332735197,-68204.3999312537,29088.4092690014,37793.8350862932,-26765.9238051448,62500.7292787179,32177.4694690055,-108987.250698598,-18991.66198378,-107933.032674456,22738.6745699207,-100534.045859742,-806349.4798462813,2948192.050628368,-2998588.6422602255,-4231553.926195476,-3384774.4839775926,3807617.119253799,1769592.5133135715,4653738.907541361,1332554.5085042643,-447830.7371637586,-2617703.028328832,232271.6348140366,482141.6129944159,-147469.1296556939,-510841.0575599028,-519162.1895101944,1084402.339564235,-758502.546647838,310347.2296586252,-752151.6169606658,-992502.1311144413,-74183.5562513977,-161299.5552033263,55980.0036298773,-79218.6269728476,30618.5121951435,-44741.2248944147,-121909.3673394901,38837.5891438292,-50952.9478371793,-83213.3450908721,123464.3393509744,-42273.4911498455,102759.9836611742,-427.588999318,-77487.4107398716,-1749357.0950385213,1835532.6044080332,559142.4248511132,-3419149.676281737,-5214807.338537129,1125120.472965018,1937851.9769963978,2150913.6716796947,354552.4852073887,1043321.9739417334,-2238216.042242941,67524.2504512503,1077297.9859778176,-305403.6820566021,-19977.3290511175,-1168665.1304272825,1269403.9825478073,234581.7948797317,-542846.8451692141,-590585.3098120881,-364080.4320693073,31672.2765054772,386156.7338121639,-68613.9821140616,-1815.3801005007,58001.3542200925,5612.6001299078,5144.5220612292,7638.387567806,-140879.4930509405,133963.1702538723,-152854.1251794678,-7512.2903356193,-59923.3466983994,-8343.7954295074,-85065.6045193114,4582758.860310248,-7896383.089410751,6238475.18801158,-900366.9545920113,-1710652.5980943807,-6516797.024230726,4930720.324964627,-1354986.7887879882,-11528624.324695481,3377939.2446680916,-826609.2250285049,-118649.2278073118,-2154789.4986336133,564807.9567212643,304188.3658889502,-111065.7933811129,3254040.630626758,1504379.1765883544,-1480139.3008114498,-157310.1776600846,-536354.4031530456,-562305.4816537113,-804480.9293611237,-10669.6612052551,2714.9936757801,43727.8146553122,2260.8370960186,76231.3774563927,-23331.909224692,3430.9445224433,-45973.7749920226,63477.4487580348,22932.623824036,-34091.4583318858,-4826.2016466008,-19065.095462237,-1040119.4931230618,-495528.6454507401,1213505.1333741897,3352054.7265994176,7546033.710007952,-3075919.5913198967,-26235.534302752,-3135502.962806199,-5274291.832022323,2020551.8214964957,1056905.0620811202,-56446.4388104303,-442468.997812728,-554703.1215012186,323011.6021971701,-742311.4155196405,201056.820704621,245930.5698106558,-353817.5255653957,-52489.9904474954,517736.6923679362,195608.3606503012,18027.8902452097,27470.8925030649,9577.3018764803,84206.7857829037,-6450.5127266649,-53218.8763856141,-76181.6344080485,-83019.9965264278,40443.1271184811,-21674.0280450448,73778.3794781319,-47526.8585927421,-17464.0482264963,73690.2833572986,3106102.7486789715,-5185403.994541866,-2184301.8911943147,-1818918.551161336,-846634.8578310527,2746752.259957748,2423673.865358056,370764.0693196126,-886833.4069350784,-1550326.9462229027,3097474.8604245763,142548.8512860847,147390.0003163978,680921.6792551861,250485.4318753952,1006762.3536692993,526774.8632572731,-135570.5930945454,-594108.3331869679,465049.5278216135,-314996.7970815918,-637651.1014252019,624274.1057628917,-26815.0489705195,-108548.4713601789,120117.2273288404,-38640.7745215522,97163.0841298738,-37553.539855507,23195.8547031892,36239.7813677497,-2642.4086797811,36152.7916581055,-18357.8444156841,-25984.1627013487,28456.8342349953,532436.5423710849,3984986.494321134,-955542.1726106777,3238745.5746473633,-1604745.1404122855,2058069.7724749704,-1094526.8381615377,260634.5515949452,100690.0769273086,-1934155.9843884152,-2462149.4149860833,-102933.9916483503,262310.2263120723,-646306.4626423363,-66128.7920084901,-426677.9062367657,-365952.4979664447,630134.2098792791,287943.8477667723,-834087.5274522688,116116.7693738126,830124.4404325939,-414253.1211436886,-65040.9401530964,75330.3659308948,43993.2355282411,5266.4382578253,-21154.3931529598,-33766.2952715399,-153118.5396817903,19662.7153679628,3426.5639180498,-119253.7389460779,-14173.2491462703,-118147.3996018476,-23365.644709493,-822967.1548340478,1323613.979327217,-2112912.9094036426,-2607787.765229827,708976.8431627682,905944.3579127316,-1339131.1424080746,2057848.9873484035,3290773.081344841,-1761773.998898264,1137857.6629310052,-98710.3070372056,753154.952445475,-19900.3111914843,6181.4318380998,1162725.9030107795,1452891.6182925457,3506.0181580422,-152939.7402143989,-522627.4531627036,-470211.9767445479,-233702.9298177627,466799.6748349338,61495.8281998931,-64869.3288054192,57882.3802881887,28804.7633010834,14507.9267519245,58382.7152720014,152173.57612165,26990.0948742035,-13754.1651488859,-12024.9923376009,-39719.312701241,36461.5191976206,-183233.4525721921,3352292.8151556985,-1716323.3105472152,-2519124.3927317155,-5042099.498266196,1697475.8217855482,285177.9375060738,5040569.02922453,103660.7119061393,-4662846.534634997,-296366.2429102906,2149941.6247555655,20347.7738516226,697888.875310569,28408.9269747968,-191857.5186661493,-320798.9296812432,162194.6478178536,-858150.5854201413,-858251.6219234052,1002557.960626163,-667522.9419365494,-571292.6301623358,1054501.890558829,6846.1513631503,72988.4910159056,-2128.8762720341,81306.0732812834,-122392.1110830714,-35923.4738813223,-109012.171895147,-17860.2970603668,-110472.1110158684,92625.1857866566,-7911.5860050705,70110.247118272,49335.342857568,-2123574.0872108256,-3067866.058179922,2935295.889896004,3250946.6226196825,-5750916.8360260045,1660757.952519679,215071.1786269732,1899185.8466924357,-3999814.2366352337,-550921.1113801784,-509849.8346483697,43818.62368926,-457204.9979634905,-41607.5689272299,-482747.7040622102,-1129773.0263179983,616930.6327145627,-371043.0538968924,-380315.4629325714,280102.9135195811,-66784.6791035388,970544.1781944258,383649.1091353933,73129.20836839,100114.8750941944,-14995.3935645436,-65074.8030644513,-53561.4127706016,136977.7256945842,72371.7926544335,5811.1793900026,-66420.3141370604,-160483.1647085276,-8046.8183479138,143191.6574059232,15437.4269242607,259441.0648990301,895499.6968158226,4368327.222276518,8781229.142934946,-339253.0278027372,-6531824.509940672,680784.6234569915,645354.0892233604,-2692402.2021494447,-2312023.2034676434,-4879946.28979535,89941.1390701669,98255.7296462843,-358021.5806476584,904754.2421005138,-527989.790679438,197657.3973661639,-692961.0893474972,392390.6097210158,1180288.6718558697,-686716.8868160443,45674.9074700398,-2086556.6654094043,-45319.7912260613,47902.5976621512,152163.3536511311,-63025.4458661161,72671.1027414165,-10932.353650103,-55871.0595343876,128392.4613679518,29277.3341232345,-52920.354389131,-7892.7384437951,33215.7933833892,24860.206136889
biasActivation=0,1,1
[BASIC:ACTIVATION]
"org.encog.engine.network.activation.ActivationLinear"
"org.encog.engine.network.activation.ActivationLOG"
"org.encog.engine.network.activation.ActivationLOG"
