encog,BasicNetwork,java,3.3.0,1,1425324861441
[BASIC]
[BASIC:PARAMS]
[BASIC:NETWORK]
beginTraining=0
connectionLimit=0
contextTargetOffset=0,131,0
contextTargetSize=0,29,0
endTraining=2
hasContext=t
inputCount=50
layerCounts=50,30,80
layerFeedCounts=50,29,50
layerContextCount=0,0,29
layerIndex=0,50,80
output=-0.0522104355,0.0085784827,0.0267150744,0.3334563344,0.0448890035,-0.2177110978,0.5097796137,-0.0079154744,-0.2842442082,0.1160979828,0.0250965292,0.4756499441,0.3784099871,0.5216366311,0.4204334218,0.0037866634,0.5302981694,-0.2897639278,-0.2890648181,0.4992916333,-0.2364290637,-0.0561916436,0.0010022133,0.0411143026,0.3328775827,0.144298286,0.1189681961,0.1255297922,-0.1996039041,0.2957061239,-0.0388181423,0.4599767394,0.2426349366,-0.1890687859,0.0002865261,0.248038759,0.414612928,0.1620771752,-0.0764999502,-0.1163364194,0.4456703472,0.1433398209,-0.1977207218,0.3298017622,0.2901157395,0.168932935,0.6352236545,0.0710149474,0.4522788778,-0.431161567,10.0019311636,-10.1860740461,-9.006208472,9.055892151,-7.7353169916,7.9045673303,10.8226103843,-9.2166934319,-8.7089934751,9.5651803106,10.307266502,-10.3009865561,-9.2083033801,-7.3062303834,7.6695361692,-9.5560081312,-7.9583804131,8.6699105301,-10.0046392578,-6.1281588326,-9.2599092117,7.9400931778,8.495817862,-9.2270097437,-8.3958034693,9.782620768,-9.3995573685,-9.6662250036,10.6387811286,1,0,0,1,0,0,0,0,0,0,0,0,0,0,0,0,0,0,0,0,0,0,0,0,0,1,0,0,1,0,0,0,0,0,1,0,0,0,0,0,0,0,0,0,0,0,0,0,0,0,1,1,-0.0522104355,0.0085784827,0.0267150744,0.3334563344,0.0448890035,-0.2177110978,0.5097796137,-0.0079154744,-0.2842442082,0.1160979828,0.0250965292,0.4756499441,0.3784099871,0.5216366311,0.4204334218,0.0037866634,0.5302981694,-0.2897639278,-0.2890648181,0.4992916333,-0.2364290637,-0.0561916436,0.0010022133,0.0411143026,0.3328775827,0.144298286,0.1189681961,0.1255297922,-0.1996039041
outputCount=50
weightIndex=0,1500,3820
weights=##0
##double#3820
   0.0017846085,0.0055976444,-0.0020596616,0.0049376098,0.0013243475,-0.0019996601,0.0047541149,-0.0017126559,-0.0031429003,-0.0049243857,-0.0006776815,-0.0023188127,0.0045380654,-0.0002283285,0.0010268647,-0.0014705923,0.005981096,-0.0045357516,-0.0015816443,0.0014252405,-0.0019752918,0.0025830904,0.0023802654,0.0031822893,0.0036206854,-0.0038833167,0.0016409036,0.0073427117,0.0012324348,0.0953792805,-0.0007726001,0.0024573327,-0.0014972523,-0.0020777149,0.0007741005,0.0036277639,-0.0049545674,0.0108627078,0.0082913207,-0.0001149988,-0.0012666484,0.0029474157,0.0034876183,-0.0064914497,0.0001540474,-0.001841081,-0.0021080006,-0.0011560686,0.0017416239,0.0009566127,0.00459538,0.0030253441,0.0029821054,-0.0029294809,0.0009348133,-0.0040657841,-0.0101797924,0.0129098471,0.0061010419,0.2548750038,0.0004150813,0.0079490064,-0.0041969805,-0.0024560844,0.0062487957,-0.0090804379,0.0054830777,-0.0020094099,-0.0033033373,0.0010313721,-0.0075136977,-0.0114341683,0.013053367,0.0031682861,0.0016409512,-0.0000029191,0.0063633247,-0.0103516796,-0.0064834889,-0.0042698916,0.0037255793,0.0074839579,0.0103752585,0.0050924922,0.0013647455,0.0008062563,-0.0021751639,0.0024302399,-0.002200119,0.1952894437,-0.0025031479,0.0024312833,0.0024657312,0.0050906204,-0.0058605925,0.0010811658,-0.0049278131,0.002122482,-0.0045985359,0.0012458037,-0.0026104294,-0.0105225647,-0.0027170982,-0.0002949352,0.004108207,-0.0082685551,0.0017005655,0.0005075374,0.0023360224,0.0025824994,0.0024541214,0.0047458235,-0.0075801415,0.000378256,-0.0000693272,0.0020600392,-0.0048340767,-0.0051583189,0.0025081365,0.0657755198,-0.0000773991,-0.0092630977,0.0047603995,0.0052774118,-0.0016729733,0.0066113753,-0.0033263007,0.00689127,0.0090087574,0.0047107795,-0.0005288267,0.0074162248,0.0024695299,0.0016799128,-0.0028566598,-0.0012362185,-0.0060523843,-0.0055069127,0.0076784547,0.0026628615,-0.0043171109,0.0024703609,0.0116404923,-0.0040315819,0.0032510818,-0.014668548,-0.0030235686,-0.0025259149,0.0028928706,0.1252652326,-0.0037284003,0.0058017261,-0.0002674826,-0.001629847,-0.0024534899,0.0058506893,-0.0032303316,0.0012489952,-0.0036257015,0.0153734467,0.0108923753,0.0037070866,-0.0017053906,-0.0022294386,-0.0086060577,0.0060959927,0.0166205999,0.0058407819,0.0049214656,-0.00058056,0.0022387663,-0.0005748006,-0.0094815922,0.0001051446,-0.0031554958,-0.0070822178,0.0095861889,0.0000656873,-0.0089085196,0.1742684,0.0033893335,-0.0063249741,0.0116609142,-0.0000419053,0.0024567171,0.0041897742,0.0050391032,0.0024399312,0.0003044963,0.0035393034,-0.0043056803,-0.0116473449,0.0020697069,-0.0012569827,0.0045636688,-0.0073339012,0.0069687645,0.0007958868,0.0005853689,-0.0087733648,0.0094288321,0.0051955728,0.0021608514,0.0023720396,0.0018417428,0.0037926063,-0.0118276093,-0.0062258384,0.0002983653,0.1227487121,-0.0054074038,-0.0016544764,-0.0007803147,-0.0031999805,-0.0046247679,0.0037443734,0.0003779223,-0.0063446967,-0.0073415792,-0.0043741132,0.0024243858,0.0100965652,0.0010017416,-0.0014486934,0.0076635379,-0.0051510053,-0.0046476114,-0.0092389845,0.0086797309,-0.0009116839,0.0058944012,-0.0131878108,0.0001026856,-0.0026336415,0.0012511705,-0.0088415362,-0.00198075,-0.0089156984,-0.0027333658,0.1506504036,-0.0033869837,-0.0067633524,-0.0013841663,-0.0089741837,-0.000881094,-0.0003707025,-0.0033643375,-0.0050161613,-0.0030047211,-0.0113665442,-0.0041716069,0.0038503902,-0.0018660947,0.0067246839,0.0004875389,-0.0009393029,-0.001385555,-0.0010524118,0.0007909777,0.0057133704,-0.0006859689,-0.0046828842,-0.0067609543,-0.0055395181,-0.0003982197,-0.0033913836,-0.004907033,0.0021300442,-0.0059212075,0.0657593031,0.0092531707,0.004611448,0.0009394897,0.0063880976,0.0059092552,0.007536906,-0.0136549201,0.0017087633,-0.0085028384,-0.0043111876,0.0045905908,-0.0043052111,0.0045068715,-0.0007166418,-0.0109095713,0.0015994893,0.0013660339,-0.0009353581,0.0041665848,0.0185235898,-0.0071924373,0.0080201373,-0.0028958351,-0.0062848862,-0.0026037332,0.0016198262,-0.0006123467,-0.0081820072,-0.0020487073,0.0912954698,0.0000285653,0.0000574789,-0.0003887107,0.000336657,-0.0002340573,-0.0000105635,-0.0001209714,0.0000066664,0.0001440882,0.0000545885,0.0001393584,0.0000100431,-0.0001568021,-0.000255117,0.0001130279,-0.0001878923,0.0002606159,0.0001302168,0.0001295844,-0.0003817819,0.0003484598,-0.0001114397,0.0001501525,-0.0005715955,0.0001129468,-0.0002322042,-0.0000045187,0.0000445839,0.0001321491,0.0115861171,0.0000816993,-0.0047174854,0.0090883489,0.0073824966,0.0022760474,-0.005521263,0.0089359306,-0.0043764932,-0.000081762,-0.0057275239,-0.0010758837,0.0009298956,0.0026478725,-0.0016406742,0.0023840917,0.0002272565,-0.0029886244,0.00061513,-0.0035629101,-0.0124680802,0.0006594647,0.002531148,-0.0017377939,-0.00101149,-0.004795359,-0.0020031714,-0.0135860027,-0.0054640822,-0.0024617072,0.1122776384,0.0095964744,-0.0104041219,0.0043766229,-0.0027170192,0.0036041901,-0.0095721647,0.0023856084,-0.0059873183,0.0022185114,-0.0028675766,0.0083327974,0.0033897989,-0.0004351432,0.0020433969,0.0084829147,-0.0022757943,0.0037566192,-0.0040804134,-0.000622935,0.0017807609,-0.0010521045,0.0075723528,-0.0067759653,-0.0129069404,-0.0008802204,0.0010607002,-0.0062500462,0.0033175889,-0.0049677393,0.1298741081,-0.0017335215,0.0019511375,-0.0046172622,0.0087400183,-0.0024265547,-0.0023922781,-0.0013792002,-0.0027660604,-0.0019395041,0.0024232112,0.0027138676,-0.0122656936,-0.0044498248,0.0001259866,-0.0092449722,0.0029900449,-0.0021540136,-0.0008748521,0.0028984916,0.0042742121,-0.001612911,0.0043747106,0.0002141011,0.0009075085,-0.0011466984,0.0034847228,-0.0109905286,-0.0039554336,0.0031116389,0.0768771289,-0.0021851741,0.0024153698,-0.010874665,-0.0080859387,-0.0077871805,-0.0020022204,0.0022846858,0.0019772433,-0.0040078074,-0.0024765147,-0.0032579395,0.0115300901,-0.0058687717,-0.0116920368,0.0002580973,0.005755166,0.0109337182,0.0016686811,-0.0093798041,0.0133968367,-0.0031153986,0.0032227949,0.0025878959,-0.0129774093,-0.003216532,0.0103452575,-0.0056168846,0.0013904532,-0.0063052182,0.2101051683,-0.0000042966,-0.0000023368,-0.0000440084,0.000072509,-0.0000007407,-0.0000160494,-0.0000112062,0.0000102771,-0.0000138968,-0.0000118645,0.0000265131,0.0000017024,-0.0000213678,-0.0000261544,0.0000334645,-0.0000118099,0.0000481404,0.000027616,0.0000600655,-0.0000685696,0.0000288562,-0.0000389797,0.0000438965,-0.0001177692,0.0000016489,-0.0000164864,0.0000102707,0.000062614,0.0000405317,0.0019565719,0.0079763232,-0.0015790621,-0.0032611565,0.0046920147,0.0004710163,-0.0013414626,-0.0006609647,-0.0042867338,-0.0038561228,-0.0026668009,0.0114254633,0.0115544477,-0.0080983733,-0.0016535027,0.0025631696,-0.0075333621,-0.0145580736,0.0022299315,0.0025839508,-0.002966233,0.0147562036,0.0101851583,-0.0010832477,0.0028689155,0.0018097839,0.0111620212,0.0094813476,-0.0002371596,-0.0017304699,0.1345125414,-0.0005797113,0.0066307495,0.0024654941,-0.0049999225,0.0018698033,-0.0014569737,0.0008032972,0.0106920028,0.0027812912,0.0096888961,0.0009093838,0.0093061326,0.0010759701,-0.0004739454,-0.0022895818,0.002617691,-0.0009649536,-0.0058883206,0.0038064339,-0.0029632619,0.0021392786,0.0083484284,-0.0036859079,-0.0049611937,0.0029531454,-0.0129396283,-0.0031724745,0.0017503333,0.0049655799,0.1219491319,-0.0021268451,-0.0089537622,-0.0026866009,-0.0066634151,-0.0014226632,0.000201536,-0.0041872357,-0.0032021384,-0.0019383657,-0.0133894379,-0.0024701409,0.0057268185,-0.0024172203,0.0069937944,0.0035598537,-0.0004958219,0.0002277299,-0.0022026453,0.00024498,0.0057727416,0.002503412,-0.0023519063,-0.0103538599,-0.0060218277,0.0019990121,-0.0031248911,-0.0025490559,-0.0008247818,-0.0065377447,0.0907668784,0.0092818882,-0.0081808823,-0.0056250474,0.0033267776,0.0035207756,-0.0017936707,0.0087322051,-0.0002866782,0.0020826875,0.0008401214,0.0078001442,-0.0065682645,-0.0059402362,0.0014649287,-0.0010852472,0.0081864031,-0.0042835417,-0.0007029749,0.0023585623,0.0034697381,0.0004287391,0.0065950324,-0.0040506492,0.0034448157,0.0001898834,0.0053215047,-0.0015528411,0.002238664,0.0039324098,0.0406137174,-0.004395047,-0.0032853814,0.0021994601,-0.0069756416,-0.0032307055,-0.007211019,-0.0049589221,-0.0071374702,-0.0073725962,0.001306782,0.0018352795,0.0014761424,-0.0000681399,-0.007607777,-0.0038820794,-0.0042617827,0.0007667212,0.0005660536,0.0049984938,-0.0057345759,0.0010942482,-0.0078881686,0.0028162033,0.005145673,0.0082124791,-0.0016317364,0.0063278237,-0.0002763915,-0.0044274462,0.030557623,0.002363042,0.0036162998,0.0029800608,-0.0027113189,-0.0072951775,-0.000952477,0.0017911919,0.0005625262,0.0052003845,-0.0031572223,0.0001427537,-0.0008781074,-0.0059590578,-0.001418913,-0.0017922259,-0.0030329427,-0.0021143221,-0.0067729707,-0.0009033095,0.0005075078,-0.0048388697,-0.0015817897,0.0037319865,0.0080285824,-0.0031059039,0.0021991051,0.0014731684,-0.006812877,-0.0043309925,-0.0776327534,0.000148608,-0.0025705166,-0.0077129878,-0.0017848755,0.0035132309,-0.0008845821,0.0026174392,0.0053850407,0.0002114631,0.0009434029,0.0077831066,0.0051025757,0.0062807006,-0.0046659683,-0.0070671084,-0.003467787,0.0061575531,0.0058423981,-0.0016159862,0.0039390402,-0.005823478,-0.0004667423,-0.0066056369,0.0009077167,-0.0051089223,0.00322668,0.0029707652,-0.0020950121,-0.0044102021,-0.0137988162,0.007293291,-0.0041747243,0.0049163026,-0.0008626165,-0.0132357168,-0.0145316067,-0.0005970759,-0.0019275283,0.0044448467,-0.0083957221,-0.0031431769,0.0004362075,-0.009789464,-0.0004123783,0.0000943482,-0.0014308399,0.0062399402,0.0050336288,0.0007615821,-0.0048012889,-0.0054375303,-0.0107911885,-0.0008691114,-0.0005752433,-0.0000031681,-0.0014474742,-0.002591604,-0.0015131445,-0.0127227283,0.1593905349,0.0033693738,-0.0007876184,-0.0029821905,-0.0074222224,0.000954197,-0.0073079943,0.0072931111,0.0034389167,0.0030414375,-0.0051693047,-0.0041430756,-0.0105342871,0.0033707354,0.0000587204,0.0043572438,-0.0039719767,-0.0082349641,-0.0120503545,-0.0025177367,-0.0040506239,0.0016870891,0.0026034482,0.0095642258,-0.0047154638,-0.0104707469,-0.0025889547,-0.0016694039,-0.0053508913,-0.012629166,0.1831131379,0.0067069507,0.0096912422,0.0008041582,-0.0005760667,0.0099118464,0.0090662991,-0.0016673437,-0.0044345233,-0.0020093252,0.0002231302,-0.0056548595,0.0063723297,-0.00264382,-0.0004533814,0.0002386462,-0.0018374992,-0.0019850565,0.0001038823,0.0059239896,-0.0025912458,-0.0060075775,-0.0018550807,0.0012700156,-0.0027406109,0.0018238727,0.0101871936,-0.00161874,0.0014817091,-0.0016779676,0.1101429056,0.0033204862,0.0049630929,-0.0023039392,0.0031905126,0.0048946439,0.0011284125,0.0060189369,-0.0023848312,0.0007842329,0.0027525374,-0.0038055307,0.0054372912,-0.0000962378,-0.0012937692,0.0026842788,-0.0034107426,-0.0019767649,0.0037598914,0.005388063,0.0018990131,-0.0056867075,0.0036769419,0.0003573049,0.0004355552,0.0017790697,0.005342824,-0.0006161767,0.0015669363,-0.007356677,0.0273397041,-0.0036127325,0.0034622074,0.0032431413,-0.0065304325,-0.0040892167,0.0019745718,-0.004435648,0.0054105339,0.0078234098,-0.0064240703,-0.0025196389,-0.0131560163,-0.003632115,-0.0048362568,0.0148087555,-0.0019982769,0.002589449,-0.0031533682,0.0015101053,-0.0023706116,-0.0047342312,0.000645494,0.0055513709,0.0138343331,-0.0035892727,0.0066125095,0.000644582,0.0012102101,0.0039168104,0.1158049232,-0.0049156494,0.0059098475,-0.0004483169,0.0010660249,0.0055392777,0.0028111662,0.0025617252,-0.0024279505,0.010880583,0.0032114087,0.0042510929,-0.0003321396,0.0084904853,0.0021359085,-0.0044649573,-0.0009789846,0.0046642414,0.0114337301,-0.0045989971,-0.0003507787,0.0001326167,-0.0116523154,-0.0078697003,-0.0008614425,0.0008338818,-0.0023468855,0.004341375,0.0028968331,0.0019322112,0.1227744709,0.0072765759,-0.0016896351,0.0016665689,0.0019073531,0.0094886203,0.0120003471,0.0027442472,0.0037563333,0.0133437213,0.0108885482,0.0043001007,-0.0084101713,0.0022359063,-0.0033229992,-0.0052115898,0.0092361528,-0.0155281879,-0.0071509896,-0.0029239209,0.0043053333,0.0018221832,-0.0020643667,-0.0147905923,-0.000139255,0.0028335352,0.0029844607,-0.0003988124,0.0146783536,0.0132148731,0.2778862953,-0.0012324699,0.0043678313,-0.003449046,0.0107077677,0.0054354058,-0.0049692667,-0.009870868,-0.0069708632,0.0026064794,-0.0187552603,0.005515,0.0073730765,0.0097582217,-0.0088995279,-0.0036606911,-0.0051509383,0.008630854,0.007666108,-0.0002169973,0.0023910965,0.0076237065,0.0023160184,0.0125030359,0.0118266633,0.0055998912,-0.0042480318,-0.0000622928,-0.0011466112,0.0030731413,0.3527851213,0.0022005587,-0.0036758095,0.0069948178,-0.0052336952,-0.0032438585,0.0033139496,0.0027623721,0.0012778163,0.0027282202,0.0085380008,-0.0059174812,-0.0224468825,0.0001275123,0.0021461722,0.0033885771,-0.0082672743,0.0051401759,0.0163728284,0.0006357645,-0.0102240146,0.0041801225,-0.0058242438,-0.0013122588,-0.000592275,0.0083031471,-0.0013599421,0.0037181095,0.0065145853,0.0048067936,0.1883312547,-0.0027202393,-0.0049465165,0.00633827,0.0037305669,0.0021139124,0.0022224802,-0.0095180453,-0.0055275466,-0.0050000623,-0.0009844581,-0.000838313,0.0014420715,-0.0014185845,-0.0012977989,-0.0056956674,0.0093099149,-0.0064629187,0.0093067775,-0.0061614103,0.0100038866,0.0025676413,0.0048789214,0.0144980563,-0.0025505434,-0.0033084298,-0.0018585855,0.0062710089,-0.0034256756,0.0055349618,0.0562968046,-0.0061760925,0.0033196356,-0.0030299282,-0.0060260606,-0.0019676003,-0.0040831477,-0.0049984573,-0.0049200728,0.0040884478,-0.00275152,0.001995049,-0.003329089,0.0131769213,0.0035810189,0.0029959244,0.0005474426,-0.0087149564,-0.0008477894,-0.0020346121,-0.0062124042,0.0043500586,-0.0022127486,-0.001667832,0.0012264714,0.0112439003,0.0028826065,0.0093730718,-0.0043784559,0.0087082514,0.0786704011,0.0000003138,0.0000023838,-0.0000042275,0.0000035915,0.0000002884,-0.0000003128,0.000000282,0.0000011219,0.0000002403,0.0000004135,0.0000022935,-0.0000013978,-0.0000015056,-0.0000025178,0.000003425,0.0000003695,0.0000038327,0.0000009678,0.0000020152,-0.000005205,0.0000034971,-0.0000007041,0.0000028662,-0.0000063888,0.0000014972,-0.0000042908,-0.0000025284,0.0000007368,0.0000006707,0.0001499804,0.0066779955,-0.0031305879,0.000914806,0.0008448001,-0.0008147517,0.0026169416,0.001720152,0.0030937922,0.0019882104,0.0055763454,-0.0027038386,-0.0023448457,0.0022602544,0.0011288107,-0.0050985412,-0.004860811,0.0019169421,-0.001229319,-0.0006499887,-0.0045794584,0.0024595069,0.0010767077,0.0050426105,-0.0025208081,-0.0014749084,0.0018814309,-0.0007235541,0.0003796473,-0.0009204452,0.0376063828,-0.0071025504,-0.0017410385,0.0058324203,0.002716733,-0.0149086151,0.0075956078,-0.005074565,0.0045250424,0.0002380966,0.0003585015,-0.0035406883,-0.0045226172,-0.0056156867,0.0060682239,0.0115415884,-0.0081852467,0.0037410743,-0.0024063604,0.0040151678,0.000380523,-0.0033486924,-0.0023785703,-0.0005946595,0.004935636,-0.0051715256,0.0056367651,-0.009568493,-0.002625737,0.0069499186,0.0753344169,-0.004667446,-0.0027533195,-0.0026194995,0.0102466438,0.0024696592,0.0066934093,0.0039694615,-0.0038483577,0.0048696612,0.0052064525,0.0011561616,-0.0078440074,-0.0049847493,-0.0050387908,-0.0078107677,0.0104738626,0.0018935558,-0.0036000539,-0.0015808484,0.0046489145,0.0009410832,-0.001899365,-0.0025693742,0.0101794806,-0.0034885012,0.0016229374,-0.0019208734,0.0017449398,-0.000494961,0.0866837224,0.0062796667,0.006245893,-0.0004196689,0.0035529833,0.0051006317,-0.0056640241,-0.003310356,0.0048698486,0.0039671992,-0.0035847048,-0.0018838045,0.0144133969,0.0025689019,0.0007705357,-0.0020669511,0.001461947,0.0049746418,0.0011190208,-0.0036794107,-0.0123807908,-0.0028748086,-0.0065715557,-0.0109743412,0.0001432354,-0.0054498233,-0.0022902339,-0.0017832127,-0.0108139362,0.0046565154,0.1922696342,0.0034926516,-0.0034863238,0.0039656029,0.0031549086,0.0040610725,0.0024303167,-0.0038338325,-0.0011791645,0.0007421609,-0.0038966976,-0.0000338316,-0.001173975,0.0020221434,0.0026401318,-0.004274905,0.0011318234,0.0009907163,0.0036847845,0.004010253,0.0075263904,-0.0025876856,0.0047933306,0.0078565304,0.0012287567,0.003379405,-0.0064495816,0.0023190196,-0.005149402,-0.000285443,-0.0120295211,-0.0014572353,-0.0019739064,-0.0048259662,-0.0023778851,-0.0048793653,0.0019676172,0.0047286671,-0.0004465194,-0.0068155358,0.0062556377,0.0030215248,0.0022423291,0.002713251,-0.0070388918,-0.0047472639,0.0060597051,0.0008724689,0.0014616713,-0.0030847056,0.0040080949,-0.004136183,0.0024301814,0.0011972081,-0.0121108432,-0.0073306443,0.0041133094,0.0056900017,0.004277076,0.0024953515,0.0252058384,0.0019316324,0.0006459449,0.0014680265,0.0132661711,-0.0066136559,-0.0050080696,0.0090274309,0.0028028952,-0.0028201545,-0.0089957578,-0.0049214156,-0.0011129343,0.0043958804,0.0011941904,0.0035951635,0.0019514766,0.0016375497,0.0003179838,-0.0077964576,-0.006651603,0.0016249885,-0.0033687558,-0.0026705628,0.0062297167,0.0022245949,-0.0037127549,-0.001929417,0.0057642291,0.0004596434,0.1824394215,-0.0002272998,-0.0039247038,0.0009371546,-0.0030336314,0.0000134943,-0.0005985399,-0.000185588,0.0087207046,0.0048454619,0.0063786754,-0.0042436221,0.0016017928,0.0027233995,0.0002209727,-0.0029005476,-0.0019547273,-0.0067641326,-0.0046534802,-0.0003396458,0.0036019498,0.0015386143,0.0039820476,-0.001972021,-0.0018450396,0.0029406534,-0.0058641708,-0.0020672118,0.0069672418,0.0056805514,0.0164793158,-0.0020730118,0.008749871,-0.0062571415,0.0002581607,-0.0002518465,-0.0139249672,0.0030690121,0.0047042463,-0.0059577553,0.0068371701,-0.0035653053,0.0169766113,-0.0023121272,-0.0019956632,-0.0016127018,0.0142360174,-0.00118804,0.0125157351,-0.0175367154,-0.0049842588,0.0046747054,-0.0010418838,0.0001217314,-0.0015848865,-0.009543303,-0.0019795744,-0.001085747,-0.008320551,0.0024248147,0.2408683416,0.0071570502,-0.0014884746,-0.002156192,0.0087640198,0.0052173748,0.000404505,0.0044453789,-0.0079501725,0.0063277412,0.0091699125,-0.0001465838,0.0003437831,-0.0084132831,-0.0080075456,0.0036949517,-0.0016469239,0.0037583206,0.0053572351,0.0080438423,-0.0005767242,0.0003686235,0.0012988277,-0.0066247916,-0.0000337375,-0.0024080287,-0.0001615077,0.0125461394,0.0131060701,-0.0078216199,0.2314219566,-0.0006707562,0.0101481746,0.0017384723,0.0042492344,-0.0043169738,-0.0016986898,0.0039711458,-0.0018849665,-0.0067751372,-0.0040795066,0.0008338377,-0.0125581479,0.0071286323,0.0104164739,-0.0019551528,-0.0077111497,-0.0037658595,0.0029963347,-0.0041198877,0.0029283045,-0.0032710708,0.0015432238,-0.0016153399,-0.0042497935,0.0057659924,-0.001965384,0.0023830307,0.0117694758,0.0067421326,0.0858080967,-0.0053371968,-0.0024048307,-0.0022792599,0.0025917306,-0.0098428354,0.0039163243,0.0022959451,-0.0058408169,-0.0016584872,0.009665237,-0.0018540495,0.0057966212,0.0004478757,-0.0011052913,0.0051615465,0.0027966225,-0.0021791516,-0.003896437,-0.0029291296,-0.0037055003,-0.0070139499,-0.006732453,0.0086196051,-0.0091193679,-0.0061252402,-0.0039683064,-0.0012366419,-0.0005046018,0.004429914,0.1087738307,-0.0035595192,-0.0060322715,0.0035393488,0.0006700867,-0.0053028981,0.0051543065,0.002902025,-0.000086017,0.0015034004,0.0043551947,-0.0001965299,0.003878432,-0.0023180478,0.0066719998,0.0029737761,-0.0018886702,-0.0019108786,-0.0053896064,0.0004564694,-0.0005278561,-0.0064197291,-0.0042230104,0.0020376125,0.0039161277,-0.0010528611,-0.0019303732,-0.0014787559,-0.0051387417,-0.0001505417,-0.0691901427,-0.0033056632,0.0092080235,-0.0160725234,-0.0044531335,-0.0000995206,0.0023824242,0.014608683,0.0021084064,-0.0042389621,-0.0049578736,-0.0035442171,-0.0041947318,-0.0171086896,0.0011568016,-0.0012138253,0.0002375772,-0.0075871421,0.0033337178,0.0081302202,0.0020967623,0.0035036171,-0.0013501307,0.005004417,-0.0002550746,0.0014678836,-0.001027414,-0.0050024513,-0.0016177921,-0.0092764847,0.244358043,-0.0022546772,0.0142496836,0.000620812,-0.0039406299,0.0104981243,-0.0003231013,-0.0230934801,0.0002885495,-0.0021964674,0.0042447113,0.0007252574,0.0065626925,0.0029459421,0.0035971239,0.0027881317,0.0093076988,-0.0025631612,-0.0041468515,-0.0013022624,-0.004073751,0.0015807158,-0.0001284022,-0.0022425546,0.0052246584,-0.0032953063,0.0042297974,0.0075555847,-0.0079898137,0.0063891311,0.1527802064,-28240.6199111197,-985.4199087426,-6976.742836812,-4012.9019834726,0.7585641114,-121.8006899148,12019.4040786145,5575.158024969,5.2586729233,8789.1405756789,-0.3745873833,1694.5392731968,108.0606954599,1.5769965197,-5925.0237644013,0.8294551368,3779.6438862388,-0.0058449213,4.4380555249,10942.7778043253,-0.0080270928,-1.4459307797,-10168.7720542847,-3505.529153947,8449.9950450192,0.8746805977,-9073.5091020783,3374.7251562747,-0.1337953082,8604.8053609573,0.064904645,-1.1424462788,2760.0268643645,-3.6531536314,0.4331310125,4211.3533779453,-2332.2358597321,-0.1461050037,-0.666048318,1.2628097108,0.55518518,-11.8097625679,-1756.1680015026,0.9164043297,-0.4067563556,-19991.798285079,-2.4314946236,1437.7266633721,-0.0367320172,28872.712312398,-0.8636649332,-4367.681703206,-10926.0416553037,-365.1895104393,7874.4014412911,-2766.1715115458,265.6308677292,-2849.6741371732,-10615.2438911575,6685.5740832409,-18965.0414625701,6233.2612228921,-0.3654848239,-9829.71805967,-9014.8729506084,-1162.942562624,-5738.3800374839,-1530.1132650092,-26523.5936924171,11591.7591149767,3264.7887728086,-3481.294386751,13461.22657139,-4.0975379649,-69.7542177389,-17413.1860069503,2361.5502291099,12137.2550746176,2563.6705366457,1551.3533506294,2891.3342696203,0.5794404284,238.2562512884,1517.9781385548,0.8014133661,-0.0506052738,5764.2514296298,5973.6678223965,1074.7854735985,-0.2982683866,-0.2792931176,65.0163985404,2763.0336170933,87.3949691308,-1131.1857028336,-0.5092928833,1497.3551585818,4246.0699494017,1074.2473147686,-0.2811293701,1.3127257265,4730.4915929604,4659.2891485732,1746.765626842,-262.9018140978,0.1173968521,12534.6142353488,-9567.0094098718,-19382.0065659217,-12745.2128093129,-1.5056084277,-7580.4943383915,-0.4878304011,-5072.6189595703,0.6562060949,-4402.0260759988,0.8736943844,-12579.356257378,-1119.2692988393,-27152.9133511417,1483.7128026983,2262.4291035453,10176.6648131418,-1.9288302297,0.5166975237,24.0731995275,509.7411926062,9939.4281079316,-542.7548318345,0.2408715965,0.168960455,2286.123378804,-2195.142556813,-9231.0443351811,-1935.85157552,4251.3415766421,4618.616193217,-1032.7491591389,-324.0936474349,5768.3157323511,-2784.0499381793,1924.015080388,-7105.3113463229,4273.1623625459,5774.8442924551,114.3510920996,-7127.3291010891,3889.8942783232,11515.5261557947,-7980.8743031486,-4896.4047373683,4144.7674339265,-196.0773138529,-7677.1044454055,-7681.9630039477,1855.9232734494,1589.9866940442,6251.1852113441,-5942.5161230941,696.4561244647,-12.2837954356,19229.0165506583,-0.5235440191,27.3888907358,0.4882358684,-5428.5652121675,-2529.8856215833,-3616.605327397,-631.8206436101,-4993.1146270675,-0.7026602054,40.882322055,1012.4814339178,1.01606781,0.5980343381,0.1667349471,25143.7382072543,57.184291164,-632.9656407613,7333.1888987098,-5692.5084175822,-12439.5727769962,-15272.8451175559,0.2187317142,-1972.4408278961,-0.0430240916,-5173.2284695479,1070.5974612322,-185.4952684565,573.6662567897,-1.0366016653,-3458.8207172631,-0.3506118323,1078.5239824851,-0.2342896953,-2726.0688441913,2692.6301104298,13640.5664994161,-27.1347976023,-1182.5844418723,-1114.4258079911,-1054.7335673331,6589.8563372588,3125.1567412234,571.0328763133,-152.3966336606,-0.2846941061,-1077.0133436199,0.679383144,0.3935396791,0.1699372078,4.0564684465,10146.6632417142,4566.6332395414,-2739.4510808336,17166.5759987949,15303.0019858846,9770.8930957221,21.5504784426,-5151.3767935098,-790.6152580648,9416.5318673867,-447.0540690047,-1434.3447250464,-7579.6967925951,2040.2369818851,-13122.7421193353,1150.4447861178,-2404.826722006,11902.0372008981,5101.1364817654,4951.200282227,-11026.1285388295,-11169.2601393908,2357.0230207582,-6054.1551010052,15368.682738368,10897.7350846235,-6763.5212864585,6004.0460596492,0.0734069145,4718.2553340122,-0.1423153989,-25560.8593059023,5.7704131603,-0.5808758684,2289.9711293861,0.3588613017,1.0496337527,-14310.2187317013,-0.1128959894,2480.451342744,6185.5163425853,-4984.1912351201,0.1951975812,-0.7901823303,-269.4525748703,-10659.3822083192,-0.7807856952,3034.6680693876,-0.4551318721,-287.9655865446,-33202.0893902458,-0.8375391243,1.4258157359,0.6830363445,-4566.282971123,-2.5959252457,-0.7960479712,12417.0351353501,-10071.3827183151,-3365.237495952,-0.6073224405,-0.4445428481,-0.373000763,-21256.7915725451,1.0572322725,0.3547925787,-10.0553902526,-23814.6474723166,-0.5521582657,-0.9020180469,336.3297773493,-3775.792530718,154.7375910709,-3960.0280256152,17789.4072753194,16460.751527204,-2045.701253704,5950.9370427911,0.0000917004,-9140.6879159527,6876.0131645903,-2225.3604764728,6053.3725340369,4085.9773868127,1168.5458469736,-9459.2142165382,-1059.8348122326,1392.7043292355,-4800.1742425856,-3321.5864910408,-15178.2291951976,-5009.0888469713,-3502.1454975333,587.0823044838,-1.016197357,11837.1947168802,4207.7303639755,1829.9382985939,-15882.6917614675,-141.6866348321,2217.6751442982,-5929.2636225059,-1204.5373584455,8859.5419814271,-4027.1011803735,-6729.5202678263,-6430.9630740305,-12117.0644358836,-2845.976185689,-0.8856425175,-11238.3323967167,3510.2043617117,-17070.5339033601,10.8676419538,5431.2338412513,-0.6502055226,4449.5885845153,0.8487126458,0.8479527318,-2.1357456122,0.3068213089,-1.4359941013,-0.0478519237,0.0882100699,2240.430761647,-27697.4687349889,4448.737146165,-1969.1305167438,3914.8987632521,-9.0541073651,2.2580758181,64.3166828474,-2386.427205872,4953.0339533227,4.1128128818,10556.0528489711,0.5795229335,-4909.8896578099,3712.8780653723,-4552.6283245825,1298.2741845206,-7139.6065253089,-0.1585873286,-12758.4801083456,10479.8405111626,-0.6580734419,0.1884513381,-2.1269194251,-1.0371706123,0.5776097237,-27782.5438997051,-0.788062909,2.5731189805,-7338.8875529855,17.2374243578,2296.9661847285,-550.9913181548,8244.727472883,-0.7536922155,-5822.0636324278,1348.4946841396,2531.1990455988,-7734.973935993,4553.2491414773,1672.2445764407,23877.6877951382,-133.1036732862,5251.94031511,5605.3477020426,3814.8785529102,-1416.4210834891,-1456.3623136723,5710.4049416058,9187.7306260135,-16240.1641454266,11579.0778117284,-2905.5877536584,3144.1437628543,-7983.7527176058,-19772.4743609511,-4529.9580852338,2232.0051006543,-1779.48532174,-8823.2970211921,-16709.4780085211,-4068.3884501216,13073.3101875519,-6546.8522318833,-0.2081817985,-113.5239682382,756.1686129285,7109.044875595,-1992.8418324939,-7772.4273700998,-2084.3062699175,4.0077730965,-1.1540955451,-9929.1849969971,-0.4790733974,-0.9467482957,-15134.7808287339,-5.1063670226,-1.1332768545,-0.9414727921,1196.4064565168,-43.8804234122,-1.0662155676,-8098.5314133579,1.6818964171,1.4973720103,-3861.4804881721,0.3164179544,156.6760859216,0.0031192429,-2765.1632612489,7231.9554569307,-0.3209063503,0.6326310689,0.8609670221,2047.8746634892,837.9430537601,12.0849156556,0.2171097138,4753.2354018369,2.5650769287,6120.6526740062,-0.0742556717,-18437.1679497221,0.7486053997,-0.8477462188,4638.1602736747,4877.3995378642,0.481153904,-0.8600163509,92.8986816022,-1115.1353125522,1.1847580844,96.335791593,2.2252998678,5883.6927624003,-6979.7548101589,3137.1286330783,-11039.1230286368,3786.9905877169,4519.1072169007,-768.3592082342,493.7799366055,1318.7789268944,-8311.412302022,-8362.1137668921,-4143.9056720111,-4994.2235075356,-483.8024720362,-1146.6626385297,-7518.2853164111,-1262.5008931047,-24581.2125932365,-1561.8223713945,-4451.1662854027,-4.4144755023,-4016.5077088585,2052.2344510721,-9010.4363199576,-429.1711923683,-3921.8398344809,311.3259403388,-7090.085180716,-0.9498334482,244.5539474958,-133.213371717,0.6326633407,-3170.5711486518,-380.8539539823,1093.7279883596,10999.8478805467,22875.8995716213,1.9110127085,-0.3882263547,0.44251845,-0.4866440951,-0.6438707576,-0.2554979996,-2.6513483418,0.3601230651,-164.5886894464,0.3042025642,1.2283143735,4643.0512961956,-0.4992859593,3456.9509786878,22829.38600808,-2735.6076765562,10837.2731424067,0.4538794597,-703.9685365161,5582.6741010924,-0.6646580679,1301.6385592575,-945.3765780609,6540.304689051,-10998.2438920783,23895.3731078299,0.587952092,300.8731250631,0.3811396159,-2.2301187333,-0.027335336,0.8477303568,9440.0779868593,-0.8223091103,-8.5219797695,-126.9023830703,0.7396984426,0.5668334233,0.3661389715,227.2026681872,3.2463012046,0.2823674036,-0.1951781015,-5855.5797686378,-3221.2400037344,877.6802904389,236.3148664135,1248.0772360473,5528.2777415837,4951.3521103688,386.6663346562,-2342.8764993567,4661.980494948,8661.3153142923,11081.8612588725,2916.1082606443,-10286.2474945577,-363.8768491528,-4.6892231457,-2880.5506070141
   1040.0130982849,-5325.9930586013,-5777.6599092732,13002.1958563882,-207.6150657353,231.5352378077,-3242.7077892454,5041.5437036289,2232.8154795971,2983.7083579289,6482.5207683216,-6551.2011881739,2212.4109663008,551.5985370243,3624.3889397458,0.0527018718,-0.0413353199,0.16538079,6835.9199870096,1.2509006995,-0.9953562055,-6.3488624484,0.9808687051,22796.8838409921,0.7844073525,-1342.0997899854,0.6702831453,0.4188673025,-8.2325659728,-0.2557404053,0.8300401444,-5501.258456337,-8996.6280164106,2297.3584286542,2803.2502190834,3979.5405709787,0.9185720319,9.4966709813,16877.9461290759,744.1530586693,-3.591360272,-549.9244214242,-3183.7580901333,-4701.6501155588,-11595.3329665452,-157.6828347781,0.3311448885,10523.0630717167,-0.0618149732,0.4822586193,5250.6080676489,-94.1175069424,0.5729720713,26340.791123873,1.266498455,-0.7736811276,0.827740793,-1068.2873986795,0.7630029755,3164.7830331718,0.2200764303,-2377.643949697,-0.9418907283,-1926.5621739986,357.0776864158,1520.8090538652,1258.6653124052,-1996.0213412577,-609.9370530372,5322.3929604607,-2682.9981311402,64.8326178637,-2556.4051356068,-5079.431681156,8.96942861,1525.7692919901,4509.68909114,-1522.620412596,9114.7647342248,16299.1782934137,4099.3158726635,-4113.0203938015,-2789.2031582831,-3914.8391465759,-2579.3654788501,4030.8057533401,-0.1073259548,-6597.0211816328,-67.0649753293,5468.2486532895,-6634.4664986939,-2420.7203830727,8121.3914134376,-854.5941411935,103.8035238989,981.2778516759,-10247.3262448421,0.8618012379,-2879.9348782377,0.0239802708,-2924.6352456229,0.2790053616,0.290626809,16341.8921201701,0.4818871597,0.3190128182,-41.9863347807,-0.1305740838,1.0198601149,-5.0010565284,-2923.7855859295,1.1345416888,4021.9017476182,-187.0718444771,-13736.7550581346,0.7720759943,-174.6327124153,0.6346512888,-0.8478566574,2689.942620862,-909.9832581696,0.756533812,0.1710898913,-20514.0405956013,0.805674234,-2554.7470328154,0.5015305669,-28691.1011810646,-353.7938072009,136.5728142694,4517.4461665376,0.8200293402,6091.7484084535,29456.5834292041,-8080.0845648751,9838.6962358051,-0.0633780246,0.0443445522,2317.3146645464,-2844.8729782697,12.1312675894,18.3055033394,2.8894193437,-3665.0284283018,-8883.8664177244,-2963.1263176458,6108.3936638994,3462.9873989429,-1393.3444456502,9505.0202837559,7983.8080041764,8197.4656471757,12237.6891362343,15411.9951657459,2.1696420419,-13.3654765222,-384.2321536534,172.5521498519,-4227.7970073605,-8149.6744447763,6010.4508416346,-3479.195254039,-13933.0016184823,16431.4745696511,-1559.0338952998,-1611.3326263793,-2046.7425334731,-6163.120304284,10983.9258981516,-24630.9967250819,4333.2950920278,97.6018021227,-19058.8270436939,-2142.1146883856,-13.7670215652,0.234297787,-1790.0803621549,-7320.4213742723,13.2344471683,0.2238156222,0.2270627698,-16.9331693522,0.3486190983,138.8211496411,-5443.3323533139,0.9870437313,24.7193886471,-0.6024474029,1515.8992035289,0.0686601884,0.5251632795,-0.2053087091,-0.0958378137,0.2036753289,-12831.1802331558,0.9076440879,991.2734081938,0.0900111463,8443.5033693905,-1294.0870235698,0.4880661402,0.3698929277,-7632.7828990938,2.0978578223,2782.831789928,5224.402058554,-0.679000177,1338.3705463244,-28.273968975,-0.6428380415,-9.285862872,-15994.3113528193,19581.7344720792,-0.1692962344,51.8289451896,1383.9421428668,-0.0356602392,0.0389280733,8936.4307498019,-13746.8728488132,14852.6996952502,0.846356596,-402.0419024088,-4964.8663028401,-117.2457920949,-451.5297746489,-3903.7015013571,-939.5839342911,-776.4968085355,-142.2713785034,36.9851277863,2126.3935089865,937.4380275523,6407.7765931933,1008.5143709868,-0.0320518621,-120.8603758986,5038.4943583489,10110.0447328659,0.4110399258,5866.6627689125,7792.6519627781,-4369.357390606,966.7456443332,-4168.4906163961,-2903.0677919765,7073.2431987801,1191.0769991447,-2694.2455296275,-995.2007503253,11535.5585677471,1059.0165446853,-97.3294270078,0.6674172993,-0.7235627113,-11112.676657705,-0.1733412543,-1.0300396566,7324.2370320161,0.1128486537,0.8215876022,0.0834478776,-0.4248721424,5250.8558220262,8354.3867599127,0.5446668525,-138.5124060327,-0.1029088456,-1.2282528347,-4542.4771194518,0.414515515,-9776.1905138165,18488.5578673109,1811.1364098505,-14519.4076215949,5644.5074447125,4.2354013823,16524.838973455,0.5414458213,-33.1852373658,-0.1738674997,639.5507177449,4.4478352824,0.770455663,939.1964359249,-1072.2702575686,-0.8982553239,-3122.3271618321,-2905.1095970318,0.0763876257,-46.2095293396,-2515.3781617787,-1.0593769763,-4837.7026952845,4294.0372901743,-909.4981505698,4.1695942096,-1262.5187744256,1729.5884786667,-4347.3843666277,-3685.7027187889,3622.2769654819,0.2957876574,-2758.8303187831,-2183.1581028997,13072.8881615668,-8806.913484245,6485.2977857144,-250.3332065634,-12080.7881416422,64.7083352409,-4755.9729356232,2180.0493965398,30226.3064075281,-72.5102895171,11533.7479185278,15870.1961380841,-7.9333941427,7153.2125852655,-12226.9666333617,7758.9268895202,-6440.4066733819,-18169.4857735382,979.1422411027,5367.6876196018,-18241.8711971532,1381.4973155655,2493.4689778322,1585.3350050163,-13464.7274434725,12048.5681585282,-1422.794359865,-2144.0097473808,-37103.4531086377,-10.6767124588,-30538.7514319643,-0.2704121107,-48.1000087375,-1923.8974071386,-3120.8059925577,22392.5007083509,0.2129407317,0.9972427189,1970.561088225,16675.3164334144,185.7878296795,1733.9144984295,0.079083787,-8.4491052922,-2581.50913641,22392.5751324105,0.1604310546,-5397.0241875944,-18124.2112977687,405.5983618386,3090.7708830378,1206.117024415,41.280979299,22767.8513775352,-35833.8810745476,1655.3944465367,-2.3025669195,-0.2234183837,2077.2207931003,0.9280960263,1.0675474637,0.0846075391,-4848.7823568131,-12179.3236721261,-7381.0887762695,0.0116430715,-0.3124689596,0.624540926,3138.7644928326,-21621.2755483385,0.6841449731,4790.3214548402,1036.1227765459,-0.7165022115,8952.3689821648,2850.2304571965,-5.7613821025,-0.0967846643,6922.8537956171,-6889.70289224,-47.3061549921,904.9358281619,4465.5001432488,-1.6396511057,-186.3005432872,5020.8114954802,116.8960861267,-1205.8085815286,9954.1181416088,-726.8112191452,4161.8945792238,58.2256095774,-3233.9866795248,7392.9899804248,-3309.7743110892,-2213.0200653411,11031.1353014352,-2256.3970889541,-1075.5531000444,-4049.6788285617,-1.9762303644,4.3703491694,2826.6445974208,6564.1336582195,15547.1137666256,252.9192612146,-1374.1961681928,-5999.4033354215,-0.6690605733,2462.6029999089,4675.9307804671,64.4134461397,-1.2912855102,33769.2219497069,556.1980139477,-4168.5794443789,-577.1948506169,-0.7655990933,7373.1033029959,0.8615620716,7347.4233475221,2816.2910260733,0.7038472188,-0.150417741,-0.2420076002,-4169.1523964051,-3375.8691995933,4999.3519002899,-31201.1357408876,-126.2516804172,-0.4931523768,0.7063915075,0.0305718219,1506.7266881907,-11870.2004283189,0.1048293341,-0.1885382157,-512.7361062894,2749.9635180442,0.7429575134,5.9030121886,-0.4723283286,-1995.2034963181,24404.0930958951,-0.7821315074,-8752.5826021004,-136.8965269127,-4922.4743851747,-0.1007839132,-0.531575715,0.0662161867,2035.9100470532,-0.4533450164,0.4593068976,19506.7746707009,-10032.4270980086,-5705.5923557099,-0.5280896036,124.7699158872,-1511.6614359926,8710.7292038892,368.8183191499,-3319.4846998338,3159.4792253425,-15976.3981052079,-1555.062177002,109.9909942868,-6765.7577742069,4601.4489707406,-7.2540866025,1027.0847915335,5069.3119593006,-2456.0039446858,2761.5907203709,2287.5195036443,1287.6627833363,-2610.0240193407,-856.7674211493,-1.8696315362,-4643.0050552849,10083.9966965352,313.5634498813,591.0049005587,3744.4519210956,-5719.9429443868,-1431.4727803156,1684.236134041,-19661.4826535714,9932.4457267564,0.6514059391,9455.2176307078,16480.3206576233,-4.9471765004,0.8534728232,9219.7831989804,1.1963055041,-0.1979831432,-0.3913342291,-0.1315935429,493.3240909876,0.8705154878,-1.0557988228,0.2573779597,-0.8332777869,5426.1812928539,0.8092708931,1122.1082761853,454.114689922,0.3535880571,18849.0173915596,0.4137393108,-0.3361634137,0.3021820221,1153.6828212933,-16.9621374688,1749.5426381932,-0.6134251142,-0.3604127942,-16976.0232721649,-3166.2062739705,-235.6456444022,-0.7595862785,-18776.5311177103,10759.8931458763,3.8826876434,-0.8460537862,9421.4605660997,-16051.0948046872,-15.1940344776,18109.1669598729,-0.6257484551,-0.744825445,-1310.3207353933,-51.9389504445,21168.4221096521,2.726735645,-1372.6595973193,1.0914945893,3.2039239807,-6021.7783501528,-4772.5339966018,13743.0356788642,7346.740805135,34.9979087235,-163.6549181863,2881.664972502,2530.3009956641,13337.349332934,-12275.667410353,-649.5997761464,-2663.2059434751,-3718.4842046314,28024.0278173365,-22038.5021830639,4598.4135838708,-2834.1528650862,9379.8597418826,-6067.7382133965,-4210.5864336294,-4469.5501151106,9949.9624561037,-5473.6308003132,1953.3681131446,6604.9526557812,20507.279350117,3477.345154474,-11926.121969119,18385.1782494316,9360.7263920186,4622.702268211,15792.3145082311,-0.3071086546,-0.5985329869,-23411.2831394113,-0.2388729221,0.7952085107,515.3124782181,-0.7612277654,-3352.3739089012,0.6000466759,2284.2329335896,-0.3616838541,-0.0731424842,4818.2231586917,-0.3652197975,-0.4649162081,6698.8049194699,2169.3493756677,-23190.5123182329,2094.7994548174,-3892.1734578297,-5967.2959000347,-0.7345155289,8.9607158497,-2.0193532108,0.8072432012,-1284.7733876066,2.4733752901,-19.9525364899,-5332.9148357696,-1.0069917145,-0.2774390526,-2695.6496685245,7781.0130408845,4.3479252142,398.9939826496,2877.7767450165,-5139.2185423827,-0.0477606751,-7485.5967330461,-3.1787638583,5.4962425368,3891.8237250302,-2314.6649185313,-0.6940175429,-1.7416397325,-0.9006585737,-0.8492616776,-1733.5461501549,-19863.5064617916,-47.3065619071,7977.9669903119,-6194.1435919661,858.2654395951,-21704.982961586,-5257.586129441,1485.5440692267,7426.2235394093,13403.1630606957,-11472.8318566747,-7707.0728909578,-481.1124941631,1.4022379601,-237.8650727986,-3251.8527569799,-4239.3007521724,12631.7555806412,-14822.2594294417,-6842.3914372417,-579.5420313639,-1551.6083645012,2765.6214403514,4263.5275088985,-5890.2394336707,-6173.7876825367,589.8597980214,-4610.5100579484,-3.1421502639,-20480.3638256261,-13923.5364542445,-4351.6739494659,-338.2247398876,62.2676095477,-12158.1077492745,-10529.6528128249,-1.3547570024,1.1809616966,-0.4363920308,0.7022759395,69.2033190674,-0.6993482915,1.8786706411,0.0809745533,0.7847753071,-7504.3403630388,-1.8183846721,-0.5901986346,-22222.2791771424,12487.304273334,42.6009362556,1926.0451960532,-101.8021550154,-1.0636614604,5382.6690828939,944.5514672934,4074.8619656472,10.9373742391,-752.6203633969,0.0970191238,0.0928547616,1961.5785392812,0.5778722136,7443.5176361401,-1639.2858056763,-551.1164197692,0.3496406611,-0.5756465915,2539.1927613917,1.0176030546,-12466.1322416314,0.2954301772,0.3631508237,1299.4386922929,1.1198930565,-25.8153647082,-1317.4283046311,-0.934723934,0.7921164316,1329.1245706159,-5822.7874778858,4456.6458825395,6084.8327110073,-2522.6401532087,-3035.4470551723,-13321.2956093168,4208.7197478181,-8165.1177999862,3607.4519004056,9989.4776782992,-5098.1591544347,-1831.6883503777,9069.974043055,-1092.862396909,453.2152593396,11947.9481548017,-6457.5894198272,-5386.4741727044,-2044.6306650397,7680.5518968606,12276.1447807359,-1096.0933120861,-1044.5064416521,-4600.0857144767,7341.4323494494,-7492.5922858408,-5827.3550923614,2312.9788703878,1705.1351439386,-0.3870993941,2277.7535765826,-37.7871450256,9711.5040806606,0.8719115944,6436.3101695682,-1748.6876963213,-12833.4939611628,-1.3673674007,0.879803935,-1588.3462881448,0.2216672375,0.9607054486,8.302900338,-0.2917946778,-0.5396228991,0.0214550278,-12832.1910593491,6606.2434946096,-15248.4046290627,-24254.8080243348,1930.1911961427,-28938.3356209904,-3377.6365833671,0.5963799624,3998.0746674972,-962.1312540539,-225.5099242902,-0.3507594155,0.8719470125,60.8764786137,1916.7244476044,2.381678363,-0.6907454342,14594.9513651274,0.7210649627,759.8269510941,-3073.727935257,12744.4908544629,11.4566554434,-736.9471705966,1.3532474831,-1072.2813518863,0.089605236,-0.9646693573,300.0175700807,8.0799793614,0.2169020906,-168.6184027441,-1.362673168,-1849.9534635319,-3748.2257789531,-95.8197386617,-1878.1391835238,-2198.9807635539,1023.6858893001,6252.0472996044,-3603.0177617346,2987.9403392881,-0.4777463258,4305.4425360951,-38.9414483794,1208.1795626098,1060.0324066139,2231.9103547748,-5634.351717546,-3451.3124129633,-4894.9043628181,-7334.9930938323,-8090.9423171754,-2004.3273960727,-2249.0683990098,-4503.1286871844,3743.0766218798,-3111.6357604361,-1881.5248713876,6654.481196835,3007.6856133636,-1.4886982021,-0.1126523193,295.5782806321,0.1388159306,-8422.3736585367,0.0993935929,37.6396412334,12833.9502920618,-3574.0937948154,9978.3105696375,-1276.6364985236,-0.3529486056,2774.5839031625,20991.4674317106,-0.1910545837,-0.5042620552,0.7113736707,-4.9066064941,20.5150043539,9976.7235445958,1.4964304484,-0.2973037218,-0.83175474,1.6749384659,0.7108594847,-106.8140252075,-0.1824747113,-0.2366967933,-2731.7937612443,3738.6325174311,942.0759730228,-1074.6025078964,-288.7560485665,-58.087376308,6599.4849602549,-0.0004464156,-8117.9734075802,-19018.8745364147,16213.7591156569,-2.5501999495,0.3198258013,4988.98253331,-0.8018110524,2716.9570788535,-10690.6298995665,-77.0086322569,-0.1913683323,0.3282915954,-2911.1819072173,1.0590612636,-0.6539833391,-1.0409967431,3134.9048778529,412.6488352589,8507.9634847333,-2285.8500089221,-808.3259176506,-4183.760627674,-2511.2719563829,6250.7459133746,15029.8594709969,957.2663378465,-49.3338475821,2092.9834936445,7159.7294971531,-9339.4627446329,-5654.5241389379,-5883.2123307966,660.1717283258,-11751.9645932297,731.6053975939,7532.7221186577,16.1117409211,4436.6775001619,2012.5836448772,-2.1785969154,2175.5259054479,999.3601575592,-4447.5417944369,-9669.3187870739,-1171.0334335384,-567.881290396,4045.8114418625,3.1159433491,1.2370407882,0.901851868,-1666.2484803708,-566.0748083538,13.7423096657,2.3152708754,-3692.2320739207,0.6583175942,-1.3050474375,-25352.1724449006,-1.2175681332,-2944.0262551785,-0.2210727253,-9278.7889303078,1004.3255636472,3.7082760058,6.2269390083,10351.1326524929,0.52288943,-1435.0344562369,0.1691369304,3099.1767717711,-437.3518137735,0.1153655987,4896.2671104862,0.1122251371,1.1406684652,6.4688244808,0.3943832811,0.7641384483,-29920.9309531594,0.5390459599,-5239.3077082188,0.0882201457,18954.6887085023,-0.7090449018,0.2660598777,-7683.3023668781,0.8659974043,7.2752133137,4852.4157497004,-0.3108903318,-5545.507640332,-746.164460725,-11275.8915132588,8548.7645453435,0.7214033079,-0.3107673104,8963.2890594431,-8288.9866240248,-6.6658642136,2.1037961483,-13928.0692964285,-1473.077928179,-6342.2173881237,4939.1321184077,7542.1001854392,12603.2825951835,-6895.7490743115,5204.2601503536,-36.643168787,-2924.0084642458,1814.4782425747,8255.9306021513,4968.5409466403,12739.9295588597,-6566.2821102629,16257.2214352237,4097.7573709373,-1557.8661835869,-3995.3366240575,-994.7262247233,6686.9684361576,1043.7073895868,-6202.5581433873,-5742.7784247366,2785.374090294,3990.5674258929,-1.6135701251,-0.5376406965,-2408.5214862184,12564.6628105994,-497.1103372605,0.8832545452,0.7911270601,0.0882002345,412.4305824151,0.707970056,-3.1564150612,-7454.9790020842,-230.4673896681,-4.1311347916,0.0280708226,-9264.0566067476,-1558.5171371628,-0.1150503412,-14667.3689024524,-0.3723557971,11143.6604606328,12.297678159,-1.0589493146,-0.3760225881,0.836604196,-5429.4452222942,-455.7447781211,10071.1817613068,6625.2921107403,4612.3871201282,-6.7989077867,10904.3241165391,4547.5798575147,0.2064675898,9290.2200570628,-1997.095044009,-13.0698560723,2.7273435365,23435.9443308483,1407.0364799803,0.7048863513,8657.5151779159,0.4805731591,-1535.9930520969,-0.6794524079,-87.6610522359,-2189.7006523065,0.2093456804,-6301.3740527969,-0.7190142933,-109.9955099018,-5856.4454630462,8619.473237314,2491.5670200517,-412.8377169041,11012.549469234,-388.9578993608,-0.2903267409,1261.6172140536,-2342.5454774929,-2073.0423621011,618.8743889869,269.9823717447,-10026.2789630458,6758.3172213216,4355.4693380919,6.9499391223,11671.955473698,2831.8828810074,150.4131267134,-37.2471475854,-928.0138491568,-0.4609187686,5343.4335295624,3347.7938898457,4627.5741666204,-10272.1515521096,-6924.0077162137,-6985.34870818,1954.2156202063,-5851.105385882,-7907.7158565182,0.9734274605,-3426.0122397216,790.1840870398,950.7025616524,1692.003844992,2881.4666342795,0.278173391,-0.7365752479,0.3481840791,-0.9065282986,-0.4077987773,-120.2455830893,-0.1752626645,-0.6218758621,-22711.547117797,2882.4366209215,-1136.5299707383,7066.908155078,132.7269918223,9436.3897293303,2273.9908012702,-3567.9344819045,318.2622976187,1334.8356254694,13370.4495444509,-0.725922641,-15136.3548488163,-785.8561241287,0.1907511007,-3083.2620078011,0.4640056084,-0.5884161157,3042.1733992484,5854.5331960823,1149.0907059775,361.3060646431,-0.8032909855,-0.5343597703,0.7167852621,-27175.7507551867,-189.8176109816,2.1398859416,-0.9324903272,-0.5574509166,5706.3636870638,-1.1654963536,-4.9370675093,0.542376756,-7852.9138639413,-16768.7053593247,-3975.9887770606,-3093.5843439727,-15249.6052673873,1517.0690479738,3037.990347499,464.7792483945,6289.3474503312,2403.6868904187,2229.887386998,1.095976178,2121.6552421814,18.5169248779,12900.6636737773,-9.2989484464,-30367.1832015098,-2754.5324253835,-1272.6304327962,-13823.8200924842,15260.8919044362,-8868.1198773068,1.5001672136,195.6985647722,-17889.0848183049,23834.3454963893,2863.0616625204,7998.4075660854,-2437.8414004156,-335.4925918991,13147.1906443647,-6261.4892110293,957.1114722401,0.4298910697,3.2235198435,-2688.8824144289,-0.6540583546,-1.3129284878,1809.0403069997,-0.5196390619,0.9375561906,0.7584436266,0.4364712126,-0.8329026447,-0.921114768,-0.1017682893,-74.7329696424,-0.2166741241,-2.0657871272,-5149.1858885104,5.1609914597,-7165.1903332161,-0.5358885042,-1018.153037025,17258.7585402678,-1.8306029269,8291.6713572914,-6990.4508865292,54.6940880204,-0.2542243254,-434.3612480663,0.128821349,-0.2803337554,-0.900206752,24196.8803114602,228.3097721536,-0.0495448506,40.5837005263,-1444.5900484832,0.3867953587,7735.2718545358,-352.1453772007,-6250.6815864414,-0.5232329041,1.0044421676,1.0905379961,397.4398405984,-4144.4876068539,5469.900108858,-1.002775311,3382.2322163201,9369.6534114193,2.2809584581,10726.3340565718,1471.4563621985,3657.6281653065,-11281.8555963717,1737.190962767,7981.6345439082,2355.7671274125,-168.5220962266,4390.0280232416,-1756.506903644,-4909.0801590281,-2689.1754975113,1003.1714083432,-11381.4941639581,-9168.0462898881,-6.0241007405,4941.6260456055,140.5816216313,-8917.7910148213,-47.4166976194,-1862.5750716472,3040.9366973602,-650.7573434236,23862.8815907365,-7963.7568346647,12841.2934072053,11377.0068722299,5610.9366003581,95.5443656053,1092.4772008324,-0.6978267519,18905.322140038,-4327.379372873,-20.372285902,-0.180178652,-0.3826701243,-0.9604562614,-639.7823069282,3.1019348368,-0.2703795141,2457.6401138706,-0.1081255936,-19276.1501531728,4001.0684405367,0.3311455932,-4838.2432355243,-10689.0982111581,1821.2602852309,3040.7693846436,-1.5237834971,-75.4387384662,-17203.5203420504,-4312.650319688,8359.5818987606,4386.7415056965,0.0361321692,-2028.4076341606,-0.8483253074,-30466.008304807,943.6242223648,-0.1467316713,-6679.8299764216,2457.3628927604,8493.1428046956,-0.1835947578,-8311.9595651998,-9.4348160055,636.7888236088,-0.7679198939,-97.8115144901,-2263.3080787713,8039.7347215695,-0.4879696099,5482.9496776081,-3542.2426070564,-2397.2262221258,0.0948429486,-4824.97634951,-13394.5191256829,3812.2722062047,8779.7065091019,-11266.7543054513,7419.3458066005,595.0608665709,49.3172523708,-627.7160946083,6835.0197770934,4866.2609250603,0.006628271,-3388.9687260295,-1243.0005714044,3994.5821695353,-3647.6019226008,6581.6302532537,-2960.5659200446,12711.5883626023,-6316.30906323,-2606.2296031759,-86.6855320473,-6249.9187326419,-6426.0707092633,-1809.0032573431,-3499.2729008761,658.4774793025,-176.1778769065,-1596.2162386386,11349.5650248259,77.9576938603,2660.0748721428,371.7032843732,0.2898712881,13.1834117982,928.5287957985,-0.0627313178,-0.7199811997,-23.8461889543,0.7805046833,1.0888150148,5459.5729991937,0.3082437095,0.8521451562,0.3135524475,-0.7587985738,-0.2621480892,1.0297753411,-0.8155436241,1419.0535574715,1.8651789175,-52.8851315404,529.1114051293,-2114.065871564,0.8672133455,-0.4065908477,0.1316778685,-0.4171972918,0.2488230358,-0.1141524367,-0.0079051658,-0.2853858487,-14773.6289545389,-0.7175076811,-2339.3019777575,4.119584898,5454.5011969961,0.2711221134,-12052.7427021356,1.1655733774,-0.2986919654,-1.3001735093,-0.1476719712,0.408932605,1.3527694888,1756.3368110603,13085.9191812834,-0.6165861937,0.5415712137,0.7852425448,3623.9551764723,-8604.260130705,461.3875816869,2335.4279907073,633.1260414117,442.9438988253,-2151.1844579019,90.0539733379,-4529.5742438917,-5350.9867385114,-1809.8834571141,-806.3556070572,4097.4991203648,9150.9760094854,3682.5496296482,7672.0251423286,-4842.2943015653,3534.8003755574,6804.9972821442,1907.8503954758,-472.580318286,384.2218640753,-3659.6971154454,4612.2908390216,3565.5027929206,998.077118147,8035.4558600565,-40.6458202729,920.893907821,-803.5636213127,-0.1850269012,135.9723679952,6116.9323190094,0.3103578704,-0.8280965675,-9472.8129015516,11260.3658219856,-1.1876297385,0.3760934271,0.0275523735,-3670.8581847109,-2389.306028358,1066.0047720618,-0.794839622,-0.0079875719,-2.2317306305,-5973.350583363,-0.692479094,2094.1954455683,31202.9430595383,-6544.3768460428,-3739.3204129662,14539.2446367017,-7747.1295676736,0.3661929871,-1434.4626688908,-880.0059252828,-4496.3035799158,0.6470333643,4.5818043576,0.0781575611,0.9177976008,1.0955854388,0.3088292163,-12301.3834659242,128.9603481579,7657.6371816733,-12.47798502,2.3135977234,0.4499387121,-0.7664199713,0.9288331986,-0.0057287498,7.6224539369,-3048.8564957618,2187.2313053996,-1051.0039058434,45.881957359,-2207.4187623766,0.453189437,-11517.1057465031,797.6661852609,-1226.5305987441,-2684.7968341359,1780.4345223413,-1648.0022172358,-1383.9474242922,985.3991656855,3.3316126987,0.2803696525,-769.506980368,2248.5895163659,-12309.2179773466,0.6967123774,-15858.1806581264,-11924.8855202587,4587.0461457457,6129.0773556281,1349.2999433993,-5986.2132018855,686.3427617568,-630.694431387,4035.6669502502,2875.8835745039,497.3086352077,1962.5921230959,-2650.7856585268,5367.5874027658,912.559114728,11655.4685034959,0.2878605667,102.7520977013,448.8844472326,-3.0565421661,-4909.971052806,201.3926319186,2134.3067836076,13298.435112728,9575.6542187068,-0.8758011727,-6824.8274240386,0.2773924459,0.3388730332,-398.6190561951,0.6087972085,2105.3176531156,1.4378883299,13298.6908014345,0.4551503473,0.4272597285,7550.4588409368,-3293.2898461753,-0.0702987026,3821.5058699597,0.2238867888,-0.7317045918,1067.2756670445,-3973.9392245275,-0.7169801235,3568.8049732026,1388.1086110325,2158.3326746055,2972.758820745,-0.2093071667,22260.1402668746,0.8027222213,-7354.6101797977,0.1924593415,3716.2352762793,0.2092227235,-0.600252509,-0.8823475661,-51.9426319538,-3093.2007383557,14045.8764600565,-0.1661162627,163.5950011572,3.1178836834,4641.850441816,22.8242293744,10984.4797674603,7845.247108767,2919.5319013797,2951.7580490837,-737.4164094207,2249.7350448436,2938.3874384921,-2221.8881480979,7044.7025972355,14705.3590018544,8244.8661494829,-4209.2090830713,2750.2579009857,5876.6279757096,-3362.2059065784,10085.4250573348,182.4578303718,10505.6335667136,845.4118220866,-7580.7301241149,15145.1823514311,-13638.6361469041,-12751.9652223169,112.817220493,-2583.5050567516,-271.0237159647,-7165.7915956955,6609.1349722577,6167.7896504777,-2948.5489073879,-906.2604225509,-6473.1756574865,12995.2988772358,-2709.4812473388,-778.8534231146,-3490.2415066966,13224.2583490272,2342.9865298098,1553.2408553679,-0.7192461906,-1589.2922870476,-0.4093545898,25067.4881687928,-0.3409241727,-0.3114121946,-51.3491848327,-0.4362868818,2343.8570518455,-0.031171175,25462.7904902443,-13353.6227723176,-305.8536922809,-0.339959052,686.8364610336,0.4707759554,-13.9451642356,-14420.5579102447,-0.1250759116,-0.5433916599,0.6351284029,2253.6593717769,0.4499713578,3453.0542373333,0.2622738936,5277.3875070177,21.542980623,2364.9734758781,-0.6519125263,-24.5169830113,2085.81033501,-6908.0393997008,-1667.7015663402,1.0020156967,0.9775764538,0.4777472659,16019.2370619939,-5273.1697530936,1294.5703666532,6673.0354711592,-0.4507325018,-185.4106325132,9289.5560870625,6423.4133061669,4457.6872841332,-12270.2678350974,19943.4356504994,5328.6409689827,18219.3693371118,-3805.8318658246,4993.4817825738,416.7606455874,0.2939534796,3144.3806215901,1884.493024869,-3337.5418052185,4390.0973132063,-3488.5564675155,-4.9682338839,-5051.2569513724,-2258.4991606428,-5840.5974593971,-15644.335918537,-3.3122902262,2103.8913178249,-149.5828791362,14717.4314417421,2295.3189821723,-3854.592767403,7176.8946092074,5761.0559713627,-5730.9838839244,-6493.1220572841,-438.8846729655,1.03525892,-5173.7184394585,-8522.0523376209,10327.1467554981,-0.5014138258,0.1900010647,-0.1840917206,207.5566023719,-0.5416736278,0.6405612715,-4417.8396292734,-0.2024541214,-4334.7663250292,-4423.828347991,0.4319744686,0.7354288186,-0.2739586331,2351.8983987617,-7935.8699511638,1679.8320342937,-13.5295917674,2.3345788204,-14614.9454024651,65.8854510515,-528.8132574273,2.3520098547,-0.0497364225,-5722.3331795446,0.0696724067,-0.5883582517,-0.5054212697,-25657.6829216254,1.0785537758,0.1158050908,-0.5027203901,-1268.1387921472,0.7093076457,17648.5482861166,-0.5736123209,-1.4168475998,-12322.6685386802,-0.5151840772,19350.8428823252,23019.3318424718,-1556.4391989029,1.4749182053,-1.4037876967,5408.297021469,2238.4642470628,-7651.9950523396,-13007.8449259102,3899.3761628429,-8537.3455440579,-10567.0722510535,-6.968382396,-10202.2058336389,9841.0444513762,-7625.8254503314,2854.3292250698,987.1654207736,113.8570255207,-8048.4749109756,-991.7380691658,-9494.0797372677,49.9610226014,15299.2478872137,6913.2469825537,-2560.643236556,3.3624017372,-3238.6469576986,-211.808699153,-10505.0840362893,-543.0334726922,6815.0315798742,4134.9363135947,162.0945017888,-1293.5314543025,457.7935082504,3183.8760456323,0.2238116491,728.3857941717,-3884.0674285753,-13730.0577024247,-0.2087759423,-0.4392851359,-36.926877024,-0.4884771776,18400.6940313593,-0.6893973407,0.9186928549,-0.724583748,0.7343976771,6167.1125157833,-0.0773006085,0.7258998167,-7657.4788856578,22948.3445518701,0.0701459864,-12801.1082363574,10742.2049876539,-5563.1428523303,0.4539559522,-654.3117983752,-6482.0839943578,-0.8904736987,0.4402244062,0.4064415191,-0.5087356921,-0.3318045726,31400.8365718315,-0.9887422662,-3745.1839711926,0.1267802185,298.3234386024,-2887.7057579789,-13170.9132763544,-1.4439226722,13300.5286234023,4530.1050171363,0.436651107,-165.112119408,-0.5469004099,837.7493508414,91.3104389781,-1817.4842793236,-3.0020844919,-0.1284810564,6799.3654498,-2180.5527273436,3108.764261907,-2636.557551639,-242.9832856627,6298.0938002206,1790.2353241878,-10729.2216576562,644.0107037604,-3240.0052927583,-1813.4957325372,12880.3766670306,-7.6872925166,-12553.6492853394,-8482.1013986832,3013.4295658597,-3192.1760670758,5570.495628719,2.001755662,1757.7104600153,-2035.7565145558,16295.1472897044,-5063.1937278585,-3727.7494995487,12170.114475707,-1134.1946508998,11340.1606078742,-86.7184446573,-2281.8374570425
##end
biasActivation=0,1,1
[BASIC:ACTIVATION]
"org.encog.engine.network.activation.ActivationLinear"
"org.encog.engine.network.activation.ActivationLOG"
"org.encog.engine.network.activation.ActivationLOG"
