encog,BasicNetwork,java,3.3.0,1,1425329655034
[BASIC]
[BASIC:PARAMS]
[BASIC:NETWORK]
beginTraining=0
connectionLimit=0
contextTargetOffset=0,132,0
contextTargetSize=0,30,0
endTraining=2
hasContext=t
inputCount=50
layerCounts=50,31,81
layerFeedCounts=50,30,50
layerContextCount=0,0,30
layerIndex=0,50,81
output=-0.1110734693,0.2710767362,-0.0645644484,0.2508549899,0.4351508243,-0.472685736,0.2669561401,0.2133799408,-0.067147062,0.1367780163,-0.0000441006,0.0712083384,0.0366917735,0.3814357232,0.1256234352,0.0000556825,0.0853671053,-0.0237912516,0.0034393161,0.3464048775,-0.0500440125,0.0144587424,0.2104706368,-0.0555134653,-0.082241085,0.1644648257,0.0575124271,-0.0852370552,0.1245671325,0.3749462105,0.1129761516,0.194230167,-0.0228519494,0.2398825198,-0.0001708818,0.1769253872,0.4802364509,0.0756618258,0.2537440625,-0.0342128127,0.0347032743,-0.0966340135,0.0647908113,0.1971729815,-0.1817272977,0.1614498955,0.4130414966,0.2711675049,0.3185900256,-0.3353342444,7.400826911,8.7919436697,8.6729083344,8.3323250903,8.6586426859,-9.4651256469,-9.5277131165,-9.2026705063,8.8314508316,8.3323835945,-10.588844227,8.6419609434,8.9124979794,-8.0156827624,7.941197009,10.8244333824,10.0731212256,-10.539267877,7.0546212716,-10.0337700708,-9.2947750799,-9.702897321,10.1657047148,10.4994470397,9.501816949,-7.7974891213,-9.2891232798,-9.5011545424,-8.005731204,-10.1426172899,1,0,0,1,0,0,0,0,0,0,0,0,0,0,0,0,0,0,0,0,0,0,0,0,0,1,0,0,1,0,0,0,0,0,1,0,0,0,0,0,0,0,0,0,0,0,0,0,0,0,1,1,-0.1110734693,0.2710767362,-0.0645644484,0.2508549899,0.4351508243,-0.472685736,0.2669561401,0.2133799408,-0.067147062,0.1367780163,-0.0000441006,0.0712083384,0.0366917735,0.3814357232,0.1256234352,0.0000556825,0.0853671053,-0.0237912516,0.0034393161,0.3464048775,-0.0500440125,0.0144587424,0.2104706368,-0.0555134653,-0.082241085,0.1644648257,0.0575124271,-0.0852370552,0.1245671325,0.3749462105
outputCount=50
weightIndex=0,1550,3980
weights=##0
##double#3980
   0.0000299408,-0.0049335366,0.0020639434,0.0025477902,-0.0064041996,-0.0030797347,0.0017141325,-0.0011679045,0.0032477627,0.0013526099,-0.0023621597,-0.0031466324,-0.0017075622,0.0020099834,0.000261955,-0.0017508048,-0.0071919767,-0.0059327934,0.0019248986,0.0051013429,0.0076467715,-0.0061544052,-0.0012240213,0.0031598355,-0.0015999844,0.0006640137,0.002920515,-0.0037923509,0.0020868869,0.0018077384,0.0199358767,0.0026771433,0.0021577951,-0.0025594699,0.0113946552,0.0071347354,0.0069563358,-0.00438303,-0.011261147,0.0076559917,-0.001458815,0.0022240914,-0.0062456564,0.0033954467,-0.0005652937,0.0019640837,-0.0059975639,-0.0072426694,0.0053983907,0.0059806199,-0.0037019605,-0.0018482115,-0.0042883824,0.0057585437,-0.0087397224,0.0037295634,0.0024694638,0.0002802997,0.0009633829,-0.0069343581,0.0078886503,0.0998380394,-0.0066992414,-0.0001824987,0.003825353,0.0018021806,-0.0016649754,-0.0035566202,0.0030426137,-0.0022009068,-0.001426227,0.0020780197,-0.0096498937,-0.0086519326,-0.0029119929,-0.001888367,0.003739382,-0.0063741744,-0.0233345324,-0.0015631736,-0.001581665,-0.0106229097,-0.0047136174,0.0055247232,0.0029209102,0.0010630228,-0.008722196,0.0055646191,-0.0000425916,0.0013216699,0.0089129956,0.0020227889,0.2682882495,-0.0047265024,0.0037636709,-0.0002770446,-0.0052608717,-0.000709194,0.0033408925,-0.0001430706,-0.0041903382,-0.0042435055,-0.0002073712,0.0061980556,-0.0035508472,-0.0052597487,-0.0061967421,0.0020551548,0.0051534673,0.0021732462,-0.0033286089,0.0051841007,-0.0050900039,0.0082795411,-0.0000004105,-0.0044206085,0.0016018509,0.0057537354,-0.0032066573,-0.0084891167,-0.0074388608,-0.0074878869,-0.0012841412,0.0157203361,-0.000741549,0.0081118653,0.0018150411,0.0010015761,0.017525013,0.0043736789,-0.0042195849,0.0004929772,0.009048899,-0.0050391524,-0.0034637725,-0.0000701637,0.0069793025,-0.0052234212,0.0028190795,-0.0008242354,-0.0023219256,-0.0032527777,-0.0039666641,0.0037574174,-0.0033737961,-0.0103665231,-0.0049613464,-0.0006596498,0.0014178709,0.0015811632,0.0059573533,-0.002427583,-0.0018823998,0.0014417793,0.0185789627,0.0009003046,0.0190835627,-0.005105049,0.0049480292,-0.0034538303,0.0078355692,0.0176459366,0.0003333597,-0.0006481766,-0.0020779394,0.0082901564,-0.0021196237,-0.0053272297,0.0017247446,-0.0033669387,0.0059845021,0.0058266889,0.0002393796,-0.0082742194,0.0127502389,0.0056465851,-0.0003370278,-0.0056925207,-0.0012459867,-0.0057334166,-0.0017698414,0.0086776841,0.0048904185,-0.0055442085,-0.0010276673,0.1468222751,-0.001164986,0.0082111968,0.0010987686,0.0001389445,0.0044048114,0.001728737,0.0086476887,0.0014675573,-0.0057636818,0.0018744665,-0.0004578878,-0.0079857702,-0.0036176503,-0.0111156521,-0.0052269725,-0.0037765963,-0.0028993374,0.0014643408,-0.0022845933,-0.0060658271,0.0038117935,-0.0004685902,0.0129463405,0.0047092548,0.0041884453,-0.0031880812,-0.0025863042,-0.0117600856,0.0102450488,-0.008254634,0.039399215,0.0029410094,-0.0000394101,0.0074493478,0.0013357838,0.0042866677,-0.0016979839,-0.0002817741,0.0083538982,-0.0025848123,-0.0033829667,0.0065260151,-0.0073284946,0.0052704413,0.0135239043,-0.0001767718,0.0068339944,0.0043941092,-0.0035843546,0.0043442011,-0.001334263,-0.0064538097,-0.0066417407,0.0002342354,-0.0079739471,0.002307284,-0.004410794,0.0037282874,-0.0008255922,-0.0000029733,0.0006955517,0.117879149,-0.0063043654,-0.0050925457,0.0005282641,0.0065758854,0.0047265281,-0.0062405025,-0.0020094551,0.0020908748,-0.0028983964,0.0011427631,0.0103135408,0.0006238551,0.0011016831,0.0035932963,0.0048461805,0.0011895678,0.0041514211,0.0005135215,0.0033603907,0.0036884403,-0.0018178578,0.0006519745,0.0005862742,-0.0090669362,0.0018417818,-0.0017486668,0.0045218453,0.005274687,0.0116046981,-0.0071444485,0.0895180798,0.0032227455,-0.002528998,-0.0057362829,-0.00037491,0.0086827972,-0.0008114461,0.0020039735,-0.0016753274,-0.0003115916,-0.0062904403,-0.0039699028,0.0123336812,0.0024289521,-0.0062974033,0.0035278983,0.0049625972,-0.0035844807,0.0029133578,-0.0077482292,-0.0067895067,0.0068573272,-0.0035577099,-0.0221796509,-0.0027016586,-0.0069812245,-0.0126475437,-0.0050909374,0.0061706792,-0.0072995643,-0.0032277347,0.0858137274,0.0000016083,0.0000003542,-0.000001582,0.0000008182,-0.0000027582,0.0000000044,0.0000016952,-0.0000017476,-0.0000013567,-0.0000024189,-0.0000008225,0.0000018568,0.0000002045,0.0000021167,-0.0000007895,-0.0000002603,0.0000014128,0.0000007906,-0.0000004821,0.0000006458,0.0000003584,0.0000017283,0.0000009624,-0.0000010625,-0.0000009902,-0.0000006274,0.000000067,-0.0000008272,0.000000012,0.0000013961,0.0000403812,0.0016561666,-0.0023068312,-0.0058396195,0.0057292809,-0.0019893062,0.0010233786,0.004799143,0.002849661,0.0021989897,-0.0099447901,-0.0049804594,-0.0039985381,0.0028960048,-0.0007848105,-0.0100846396,0.0045593093,-0.0028776985,-0.0044409303,0.0058815279,-0.0078399845,-0.0053834203,0.0059098661,0.0050636206,0.0010794157,0.0018058072,-0.0010965058,-0.0019117417,-0.0045136248,0.0120580711,0.0005440861,0.0471176884,-0.00837884,-0.0072582838,-0.0009142124,0.0020342996,0.0023736229,0.0003049627,0.0056932823,-0.0034399893,0.0007580985,0.0001931446,-0.0039347682,0.010696366,0.0045269704,-0.005191416,-0.0103970473,0.0060719449,-0.0014511764,0.0041456218,0.0014120798,0.0006904537,0.0014763869,0.0056977893,0.0102399279,0.0026555669,-0.002693371,0.0038414331,0.0061574582,0.0054652599,0.0107370419,-0.0084663978,0.1079506933,-0.0046590666,-0.0039418841,-0.000048867,-0.0020012946,-0.0090168535,0.001070994,-0.0037650195,-0.0021741971,-0.0039318433,0.000266188,-0.0012269904,0.0080868196,-0.0038612271,-0.0004548353,0.008167774,0.0048509088,0.0024447474,-0.0063707759,0.0056551813,-0.0113747689,0.0006700562,0.001480059,-0.0006164114,-0.0007209627,-0.0030726311,-0.0075992406,0.0015178634,-0.0085699885,-0.0059920956,0.0008672886,0.0150969436,-0.0036041266,-0.0024953927,-0.0069134907,0.0096615892,0.0061577175,-0.0002472569,-0.0039318035,0.0012058073,0.0030862693,-0.0020707599,0.0015024799,0.0047148617,-0.0063716241,0.007834472,-0.0034410277,-0.001186465,0.0005161386,-0.0145394798,-0.0029920971,0.0017984775,0.008156353,0.0093481015,0.0090300851,0.00810634,-0.0049487174,0.0100298754,-0.00463524,0.0151626322,-0.0092537896,-0.0063204043,0.1549580007,0.0000000649,0.0000011061,-0.000001814,0.0000014732,0.0000003568,0.0000009726,-0.000000823,0.0000007593,0.0000000769,0.0000018839,-0.0000014649,-0.0000002941,-0.0000001382,-0.000002202,-0.0000002519,0.0000011502,0.0000006555,-0.0000012007,-0.0000001211,-0.0000011681,0.0000006635,-0.0000017303,-0.0000028744,0.0000014453,-0.0000006216,-0.0000012547,-0.0000021979,0.0000009248,-0.0000010586,0.0000014704,-0.0000377849,-0.0020210678,0.0055194973,0.004182616,-0.0048252027,-0.001894608,-0.010944794,0.002570874,-0.0025720431,0.000679957,0.0025101139,0.0024715366,0.0102216006,0.0001072212,0.0097946082,-0.0028947348,0.0056871059,-0.0033972592,0.0261550795,0.0079261652,0.0043129074,-0.0037166167,0.0057360871,0.002613797,-0.004799857,0.0021523761,0.0116077356,-0.0010151777,0.003281047,-0.0037114003,0.0030012285,0.353964169,-0.0036006926,0.0092970186,-0.0057799054,0.0028438088,0.0049138264,0.0010227965,0.004049599,-0.0016079789,-0.0015420238,-0.00738654,-0.0000227447,-0.0006765942,-0.0035434211,-0.0021097483,0.0088003666,-0.0058794685,-0.0028431896,-0.0029143128,0.0015824962,0.0079845665,0.0006607403,-0.0025394228,-0.0008175284,0.0029035092,0.0062423709,-0.0014409416,0.0086300014,0.0004751882,-0.0065497292,0.0030937104,0.0469457577,-0.0064778888,-0.0063407198,0.0014573727,0.0071033546,0.0043406559,-0.0015243856,-0.0032723279,0.0026147584,-0.0047352761,0.0021651488,0.009700997,0.0016940157,0.0029738837,-0.0004419747,0.0043166771,0.0024586724,0.0043882719,-0.0004036877,0.0018725985,0.0027765759,-0.0003597774,-0.0035537927,-0.0002719063,-0.0065808175,0.0013575036,-0.0005253933,0.0006309703,0.0055099244,0.0106473812,-0.005788132,0.0650672877,-0.0055523518,-0.0002053535,0.0002818022,-0.0014938614,-0.0043285575,0.0028768277,-0.002831358,-0.0045558064,0.0011810426,0.0035614866,-0.0094092343,0.0075189745,-0.0022868477,-0.0024608049,0.001149376,0.0035272181,0.0039260363,0.0027971477,0.0047314658,-0.0044746059,0.0001693888,-0.0038197062,0.0068637118,0.0048079933,-0.0042001329,-0.0059852103,0.0030531772,0.0009743559,0.0009954271,0.0022908187,-0.0382808135,0.0086852462,0.003599216,0.0038396284,0.0042419162,0.0006871321,0.0008246566,-0.0020869506,0.0017631103,-0.0043604203,0.0021710364,0.0055742166,-0.0008786872,0.0031401161,0.0011970556,-0.0055151051,0.0106190247,-0.000668818,-0.0014490846,0.0030776491,0.0070725917,0.0073684501,0.0025423197,-0.0030847589,0.0001131087,-0.0032262135,-0.0066113873,0.0040190539,0.003053308,-0.0019132761,0.0091848187,0.068415046,0.0026364803,-0.0046398519,0.0012141784,-0.0028082187,-0.0002068832,-0.0001016674,-0.0015641533,0.0004067955,0.0050302626,0.0031904758,-0.0039094865,-0.0043407273,0.0037852109,0.0045085865,-0.0005378687,-0.0051205547,0.0038100941,0.0046158224,0.0035248873,0.0026026451,0.0036835832,0.0058986392,0.0019682033,0.0004642686,-0.0036025259,-0.006068366,0.0009324507,-0.0042516958,-0.0036775143,-0.0011714651,0.0174470165,0.0045582362,0.0013981314,-0.0047502826,-0.0019322715,-0.0016356168,0.0031878092,0.0062239324,-0.0022185047,0.0032091665,0.0001210342,0.0002630023,0.0030590014,0.003757959,0.0070761452,0.0064834049,0.0054036211,0.0010665971,-0.0002450244,-0.0104631499,0.0026479853,-0.0034631104,-0.0011055273,0.0023147057,-0.0001236254,-0.0032029847,-0.0058141733,-0.0059963113,-0.0016316761,0.0046277298,-0.0084451016,0.0524069333,-0.000962163,-0.007841216,-0.0003112555,0.0073513497,0.0004929865,-0.0011073585,-0.0026309597,-0.0016985655,0.0049193508,0.001925312,0.004435641,-0.0013496966,0.0087139363,-0.0006795584,-0.0050487572,0.0014880133,0.0146402979,0.0000062631,-0.0010051458,0.009328898,0.0114713819,0.0219730467,-0.000089274,0.0040734288,-0.005391092,-0.0020446962,-0.0005457734,-0.0036730791,0.0034392068,0.0047520253,0.1488625064,-0.0012541791,-0.0041189618,0.0036686499,-0.0052337871,0.0044106472,0.0098798083,-0.0020620035,0.0051472641,-0.0103435023,-0.0033300537,-0.0061407316,-0.0098458787,0.00020517,0.0101573585,0.0058798031,-0.0061805877,-0.0033171999,0.0035320077,-0.0023558051,-0.0095682008,-0.0068076537,0.0035739326,0.0058241894,0.00373729,-0.0109145988,-0.00593655,-0.0028371364,-0.0006964703,0.0132056526,-0.00035869,0.2877885969,0.0101688046,-0.0034236822,0.000773554,0.002136967,0.0001057748,-0.0063442622,-0.0005937339,0.0013890716,-0.0034131218,0.0017892315,-0.0006911505,0.0053808901,-0.0009994749,-0.0000429508,0.0037551363,-0.0013457138,0.0047349469,0.0118063769,0.0006657597,-0.0055016128,-0.002225404,0.001585072,-0.0097205881,-0.0021009685,0.0058439928,0.0028139856,0.005655299,0.0037580022,0.0023960242,-0.0067296904,0.1336624567,0.0049572043,0.0056552031,0.0003719225,-0.0006011062,-0.0009455808,-0.0007759224,-0.0011767861,0.0028701284,-0.0008690206,0.0006256169,0.0022172585,0.0040548181,-0.00613921,0.0044269929,0.0035380585,0.001573684,0.0022430314,0.0071630616,0.0045037074,-0.0023123014,0.0003027965,0.0017365606,-0.0047528948,0.002146242,0.0038525656,0.0061813922,0.002047456,0.0002441081,0.0036247841,-0.0031446127,0.0983287324,-0.003055453,-0.0006514439,-0.0013371837,-0.0070678784,-0.0039877582,0.0080563577,-0.0049497443,-0.0042534552,0.0032840305,0.0119951323,0.0010034726,-0.0063777158,0.0030699324,0.0128891915,-0.0065722321,-0.0138893264,0.0017967939,0.002706553,0.0031614784,-0.0044431632,0.0139190342,-0.0013580123,0.0005493935,0.0003778514,0.0041570599,-0.0045871317,-0.0045956446,-0.0025522412,0.0004280298,0.0009071098,0.1739608741,0.011486979,-0.0059293735,-0.0038273428,-0.0132871712,-0.0027236569,-0.0002919724,-0.0001160833,0.003352592,0.0042089683,0.0068888468,0.0026331641,-0.0038761075,-0.0072335041,-0.0062356157,-0.0000065907,0.0012219375,0.0006410041,-0.004465329,-0.0084638841,0.0104638298,-0.0182395695,-0.0048998539,0.0026084386,-0.0108071775,0.0046927793,0.0004947371,-0.0012402913,-0.0048408378,0.0018715813,-0.001780957,0.1340103561,0.0070076396,-0.0116981792,-0.0033809179,-0.0066255146,-0.0000497876,0.0070697925,0.0049806972,-0.0051547885,0.0015573007,0.0041066278,-0.0061094319,0.0107407599,-0.0027474061,-0.0137926546,-0.0028121293,0.0003522461,0.0026217419,0.0050390805,0.0037356748,-0.0005309429,-0.0135782325,-0.0105161462,0.0026777034,0.0040408686,0.0013013402,-0.0040237637,0.0145306757,0.0031058999,-0.0054176794,0.0062234626,0.1424124623,0.0066366356,-0.002676715,0.0014078099,-0.0013435409,-0.0108279338,0.0011701034,-0.0067155375,0.0019559298,-0.0007102016,0.0005750967,-0.0064698329,0.0035743703,0.0105647948,0.0086348074,-0.0041693666,0.0012784118,-0.0157418749,-0.0055206619,-0.0027194292,0.0189012375,0.0147584809,-0.0100788984,0.0033193245,-0.0072047072,0.0074808297,0.0012605214,-0.0109910205,0.0002583022,0.0026051592,-0.002129967,0.2704970759,0.0064006371,0.0043430771,0.0021535906,-0.0019794635,0.0095914278,-0.0026228623,0.0003806259,-0.00479303,-0.0071063864,0.0076220029,0.01492948,-0.0071479169,-0.0050307057,-0.0120495394,-0.0073618396,-0.0021911876,0.0068500289,0.0042056486,-0.0058058744,0.003096932,0.0040610781,-0.0001558172,0.0028443237,0.0066627584,0.0000910856,0.0005506204,-0.0027411407,-0.0114961332,0.0051950406,0.0040042824,0.1433374964,-0.0064857988,0.000078704,0.0005689628,-0.0006052803,-0.0040434191,-0.0031823151,-0.0083371528,0.0106878939,-0.001194261,-0.0049042125,0.0047759924,0.0123989842,0.0060777231,-0.0076473568,-0.0073957192,-0.0078106335,-0.0034438277,0.0002346778,-0.0097496382,0.0048620732,0.0031488926,-0.0069389406,-0.0022552852,0.0014787731,-0.0056313782,0.0050439278,-0.0091496924,-0.0021274316,-0.005733752,-0.0036236396,0.1000650661,0.0082215855,-0.0033563198,0.0095706138,-0.0091057717,0.0025433912,-0.0037316557,-0.0025653288,-0.003343987,-0.0042902063,0.0081601567,0.0009352419,0.0013065826,-0.0010010921,0.0062196332,-0.0074114205,0.0017944065,-0.0082411422,-0.0090285522,0.0118457463,-0.0031271464,-0.009416188,-0.0026423998,-0.0051994029,0.0015030031,0.0014671478,-0.0093280428,0.0019660528,0.0053225932,-0.0000359949,0.0086840765,0.0223482495,0.0000004463,0.0000016816,0.0000007549,-0.0000053359,0.0000011213,0.0000000723,0.0000030418,-0.0000010534,-0.0000008685,-0.0000040469,0.0000001227,0.0000017648,-0.0000006005,0.0000045727,0.000000145,-0.0000008542,0.0000024793,0.0000004204,-0.0000023377,0.0000014252,0.0000023539,0.0000013965,0.0000020617,-0.0000012535,-0.0000006806,0.0000031435,0.0000019043,0.0000013804,0.0000016864,0.0000016781,0.0000669299,-0.0006628071,0.0050785938,0.0020684968,0.0016200038,0.0037290188,-0.0045427055,0.0023850459,0.0021637445,0.0021731155,0.0015551007,-0.0006655498,-0.0032137348,-0.0005272954,-0.0060598856,0.0075319491,-0.0071652931,-0.0008171778,0.0080834814,-0.0047144642,-0.0117085714,-0.0035008128,0.0039858697,0.0052098159,-0.007928467,0.0000681702,0.0055214657,-0.0062418959,-0.0001835498,0.0015799625,0.0095736659,0.173593887,-0.0079799277,0.0004517627,-0.0023746125,0.0008322558,0.0057595706,0.0018492579,-0.0085225892,-0.0023516713,0.0038451535,0.0019704498,0.0030788039,-0.0113638351,-0.0086310988,-0.0010382421,-0.0040752145,0.0036040296,0.0004275068,-0.006397032,0.0002242751,-0.0119205754,0.0102819705,-0.0058871679,-0.0041604528,-0.0011003744,0.0141797767,-0.0012683374,-0.0074468516,-0.0072841101,-0.0115190452,-0.0012960586,0.0671636172,-0.0042968867,0.0064114945,-0.0040188764,-0.0022163883,-0.0099192727,0.0008946648,0.0024562428,0.0029959402,0.0023731336,0.0092548891,-0.0017596051,0.0010545004,-0.0038575443,-0.0051359096,0.0058837634,-0.0022867318,0.003500306,0.0012504273,0.0039686293,-0.0059388508,-0.0069943006,0.002600968,0.0069413973,-0.0131134553,-0.0051842773,0.0050309257,0.0073107183,-0.0035980265,-0.0073273006,0.0069277059,0.1466645097,0.005423455,-0.0035413612,-0.0083890186,0.0024965022,-0.0032602949,-0.0085206137,0.0056606227,0.0003527785,0.0000760021,-0.0033121757,-0.0083047884,-0.006851007,0.0088951402,-0.0060462946,0.0038155381,0.0004179185,0.0025889693,-0.0018057029,-0.0020312276,-0.0012223424,-0.0110337662,0.0055618891,-0.0086005006,-0.0051003667,0.0102736779,-0.0096249552,-0.0060471941,0.009573585,0.0053909157,-0.0050643113,0.0403427205,-0.0014833438,0.0041192779,-0.0013569212,-0.0038223412,0.0047135067,-0.0002005417,-0.0031847628,0.00467016,0.0031239937,-0.0000019218,-0.00336459,0.0042600123,0.0044758476,-0.0045138941,-0.0005115391,-0.0025140484,-0.0025736918,-0.0012712298,-0.0022408172,0.0045478834,0.0047230883,-0.0051235051,-0.005465632,-0.0026422235,-0.0042903592,-0.0019247462,-0.0019759812,0.0024710992,0.0011965316,0.0006936436,0.008231503,0.0044701237,0.0044011888,-0.000859397,0.0029630944,-0.0029587351,-0.00314316,0.0041509517,0.0005222343,0.0034873408,-0.007134834,0.0061420962,0.0049380108,-0.0017814677,0.0048703795,-0.0054389237,-0.0035966343,0.0024848348,-0.0030247088,-0.0052121459,-0.0017707452,0.0009814918,0.0006371662,0.0044976242,0.0048646158,-0.0111423512,-0.0003429507,-0.0012729013,0.0021177328,-0.0065921297,-0.0055234033,0.0572688803,0.0041861138,-0.0065359705,-0.0022694809,0.0084392716,-0.0105446525,-0.0042294281,0.0048093862,-0.0021317839,0.0073069622,-0.0047164729,-0.0033346,-0.004698279,0.0011793649,0.0055669036,-0.0038839819,-0.0014839288,-0.0053050421,-0.0068095354,0.0068005165,0.0021677073,0.0020660976,0.0053465429,-0.0016467021,0.0015931668,0.0002521043,-0.0010920429,-0.0011814962,-0.0048184469,0.0075645816,0.0023783227,0.0613221572,0.0038641106,0.0021417141,-0.0039621692,0.0019146769,0.0061424608,0.0050593455,-0.000608897,-0.0029350432,0.0017357961,-0.0037463592,0.0029101916,0.002725343,-0.0006196586,-0.00272723,0.0033530956,-0.0028647816,-0.004521638,0.001201918,0.0012348218,0.0036598198,-0.0035762017,-0.0004725306,0.0004690689,0.0006603313,0.0025934171,-0.0012290203,0.0070054908,-0.0037410161,-0.0023177629,0.0021082151,0.0436888048,-0.0108522737,0.0026338838,-0.0045472454,0.0007365593,-0.0118656134,-0.0038812901,-0.0031258518,0.0059983132,-0.0036445716,-0.0136143757,-0.0047258061,-0.0044232877,-0.001900947,-0.0028412285,0.0047154226,-0.0007415587,-0.0022292413,-0.0081219366,-0.0071081759,0.00795084,-0.0085186451,0.0110816222,0.0065093447,0.0094096152,0.0083510832,0.0057962898,-0.0174766489,0.0054320976,-0.0046140526,-0.005655525,0.1685841323,0.001946553,0.0113269631,0.0005940465,-0.0009522274,-0.0053551358,0.005537751,-0.0005150546,0.0005158261,0.0059383597,0.0070169518,-0.0008762301,0.0015892229,-0.0172007767,-0.0060466282,-0.0069422628,0.004750727,0.0047566499,0.0123475777,-0.0007590064,0.0087532666,0.002265908,0.0010353119,-0.0046452709,-0.0005557025,0.0007376751,0.0021578879,0.0079448958,0.0026178771,-0.0002885821,0.0009176742,0.1553562584,0.0035673226,-0.0146909321,0.0052611909,-0.0061521283,-0.0011492571,-0.0066783095,-0.0009828847,-0.0081450973,0.000347669,-0.0023990454,0.0030107005,0.0000559704,-0.0081743366,-0.0023924236,0.0007508607,0.0027232529,-0.0036552013,-0.0099581706,0.0025554124,0.0025219469,0.0007926851,-0.0053590816,-0.0059008269,0.0019463136,-0.0028879936,0.0017848278,-0.0012810099,-0.0105204221,-0.0058976919,0.0056771417,0.0727460998,-0.0022303443,0.000674149,0.0106186596,0.0039251796,-0.0008423004,-0.0028162953,-0.0026059485,0.0052300505,0.0104287989,-0.0058029703,0.0029831302,-0.0047381232,0.0003392235,-0.0003369334,-0.0077739151,-0.002999736,0.0010111565,-0.006932193,-0.0033641151,-0.007979996,-0.0077386752,-0.0046927685,0.0017435015,0.0072627827,0.0014469206,0.0009542272,0.0028275105,-0.0022499227,-0.0063410208,-0.0058848559,-0.0428715171,-0.0033886879,0.0010501247,0.0038408537,0.0002535183,0.0056026324,-0.0010998667,0.000905011,0.0015676072,0.0063055026,-0.001403146,-0.0007874762,-0.0043177916,0.0015338386,0.0030582546,-0.0009138426,0.0013110263,0.0030650762,-0.0038351128,-0.0047959602,-0.0043439622,-0.0047561613,-0.0022312844,-0.0024723037,0.0029614728,0.0036759914,0.0037269298,0.0040845601,-0.0036189065,-0.0028636225,-0.0014356364,0.0119460675,-0.0030364323,-0.0046951993,-0.002279562,0.0020662206,0.0012065055,0.002204647,-0.0121578474,0.0070444873,-0.0080734641,0.0120405814,-0.0072052916,-0.0041244583,-0.0070729849,0.0094267348,0.016425208,0.0004678227,0.0092496727,0.0082491884,0.0106673038,-0.0015802995,-0.0033199152,-0.000975657,0.0014354712,-0.0016175879,-0.006481734,-0.007748492,0.0020909142,-0.0052940088,0.0048863066,-0.0049041071,0.1021243804,-0.0106315342,-0.0011443504,-0.0034399,-0.0050957323,-0.0051137233,-0.0106199742,-0.0007578042,-0.0008733001,-0.0152103126,-0.0022991024,-0.0014402683,0.006662947,0.0038629301,0.0032092,0.0018180998,-0.006188075,-0.0032844327,0.0059705451,-0.0061260672,-0.0015410872,0.0035248584,-0.0032780749,-0.0133442446,0.0013763936,0.0075791484,0.0038418608,0.0034425256,0.011836927,-0.0015507371,0.0029113191,0.2441177635,-235.3053359144,-0.7321934691,-0.5795488854,-1112.1770355679,-6401.708281362,-0.8176167587,7356.4508888424,6836.2427208181,-1129.2747747744,-20419.4597086712,-0.3691873204,1990.8473312233,0.9431141926,1746.5258086048,-2216.7555999179,-0.753141842,-0.41153119,-0.4698059317,-1128.6758404114,-0.1478391134,37330.3870780923,-0.0616772865,-23.0915563415,0.7872148285,-148.1807367769,-4.8762026737,-9393.6103141779,-4108.4862454648,-0.865778599,-0.6613153098,0.1022193682,185.6770643271,0.189919313,0.1772024754,-0.3332468394,-1688.199160313,-1134.0271265247,1764.7287913088,-0.6433825498,-15787.8600316858,-735.009163794,-0.0481070894,625.0058238246,932.6292754516,0.3361998606,-13.9079445284,3379.8192466872,-262.0130206457,0.5023348122,0.9808705189,1.2466014506,-89.8649158467,-2494.2671615211,-0.6529181451,715.8607441119,-1578.6646978705,-135.1488678987,3104.8150298802,-94.1535839141,1468.0713996616,-2367.1546073454,1332.5187204754,6092.8939383267,5444.7492873232,-956.0460726545,-734.0580525585,-1958.9765006532,11.825307861,352.0128661984,1.6724215798,-4632.6150557433,-511.8666467297,-2415.4456591682,-7274.908551658,-6810.6671607501,2.9611903882,-993.7314409301,4218.7834240366,8247.850017033,-1464.5820625634,13.0831633851,7117.3119604283,1034.7724771632,11590.211110656,-0.8254780959,-12113.2180201359,2867.6392912447,55.3081213545,-11906.5512996544,0.0406615819,-761.714814982,0.8971512783,-15.4301140771,-4935.6462755249,4138.3534222962,2017.3206695173,0.426832666,-0.4141613966,1.1284798866,-0.3596008112,1204.530664186,4.3710615106,-19645.4918623044,-1.2556749772,0.2591830716,-20.069999686,10108.3602397902,18487.1951384422,-1.3865489872,-51.0833263893,338.7590307122,-11393.2037266117,9627.3095141836,-1572.449851076,-0.2973102934,-0.5874006868,21635.6389108088,-0.7243772551,28505.2519588095,-0.6216382978,-15302.146202096,1896.4381269129,0.9497303625,168.2988254559,0.3108687469,2738.4300090992,0.0585529821,0.958013348,-18724.3106814145,24055.124039502,-12222.2844724965,0.3163116303,-15023.5977695853,-4179.2489188145,2042.7037034195,8460.5873523066,-10690.4157154767,-5824.6861450757,-14771.9268330765,5527.2376997739,14436.4369449331,-3489.4120815148,380.6221162864,3086.064710268,5987.0954264447,-659.9182220503,462.5208579113,1465.4026671983,64.9788411195,6268.4906967522,-739.7878659344,75.7912065885,-685.3914585623,2583.191005657,-5165.286350131,3494.0985015737,-268.492095819,559.8790927464,1282.7015418917,3500.4150130225,-2633.126240441,-20.5451980525,-10212.4175077076,-0.3283616322,10.5872117359,1534.5317021321,0.0160205042,-2.3112075834,-4346.3518530764,-3304.5203729718,-1461.3511647447,-0.4786061305,0.1829815029,-1403.2946249646,-3253.1484231552,-2225.7180679692,0.4740864358,-0.2286435902,-2655.5775441816,-0.2784895199,-1462.3995983983,-1532.4907289516,12018.7650432219,-1185.3181576175,2.680601283,-0.2027812424,-45.9560725853,3.2028910616,-13678.9852364846,0.5972044534,2123.9922091432,26.6372304064,0.1976455843,3494.2060700469,0.0642567886,1.1471234581,-0.9107896558,-9398.6989478821,905.7542552824,146.7164203704,-0.0963450433,0.6888395521,-3317.3028372212,-7632.9663735256,-100.9502336969,0.3258995411,-0.8794232425,-8.0553572441,-0.6465553745,8537.1081258729,-0.7184162249,-0.4620593521,-0.4909159624,-1.6001514392,-7336.3412122287,-806.9991627563,7173.5505497946,1153.1515205678,3765.1148967556,-6312.4229872855,3427.9532278551,-55.2554773346,-671.9926961384,3066.2961299772,-6654.5218831561,-5210.8056402547,4849.726172102,-1624.17969757,1548.2651843691,-4300.4375202163,3782.7266680664,11532.7827468039,1843.7577961123,1108.9917062366,-12542.884358962,5555.1050776239,7.1302093833,1130.7426562695,1802.086050628,1392.5950832743,5596.9473162605,-994.3255234861,1.4468654972,11.3324188491,-1740.0841290826,-5549.0394100872,-9131.9800524529,0.0721278498,0.9687653068,-4142.271053646,-0.8971289326,0.3322224268,-0.3110247797,0.7167013473,-0.5275515213,-5391.2255766992,-5.946090622,1.6870266969,-0.4723942808,-1650.6390660307,-0.6231286201,0.5466815017,14453.6009613672,-18056.173497294,-2647.3505948152,1.4357597207,0.3768892869,-868.4862447763,-1.1142408605,-1.3203187168,-95.9093300761,0.2196423121,-0.7910047643,0.6091891399,14425.0522350058,-1.1750684664,-342.3449139455,-0.6852341664,9879.7563438818,-173.6082121609,-0.535131222,1664.21145669,9854.0370467233,-972.3060555659,25819.2318621437,-7831.2601694566,-0.3509042146,1.4448229977,0.7902188357,-3288.3147590342,5970.3843891209,3362.1409854914,-0.4645921838,0.0436309987,8093.5719961115,-13520.2018410661,-4371.8276652247,-6455.2550979143,5732.9919006921,-805.9722087132,5246.622321935,11172.8934618696,-5334.8026418076,-29.8126835484,261.3731114814,-970.605032467,13716.1583573053,123.6306710086,-308.4678297296,-9.9742252739,1627.4958691892,-11257.3391703908,6351.9374274425,-1.7498616726,6037.8080344009,-10848.6091791708,7389.2164988481,-0.8555375388,3815.2971209112,-3955.8541852984,-1337.7023331654,8030.712396777,-6462.4179521074,4879.6171398418,-13418.5017948243,0.2576618137,-2195.685461003,24.614230623,0.3065599423,-6014.3671007142,-0.433664893,-0.6539509177,0.3866900479,1.1554536714,-0.1713134465,2814.2687419564,-25431.5553798956,5.9852206375,-1.6645859111,-0.8530502457,-12.176251313,-2615.8091887397,0.252851575,0.5183501113,75.1276452951,-11898.0081693415,0.7540639787,5.7896965532,-408.1272724108,313.0212531826,-3225.8019200197,-0.3728140281,-0.9516723325,4.8380455291,0.9933250569,-43.188004855,0.5284311683,-0.1453598106,0.0805879187,3514.6687455929,-949.9647206243,15655.6562772203,4685.4666422081,5171.1498484989,-9181.935606534,16784.4993327236,1.1880718218,1547.9607958749,-1222.0158783794,-0.9944731214,-26579.6400607541,-19586.0944061009,797.1639964622,0.857685016,-0.1350485081,-2604.072498268,2151.9568063998,2563.069012747,-1696.5648474808,2644.7733737393,10951.5502391404,3551.2030711633,-349.7817089973,-229.5397159242,8835.1506308201,6841.4157500364,-5241.9121391218,-5957.0897276883,-8856.8887624205,4782.6956478174,10653.1159691796,1062.2394438933,6336.0732220125,-1217.9125385733,-4735.1210573661,5656.3025594233,-14033.1004556309,-7.190713534,6711.9056385195,-1379.4113993698,-10546.4244289178,-4916.9272210733,5074.9381232141,4615.9220487261,-7278.8958888209,10075.8444611786,-24.6451381175,224.3169162271,-0.8698821829,-2829.3498002875,4658.9396296112,494.5227096488,-3803.8112997738,-16392.2893991803,-1.3298684976,0.4577396932,3360.1815067864,-10741.893709884,-0.1664030841,-0.6148966415,0.4054502483,-10654.5251557369,208.2204402294,-16391.8752660039,0.4613865154,-0.9328966643,10103.0636707027,-321.6483513104,23.4559425275,1.2138166373,-12671.8800724055,-30217.7333085723,7504.8296037135,-954.4497531376,-0.8083884656,0.6559345277,-7995.4082563817,-0.078061126,-0.3846797278,-0.112727175,4970.7425472633,0.2991692372,5488.9919420476,18557.2986392051,-0.6900774175,13560.7961098304,22562.2985744637,-7238.5819929644,12863.5808640294,-3044.4162550757,1.1671423908,7786.6319954547,-12069.1921536348,-1.2206973233,0.0355175339,-0.8139090509,13522.6757568527,14062.2001773861,-1.0462221625,-2337.6821881172,126.9616168245,-4393.3656378563,3148.987462221,-6170.0943465254,2434.8703602275,10824.4268702627,-3054.4058313769,3400.4990473402,-9385.031135556,2.8359689857,-6.7756790618,7726.1816202238,-13953.600322953,9552.5544596157,-3780.0434377185,-24.8688937842,3503.5469645984,2283.0988809546,-1879.8930879885,-7355.797730346,-8531.0936385322,-1805.7931487254,-405.9143184836,-15152.0362768697,-1396.5304826343,-3098.0587819368,-67.9250304422,2051.8977141937,0.43806049,-71.2992068658,0.6264623967,-8410.3366629273,16510.7030410091,-0.3515118134,-0.3239684855,-0.5346068482,0.9862596607,0.9080148666
   21.1549918033,-4539.5213142475,0.9229850243,-0.3675519581,2339.8656280925,-0.6197514194,-1.0882041781,5077.3374191778,1.1815986635,-15393.6360519465,-12.4078306197,-55.4147311622,-0.3020445464,3212.8058524323,12568.9366540423,-0.7091964852,-8024.0477952313,-10.0734245878,0.0998255541,180.9756481728,0.9027063714,-6149.9064637969,0.983501058,18510.0784981017,6641.7977528681,-18344.5518002807,1.2414029756,-0.7785619201,-2.9070943859,0.2638645507,-0.6703098292,0.7862429299,0.1084527229,-9749.9518463511,2355.7800498655,-1010.6710399654,-2.8216051454,0.0599748421,0.162977969,-8224.9855043776,0.1730619999,-0.4506026199,-6440.7107705424,275.3578249107,12748.7005292678,3339.4745854668,4988.0111414403,-6612.0998688221,-586.7362479236,2.4159615816,-1540.9766757547,-10445.511659527,1144.2542642462,5267.4734963323,5653.7350507665,-1126.7917155799,-5309.7937833113,-2241.8660832651,-7691.9253697265,3512.6516800924,8762.4165820584,-5872.5110078233,0.4970845695,-8988.9002768455,4368.0578443118,13611.8768848788,-2209.174379365,1383.2735800329,-3.4860861364,-29779.5596762758,-2203.6622615967,-10060.6454700322,-5315.0038762288,0.2771345465,5706.9530976167,561.6619749514,-4789.9611012535,0.9312031472,-4.4526206769,-0.3405376556,-4.9171253071,0.1634232251,-13.5478715905,0.0528057168,-0.3237491383,-0.3198610933,0.8967915281,-0.5127648694,-0.4306227588,0.7922393437,1.8485644826,159.4618512322,-0.2883048324,1966.24223725,-58.9672176253,2352.0134056745,-0.2520386695,27797.6042686214,1812.1115821099,0.1437372777,2641.3949396534,4.8300829292,-0.8002887641,-0.1384299833,-15761.8420306165,-0.9443915744,-2632.8505257699,-2067.0751088106,-0.6994765263,0.047558359,-31755.9810269744,-3038.0979857078,-0.5019797646,3494.38795602,-10242.4274273556,-2245.4552411318,-9504.907593939,-0.5623516309,7.2167486284,0.0722913193,-1351.048246194,-2917.1830498328,-497.8672827666,-4088.8476214684,-0.635032211,8233.0022216545,3706.5122614843,66.8285264364,3968.2080659597,-1659.2604768889,3886.0452960808,-6969.623849444,-1380.6238107688,2657.7753409508,8535.1753536928,-76.1026463769,-669.5468541822,2345.9726283359,24.643625375,-5406.6633464867,-10497.0046498259,1335.0911719456,-1204.7107628698,-3193.6567822959,949.8478955764,-12565.8399988147,614.4974701824,-1368.3675574083,775.5168223692,-5569.2331637592,0.1482462019,-11113.4619481604,2364.1433389091,-9829.2610906673,7612.9673398489,-4704.5544938959,1780.39594395,-1.2406583764,-9773.1061335318,0.8506418356,0.1453652071,0.8977295385,-0.6283400755,-13721.6360711783,0.2780712336,-0.9095336083,-0.8766426612,-0.6728230545,-9771.6136085489,-0.3894991876,2926.0246774994,-4434.3642308534,-26439.6952797085,0.4508556005,6.0099250957,3.6392762203,-5893.9661438574,-2571.1733400393,0.6732125451,7231.1316658477,-0.4023720254,2.0384507852,7494.5572719493,4663.3164899235,0.1657601571,15661.5912129346,-828.0822633548,-1.7442358494,-0.6913797595,48.9838658548,0.5492279524,3547.102839304,-10858.6581497735,2040.7777662883,-0.549250693,0.9066928976,5990.8594476107,7329.2830530087,-2410.3528074944,-0.7233899127,0.5373151276,220.8496684535,6050.9025650976,-0.7685477971,407.5864392863,7.6733047085,1754.5462065341,1840.4510904452,-2358.308297825,2526.5849839945,-1973.3206412175,-6560.6237213391,3027.6924682435,-2600.0911765133,-2520.4467556166,-10658.3810767132,7.8362342947,-12186.7136673625,4564.1397776416,999.4329309711,2622.0140895847,-3887.5505420432,13487.4286830025,-13.5885723012,-7021.5730252759,19223.9044884804,8629.1706016835,-9145.5246009721,-10567.6277634494,4410.4012816118,14175.3259600626,7433.4590872734,3514.3411090589,604.7729303447,13884.2156206336,-1509.6638202,-0.2728943993,-6.4561839126,3109.2028501257,0.1748760379,-0.0313085353,0.0661487397,0.7423008601,-1097.7667844208,2556.0652708816,0.8304159318,-0.0289655694,-0.490360715,3258.5290149645,0.207032873,-144.1053652745,30557.940618931,10947.1599993364,171.5103956978,-0.4121330911,-2.7718334054,-17.3342009588,-2314.1537432058,0.7370887412,-2.9922295722,-3745.0993926085,-0.3570195057,-2652.0827577399,1.7628177042,2159.9195698923,-0.4538671081,18842.1167166498,-5139.1448432904,13042.6307150081,1307.099320587,-120.7740483762,5.5277143144,1.3130916888,-8.8419851417,55.2086726194,-10105.5762449405,-2.3728871422,1246.3581795668,2171.8393699044,-1.2403514407,-0.7460346973,0.4880054522,1412.5327491372,-2100.9555722299,19.803411709,5192.932489428,-24.136173931,1218.0880843191,-641.6859346177,-953.9639887958,1316.368991235,9491.6786232297,534.4231612945,1309.4267521802,-5945.7225701526,-3820.8134409371,984.3025423152,-1516.6700598849,-1313.2142766253,-16108.4936330376,1236.5672457931,-1.5277453012,-2115.7931897284,2358.4366798183,-6509.5524699137,69.7802768736,3768.0653075902,9.6410931182,14051.1979732246,-2795.1125704979,-7194.4588614591,3032.5345966575,-0.9704729832,-6.1029541243,281.409867839,-74.2598846434,1881.4798693248,-8031.6680965881,13.9301588424,-2.6215708143,1.0724849615,-1073.3013218055,0.8974921681,-2.6370611243,-4.595748508,0.2656167189,-0.2351420385,-0.5259052923,-1.5719831716,-1458.7319792568,0.1800870269,19.8150518922,2880.4385126764,-9130.364808196,0.9776829869,-0.0606678361,-2519.4282022347,-1.3832567845,0.5634714395,-777.353829929,24.2342045627,-0.4493007561,23.4652596615,5416.3564935275,3591.8037998541,4864.2266322804,0.6864175937,-4292.7760773499,-3821.6260555753,1670.8513109906,-52.8643488891,10750.0621020269,-0.2769960648,0.3214001147,-348.1619538677,-18.6578476234,-0.8136257549,-0.0782590227,0.7035361374,-2833.4318977716,194.7811242021,-27957.762101131,0.1696975829,1038.497226669,4827.8438678618,3166.3737648761,1371.3932522266,4924.1840839193,13.5912487661,6235.5262164906,-10678.635381845,-244.1038658286,7930.4519206447,-1.1071132251,0.6665461559,-12487.3685273908,4357.3078065535,-8226.4417412674,-3246.140698625,-786.8458049708,3999.0582194834,-1700.0151174118,6027.6063581313,5229.2136438842,2744.7365411825,3374.0895532055,-4221.5681265728,-2929.390245145,-9969.182903201,4431.4053775536,-14254.7626407117,2407.5831424445,-4598.4495780576,-1323.3939152161,0.1388387258,-5670.9592988804,-1048.5792783666,0.473947655,-0.0227761972,-301.42227848,-0.6391730922,0.452963712,3636.0345886027,0.4156084341,-768.0079569367,130.2029575549,-11.0324396955,-0.1438057112,-0.7692668936,0.516478123,-7230.6305813817,-0.4448703418,-0.3047379913,-3374.3012356205,19618.8306923462,-10849.3683090576,14368.9907663794,1.1986810548,2817.018866222,-6515.6864762275,2.6795567137,59.5670408627,5346.3332631998,0.8879111307,0.7609857429,4686.3449809413,-1.1979512804,-0.7527366422,2450.036094256,0.7809425113,0.5737457828,-24.7114847672,-0.4268578051,-0.5902958062,0.4220428185,-0.591459142,-11214.5129616871,-0.9605966899,-0.7151643611,-0.8383126787,-2417.8893538289,-2.7500254806,5269.5288263878,0.9087174546,4386.2643894034,-1512.8288220588,-2429.6355601583,-1579.9941174835,757.4983338391,-6468.6205252382,15.4745011241,-14482.5789717768,430.4660279391,-2071.8000014171,-6906.4392163114,200.3086502028,3607.1349647684,1781.0585698443,-4369.2872561313,-0.6619034594,723.1480593864,12016.435377898,-3666.3305749109,-15049.552242938,15478.4551577574,-631.96139695,-730.9151477983,682.2850927371,12325.6237056034,1339.2654097831,76.8735588474,-2879.8851242051,8586.9245619766,1.548644058,-6190.6592463137,-6893.6814532539,12.5237416777,-3546.8516674477,9.493484685,5749.1047865929,-1127.2805952005,-15245.0864899772,0.6579379877,-1605.7096185416,-0.7360890638,4274.7635922899,19438.2789297604,0.1441691157,-2522.4960885033,-0.2795191626,-764.5216806295,-0.8112524187,0.3087633003,-0.7415021094,-214.4519258567,-2905.6684319558,-13847.7546231342,6923.9449416589,-1498.5257419636,0.7618155745,-1079.0057641443,-2.7006123596,16415.6105352317,8.4621727583,0.598015546,-0.5420046417,-89.6714298513,-9538.9463771221,-0.3719476014,-11191.0813177576,2657.4778775081,6061.2775055228,1229.5363842773,66.2408424891,-33749.5383784361,-6898.5220620935,-4947.5843742942,1.9448624183,19122.5613551115,-1089.4831028283,-14803.9754321953,12474.8228760909,-1101.9360983378,4142.2353237514,0.090750495,6658.7130608139,-62.2664664247,12611.1961446066,3750.0119184405,-10.8533717517,-4195.346121288,-6119.1439342786,-4049.5290447425,3424.964717043,1.1588301437,-38.4027251791,-1.8743214668,-1135.5117679543,-4879.9921395329,7263.2276309598,-4057.5797934479,3176.5759268264,-7528.4565577817,-1933.7378117645,5796.4568183656,159.7649218178,-13485.4035367992,-13324.1559189121,14253.1453187431,3752.1900198226,-18543.7238422073,3444.9551824088,655.2853228905,-4053.7155652901,-4911.5911911551,16315.6580230799,-11.5107467985,8150.2073357824,-2732.6221657923,-0.1714955043,1373.7811611389,-1031.4386390496,-1.7397157251,-13.7349736555,-0.7460774403,0.236904429,-0.4550669019,-0.6522188966,-3.5576536819,-6648.8710333016,-0.2726408799,-12134.7215152725,0.7203873018,-14.3391569454,-10330.7614917032,6798.1965998044,-11.5148736601,11406.9302255285,-2372.2122461063,0.3456028443,-0.1155726452,6514.2817356079,-6703.7685433694,-23.0399906835,-23574.8688141611,0.0411254304,7287.614704769,-15903.9411177174,-0.9790501912,0.1439006456,9042.9238312483,-0.8059029821,-17856.8048268201,2108.7626742152,579.7774751713,-7553.4691199583,1968.3581948576,-13103.7110581947,-0.5115085639,6341.4952694813,29099.4129054262,-1186.3128155243,8790.9234466971,-0.1093132439,-3649.5810640223,-0.6303340436,3395.6645108039,-421.9575961486,5070.2163104788,-4377.2195042551,-5599.146148162,-1306.7082205474,16.3330562122,-1.2208253501,-1.2230350675,6941.8624354416,3171.3560349767,-9757.0352590344,-3078.6917492815,-4056.2089530764,2660.6551632133,1487.9263854947,-6026.7846585756,591.3899095297,7427.964578819,14941.3083173598,5570.5099055733,114.850282483,-1309.5071073164,2976.6744653929,-3766.2184258643,-0.4094709213,-5192.2133037549,-6857.3032197804,-18785.2005801949,-1259.9047284098,84.2343804748,-6546.5635223278,-320.4113811685,3763.384720176,526.1241028868,0.4727622307,-1205.137262784,0.9202207536,-3.1742624198,1.0127826787,0.5769456992,6189.8468179466,0.599025198,-1514.74609757,-16529.9576569115,-0.0978592969,1.8782548568,879.1652714318,-3.632024691,-5787.3957107174,-4687.8791228434,30954.6633543252,27199.0125331602,0.7055172563,9177.5563847705,-2667.4904803971,0.0161220239,0.0636513608,341.6348364689,-1544.1081374406,-1251.1848132494,-1553.2308919489,-12.7538999561,-4216.9345955309,0.3910429486,-4636.0241515519,-2225.1467980825,-1.4801065009,0.9182417912,0.8881224784,466.2406789665,2.0356693342,5.260111425,-0.2563251271,-1.5636564167,1098.9974168864,-2.4797989754,17985.7988139591,0.0753311962,0.8132945758,0.7692675465,-2544.8217777005,-4326.1575625977,-5.8547063511,3.570583675,16261.5038066052,1326.4731690686,10516.9919848478,2617.041758437,934.9963853296,-12360.5263107686,-3030.0005731177,5723.7854435967,3415.3979458324,2.7303293034,143.2669688182,-9180.6942516679,183.7062614869,-873.1285885215,-6154.5419225369,3187.8501702033,1078.8264495857,5768.5280415641,-3392.0835683083,122.0766800404,-2276.1846151432,-4051.0821565333,8632.661426226,-3970.0590642958,-8517.3444867526,3621.355438978,2591.7830063536,2411.759828113,8528.5154445033,-46187.1822735499,14819.6995544362,-10.0999387729,7422.1675701266,0.3663831873,0.2550783714,-6753.501024128,0.3710470199,-9400.7045172767,-0.3407917957,-286.5955853794,0.5619394185,-0.2153901019,-1346.7825866052,-7071.0315173706,0.3442816709,4.4042503715,13274.4714919257,18609.1524625142,1.3060072595,1.0141336491,19384.9676595265,5547.4009493129,-8156.6251216766,103.8486434778,-0.8413430605,2329.6640838316,0.4628536457,5433.6976798509,1208.3437854128,-4886.912285315,-0.0572819822,-4586.5042883336,-19507.4474234107,-12.4704052343,0.3712032602,-2173.0729934533,-0.8333952474,0.8746097094,25764.4893955362,-0.6152392298,1.8431057462,-19635.0964919361,0.561261572,134.5210026792,3728.2276632629,0.1217239256,-0.5747160324,-4552.7050407653,4212.411476812,39.9793249814,8.8801827924,48.3588424756,-726.0501078938,-1772.8034389496,-6372.8566206447,-1.7987041117,2645.1922319897,0.0451086961,-3106.9558580881,-1.4222690554,3062.3994560764,5194.2637239145,-3682.0395022512,-10971.6219851824,-10588.6951866991,-1986.556063895,0.8131563888,1707.4228607721,-1199.4619073289,234.7268311121,-10.0289624774,20469.6961511906,9.8372955985,-3.7772102936,15880.7867499466,-6461.2503598047,5818.0648942254,-1835.9454172642,3857.8930071462,-646.3180220638,0.4293840617,-0.3271747843,-0.6030284522,316.4374482944,-2453.9938443016,0.4647652892,-1819.2038099015,0.2883586826,2.9119857008,0.8324348064,32.4296435514,-3525.9447036577,-0.8955146331,4448.15538793,1554.6347380988,0.3335213444,19221.4724179535,-0.585755032,17350.6722993122,-2484.13320135,-0.9209258511,1587.116127927,-2.6728366607,0.5664088466,3949.6999658638,-1334.1846789062,-0.4344777213,105.5165061248,-2388.2568995979,10698.5465268171,0.0531666669,0.7499868802,-664.8233498099,-22705.0147167352,-0.176734403,1962.8750346383,53.7211958482,0.665970234,0.3615146017,0.8024518108,12689.5451752816,-18.075679735,-2337.4043586047,-3425.4543868071,-28462.373926553,28297.0287027897,17068.3108060587,-0.4314216148,6083.6455186084,-9644.92189105,2927.893764909,2385.0149376627,-3244.8752300978,-4077.266775433,1025.8077890108,12595.4816677579,1634.4467803708,1.0203540697,-3036.9113723256,-14009.5175570832,5468.8824226832,-10886.8084341724,-3482.4400273407,4330.7060721563,710.180409344,-753.8343692849,-2212.8583382043,3795.359317314,-9369.8023142873,3966.1813505059,8244.5323748514,-4699.052561699,-398.5395546124,17454.205029833,-795.3722756155,-1.8142410178,-3901.1282920959,11626.7758134453,4470.534692694,1011.80027362,-18028.7070627028,-1296.039853884,-29128.9661408996,-0.3971939071,-1638.5707012684,-0.0883096198,30309.0840655661,2840.1678822061,0.5145889325,117.7105693411,-8373.2863345574,-0.0407471374,-1.3087153398,-0.1786282823,0.1649985768,-10567.4749332131,30309.5196917503,1.1644744724,27.481049466,6517.2261914386,56.5932746254,41.6118580068,954.1180529541,15947.1100976943,-5743.2661055235,0.3094139145,-0.2780211403,-0.6794808462,-2.1387581919,0.2081240433,-0.1642762134,-35984.7680510481,-0.4512013306,8527.630554277,-24.5917683188,-1.0883933685,894.267120468,-9647.7885173059,10.113472673,-1430.5267461974,-15334.3624645795,-0.0790744511,0.3685864717,-10494.551860683,0.1033486945,-6682.0251022618,1470.6387223367,16875.7368561879,-0.2262211091,-6654.132953214,470.8813156737,0.3738304205,-8874.5361502161,-7034.1729800309,-2891.510558842,9149.4755453493,-4402.0061864501,4887.1746092014,3613.2030133853,-7.3057726131,168.480886997,3662.3805020199,1838.1803835874,-611.6082989082,6.0194256464,-10817.9605592608,-1641.3016682867,2735.6849738552,-3613.8336996538,-319.8760896152,-17718.1481901219,-2693.6088452411,503.0689970417,-4366.8202952036,1232.0752842108,-4242.4943726634,996.7582213738,2953.7760306629,0.2262249465,18.5684212052,4901.1576425406,-134.8809102865,2079.5348497264,24.5328402352,-0.6355143526,-22644.4270264147,2195.7907130401,-0.4813836415,-0.0371509222,0.0420089426,-1202.9234194457,-795.5735614801,-14.2181361191,-4755.3094321955,0.7191384749,0.8190896205,10662.1019150427,-0.1857141517,0.3046683341,6600.3851963986,27177.3394603607,3361.5107262214,4596.1994519844,847.4451296501,-0.3848680216,-4188.6717843624,672.4923609575,0.4081531698,0.7803133754,0.4841972864,0.8836606118,0.3726432293,-2215.5733189591,0.3267070717,-5632.5393947103,-1372.4743898233,-16.8135178644,9643.3518463215,-0.074268416,-767.9602195546,1422.3687056577,23778.794026529,-0.9627227736,4517.8097409029,3.2598191956,-3.709304368,5640.0938713444,138.5431634701,8.6308092215,-0.0906361843,-2845.4980414987,13001.4141398551,-3908.5714576938,-13117.8018809725,5888.0750844151,3324.0010099896,-18897.1711649721,4.3273038382,2739.951707477,5772.1645114967,-7484.9181478991,0.3640257295,-6559.8926537615,-12687.3072741326,-1113.9320329257,10869.4980094368,2191.0240469198,6416.9465754973,13847.3958601409,-5452.1995033993,-4340.9790888058,-11924.6298455207,0.6563905695,4218.3089276821,2016.1997839946,-11761.099774401,6192.01467085,-5122.9527204813,12946.4278557475,5620.8296647869,-0.3040779848,-19191.5018165656,705.3251816746,-12739.7809259709,0.4866604168,0.9811574816,6825.7292728008,-0.0912360767,1267.4159959242,0.0977154739,-0.5111122812,3549.5175893294,3376.2394437991,1405.035647765,0.5670172151,0.2115099473,-1927.5842175271,-3789.6058244163,1267.0365696227,0.9767587587,2691.0010157801,1.6823086984,-2915.5907999413,7827.8197436667,0.1253199449,3571.3115253615,9878.8388128294,-17862.3746520727,0.3749697743,3.0355655577,-0.5595760684,-1.3598592162,0.3374760213,0.0967272486,0.1909933517,-8814.8495775123,-5633.5407873734,-3.8129867424,-1410.7112750457,1420.5432413797,-0.8256333489,1.2941345756,-10133.9460402244,-0.3210355125,0.2290528375,-7.0697757562,9403.1963136996,-395.8018261604,0.8547872389,0.5456358955,0.619254478,-6599.5668678056,-4781.8690350782,-5790.1207293016,-7126.3105717687,3711.8221011119,10055.9071771297,-1300.5097362875,4250.0466295039,-681.1150171355,-17.07682595,-0.8232249274,4940.2342996618,3638.7294358178,10043.2064173456,-2305.9227927963,5921.5326355906,-1.8684695172,1229.4348691069,14.8136132631,250.6463370506,1981.0514221783,-5245.7091312847,2672.5542444191,-1713.5037779668,-2950.044762703,3059.1467706745,-8226.9540922228,-2591.9755882326,2062.9160032398,-10.5520712884,17805.5287993776,3512.9689849359,-10.9994901569,-392.7189726212,20117.2016516749,32.5109583286,-2897.4973576908,0.4992614048,779.5077422084,-0.9216578439,-0.551549734,-30631.8653745425,-16099.5040967623,5172.5118423679,-103.1162813718,0.9166553974,-3687.2221438244,1014.5504820335,779.8744133776,2.3851515417,-7161.3388590064,-4.4772509914,21.1865183539,21.5506985748,-135.7867401486,-3.2921478358,1.4105561635,-1076.552782155,-0.2495810345,1212.6019478028,-1.0590409771,0.6979875176,-2.4305137776,-7094.5277175344,-0.5476228174,3988.225918686,1337.7482473578,548.3681015999,-0.3051075802,0.2053371161,-13168.2707021733,3082.3184644034,16762.6119087361,-271.9578138814,0.9346300854,1356.83767359,-0.2158721833,-959.1923990877,205.1322320057,-0.1069486927,0.2369260658,5609.4098522846,472.5737978503,37.5575143812,2937.7435389979,90.1143205054,10022.343971184,-51.1193225557,-468.9977923382,-2645.83783128,-9216.7750081895,1922.8756579755,5317.988299283,-3157.9520844093,-4067.3727589423,-3874.9452288106,-0.4540136884,2576.2752522558,1604.5621379746,-6.4032728872,-889.6191901985,-11075.1770081679,-6440.5372146681,-7092.3717240187,-8892.6565423434,-429.39805637,10.1874966011,-4418.089001499,4272.97829378,2900.5790481328,-960.2906936168,1.1409027177,491.4437095942,-678.1480741998,-124.6900729629,0.7929595668,0.6582293042,-176.7233698778,-0.194959417,1.7114550142,-0.7327993397,0.4672171126,-9165.5547001704,3448.072072502,0.4824244118,660.4450170767,0.8655425672,0.0555110768,70.5459199881,0.3104003092,29877.6248020705,3775.0379653295,-9193.8994785203,4191.3664286075,-4373.2826743726,-0.028746038,-0.7950576889,8945.3104115823,19.7282597742,-2255.4901908792,-0.2567052733,0.7965970279,0.1824078531,0.2599988217,-9729.6867097192,0.8163765882,7187.4123637747,204.8339228269,-2210.3631022398,-0.5124481306,13558.1951705565,0.7102649499,-5719.9041692501,-9834.9270178218,-1827.0588267199,-0.6229096024,0.220914616,-6279.8425986474,-5972.2821700284,326.7240455969,2.0398348059,0.0077234748,-939.9722465973,12.9089169134,-3167.8607280904,2321.9840799329,3542.0623004305,3745.4363311834,24.8944035265,-466.3502724614,-1313.2396284501,272.2403513667,2255.8023390802,29.8755681212,-0.1889330479,4106.9096611298,1278.1339697659,103.1951193716,-8024.0341838299,6820.2302553217,168.1487834783,7009.3126207442,2241.1131984126,-2090.0721569913,788.8542853559,-4586.7113569154,-6254.4477775344,-4320.946122732,-10690.471371739,-883.6766226371,-16638.4873771641,-14.9445331937,4826.0629835657,-100.9807294544,42.2058103901,-3760.5909708774,-1.1462738227,-2.0710965595,-843.0858540251,0.0169019232,0.6923389736,-1.0923526487,0.4183410612,-2.3538747742,7.7128360398,-24667.3741993106,2336.7384687079,-0.3171898479,-1417.365180354,-3993.1502516393,0.2599524433,0.1476173934,0.1036885795,1.4000910755,952.3367926811,0.0011934236,-1919.2130669022,1083.5367642405,-75.0461242133,17496.0996373317,0.8518904562,-7.9758555968,-1.2408781006,4952.8839358202,-777.9058340008,13319.5745973239,-0.8806203064,360.4077733699,-1131.1884253376,1.0573506299,1314.017966571,1052.6428870042,1185.070385373,2319.6981082114,-18536.5306015067,-1388.4685627962,-1910.8502366547,-0.9225186591,-0.7744857902,-554.1222681794,-2.2511987868,-1628.5720115662,0.2339982728,7222.0385804765,-1485.1585999469,-5.7690851358,-143.0340678015,39.7716659993,2136.1870310031,8123.6344415625,-9315.8952129217,-2741.8992878892,7840.5402475896,21.9516183925,-79.9371362187,-4784.009325748,9662.6181734489,-5068.7741918779,1204.7089282729,1240.1332757502,-2088.6687365824,6.9323161258,-9491.2400171409,-8490.3448030784,-12770.6840683005,-3173.9929929875,6628.3441423108,2534.5192654664,3548.0747862742,-1265.0917305806,-0.0423670785,2067.3203331846,-2480.9960069192,-1.309313965,298.6557016933,-652.3216613838,2281.7637517133,0.838626878,-0.5872808189,-1174.3925817038,-0.2997153739,2862.8461776239,1.4954421151,-0.8489317561,-1.3582222824,-1.1903721727,20.2679772998,269.9911715714,-0.6759722268,-3205.9815115693,1.0554055582,2862.997374939,3461.4840586778,-404.6872034414,-0.8194786144,-110.2831371091,-0.9524709034,-40.0336718423,-0.5248487324,119.5138827828,384.2334500941,-0.2258390711,21.8602039099,-4.6768634224,-0.1650216369,-5659.4938038439,28931.0332801702,0.9564389711,-8330.5483820396,2135.1206246818,-679.2992375483,0.8691022468,-0.3402250546,0.4136447597,-3420.0227164539,-0.258946722,-0.5715820639,-1306.6524073724,92.4177189636,0.0054553926,-2290.6260339675,0.4150598997,1.9356774734,0.7651618588,-1455.8011730989,-5720.5336659653,2685.7513648609,0.4977632496,153.9483713596,-282.0519774653,13373.2700735544,31.5821199872,11794.1357221308,4693.3753055909,5870.4330144858,5406.4267008367,5170.0878525435,410.0477611151,943.5038285645,-22.4742473986,16487.1442166413,-4351.7284645435,-1463.8170485218,715.0140005285,5133.4954374537,1742.9437145165,-15.4598103525,231.1126003024,457.1090852393,5337.2214574963,1015.7366406055,108.8053293294,-4196.5078774774,-8.3034331829,16372.3105622692,3911.9359068837,14211.9146173203,741.2688270498,-207.2767722759,-2818.0405788126,887.9872860945,-0.8164102423,3492.0250957282,-0.568459615,0.039700824,36650.0635048438,33070.0760684865,-4087.9038094015,964.6075396004,-0.0053987027,11262.8395278347,-419.8744658876,3491.9962035404,0.1139999073,-88.6291842586,0.4833917997,-4166.4890187214,2612.233792808,-26.4362242937,5093.6427171143,27588.0107782817,0.0894365453,-6490.0131557105,-0.5922598003,0.3457699242,-12980.976097389,0.6356240779,-1150.7125143267,-0.3156706749,-26863.0473039165,-2101.6701093881,-0.1188553504,-5.0490544251,0.6617614438,-0.9272538925,18445.5719502825,7090.6052696109,-1.108491787,-151.9211813393,0.5487813201,-0.3963098004,-12723.7967899977,6.5237559207,0.2365054018,29.4891822586,2275.8549069875,-1469.3274883691,7500.5011173267,2294.9604522766,-604.4701045621,5018.1410862224,-4022.0364408721,-7761.0297603186,-607.2317609252,678.5498644599,10607.8237051655,15755.7323635153,-482.3469072058,-2.2840791519,-1.2037231219,-4558.5982773625,-2774.0142695173,-8243.6213756926,1999.7627027841,-541.6226059784,-799.559400336,-12254.6582556994,-750.3606750789,11289.9632118572,-2134.4437510683,-5148.1889343038,8229.2505317826,-4286.497275855,-10816.3225274769,-1.9464382082,90.5149039996,-6640.1366523287,37.9565957777,1.5089008771,0.0440154425,425.2097433947,-9503.3835002256,0.4895761701,6513.6603539392,21.1741229515,0.709876558,-7524.8209562061,-48.387024993,0.7605260755,-0.4616716237,-0.6746812984,0.4433571491,-14076.8419794647,6513.2817989582,0.1116258859,-694.233149703,-4499.7428783291,-3098.5184592562,1.4983302142,-6444.657880453,0.8800887959,-5053.7075376201,-914.4245749394,-0.0022944542,152.7508246098,0.0665342838,1237.2265346204,0.8193786495,741.7144518432,0.3326723089,1911.7945841334,-0.0352473475,1682.0480937857,-8277.1012720234,-5.7372993194,0.6773393665,-0.5006312703,-4902.0102533254,-266.9488983844,-0.3735922671,3100.8070709015,0.4425364458,8684.2962046776,-0.402735188,-0.1842814105,-0.8766354355,-945.7181683335,5380.2550370356,2554.8950712982,-5264.7529346799,70.5233329029,0.0911535617,-3538.220317907,13234.428371084,-5496.0716888988,-1009.070933988,30.164588113,-1712.7758027988,-1462.2970344173,-14641.8535497461,1385.8397397478,-6.6961237233,-14479.6688059368,-8399.2362981504,11025.5279839442,-134.2445004275,-6016.5602078409,366.1596910309,0.240306826,-10699.5006336358,1714.9565720777,-9905.7298949203,3355.4630534015,954.7183585763,-9140.7711224019,253.2230249926,696.3915618676,-4411.0507120546,-9503.8783977085,5484.8441991884,0.7711675594,-7884.6616584454,-29738.8483285182,55.1865345786,-0.1475235643,27.3304586506,0.4316100985,-2030.9733658551,-23695.3121823272,1.1659777617,-15.4851847343,0.6794140512,-0.0624112804,-2879.8313020173,-0.6032284522,2.1437794356,4730.5774721002,14889.9887700904,-5620.5958317229,7860.1891137831,-0.2686489897,1541.746939822,-3441.0174286412,2985.8333727972,-15002.5245092623,-43.6913206574,0.1981862255,-8089.3783077585,640.7835869348,-99.467290258,0.7802591,-13561.5945324835,-1.7590461264,1.4878908834,8514.116024262,0.3302282662,2618.7309564918,1648.9147008489,1065.7812755434,11775.6586986836,-948.1819737195,-2124.3984336843,3140.7044584192,0.5899247763,18667.092322426,0.0704366896,-0.5101389954,2599.5520176903,9116.3873742873,82.9342801103,2914.0778300933,-4962.603493398,-225.2247740257,3893.079075711,-4710.5763523432,-568.141881568,3628.7999503693,-4051.4276863106,2326.8652887427,3591.3764255538,0.1237418034,1178.9038976829,-9.1369248801,-1943.406326211,-2946.7406566845,-16226.5193571871,5471.4253443834,-6309.0147953473,-145.8878518433,1929.9965684355,6066.0440756053,-9.506126724,-13172.6150528681,3274.1346062362,2755.4980249453,3327.3810791441,-7944.1689866072,-164.974539526,-34440.0300654381,-2748.8726996015,-3930.4917524911,-4517.5154313606,-1.0197552587,-0.3930046428,-974.7047398395,-0.6462359123,10914.3779102035,0.7065558304,-6.6073000982,-0.7583717148,-0.9326393011,-0.4676342535,0.0955608866,1.0353812978,-25554.6688901416,0.719600698,0.7141723333,-1.4333076893,-1571.0016307734,1.6416518578,-0.4025266857,2.5688741278,0.6561167495,3922.547555091,-13675.2727187507,-1.0917120139,0.2183139733,3701.6127454506,332.7921417043,14162.7515591639,0.6786653529,0.8856262598,5077.7599385396,-1552.1214106059,-0.2005618416,-1576.3132686141,10858.4617420293,1.0502440215,-540.2940921979,-36571.5670152771,1.1051237758,0.3288369707,12271.6899078514,-3290.3904294569,-5418.4470151749,-0.9289003181,7363.0502141329,-0.2841729504,13102.5911610019,-2260.8884914542,-5683.9751267472,8540.7290711062,136.645110105,3047.5936594736,11647.6645459429,-1601.7696762148,1524.6476358364,13248.8707486297,-11496.3749997279,-3804.1905121477,-2796.2261242123,-1549.5304314201,-12365.8211938951,8725.8303489649,4573.0562746584,29.3609834217,-8753.0820328069,-10.073888692,-2379.1045479806,31.7807825011,6703.7189700279,2.4237589094,4042.6746210864,1758.7457275691,9843.9225708947,1005.6757993335,891.0129136312,-2754.7430885639,-8657.5175811924,534.9751535764,-3720.3575215589,1815.4406568749,-3.3249397041,0.4894128147,0.3093268014,4496.8204984201,-17.3797010839,82.4043443836,0.4202460106,1.3417746746,-0.0936975271,4071.9577115461,0.2648140897,-0.2259415918,528.0740716928,-3342.0403113312,-18.1570123545,8656.6740395613,526.0538104405,-0.0856509927,2583.5856279149,-3931.4622979012,-0.0195188514,1.1318334199,2974.0637137643,2543.9629557351,-0.9572369587,-3563.0766235355,4959.0686602535,-8663.375161928,-0.6693358366,-4289.9561847268,0.5892924482,3942.6975285976,21606.5956562968,4.5017701616,576.0645119117,8228.0214940402,-24.2104750419,-12031.3280707398,-26594.6237172726,-22.6692246417,-0.4258362472,-14679.0382681221,-3.1284701697,-2424.3288759638,-0.6148273159,105.4031550477,-0.3976814824,-7280.7576350761,3260.9102605024,83.8214004538,2685.1980345968,12744.6601339339,779.8406998119,367.4492442588,-10387.3302696676,-1386.7250457189,-2565.8444504356,282.8870874061,4.1695915537,2938.3507271446,-98.9462711018,-2217.1594036381,4984.7775063956,-6176.7973309379,3522.8198025861,658.7003958043,785.5935348831,1862.84033923,2008.0421793214,-1041.0396849464,-5966.2404909848,1.4984175232,-1761.4108530035,-3050.9289017567,1408.2309868875,-2913.9368500491,6509.8187320272,8996.2058131756,-12388.7984971006,-10845.3968683881,3992.024365279,-1160.4945897484,-0.5468169807,-6353.2386502308,0.4577166297,-3142.4236618697,0.0323735385,-0.0896275275,-0.6920070396,-605.1616905085,23385.0790507547,-13.9996901239,-0.0151189135,950.2904306706,-0.0478632708,-3143.3161340109,-0.182284003,18360.0214734175,3585.5645342487,-1852.5081421776,2016.9930752105,-1.125245654,-0.8421651922,-0.0318203685,1.672869654,-21081.0087865323,-346.6930259459,-0.9520194736,-0.4745154804,0.5274310065,0.4567820313,-0.6475743193,-1077.6928555183,-0.4338070326,18449.8325696298,0.1989441179,-11117.8649605895,-0.3816009078,-0.2732661903,0.387207768,-0.3411316413,0.312387142,0.2127037845,0.7923247304,5046.3712444567,-35.8223270575,-0.1650222739,-1.4153994826,-1571.9545167681,-13399.3093210415,-3696.7310978562,5294.510433321,73.8040104962,-441.9144337526,1405.1667688778,-5851.8753038057,460.4698470817,-1244.2567285342,-1245.634785999,20.8481447231,11484.7428184508,6523.41621667,15.3694084617,-7.0708934012,-7475.2793397207,-863.9386193092,-10123.4674184387,15086.1875473277,-1489.4464364257,2658.5596161645,68.844712481,0.8132028089,-8770.7689814851,6004.0354498852,3.5967072099,-872.9904235579,31.5120016862,-2533.9661421734
##end
biasActivation=0,1,1
[BASIC:ACTIVATION]
"org.encog.engine.network.activation.ActivationLinear"
"org.encog.engine.network.activation.ActivationLOG"
"org.encog.engine.network.activation.ActivationLOG"
