encog,BasicNetwork,java,3.3.0,1,1425324988699
[BASIC]
[BASIC:PARAMS]
[BASIC:NETWORK]
beginTraining=0
connectionLimit=0
contextTargetOffset=0,25,0
contextTargetSize=0,1,0
endTraining=2
hasContext=t
inputCount=11
layerCounts=11,2,13
layerFeedCounts=11,1,11
layerContextCount=0,0,1
layerIndex=0,11,13
output=0.2769294314,0.0135671511,0.0603572218,-0.3638637862,0.3697460141,0.0055858941,-0.8839856682,0.331357931,0.7415296559,1.0101493543,-1.084728849,-0.4790703483,1,1,0,0,0,0,0,0,0,0,0,1,1,0.2769294314
outputCount=11
weightIndex=0,22,35
weights=0.8454646688,0.6819664848,0.8882817193,0.4391165838,0.3350352874,0.2208626937,0.2700869026,-0.2344731597,0.0356792322,0.3868388763,-0.3328875045,-0.1538906387,0.4008993962,-0.6919266548,0.424334409,0.5346439642,-0.8982144067,0.3112217672,-0.9646861641,0.5479968177,0.8044989877,-0.6993172387,-0.8305778217,0.9045711613,0.8881841893,-0.602803396,-0.2405109586,-0.5021055278,0.2100116681,0.565366775,-0.3469633088,-0.1838816083,0.2493441913,-0.0333390837,0.1640670176
biasActivation=0,1,1
[BASIC:ACTIVATION]
"org.encog.engine.network.activation.ActivationLinear"
"org.encog.engine.network.activation.ActivationLOG"
"org.encog.engine.network.activation.ActivationLOG"
