encog,BasicNetwork,java,3.3.0,1,1425320515907
[BASIC]
[BASIC:PARAMS]
[BASIC:NETWORK]
beginTraining=0
connectionLimit=0
contextTargetOffset=0,38,0
contextTargetSize=0,14,0
endTraining=2
hasContext=t
inputCount=11
layerCounts=11,15,26
layerFeedCounts=11,14,11
layerContextCount=0,0,14
layerIndex=0,11,26
output=-0.1650690605,-0.0000526113,0.2876703895,0.2982327802,-0.0000441269,0.0587790158,-0.1299500107,0.4169848643,0.5902373867,0.9935238371,-0.3130323612,-14.5732101893,13.5265187462,13.2739057063,-12.1093712365,14.0707802146,-12.7798932482,11.5765523677,-12.3468432564,13.5400030216,-14.4718276738,-11.407120883,13.2964193797,12.9027102676,-12.7330183913,1,1,0,0,0,0,0,0,0,0,0,1,1,-0.1650690605,-0.0000526113,0.2876703895,0.2982327802,-0.0000441269,0.0587790158,-0.1299500107,0.4169848643,0.5902373867,0.9935238371,-0.3130323612,-14.5732101893,13.5265187462,13.2739057063
outputCount=11
weightIndex=0,165,529
weights=0.0043261363,-0.0116761525,-0.0105716062,-0.0046108213,0.006449081,-0.008690627,-0.0020552441,0.0207012272,0.0124275745,-0.0086167361,0.0095304118,0.0001003401,0.0001980664,0.0153614929,0.2254389056,0.0000019707,-0.0000003668,-0.0000003198,0.0000003693,-0.0000001596,0.000001133,-0.0000001498,0.0000002968,0.0000011742,0.0000017384,-0.0000001659,0.0000017657,0.0000018013,0.000002672,0.0000065816,0.0087682902,0.0085349226,-0.0009075772,0.0183285512,-0.0002479483,-0.0033748039,0.0018017045,0.0022312467,0.0022289427,-0.0042024634,-0.0095140171,0.000530213,0.0056644524,0.0085348778,0.3300628494,-0.0061556654,-0.0128851391,0.0001542599,-0.0094360537,-0.0025908913,0.009543373,0.0062644075,-0.0082810554,-0.0040413707,0.0020835916,-0.0128973632,0.0072963444,-0.0059657459,-0.0060927699,0.0902892088,-0.0000008157,-0.0000007138,-0.0000005734,0.0000011115,-0.0000019052,0.0000001304,0.000000564,0.0000001363,-0.0000000664,-0.0000000005,-0.0000002627,-0.0000003305,0.0000007779,0.0000003652,-0.000004758,-0.0028012677,0.002553825,-0.0104364107,0.010399252,0.006532697,0.0039251644,0.006329491,-0.0125242318,-0.0095381643,0.0069378905,-0.0080990812,0.0003822489,-0.007093255,-0.0028153979,0.165960841,-0.0164286069,-0.0279102357,0.0246440813,-0.0034195732,-0.0239540908,0.0167075192,0.0029533373,-0.0415797469,-0.0088915616,0.0197560658,0.0027310823,0.0094680557,-0.0084124071,0.0066718267,0.1476897004,0.0172084441,-0.0012441801,0.0065329472,0.0230086416,0.0010737443,-0.0223962736,-0.0090620593,0.0128628415,0.0260486703,0.0008539036,0.0103637664,0.0043809322,-0.0010954357,-0.0118996352,0.4211358188,-0.0081430219,0.0194175838,-0.0090416744,-0.0074889687,-0.0048192387,0.0017534298,0.0174562106,0.0051803902,-0.0107542936,-0.0142658797,0.0089160622,-0.0050320649,0.0126868347,-0.0126637233,-0.0268225539,-0.0114084586,0.0150282091,-0.0118585693,-0.0004817304,0.0125844784,-0.0067795754,-0.0026851882,0.0057804555,0.0026217004,-0.01053126,-0.0004292281,-0.0122056887,0.0087607292,-0.010442658,0.3377901985,0.013445779,0.0071242301,0.0156151918,-0.0034157988,-0.0024654776,0.0004388699,0.0002754678,0.0094362734,-0.0150878128,-0.0067404579,0.0084294955,-0.004478409,-0.0108459935,0.0120841634,0.2477870848,-214525.5523087671,-0.5769150077,-164020.2705108076,-158856.99071269,0.4929565859,287991.5698803007,452736.9774407222,-78921.915481593,630676.3621038407,-383785.7250866311,139407.6059885122,-2345.4946610527,132101.9926582698,-52230.5483159772,-88057.9797270718,93184.7960830993,-1630.7853398012,-60294.3330984788,217798.2046437709,73383.2599129105,191106.609922202,59780.7431213439,-8118.0823820396,-77306.3847757442,35132.1468671321,49846.2389870597,-337146.6544005222,0.9393152391,-270760.5647330703,-381159.4727863286,0.2402235589,639733.3880602431,-176814.433339621,110599.9828964576,600756.9499247988,-383349.4645498792,404983.7180032836,11650.7599545425,226912.5013903366,-31084.3914566545,-54132.7316593604,55285.9290769942,26195.8952411091,-151477.6193429389,16926.3366703432,8923.6703359323,62272.8408026194,61946.8607097974,81207.6621847649,-2010.4979748791,-28329.9029394844,-6700.2754295311,-72803.5605050969,-0.4377657457,249081.02777892,275118.3688844942,-0.2189710978,-186035.9211413031,240547.2338235308,5942.8927800609,-640057.2676187212,-54288.9869551143,115509.429548768,-17637.2875076871,47802.2520518612,-29447.7230647821,6359.5880151274,-88700.7841909973,-63467.1118729465,-162385.0209391799,-115526.1622371145,-121217.7166553805,240179.6672123626,42235.5805486305,186963.9435452809,-8644.1572458163,7904.2379903709,-50590.4230161518,-378192.8175511818,0.7122977591,-619481.4591186612,246991.0930211662,0.9703311685,715131.2784322605,-595791.7685763815,265770.2206293498,738788.4125464037,33205.2941545993,226088.7138136072,57463.6641320485,156642.1303752973,41057.6663555187,-61394.8424908628,-20922.027079692,27275.730154728,202.7825125723,73506.705183821,-18312.2570470875,129079.8568870434,148282.3652525943,-114823.8956130876,2452.3939462746,764.4803240561,9000.8056419987,35912.501782797,0.9823966575,274726.3527098676,497446.907864025,0.3347600224,-277332.8396438959,-361495.4687078453,-367860.8392883149,301136.5479612379,-43290.5700835878,237771.619223317,29484.9521787847,7955.1687780754,-31187.5035397962,10603.0159702936,209077.3292916863,21793.7165943335,-18945.3875226567,69448.323460732,71706.4791494178,-218839.0737056591,-82432.6063072767,-75058.5168836438,34551.355035184,-10424.1093274263,-29793.5204010626,302774.4760916835,-0.3492766181,-64864.2314275781,-750567.1098049253,0.480739806,204896.078950146,-261888.1547444114,-256467.9365669574,322485.9888682094,308641.3807860636,-68463.5374630629,-19879.326898694,66210.3097133171,-41395.1581595042,13358.8992703234,72206.2364438469,36102.1465506588,146268.4318879379,45947.009363025,-49130.6066750041,200843.3987406527,88985.3853121846,-278003.7002161712,-28698.753899744,13408.2481213217,-19775.3416221825,207417.632616098,0.8756109229,-7858.05019104,189216.9943043105,0.3219926757,-332605.3210459442,-61258.3746512287,-670200.136372945,861356.9601266684,530381.5435655484,19216.8960135986,-21813.4217976757,5280.0196675189,53595.1587325462,17012.723750776,52046.8188634388,93390.7837499894,-85264.1605072644,131307.1712780974,108486.4322686106,-195599.3855256012,-4601.3553869556,-59395.0919636985,-5862.5680173161,-10555.867515845,11364.5850129522,-363722.2668919917,0.2174570676,-351356.3382472779,547943.9576418368,0.0037243619,179187.4815238325,-336351.6466450294,128559.107311943,312080.6545342245,239056.9337954603,338944.7067621091,-13272.8914657926,-110731.8416658234,20789.5101571755,-120981.7230651773,98763.8584154648,-14942.4690073326,-76663.5810806903,209719.1525667892,-39196.6584623267,59626.8414293664,40819.244408703,-141255.741512706,-3859.5554675377,-3210.2618885301,-6457.0874231758,66062.6059291305,0.3005746582,-620949.6315785903,-397346.9979254715,0.1476100137,962898.690494994,-374097.4625856241,205360.1309216755,-1175888.7588781747,-5855.0978072248,656783.0841911694,-7811.1932434002,11915.4208411342,56985.157027615,-13952.9855265409,21524.5526723562,36363.7838387084,-39766.3750114639,-20567.9374918447,-152257.006918257,-253461.9023906815,13854.6738045398,54996.4423327976,286.234526256,10687.0494415678,-11275.6453676579,-126742.8494286652,-0.8037081545,-224014.967457145,495963.011427887,0.0604063096,122261.5749740462,5276.2794617055,-65937.5666701081,-187257.2742264609,228956.6454927074,10562.2962306717,-5832.5853928754,69660.921864148,154271.4274337238,80182.2109118725,241322.818721189,47214.8935723752,-66928.8524221105,91641.9797938318,-111122.7702990206,-147110.233673826,-43213.0142253909,-166135.2214887186,-47835.6682676947,70031.5817850994,11782.5726070284,-78558.699206736,0.1067502229,-153049.4561570839,574978.6397299104,0.120562263,391309.3229235747,-31814.0093331121,408764.9095931703,-638636.8031905679,-397227.0643920869,57029.4067605723,47965.7118684494,46318.7092316409,-3978.2026036394,109553.4549743598,-169485.8093647054,-12824.805473126,109665.6927757201,-75366.3919883277,-162517.0647258265,167954.6426589105,98335.4817263421,-62682.3911670098,7536.7761324337,-11330.2133066545,23025.6755856303,317212.4541174419,-0.5119530677,401570.1171325284,433920.8144568953,-0.5157351409,96078.5686751875,-368183.246250374,426998.4627850967,-298534.9400501287,-213573.4246154217,-625901.5352561778,-55278.9172712892,-82065.2509468642,-83524.587803896,-50540.4846352736,-39352.6712920342,-123793.2394841637,-44768.3701948171,85545.8215639196,-226393.2477165986,322039.0507766964,-94846.0842881984,-33559.1591406585,31489.9577014073,-43662.0514321159,-10514.2299496189,-32519.3671963499,-0.8153128326,-520158.6776204862,-1208653.2448246214,0.2657409971,261026.7196387155,233617.8239529009,-125166.0531026838,970762.1696154714,31470.9420222895,359087.6941678368,-21969.3834774609,181221.7842094983,-47291.9244016203,18181.7634527334,177403.5560832831,-68005.08972507,66653.5365689933,-62475.0704064854,47534.3945961829,-201672.9236610904,17554.8423195878,89155.9349457572,26890.5937625151,19175.7255790547,26375.1971502689,-219734.3667030684,0.5104174752,486466.0943554382,652397.8969439013,0.2142164294,-886163.7429948254,-284134.3177518225,-94244.7410235383,198493.0291760464,46667.914506802,163559.5291697489,11379.6795335983,-203572.0050241574,-22984.6291582276,-81440.376441297,222673.5532091535,-63619.4108110274,30011.1015502118,50292.9056787755,-23027.2223248652,222162.2166845238,61740.2656188986,-94954.8958518218,-1642.1128600809,-14997.5320625945,10891.7971030539
biasActivation=0,1,1
[BASIC:ACTIVATION]
"org.encog.engine.network.activation.ActivationLinear"
"org.encog.engine.network.activation.ActivationLOG"
"org.encog.engine.network.activation.ActivationLOG"
