encog,BasicNetwork,java,3.3.0,1,1425323253155
[BASIC]
[BASIC:PARAMS]
[BASIC:NETWORK]
beginTraining=0
connectionLimit=0
contextTargetOffset=0,134,0
contextTargetSize=0,32,0
endTraining=2
hasContext=t
inputCount=50
layerCounts=50,33,83
layerFeedCounts=50,32,50
layerContextCount=0,0,32
layerIndex=0,50,83
output=0.0063403577,0.1736992147,0.3554875856,-0.1486438939,0.2042195166,-0.2351184606,0.5457029608,0.3545866725,-0.2219496473,-0.2770868392,0.0001091938,0.1109573411,0.2216236984,0.4183929282,0.0021970491,0.0000552311,0.0405714737,0.1053286809,-0.3213011993,0.3344381314,-0.0500822306,-0.0128156359,0.1084992008,-0.4604088383,0.4018536061,0.0200571758,0.0847976246,0.2222530891,0.0877564418,0.4427003285,0.0936226253,0.1085321752,0.0639690842,0.2032818681,-0.0000148212,0.3015797648,0.3934570757,0.1824309925,-0.1667298342,-0.1906807565,0.2839308473,-0.0942270176,0.1373342013,0.1066783772,-0.1080979156,0.1196921433,0.535646642,0.4003349678,0.2478071886,0.0361568873,-10.215004302,-9.5957505158,-7.6467288022,5.8427345659,-9.6348053113,8.2778796858,-8.9414769106,-10.7686719194,-9.546633506,-9.4734097133,11.0176129965,10.1758619635,-8.0726943695,8.2039460306,9.2016333696,10.2074473687,9.4926794496,-7.6364649596,8.7668900604,9.9201631701,7.4764075858,9.9782654431,-5.4168305722,9.6858734929,10.7081770218,8.0238685805,11.1078635884,8.8734105098,-9.6954256793,-10.5416666287,10.649241582,-9.4095746081,1,0,0,1,0,0,0,0,0,0,0,0,0,0,0,0,0,0,0,0,0,0,0,0,0,1,0,0,1,0,0,0,0,0,1,0,0,0,0,0,0,0,0,0,0,0,0,0,0,0,1,1,0.0063403577,0.1736992147,0.3554875856,-0.1486438939,0.2042195166,-0.2351184606,0.5457029608,0.3545866725,-0.2219496473,-0.2770868392,0.0001091938,0.1109573411,0.2216236984,0.4183929282,0.0021970491,0.0000552311,0.0405714737,0.1053286809,-0.3213011993,0.3344381314,-0.0500822306,-0.0128156359,0.1084992008,-0.4604088383,0.4018536061,0.0200571758,0.0847976246,0.2222530891,0.0877564418,0.4427003285,0.0936226253,0.1085321752
outputCount=50
weightIndex=0,1650,4306
weights=##0
##double#4306
   -0.0011650353,-0.0015073664,0.0066812877,-0.0020680952,0.0042167334,-0.0041473682,-0.0079898429,0.0008764329,-0.0012422992,0.0021207466,-0.0036325266,0.0005773495,-0.0027899372,0.002026848,0.004057048,0.0023032971,-0.0084536598,-0.0071105674,-0.0018510302,0.0024397609,0.001673382,-0.0025330986,0.0026323394,-0.0010587468,-0.0022998449,-0.0005862681,0.0031583711,0.000705097,-0.003601245,-0.0013260028,-0.0001848121,0.0029506838,0.0225722537,-0.0123307784,-0.0008407835,-0.0029611559,0.0093864546,-0.0046749389,-0.0032821835,0.0036853089,0.0010202441,-0.0019649093,0.0054297218,-0.0013351341,-0.0002185044,0.0004937656,-0.0026006806,-0.001365532,-0.0053882422,-0.0065294069,0.0010844284,0.0131778355,-0.0003744856,-0.0035413778,0.0045731528,0.0022339509,0.0036718904,-0.0064512142,0.0042495818,-0.010927179,0.0053115493,0.0009767084,0.0004130773,-0.0030694169,0.0066058472,0.2644803473,-0.0018940908,0.0000580125,-0.0012003814,0.0023485722,-0.0015479161,0.0002579828,0.0035385109,0.0033328641,-0.0189392117,0.0050615493,-0.010581071,-0.0029698466,-0.0001892088,0.0098578839,-0.0009089573,-0.00347408,-0.0059702539,-0.0114709017,-0.0052373374,-0.0081446664,-0.0038203469,0.0031715983,-0.0006850812,0.0045146891,0.001836297,0.0069077046,0.0023554969,0.0048811102,-0.0072795027,0.0011760059,0.0062246975,0.0114046843,0.2231848286,-0.0099017522,0.0024357662,0.005568728,-0.0040840516,0.0048625243,0.0065568707,0.0043890894,-0.0033429859,0.0006934741,0.0050249718,0.0004522351,0.0008153908,0.0035714571,-0.003786789,0.0028503086,0.0038767387,0.0064701361,0.0046868281,-0.0081243886,0.0056002958,0.0005993853,-0.0034188726,-0.0006970548,0.0053817492,0.0016822494,-0.0025183364,-0.0000688337,0.0005458232,0.0016440328,0.0055864438,-0.0052099818,0.0050979455,0.0110562409,-0.006922956,-0.0034520088,-0.0008763738,-0.003989395,0.0067215867,-0.0044704337,0.0064310722,-0.0032505102,0.0043410539,-0.0016688101,-0.0051212942,0.0084377021,-0.0011129293,-0.0005864069,0.007301554,-0.0098662236,0.0042567117,-0.0059051624,0.0029676436,-0.0009759254,0.0067129206,0.0093267143,0.0010626015,0.003522189,-0.0104337929,-0.0039932487,-0.002891365,-0.0019042459,0.0064700731,-0.0005691416,-0.0014975325,-0.0107548937,0.1576078107,0.0132528394,0.0019897112,-0.0020710828,0.0045040032,-0.0007727023,-0.0066257254,-0.0039362266,0.0046984378,0.000015851,0.0032124643,0.0043369781,-0.0015010304,0.0031781537,0.0044240509,0.0044205117,0.0087591569,-0.0002254095,0.0082371949,-0.0020794275,-0.0076162584,0.0055987801,0.0005152186,0.0078879458,0.0027644271,-0.0031192055,0.0035920403,0.004435965,-0.0025051039,0.006463592,0.0030889319,-0.0099971714,-0.0016453267,0.0888776228,-0.0108129035,0.0032909281,0.0020465709,-0.0041402106,0.0007392687,0.0073554786,-0.0002570531,-0.0074804162,-0.0042333227,0.0091184844,0.0087459893,0.0073337487,-0.0026418128,0.0082287003,-0.0076307374,-0.0004975321,0.0132581269,-0.000585325,-0.0033644315,-0.0014927134,-0.0002518948,-0.0023411973,0.0072354928,0.0079185874,0.0000492547,0.0023050528,0.0012110014,0.0045792569,-0.003440925,0.0099999815,0.0052332616,-0.0031196205,0.0470720464,-0.0042297787,0.0012018712,-0.0025594806,0.0046486024,-0.007035663,-0.00826002,-0.0032488212,-0.0081547003,-0.0018065294,-0.0075139933,-0.0097569952,0.0029767165,0.0051685215,-0.0111624147,0.0007301419,0.0010124732,0.0102522978,-0.0085178218,-0.0011703264,-0.0001917714,0.0115149975,0.0054510865,-0.0038890886,-0.0048047381,-0.0025324488,-0.0038322108,-0.0035423417,-0.0133524189,-0.0032417402,0.0007384769,0.000518666,-0.0062983285,0.1269751759,-0.0002941717,0.0004485611,0.0012834745,-0.0065883732,-0.0045579394,-0.0016416629,-0.0061609706,0.0010301956,0.0002841903,-0.0058821861,0.0000144952,0.0033913237,0.0044091522,-0.0070254265,-0.0044150306,-0.0050473486,-0.0024680851,-0.0038520102,-0.0006068573,0.0017609428,-0.0023279028,-0.0068602904,0.0006665538,-0.0038983617,0.0006060845,0.0024051102,-0.0009419227,-0.0084273369,0.0043688696,0.0049576584,-0.000194163,-0.0055469676,0.0640727534,0.0021952598,-0.0031063625,0.0041513996,0.0022726852,0.0104857782,0.0061782442,0.0056357142,-0.0016939009,0.0113355886,-0.008612643,0.000916033,-0.0145138829,0.0045255388,0.0056048543,-0.0005996426,-0.0029520956,-0.0098685863,0.0071548676,-0.0092442163,-0.0043546415,0.0050675492,-0.0002850228,0.0015818086,0.0080302718,-0.0022552004,-0.0041780127,0.0013588408,0.0010346764,0.002557626,-0.0033047455,0.0033822788,-0.0059124462,0.1064684099,-0.0000009221,-0.0000006954,0.000000575,0.0000015384,-0.0000001973,0.0000002418,-0.0000001443,0.0000011846,0.0000010071,-0.0000019229,0.0000003227,0.000001096,-0.0000012805,-0.0000001086,0.0000008176,0.0000008728,-0.0000018606,0.0000003324,0.000001213,0.0000000519,0.0000008552,0.0000008625,-0.0000020092,0.0000000645,0.0000008174,-0.0000016344,0.0000007171,0.0000008625,0.0000003059,0.0000003623,0.0000001187,-0.0000006318,0.0000177475,-0.0033298466,-0.0020246032,-0.0013444373,-0.00065823,0.0032510733,0.0008616529,0.0007152278,0.0001026857,-0.0002570399,0.0033654161,0.0040577671,0.0039207061,0.000163074,-0.0020222942,-0.0088308952,-0.0025348567,0.0039619078,-0.0071428614,0.0026882426,-0.0081351317,0.0018156569,0.0016258164,0.0079586304,0.003537784,0.0028272521,-0.0010598326,0.0010442794,-0.0027766349,-0.0072533744,-0.0009137402,0.0066147073,0.0085598997,0.0180772291,-0.0046764801,0.0026674526,0.0017381345,-0.0024429755,0.0007578827,0.0008330711,0.0045014859,0.0025992572,-0.0031813267,-0.0091884296,0.0153149771,0.0073898445,-0.0103121503,0.0002230358,-0.0070174664,-0.0014720662,-0.0028875937,-0.0035078612,0.0011544037,-0.0033859861,-0.0080468689,-0.0009398356,0.0019152483,-0.0013124097,-0.0039684701,-0.0002291139,0.000515857,-0.0141988704,-0.001764818,0.0005647104,0.0099852095,0.0023250129,0.1145321017,-0.0108931654,-0.0091256734,0.0036785928,-0.0015235185,-0.0070229181,0.0044718519,0.004338713,-0.0004193926,-0.0001246291,-0.0013950444,0.0006862037,-0.0144261367,-0.0022838769,-0.0045677148,0.0005654365,0.0092534888,-0.0008031669,0.0113919707,0.0027230114,0.0096451566,0.000440788,-0.0041904682,0.0000414771,0.0038588082,0.0049698057,0.0052753849,0.0007240396,-0.0039657082,-0.0015803758,-0.0000545583,-0.0027913298,-0.0029099419,0.1248682736,0.0029194833,0.0048386723,0.0024655086,0.014775868,-0.0016584929,-0.0003741666,-0.0025494351,0.0003141077,0.0064628842,-0.0047728795,-0.0076226875,0.0070545184,0.0104484417,-0.0006352571,0.0028480359,-0.0051467498,-0.0102533196,0.0041333893,-0.0009072946,-0.0022427198,-0.0160780281,0.0007266719,0.0059881616,0.0031801832,0.0068497701,0.0045005026,0.0113733713,-0.0071672352,-0.0000277806,0.0018175702,0.0028402543,0.0024766873,0.2366854723,-0.0000006934,-0.0000005937,-0.0000003364,-0.0000000038,0.0000005368,0.0000000709,-0.0000016165,-0.0000031123,-0.0000012832,-0.0000000554,0.000001975,0.0000010799,0.0000003044,0.0000007206,-0.0000012232,0.0000006622,-0.0000023176,-0.0000004051,-0.0000002746,-0.0000014438,0.0000006482,-0.0000002071,0.0000010061,0.0000005705,0.000001425,0.0000000486,-0.0000013492,0.0000005353,-0.0000003014,-0.0000007967,-0.0000012499,0.0000002076,-0.0000166515,0.0042920293,0.0076578836,0.008471525,0.0074257405,0.0035204257,0.0081747955,-0.0004544719,0.0060083608,0.0026236637,-0.0016690546,0.0104399769,-0.0016608458,0.0013918394,0.0005601663,0.0034907256,0.0041378021,0.0031710982,-0.012288585,0.0020249125,-0.002961874,-0.0015886757,0.0079617364,-0.0128572025,-0.0131168649,-0.0016696324,0.002906008,-0.0188003752,-0.004819075,-0.0016574397,0.0038651158,0.004536907,0.0042790688,0.1898760693,-0.0012715722,-0.0007979439,-0.000092211,0.0074452457,0.0071165083,-0.0011421236,0.0044922282,0.0041298397,-0.0031616356,0.0011524195,0.0021411515,0.0034174011,-0.002406319,-0.0038980209,0.0086183641,-0.0053984507,0.0017714923,-0.0024447886,0.0046759719,0.0013264579,0.0040982889,-0.002866858,0.0049321324,0.001630467,-0.0004208139,-0.0021817731,-0.0033057977,0.0030581718,0.0047680251,-0.0024231809,-0.0060818464,0.0004667396,0.1545521451,-0.0005590046,0.0034476961,0.0022260601,-0.0102688065,-0.0042475801,-0.0052674798,-0.005763005,-0.0001688679,0.0004152841,-0.0076635712,-0.0021373495,0.0015531422,0.0019570734,-0.0108840684,-0.004420969,-0.0037704372,-0.0021715349,-0.0004005015,-0.0019298966,0.0010631648,-0.0032857237,-0.0038744918,0.0033103431,-0.0032780469,0.0007607424,0.0026846394,-0.0026316948,-0.0054701506,0.0030918205,0.0049934728,0.0016480478,-0.0049143936,0.0595320615,-0.0070147977,-0.0040569341,0.0050601143,0.0012438191,-0.0028857431,0.0063962575,0.003405297,0.0052897382,-0.0031776446,-0.0054898016,0.0070712003,-0.0079747938,-0.0031498167,0.0011585525,0.0014670069,0.0043561556,0.0057886262,0.0026951455,0.0065580923,-0.0008365414,-0.0026820618,-0.000139626,0.0021565173,-0.006796176,-0.0012805156,-0.0007958282,0.0043866926,-0.0012232751,0.0042546987,0.0003353517,0.0049249762,-0.0029961016,0.0517054468,0.0029416761,-0.0059634179,0.001175433,0.0110738255,-0.0071815112,-0.0082454884,-0.0050900444,-0.0023309302,-0.0017350252,0.0076052553,0.0004056337,-0.001450112,0.0041958612,-0.00137555,-0.0102533947,0.0014288252,0.0080685908,0.0044787857,0.0065745454,-0.0027276561,-0.0034130384,0.0020547642,0.0048245198,-0.0050863011,-0.0024375159,0.0002027158,-0.0042807447,-0.0043431435,-0.0029992883,0.0007453386,-0.0032522056,0.0004662442,0.1219755353,0.0022563467,-0.004142278,-0.0060809454,0.0012283359,-0.0012515243,0.0011274846,-0.0000865791,-0.0041218812,0.000270181,0.0050876461,-0.0000594286,-0.0012833911,-0.0009385853,0.0025115476,0.001744049,-0.0009412569,-0.0006587482,0.0038835917,-0.0034964056,0.0010698247,-0.0029003744,-0.0062561302,0.000356409,-0.0012925905,0.0014553334,-0.0023854447,-0.003403069,-0.0015502442,0.0009570663,-0.0042072021,0.005049492,0.0036870235,0.0355968303,0.0110796005,-0.0021475822,-0.0010038057,-0.0012912566,-0.0021917341,0.0057015288,-0.0049057075,-0.0047810031,-0.0016534807,-0.0030709062,0.0028802994,-0.001536331,0.0004923407,-0.0026097193,0.0003576693,0.0014838111,-0.007668755,0.0039552675,0.001562126,-0.0030880373,0.0066034911,0.0013316498,0.0025402384,0.0022792388,0.0018299505,-0.0035689853,0.0033333481,0.0030106276,-0.0005732061,0.0043490082,0.0030919733,0.0034819074,0.0176362629,0.0040146432,-0.0097221532,0.0000046357,-0.0060788414,-0.0062833583,-0.0044940004,-0.0059000806,0.0098941426,-0.0002896756,0.0080186478,-0.0014021242,0.0076377996,0.0012470474,-0.0025852625,-0.0064318874,-0.0009789,0.0011198526,0.0032858327,0.0002029322,-0.0069643534,-0.0130706707,-0.0143586756,0.0017716326,-0.0029955866,0.0017657074,-0.0057143968,-0.0018048691,-0.0049147894,0.0057962349,-0.0027397067,0.0099252186,0.0064686426,0.0991610971,0.0027097039,-0.0014939134,-0.0165789612,0.001179218,-0.0094309852,0.0044204241,-0.0000674507,-0.0044154254,-0.0117565258,0.0009078761,-0.0144090351,-0.0019246341,-0.0024981531,0.0013656558,-0.0031453054,-0.0072198965,0.0082839787,-0.0048781827,-0.0061495015,-0.0022234556,-0.0039434657,-0.0046077201,0.0026407013,0.0003376359,0.0034978301,-0.0014015512,0.0013036553,-0.0009248996,-0.0039058718,0.0022142109,0.0051253546,0.0046185899,0.2403366567,0.0019237857,0.0008540788,-0.0011601306,0.0036954066,0.0047173495,-0.0054053695,-0.0033888218,-0.0020002773,0.0064221055,-0.004530988,0.0036353193,-0.011472705,0.0030097553,0.0093250019,-0.0025649298,-0.0018666574,0.0006089858,-0.0021635915,0.0001139634,-0.0001505197,0.0003568686,-0.0048316398,-0.0074461411,-0.0011625846,0.0023797982,-0.0037485852,-0.000585927,0.0055715579,0.0004326818,0.0014957535,0.0031193232,-0.0026369523,0.0595808199,0.0025298191,-0.0024747876,0.0024934762,-0.0011126592,0.001982692,-0.0040062784,-0.0021131327,-0.0029668777,0.0028249911,-0.0011668925,0.0006184438,-0.0023915104,0.0014214547,0.0047042362,0.0020229601,-0.0001590851,0.0027093197,-0.0047346588,0.0026412718,0.0028928362,-0.0035537885,0.0005364152,-0.0036805042,-0.0004261307,0.0020005113,0.0017892608,-0.0029113822,0.0046217709,0.0036784064,0.002604453,0.0017056107,0.0016457725,0.0108815218,-0.0031369288,-0.0024203414,-0.0063012475,-0.0009895931,-0.0017740748,0.0031574489,0.0012465383,-0.0045953572,-0.0009919083,-0.0018609002,-0.0087444,0.0051926403,-0.001288385,0.0058046702,0.0089037008,-0.0003841752,0.0033992107,0.0066634359,-0.0046554521,-0.0015602656,-0.0140187244,-0.008206024,-0.0009382861,0.0052696744,-0.0056216137,-0.0026574158,-0.0041498417,0.0060277507,-0.0060778641,-0.0021742878,-0.0011014518,0.0052632844,0.1824007974,0.0078426894,0.0044610629,-0.0086709909,-0.010911145,0.0022720617,0.0005391298,0.002318712,-0.0008753755,-0.0044751022,0.0041788705,0.0028608357,0.0044250897,0.0011117518,0.0029628109,-0.005775554,0.0003421311,-0.0071154495,0.0098953269,0.0051139361,0.0061873284,0.0082427104,0.0075090026,-0.0082842068,-0.0057405893,0.0003167652,0.00154097,0.0099080417,0.004963952,0.0038140251,0.0008384883,-0.0064604588,-0.0008418733,0.0394020161,-0.0109414652,0.0035756042,-0.0030948259,0.0057388937,0.0046600941,0.0003326236,0.0022957703,0.012526821,0.0019140245,-0.0071288957,0.0115538139,-0.0091355219,-0.0026345289,0.0114987964,-0.0005109794,-0.0009508999,-0.001821058,0.0133623106,0.0080712753,0.0072809184,0.0066403565,0.0032320101,0.001461431,-0.0113330606,-0.0032453527,-0.007123182,0.0061647279,0.0021700531,0.0039102734,-0.0043484772,0.0025363346,-0.0089444613,0.2180301463,0.0042694605,0.0020584093,0.0042725135,-0.0055876533,0.0170309224,0.0094606563,-0.0099915385,-0.0038756384,-0.0065436284,0.0012412931,-0.0099959628,0.0030170874,-0.0002406549,-0.0023081794,-0.0027488016,0.0029074968,-0.0169527138,-0.0039097844,0.0144605442,-0.0089197651,-0.0020559963,0.0027487984,-0.0035463697,-0.0022754979,-0.0079207752,-0.0021558577,0.0023770316,-0.0031826363,-0.0113924173,-0.0013729591,-0.0040743664,-0.0063791557,0.2642778147,-0.0026646236,-0.0033908934,0.007518929,-0.0061945976,-0.008089701,0.0050087861,-0.0044445398,0.0042574534,0.0038443894,0.0085593059,0.0010485213,0.0098048706,0.0005824813,0.0087768526,-0.0036778827,-0.0010181712,0.0148352779,0.0031063038,-0.0050529429,-0.0004478245,0.0030261865,-0.0012408779,-0.0006155752,-0.006885974,0.0015605633,0.0041405885,-0.0008836065,0.0051280435,0.0005043862,0.0072986794,-0.0091195859,-0.0013754541,0.0776962955,0.0048378137,0.0012118727,0.0032666684,-0.0028708173,0.0040611425,0.0086529353,0.0035015856,0.0029760231,0.0037719403,0.0075122477,0.0005893993,0.0051014175,0.0005170616,-0.0005898462,0.0015450614,-0.0055155191,-0.0071456992,-0.0069678834,-0.0010543936,0.0020749623,-0.0058072215,0.0088698698,0.0026524362,0.0035117494,0.001672898,-0.0078366731,-0.001413792,0.0001774945,-0.0018978518,-0.0033376272,-0.0016813977,-0.0158896016,0.1099415991,0.0071237043,-0.0059770736,-0.0008300652,0.0054566628,0.0014512724,0.0016124548,0.0006299806,0.0024741756,-0.0049732898,-0.0088062153,-0.0026872059,0.004303773,0.004644657,-0.0018653848,-0.0054680505,-0.0040204906,0.0091741099,0.0049138152,-0.0056279815,0.0043448406,-0.000011553,0.0038391904,-0.0047274498,-0.012326262,-0.0045424071,0.0028626981,0.0026302473,0.0058080442,-0.0102133672,-0.0055347091,-0.0026449413,0.0005918082,0.0459608423,-0.0000010078,-0.000000687,-0.0000000554,0.0000012197,0.0000004063,0.0000004339,-0.0000004566,-0.0000008492,0.0000006569,0.0000002998,0.0000012309,0.0000002378,0.0000006393,-0.0000011308,-0.0000004699,0.0000006026,-0.0000012784,0.0000012228,-0.0000007519,0.0000000971,-0.0000001302,0.0000009368,-0.0000000645,-0.0000008275,0.0000013763,-0.0000008779,0.0000013564,0.0000010869,0.000001181,0.0000021868,-0.0000017268,0.0000008655,0.0000086028,-0.0008850321,0.0030635367,0.0011642616,0.0008825253,-0.0127558632,0.0006881713,0.0066532864,-0.0032038095,0.0042329664,0.0104076451,0.0028226445,-0.0031365704,-0.0073317817,-0.0002160326,-0.0038075854,-0.0011929957,0.0018156345,0.0028304366,0.0005820012,0.0022851577,0.0056582443,-0.0025857712,-0.0041515287,-0.0017352628,0.0000359517,0.0145200311,-0.0093798724,0.0092146721,-0.001290485,0.0029094374,0.0036249054,-0.0003905763,0.1875378407,-0.018921278,0.0011544998,-0.001612944,-0.0002678571,-0.0016307556,-0.0015512081,0.0044897012,-0.0081312518,0.003956146,-0.0001680046,-0.0063819924,0.0034840716,0.0016480339,-0.005637089,0.0089414696,0.0063496599,0.0065679565,-0.000996506,-0.0035967573,0.0005270292,-0.0040765146,-0.0010777917,-0.0078467933,0.0085571004,-0.004514046,-0.0051759169,0.0057441038,-0.0034434055,-0.0030044651,0.003398713,-0.0065975802,0.0047204064,0.1838780617,-0.0039602887,0.0049100056,0.0040986758,-0.0035170021,-0.0095942348,0.0019073203,0.0034146687,0.0043668019,-0.0052848319,0.0076869434,0.0063767991,-0.0090680183,0.0026351793,0.003580888,0.0078521826,-0.0011060398,-0.0035533854,0.0077367832,0.0023865364,-0.003567872,0.0081481816,0.0088002722,-0.0050620974,-0.0054338195,0.0021728101,0.0112041724,-0.0028073312,-0.0002476324,0.007220278,-0.0056622011,0.0006850412,-0.0018093333,0.0756033436,0.0117383833,-0.0006059262,-0.0082865853,0.0019129268,0.0086918614,-0.0028949758,0.0081651672,0.0016577843,0.0008404471,-0.0010706727,0.0077695723,-0.0061396002,0.0021574095,-0.0071208944,-0.0040598227,-0.0071139565,-0.0015340567,0.0016351661,0.0026900888,-0.0098607034,0.0122407099,-0.0093464459,-0.0003585717,0.0038852954,0.0064237379,-0.0062902722,0.0064759556,0.0018281096,-0.0054853919,0.0024508203,0.0019750484,0.0028483669,0.1673600347,0.0020245966,-0.0029196883,0.0029397105,-0.0048887415,0.0082842689,0.0002703929,0.0060113875,-0.0032810353,-0.0000938071,0.0010414693,-0.0018124392,-0.0001614764,-0.0018482941,0.0021148863,0.0004243807,-0.0055796641,-0.0025687946,0.0000436051,-0.000689437,-0.0064091324,-0.0027811151,0.0050703002,-0.0007366737,-0.0009704566,-0.003681231,-0.00001053,0.0008763038,0.0001175996,0.0028473961,0.0008877472,-0.0027572561,-0.0092544343,0.0783093306,0.0056462822,0.0016333058,0.0056257632,0.0083880645,-0.0060360963,0.0023486478,0.0005223012,0.0004264099,0.0019402546,0.0005434099,-0.0004064338,0.0052903424,0.0014242384,0.0024461881,0.0055807129,0.0004545511,-0.006764044,-0.0005954524,-0.0062391601,0.0046995314,-0.0006508693,0.0036531044,0.0047264519,0.0027767069,0.007601544,-0.008438361,0.002548261,0.0027881077,-0.0003221169,-0.0039641207,0.0034028609,-0.003235946,0.0492333502,0.0003594601,-0.0004657029,0.0075145278,-0.0076645365,0.0046942322,-0.0076497255,-0.003011136,0.0038791568,0.0025123161,0.0038026502,-0.0080007977,0.0032562902,-0.0024846556,-0.0037420997,0.0030823595,0.0011589134,-0.0056005921,-0.0090472511,0.0028243226,-0.0011703639,0.0041363107,-0.0006110261,0.0069852676,0.0005721431,0.0017971505,-0.0005856478,0.0023547331,0.0022589033,-0.0073772515,-0.0016483188,0.0072133705,0.0072794632,0.0365192362,-0.0046761692,-0.0010938802,-0.0010039661,0.0018811855,0.0011201992,0.0005411833,0.001126695,0.0034182946,0.0010787222,0.0005271329,-0.000834432,0.0048051277,0.000822853,0.0003604479,0.0043442254,-0.0058448922,0.0007695941,-0.0004334965,0.0069053776,0.0054717989,0.0036494532,0.0008010328,0.0063185628,0.0020238336,-0.0035769197,-0.0030303324,-0.0054099052,0.0005199247,0.0014926347,-0.0015006982,0.00133145,0.0001733814,0.0706732977,0.018877315,0.0042736023,-0.0050043623,-0.0045088157,0.0055318138,0.0060655281,0.0058377422,0.0076505108,-0.0034537183,0.0090378186,-0.0035497183,0.0069240281,-0.0024586236,-0.014262097,0.0036358896,-0.0029396563,-0.00591875,-0.0037925747,0.0062937497,0.0016193416,-0.0032908746,0.0009805327,0.000525153,0.0087172729,0.019130918,-0.0032858842,0.0052241545,0.0052317713,0.0001046298,0.001237996,-0.0013464198,0.0004442092,0.220125538,0.0040442072,0.0054889795,-0.0002038995,0.0007286259,-0.001556554,-0.0097823846,-0.0006558102,0.0034550644,0.0034627771,-0.0004633621,0.0082334831,-0.0010079997,0.0038144302,0.0143259962,-0.0018698609,0.0129595362,0.0038563191,0.0011094852,0.0057310352,0.0025088698,-0.0046296332,0.0035696139,-0.0016276466,-0.0063617991,-0.0048815561,-0.0031493312,0.0004489133,-0.0061796342,0.0075994699,0.0066029783,-0.0019949305,0.003051617,0.0929553879,-0.0047213746,-0.0109740455,0.0038483283,0.000026865,0.002829823,-0.0058838497,-0.0021099176,-0.0014795823,0.0023317613,0.0032035662,0.0022913091,-0.0034676804,-0.0052400201,-0.0061494782,-0.0058417225,0.004024209,-0.0066942105,0.0010629662,-0.0088733829,0.0184910956,0.0028388275,-0.0013381958,-0.0016175632,-0.0025113566,-0.0001182011,0.0045921922,0.0068041467,0.0029129203,-0.0052359617,-0.0004490451,-0.0093946605,0.0095594698,0.0912786903,-0.0035602248,0.0003313194,-0.0010595318,0.0049894584,-0.0074813406,-0.0057299979,0.0043482776,-0.0044974116,0.0010946561,0.0002876683,-0.0004768757,0.0091270824,0.0034965286,-0.0003413216,0.0028273353,0.0031659591,0.0038940624,-0.0106220124,-0.0064024122,0.0056271575,0.0014267743,0.004110634,-0.0039800488,0.0039353186,0.0021064731,-0.0067632934,0.0040707063,-0.0020299472,0.0041887775,-0.0078667416,0.0003441834,-0.0039351173,0.021615867,-0.0027543233,0.0025151167,-0.0023379293,-0.0008216041,-0.0068235725,-0.0024526216,0.0019144881,-0.0034831668,0.0063855381,-0.0027226733,0.0022659421,0.0050768995,-0.0055154666,-0.0034197328,0.0081004904,0.0002115834,0.0032104961,-0.0061731889,-0.0054556988,-0.0012313558,0.0078373709,0.0036724577,-0.0090729541,-0.0021420156,0.0004915535,0.00174672,-0.0023661962,-0.0071468004,-0.000912962,-0.0031950287,-0.0016757258,-0.0000569057,0.0867840785,0.0013087303,-0.0093352182,-0.0074325294,-0.000767035,-0.0060510748,-0.0008846843,-0.003895092,-0.0060007925,-0.0032737299,-0.0006690047,-0.0077501964,-0.0129086709,0.0034474077,0.0014711227,0.0048809549,-0.0037444606,0.0008610157,-0.000327346,0.0030163161,0.0029580825,-0.0080900566,-0.0022253696,-0.0003259623,-0.007394374,0.0163788261,0.0048341404,-0.0053024415,-0.0023034494,0.0106740309,0.001828688,0.0060542216,0.0029672632,0.1945031574,0.0077380771,0.0017270541,-0.0064825555,0.0024157642,0.0065848199,0.0078194808,-0.0047720299,0.0109592756,-0.0043441638,-0.0066722572,0.0075318849,-0.0091188548,0.00181804,-0.0007269527,0.000767798,0.0032795888,-0.0003788057,-0.0060897627,-0.0079133109,-0.0062722431,-0.0034453224,-0.0066687167,-0.0015753744,0.0049133638,-0.001369434,-0.0048687458,-0.0048752888,0.0089240886,-0.0070993905,-0.0063735142,-0.0100749491,-0.0072654426,0.0838476686,-11110.9352239036,-17548.2370596146,-1400.7061287288,-61.4506580368,-2336.8723145741,5846.297127859,11673.9750193786,-4.0149087424,15133.1341546955,-0.5358723501,0.4087232042,12.1167854632,13649.2438107671,8679.529942167,-0.5110630112,0.5068199962,1209.5907838438,0.8690157026,15134.4433277165,2.7105553345,1771.1629026623,-9.980885718,0.7624187966,3031.2201065143,0.621715948,-0.9715863052,22901.1380308648,-14289.580924295,660.0880195272,-18.1079777687,1.1024516083,-49.1813239703,0.8906798516,-2104.8288708575,0.7314998666,4081.5855185251,0.195317536,-14485.0037759697,-5026.9784492879,0.9291695169,-0.3384348459,-22888.0860977863,-4425.6413843781,-14.9010029143,18387.2500557642,879.6812885732,0.2594069201,-2382.0256046125,-0.6724164184,1.0669806266,-0.6439819109,-170.3169759338,73.8709721636,-4494.8917618251,-7485.3688681872,4395.4736967063,-540.9618992569,3440.7504500876,6.6435219453,657.6973252463,-1465.0516292616,0.8037788033,-1900.7136400861,8593.9293921349,3632.0159380387,678.8589887387,-3314.107183493,-10446.9100082234,6209.5574075692,-1.8375921532,9823.6265398797,1615.1912296199,-774.1346004788,5.3833029275,33.88965654,-5537.1776491663,410.4851616505,2679.7131723211,2.1478860991,3872.5829626966,7215.9432527189,1125.7089904843,14609.5006457364,3615.7995270622,5.8263655869,1.4304045863,-0.7617422323,-15.0716049409,-5781.9308667204,515.9336086221,-2585.1589396897,3696.7206789256,0.2964970284,0.8165693525,0.3852887635,-630.8882019217,-0.3156753268,1889.6388941656,-0.9955200378,-4.0443157015,-12989.2553904493,3695.6113300327,-3208.0428787188,0.4946785734,-17050.2955325749,-1.5156366271,-0.9943779331,-5638.1458629093,5160.6743465386,5404.8220373106,-0.0699235288,0.6421278766,0.1036959512,0.9658537315,-241.4881937695,5108.5750429226,-2538.5628414404,-0.9648241629,2422.210107812,-0.8860391924,-5691.9439848212,0.2353817756,-0.1069125047,0.4351817864,794.5198358576,-36.3880748935,-0.3687477617,0.9964494964,-0.1200514309,4482.7263321777,562.5352080325,0.593525625,0.5406890885,0.1403359194,-4508.5402569285,1964.4944076891,1.088762788,-2135.6748939403,-6353.6257690041,-1426.6775339115,-302.8836166045,-8.2378354502,6428.5030716933,8574.7770252786,2133.6253535288,2630.8934620781,-3357.5500336904,3897.9199705419,7564.8708494086,11156.305957982,28.832440685,-555.583628016,-4513.3377032146,-3993.8846781226,-4790.6097601376,-1637.3318787184,-158.3994046309,-1861.2138096332,-4793.3960972031,-1730.0935140391,-6833.748526858,-9334.7832623805,2572.0454359841,-2353.7189479142,-812.3469465486,11271.649069361,0.1999630299,1.5874360745,0.2431984552,-8226.2134092276,21279.7501150628,-2979.5994877669,-4387.9651089372,3676.3543138666,0.2679689704,0.1186483246,-0.0363094267,-0.507927961,0.6161817776,3435.2778660031,-0.8793035279,0.1126120105,-3849.9084866002,-9675.407741324,-1.3442037245,-6210.8129354153,6724.2583745689,-1.2881277264,-10593.3351600983,5.8218604981,1168.1782814519,128.8557056064,-3720.2370006346,-5164.5386456048,2571.7844364622,8141.6345461128,-0.8971145884,18905.9883674462,0.7882735698,-0.6321026658,0.6501228597,19841.7202990343,-2219.9254772822,18891.9595534767,-5406.3936070371,-0.5312610263,-9223.4611843067,-0.3147665926,26903.0841990332,-7189.5974507871,0.1605379874,-0.1948435891,5924.8879396493,33376.8663754241,0.5452093603,-6586.3880644843,-0.1401634482,-84.8883899722,8226.8655258699,-3564.4329991577,-2818.6031204208,5277.4573175591,3743.4593840688,-2757.1473114004,-6039.4401361864,-5236.6420771838,-4543.4386382603,-2075.9795277813,-5938.2831881381,8384.8254372094,-1830.1444853777,-16011.6317432812,-1163.8828887047,0.6197647696,-5419.8981902758,7243.3898102152,-2019.5536282423,-6689.1232418811,31.8352607626,-15358.1596412179,-840.9880172759,74.3136669812,-7.1184517334,-5553.3355044997,13401.0467923063,5810.7800063699,8043.2211846741,4523.041142424,2102.6199951634,-14.1168099911,-11320.2580648951,-1.5871051128,4.7203188063,-7779.0309833406,-19.9311473121,-593.1822409562,-10494.1380987052,-468.158099471,1737.3855233891,0.4785287981,-3975.8690999178,-20085.7329452084,5497.1441435767,-0.0071736402,0.8757271527,-2717.3421926469,9.0064173967,-467.9845271493,-9588.9663434865,2949.3911883965,0.2904457374,-1.2503624052,2602.346739491,7892.2411406136,2858.3317645379,-2229.4350984376,-6359.2452104017,-17457.8823169771,-1.308774678,-2787.5942417167,14447.049194195,1.2084163828,-1044.1404519621,-0.7917226653,-1643.3640322167,-10603.2396868547,-8711.4833840991,-11.7436682921,-22758.4594853838,8526.0072866802,0.4596190873,25488.8287469176,1060.9859286716,-1.2133719151,10524.3687794043,-3442.559792444,-5977.6933407532,3460.4194897782,1586.0633806106,-1.33142194,860.9365190233,-687.1570310014,-1.8219424738,-0.2335674438,6692.927074158,1724.4283061327,-8995.8915933797,-24807.8437074612,3720.7270035278,6.5011590823,35.5808572377,5455.2568342644,4312.5867136064,-13285.8449736785,-17733.4385667104,-1708.6311491625,-1417.1140337826,-18185.533593704,0.2589564738,-4197.1381524987,-1691.0504044208,-6253.8573110043,4126.0911208525,-2067.0280272349,-445.1507211931,-4843.714281715,7075.9551024274,-4617.0292940081,-5159.1236964257,-7266.3080482661,1543.7249933459,16129.7584895236,0.3472878938,1197.9781376577,-0.9007025188,2402.9432940738,8.2644864265,3839.0068046116,-26.0230839788,0.1557822168,30247.5936848882,-0.4315706818,-0.732530816,119.9225172677,5050.5776187314,-1.1120659366,0.8305280129,-0.246018596,3680.1392560184,-0.7719095107,30246.927561866,-16437.3541672229,-1794.5467456151,1274.5130767087,-13768.3470093778,17259.1244870102,-4743.4825460909,0.8812228152,18023.5459002461,-6513.4450714311,2646.1387101939,-0.5205352645,-0.2233531332,-34344.4432814506,-1.0525337532,-417.5633397982,0.3856795359,-12536.8756761749,3239.2065902475,-1839.6269146026,-1052.9015447738,-1.4478026327,-11140.7793237642,38.2607587362,0.4396886906,-3500.7531136249,31958.2015962649,-886.4523124571,4409.2755893958,11922.4800260454,-3337.2522994482,238.685095949,0.7939198369,-523.8425407413,1159.584971151,-1808.3823156546,4.684248758,-4493.3344064076,4375.5610501356,586.930864359,449.6557780611,289.0406571133,220.3765143976,2005.7662238028,8336.5968547468,2026.8934516765,-11202.7059038644,13934.4548390057
   3665.5416786585,12195.6132416574,3355.9694485243,2940.9858592267,-1.7501939854,-1118.0694348097,1316.3271374946,10149.7487033035,-765.3889588473,-3772.897408796,326.2120424003,3324.2251718838,-0.0661464791,5804.4701978775,-2178.370727378,-6184.7732253515,727.6053488001,-9.635481303,28835.3892043139,-44.9432117028,9506.662408288,-0.8781202905,0.6404981304,20671.1176587247,-10.8895854296,4544.3216193137,0.1190444495,0.7620931371,0.3384753064,-0.4032570278,-0.7626189847,0.3086021297,0.304743624,2414.5958149018,5165.1941884961,4543.3167920736,-9324.6793993796,3023.0196205184,5526.3609094626,184.6030227973,2776.1647715726,-9217.700678179,0.0889810276,2208.0636915424,26009.0053902689,-209.3128480635,-30.9812496006,0.9877662725,-15.0407508816,-583.6118703935,-0.8889116351,-0.5740694692,13407.0710730114,2013.9910323548,-2852.7305864926,-0.5999644894,315.9865975083,-0.0423335454,-185.2805754566,7519.5499175503,-11562.2457908943,-2742.2912005983,-0.1749897107,-23726.7938580547,-3093.8175913987,-4120.0189830033,8.0268340755,-0.1967258285,-1617.5690447234,-15.9764163006,4077.3171113696,-6991.1448561202,3299.9206479597,6159.0531777493,5743.2325888752,-2396.7349862066,-33.8509317564,-78.2404082626,2764.6105252511,3545.9126612308,-2774.6945834406,219.2089619735,-2207.7439141385,-9097.6939673536,-5273.7494885979,5677.5017466303,2033.9911214459,-5768.0539785582,2527.4751758623,-980.2122801191,6998.9075822729,6138.8105307899,-10688.3621967088,-1120.274813657,4161.2689682851,-3132.9251395048,7356.2816037951,6673.8975617024,-3229.8220040903,-8726.4404541138,-0.3899482025,2279.0584957638,-85.3001260655,-2.2904712083,0.7142462616,2.6260839264,-7059.8684909116,-28401.7486061945,-32455.7423909348,3513.3720864818,0.4493070755,6348.7706479151,3142.3576581979,-2014.186754501,2.9165738718,-0.7884569259,-1.784021859,-0.0067538005,-32455.2665909596,4039.3209864853,-19653.2278126587,125.9522470429,2.1834033763,-1.0865321157,-1398.9393562547,-1.2918021497,-2231.2872435742,3.8639978068,2.4378799973,11329.8082591783,-7660.3582118146,-3440.084897419,-0.4091961378,1.7407132805,-0.0716040872,1357.350471294,-0.7711408821,-0.462935578,-0.4107136554,0.8911897031,784.2719493501,0.3938049041,-10.8947992836,16.499241633,650.2734048468,2850.0591266616,-0.7761974135,8.9032354978,-5002.6929960177,2.7666298801,-5.1374507564,13266.826901764,2992.3341955621,-12818.8056725548,4800.3070871052,745.8130984808,-1708.1770655399,-1853.7201897624,-10447.1380482006,128.3455842517,-6884.6108941334,-3431.849464333,-1.4522434468,-14149.6691039656,-0.9277427947,-4040.3636539579,1462.7139505588,317.3814944015,-3084.602301959,7169.831824134,-6544.4061010654,-20261.0691476958,2737.5189216938,-4739.5612291787,-4958.3201564354,-8480.195473727,3282.0106619359,737.2042111903,14687.6231057399,1960.7378037349,2898.2554554667,-649.7222791956,6442.6073116687,-13412.4274361879,-0.6584627071,-26858.6817894844,77.8396399789,-0.3330086743,-13770.4597780472,-1289.683562421,-59.706913208,-0.4670349357,0.1529720597,-0.9595678018,0.9644129143,2978.8234091358,2781.5597680843,0.5612190445,-0.8194732797,15786.3517744508,0.117504271,-0.1832650513,28641.381649002,-1928.4822192164,0.7948643578,0.1276031264,-0.3765429975,-5799.6416161283,18507.1260614523,23687.8510512603,-0.7057558317,-6859.2619836673,494.8892979868,-0.2342766495,-8.311985813,1317.2163900729,-0.6391113922,-0.6400058966,-63.489231168,1.1948982659,-0.3774739059,-0.475600248,-0.1548432569,9240.0274101351,-0.7757054212,0.3471165635,0.5418950825,0.4440847723,-89.09333132,2555.2931284133,153.9487051253,0.5075356829,0.3507012619,-0.9896364975,-1819.5845085503,-13761.1538911103,-4417.4163569429,2908.667195213,2421.0802759702,2375.0681181649,-5478.4888770472,-3786.9496893938,-2696.9845760495,2607.4460908385,-3292.4745027062,-480.2278254279,11883.6709184555,2743.4987389022,3856.334000119,1.0792546018,3268.5487164733,-5180.673239789,177.5683939645,3871.4220860685,4579.9386517366,-1669.2344305648,-3656.16244921,8335.9534639161,-10266.6151764184,10635.2484309461,-1527.1924430306,6941.9928544232,-3479.6727173393,6967.4515595691,10077.2258892682,-1472.1294494319,-0.1034566634,-2322.1362624895,1167.6273429023,-17786.2264688162,6789.0458887113,0.8556591456,-0.0956435974,14.8110949537,-0.5452299395,0.8565616777,-0.6322493699,-0.8891749097,0.4268172301,-3768.9768129343,-4389.4938680982,0.3539301351,23.0868331117,-0.2291788796,0.4209684915,-0.8148518528,1754.8848463359,0.0031472672,-2377.0416753633,0.2695256515,11.2950073782,0.7909331898,-0.7359151978,-23500.4269485474,0.8309351646,2518.9104431025,-0.4677889171,0.7628425955,3933.8862428099,1663.2304043401,0.0999587063,6118.6135846062,-28381.933986688,0.9105494249,-0.044628414,1949.0098422874,-1736.467383706,183.5125983295,3573.2808696377,0.962349835,54.728468595,-0.0653953062,1415.6935636118,-13084.2852529006,0.1611406246,-0.6639976589,-0.3114303796,-1186.6596171392,-0.1136332703,1945.7975657039,-15.0850277995,-9245.6773604867,1868.1281648993,-13019.6972495014,-5191.8717857054,3662.3618424269,-8737.8259894622,-4526.789288445,-10454.6385096672,-621.8246972533,9843.2126509117,-2463.3741041022,-4960.9346172783,1062.1830998303,-4565.2607752513,-619.5069020233,4301.2694711032,-2315.4537850562,-14000.5678040695,-6467.4672399149,167.1881911363,11013.6129089693,-2.5277810042,-8107.4110684797,-2681.5715563216,4140.0560993844,7445.3075541104,-17.4102967561,-6892.6659738269,-3470.1052373085,0.8574755334,-11544.1362362638,-1.5485155725,-8828.1957369664,-0.1305987409,1.7879516503,0.5803632493,-2.8330225106,-31261.7158278444,0.352328735,-1.0473651709,12710.7551260979,4597.2329724648,4029.985733622,-0.965105913,47.1137413501,-0.4887399686,-3.3276255547,9895.9817937898,1730.05425177,0.0698318244,2848.8627960621,-0.0210674874,-1.2298469153,0.8056547629,0.4743231806,1863.0698345468,-6519.9819862903,-0.9215044811,-14623.5359094066,1649.4368523995,-9196.3498456267,1367.9962892837,0.7470944332,-3497.7573352498,-0.3316431629,20133.334032118,1.025728663,-33611.2067516148,14411.0590682469,0.3918665101,1570.8945626145,0.3152221406,-1855.0190103864,58.9047004235,1947.0195008244,23882.6602439071,-0.4517646134,0.1170086618,-0.4418460567,-9885.0784589086,-4096.3043663688,-515.0120449683,-4061.3713442263,3913.6527188365,124.3557290907,0.5315944224,-1171.9729606907,1184.0027585613,491.8715021293,147.0603284982,-2400.9904922935,4266.1945734836,-536.6713751318,12840.6363284335,924.4517509524,-1548.9608242196,5634.2103012759,-1087.8601274639,99.919776249,0.4604160375,1028.5018477302,-3456.4196590642,442.9074559562,-5949.1282367381,4343.7280966247,-397.2788043009,1766.7049367818,0.8232876313,5676.7811866091,-140.9935633546,-107.1317954584,-8159.7263083453,0.5721405392,-1390.5428100062,-3920.1774445492,-160.6898682763,-27915.4916634003,-1.3180484244,-0.2593262069,570.2277978277,0.033800002,-0.9903037738,0.2815014623,2439.6090989445,-0.9165282117,-0.3136657173,0.8244966758,2783.9089265223,-6914.4709901555,570.4200343854,-0.9174734028,1876.0900055976,2844.8656873775,-30325.0126776204,3168.6311774505,673.8827834905,40585.2537417175,-0.175392852,-0.923798809,-1485.2084985466,1479.2499292584,-0.1226699259,-1.7774864018,31827.2098037147,-0.2576851267,-0.7650381687,440.8761283882,-2046.6998371932,0.0818396928,-0.5556868684,-5322.0632813523,0.4346147974,0.5882381747,-0.1800505405,0.9560842139,0.8184222298,-2532.5132239404,1144.5491042903,-5781.6342256916,0.9743314914,31009.4007897237,-0.2642655627,-1121.6711647937,7547.2184147598,9537.6642184195,-732.45210318,-700.5220318188,-7173.0016515941,-5507.1238667213,6121.5373512513,1201.556523906,-3403.7200311958,-1404.1878380144,57.5520584274,-521.5964946731,75.7197444624,-1380.8266192383,5135.9474692171,-1298.4179719719,-1380.6884293898,946.0012138556,-4073.8933688338,10429.2547829802,-4998.855496956,-55.9653668737,7440.1130188888,17841.0968805426,-5418.9959699976,-3186.4882358568,837.2613193142,-744.9159707199,-859.6651023296,-2840.3630623112,2721.5993135591,5250.9532090408,-0.6105364701,22911.4563786724,-4702.5411166593,-0.961578711,2.2944236027,1237.569227022,-0.5900055817,-0.862497337,0.1978917631,-0.7978031728,1.4785942515,0.9675091427,-6.2481524834,3815.0715647149,-0.4245681151,-2508.1307871342,-612.8024325323,0.8764075677,0.3421067206,1653.8542955293,-37862.1879989687,-18929.3332908786,-1.1227273524,-16676.008176911,-0.1985359899,-0.1578881301,-8615.203590094,-0.8357079584,1654.0381270818,-0.5109043293,-226.8692097749,-4679.7857837635,22137.0785789874,0.2685836836,-15.0721973277,-2.2360198971,0.9368438267,7893.1483824581,17367.8390744821,-211.5197280257,6046.9575147928,-21020.4721382981,-0.5976635705,935.7167297173,-0.2558002744,0.4106996752,-6.8492483396,-486.4063536875,-9609.5830849309,0.1395239198,7521.213475695,-507.913960767,13189.1780456366,2001.8535338373,8494.9636090429,-2456.1619526857,8317.7913990948,-4957.3343812836,-7783.5976170459,6042.1987549005,-1711.439503763,2460.4197967073,-0.4638707389,-6954.2182395771,-919.1307606848,0.0534701033,-5085.391730412,-5205.0303319196,854.3188216553,17344.3532389322,8121.8944900217,-18.2959973843,-1910.8827144474,-6833.956381201,6420.0284849446,-3462.9213880636,12284.7326430919,-4560.3583569233,-6854.074257993,-8827.9655679034,3879.2858570385,6870.9595524501,3170.0576643302,-1.6275225822,1804.7355482779,-2173.7619340801,717.1644685161,0.6393550112,-340.907999007,-1751.0601232975,1.3554735863,0.6229913615,0.1929882977,-1237.9330667446,-1822.0580018491,0.122135571,-104.3565112028,0.2590776607,0.5939649748,-0.7687483805,2.1732237168,0.0809628501,2.9104229288,-0.2942941077,-1.1397484675,1706.0536455035,101.1624380108,-5.4749856569,2.7493225689,-7926.6019960633,860.3283797828,0.8149795425,1.9269347429,0.7788978087,10320.048182091,-3827.4071098904,0.7140065628,4884.5083122932,-1.2437016979,4.797995469,-2440.0087935674,13147.9450472109,-572.0518733095,-0.4874335667,1111.9422123062,0.8586798453,1458.3858080478,1544.6234621449,-2155.7733665859,-235.036980934,14.0684688826,-0.9610167186,0.8885093295,-6041.9390344639,-6232.6538309932,1746.0683943524,-0.3697196796,-736.1774251768,-4413.2981959565,431.7036906492,4924.5157151406,3281.7543359441,-2650.3052975864,397.2703323382,-796.6579412847,-4032.3421690218,-1126.3054457856,3194.8682026989,-2436.5082555546,3808.9331776768,6151.3820208878,-2.7027425227,828.5244048586,-4924.0228060715,-3770.5651995485,-1170.5933687289,8174.7596142207,3235.5338458171,-14168.5263720882,4082.2630982193,518.4399942921,-17.1960152617,688.2820089045,8075.4596774279,11154.6689500925,1125.5432040148,-0.0813939264,0.80630889,27327.5295926727,-18672.5501497934,-0.5584360233,-0.7734089675,9405.128157862,16685.8623256897,43.0732042237,-0.6928896299,-587.3359100409,-33655.5222280432,602.5896389738,-0.7636127235,0.0771397619,176.1573511122,-41.1780668328,16686.3776143524,2103.2421889762,-4298.7535940168,76.1982807485,-2263.5464914413,0.0215702894,0.9414123734,-6718.558296983,-16321.0586048003,5285.4852953937,-811.0600822671,0.5111533547,0.5579570297,-1.3316253195,7531.1423876908,-100.9926443271,0.7879292806,-994.4769021669,11456.5829597512,845.5913500923,-233.3859521111,-5272.4806240805,2385.1011883762,3524.9858510195,2.038452187,1.2465896368,-7254.9258304677,-1725.4765925863,4410.5857549598,-3421.6864357423,31.1089882076,5310.8300581404,0.0809814509,-7166.4825162236,-1579.7763192069,5520.6284862325,1316.1200502602,3810.3769035588,6681.5745392897,-0.4108154803,9058.8386228104,-190.9919171955,3057.1721730034,-5.3337020782,-7207.9531020588,3351.5798812049,14527.3339676926,-961.8753577342,-5310.3230449141,29.6358076302,5431.6326155228,-4039.668358781,3427.2955401002,-455.0198552961,-216.5023499158,-5341.0088900581,-2750.558559802,-4629.8499968027,8301.0849731506,-2844.1716854034,-8210.6426663507,1026.9330053962,-547.9395343676,-6091.1392289092,3.167225097,2616.7670682675,-198.6348076405,5302.7574896078,1406.4819519533,-0.3668916648,0.7601639112,-5425.3196210507,-0.1592462314,0.9351170606,-0.4663756534,-0.566980088,-0.5418309286,-7142.6217151657,0.7835344948,0.2994189579,-0.3222127258,0.7595432719,0.2382714607,0.8103754605,-2142.1080356476,-7239.5730169488,13271.1667637809,-0.0727706054,1791.6338259166,0.5261374183,0.1640859588,0.3094790196,-6403.9442652445,893.8135485216,-0.8198238912,-29637.4002746873,-9262.7679458534,-6474.529512443,0.4697839244,-0.3159002755,14215.7592579906,0.6120725709,-12179.4304426635,-0.7696095745,-25753.9204374455,-0.4829245435,10786.9309929473,911.7099939778,11743.2357657681,0.4119076049,5909.7722672441,0.3680058105,10527.4204580762,9690.0434753572,-1940.9003525425,0.7260581904,-677.5375490989,-875.6979580313,3515.9179841852,-1466.431377456,-14115.1030341585,-4693.0602306081,2702.5697683789,3.6029574041,3357.2003779091,-781.7501123308,-6815.9951295524,1551.614310458,-6480.4285786459,-6526.1919549846,-27.0715805259,-3405.6185462868,-2935.8876802059,-1589.6713932888,1.8747381823,-3319.8108014181,-2055.530284594,-6946.1847106559,7875.5688761142,12638.5441286399,9050.2922011569,8502.3961524083,3265.2529252377,-2180.487208149,-2360.2733272793,-6348.3063447644,1859.0669842284,-5713.2859553227,-0.7760899954,-0.0809967743,1456.2379379405,-4.1130399228,-0.4829080544,0.1294229749,-292.7555532579,1435.610106206,0.6910676197,1.861225047,0.6013465404,-10758.2449040711,-5.5645877511,3127.3314677507,-0.8312633767,0.9161734087,-11.0719706401,-0.6175993345,1.4192715808,-0.2517348971,2.3680292236,0.3302783441,-8426.0101586365,0.3672069183,10808.0045478561,10295.0727961346,0.4871124251,-5950.6512377229,-2671.9098855704,0.7720120929,-0.0130524256,-2660.6623387658,2346.6042030034,-128.192313136,-0.963669472,-2425.1649723071,-0.2883063507,1794.591985136,-0.954275374,-6702.7972717604,4.2535983122,-0.8591380734,13504.1854498089,0.624219573,-1.1047414498,-0.8060768334,15528.2591328521,-3575.8461253996,6919.2410229937,0.8552055189,1.0518509577,13990.0472600061,1885.0073307502,-141.1911277875,0.9682638227,-2628.9437013835,226.0575984928,-18.5695569323,1.8097908191,7270.5531721865,-10836.6478621443,-534.4730085413,-22.8591205306,-6043.0043760938,-10984.5078127885,1871.2803670614,-1.7582398809,-5949.1870376701,-2279.7226717479,1788.5233229411,13434.9429452948,-9900.6928521123,0.3713654035,-14.987049617,4040.2471978366,9150.3348285437,3734.5969378555,1425.5325291572,12146.6198167897,-8572.6688885884,7284.6504438696,-12625.6494462554,13030.7837350425,-9708.1342992214,2581.5039833913,1980.5168303025,12573.5391976792,-13727.4184259675,-604.3749598475,-908.3812099506,-2688.4176150371,-5945.6597989255,-0.8050448816,0.2043486826,-195.6045079863,-8454.4050485675,15534.3810361176,-1.1405539549,0.6592241085,-1250.5288421644,1.0678616402,-5944.5080563725,10134.0347978845,8165.3165938772,-2243.8347367661,-0.9312579094,-0.6001689424,-0.3821334212,41.229266083,0.7970901921,13190.6813830065,-5082.8079117537,1.6810130313,0.1541026989,217.4529966308,-22.8850137997,2249.4108438658,0.4898053281,-6130.6729155566,0.4345659231,1380.2101186007,4064.9486353118,-0.3309757657,-1648.6824713614,-3735.6514848449,-5646.4471639169,0.5689903806,-0.0403098757,-1096.5006790458,-11330.914741041,-26786.1285855716,25669.4128128266,-1.3082126089,0.1993616431,-13438.7269890041,4458.104371371,2163.7553208042,3371.5527543805,-4584.8847331915,-1.5423393799,30.9212303255,3111.3529750047,449.7490285717,13721.2377330787,2448.3336464139,-4969.9580209827,1434.8609067841,285.1424042303,8226.5527628835,1900.9470634032,1724.535844371,15035.4297742167,15371.155911776,3235.6648084052,2.0214840048,2060.1417542641,-2437.9408591032,7672.1852530025,-3150.8432510016,-5263.2896703766,-780.6683446674,-9804.425650879,-1922.8970661831,7765.0650688941,-2722.1406956568,-5129.9132611046,-0.1281429141,-4508.5844495665,-0.0010736542,-0.8341030798,0.2887769365,-0.6572447568,1297.8706028617,-0.0574877414,-20351.5286952394,-0.8237732862,0.2193733551,-2208.6433071174,-4958.6855159067,0.9378123911,-513.3895651409,0.7664027608,0.321227002,395.3510791475,-20351.9777534228,-0.762216225,0.3297505479,2254.8796749555,-15663.1205022692,-0.4024209945,-0.2849419527,-0.7882084626,-0.177206428,-2.0647012144,-6.4909901974,-0.8404039872,-1.7066455191,-1544.4484169156,1915.9683770623,-793.7040488357,0.6372802036,7148.2237728488,-21579.3734743842,8969.3961806846,-1226.551612549,-0.6023525937,17546.6835552342,-110.4116624576,3840.8750442484,-0.2290082782,-0.8309044662,-2443.9162711188,15234.414099653,-14277.3327111917,2118.338256167,0.8981912528,1.5686603345,15229.6735632778,457.1068988005,2797.1393177923,-0.3107571088,-2787.7578862422,-7569.7644544354,7752.0813183409,2186.7297538708,-17735.8519019996,612.6244744304,1431.810283556,15113.3213847131,7523.6546247208,-3697.7284193414,-2801.6097800552,2051.0728597116,-982.202119399,10065.3284137695,-2641.1829898335,982.7433571861,16217.4118037982,-3957.4261685117,3962.0249742264,0.0580156616,-1721.484685212,-5141.5988257275,-4720.4752594378,-1644.3321602263,-6712.4784599619,691.1772496257,-499.4206549223,-305.3405741248,6690.9437904324,-35772.8675854192,-8.6296568515,-32112.6577029657,-15965.3180638316,-0.8429940181,-0.725461616,-1.1187860035,-1661.1101325237,0.7876724439,-0.6949397815,39677.5368696515,502.7149413655,-6245.6291518425,0.0799272101,-0.0267571757,-3.4643193315,-30140.8586479956,-1661.6319165567,-0.4180111327,0.2839366863,90.3224000766,-1131.6153864307,3668.3436026246,-1.143706076,-0.7537902899,-4154.8151711566,-4431.6563593269,116.8374167306,5.8161343755,-0.2249070901,-0.7097205821,0.4669076935,4261.3754444094,0.1206584922,-13973.7406487535,-13732.7294628187,1061.7826592082,0.7617937454,-6081.1728398528,3.958870552,34264.8132677347,-25484.9877174029,-0.7477612871,5396.8826919608,721.2705053642,4194.2497083654,14868.1853280545,0.8910326053,-0.3705978315,0.2142338856,-2.7374017365,-399.9319314629,-145.0628852307,-5797.7248285184,4164.7996691179,-9622.8563165428,-504.1973853411,452.8605257437,10070.1241769893,707.2059676864,13.5755195978,-66.1672168125,-456.4767861411,7311.6100642279,-3235.1994205229,-7631.2609514781,-1987.1773886325,-2523.641008548,-1971.3296978751,149.8565493232,0.3895485567,1.4265034662,-4422.7247483604,-1454.8300338159,2485.6350934129,3331.5879479323,1219.9129274298,2213.2619362173,-13088.9446506808,-648.7215219341,-8841.4485541322,-510.2237912185,-95.505714406,2875.5099553023,-0.4758490363,-17.2126668944,-1.0510424094,-0.6055233997,-1.6295943313,24187.370096797,0.1439046562,-0.2137455691,0.0208502915,4922.2803734759,0.085251397,-17725.7481949773,-0.8197947833,-0.8459485599,34.0565132158,0.2911815333,-0.1684459169,-25315.9534991488,2752.0705764554,1.7636134139,-0.4299327431,-1.4941351837,2716.6032239559,0.5448282126,-0.8931185404,-1446.7283819237,2083.7371131431,-0.187064156,-201.6824681613,0.3623973236,-2641.0504933828,35032.0495219735,0.2100455852,-2365.6332888024,-0.1943741434,-361.2740300493,977.5272363534,-8679.7737148369,0.2316068747,970.604137017,21374.3656518513,582.5430018401,-10771.8946773196,10454.3820314212,0.5331418736,-101.763304745,0.3212657095,0.607515787,200.6395837649,-13739.5784451376,311.9169507715,-5615.1287000025,5700.3815985962,5754.5358096304,-2103.2315997672,-0.8838442806,11144.5611993988,167.9516266875,12835.3689667568,1190.0268778713,-4088.4240773949,3255.1317072787,-7946.758419136,-289.4323908374,-6414.5987077651,-452.545737805,1683.2878230741,78.2443493223,-10202.2502279455,-5700.2264075027,-2697.5221687548,1316.3852419873,17189.2940169318,-4969.6059589755,-10186.6333591729,2.1378597622,-7770.0517472936,1396.7637354335,4667.0644531487,-65.7981091355,-2.080275911,-21233.8144368884,-1401.8522353597,0.5551448244,1.2347126203,-0.6873706163,-9212.3605939609,11308.2928774614,2.4231469961,-18847.4502193904,-17997.2747507711,-0.5198326491,22132.9607073189,2.3457354274,-1176.5270837923,0.5196356054,-0.406288966,3624.1351524135,-3358.0843685651,-18846.9104813334,1.6778740481,29024.929159262,-59.9403954574,-1.8415856783,-1.6468967252,2137.2789270651,1567.6614053325,-3141.2116177061,0.302254363,2415.7385945311,1.3482470764,-1155.6561366152,-820.3921393675,-0.5192698689,2191.1436759044,0.087884123,-2097.2151719786,-0.639942981,-33.305667723,-542.0118304625,-33105.0709630658,-22.3179064904,-9462.2097359963,191.3159329724,3435.6035071085,2332.9081395324,-2149.8304693145,10388.2156266642,1767.6056802802,0.0784161211,-82.5815004158,1.2057253864,3752.5150400423,-7817.3943215694,-1258.0234343519,631.9770943293,10294.05895808,3054.1674444781,-2.2934362552,-3460.3913892745,-16354.2927916874,-5461.7482214348,-5157.3347015724,-0.3072462459,5000.9852981388,90.2905321406,1487.6192395359,2800.7787505148,8017.504726705,1933.0356772278,-1496.5500490937,0.9332596791,-698.2778932588,-6219.737964997,-1.7918684935,-4060.511850018,2609.6760790245,4618.3428762103,11212.2561427304,2799.1367077957,-11955.9104643978,4311.8086403949,9518.0827770581,-6247.0872746161,-0.2060690229,-359.6007395099,-2812.6863781406,-0.2321695378,-7075.7425848341,0.2341177973,0.0773113667,-0.5453528932,20918.2613617313,-1.1006945635,0.3236000147,7644.3437097247,-0.2026136999,-25.3271508267,26041.6699763278,0.2032639494,-2613.7556153411,-3161.2153921106,20918.3708522816,-11448.2283822189,1555.1787867931,0.086905209,0.6045505373,1607.4111713264,0.928447162,-0.7948320671,-13273.9261326523,-4850.1384374882,12129.079440333,0.9221926997,-1884.9893948631,19.3695767816,-4211.6189685121,20337.8454587068,0.0422645619,3536.0978269145,-3.0817948874,-1363.8776290759,-2755.5373531245,-33176.7751280434,25949.66743014,28.1385321576,-0.2052617551,-1934.9940867045,-0.2575877781,1347.9746303683,0.0005569468,3175.1413461339,-5078.0725559126,-848.3286636355,-0.6792137047,-3056.8811755767,-1870.2830925621,11640.8960937931,-14584.9870170117,-4941.0458898584,-3365.4229243689,-9168.7737359477,14822.6539977751,-115.2830618504,3248.9126843466,-5719.1664209237,-5823.9574708234,-5647.9238153765,-954.8778449396,1705.5719033555,-12.310575542,-2873.2047477308,-2340.2277526702,-376.4543592721,9297.9273717132,2954.3935162964,4031.2240572709,1927.6851744126,9976.3361365447,2607.0479412749,-13552.8896484519,-6370.6104930198,3231.3200171881,-3348.2204616526,17529.4566309886,-5011.8683388208,-517.7320602063,-1.3760752799,-541.2632815722,-0.9594294975,-18.4752399047,-0.3751172675,-0.9035651836,6056.60006914,0.4030977251,-1388.1064773095,-0.9147335411,0.8688027325,-0.2344523865,3.652620323,0.5875954712,0.4699065941,-0.6600281736,-0.8171449042,-252.7131652983,-1388.6082117131,9642.6343451763,-19904.5551491601,-0.0362154542,237.1396954782,540.080826736,-19.1852580881,-54.7900809598,9700.3701490635,3703.5862657607,-0.1124529373,1.096627222,0.0530553253,1331.9351724113,0.835550381,4479.8943977145,0.8932605707,34.0458900919,35.6860869053,18.8389344916,1145.5012156935,-0.6743455349,-0.1566188796,0.3346279477,-698.0065907906,-864.2425289645,-0.8129119261,-1849.207734393,400.0404146127,645.9563162829,-744.296773727,-986.7130372472,-0.1219199807,-7089.4829341513,-1694.1826658956,1.9411271638,-1018.3732989663,-3641.6235089732,-603.010158575,8309.6835621025,-2601.7775165743,-1813.9141719869,1419.3381028519,555.7091444383,53.5421035911,-10381.3710061149,8047.5407718465,837.4059632629,2416.4539254644,-3519.9165206226,7278.4058334637,-120.6668510314,-3565.5271312393,-5111.703150029,-964.8426669639,11024.9526848303,14356.4786482891,-8689.0902875013,8097.8746520348,4613.6963873217,1171.3127011458,5424.4448013266,-908.3115455649,1833.4073846624,-5404.8702259143,3.7664829848,19423.4099330606,17659.603764458,0.2507937194,233.1218259262,-2.1454890978,7490.5418287065,-3998.6971382834,-373.3104970153,-217.3664504378,-0.9735683486,0.1134231531,0.4700367137,-1556.1452049984,4626.1418429176,0.3932904482,1.744538004,228.2156571534,-373.0982498015,0.6085188522,-44875.178153701,0.3060923532,0.2835258868,-17.1317181385,-259.1936768288,0.1740867295,22911.9647066998,-80.8383836698,136.1831595654,1.0949479264,-1.0314787362,-3883.7164025418,-0.0652559063,5857.1738934983,-0.805620094,1801.1084965202,3580.8499780534,0.4573386199,-2649.0915083457,-1.2812633459,3.969958522,55.7452914006,4794.1965057954,0.3906047893,0.2125987464,4388.7019713922,0.3705144599,104.3960277945,-838.9386237144,-474.3239327541,0.7961904601,-4657.1556237394,4232.5306620056,-2584.1927304667,-5108.5613605187,2114.6512959803,3026.0695265655,-3715.741959657,-4.2669014342,3840.6611464674,-1104.4694893748,-2802.3381078566,1442.9952172451,3517.1417594594,-4905.3728021293,-4505.7544690918,82.8724284948,4406.3766952552,-4817.5738338792,458.4920246806,4009.2685531044,5248.4024309596,4781.3907740439,-29.1300493472,0.0758265841,-1738.3046978278,-1659.2299077873,133.8762857477,-3789.794914457,-4808.5287850752,-3.2709027543,1740.297421913,846.2331632345,-6777.6844662478,-1622.4108761658,-8736.9237551254,-1375.5410765549,-0.7936330146,0.0926259438,-21.4630889921,0.7867084439,-16.5510493042,-0.7464376296,-0.8562138472,-9.9567500358,7005.3899448418,-23.5545149837,-1970.72841543,0.4125957894,4792.2921056845,5559.2874622808,-16.7724207805,5275.1170274693,-2138.6479905272,5950.4464889837,12866.1033888338,-0.7924859011,0.4049300638,-3482.0373637119,-0.4268333183,2148.9329510293,0.1423142646,-0.2027744397,-472.7620008159,2373.6399719681,0.6283804811,27481.8508905853,0.8524853836,4317.2027380143,-15.4326296336,-15640.4075487319,0.7431847641,-0.1034918993,5971.3626653291,-79.3200097262,-0.335194688,-2336.780079745,-7.9658502438,715.1614931517,-0.3172137169,-1303.0694866449,-1263.8375849961,-0.2623203883,-0.0000425979,3032.9287796278,5024.8310922164,948.2862568758,-13478.4829431541,-13421.6542069436,-4669.1959725224,-1825.2530740191,-5633.8878075936,9062.3143633893,-2640.1716089887,1060.8860569275,-1858.5712132128,-0.9110211256,7365.9522483677,392.0399739929,-4622.9380082044,19514.1215197374,-3182.2835792059,6.5496200317,13820.1405623911,-1486.105979624,7731.539592169,2021.2707380235,-10182.9111552321,13618.59964299,-162.3238856646,8578.8651265284,11538.0107535303,-4211.0156978304,-6132.6362989142,0.4996327533,-18441.2427400988,0.3830077191,7.9857441302,-4723.4716004547,19.0799273387,0.5063968586,-5593.6080630021,2119.2245962568,237.8247071019,-0.4821092095,-0.5941926964,-0.7735575763,0.9691268855,0.5246684198,-0.0223513728,-0.6467543565,-0.908035931,1.4670618935,-4402.2084139942,0.1700888168,337.4013861495,8352.1439815931,-0.1950893443,1208.1234372355,-1415.468222489,-0.237446424,-0.8554594289,-1470.8926776463,7248.9803636708,-10.0654822215,-1.2938057995,0.634206999,2820.4158169934,0.2407235888,-0.2720441257,0.9497050197,3776.1610437673,2.2314390165,0.8849936028,0.2450868553,0.4859003721,15538.6267139137,-1.0231115724,-0.1967152647,-4.6166262306,-4356.1007607105,-0.4651361496,-2911.5801472239,19433.2322812876,0.3254746234,-7683.2969023032,-1.1981848608,1892.8892738115,830.9443705102,4461.7339617548,3631.3911260104,-3813.779177617,1740.975988003,-6944.6374746859,2339.9324031895,2775.7260854874,6182.2921469318,-1192.2671728308,-4960.6689187458,-0.338741315,-3594.0315631804,-3.8993893717,-2890.6006674355,-2442.3904859692,-14027.9432113227,-4968.6901482138,103.93707463,63.081685082,2701.356822218,1123.444928319,3886.8542831562,-4021.367854132,4596.8401028168,6557.7941495801,13229.1171425453,-111.935003443,-4608.2936855263,-2326.0550606755,-3992.4439625754,-1311.5915366403,-37.2805660489,9723.2482462009,-0.6602116081,-0.2376237007,137.3399973787,24721.4143740698,1355.3578974204,-14020.4581491625,-2.3147457922,-0.4198861568,-0.2389807079,2608.45268552,0.2144168029,-0.2354488871,-0.6221878943,0.536851985,-0.2744934792,-14022.2148477445,-0.6035494282,-11948.5829884055,1679.5007333841,4796.102966717,-2842.5288028507,90.3330265871,-1.1412819933,0.9135326111,-1.8524681318,759.0721716069,-0.041859605,0.8926625606,-9089.7428401334,0.3344546794,39569.9752721533,-0.1280720714,-14705.7798561556,-0.5913240626,-2678.1539474375,-9826.427481602,-1103.4546242205,14573.416840565,-6420.4057099089,1.9122167686,0.2216457048,0.3195731153,-17.4220990176,19635.5652883565,-7863.0605765454,-6.410953919,0.1524261158,-0.5861160398,-19633.6696607114,-2841.8275767971,11450.9579644462,-7729.4174073377,5526.7567638616,-3178.4317490478,-3397.255544685,-2863.7497344595,-312.4937627308,2952.5712077137,-10.1727059365,-42.6929985432,-2027.9107517827,7999.6566274545,4955.2041068951,13181.5364482753,-3242.1644947164,0.2391475771,7962.6968717871,-14673.0605856828,2865.4985613689,648.3208821225,10.8596012144,2725.0750709086,2167.8233486841,5626.2599242791,4063.605765885,3727.2921319989,-2520.097282015,8476.7979411887,-2005.9926573775,-6174.1524084997,3583.302572999,0.1869905524,-1130.4903995638,17757.433013363,-10596.2327471594,0.7865914122,5780.902133033,2514.0006687217,2855.0612203247,1.1843928874,0.2690804155,5156.234229611,2101.7314503472,98.8623033386,5.6895784513,0.4556086075,9703.760676252,-1.1885109601,2855.500215213,-1.4985390206,-0.6539276064,-5452.3163780726,-4872.5118636784,3.0192825258,-1511.9149028486,0.0061995455,1.2203712645,259.9842668126,0.839086555,-1058.2876724032,-0.2837061635,809.7493549875,0.6394219391,1808.0013690453,0.5451872086,7683.294357452,7916.2783335701,0.393061079,0.7891076817,-6311.1456012994,4332.7976220665,57.6832676066,-4741.1095121597,0.0378664556,-988.2475274849,1639.2890095073,0.6029341205,7050.7930108844,-0.8787675043,-1.2296539803,1.3205160683,10196.1393152402,-13035.2702983697,3380.876473309,7625.0691003502,3688.9524423326,-15554.0873932171,1155.3692205696,-6030.1652655094,6950.402978922,-2247.5207857622,-3365.2267123679,3467.3756168474,919.0658932822,2121.1310909093,-7695.7444543628,3009.0990088936,3556.0706183074,-3075.5086876856,-5909.4295007926,-4686.9313855238,3427.0145917808,3254.1972487302,897.2709917141,-2851.1739309954,8623.1398451208,-7733.4175173462,2353.3648167524,-6555.003019308,-5194.4717040687,-8495.8005365884,-908.4319173188,9243.8002547727,-1.4257819174,0.8622348223,-11788.3420247883,-3224.1411614423,-0.1514170983,-2699.2717257889,6225.8141263304,3.3736340324,2077.1194866176,-8077.711913503,-0.5741115377,-0.4530545631,-5448.2287780248,1.0204766932,-0.0709930371,0.0174934949,-1913.4914877786,0.217998194,2077.9566358981,8123.3539933931,-2377.1458667057,10849.2073468863,-0.5647104083,-0.1492807275,0.4618656064,-3552.0114739687,-3193.8438385193,1857.724789973,2.4465461861,0.3852108846,-2224.2781166752,-4722.4078259432,-0.706946672,-1409.6800826254,0.66539341,11741.9269728368,-22428.3611423188,-116.4792545184,27086.032662238,7319.5558286246,2254.0676226275,4852.3619296938,0.8570251482,12791.0339727907,-382.5386769482,-1973.4610258224,0.0936933324,-10767.92269658,21514.8524605377,-1394.9084398365,-1.289971501,-204.8988621225,-1745.682823619,1490.6772390796,-4321.31179113,6997.9692118244,1317.7760957453,3949.7654662341,4218.0647280622,-25875.8768533286,17578.5842711328,11053.0087408691,13044.7420382034,-4687.6515387841,-9268.2799225842,7059.3204174911,-1381.1056867746,-5615.7517631079,851.3115185145,-6566.1247531563,697.3633740378,-5531.4661202174,-5156.2110728522,4248.64356751,-9391.788744858,-2187.6982202516,-5192.0577215337,-4952.1815251464,-1015.3920975335,4341.0859057426,3.1845734622,1798.741690256,11995.6763531755,55.1661142731,16209.4449218684,-6112.4479016266,-4791.6179153544,0.32191424,-2066.8879070809,7091.039297243,-1529.6925188066,12962.3395896353,-0.7963918483,-0.5743886934,-0.7757847411,-20.2778173143,0.5321837022,-2566.8580396325,-0.952669701,-323.5820346286,-32.5190883482,12962.4983935517,4710.9132039716,-31364.8008800479,-4016.3255573617,18463.9881981757,-12038.3527438656,18.3513923188,0.5521562277,4288.9115372119,6665.6567489676,-1983.2700924075,-0.9065895316,0.1407905514,-3.5151311481,66.6705623751,-34878.8739358276,0.4784156179,12290.593990405,0.3609406783,4629.8572367221,-0.5710603787
   0.0326591979,3268.9473243802,-1.407389464,1.2566199617,-6550.637504623,-6927.015993874,-4937.1367204746,-0.8594750091,-3369.2657613472,2612.4810389878,-1.9777072003,-0.0159658363,9671.5530580304,-11350.9094490473,-974.9553278045,-2991.7245539844,-0.3118543037,-4673.9222799841,425.8319251443,188.9221057358,-18376.4411363099,7791.2535081928,7872.7376787833,7374.4655781828,4625.2152836065,-449.1957710507,-10652.3637976278,7089.8263426351,-4125.2517268333,2837.6197509259,-624.9447990541,-13672.0822746618,-20214.7381422855,-12956.1412983842,-8946.5821473908,4379.4018201994,-603.0742118443,1334.0344010227,7361.5207107814,-4322.641186946,10.2926211897,-7027.3058067158,663.0195544412,11691.092052133,-0.1284732695,1.4020491126,-8448.0994458212,-8017.3071387475,0.9760382842,0.8104550063,-765.00044331,0.5764959722,-855.6986491274,144.7641811196,-0.0792142228,-0.5666091297,0.4202209073,-5315.8292134561,-14670.1674221698,-0.6975846526,-0.7866104558,0.4135482284,-856.5762961371,6305.9377474124,-45.4014083531,27191.3903921087,-0.3593464135,0.0389279355,1390.2289735026,-5.3595022893,-19053.4417571493,20075.4527418194,-1842.4492290525,-0.2533928168,-0.4621497531,339.4847633264,0.3032137722,-6753.6248770939,-0.1677895906,6537.4001045074,-801.6340505874,-8724.4210442951,0.4961048144,15841.2523375523,-0.374900712,-0.3033390469,-2795.3122248858,0.766903831,-0.8474214257,225.5571899334,-439.3647416014,4067.2452091625,-7317.572355403,11432.9099429722,0.435253725,-8614.4024914226,-4923.2149520202,5172.1255050952,-6224.1140036437,3651.2447985848,5316.354017083,-3104.4970198736,583.9428401241,1176.9213593376,5254.7452044139,2133.0318935736,-310.2319233578,8049.3334118478,-13104.2154319509,16225.3098817588,-2879.7147946282,-5377.1500312708,-21.2188090555,-1513.6369142624,3627.7393523158,8.2098124347,13809.2493305003,-2980.7072056392,-611.2751323129,11249.989658067,-9352.4234969572,1687.7979901861,5520.1347032621,3294.3613560442,-3029.5026245872,332.9463326461,16640.3703618128,6713.0352876727,13134.184158311,3458.9037292469,-1.479096468,-0.2831434337,0.5287062541,-6.7374172609,7899.009741305,-1.433848013,-0.6601129779,0.6316187861,-1463.4937658041,3074.264986781,-1765.767171424,0.5359023266,0.3629348085,8402.5423817791,24805.409235701,-2.5887643313,16118.6634721695,3304.7036365483,-5510.2449505005,14885.1205940898,-6870.5906136108,-0.7047763172,1.7754626356,29.6230125807,267.1345678831,-31596.893431964,-4293.9698431753,-0.8232305944,-2017.9670394337,-5223.3874078771,-13047.0571271919,0.5274470173,-1991.4228022313,0.3362661459,-156.9010997957,4978.2871425324,-1.9691128821,8155.364864304,0.8200081074,1298.7680070415,-0.4467897364,-0.9078089294,-978.3047045722,-0.3543455239,5048.7708257079,0.8572878757,0.7963917935,0.0389444038,-9145.5256818506,-0.1723012654,4979.2751797318,-5137.5479460602,1.8226992737,4064.6635068801,6137.5201614166,6496.4184232787,1478.8402783674,9456.1093475171,-2114.7803592005,10692.0411466734,-4723.5228495071,4110.356093773,-7639.3737405669,-3665.4259379712,-5282.6695254176,7015.6127244448,79.8565281495,4642.3911983312,-3348.0903151433,-1.902493534,22.2944459908,407.3957306286,-7563.3925554874,-9936.9400970358,28.5517858862,2374.3579262916,-2691.5814671001,3575.3152642179,148.7893848652,-4580.6501746654
##end
biasActivation=0,1,1
[BASIC:ACTIVATION]
"org.encog.engine.network.activation.ActivationLinear"
"org.encog.engine.network.activation.ActivationLOG"
"org.encog.engine.network.activation.ActivationLOG"
