encog,BasicNetwork,java,3.3.0,1,1425328410807
[BASIC]
[BASIC:PARAMS]
[BASIC:NETWORK]
beginTraining=0
connectionLimit=0
contextTargetOffset=0,30,0
contextTargetSize=0,6,0
endTraining=2
hasContext=t
inputCount=11
layerCounts=11,7,18
layerFeedCounts=11,6,11
layerContextCount=0,0,6
layerIndex=0,11,18
output=0.4116123757,-0.0001888153,-0.248682403,0.3659924198,-0.0445878703,-0.0014274813,0.3839642385,-0.0142681548,0.6324039,0.5738367229,-0.2321556735,6.6279093054,8.2682651115,8.022378254,-2.2929654094,-7.4514345382,-4.8675400746,1,1,0,0,0,0,0,0,0,0,0,1,1,0.4116123757,-0.0001888153,-0.248682403,0.3659924198,-0.0445878703,-0.0014274813
outputCount=11
weightIndex=0,77,185
weights=0.0062971094,0.0347768159,-0.0143592436,0.0014598475,0.0129123997,0.0161537922,0.3757195678,0.0000742583,-0.0000226862,-0.0000069035,0.0000347909,0.0000935772,-0.000036021,0.0001636903,0.0086706829,-0.0364144954,-0.0281960622,-0.0042212708,0.0448273008,-0.0623584381,0.2419495476,0.0128452588,-0.0027346176,0.0070928599,0.0243850946,-0.047845221,0.0401451553,0.141370946,0.0114703464,-0.0025572731,-0.0045617629,0.009190568,0.0169556793,-0.0083592107,0.0438571089,0.0010706485,-0.0011108568,0.0002825142,-0.0005370272,0.0021026392,-0.0002520226,0.0116043442,0.0067230698,-0.0036930721,0.0088299026,0.0065966164,-0.0645266595,0.0750716702,0.1988268196,0.0003317969,-0.0016709959,0.0001639569,0.002672162,0.0033013871,-0.0046656606,0.0040505941,-0.061913182,0.0314362581,0.0361656342,0.0095624007,-0.0480975487,-0.0087037647,0.1138657367,0.0523557835,0.0437417516,0.0018630947,0.0386520788,0.0833713983,-0.0693190598,0.2226635841,-0.0266229516,-0.0272143058,-0.0358493499,0.0105179208,0.0150541014,-0.0467234389,0.3657746438,34.0999732003,0.2342726825,66.0167828944,18.5534497418,-0.9250413185,-0.8689750049,5.9371469406,-249.8466345951,-181.9385712044,-34.0638765776,65.3643294164,0.790261914,702.7785630174,-4408.3122082429,-109.5484136376,-899.8416485361,-3349.9486314845,3777.5715236447,4.4233263019,0.8312774396,5018.5471766094,0.3821475087,0.6624064156,0.9748742436,0.8691077762,8927.3048986586,-1512.645042596,53.1948951967,5019.0611776766,0.1340324613,1187.6407009505,-9.4074165383,-3732.5657952463,-240.9712438934,78.4791668731,3420.5661711689,-9.6851498432,0.7941620434,0.690185815,4.18360187,-0.7287561408,-0.9953592261,20.3205571886,1040.9248830442,-2673.2786300701,-0.39756377,0.7247616694,2.2886216904,1681.5312424513,8.3477651314,-911.7977232322,-6284.8643810213,624.0762643535,595.8406324013,8.4766052227,-0.2645970846,-161.7011806935,2.2024028046,0.6201239168,0.0730214552,0.9402046145,1174.0523734024,-485.6910541767,0.5028058367,-162.3911813516,1.0204768058,60.5382903163,59.0715480104,-31.3150121832,41.8069827944,4234.5266092525,-418.5835197829,12.3773418134,-0.2999807141,454.7612785966,-2.4678127332,0.8743749902,0.6001224451,-0.329837003,10.1266959025,425.7963770992,45.5304656978,454.2719436967,1.0024655991,-3168.1220842518,1391.3051399396,-7.2919713019,-0.5686277353,-2359.0295810638,2981.1260649315,824.64227751,0.8025762864,-0.3221753837,0.334328921,0.8183004197,0.3836654431,-0.481659492,-6.324945515,-1179.7712789502,168.2569032062,0.2152553068,-0.1937553791,-1497.8799925339,15.0425504053,0.072461541,-5.1350954039,1247.3716751856,1710.694405886
biasActivation=0,1,1
[BASIC:ACTIVATION]
"org.encog.engine.network.activation.ActivationLinear"
"org.encog.engine.network.activation.ActivationLOG"
"org.encog.engine.network.activation.ActivationLOG"
