encog,BasicNetwork,java,3.3.0,1,1425326014241
[BASIC]
[BASIC:PARAMS]
[BASIC:NETWORK]
beginTraining=0
connectionLimit=0
contextTargetOffset=0,132,0
contextTargetSize=0,30,0
endTraining=2
hasContext=t
inputCount=50
layerCounts=50,31,81
layerFeedCounts=50,30,50
layerContextCount=0,0,30
layerIndex=0,50,81
output=0.1164481231,0.0778967397,0.1819883917,0.0696826722,0.1549164309,-0.1481640919,0.2440462212,0.3172109481,0.0597596831,-0.1406763536,-0.0000015191,0.0545295809,0.350667444,0.4265061025,0.3410232192,-0.0001203073,-0.4325033431,-0.1176403172,0.1274690086,0.4975645977,-0.1390845024,0.1279791445,0.3147197011,0.2253944589,0.3791679152,-0.3512291993,-0.2161325465,0.0863063612,0.2025931323,0.3452383415,-0.0529134379,0.352583746,-0.0925401537,-0.3004383163,0.00004865,0.0458504911,0.3270860863,-0.0350168794,-0.1668562531,-0.1186050913,0.3759547379,0.1544812323,0.1073631838,0.3731806162,0.1291165484,0.3651465341,0.6134140164,0.2187166506,0.3930547762,-0.5252053857,10.3371590849,-9.3313688033,-10.2022092662,-10.4589839604,9.5904072322,-10.5326702267,-6.8945437799,7.7733044525,10.4646100409,8.0516682137,-9.3107262453,-10.0490139757,9.9617746163,-10.0648917594,7.692522449,-8.1157331821,10.4981667845,-9.1405517941,-9.3351874902,-6.0230926551,9.4142911575,-9.3760267898,-10.1516297416,-10.0252886694,-9.4357101678,-10.1698789051,8.7286349649,10.3964600756,9.0372314868,-9.5140021627,1,0,0,1,0,0,0,0,0,0,0,0,0,0,0,0,0,0,0,0,0,0,0,0,0,1,0,0,1,0,0,0,0,0,1,0,0,0,0,0,0,0,0,0,0,0,0,0,0,0,1,1,0.1164481231,0.0778967397,0.1819883917,0.0696826722,0.1549164309,-0.1481640919,0.2440462212,0.3172109481,0.0597596831,-0.1406763536,-0.0000015191,0.0545295809,0.350667444,0.4265061025,0.3410232192,-0.0001203073,-0.4325033431,-0.1176403172,0.1274690086,0.4975645977,-0.1390845024,0.1279791445,0.3147197011,0.2253944589,0.3791679152,-0.3512291993,-0.2161325465,0.0863063612,0.2025931323,0.3452383415
outputCount=50
weightIndex=0,1550,3980
weights=##0
##double#3980
   0.0037527294,0.0013637219,0.005927337,0.0015328284,-0.0014052108,0.0003827333,-0.0019767955,-0.0005881996,0.0011756398,0.0051781592,0.0019736618,0.0071980476,0.00288279,-0.0038738469,-0.00324797,-0.000205223,0.0044369098,-0.0044367032,-0.0032808688,-0.0014206058,-0.007117621,-0.0027149089,-0.0006819743,-0.0010830061,-0.0004441865,-0.0058803843,0.0005221872,-0.0042304272,0.000331933,-0.0029837601,0.0091582983,-0.0050747456,0.0038097403,0.0089222443,0.0068625425,0.0041616303,0.0015080333,-0.006947246,-0.0087570548,-0.0015289846,0.0054144415,0.0022662653,-0.001504114,-0.0051389888,-0.0028867941,0.0001643003,0.0016596759,0.0073330044,0.000795707,0.0107085168,0.009353389,0.0044485136,0.0016921484,-0.0073873013,-0.0040267926,-0.0023006987,-0.0033183889,0.0005277188,0.0071902174,-0.0001306084,0.0060889867,0.207097713,-0.0023035213,0.0015312654,0.0050100666,-0.0000958142,-0.0014986021,-0.000787811,-0.0128176054,0.0064577308,0.0011917639,0.0037333477,0.0034209778,0.0150822478,0.0011086005,0.0022208538,0.0091081247,0.0013706418,0.006050434,-0.0149571171,0.0005708299,0.0007291302,0.0038730439,0.005558963,-0.003860721,-0.0056541195,-0.0030660804,0.002503765,-0.0050650136,-0.0107122343,-0.0060733846,0.0046984091,0.2119239654,0.0076977753,-0.0003195816,-0.0046328667,0.002216653,-0.0033376327,0.0039949293,0.0051229832,-0.0015569971,-0.0033893777,-0.0093437745,-0.0051688373,0.0008221811,0.001515755,0.0063687592,-0.0056519282,0.000322743,-0.0029089028,-0.0105300462,0.0039849601,-0.0008367636,0.0027367998,0.0020719718,-0.0013191181,0.0009416731,0.0027594536,-0.0050046523,0.0031375565,0.0053192392,0.0025361732,-0.0080967642,-0.0008482681,-0.0030839861,-0.0008021078,-0.0015410996,0.000475458,0.0026896271,-0.0026416397,-0.0004705247,-0.0025920944,-0.0108450026,0.0183323607,0.0011835948,-0.000274866,-0.0023760503,0.0000564805,-0.0058518542,0.0051121955,-0.0011368145,0.0013728913,0.00394207,-0.0038447968,0.0000522225,-0.0093976979,0.0010964528,0.0055435529,-0.0010169853,-0.0056985934,-0.0044510797,0.0077626033,0.001192779,0.0053355444,0.1635408448,-0.0115273224,-0.0052870124,0.0094691704,0.0076179329,0.0017517484,-0.0036641035,0.0115085533,0.0067886173,-0.0003155682,0.0072862988,-0.0040932795,-0.0078373283,0.0013391837,-0.0011087633,-0.0007909055,0.0002748148,-0.0056855903,0.0001994461,-0.0058560499,0.0024428965,-0.0000741348,0.0076770559,0.0072628184,0.0102363977,0.0017757445,0.0038690694,0.0020643397,-0.0086259573,-0.0005783104,-0.0073307132,0.2145412489,-0.0031949385,0.0002285115,-0.0024187998,-0.0015274925,-0.0015047796,-0.0025939153,0.0003633659,0.0027649469,0.0024257595,-0.0042934821,-0.0025497028,-0.0003569994,-0.0019403013,0.0197103995,0.0027828735,-0.0025507287,0.0076063901,-0.0083764772,-0.0036671027,-0.0026290637,0.0049732794,-0.0025822207,0.0022293294,0.0039057949,0.0017757494,-0.0089856076,-0.0093979212,0.0020658548,0.0054347404,-0.0011303163,0.0744643369,0.0101477949,0.0007639354,0.0006543181,0.0002790661,-0.0019682183,0.0018479186,-0.0053536713,0.0148752588,-0.0000418033,0.0046685525,0.002486659,-0.0045033118,-0.0065208706,0.0007427047,0.0040776642,-0.0004095734,-0.0051586851,-0.0104417243,0.0035437432,-0.0002535603,0.004172339,-0.0111024986,0.0086888957,0.0089964547,-0.0012359771,0.0022779523,0.0051979229,0.0097247995,-0.007451582,0.0047259995,0.095946856,0.0059384234,-0.0061811086,-0.0018027674,-0.0002149589,0.0029432027,-0.0031011989,-0.006729727,-0.0024894995,0.0006612445,-0.0054901348,-0.0058911175,-0.0027325608,-0.0061869355,-0.0053667115,0.0093472085,0.0073212589,-0.0039194915,0.00037025,0.000779016,-0.0053451171,-0.0062158358,-0.0045379709,0.0051818076,0.0010604811,0.0100738141,0.0051678013,-0.0031704318,0.0068969277,0.0046801303,0.0037789586,-0.0217245001,0.0055088627,0.0020726284,-0.0077611457,0.0059904605,-0.0031050528,-0.001200154,0.0108373691,0.0034427949,-0.003789837,0.0113337828,0.0009408092,0.0089643828,0.0049343923,-0.006812338,-0.007594551,0.0044829464,-0.0069217838,0.0018228379,-0.0063223524,0.0067706219,0.0089250257,0.0049235479,0.0105176306,0.0034340448,0.0039500267,0.0007733525,-0.0046387814,-0.0051984524,0.0040266675,-0.0017091815,0.1560624556,-0.000001586,0.0000013206,0.0000012778,0.0000026229,0.0000069899,0.000001758,-0.0000023403,-0.0000012678,-0.0000018653,0.0000018622,0.0000000573,0.0000010429,-0.0000022557,0.0000106297,-0.0000033713,0.0000026658,-0.0000004354,0.0000037466,-0.0000045535,0.0000079927,-0.0000014106,-0.0000026088,0.000002497,-0.0000029702,-0.0000018381,0.0000012302,0.0000043954,-0.0000009342,-0.0000011111,-0.0000010382,0.0002009511,-0.0029166584,0.0050254978,0.0015085819,0.0020387021,-0.0004664183,-0.0011141053,-0.0020129669,-0.0026854901,0.0025582894,-0.0029005121,-0.002225705,0.0037729283,0.000939588,0.0050824324,0.0117237948,0.0029635325,-0.0038931529,0.0026808916,-0.0007894602,-0.0054536001,0.006539982,-0.0070259711,0.0023831665,-0.0003403821,-0.010989728,-0.0018403605,-0.0041945107,-0.0092282929,0.0050657452,0.001289586,0.0525815288,0.0000324601,-0.0049659141,-0.0059719961,-0.0059041018,-0.0015485819,-0.0049865636,-0.0044709198,-0.0036376699,0.0109537297,-0.0024545028,-0.0109467193,0.0058081116,-0.0156613172,0.00345995,0.0104190477,0.0011226345,-0.0008155501,0.0020085377,0.0021568707,-0.0057861649,0.0012692302,0.0000258264,-0.0026894116,0.0032955172,-0.0030758478,0.0030914835,-0.0073683832,-0.0001535079,0.0107672974,-0.0059406971,0.0432147873,0.0016886694,-0.000221057,-0.0036179752,-0.00010768,0.0078983479,-0.0017285125,0.0035160555,-0.006355858,0.0034664143,-0.005543022,0.0021014596,0.0046901613,0.0073070323,-0.0076791449,-0.0088584765,-0.0030200923,-0.0020287229,-0.0109203565,-0.0022301219,0.0044754299,0.0046597729,-0.0016558023,-0.0009516188,0.00202362,0.000453091,-0.0011166761,0.0059698918,-0.0009702718,0.0036438706,-0.0037915514,0.0779941571,0.00657936,0.0015724256,-0.0003396104,0.002822401,-0.0026746989,0.0048539884,-0.0049311405,-0.0021852374,0.0177933994,0.0074617808,-0.0035042502,0.0006058307,0.00138132,-0.0024472034,0.0151730844,0.0057751381,-0.001992905,0.008003129,-0.0000059998,0.0057955658,0.0018111992,0.0067650982,0.0025617119,-0.0058524122,0.0035838928,0.0092996592,0.0056959279,0.0050108553,0.0006224495,0.0016935613,0.1721489856,0.0000002985,-0.0000014798,0.0000007749,0.0000016958,-0.0000022146,-0.0000012809,0.0000018601,-0.000000009,-0.0000000683,-0.0000018887,0.0000020369,-0.0000000782,0.0000022627,-0.0000039992,0.000000372,0.0000000126,-0.0000002509,0.0000005583,0.0000035356,-0.0000024555,-0.0000006851,-0.0000010303,-0.000000828,0.0000001803,-0.0000003224,0.0000001378,-0.0000005721,0.0000012134,-0.0000003048,0.0000016049,-0.0000974594,-0.0066924742,0.0037936749,0.0024034192,-0.002407306,-0.0042498054,0.0013704839,0.0035370845,0.0085822201,-0.0005193908,-0.0108309327,-0.000187102,0.0126243181,-0.011833258,0.0022821556,0.0001278076,0.0000879436,0.0017526879,0.010720545,0.0121582329,0.0007693321,0.0075104074,-0.0012302374,-0.0029237026,-0.0056357317,0.0039050543,0.005461844,0.0059864846,0.0051436383,-0.009925063,0.0016613827,0.1640994832,-0.0007351548,-0.0021726534,0.0097209009,0.0047414814,-0.0012041648,0.0002902184,0.0038164651,-0.0084326014,-0.0004123261,0.0056230135,0.0052007844,-0.0041471031,-0.0061380141,-0.001319413,-0.0073668707,0.0017748301,0.0011587345,-0.001247823,0.0006731042,-0.0049155126,-0.0001699236,0.0069309046,0.0002247039,0.0064805975,-0.0050654812,-0.0021802619,0.0044813373,0.0016514313,0.0073870163,0.0116734223,0.2146367776,0.0079382014,-0.0019332091,-0.0038053978,0.0007480815,-0.0001559731,0.0004528318,-0.0084136233,-0.0012934747,0.0015168938,-0.0025655563,-0.0046342066,-0.0018774398,-0.009645515,-0.0036154747,0.0082204345,0.0033108239,-0.0025476802,-0.0012998256,-0.0033234865,-0.0011726364,-0.0048166593,-0.0014279733,0.0064221302,0.0028948944,0.0069599825,0.005714761,-0.0001184928,0.0078986924,0.0052031295,0.0016284174,0.0349117277,-0.0043374788,-0.0013140092,-0.0007455267,-0.0069501404,0.0021199403,-0.0098057373,0.0035832251,-0.0032295315,0.0045745824,0.0002617312,-0.0004024642,0.0021322413,-0.0006154232,-0.0062278551,-0.008466624,-0.0022495496,0.0043653071,-0.0023265927,0.0001748654,-0.0022688501,0.005682889,-0.0016345245,-0.0035123508,-0.0047659795,-0.0010444234,0.0075716515,0.0011001303,0.000525902,0.008101709,-0.0062417102,0.0221498936,-0.0042030893,-0.0063171097,0.0116120846,-0.0041186301,-0.007298001,0.0029009969,-0.0032520318,0.006357424,-0.0016690404,-0.0028002046,0.0002478059,-0.000919688,0.0003151515,0.0036662308,0.0018197703,-0.0009845066,-0.003414088,0.0053701158,-0.0030383527,-0.0005882976,0.0019204301,-0.0044638542,0.0020235325,0.0109513863,0.0000968949,-0.0025876265,0.0051482118,0.0049416886,-0.0071669662,-0.0034719124,0.0278086566,0.0014409878,-0.002073267,-0.001463853,-0.0047093429,0.0021132981,0.0017661397,-0.0041533132,0.0045035243,-0.001776643,0.0008218494,-0.0018199049,-0.0045656965,0.0031522147,-0.0006077495,-0.0043372103,-0.0012064926,0.0023622743,0.0030284825,0.0051536527,0.0089943538,-0.0012843113,0.0028662955,0.0009649508,0.0018849217,-0.0013965156,-0.0043382377,-0.0009851299,-0.0044370225,0.0054063676,0.0027435762,0.0469431398,0.0038364269,-0.0013278192,0.0015537326,-0.005648211,0.0059657364,-0.0057728334,0.0053934662,0.0018477074,0.0036642904,0.0021198762,0.0007456993,-0.0010074555,0.0010963853,-0.0025409051,0.0008591737,0.0012426954,-0.0017195175,0.0024469771,-0.0027164898,0.0029924161,-0.0019308671,0.0082721663,0.0083573144,-0.0053209829,-0.0056480448,-0.002168064,-0.0047227776,0.0005073523,0.0016351016,-0.005260998,0.0887329524,-0.0020799066,-0.0079323505,0.0070936309,-0.0083620874,0.0046651061,0.0026050069,-0.0055730618,-0.0020977861,0.0013551581,-0.0078693528,-0.0088514862,-0.0079993425,-0.0001522063,-0.0098463385,0.0119480739,0.0025309358,-0.0085924121,0.009824683,0.0026413835,0.001652997,-0.0011872206,0.001723619,-0.0015166718,0.0058227352,0.0018722554,-0.0060954728,-0.0031980719,-0.0061408372,0.0139880454,-0.0001909221,0.0399327078,-0.000596526,-0.003763348,-0.0063975496,-0.0040045996,-0.0009054288,-0.0032513837,-0.0112206945,0.0030666491,-0.0054321176,0.0034386247,-0.0051094983,-0.001474296,0.0049199433,0.0141792676,0.006150982,-0.0040015816,0.0010349251,-0.00702643,-0.003229905,0.0114471473,0.000262395,0.0041596593,0.0094222218,-0.0085061103,-0.0080502709,0.0110476567,-0.0046969077,-0.0093397329,0.003012357,0.0153235923,0.4006481884,0.0010440616,0.007374332,-0.0043175426,-0.0005090508,-0.0034391543,-0.0052876405,0.0044909511,0.0049767965,0.0032014769,-0.0003189055,0.0020156666,0.0018683524,0.0019502312,-0.001422296,-0.0017943463,0.0027251204,0.0053512285,0.010156222,0.0013570857,0.0054643978,-0.0012234506,-0.0007950292,-0.0007682372,0.0079363176,0.008741441,0.0043881486,-0.0021222805,-0.0055012114,-0.001968688,0.0028721517,0.0417781433,-0.0013379259,0.0023218986,-0.0006242321,0.0024066344,0.0001811321,-0.0052175377,0.0021304394,0.0000315584,0.0028962395,-0.0021484342,-0.0038478895,0.0036332468,0.0006288186,0.0005690611,-0.0039091142,-0.0000295999,0.0033220051,0.0070886049,0.0025817269,0.0004893289,-0.003660896,0.0000091343,0.0011154355,0.0022239353,0.0060571335,-0.0030543006,0.0025779024,-0.0019455712,-0.0052207395,0.0046213689,0.0529886963,0.0084078101,0.0019269306,0.0019301553,-0.0036569212,-0.0029367838,-0.0003683591,0.0001792669,-0.0039584317,-0.0020930932,-0.0011536191,-0.0071615482,-0.0085606625,0.0084195397,0.0103042346,-0.0057858712,-0.0055927459,-0.0019262412,-0.0041581854,0.0146326107,0.0084415369,-0.0002592415,0.0017894147,-0.0059543968,-0.002953192,0.0039491889,-0.0010995567,-0.0075627714,-0.0025714801,0.0011753948,0.0019833684,0.1784488743,-0.0011307372,-0.0057040393,-0.0007586111,-0.0017321953,0.0126666274,0.0056064254,0.0061695146,0.0031828964,-0.0006760839,-0.0008162717,-0.0022734314,-0.001091573,0.002829096,0.0002413278,-0.0066381061,0.0004567457,0.0018541927,0.0050258848,-0.0052240073,-0.0043995817,-0.0108163498,0.0021290882,-0.007510039,-0.0058879443,-0.0026140091,0.0010633634,-0.0060045557,-0.0032569815,-0.0110381794,-0.0035852591,0.1768901732,-0.0062903757,0.0025146316,-0.0054405386,0.0001935865,0.0012866469,-0.000781493,0.0046572534,-0.0034591959,-0.0007892596,0.0023478982,0.0039795146,-0.0064340985,0.0002728086,-0.0077511002,-0.0154264852,-0.0039759991,0.0193956851,0.0071419818,-0.0062325872,0.0038164938,0.0036858111,-0.0065504772,-0.013772069,0.0027161319,-0.0068203535,0.0197873074,-0.0065521401,-0.0030901179,-0.0010407379,-0.0053997216,0.1880960258,-0.0008311011,0.0096216874,0.006000134,-0.0051930248,-0.0035933981,0.0116282903,-0.0021173669,-0.0026435624,0.0025658439,0.0091243599,0.0096411343,0.0051277989,0.0060516513,0.0039903613,-0.0061831015,-0.0034802943,-0.0060537584,0.0038776455,0.0030773801,-0.007907303,-0.0095732861,-0.0065308686,0.0037394593,-0.0071071033,0.0038519705,-0.011762531,-0.0024535716,0.0033833112,-0.0043871847,-0.0058247791,0.2183235877,-0.0042129644,-0.0123973908,0.0060331845,-0.0094613319,-0.0019871998,0.001704465,0.0035703201,0.0020216217,-0.0051677498,-0.004795112,-0.0056576123,-0.0101262636,-0.0057783319,0.0076881342,-0.0083009319,0.0022129398,0.0107438135,-0.0028134344,-0.0116834327,-0.0004682581,0.0024568292,0.000526106,-0.0066853518,-0.0036740856,0.0093645333,-0.0076422799,-0.0021690659,0.0025698624,-0.0042347984,-0.0029060789,0.084152166,-0.0024320562,0.000121815,-0.0148567654,0.0049522669,-0.0107273983,0.0033067774,0.0016666595,-0.0013744213,-0.0024902332,0.0083465298,0.0133971226,0.0005871213,0.0041965554,0.0054520377,0.0002346571,-0.0021453192,-0.0009096814,0.012507791,-0.0003182621,-0.0077280219,-0.0045952774,-0.0010932604,0.0022233562,-0.005177477,0.0059935979,-0.005544675,0.0065901156,0.0023714964,0.0046196358,-0.0022136046,0.0104054032,0.0064493899,-0.0078271885,0.0025245879,0.0010555545,-0.0096615465,0.0024538042,0.0031507605,0.0017699948,0.002732419,-0.0060996115,0.0038074207,-0.0029307877,-0.0052251803,0.0007547191,-0.0034190324,-0.0031161574,-0.0051209164,-0.0054378401,0.0027017997,-0.0021739174,0.0058425898,-0.0043515302,0.0009851044,-0.001646208,-0.0039675046,0.0094468731,-0.0082923932,-0.0035871845,-0.0199773715,0.002776853,0.0994429659,-0.0000003142,0.0000013112,0.0000025178,-0.0000018035,0.0000047564,0.0000018422,-0.0000017703,-0.0000003856,-0.0000015345,0.0000039279,-0.0000018997,0.0000019101,-0.0000027959,0.0000076372,-0.0000030856,0.0000020576,0.0000002641,0.0000041047,-0.0000053406,0.0000062939,0.0000020227,0.0000025802,0.0000011699,-0.0000023654,0.000000548,0.0000020288,0.0000035122,-0.0000002515,-0.0000001327,0.0000012099,0.0001932123,-0.0083958238,-0.0025370564,0.0006171557,-0.0008240399,0.0043034439,-0.0011635329,-0.0047969836,0.006553338,-0.0050875075,-0.0010087817,0.0045011691,0.0038770453,-0.0030418596,-0.0004659961,0.0017390245,0.0045313672,0.0050332109,-0.0037159837,0.0001453796,0.008100526,0.0042531457,0.0049144263,-0.00508846,-0.0038572715,0.0022141601,-0.0018390815,-0.0031029092,0.0035286396,-0.0034478472,0.0030397047,0.0920620254,0.0083284451,0.0055726053,0.0005036804,0.0015827524,-0.0016427798,0.0006540731,0.0032088569,-0.004389077,0.0009119666,-0.0007536258,-0.0088121988,-0.0009302106,0.0069752261,0.0084541682,-0.0003380469,0.0059198086,-0.0017518082,-0.010529931,0.0148142819,0.0016945621,0.0003771533,-0.0067305427,-0.0060372831,0.004589335,0.0027969989,-0.0105505393,0.0071730756,0.0060159382,-0.0013270157,-0.0071650991,0.0914180619,-0.0132365536,-0.0008492618,0.0003057438,0.0087292805,0.0126260968,-0.004886847,-0.0012161799,0.003970091,-0.0050323553,-0.0074054762,0.0056382347,0.0008550547,0.0105329704,-0.0085485259,-0.0012589484,0.0036239795,0.009751293,-0.0009514995,0.0062802377,0.0043388322,0.0011687991,-0.0034610749,-0.0027995823,0.0035550142,0.0024379285,0.0055544373,-0.0027795524,-0.0014100081,-0.0033668433,-0.0085155388,0.0032839976,0.0041019954,0.0157401703,0.0023099413,0.0023204286,0.0067854007,-0.0065029033,0.0022234952,0.0087617722,0.0015919028,-0.0069160404,0.0086082795,0.000788429,0.006312262,-0.0030852404,0.0006745782,0.0001877805,-0.0153746318,0.0065568292,-0.0033209083,-0.0049847774,-0.003822952,0.0013026737,-0.007575311,0.0020946707,-0.0032993979,0.0054466171,-0.0040434982,-0.006373876,0.0054215134,0.0068966667,0.1236627128,-0.0076969932,-0.0015021592,-0.0054336612,-0.0009575635,0.0004513269,0.0024003641,-0.0011248084,-0.001582414,-0.0036980985,0.0102455954,-0.000513975,-0.0029317565,-0.0005041813,-0.0016877463,-0.0064590015,0.004894326,-0.0054464282,0.0007969027,0.0003483776,-0.0033796604,0.0019183343,-0.0008506369,0.0046722403,-0.0021347297,0.0077447929,-0.0011103094,-0.006300044,-0.0003456403,0.0017490414,0.0007375055,0.0653248273,0.0060661853,-0.0041969115,-0.0038368636,0.0059155708,-0.0023570967,-0.0041215558,0.0053594653,0.0029336365,0.0036308767,0.0039354963,0.005904751,-0.0016450795,0.0001143206,-0.0017789749,0.0062913611,-0.003481234,0.0010294259,0.0038889749,-0.0055884703,0.0036358485,0.0049482178,0.0029546294,0.0068304002,-0.0064721396,-0.0041141997,0.0016307864,0.0045268144,0.0006598106,0.0019461568,-0.0044934628,0.0143189439,0.001704547,0.0037005363,0.0090724419,0.001427726,-0.0011283438,0.002290837,-0.0014339079,0.0002617124,-0.0005689383,0.0020678629,0.0010756864,0.0031197087,0.0023039302,-0.0057089668,0.0027212052,0.0020117336,-0.0021879711,-0.0031965292,-0.0036387036,-0.0053216371,-0.0036668923,-0.0081980763,0.0007785125,-0.0076509718,-0.0040839173,-0.002107666,-0.0004476177,-0.0071840655,0.0040172084,-0.0067644695,-0.0178834932,0.0001154284,-0.003344099,0.0044865869,0.0038645895,0.0031910516,0.002284596,0.002002477,-0.0065763189,-0.0026756305,0.003800215,0.0029257793,-0.0008022498,-0.0038875446,0.0019900201,-0.0016471362,-0.0037724176,0.0049879574,0.0017901208,-0.0005238668,0.0004573695,0.0006319313,-0.0014966125,-0.0011445412,0.0009401188,-0.0052373021,-0.0009601601,-0.0004716948,0.0044638356,0.0035923945,0.0058786724,0.1386129905,-0.0034726363,0.0082708353,-0.0037239366,-0.0015439524,0.0104725726,0.0121906794,-0.002122883,-0.0037301678,0.0040856021,-0.007523014,0.0094680021,-0.0065570606,-0.0054279584,0.0046131069,0.0081510416,-0.0060855475,-0.016093107,0.0049387999,-0.0046980502,-0.0132575216,-0.0082373791,0.0160359369,-0.0045003184,-0.018149255,-0.0050148862,0.0007941499,0.0181205138,0.0002532806,0.0061733041,0.0056896564,0.3918784322,-0.0111389143,0.0011108354,0.00097281,-0.0017855285,-0.001693526,-0.0054559347,0.0033551848,0.0008294458,-0.0026233747,0.0025932297,-0.017445109,0.0038817377,-0.0026626347,-0.0010358833,-0.0034236454,-0.0086091973,0.0037315686,0.0097268083,-0.0035730927,-0.0021806041,-0.0032573441,0.0035682279,-0.0072049104,0.0052648652,0.0020043075,0.0028714255,0.0046848651,-0.0049215893,-0.0047699507,-0.0109184291,0.1216804978,0.008407856,-0.0055218956,-0.0015074837,0.0032024734,-0.0025372323,0.005170249,0.0003196625,-0.0050680905,0.0036053347,-0.0010074018,-0.0024236598,0.0082389457,0.0001121018,-0.0103722737,-0.0118978562,0.0016708291,0.002896537,-0.0082971172,-0.0060558611,0.0004601427,-0.0074394345,-0.0010606875,-0.0078125193,-0.0074542883,-0.0047429089,-0.0087146899,0.0033670534,-0.0058170806,-0.0057699236,-0.004007498,0.0531578281,0.0069871975,-0.0051151958,-0.0060959463,-0.0010305403,0.0032528711,-0.0023462597,-0.0002258102,0.0063203251,0.0014063869,0.0061638124,0.0082660516,-0.0024347609,-0.0003349814,0.0022927544,0.0083128144,0.0026993011,-0.0005821169,-0.0003162562,0.003185431,-0.0004480961,-0.0014407135,-0.0044031368,-0.0068728278,0.0019578441,-0.0004868315,-0.0056935256,0.011716377,0.00613282,-0.0027342403,-0.001175713,0.0238074532,0.0026930302,0.0015191416,0.0002648958,-0.0034805171,-0.0005728525,-0.0032584783,-0.0005116858,0.0039936202,-0.0005728314,0.0052186572,0.0006019355,0.0003437815,0.0029869432,-0.0011078178,0.0034739705,0.0054662374,0.0019969495,-0.0016546326,0.004981599,-0.0007122756,-0.0009639363,-0.0048246753,-0.0019304716,0.0073971771,-0.0023569976,-0.0049528265,0.0034211435,0.0017771293,-0.0028767987,-0.0005383477,-0.017821387,0.0007937516,0.0049486105,-0.0057654531,-0.0042127869,0.0012978506,-0.0035483944,-0.0142430416,0.0018804432,-0.0014914131,-0.0096421441,-0.0064540611,-0.0059251205,0.0109620256,-0.0136072235,-0.0076569116,-0.0054953174,0.0107818646,0.0005358182,0.0012649938,0.0033529813,-0.0033765359,0.0042301699,0.011780931,-0.001340657,0.0038193399,0.0024579582,0.0071471876,0.001981184,0.0029671397,0.0097593912,0.0526685255,0.0032383887,0.0050036195,-0.0041427871,-0.0041857957,-0.0125647798,-0.0011649521,0.0082219592,-0.0018150763,-0.0027522675,0.0001672873,0.0178743831,-0.0034790948,0.0014766714,0.0027686428,0.0047321576,-0.0001433979,-0.0059515537,-0.0000250909,0.0056463017,-0.0033923867,-0.0053751704,0.0054418494,-0.0058599633,0.0072066568,0.0046117352,0.0053487057,-0.0008663548,-0.0088255223,0.0026739559,0.0043632246,0.1389863436,27452.5703241499,10.2282848707,26313.0506478211,-1.3503669508,14043.6169407352,0.2708074763,234.5612155434,8849.6192223507,0.7940717564,37.1524297206,-0.9727287781,-3819.8719703713,-0.3943444921,-294.5537317224,-2.3029490754,0.3359751167,0.4904033605,19259.2941202486,-0.6871689803,-3242.6790295013,-0.9028610518,1977.6561860934,-34.1243585312,-293.9411544735,-0.8347452342,-27.5773080079,-0.0351329148,-5175.446223828,-0.9032697921,-0.9101202192,15984.9601284691,-3085.6912757324,0.9777087935,21377.6934375971,0.698647969,5564.1068061748,0.1142970372,-23499.1488332386,-1895.2533351623,9361.6667696765,-1520.9629912834,12830.9558297411,18424.8956510869,-3401.7632480527,-0.3763201619,25860.0102357597,-2358.8224928007,-19764.8199104905,0.3230849903,60.5147976804,0.5085761857,12475.8439084687,-3598.9724989486,10415.8161109667,22.7770428901,2022.2141909081,-2723.5763104404,1897.6155245006,2647.4826032285,-13585.1147457344,1203.6792007935,-4116.9257453613,-2511.9211392596,5819.1365437866,-3887.5439388403,-2351.1613955969,-12504.6274001488,-3932.2748882041,-1700.4801826784,4865.7322365903,1838.979535962,14278.9860478792,5611.4349278665,758.2541963561,-1932.1769685313,-7551.6851824739,-1867.1725575446,654.5304619843,-13716.8039680608,4070.2922924037,2138.8589918343,17304.2092205899,744.3585313175,80.9255020842,-9450.6557990532,-3187.0330547765,4.6500765612,-1618.6535343767,0.1381834696,0.4941732543,-2789.9022636606,-0.8438429778,0.6204486953,18284.1351488012,-27345.9763395693,-0.3382042153,-0.7951481732,9640.8838784646,-0.7681945792,-1.2588549979,-8119.7636904603,-35688.0664809268,8169.9890753217,9866.1363667693,-1.0261922855,13.1107234218,-3.6103984633,-446.301576008,4630.1329745784,-1122.5298366765,-0.6542363284,3596.5889028623,-4046.7710884387,-1848.9949837952,-11827.4171984344,0.720752939,-11154.6256164859,0.8269957962,-3717.2907772892,-0.8127047936,-14385.9391950758,607.9926616574,-0.8682833503,-5220.3066558147,-0.6208942004,7339.5900851047,2451.6638787816,-0.9156232786,10054.8788103995,-2.4973873089,8.8168006215,-1.5572234229,4148.760619954,-2493.2402827691,5284.7924891822,-4962.5343864203,-7238.5737325533,-5323.4167027215,16692.6911693018,6846.4243873308,-764.602228223,-383.0184836127,1541.1117146141,-143.8206299033,-559.2980349163,-2558.0252014116,-5240.7268295164,-1745.2361885371,4865.1757294689,-6728.9599059169,14283.0497256558,-14792.8458771733,8382.7248712847,-12683.8974938405,-214.2936513947,-5381.7181950669,-687.3463303241,6148.4851675008,194.9681417427,-9653.55659248,-10751.7930722064,2202.6842823038,31785.0913972471,-7395.7198835258,12.6868783839,-0.9327642926,0.4357985587,-35.4107598734,-0.1820216757,1409.6581566983,-0.6480473182,-1.0036088703,0.0947799956,0.2836550816,1.0579054281,-0.2342637788,-3623.7490350537,-0.125626008,2.9726659124,-13335.2045814096,-0.9099185833,16509.7895322741,8311.725127351,-0.9073371663,-17.9038460284,1.2655340403,-2461.7725253522,7922.185406634,1306.4711343234,-0.370860997,-29617.6315782039,-7082.1671082462,-0.8707643565,2.3409424705,0.0492810811,-8411.2835445724,-0.6277801259,8564.8065181579,1.6301572489,7452.2847025694,75.1376619657,-0.884084212,-0.6717372844,29873.430803012,-21437.2986299294,-1258.5292822599,2.2816299876,-5878.0659838826,5669.4741402333,24723.5084504681,11034.9937399663,-0.2349181008,0.7507608387,6375.0688935471,-7271.4323425173,-2293.8907217923,717.0863623403,1528.976910775,7948.1639880068,3850.1413309813,-3286.1188768386,324.4438330553,-1471.2842932599,-581.676590674,3999.6703077416,13245.4408254259,14261.6037863887,-4567.2329203755,6.4117506201,-1066.3311296844,-1727.3418447218,-18261.4952717509,8680.3634912322,-5004.9804408582,384.9059514738,5629.3634702899,1214.5882393795,-9960.925679818,-790.8195044117,-1019.0949457622,-9054.0022478864,-2140.0698354802,-11094.71477393,-0.677194739,-1105.4437404834,-7420.2420627026,-404.2004066129,-0.8783942329,1.367940395,-3503.9737756087,-0.2326686699,-0.9374612143,-0.5948102349,-0.2805515519,313.3975273565,-4319.2820541208,-1906.5195703163,1446.4462301537,-0.6665173365,-1574.0457670194,0.0827298626,0.5607642175,-0.0218614592,-16241.5063846636,-2193.7219254542,-2665.3473497463,-0.6250031096,0.3566351622,-0.6516769784,4965.3230149733,176.7158423385,870.1850703601,0.3141752677,-0.119299957,15106.566133725,3107.195294295,931.6435562241,-0.1467321084,22352.6195827575,0.5213601043,-0.9259877197,0.7101007307,375.0785964667,4878.9880734617,11617.4481526759,8387.9489413034,0.0661038216,4430.8320607236,0.1089230106,3604.238167519,9264.1918954686,0.4825172396,-16296.2454739212,-0.6655663295,13631.8036589699,0.3499690072,2933.2169914272,1332.1733503424,-7050.3009181711,-17247.3857681367,-6.5045439906,5971.1484248127,-25396.5000420032,-2073.0437387593,8204.2395417907,-2995.8074198156,-3644.2115343612,1721.9452886191,6927.1803721291,-8223.4375773868,12809.4055844297,15087.5744400843,4486.0641648221,-4328.7167749788,9665.3017500221,-11960.404373885,-2375.5486219879,2914.0973022671,-8224.0161249702,483.4889964967,-5093.4806860141,-12269.3102112347,17414.0602566762,2252.587771814,0.1276134571,-5.3116596493,-0.6163531647,-24098.4929357087,0.838549925,0.1305380192,3342.3132044606,-7939.2378330568,-16452.2880950985,-1.0943066904,-0.8409662052,10865.1187359412,15742.4809974698,-28106.8688385762,0.5788136219,-0.3567413597,31.478717681,10133.8571804192,-16451.6962761398,8340.5400852778,-35698.3286499467,5095.3489567414,6.8591050281,-88.9744610648,1810.1493957595,-297.9369894357,9634.1604576663,6490.4069267273,39.0295954466,0.5131028956,0.9485573075,0.5704736257,-0.9017171067,856.5972635769,-0.0462917872,1692.4502451257,-26209.5595060665,-5172.9059269459,-0.2338339011,2600.9872117472,4842.3158264214,20.7124936884,940.2015420247,0.0976717673,0.7714954597,-4906.7368166126,0.0688566031,97.7803627601,-0.1885047155,-7399.6054703511,0.3145917408,-5930.0265584717,-16362.1590503835,-304.4629600028,1408.523862264,-1195.3113777248,-3772.5457665644,-9201.3804523776,5698.1350104798,3956.658954967,-6167.6131634732,15212.1532599574,-2983.4689791354,2388.6294666554,-5451.7667706835,3180.529788239,-1.5333569576,-11991.7909047551,-3583.1344642742,-11.5569283829,-20409.8117518054,10334.345433763,-2769.6129896931,-206.4138319779,-11421.308242128,1070.5231015937,-5899.2893261097,-9573.3651255967,14438.3696145275,-9288.8202576944,1.2410999284,448.5127122148,-75.4096447181,1865.9598963502,-5075.9931535423,0.3112554828,10.6217242164,-0.0704754156,-0.1222278077,1249.5971329708,-4554.7358403701,-0.7405637616,1302.9756872877,2846.1571559759,-1557.9071433909,10423.7226455854,-0.6119374624,-0.5276120009,-0.5867613381,1249.9242821379,-3358.4314581816,-0.8208451722,-28243.8780953785,0.4776576575,5.3899956842,-17915.115437156,-6375.0386724317,0.4120840536,-15447.2383144453,94.4404907677,-0.1898462674,6.9169030705,-0.5245066519,-114.6358145479,3.5130820878,0.8179605587,-10433.6137775378,-0.0303609616,2949.50541236,-1193.8965793923,-0.6797853317,-3165.5415770107,-0.3201229565,0.0593199296,-3.1093893668,-0.7828077839,0.1185084184,-1855.3578674849,4450.2057439078,-15629.1296052239,-1359.6022865557,-0.85510617,568.7027019444,-55.4894147438,-277.7880575594,-2639.1673089112,8450.3135613115,17380.9050102312,-169.1387046717,-615.1601069269,5391.2797255328,-6646.0016208262,193.3827846417,-254.0305019071,-2510.2305870492,-11517.608141921,2178.4919333499,6032.6723513732,6826.7882299852,3127.1655316171,0.3149380361,2490.1813413126,-1463.8303444751,-5324.7776120957,-4355.8926803288,-5668.470591833,-3271.5841004602,-20311.977247196,7210.5422714693,-2626.660236903,-7587.2277714078,-1134.3581205196,-0.0465772136,0.6103386031,0.7199998791,-3.2153020972,-203.9782921533,-3229.8155202764,3180.5142613097,0.1018476104,-1.8225576895,-4202.0658812578,-0.5713583249,0.6689306249
   -0.5873980377,1.745110634,-4053.9996148007,-0.6887298028,3052.3893060519,0.8240025198,-0.7906636643,0.8680204981,-1.0169809098,-0.2565034068,-25727.1605479697,0.8646834024,0.4846621788,-1.0585369795,2.702621128,-0.7434187543,-2338.6111753481,2828.383725927,-35.0703943003,-94.86285336,6425.0531951726,16.8135133036,-0.3465210327,17314.9542543521,-20213.7179077053,-0.1700341086,-0.0629923703,-21359.1702713244,10560.0446002294,0.7218077479,7129.6822001421,-0.935347521,-0.5094002775,-5036.4421461877,583.5099222547,-24248.9983636663,5008.5115239837,1635.7181553017,-0.6142280943,-13.6659172327,-1194.1804430939,1171.1296297345,-4193.360809166,-6772.5501151252,-4200.2526422189,-3856.1316011716,-3068.1295102605,798.8373298954,-245.9533604746,-1442.0067553921,-10837.2757891252,2973.9627216798,-12429.4846865422,6958.2747619787,7047.6173403015,-0.4097818122,-5449.1364853434,19759.8831693186,-5904.4995521612,1806.7211115629,-3994.5364223202,-4707.2203949734,-499.637001449,8097.4694769482,-6465.5652501574,14.0360890676,-10924.9563260827,-3682.2184060872,2228.1284268381,-7343.3027202409,-3.1861090737,-0.0448726685,2248.0798980223,-4.0583083853,-1.4096007489,19108.444800119,0.9201738667,-1664.9303990625,-0.5951909389,0.1912107995,-7277.0431333308,0.0515067928,-0.289080719,0.336407155,-0.3630288904,4889.598024109,0.5379294732,-1665.1975089632,2739.5987510708,7987.0387545404,0.8099007915,0.1575843733,-14.0695041663,1929.0162786871,-0.408098708,-1.0752087118,0.3750747851,-2023.1394236451,-0.0485795076,0.0099390553,14833.5393136582,0.2477709677,-9506.3810180093,0.3738271908,14385.7866672406,-0.9815720325,0.1670006329,-1.4829083682,-2643.2397655728,36.6517587471,-31533.3549801814,0.1295537509,0.6100551907,-0.8753912203,-523.8004678907,192.5611231125,53.7376248372,87.0381321065,0.4007575861,0.3471009661,620.1533646886,5196.445032655,8030.3367970954,-11786.7348086678,-16899.3004778442,10451.1748985913,12709.4937522206,12760.4929892614,-10296.6822171349,1705.9025411006,601.562132745,-5751.764073386,-4047.2596837396,-4443.3816658151,17076.0829054111,-164.8446046076,12940.2833763996,7438.8012859959,9659.5197600667,1895.3255864064,2652.0906895419,-5729.9044454063,5342.5629093555,-4.9027530648,-6644.1697928252,-2735.4737942327,-2637.1308424504,2936.3082636353,3057.9149634542,420.9738330663,15541.343934962,0.4764186735,-1.1386090355,-13236.8725808935,4282.6786539347,-0.0078774513,-1.8429378101,0.824758085,86.4729827286,9050.9465377278,0.6060797016,-1913.4007521643,0.3472175531,-9734.1562820867,1.3363674251,0.5328283262,-2915.4171367392,-4982.1669252845,87.1591813453,-0.6515772235,-278.8358813878,6478.2194334,-6.7009713722,1.085725406,0.1883000162,1.0481974497,1.8844572104,1.5107085062,1.0047899503,0.6088747833,2501.4953996682,1929.6056730543,298.154411453,10424.1398362144,-0.6598864138,-1414.3243714668,-35.6435921964,-12303.0181931758,-0.477535242,32628.5825912642,-0.5077994048,-0.7128522854,-1.0398713618,-12373.0696188116,-0.6549224607,5833.2733882157,-0.4481596087,-2274.773455936,-0.5248407403,-1.0786248763,0.8235405656,3396.156259917,3645.8870547361,7874.5843772691,-0.5722931787,2235.6760253065,2644.8400469214,-985.4402449394,2995.862983079,-1051.032321771,4722.9432601497,162.8582560811,5803.311760633,-3496.4461286554,-9217.821268149,-11695.7356694924,-4050.3043580695,7865.8399444204,-3088.477024772,-9286.2764699701,1826.6604220514,-2.4297860947,-0.0535281384,5731.8865542193,-1041.8542545256,10934.6904090143,-7365.5904017553,-795.7250029565,9564.3062877141,95.219498929,-2674.3166712014,2966.2066879503,-21870.200853299,1.012572786,-1.2890124233,0.4595066007,6595.6691966077,6.6122334937,-103.3202561438,-4425.6232940451,-259.8381512688,-0.6105466241,1.1488894131,-7692.7858062886,0.0266317883,8154.3108219482,-0.8772247449,-26623.5479602975,-20269.503303046,-4426.8943255242,-7812.291608355,-12298.602083566,-12471.3419772209,-0.9387861395,-587.7145687597,0.1473506278,-73.9609220039,-3700.5239000749,-600.366929149,4958.802763068,0.2603705466,1.6353738418,0.4932458189,-3.7762141676,-3891.6238243531,-0.9719229243,-4712.5170442643,2042.684310916,4436.4906225532,0.19381135,-0.2703528494,-4239.9893964193,21669.2057321953,-21745.2131808335,34.4260469592,2023.6678253734,-0.5899832015,-1.3980725991,4385.0145393274,-0.577836213,635.8008377545,0.4556983523,-3284.4634214751,1364.7036905349,6440.9192815788,-2568.7867536686,-2978.3355794693,-8734.0140772949,2.9755362188,-741.3432332557,1539.7376749836,-4795.5809743067,3162.28275054,-2562.5697872905,-176.8147727643,2234.6440747137,-10.0673116738,-3312.7050131595,-8420.2914477959,-14183.3919136291,-244.2870673639,-517.9707265766,5.9514602381,-6049.4799352979,-8285.2467322557,3357.2025639509,-24.1478174504,-1.7190775028,23.1354683903,-9.3195171549,6993.4609350678,1284.9391936201,-3316.2275336429,-15186.3703920555,-4437.9101519352,-2776.0382518122,14.9916366579,-661.8300628521,-2339.3873778847,-3633.1455894249,0.1147620955,0.2026845511,0.0279743385,2378.5310498744,10736.8859908535,-105.2937105014,17411.7098706649,0.5009268199,2467.5447123698,-15339.2438645885,-0.626187187,-10875.2219500717,-1616.3028722196,19.9708474937,-1508.7099070324,18270.3458819361,0.3876228973,-167.330945497,27205.9504421476,-1.0624247815,8643.0902313978,206.3284476278,200.1108267009,11731.5335931536,43.3679893701,16.2586914187,-0.5152968964,-4160.8279836592,2589.3327155096,-12325.7290939675,-23483.2535077267,-1651.7875560925,-12063.2987928033,1.442121878,60.350199069,0.5084018203,9213.3378820301,49.1285084753,-8634.3793890166,14442.9989323968,-3.6389928845,-0.7732810773,0.2096059806,6168.2487219432,370.9570064736,-1695.027403988,12690.4205766952,-4779.0926511452,6874.8244598377,9122.1801011209,925.0537135098,-9.0702448589,-3408.1730404467,3012.7640743388,4226.4339308018,-1.0913379918,-5730.2668178927,-18487.5040378269,5238.5965375434,620.5149706615,5493.3132679184,1051.4063397255,-8259.192163292,728.402921987,10973.8738868159,-9777.9228938072,14569.5169415186,-7583.5758596999,-3.043626326,-7422.4676246879,-6921.7665819516,10.5661715958,-4750.679041529,-6839.9703347918,-0.4012512786,-0.4186384116,-15.8271587206,8942.186216746,-663.4996500853,2012.9548413843,3937.0928035799,-0.7817172843,0.6300576246,0.8214540311,0.4252792291,1.5313892492,-0.5837307266,-0.4227318803,0.8307467688,-2671.1372569164,-0.2101705991,0.5853111963,-6604.0676285848,-7043.4131653507,0.1239127632,-1497.4906196455,-7.8249613912,1495.7205575449,0.4268200667,-33783.2073414197,-0.1442961717,-1.2807274906,0.8734208774,-128.44086103,322.4486637009,-56.3792217833,-26203.4777111516,-0.4280201458,356.0943105722,306.1141810749,-1892.0814886797,-0.2630796493,-1088.0827910704,-1025.7827156502,-0.2352557215,6958.0575000029,-7597.9942672322,-5.4127035706,0.0997540736,2672.568960239,35936.9982330987,-9459.4857744535,7122.7804636686,-0.8476379886,800.4666708136,7504.9611809138,-18561.8254007247,10957.6596920962,3525.4611353019,10373.4155295574,-6934.511431488,-1451.4766141524,12484.0795944471,0.1645596452,8348.8198123322,-1.3615025689,4117.6065085688,-10263.0798976409,4102.4267545989,11195.82109084,-24389.5438865774,-7502.7538241502,-7350.5123664633,-12150.5030002748,4993.5280253098,0.2327401133,-12415.4075783801,4296.2846134256,9347.6896558594,7.8819789797,-3.7233752487,-325.4749738477,-401.9032023833,1.7650848697,30314.2404297643,-0.0657059203,6.4581581032,-416.6045464744,0.1129620948,14892.8542556046,-4682.7414358392,0.7390075281,0.110385023,-1441.7200363392,-0.2572910679,-0.9143809944,0.7062148323,-0.1206453605,-0.3634021282,-0.2055430117,530.1762880604,16223.4785343524,0.1809824944,1012.395815821,-0.93636752,29628.8549089575,1506.5798045011,0.9193641783,3298.3068149165,-8046.5257995644,0.7364959296,76.6363630843,0.3162391411,0.9000150258,-0.1985497982,-3733.7096260121,-1.1301041203,0.9056146701,-0.384421923,4970.3253170801,0.2912505926,0.2421142697,-12016.6960364344,-4458.9792041517,20945.9555151032,4.0053676842,55.7788668347,-0.9837016148,0.8732747331,22782.2234199949,5081.4973601022,-2128.1885113833,-0.3216979701,0.1821382063,0.179992334,-2209.0429199959,-739.6355106248,3839.7442397909,1080.8539753419,1393.242796354,492.61447283,-1559.4072658507,-7425.286335209,-0.8515725867,2327.9389700384,4187.9036151222,2638.2570766781,-2150.7568234784,-0.4735206232,-5890.9141814063,-9709.2869146125,2378.5140625635,-3439.7315036881,-9997.4079472821,1098.8108264163,-4954.9259142816,7471.1718115767,11824.0194894678,-7367.8618001975,6797.6553120182,-574.9583199144,0.2242755793,11093.9485354269,7342.1296351312,-9.1355699351,-2519.1204163396,23537.256136742,11.2097025168,11483.497869252,-18664.8152911807,60.3669062747,-14.9926491523,-20215.5317849351,112.7304324909,-0.444319074,-0.4179596865,-0.6265781427,0.4854039845,-0.1318708005,13986.3111668443,0.2989097817,1115.847943593,-1142.7838575248,114.0302472654,-8079.7633586935,9682.9317668927,-36889.4091509432,-0.829156915,-0.755092434,-8852.8527646808,-0.9267690217,2664.4018645104,-13943.0386224108,-0.548909746,-1065.5622632691,-4677.8729008138,0.4711016818,-20338.3665416257,-21.8708555753,0.0552021697,-4657.339722213,2577.5477183536,8625.4536380627,-401.6287193711,-19012.8284634329,-0.5148890117,-635.9294606148,-7800.2288753827,0.2744628184,19.4486197748,96.5291912349,-16605.684129136,-29067.7375048895,-7.4011088243,-5397.7086388539,-0.5766370072,252.712509011,-3773.8842834833,9731.9308470378,2789.5716203041,-7994.0955773128,-8274.3384319497,10792.213761124,-3195.1855813719,-4450.4949800609,-8194.9609552825,-16376.3870145563,-1.2112019669,1786.2758800744,-8989.8789210387,-5820.1579125748,-126.3582402596,-24.0041918773,49.5395302195,-7214.5746498462,-4185.1340303135,-545.3881990675,353.2046414376,0.8778122521,-4314.5840625221,-14243.5407044252,3359.5620628306,-2707.6839414578,5365.3574697859,-166.6830005687,-2079.5920510383,-36.4950994747,1774.7507418197,0.5478415226,-4422.9699396693,0.2489456505,-0.1560048967,114.0325319453,-1222.8155889195,0.9915331218,4363.5611047045,-0.3072819874,-4828.2127882061,-0.4743271131,-1.8247089471,3752.3166864606,-0.2986962863,-34.0353987962,-1.3356979404,-0.6875768416,14585.9458971115,-8826.1661184192,-21982.9469976175,-1.5036643724,-3176.1549061819,0.4697107608,-4180.6749958091,10.6068705693,0.3271602538,0.3956067131,-0.8393109474,4431.6480540718,18873.9649549338,0.3012246727,-2.3443006246,-0.9598964106,4891.1441562572,6627.2163771071,-8280.1276169522,-0.353863469,33386.734522826,-18.4111920973,-4.129747151,-15792.8374507505,-26.0718660581,2749.0949911496,0.2747117362,-1164.4654379675,-1450.8430072805,0.7913928858,-242.4529059764,-0.4729675763,-528.750057495,-3493.7499431663,4008.0266603386,-1824.3128615726,1262.0090698394,-1237.7029397192,0.8634237638,-5080.146880432,27.9982605752,4165.7556337187,3712.3310462787,-1933.0382047363,3220.5847597637,2589.5155323145,5257.3369189214,-4679.8273791584,1577.203521543,1021.9669859732,1203.9161093236,1283.7358833235,-15416.4491959907,-9320.2392252919,-1277.6976813472,-2864.4705139354,15.958699853,-23.5697760985,-3455.4261267168,2508.2309439621,1386.3000720416,-2914.9440356822,0.322996129,-0.8887050383,3.4036927162,-3152.7046734933,5761.9657668144,-827.6618441938,40.2903018812,-1926.8991250439,-8892.3320401294,-0.3146543855,-0.1634373011,0.3049407049,-0.3424985946,-9162.9324141704,0.3533091513,-0.1356998302,0.6649412816,0.8212094317,-8892.9120976765,65.7311780132,-3331.389948353,-0.2075919956,0.4340093554,-0.1694013321,204.3525133628,-18.3828663802,-17.7425682825,2441.2621336805,-0.1231074744,-0.822481783,3536.2521733201,0.1246996801,656.031505034,-981.227890449,-0.7948016113,7600.4925167179,0.3297500309,142.6275153771,0.8412726382,34775.8090308374,-0.8713753964,2551.1364519098,9239.9685865636,0.9475943349,0.3719840819,-7143.4307381385,-1080.7424685913,7.1107000022,-0.3607688768,-7773.0363748297,-0.1400964094,2961.158002376,3717.0579075249,-1773.6770101595,442.3294528029,-5216.8063456188,-1365.0935057092,-1186.6606928566,12795.7205195926,-17750.4910892932,-1002.6528493816,5903.242153107,-2188.140298551,-17.534819313,-4514.7025366471,-3977.6160876359,-4113.7043302616,18806.1615086614,4616.7208873686,13867.5021542146,-18538.4574071217,6529.7142923977,-6.3801416918,3744.8805542822,-25602.9460395106,11535.7285879966,-9.7153526953,-0.7789671988,-3479.7149402888,-186.8592013382,5563.2718986745,-256.8231959428,-306.3625941581,-981.1998454217,-4.9200829211,0.1362261055,-1570.7487940356,1232.7075023222,12632.4334245252,0.945840723,0.5346672753,0.9699997328,12036.1936621745,-12944.8905181655,0.2338760111,-0.2924520133,-0.6618833228,0.1610252081,-603.9662344084,0.9263885768,-9385.4776314151,399.8532464921,33168.3015536222,0.2487383496,5918.1802883929,2.1895869833,0.2581844882,-19550.65095475,28797.5557651468,-0.2661155561,-0.6898409557,-0.2557676444,0.4106526122,0.5720729749,4827.8743825456,0.9810709058,696.7207716468,-1.2455809759,4097.9100201973,8477.8771371593,0.9609602304,11232.4820904484,2543.0867868259,-0.4314893008,2864.8007107193,-31161.3594209397,0.6064473033,7330.5941644107,260.7369911878,-0.7405868086,9.9554754923,-0.2784380922,-1791.9388283011,-1.2021351568,537.230262919,2949.6388274703,-3682.8887542639,5041.839961959,181.6330308517,5047.9984118501,0.0001188933,1426.3662479908,15831.2824294066,-1258.6670183071,429.4363843243,-6434.1218432056,14299.6112128495,-300.4906268868,6593.6823456786,-12395.2280275234,-4808.7571371089,-9565.5362983359,-4935.8639895167,-17771.8853169311,-2780.7248558787,970.4231975453,-3273.0455490944,-27.6262505845,-3923.9539307553,3132.3367765571,-8909.226189538,-592.9860350797,-5109.510625125,-22437.1590888935,-2148.4720691887,-22662.5522846245,-5.42265898,0.7906239759,5236.0312844026,0.1438625418,15765.9444876679,0.45943187,-0.2112099105,-0.4790736077,2152.9452088047,0.7709450865,-0.841237915,0.8624934765,0.2811425666,-2832.9726353966,15766.9974671382,0.104685226,0.7879827463,0.9625034556,-8452.3716688175,-0.3194380539,0.1246285109,843.4415138042,2045.3467194146,-9416.3351319752,5082.3770769716,-0.9777908866,0.4348035394,0.6316035163,3755.1973996404,0.9375916769,-0.4956798438,-2298.8723955151,-20419.5760910562,2354.983851583,0.5563594343,-0.6448837566,-0.1562202264,-1861.0725260999,-10231.2512398163,-0.1209563321,1248.4541767137,-3.423275135,-10.8285060877,-388.6524492763,-0.6473773129,0.9367655037,-0.6415456475,3974.5507874942,-5096.7333166257,4155.9526604079,114.5688005365,1457.2706553442,2945.176123656,2426.424479426,1791.2182968127,-7347.1713115072,-2318.8996718784,1895.6537716426,26949.4042362215,-0.1869437933,4410.3940191266,-5649.9668482886,-10489.846075539,-4554.2012417561,3595.597986758,611.2953443927,8451.6607806931,9722.9491016304,1008.8584401908,-6850.5400228678,865.8317023313,1168.1358121516,-0.0995476365,-5633.4068013546,-5933.1456725602,-1523.8685263397,10238.8873492652,29945.809117881,267.7426735338,6685.7514217178,-0.2713026302,-0.6344938864,0.3716867043,-15378.9980022708,-198.3545411566,15006.7395019419,1817.8162013821,0.1056899803,0.5786294676,5214.5530857275,-7189.5558471111,1.3106974744,-0.8693360746,598.23116401,-0.8778259212,15006.6682791578,-8843.6428084606,-2082.9540796016,0.4107907191,-0.7443360775,-1.1442154366,-0.064247477,-0.5083683955,1317.9448859435,-4221.5279932003,-0.7823357158,0.0496071269,0.4546648695,0.242617312,0.7837304031,-15570.7977237472,0.1110185985,1804.4149243599,-0.6060311157,-3.4669874644,-0.0427613806,5975.2789037647,-8.6561323434,1852.2344713549,1941.5360216282,0.5010110566,2422.5833756495,12308.8422487883,0.4970746925,-0.3720712494,-0.8994911349,2242.3179521222,-0.6375728864,319.7831710822,-1.9534053663,1.3689897234,-4435.2646486618,-9318.0476654442,4385.8613526419,-7419.6351721914,9026.7611158702,-2420.477229565,-6305.7669509224,-4398.6025094345,5202.0296773752,2546.2127487456,-296.2891958553,-7.3316487091,236.9606407871,-7563.8565407161,4658.5977914561,9704.8751826538,-3342.4267373327,-579.0657937499,5442.3725456686,-557.3242081393,7125.4253912305,462.3983913032,-2447.9229953252,55.6072963919,-2725.9638592645,-3052.8305617164,-2070.9491067396,8521.4547260621,13.9220346303,-1.0322838869,4609.7272011637,-4.3623797058,1001.8599627408,-82.6824417972,-0.1569515075,-0.3941380046,-0.5002638874,0.2746351627,-39.9664241304,-17322.8472908002,-0.4607434269,-7839.488342662,0.0245724972,0.0639469856,3924.4865135291,-0.0113893608,-4267.5412564584,-0.4640049552,6381.8542000824,1858.4302180246,0.3315541011,0.1250072844,-20694.1246198204,-32530.1788857339,2198.8340697881,-1.1333397901,-2.003320846,-0.3113423612,1.8487065279,-1917.6533481288,0.3298073237,0.5841394363,4015.1283709165,0.1878065457,-0.3158779278,0.2394361903,-707.8131149899,610.7359228768,-0.4399861552,1.9245618757,0.0955069426,-6010.0566841008,1125.8536012936,-8639.617423294,-35.7913522182,-0.1760637652,2337.1882418439,-0.0047733365,2516.8886396275,-2743.6753617606,-554.0119893474,-376.1480388632,5808.8770832329,5742.3531167293,-2973.867174091,-3553.9237622397,1139.9897024826,1.3480592106,11479.4325550407,-1365.2849627544,8828.0164990709,-2509.8922769816,-15895.3503935566,-6990.0074317255,-47.3425146326,8242.6390973755,6487.3358797501,12082.1064097967,-82.5354112125,-6629.3075702347,-3332.7312274649,-3987.2332606521,4343.5628739552,-0.0665197679,-9857.1114895456,-7588.2394902419,1856.2525553023,-10423.2006460515,-0.9480822422,15482.0624940374,-0.767292558,3701.4194485356,-2857.6959673777,843.0369021412,-273.4262639877,-6.0758942675,33.6511324941,4845.0148712907,-0.1657134926,0.7262891105,-7779.5124669829,1917.8899663115,1508.2251397275,-0.6218008967,-2193.8150582251,-0.0452895356,33.7749211377,-0.3301040005,3013.3887469562,0.6071612993,-11464.2581882854,-0.084102304,0.5771406457,0.4687511629,-3637.3454231049,6426.2150521853,-0.3316797366,202.0948085654,-0.2595487142,20986.3698175008,29.4977982351,-4062.4170485795,0.2868767944,36363.5861618079,516.0484276569,1161.3124735003,2234.5819967355,3733.7127099566,1382.2378453151,0.6633992866,4.8932471137,-0.2026129061,-1485.9772103364,-0.8387462735,-7169.470598976,-29220.8843582761,0.5591715087,0.0688179541,0.2924604296,-1.2403808451,-72.6915661013,-245.2178484333,-2042.9029669298,-3455.8888250922,-5913.7847554599,-7.7199326819,941.1986728845,1562.747485763,-12739.9203536602,-3154.5118361917,74.2198996909,6119.5481241509,1426.9305880219,-4833.5369897283,-61.3321341176,2156.9054633789,2945.7429866274,-3145.0878748336,-7799.4236350218,839.1993389545,1850.8074382386,-18.1470874954,-5508.5881325863,-395.8124242522,2487.7534106417,-9050.3246087999,6913.8154186116,15756.8621577031,16693.4712931476,-0.1142649271,1.127483242,-5707.4937235783,-1223.7132547103,2195.5270002106,-0.7693943401,22822.8391130796,-0.3737609134,7395.7827344989,134.4195221697,0.6074542328,-0.8522704875,-3.8866053417,1.079310677,-44.7172252925,-0.4242026679,0.6207654926,13986.8216902006,7394.9067296866,-0.8418643958,-39093.2847842875,-4410.3098703394,6449.7942129465,-17581.1246899463,-0.5693294838,1839.7432311906,28427.8903126205,-8647.080051937,-0.874478767,1.0872156507,-1.774046762,-0.7680327699,-0.7561040807,0.232364364,0.4687749179,18608.9932667091,-8.5887586482,-1.1457189653,-9.9716570358,3301.5632746323,16422.2873474724,0.3984081295,1.7495975401,-7769.9203123717,-11546.6635915986,0.6512841625,-1242.407902804,-5903.1191879965,-0.0748707965,0.2070972092,1.154487339,10787.1323004634,-20526.8666288266,85.2575794693,4249.8700435491,255.1379023588,-153.8342613916,554.4803268701,-2977.9334444264,-23322.1163628719,-9290.323445801,-2966.2194248979,7804.1940079315,-60.3989192642,-461.7408950038,-14.4241051745,5363.5238421333,5040.3468705891,-16880.6164804634,-2384.0644517557,3771.2515033082,-3821.612232922,820.3557199409,-11303.2493547527,-4105.4164194205,-517.8361244514,-3580.9645311043,373.7772843833,2654.171617146,-2313.0929255603,-550.4917935967,-22165.0948723319,0.5335178636,0.6488285832,-1153.4218903293,-0.072645879,9329.2646638685,-0.3137224496,-0.0837422772,-0.8120054705,1.1340145136,-0.7659963362,-434.6502747824,-0.6336881053,27.3109402193,-0.362241704,-0.0642671989,-23894.4165619105,2609.0851193146,0.6718864482,2131.8250113265,-299.0360742451,-3607.6452556248,16005.2210978376,0.9975362195,0.5511162015,-2.3335701026,14033.7053505769,0.7441878646,2015.5094647654,0.7771780481,-1524.3194014326,4806.5492036606,-2653.0447887298,-16616.0128717542,0.4001442682,13858.2068960657,-173.5213661423,-223.6625049076,4.3262102391,1724.6753059867,-890.4257496733,-10741.9936059168,-1.316789768,-1115.9849072128,11220.5973254082,-3.8790962057,0.6223984463,-0.4870215299,12.0212370078,-14346.9290082949,-0.4344883963,-6534.018269491,-169.247328679,-1564.7327526042,-9050.6468086057,2172.0463293208,8197.6489954801,-2374.6668360378,-4730.60286427,8420.1235649223,109.5842920292,5807.9645079358,3815.7652685876,425.3872915652,-96.6234922204,-4542.7703262021,2311.4234873956,-8384.6129005726,-3.3520933127,-2460.3209825286,3802.3218201286,1013.5988450563,-18.380605216,3470.0990105111,7292.1122931108,3664.5292763858,5302.7346670965,-2742.7895628095,4901.7409282079,-4370.4122794556,-13487.511071768,-0.5629701565,0.4965313883,4.8740249907,786.9888697079,-0.0533821203,0.7517909638,0.5244219598,-1023.6271128037,-2572.6089474795,0.0446168995,0.1594573399,0.2182666812,-19802.2258720761,2799.0883515806,0.7923785457,-0.0522303133,0.7015358213,-0.5149899747,-2573.0405755476,0.9868715427,-1.0398428543,-0.9410696305,-911.5326873659,0.3753003029,4.7217743423,970.377117949,-0.0975482886,0.1324497609,-2657.7882934587,-0.2977278271,0.2555078256,-13.954058398,10942.6502127948,-25720.0791462014,0.4032922446,1609.3683577843,-1.1296470045,95.6155349503,0.167388772,-0.4258713003,4.8473181729,-1.169029378,1.1446754277,6220.331413152,0.5834413416,-5072.8768961729,2226.1554047665,-27048.6870994253,8848.1352825808,3184.1188466213,-0.1989671397,-190.9870197143,-8486.7100952918,-54.2654444619,-3274.1280466566,11517.7421421858,-3144.7331785745,-4096.8135114184,-8086.9762712243,3193.5694615159,-998.5475923034,2415.235632107,3680.211268421,-7008.971389454,3542.4510471976,2095.9944267347,-6767.5652955115,6637.359476202,-8006.350838018,-455.2075394333,-562.7958205818,2019.3727566076,178.9254486241,176.6276197615,-301.2339084477,-301.0228624548,-11828.7538365401,-4348.1512583896,2012.168318955,-7482.7148008552,4906.4940103974,8312.8253744255,2181.3804880082,17.2928991979,4686.7645896006,0.1210672209,2675.4546249484,-891.2618546873,-1.1011007949,24967.4551024934,-0.4672184503,0.4871457135,-11795.1436533331,-12.8203914947,12.1349640411,-0.7699935628,0.6131788844,1.091438885,0.0232800535,24966.917563504,-753.4132694149,-1439.7997055058,3.223523113,0.3566539037,1.4862393304,0.3577903852,-0.4861803559,0.753248933,653.6819045013,-0.14402875,-0.6337493058,526.2100881777,0.7744234134,1964.6792289772,-2324.6489061937,0.7048620669,2898.4478229661,0.441664911,24806.0861669962,0.5428339883,17741.8167062326,-1.9162845336,0.0876502968,0.2233047764,0.0719493765,0.4847048645,-1.0446684246,0.7301104754,0.7483111582,2.4132339821,0.3018388914,0.7104118288,5147.6033576154,1.7815522205,-4990.0956523275,1138.927901757,5331.1814987807,-7712.7197704373,6321.082064728,-5755.0333274553,6480.351536893,3863.5264052891,6923.1732447314,3797.0347861218,-0.8712543675,1142.6636451496,-4797.850176592,0.4248456242,-3162.8696949957,-1779.0688175061,679.0947822613,7326.2114461095,304.6784101887,-849.2683127759,-1860.1851590202,2281.7729564606,-0.2471286416,-2.7821445153,5622.6585512705,-6961.6013750549,13154.4166794513,-4894.6457181534,-0.0884369585,-26845.3094431867,-28663.6656178815,-4.7818959518,-21337.4189442356,-2572.839673269,11.7185804208,-2.3008504079,-0.1069885862,16275.732166355,0.321468268,-1792.9467312849,-0.1267869627,0.511248442,7.9133704387,0.1546543231,3238.7249418971,-20604.2271303882,-0.2761727347,-4153.5439881931,-0.2363891915,11498.8267687027,217.8216763174,-0.1154480374,0.4805502797,8741.0756076405,3333.5959195552,642.1954857555,-1.1293078757,-5665.3505426158,66.3993524463,1692.2814981411,2275.3500287765,6304.2628846642,0.6870121776,9807.5505735661,-7.8223095432,-32444.263916877,0.3619380313,-1.1789097901,19944.9653432422,-0.9248843205,-23934.1455273312,-0.667188931,0.1324283609,7784.0211538611,-0.1796308711,128.9064073478,0.2616295521,4227.5194582242,0.4661480868,89.9524358173,-2358.6160568179,-13725.2221243735,-5360.4974421539,7680.3362351159,-3402.7547625059,-6103.7369269952,-9699.1752583539,5752.263494131,4999.7680650687,-165.605257795,7634.1376312766,-6623.5253384515,-7463.1896233887,-5374.1810926052,-0.4116771737,-12213.9986545796,3957.1761262229,-7472.059586204,-2354.6548194926,-22.7973038613,1296.6564169028,128.3968100711,5226.402122047,7985.883967305,-481.8211339083,742.0761192717,17.3948854914,2382.3598650457,-18027.2813162444,0.5654003783,-53.4987177168,0.6498260552,-22445.5671284509,1.8660631512,2.2070559507,-16940.530323971,-0.6111760885,13224.2654756573,0.1748637588,0.0613891809,-11958.0348836078,-9438.8650179112,-0.2864903651,1358.0274436308,-0.9004593368,-8978.9660504212,0.8448315421,13224.1716932874,-0.0603479899,0.0456502667,-3568.7142451359,5605.2163356321,918.5418292521,0.7633332307,-7.8021095896,0.5306970745,-13128.673461091,0.2082700187,-0.4929162459,-11382.4760152821,13979.1240093828,-1103.1321992536,14669.141764509,0.1692737883,-3860.4195993348,-3477.5204142987,-11532.8970850443,1.1129341397,0.069546601,558.9022345644,0.5724959552,2.301106916,-0.9393472168,-0.5988719878,6412.0751535719,0.6331736568,1544.4880951827,18495.5088247213,-1008.787298961,-0.2641465486,-3144.8331003296,3752.6414212175,-36.5198348998,-169.6791229937,-4288.6915731714,-11404.8355000363,-1406.8518165264,-3686.6620735812,10473.796423897,-7851.0286160201,5482.1559835702,-2219.6230596392,8509.919025731,-2926.9139096027,-1072.7444714109,2147.0154904752,2254.072909781,14502.9165140141,-4431.5327632517,8368.2261953559,-14020.5579370693,10925.1379831263,12686.9546620448,548.8862607639,-3730.1738640727,-1.7278173767,-4235.5035564459,7391.0039207391,4748.0435114638,4002.3053086168,0.327139191,0.4839117533,14883.7645389253,-4779.6305616809,1913.9881287166,0.943228601,5871.1044535591,-8268.7493421672,0.8430429756,-11.3786554149,-0.7263792088,226.4600987095,-11549.3734201784,-156.634924283,350.152621794,-0.3494696989,-5479.1334441136,0.8752092737,-0.0757702339,-0.0796389092,2450.5306001273,-4166.2028911279,0.1033949731,11406.1008688157,252.7026465289,1366.9478067429,6.9553195008,-1311.2741099164,16471.3676963213,3270.1581026671,-0.7549965158,27968.8264809157,-0.8415809686,3747.5690166521,-0.4790515858,9779.7487687968,-27438.5849800199,1.0690825626,0.1651777889,7758.7901482435,-1350.5070711812,1783.3666629294,2821.5302259922,6.5119157129,-0.7615237519,0.2495846999,-3417.9588190272,-14868.6598323985,1559.2979198657,-4060.1175302808,-1.1394123727,6.6007100504,3189.4646933059,11545.0727729115,81.5412110034,2380.8446334334,1616.9453341664,-4659.6961291906,1021.6677198341,-4427.8640001345,3996.9038181493,13264.6247880087,3244.5521415527,-5384.8836766095,-5436.9746505781,1735.1816379809,-5209.8230404432,757.5253993726,-16355.7928683322,-2142.885818705,-5750.2471511418,45.3089996952,-16891.8414291507,-6426.5905822058,3.3562714256,10991.6632047401,3719.8708449285,-11267.7445004197,620.0311262571,-769.8706933824,-0.4152318876,-0.5663798661,-0.2586712339,-1.004162849,-7784.0159285375,-0.8286620373,0.2007147266,2.1553004234,-5216.0339790218,0.6196983528,214.5244889213,-0.2025460378,1.05328534,6060.5951079131,-0.3066412321,0.4867773323,-0.4767164904,0.8411713364,22447.2112802698,0.5951578792,7674.7877796108,-35718.634732505,5388.1249351278,-3056.5790117663,0.9267152765,-0.7896928363,2864.0478861427,7911.8345925341,7445.2046731293,0.5108100073,0.6120085909,-29.2026519318,-1368.6697114943,0.1694190229,-4622.5854369584,-0.6295844457,6764.2910940227,1.0661604366,-761.9183427006,11351.5102934091,22197.5925295532,84.9486365145,0.482744303,-1672.1292927542,-105.8112737583,5099.9607835707,0.0613192849,-2767.7674509444,-4638.6008509821,0.404608057,11488.1732571864,-0.5189334092,-2721.5231689893,74.5940419752,-736.827582384,8477.2799390065,7708.9417938826,7759.6884902634,-3628.9175353366,10406.6813765639,2.5627865941,-16916.1817181576,3672.4794320284,6857.1391493446,4139.7896354682,-9303.8709854133,1670.884015617,2.8054317115,15497.0028725618,6594.0721448052,-3436.1741190793,-647.9145392647,-394.8348165757,497.4354911815,9115.9238526572,1207.0011487832,-10627.4689058776,-0.7575746331,862.9451628781,-1725.0706915755,4315.0437509596,-1556.5944577756,-13405.5520613773,-3098.3887229759,-3474.8986712195,2943.8295556375,-2595.5220799864,5715.0710221626,-10975.3443824548,-0.2940726916,0.2429279408,0.7927116659,0.6505075374,-609.3997736746,2832.1823682302,1.6154512076,-5937.1630636516,-0.6922406449,1.8940409758,5679.8296585574,0.2024778925,1342.8328082334,0.2354169592,-933.7826983921,26062.1300396687,-0.5971392629,5.7633635146,-9258.1704661821,-0.4192399949,0.7501743773,2062.4397451976,-12739.0546127198,1618.046106206,-0.8874139887,-9972.7905939037,-0.483798789,-0.3508050104,-26747.8728839614,-0.6459534938,-347.2858970917,7409.2270659371,-0.0735069239,-26243.7914457455,-137.9216252379,-9604.0534920697,5792.2791826023,6592.6940032226,-0.0243197877,-30407.9089061951,-1822.0783595119,1968.6312421163,-549.2130918298,1.0331528396,11.6767647513,2437.4196975627,2315.5060311756,1.3298622239,-291.2897233968,-3756.1033780842,6815.016125469,526.009556513,1411.4248199617,11043.9062599818,1491.3336508372,-14776.5887022387,-58.9689241822,-10100.2026090768,5688.2797607212,123.8019620031,1102.9883386817,-14684.7260563917,-998.9356153475,-1288.5311453977,-8514.399283601,-1397.1080056777,-136.1725424404,-2404.0489592344,-7918.2172637577,-1170.484135651,8080.3178916644,-241.4310316851,-7709.2220787821,138.4990401809
##end
biasActivation=0,1,1
[BASIC:ACTIVATION]
"org.encog.engine.network.activation.ActivationLinear"
"org.encog.engine.network.activation.ActivationLOG"
"org.encog.engine.network.activation.ActivationLOG"
