encog,BasicNetwork,java,3.3.0,1,1425329123154
[BASIC]
[BASIC:PARAMS]
[BASIC:NETWORK]
beginTraining=0
connectionLimit=0
contextTargetOffset=0,137,0
contextTargetSize=0,35,0
endTraining=2
hasContext=t
inputCount=50
layerCounts=50,36,86
layerFeedCounts=50,35,50
layerContextCount=0,0,35
layerIndex=0,50,86
output=0.2633466394,0.0646327542,0.9871183234,0.222337676,0.5899776553,-0.5026649982,0.4291734544,-0.1167811929,-0.2454722364,0.3727519026,-0.0000929577,-0.017757088,0.4876785639,0.1362983214,0.0323258457,0.0001104707,-0.3066859641,-0.2536421274,-0.1839934828,0.371309643,-0.5398499298,0.0318439061,0.3113369338,-0.4928636786,0.5819876957,0.1889955659,0.1733081481,0.3673467202,0.3108866641,0.0767256725,-0.1525841705,0.0828294695,0.1901638426,0.1421397438,-0.0000191941,0.1476286386,0.386761629,-0.2832006477,-0.0818557988,0.2212380641,0.3932409139,0.0277785624,0.0024187343,-0.003818254,-0.0992654195,0.3338091952,0.5154794586,0.1852910237,0.2648270886,-0.4598441829,-10.5276990826,11.8477324112,-10.5408088282,-9.6921235206,8.2590462062,-10.6515313334,9.6271382799,9.5701440916,-8.7209231888,9.0973776759,-9.2783905501,-9.4295944947,11.1009162229,-9.1667538932,-10.2775533164,-11.1476408071,10.8145683796,-10.417071577,11.4476475264,10.1721036143,8.1171564374,-10.1465759878,7.4554448057,-8.8336520204,-10.7907931543,9.9733081338,7.416687941,-10.9640596129,10.7373999083,11.3769151422,10.5251338438,-8.317618233,8.1831238114,10.3038885542,-8.0697228773,1,0,0,1,0,0,0,0,0,0,0,0,0,0,0,0,0,0,0,0,0,0,0,0,0,1,0,0,1,0,0,0,0,0,1,0,0,0,0,0,0,0,0,0,0,0,0,0,0,0,1,1,0.2633466394,0.0646327542,0.9871183234,0.222337676,0.5899776553,-0.5026649982,0.4291734544,-0.1167811929,-0.2454722364,0.3727519026,-0.0000929577,-0.017757088,0.4876785639,0.1362983214,0.0323258457,0.0001104707,-0.3066859641,-0.2536421274,-0.1839934828,0.371309643,-0.5398499298,0.0318439061,0.3113369338,-0.4928636786,0.5819876957,0.1889955659,0.1733081481,0.3673467202,0.3108866641,0.0767256725,-0.1525841705,0.0828294695,0.1901638426,0.1421397438,-0.0000191941
outputCount=50
weightIndex=0,1800,4810
weights=##0
##double#4810
   -0.0055750941,-0.0045070813,0.0013389999,-0.0057351331,0.002018746,-0.0032523365,0.0021674484,-0.0001563562,0.0005964471,0.0033531727,-0.0001113225,-0.0072708945,-0.002564361,-0.0019601127,-0.0047266962,-0.0002036711,-0.0030922188,0.0001828243,-0.0095475476,0.0075172089,0.0011879078,0.005757553,0.0060132776,0.0052527319,0.0024559657,-0.0034283138,-0.0012359494,-0.0033145659,-0.0004486505,0.0096352694,0.0060972388,0.0004191956,0.0013877116,-0.0006683871,0.003096081,0.0177148983,-0.001433336,0.0050736051,0.0030967149,-0.0085205639,-0.0031079989,0.0077474929,-0.0051643325,-0.0089280071,-0.0050566635,0.0069701165,0.0079623029,0.0136208279,0.0037190841,-0.005143506,0.0068717975,0.0089960771,0.0057220172,-0.0011017455,-0.0045245534,0.0009909179,-0.002455124,0.0006118728,0.0074552018,-0.0016636809,-0.0019131965,0.0025712033,0.0030608508,-0.0034836859,0.0013999671,0.0030506529,-0.0012356517,-0.0031463818,-0.0016962127,-0.0003106522,0.0012249236,0.1412206126,-0.0051148054,-0.0019995231,0.0024972756,-0.0111328845,0.005118816,-0.002780142,0.0022520642,0.0067785827,-0.0103637046,-0.0003712811,0.0032107764,-0.0043639072,-0.0005902906,-0.0058128194,0.0006614517,0.0028455309,-0.0023394002,-0.007672693,0.0060502894,0.0081676244,0.0059252022,0.0064469338,-0.0001658647,-0.0045740503,0.0065364422,0.0020367218,-0.0002710182,-0.0010533759,0.0103921991,-0.0000317933,-0.0004391027,-0.0047756732,0.0038106282,0.0081348442,0.0061572924,0.2105856271,0.0000681604,-0.003439538,-0.0035795685,-0.0017183864,-0.0003261591,0.0000033434,0.0049235495,-0.004861477,0.0002840593,-0.0001757718,0.0022657398,-0.0055175065,0.0022479982,0.0020170031,-0.0056373001,-0.0005089163,0.0008142721,0.0056163677,0.005825974,0.0024090139,-0.0039294301,-0.0031963336,-0.0009796395,0.0008303491,-0.0016568461,-0.0041017424,0.0042475356,-0.0014480245,-0.0018229845,-0.0047222207,0.0030599939,-0.0041760023,-0.0057692226,0.0072697214,-0.0044186898,0.0055270005,0.0009841265,-0.0045306351,0.000818499,-0.0030072207,-0.0030600036,-0.0063792293,-0.0056294877,-0.0028920262,-0.0057243318,0.0115554907,-0.004985474,0.0023327133,0.0043407906,0.0016975006,-0.0037274276,0.0008336325,0.0058809068,-0.007261607,-0.0016102731,-0.0022576916,-0.0006623301,0.0031228282,-0.0009660785,-0.0028518603,0.0036019326,0.0081985485,0.0045785338,-0.001084324,-0.0004689636,0.0036602309,0.0044328899,0.0080976138,-0.0015255599,0.0012360472,-0.0108500243,0.1605086659,-0.0014442864,-0.0096289032,0.0084973935,0.0054381906,-0.0043339954,-0.0020922728,-0.007183857,0.0015689812,0.0109987851,0.0068872581,0.0057887229,0.0015877958,-0.0016076519,0.0018059663,0.0014994062,-0.0007233219,-0.0086868205,-0.0025704388,-0.0071713598,0.0026406935,0.0010124553,0.0012488919,0.0085026545,0.0001831837,-0.0017594153,-0.0033667718,0.00433078,0.0088205996,-0.0055881152,-0.0060763215,0.0078419815,-0.0062750242,0.0072346265,-0.0030871082,0.0019742592,0.0770389187,-0.0066959862,-0.0038699999,0.0003562253,-0.0017818324,0.0033681143,0.0011610342,-0.0031777606,-0.0001724991,-0.0070424177,0.0055186187,0.0053492081,-0.0030069928,-0.0014657865,0.0080364119,-0.0033748998,-0.0088026426,-0.0029807969,0.0005746585,0.0035500143,0.002960929,-0.0014742376,-0.0076047645,-0.0019274044,0.0017806908,-0.0010448111,0.0023900431,-0.0042626909,0.0006560039,0.0029486576,-0.004859133,-0.0008958969,0.0019257236,0.0034364371,0.014992065,0.0054030346,0.1207260516,-0.0124825695,-0.0070134278,-0.0086938827,0.0082879863,-0.0057923738,0.0019083654,0.003176193,0.0068239954,-0.0016539467,0.0023189436,-0.0049338417,-0.0013964801,0.0033986728,0.0047260135,-0.0040603302,0.008755487,0.0067831093,0.0039873945,-0.0028367847,-0.0009233424,0.0034288577,-0.0003131883,-0.005290226,-0.0004534628,0.0122422595,0.0053754861,-0.0018674462,0.0005686171,-0.0072594217,-0.00146743,0.0003695768,0.0036915203,-0.0045864929,-0.0059598922,-0.0054349135,0.052458982,0.0027148063,-0.0038269797,0.0010493344,-0.001547735,-0.003473732,0.0020417844,0.0016681912,0.0021298609,-0.0015230064,0.0004376737,-0.0031335868,0.0021423145,-0.0013138006,0.0009032554,-0.0071507007,0.0024791648,0.003379905,0.001449085,-0.0033338104,0.0012003953,0.0040776453,-0.0055829623,0.0013342866,0.0054874596,0.0043513977,-0.0001542549,-0.0076572718,0.004379331,0.005694903,-0.00619139,-0.0048034532,-0.0036653371,-0.0036995382,-0.0103844681,-0.0056166142,0.0172636333,0.0093391137,0.0032374431,-0.0000106335,0.0123887745,-0.0035643076,-0.0101865608,0.0154253979,-0.0044114337,0.0092851969,-0.0006369841,0.0016563046,0.0028259951,-0.0031460907,0.0011225467,-0.0021717811,-0.0046603276,-0.0026906572,0.0020113174,-0.0025526702,-0.0083779127,0.000782014,0.0056508976,0.0041948243,-0.014437692,0.0021245405,-0.0001359415,-0.0014121932,0.0001855111,-0.0040361137,0.0074823739,0.0030304492,-0.0009592887,-0.0030714066,0.0115822563,-0.0176251719,0.2424132808,-0.0000016455,-0.000001085,-0.0000001664,0.0000013651,-0.0000023106,0.0000005584,0.000001471,-0.0000005911,-0.0000005871,0.0000001585,0.0000011563,-0.0000010296,0.0000011914,-0.0000006277,-0.0000017543,0.0000009761,0.000001053,-0.0000016204,-0.0000003443,0.0000014807,-0.0000029088,-0.0000011508,-0.0000012696,0.0000007049,-0.0000004996,-0.0000013422,0.0000010367,-0.000000436,-0.0000004905,-0.0000003013,-0.000002047,0.0000008862,-0.0000008963,-0.0000001922,0.0000007969,-0.0000639738,-0.0034641885,0.0008160271,0.0001504583,-0.0041445854,-0.0027052984,0.0011473846,0.0002596439,0.0013295841,-0.003423247,-0.000628012,-0.0021704837,-0.0017757351,-0.0033528438,0.0052211396,0.005494549,0.0008396465,0.0017650803,0.0002213238,0.0068333239,-0.0051709854,-0.0005249961,-0.0008706837,0.0082494489,0.0054888831,0.0056694653,0.0000942178,-0.0043330022,0.0024216326,0.0001074287,-0.0025033007,-0.0041823106,0.0054138465,0.0060443344,0.0101040541,0.0072440872,0.0869380366,0.0004648109,-0.0063924103,0.0029940892,-0.0013263143,0.0059444535,0.0039815371,0.0019056627,-0.0063095411,0.0044761644,-0.004506878,-0.0040206705,-0.0048501483,0.0046522139,-0.0024625105,-0.0022206283,-0.0110556907,0.0096938063,0.0033925792,-0.0111058609,0.0010305811,0.0054644314,-0.0024213422,0.0079185093,0.001812696,0.0065042859,0.0031258254,-0.0034827662,-0.0047007573,0.0033931646,-0.0006768141,0.001690013,0.0055950376,0.0156830955,0.0044052429,0.0048585572,0.2130863207,-0.0003714923,0.0011239334,-0.0030719364,-0.0018360171,0.004177476,-0.0062863196,0.0012642175,-0.0023580073,0.0086288381,-0.0033969841,0.0008830054,0.0040538963,-0.0084287417,-0.0016116016,0.0020987379,0.0054924183,0.0088906102,0.0024431903,0.002260831,0.0023454072,-0.0050524897,-0.001092458,0.0032384906,-0.0075284951,-0.0063655087,-0.0019543059,0.0006691991,-0.002859081,0.0042556768,-0.0073147121,0.0011100917,0.0022196815,-0.0077023371,-0.0001729483,-0.0011853212,0.1248787151,0.0032481578,0.0011989522,0.0039539011,-0.0017928889,0.0003888356,0.0068812598,0.0011583059,0.0090283225,-0.0032865825,-0.0090712555,0.0014270559,0.0061999107,-0.001777338,-0.0010955157,0.0032290575,0.0010326277,0.0005778168,-0.0051964182,-0.0110811425,-0.0013433535,-0.0015509146,-0.0016155934,0.0004345253,0.0093110457,-0.0100745992,-0.0075854823,-0.0020621805,0.0102599599,0.0010510026,-0.0048102545,0.0080872025,-0.0092406761,0.0022613578,0.0032922963,-0.0093200682,0.2329922098,-0.0000016455,-0.000000067,-0.000000955,-0.0000015529,0.0000034757,-0.0000005674,-0.0000025272,0.0000008932,-0.000002429,0.0000011187,-0.00000029,0.0000019322,-0.0000002679,0.0000007491,0.0000006838,-0.0000012622,-0.0000015792,0.000001796,-0.0000001362,-0.0000016783,0.0000010111,0.0000019173,-0.0000003808,-0.0000023436,-0.0000010612,-0.0000005452,-0.000002425,0.0000013957,-0.0000009493,0.0000007701,0.0000012285,0.0000017219,0.0000007177,0.0000013901,-0.0000024524,0.0000747321,-0.0028918912,-0.0060143341,-0.0051011951,0.0054341078,-0.0034213339,0.0136756059,0.0118219084,-0.0059157938,-0.0056075385,-0.0025966832,0.0006779216,-0.0022459902,0.0084596223,-0.0055087959,0.006029336,-0.0037814673,-0.0104934827,0.0131515916,-0.0065396305,0.0072655334,-0.0006610191,0.0067967771,0.0005476899,-0.0047984884,0.0070564642,0.0048718949,0.0084144401,-0.001808197,0.0001732218,0.0032051457,-0.001220177,0.0141357745,0.000535816,-0.0088522769,0.0006648372,0.0938959409,0.0032457207,-0.005883942,0.0057339002,0.0003501005,0.001081496,0.0008701021,-0.0101222865,-0.0006021902,-0.0008364508,0.0080756169,0.0091647695,0.0032596287,0.0029630181,0.0030267156,-0.0020947227,0.0054585306,0.0007781277,0.0004027534,0.0011896173,-0.0075713236,0.0008150516,0.0009817459,0.003385802,0.004997916,0.0029233745,-0.0047887126,0.0037286697,-0.0003513707,0.0059933545,-0.0004146724,0.0063122765,-0.0015035008,-0.001433578,0.0025017356,0.0014477599,0.0750907831,0.0025117892,-0.0033026082,0.000760756,-0.0022325712,-0.003174116,0.0034164161,-0.0003531117,0.0030952141,-0.0006278961,0.0021471501,-0.0039615323,0.0020659597,-0.0009284744,0.000399292,-0.0071624401,0.0020764137,0.003942305,0.0019299076,-0.003565216,0.0018030525,0.0045649973,-0.0047911631,0.0021697339,0.0037983166,0.0043641795,-0.000449392,-0.0088113979,0.0056718286,0.0056681315,-0.0062878715,-0.0042025006,-0.002477931,-0.0040817104,-0.0100254277,-0.0059050748,0.0596684726,-0.0018224413,0.0064740966,0.0030156992,0.0028037052,0.0013170022,-0.0018141743,0.0075918975,0.0018158903,0.0125015297,-0.009123825,-0.001995673,0.0029708139,0.00368452,-0.0031005572,-0.0050458474,-0.0007762295,0.0067299288,0.0033873414,0.0026175193,-0.0006130019,-0.0102231727,0.0028812559,-0.0037136524,-0.0056315638,-0.0032949622,0.006288809,-0.003669174,0.0010039321,0.0083009656,0.0036811027,0.0018756834,0.0067857939,0.0024735465,0.0049510144,0.0055027058,0.1331205828,-0.0100060741,-0.008940721,-0.0028100166,0.0035766855,0.0023750531,-0.0006859864,0.0056335383,-0.0049656307,0.0015688351,-0.0027181039,0.0032124057,0.0055019094,-0.0039299992,0.0015325601,0.0026607569,0.0052023847,0.0049434055,-0.0002322266,-0.0052664187,-0.0107241684,-0.0012336728,0.000727037,-0.0031373082,-0.0039014134,-0.005872194,-0.0012079545,0.0031467338,0.0016612131,-0.0066688078,-0.0031453472,-0.0051128447,-0.0035136051,0.0000307303,-0.0063882453,0.0088411602,0.0275245444,0.0030519501,0.0041759274,-0.0006369405,-0.0048679126,-0.000829253,0.0038855411,0.0001565446,0.0016033276,0.0045835238,0.0008976345,0.0008452679,-0.0014122236,-0.0018924303,0.0041335502,0.0042439297,-0.0052120273,0.0013329243,0.0002081228,0.0017155467,0.0007038676,0.0039386335,-0.0004210036,-0.0037541161,0.001751854,-0.0015056595,0.0024729036,0.0042849455,-0.0021162664,-0.0010726426,0.0033553041,0.000989129,-0.0056021932,-0.0049726891,-0.0017932176,0.0067846652,-0.0347251831,-0.0030991855,0.0028670498,-0.0019660334,0.0022347782,0.0017942786,-0.0026910232,-0.0002963193,0.006147018,0.0048907053,-0.0067714366,0.0036415658,0.0042957403,0.004073915,0.0014271934,-0.0034689861,-0.0066662963,-0.0043199179,-0.0005126022,0.0009511075,-0.0002334741,0.0073821994,0.0005755871,0.0060122053,-0.0006266933,-0.0036180456,-0.0011300072,0.0016906021,0.0023491023,-0.0010589795,0.0002688409,-0.0023610019,0.0025214739,-0.0000330642,-0.0015366057,-0.0041598961,0.1331988799,0.0063832091,0.0007779741,0.0033508882,-0.0145786861,-0.0031198621,0.0038761528,-0.0023870053,0.002070713,0.0021683683,-0.0053388529,-0.0083894557,0.0074079294,-0.0047950297,0.0051969073,0.0030302218,-0.0050158673,-0.0012390589,0.000630525,0.0051223973,-0.0105652105,0.0029788913,0.0033679698,-0.0032162684,0.0073562981,0.0004053513,-0.0035328607,-0.0024570893,0.0089473124,-0.002940749,-0.0056108264,-0.0035193912,-0.0115846821,-0.0022560359,-0.0022048569,0.0144255006,0.1823178936,-0.0008611549,-0.0031345481,0.0056274008,0.0037731932,0.0067836003,0.0030575388,-0.0060710078,0.0048977853,-0.0033375775,0.0037959023,-0.0038612685,-0.00539401,-0.0052950864,0.0024114014,0.0040183427,-0.0021647693,0.0069571754,-0.0015966675,0.0059484047,0.0092904595,0.0181868359,-0.0075558388,-0.0021725066,0.002492117,-0.0036051925,0.0037371061,-0.0014398709,0.0004599042,0.001090682,0.0017505736,-0.0092280753,-0.0109648372,-0.0039031544,0.0031936785,0.0057414515,0.1604445245,-0.0006025036,-0.0044439707,0.0023232193,0.0076238006,-0.0076577632,-0.0037042691,0.006483771,-0.0031120936,-0.0048472748,0.0074418623,-0.0006355835,0.001413528,-0.0050916115,-0.007731619,0.0049721772,-0.0086398079,-0.0048126521,0.0093141541,-0.0039304933,0.0016316821,0.0044283783,-0.0008122357,0.0045696873,-0.0047903844,-0.0022005091,-0.0079655205,-0.0006907333,-0.0060771839,-0.0011554073,0.0104450716,0.0056558678,-0.0008728957,0.0023418553,0.0015391759,-0.0009906215,-0.002416592,0.0047585518,-0.0031861746,-0.0036675783,0.0037658787,-0.004208113,-0.0007588799,0.0012728425,0.0049442076,-0.0041018293,0.0051571358,-0.0029861188,0.0045539207,0.0006777665,-0.0062867597,0.0023433657,-0.0018375931,-0.0028717442,0.0034315572,-0.001132292,-0.0005142097,-0.0009835777,-0.001731149,0.0003274563,-0.0015916808,-0.0020094133,-0.0011833744,0.0000142874,-0.0047916317,0.0011778544,0.0019314614,-0.0009092808,0.0008007833,-0.0006580484,0.0055097648,0.0028653001,0.0468234609,-0.0009142961,0.006511941,-0.0001351366,-0.009649199,-0.0018421379,0.0031109952,0.0007614379,-0.0034739507,-0.0027636801,0.0056326459,0.0019325565,-0.004044117,0.007684904,0.0020934648,0.0049205741,-0.0048103443,0.0074704495,0.0009701421,0.0043639969,0.0038138867,0.0016477752,-0.0033816704,-0.0110788667,0.0056811026,-0.0046731899,-0.0085131197,-0.0007371541,0.0044672848,-0.0045512925,0.0062944331,0.0042227534,-0.0104826256,-0.0127209082,0.0061762883,0.0057671226,0.0423719884,0.0019495029,0.0082693794,-0.004575092,0.0007690042,-0.0038156346,0.0004169402,-0.0061288959,-0.0015363727,0.0021259201,-0.0025922451,0.0028504585,-0.0031384363,-0.0012636751,-0.0079373139,-0.0078035981,-0.0011753778,-0.0047408808,-0.0073842247,0.0084865638,0.0028323594,0.0022388401,-0.007106631,0.0026610428,-0.0013498922,-0.0026886413,0.0038595283,0.004002371,-0.0014188318,-0.0062192655,-0.0033228696,-0.0009229726,0.0041512265,0.0051575683,-0.0096264836,0.0002965689,0.011067005,-0.0014183497,0.0113185061,0.0027799281,0.0118749587,0.0025850477,0.0006348604,-0.0024443353,-0.0137563904,0.0056912535,0.0019853432,0.0033489726,0.0064360677,-0.0065677487,-0.0091877143,-0.0063608574,-0.0015203846,-0.0013065305,-0.000421669,0.0146160134,-0.0019209552,-0.0108508335,0.0059147977,0.0002123117,0.0018762268,-0.0015910895,0.0078265513,-0.0016445295,-0.0013343205,0.0010014502,-0.0012078823,0.0075098056,0.0024808111,0.002850022,-0.0075307983,-0.0036696441,0.1390109731,-0.0029947129,-0.0073717294,-0.0050621753,-0.0052508342,0.0017718733,0.0051537601,-0.0022907392,-0.0008952945,-0.0071733889,-0.010495611,0.0080329684,-0.002729367,0.0001768623,0.0015887733,-0.0012232732,-0.0042266728,-0.0060329632,-0.0081851134,-0.0048255602,0.0007694261,-0.0019827215,0.00641946,-0.0055630862,-0.0038092639,0.0020549154,-0.0049346245,-0.0078428711,0.0034785341,-0.0126597647,0.01718379,-0.0070398377,0.0124228422,-0.0047065201,-0.0029844862,-0.0060264364,0.3271261292,0.0010580105,0.0030614462,0.0006329414,0.0012119667,0.0074231015,-0.0008907317,-0.0072632785,-0.0088320298,-0.0033647105,0.0044738372,-0.004128576,-0.0041997936,0.0010552935,0.0029484829,-0.0102920171,-0.0012521271,-0.0091879843,0.0052089719,-0.0004571001,0.0054854112,0.0042921815,-0.0041262231,-0.0136314502,0.0093255366,-0.0127448337,0.0046663979,0.00000281,-0.0040191317,-0.0039657529,-0.0079172407,-0.0086567017,-0.0019018347,0.0073168884,0.0005911207,0.0091785314,0.1056534205,0.008934959,0.0021179641,0.0068099333,0.003510878,0.000353141,0.0013857485,0.0024114564,0.0006630304,0.0003345245,-0.0034223829,-0.0066109619,-0.0055406913,0.0031032164,0.0071730526,0.0013221721,-0.0038544156,-0.0049654356,-0.0102494307,-0.0091630627,-0.0037444588,-0.0086718752,-0.003114616,-0.000139137,-0.0100480564,-0.0029534882,0.000691317,-0.0036170817,-0.002540639,-0.0009345622,0.0037061291,0.0000097785,0.0064154121,-0.0015766937,0.0012396735,-0.0082042338,0.2258574016,-0.0068107605,0.0015538038,-0.0070119197,0.0057741234,0.003234432,0.0033297869,0.0023616266,-0.0035582548,-0.0036374473,0.0030544175,-0.0060148028,-0.0059871227,0.004154196,-0.0076295869,-0.0025273273,0.0034317565,0.0016046689,0.000121491,0.0046349494,-0.0073083839,0.0090188915,0.0038771273,-0.0071534848,-0.0026390284,0.0029516224,-0.0047103219,-0.0014624067,0.0006935695,-0.0072093636,-0.0069322222,0.0042621338,0.0043403746,-0.0077361508,-0.0029058332,-0.0001552932,0.1167447504,0.0000006937,-0.0000013252,0.0000021023,0.0000006891,-0.0000021481,-0.0000018115,0.0000025071,-0.0000018444,0.0000019656,0.0000006325,0.0000024595,-0.0000024785,0.0000018115,-0.0000006166,0.0000003317,0.0000005815,0.0000020073,-0.0000011416,0.0000012929,0.0000016132,-0.0000006862,-0.0000027999,0.0000002806,0.0000011201,-0.0000015542,0.0000003213,0.0000016024,-0.0000017649,-0.0000001714,0.000000495,-0.000000632,-0.0000008777,0.0000010178,-0.0000019418,0.0000019067,-0.0000888578,0.0011593442,0.0094258987,-0.0017320423,-0.0037403052,0.0031995146,-0.0022347137,0.0032024136,-0.0022103763,-0.0016370894,0.0032420979,0.0079992106,0.0051881026,-0.0020406853,-0.0002053881,0.0033004577,0.0054442321,-0.0015621185,0.0031230872,-0.005898108,0.0045573218,0.0011601735,-0.0020996559,-0.0001229939,-0.0083841274,0.0004632026,0.0092150471,0.0060438175,-0.000690786,0.0093846462,-0.0037573433,-0.0084928916,0.0028514776,0.0035785524,-0.0054440838,0.0040817676,0.0707504569,-0.0031534177,-0.0015577473,-0.0082838671,-0.0049805119,-0.0041788232,0.0012859369,0.0004078458,-0.0009478773,-0.0029124167,0.0016511055,0.0002345255,-0.0004521871,0.0069517913,0.0044088132,-0.0017764255,0.0036203519,0.0080504631,0.0025320677,0.0046422948,0.007459939,-0.0081941635,-0.0027906825,-0.0064934855,-0.0003209976,0.0033822667,-0.0062916696,-0.0003709467,0.0013094748,-0.0094305719,-0.0020422234,0.0070795551,-0.0016085618,-0.0018015324,0.010801275,-0.0063968978,0.1314638581,0.0072360734,0.007004245,0.0027311642,0.0037201578,-0.008889212,-0.004952724,-0.0125214512,-0.0038796277,0.0038197841,-0.0079019366,0.0004837449,-0.0075386274,0.0031379229,-0.0068028841,0.0090376049,0.0028069141,-0.0011644237,0.0006251777,-0.0024786149,0.0146304224,-0.005294711,0.0073212277,-0.0010744035,-0.0011454752,-0.0008016097,0.0130185623,-0.0014052407,-0.0047281397,0.0028348021,-0.0085754077,-0.0085402005,0.0000622042,0.0038010916,-0.0117844291,-0.0011801259,0.0909890532,-0.0009601069,0.0055069323,0.0015909531,-0.003632264,0.0000550783,-0.0067709301,-0.0058200216,0.0041305786,-0.0008811915,-0.0072966944,0.0064216633,0.0027619414,-0.0054129003,0.0021074686,0.0033924326,-0.0007026439,-0.0052877644,0.0076921462,0.012537826,-0.0150259434,0.0050264168,-0.000921996,0.0016884046,-0.0007537203,0.0076994166,-0.0081831877,-0.0001607441,0.0035928951,0.0012368513,0.0068122881,-0.0027151067,0.0020628474,0.0045878992,0.0015895026,-0.0005917692,0.1978101524,0.0043902848,-0.0019841156,0.0031672095,-0.0038119027,-0.0012717836,-0.0043865691,0.000470207,-0.001904357,-0.0019275207,0.0046997019,-0.000830077,-0.0021162918,-0.0026923048,-0.0013155806,-0.0002018055,-0.0024066837,-0.0000828738,-0.0029390429,-0.0042824339,-0.0006398001,-0.0003661519,-0.0009552574,-0.0016460599,-0.0050854842,-0.0022267723,0.0058522333,0.0003106059,0.0026686359,-0.0012042519,0.0045274734,-0.0019491986,0.0074165967,-0.0012166885,0.0007861856,-0.0092326995,0.0685618498,-0.0003244092,0.0084043498,0.0000173059,0.0098491824,0.0011546474,0.0017128418,0.0010204262,0.0090697292,0.0086094978,-0.0028612515,-0.0054318585,-0.001337458,0.0048116968,0.0057199469,-0.0016895573,-0.0018984423,-0.0029515686,-0.0023303225,-0.01179312,-0.0054375787,-0.004255155,0.0013929654,0.0044564403,-0.0020222851,-0.0047229014,-0.0004106752,-0.0010792012,-0.0014758383,0.0035166074,-0.0009601391,0.005351383,-0.0042234969,0.001628453,0.0071309352,-0.0026994587,0.2101983569,-0.001776425,0.0037425423,-0.002707946,-0.0076759052,0.0013405498,-0.004662426,0.0036992134,0.0062488844,-0.0006056066,-0.0037891971,-0.0013157662,-0.0040910717,-0.0015919222,-0.0011912182,-0.0027909723,0.0059931314,-0.0019765721,0.000575849,0.0009009168,-0.0054889501,-0.0080077414,0.004012505,0.0037355022,0.0100465519,0.0071766626,0.0001952815,-0.0037939722,0.0019633806,0.0002373005,0.0057061054,-0.0036008423,-0.0015822298,-0.0009141415,0.0041850701,0.0084914654,0.0837502893,0.0006487247,-0.0010057801,0.0033790357,0.0026909558,-0.0013224186,0.0009643376,-0.0057745811,-0.005331331,-0.0038048067,0.0051503068,0.0018812968,0.0036263427,0.0018208012,0.000859419,-0.0049032085,0.0017035538,0.0022123661,-0.0013493245,0.0000527879,-0.0023003337,0.0000426334,0.0021797662,0.0045417303,0.0048917934,-0.0004930304,-0.0004005921,0.00320605,-0.0019639647,0.0027856565,0.0015031382,0.0030318125,-0.001912681,-0.0030010936,0.0010172968,0.0011357602,0.036259307,0.00081001,0.0016987799,0.004760293,-0.0088260222,0.0061165674,0.0064970274,-0.0127258023,0.0131706453,-0.0025239191,-0.0161011492,0.0005335779,-0.0053493033,-0.0002928376,0.0065964924,0.0062196654,0.0035204132,-0.0101967571,-0.0025852686,0.0088790787,-0.0092537861,-0.0014158638,-0.0074410284,0.0040011056,0.0022173541,-0.0022745922,-0.0086707286,0.0056451991,0.0070053038,0.0029131305,0.0003805444,0.0001996597,0.0031187845,-0.0003034108,-0.0007589465,-0.000094087,0.3064551179,0.0030713379,-0.0043615944,-0.0005999557,0.0079576369,-0.0027501345,0.0023279416,0.0046474374,-0.0009565492,0.0017899026,0.0031533792,-0.0011820357,0.0087464376,-0.0002304874,-0.0097874868,-0.0027200466,-0.0029980768,-0.0031556684,-0.0004342451,0.0050365863,0.0011382789,-0.014155071,0.0005879822,0.0003627165,-0.0017734639,-0.0050643152,0.004704828,0.0064833102,0.0031294693,-0.0034274376,-0.0000669814,-0.0048030373,-0.00547077,0.0110808098,-0.0043897323,0.0089123956,-0.0060315339,0.0040535815,0.0005577135,-0.0070126836,-0.0017452403,0.0178208594,-0.003831651,0.0045238865,-0.0070213987,0.0045624634,0.0010831132,-0.0003106834,-0.0023393591,-0.0059913706,-0.0057771618,-0.0050945812,0.0097120997,0.0031717063,-0.0007581482,-0.0034421338,0.0023395243,0.0018934039,-0.0006772774,0.005746129,0.0049769014,-0.0008109183,-0.001129553,0.0001514389,-0.0165590138,-0.0084955389,-0.0048193356,-0.0023980635,-0.0016772856,0.0006953264,-0.0025590487,0.0002841372,0.1415803183,-0.0058817257,0.0024986035,-0.0024007211,-0.0000919649,0.0021532444,-0.0007918478,-0.0035001117,0.008584806,-0.0032150899,0.001214045,-0.0101098689,-0.0027464113,0.0029968592,0.0059161374,0.0006980464,0.0002462462,0.0044291889,-0.0033828682,-0.0041909587,-0.0002450361,-0.0049362782,-0.0001860767,-0.0040855556,-0.0010818491,0.0036170033,-0.0002752728,0.0042565869,-0.0058286219,-0.0015903738,-0.0053427238,0.008412905,0.0003050842,0.0041845973,-0.0016892376,-0.0044846333,0.1067155324,0.0025194358,0.0031847775,-0.0072277758,0.0015843223,-0.0023430266,-0.0074202325,0.0025735914,0.0041564333,-0.0024289335,0.0023415157,-0.0034875042,-0.0037651076,0.0053376899,0.0062837172,0.0019464041,0.0031195486,0.007778337,-0.000312741,-0.0018520155,0.0039182785,-0.0002086889,0.004434896,-0.0046882633,0.0008147774,0.0067637769,0.0016990545,0.002801572,0.0000651289,0.0025290482,-0.0035151129,0.0005504942,0.0077583553,0.0058429493,-0.0050234701,-0.0023430451,0.0071936846,0.0024461229,-0.0044386797,0.0009283147,-0.0014029885,-0.0115072417,-0.0000301234,0.0049118728,0.0107973195,0.003846687,-0.0008130654,-0.0035506803,0.0012657904,-0.00669149,-0.0036448116,0.005497458,0.0032970854,0.0016502136,0.0032379283,0.007474946,0.0074520228,0.0032998745,-0.0042282762,-0.0038503785,0.0048887438,-0.0158218184,0.0061234664,-0.0007318268,-0.0032992174,0.0111577784,0.005935859,-0.002213423,-0.005985357,-0.008844963,-0.0012920175,0.005310164,-0.0535995036,0.0042172442,-0.0016319942,0.007410751,0.0078179068,0.0067728623,-0.0060335568,0.0009587768,-0.007175946,-0.0006798144,0.0002087805,0.0054639566,0.0006562901,0.0020181638,0.0046714514,0.0099496984,-0.0030442501,-0.0055294653,-0.0038880432,0.0092789205,-0.0052182412,0.0040691447,-0.0002586402,-0.0048291679,-0.0052967865,0.0094324604,-0.01690098,-0.005263076,0.0016419172,0.0006736088,0.0011471942,0.0027279374,-0.0029927758,-0.0081302787,-0.0062817994,-0.0059279176,0.0914416715,10454.4327944733,2.6183791223,-18470.1355549425,-583.810931132,7529.9251459191,-4315.0831053524,-11132.5186129499,-803.4666712494,6104.8588504398,0.0238591166,0.9419546367,-0.4740793713,9.6248578286,2278.8749945954,0.7042055411,0.5459469558,1.4132880354,22846.6792959105,6105.9326134204,-3224.2682137228,-94.8752966901,20592.5359669294,-342.1504598662,-5151.8878296772,-4325.9437661974,-6238.694468857,-44.4149199257,-4275.1081890512,2501.2048638994,651.3345714728,2.4844833527,-40625.8030213615,1.1249326075,3949.7131163169,-0.3388501193,14566.3652492898,-11538.3184233001,-3719.8211980612,0.553770396,36887.1027281291,-3521.7526231671,-0.3611394762,2725.4277009941,-1.0823602816,-0.2368466344,6598.0385496765,-2.3547875941,0.64061666,-1300.1504737672,-0.7608072585,1.2401670907,68.3134879196,13.6752105286,3304.5077525959,-3907.9965361807,9601.5374264823,15385.1222549649,-8969.7165542171,-3888.3616778465,11959.9827636711,-2974.7709833072,2476.954143833,7692.0519640151,-4689.2963551394,-2.7607615188,8322.2436142158,-729.7241056637,2275.0222482427,-4992.2867483506,3011.2481561648,-8173.22085054,-0.2548286844,3193.7509778533,-3303.4364674073,-419.7082472816,-4918.7041253416,9093.1780448857,1868.1243620207,-12627.6781051218,-10.6063200703,7599.251037083,-4498.6740999203,598.3387745618,-4023.0711106451,2348.1360417567,-16510.7095168501,21.8561675489,-3924.7012598135,4.3617151926,-502.1029983034,-0.3436056025,-15464.751182746,5.8251388181,-8574.8765095217,-84602.1869088886,-5991.971493778,0.6125513819,-0.9134560059,192.6077394325,0.6761367247,1856.3346219651,-0.4620954113,11704.037567027,812.3792403284,-84602.5940548312,-1.9505614964,2717.9389257153,42058.088744365,-53945.2197421839,5123.4968986328,-3154.9228734139,-23300.6994333002,-51369.8693381159,1471.9089206774,0.5139203023,1546.9243250659,-0.4967714784,-4583.0015989871,972.249710984,97189.1364165812,0.0964388628,2257.9483225817,-3.2030675634,-15348.6292352317,-11858.2574073171,-2981.323781129,-6270.0527881405,1.0180373951,-8703.4664724404,12837.714289791,-1663.660637474,13830.4172434236,5853.2500403946,-890.225778609,-39881.982267231,23072.5686135145,0.5392231779,6327.3966786274,-5694.745102047,16251.6783834299,-2615.077579886,-5815.3929367886,-368.9308653708,-4627.4748033686,5237.7235632064,-8990.4274046667,-911.2230080374,12864.5937603263,-6837.714112084,4582.3851545579,2065.7936583071,-9554.5253657153,1171.6813393317,-1163.8057407847,-6794.2936066827,3446.1378139901,3.7165722953,9784.0803359226,-11385.7254800994,-76.0313571735,-11727.7007163613,-4633.2702973781,-9562.4771040453,-511.2695406212,5402.2317767603,-2.6828076453,-10677.3471715538,4038.8580868154,11144.3453463255,-10669.5853904039,7061.9149018891,2071.3087930007,-1165.9037977136,-4597.0373361076,-32044.7919820029,-11415.1159523819,-1654.756288561,1869.2481000581,-395.5669825809,-18229.2832830634,18.4846507351,-0.0775448995,0.3939230221,-1.4292420378,0.9520488777,15822.0885797138,-1.3972306499,0.4536811288,8355.5258567952,-0.3239155454,19.705582949,17979.2897313582,-75881.148966528,20831.2853303161,-1371.1134540068,2258.747253625,-28666.899279827,-982.8266234068,61117.6537095812,10224.4807810942,-4.2533701525,-0.5357005741,0.4657848313,-4852.6542802597,-0.6161866323,-2183.5594644608,-0.1541057666,17587.0320244649,561.9605711469,12743.300155937,-0.1576108794,937.4686471607,0.6903912134,0.8719049807,-67996.4389474617,0.5151550902,571.2384359583,759.2067105177,3.5605475284,577.262149659,-5.3739429091,1639.6975777963,-0.4134265218,-4686.2969542739,5727.2195636748,-9545.1219386017,7175.5080818654,-10161.2446090973,8881.2783125053,5925.0454220449,1665.9068146381,-581.9498648801,-0.7498166588,9254.0840768783,-7486.4709355114,-1749.7333028914,39.3789151116,-11217.9012698837,-5055.8397300298,2922.9692570676,-18634.5198396985,886.1077191012,-767.2274947246,-3142.1796954477,2996.9194997879,6280.589214155,7522.648562791,136.3536031995
   -214.3779840914,1558.4314323866,2513.4814529879,6283.1287517054,1035.0214472952,-5593.6843562199,6805.2863436591,6559.3035272607,25241.9928525901,-3597.722863735,462.8222316995,1192.4508128848,-5371.7740002792,0.1146746198,-66289.3549126239,21.4098036418,10935.271115198,2.318363855,14538.1220235631,1106.5568178919,0.8121911613,0.2747947097,-8319.8813666441,4937.0451224341,16.7939134982,-0.7497235821,0.1951065757,-2080.3337606928,14538.0090400978,-24842.6211296327,950.0349659857,2081.2634219012,-1.1578569741,-0.2027818436,299.8988158033,10663.4879229039,-460.2446651263,-2520.0623980613,3603.1946995424,-1.3032774718,0.0578123594,2047.717079701,1723.7672574484,11.0179894655,0.6501432083,7651.3560002266,-181.4584040085,-6523.2109403639,213.307597521,-0.928608281,15125.2062839586,-0.5992598132,41827.3512021797,0.0118910218,-11.2815836341,-1213.8466476805,-9810.6013644751,-30857.1765325538,-0.813060343,0.7584432105,-0.4821662811,-2612.1460001386,-5989.8862095525,-3595.4204764907,4562.9775937342,-1690.4089128947,-708.5127382796,-9609.2244331597,-878.1495521093,793.4738895398,6754.1501176125,-13259.0263447707,5672.9758023913,1855.757695225,3471.8607789623,12583.4925814262,11196.978408439,136.3320012821,-674.0839893851,-9045.3395685422,1071.613703181,1021.9831363569,-3001.1693899337,81.478468871,12615.1797911379,0.1868418738,-2144.8657493187,-10363.0008876868,-3859.2854603827,2601.5387687943,-4224.9739769954,128.5482220019,-1.8681833358,4419.4192468451,-7.4459002409,-6126.903025874,17183.3953940552,-3.821669923,-2280.4089061973,10906.537039813,1904.2085615134,1691.4028047903,1296.0001510184,1300.5179718718,-1.7714435293,237.7714567225,-0.1501788235,4.8479502248,6903.4385027098,12337.0396717774,14.6999794348,0.4257798963,-0.3236031901,-8.4349415765,-1.2166475997,-20946.7344265789,-0.7906846077,1804.9655938553,5557.762047481,-0.2651539047,-1473.1229936278,20651.053468096,5.9131969989,1.4283272859,-1812.0970336024,-1.2609496659,2130.9540628917,1292.6834426648,-52229.3124054998,13183.0449821796,0.4629199038,-8644.8490898982,11651.0455735004,-3.0160524675,0.6956716289,-20001.8038198966,-5674.8595723763,-25936.9597353399,4532.0060605547,-27964.7936414299,-15316.9048366613,-0.2664218804,-12255.1500385129,6449.9237905047,-18367.1321999817,4.6878935255,-0.5951873993,-9.3885638693,1.3691660146,-17020.6528383254,6197.263645471,-4630.5853272376,4.7752726621,-0.5582527768,2468.1317669207,-3.7215520255,676.4941408809,2349.4972571578,-293.9519427271,20.0770062904,-3992.2917007636,-769.0070650028,-9835.0188149902,1.1535844104,2311.2957646566,-1671.8893575562,3.6045042294,-5917.2146551275,-12362.769275729,1468.5143692411,1.0495688843,5922.9283074509,11552.7757582638,7436.1120276094,259.1676070292,-9029.6871762558,-2561.325075208,-15500.3717806154,-5927.411529498,0.3072338131,-0.4948228123,1069.9087961163,7242.6272310826,25.0730356502,129.5780062985,-5203.1236735015,0.5835584356,1502.3324698238,-13012.839874361,-8787.0118726078,33131.0633828021,8947.062678316,0.4098317814,-14828.1350231038,8584.8997179876,-18415.5648071196,-6187.691044434,-0.10006358,-11979.1159434083,0.864117289,33130.5478599005,2630.2278521061,-1823.6162540888,-54571.265581634,25036.4668386524,-0.3874253947,-28185.685148624,7910.1986388885,-2167.7131508266,-4972.896763315,7443.7252297558,0.2831602603,8222.7075203282,17495.430172266,-107.4058477821,5891.9186472717,-0.7291488368,5343.9589040227,-15.1500597276,-2634.722017724,32523.2184963332,24003.5623665047,-1837.825814909,-10983.7498826502,-8265.6809422111,-1924.205725602,-49.0165649322,14836.3998097187,85.2615322647,-17863.8104012271,-10270.1138055416,-914.4731785318,-0.4855406179,1646.1205967514,-10307.8072313793,-2451.9966328068,-8853.8375701793,12108.5663365909,-10237.5093718888,2064.0838448995,-6959.2299588661,-1382.7910202315,-7056.1467794207,-4344.0281534477,-1117.6348583247,-4351.313217782,-174.5722306373,802.3480428574,12400.4146784302,1.2232083078,8267.951562915,-34.6592209787,-5602.7473426397,4857.7263522329,0.2951327163,3656.1199859219,6387.5066480842,-21809.1587536457,-6293.534962571,5196.9533402799,3952.5177033652,-3412.5958574401,1.4239075457,8804.5550810004,11709.0351282789,-5239.682782902,7413.6125655364,3124.1433176263,1080.1324868885,4647.8647694825,-0.8349727396,-1.0978938397,-0.6148045489,0.426568589,-2.1936786447,33149.8035464788,19229.86060492,42999.7310886657,-0.5315503886,-13145.6763657002,-1886.8938905281,-1222.4519639613,-357.5717324433,-0.7309561097,16.2624106317,-0.4945606612,19228.7100227676,0.0399725676,2512.8085126577,-481.6164856646,-0.2220903642,-4037.542445426,9364.6157672005,3339.6688617612,-28852.1314673532,0.494339728,-1.2817332316,-49.4680937327,0.14703799,2897.8608123463,1.0093696269,-16422.6891456616,0.8272053264,-1967.868754799,-0.144093398,623.4897555881,3198.1840743034,40208.0764422033,-3949.705998796,-1559.5596518683,27305.999630093,-2131.7440825056,33.769217233,0.6456695903,-17.6211644998,-2.139354649,-0.9422179719,17402.7407798043,1.5904225414,-2283.8166393313,88.1768549645,-523.4642192539,4365.7881687561,10232.8493166028,0.4781394909,2487.7027216043,250.914322887,-4869.7941761094,4094.9310506153,10382.429580623,-6522.9657751601,-360.4600237626,2601.1922395547,-4019.6792895499,8186.8648835403,-249.7196433574,1471.15916714,10324.6920243987,-10.6655765611,4773.9590801023,-5548.5076298109,1582.9611802729,-4394.615557645,-14.7234659017,-7997.3830499509,-879.9010608425,-2250.5734266192,-1372.51636747,3812.1832282499,5098.6436066069,10396.8680503071,4309.5791586089,3955.601830827,-4256.4163520059,-26823.4259868373,-6967.3535909981,10984.0637510656,-2774.3563420698,7.4880744815,5726.5506968575,2649.1233501845,-5186.2500337846,0.2270762584,-1845.840938676,-0.0989437443,-4016.788939227,260.7746082611,5184.4476681802,5493.560349774,0.9929800205,-12835.3063542929,-553.7519204598,0.6170714472,523.9771925406,-2686.2981372367,0.6982097251,65156.0795099068,1.4352737012,2950.9389038954,-5238.7306213167,3269.3522631339,-0.9073647681,10589.7098688621,25.2263560767,3580.1564894398,0.7636104855,-3323.931144465,3676.846298957,0.2897151201,-424.1893239159,0.1390705048,-22814.6133128141,-2328.6837921277,1646.4698451583,-3.2214898486,-47725.8678905395,-47665.3657238694,0.4165699271,1493.3606105803,7771.1632341841,-0.7687270287,9404.6055032787,601.732578788,-10895.2918040109,0.5385417749,-10406.7425643904,-15742.0504867196,9635.303335014,-8038.4876477147,96.237819765,-1409.6532836313,5279.4551921389,13023.3113462341,-164.3270193375,-4390.9710445921,711.8569165218,-6209.1019938439,-2374.9996572636,-2316.6326314153,-1287.7592615019,-935.6856171569,10460.5316020983,12476.2107848491,-3434.7301675406,317.6711980931,-10510.7489038396,-3688.0045966241,4943.9239035182,-372.3954795863,1.6874853291,-1686.9184330614,11997.4214852412,-3627.2432687007,2522.6711299985,379.6157679684,-15246.0029780373,6139.0055648874,-16.2189325114,-3820.9267581046,-5143.625628972,-0.0103535889,-4314.3773541971,-4026.6644043409,-32826.0359922,9854.7527107473,-2167.9370033621,13276.1570047325,560.3126280713,0.2210908906,5521.5062895948,0.8394222714,-16665.1185655774,-5826.1550522585,2436.2329938132,-128.2133012239,-0.4179170006,1567.5858020228,45986.0108838281,-0.1163377302,504.9197678621,-0.1760271449,47458.5463247324,-2027.8783200032,-79.5788412623,10436.9441650071,52470.8252233188,51824.9984637288,-2.2977631128,0.1476001204,3504.0907997962,0.7622202303,2133.7441701478,-415.6347587392,-0.3560703001,0.6667587136,1124.3904703561,-6814.4116286042,-510.4845712169,250.4807874924,37228.141316585,484.7755601085,-3.0649466617,41845.4460064831,-400.3651488626,5528.7542754957,-514.9817972173,14507.246085174,-16723.7660793702,3.3478674492,1546.9166936384,-0.4697244817,-4639.682414949,4887.0442475901,82.1107029719,-3136.854139915,-731.3334837628,-7046.2651969438,1682.1893180176,166.0259391254,0.5575136366,-3445.298026489,970.7906900665,4631.271772996,6039.0648815575,777.0792605153,7523.3007116578,-197.4507980693,877.4507810027,-932.9101303034,-15861.1095029597,609.0465746855,-6916.4319575775,-424.9400344033,-2180.0064722077,-806.5066863928,-3326.2851141382,8116.3181893415,9413.0950373885,-10824.0220153497,306.5244076977,-1208.5203298498,4740.6394988995,-6353.8624475056,-1591.288665295,-3487.7707178865,-4491.3679799017,-3046.1515293972,-1.4506451122,307.7449076084,63224.5949995224,-6227.5136898808,0.5091803525,0.1632698509,33089.5145834868,3053.6539847908,-0.410090382,0.2199931055,1167.8272333773,-20883.869302786,15369.2011159093,-15267.4560855887,-0.3182604546,-18.9113769532,0.0710385444,3053.5737198955,20492.1679168253,7135.5444319549,-42458.606565096,-20996.5879050033,0.1240046772,-1.3974274544,-1507.9476786605,-3040.9233859852,1328.4560628404,-3476.0758183907,-535.3486185571,0.0154626374,572.7336385597,174.3023551806,35.6217031866,0.5734900699,-11391.7252981597,6814.7751160623,21436.3583285893,7359.7527507844,-74.3325291185,-265.5284537322,6347.9626480366,2847.3491370268,41008.5910531738,-56.7085227273,-7591.9177976552,-11457.6237071715,-17775.4328966117,29900.8484009505,-0.434823855,14.8068926057,-527.6134856821,6221.7635752451,-0.0414412825,1535.9663673516,388.8428829602,-1700.3849810362,4090.5149472172,-3223.9879710364,5219.3351214603,-3982.611209694,33.1791910396,3540.4828115971,3894.3507165887,5662.8160612001,-16.522260726,-9267.7227464017,0.7036627101,-3717.4227433712,138.58851852,110.2837987247,3185.1711445488,-5314.5845910799,-4685.909644395,-18148.2188675706,2273.4083126592,-2578.6358838242,-3142.1229271587,-1624.1494428116,-105.5822017932,131.9320747838,4160.0567777655,6926.1287131667,2005.7750217677,2255.6511010328,-1581.119628967,-8342.6875709877,2.6318387946,5742.9531402322,2376.4699577534,-0.34937564,-76.4605855794,58003.2361207876,-7338.5743217102,11.106320488,3.891669712,0.1993073981,67928.78377092,-2965.1986706977,0.6017813752,0.0163627605,-0.1333198175,-2.5544287572,1.1392831785,10.5181465782,-44751.1432509129,0.5443242517,-0.9581297128,12.934928552,0.6150720075,-0.0795007874,12330.7816937113,69308.0044367604,0.8210514276,-1500.846324743,-10296.8346704612,-1202.1141379745,9636.2416858816,-0.4309256275,-33833.3658771323,-0.6204590162,22876.416634462,3.6953029671,36174.0970844323,14.1526531789,-9724.7813143905,17838.981065953,75429.568932772,7114.9637933577,-0.2513515148,-682.3390879303,-1.4953330041,0.456121012,68324.3335150124,-8162.6560458194,2491.0418727655,1711.3394728535,6327.697314824,5630.437560163,6679.507075834,-3843.2884923954,15478.4258968059,-10804.9930516024,-3619.8980467897,10759.2108542251,-11.3711910722,-10192.6559819807,-4796.1053581395,2973.657535735,-12259.9804834557,4.8704031314,-0.7070734423,18047.650633778,13682.3463656257,-665.7461214087,-12831.339868509,-2463.5930048532,7154.7385193876,-4814.2499532048,-10741.5485288903,21200.1369879997,-10226.7351879288,-4006.784158844,-2651.9599083269,-4181.242927912,-8911.3467513786,-11845.3627889667,2314.0785322487,17795.6721645787,-3865.3719563947,11008.1206953602,6150.500399414,-9299.1726593162,-28938.3076887956,-0.0215115557,-23628.909770449,-0.3672803221,-10438.9721241968,-3564.9123002547,-1469.63133012,7435.3454909771,-11.4468063713,-0.4126915928,2857.1405517825,-10345.0121069989,-3.3446473885,-2.0622797181,-0.1503348428,-7104.2458977446,-0.2373087979,7436.5897660769,-0.2383646644,-42292.9234106274,-0.94003896,1.1643629456,5405.4572803034,1984.4432919576,-1329.5740496826,470.1722888596,-4896.3509295669,0.7389554489,382.4565660074,-0.6548423855,20358.0418889405,-0.5218254444,-27508.9688940378,0.7549212311,-8122.8885976214,-66499.3718761044,994.0851200189,3220.5164760051,0.3506889256,-154.4166499485,72354.2767270214,299.8300521886,0.5709044057,0.2043023645,3929.8823833282,-7244.0380136046,-4058.6700181017,1500.0220231592,19.6999956023,-0.2721530897,8174.7787843266,-11368.3508255139,13328.3307441375,6430.9948841755,6291.1329782848,-3763.6515527214,-99.6763771622,8479.2647726847,3764.3557115416,1085.6058315531,-7094.0130131042,-5469.4182630147,1318.2487065651,10969.0967784025,-6351.228906815,4157.2187892181,-0.0238222018,4626.2588116518,-6767.4943765609,-6507.2863428291,-8350.1484089276,-2.122369856,-1900.5308475741,-7078.3286936776,1325.3989333155,5806.1783048621,-3044.2474424866,1687.4255107098,-4973.8450710163,-3753.1601724018,-0.0069080451,0.6644242738,-728.800138184,-232.2886120246,14402.6058850321,3970.9003385174,13033.0055203953,88903.8785481546,18199.9651884622,-0.3814258888,-867.9525930999,-34967.907369463,-6812.2070099606,3220.7931111035,18483.0785343594,-0.3879411643,0.4247611034,-1175.1264313386,-10221.5409538777,3436.1115336158,0.4740053697,-0.0525831972,-7788.315537345,3220.9376342556,-2875.2036595441,-13866.1181279467,-79857.968031555,-30940.1492886159,1875.2485292879,-11404.0112572832,0.0538577509,1.9321872781,-5985.6347274214,0.6625312203,-1122.1417905571,-9307.7755167823,-1.3549143065,601.7342573012,-2029.2090571143,-0.4652316008,38315.3761294204,-75.8032933215,0.2124891316,1.9897197508,6723.3635862892,252.6105616453,41863.5928565613,-3430.2166675838,-0.3243305559,1.7244597669,440.2164034607,-4123.234484828,-1217.7978364378,0.5444763874,-17378.4405559275,-1.9175787817,11419.748613866,-15049.194370335,8120.1970002894,4716.2934384546,-15148.0133116236,-4859.4177908666,-106.5508901789,12670.4046380601,555.4152170404,6719.5496027607,-6451.4970394816,8742.0278676658,17.1961212413,14017.5396302676,-4953.2618926125,2391.5742084365,6820.4447718926,-10414.0988763218,1708.4915379156,-3632.3417406693,22093.6510428032,322.2231073476,-1096.9404479084,-5236.9863127054,1159.9443320924,5233.8988470378,-6702.1090082277,939.8651251176,-953.8216309857,-14.1123751227,-9846.5701094216,-1243.9029326083,-15077.0963972364,164.627888155,4244.2361934691,219.4551867324,22582.7941389916,1626.3476701734,9765.1540339982,6500.5019149875,5379.1096475937,-3.5470599649,-95814.8677058319,-1090.0022865421,-38695.6125482506,-0.081514191,0.5258901816,239.2095752202,-44.2261829409,26265.438597945,-0.7559314288,6.5800244728,9542.3585444316,-1090.8877061874,0.9577548982,-1908.3846330871,511.7280924741,-2.8503824363,1297.2413670185,-31.5471029234,-6585.2331998535,6965.1773063992,4177.1063018172,6526.409219784,-3.3850825741,-0.3739813911,-0.1489071003,-3.9696336848,-6986.2502088763,0.3213608851,8784.1493110874,0.0570220077,-936.1433920876,-0.6176784722,12450.1647125533,-58174.1145647866,-12.8079877054,-37729.582335925,1194.7287534161,28.8025092664,1.8895199671,-55796.9542780914,-6701.3251455808,13.3002145348,-0.1941708618,-1.3518356712,386.9434334203,-7265.9550969514,103.0615858524,-7537.8701420688,13753.5792832817,-5.5258553273,-4588.9815325929,-0.6516089328,-0.830890828,-7886.5187701337,-8417.5374448552,6749.906010412,-388.6740082668,29.0666185192,2516.4346783828,-3653.4423154484,-5107.9840464914,4324.272501325,1745.743834215,1257.5057044398,6573.2374560738,-2639.9490221678,-8.3731300168,-6501.8959668882,2002.5581611391,-4702.5399236921,12623.7499699403,-10059.5997340936,18049.6852338647,4439.3549413162,-2061.7725864503,1371.9474030671,3127.1730645424,-396.1267059215,-1769.9935908286,-3024.5374911984,0.5585017209,-5975.6833013465,2771.1571276955,-23850.8249368783,182.9981370541,-3123.1773654238,-36111.6784898385,35595.1342783311,-1167.188522837,-0.8574763753,-4584.816459933,376.8039588648,12513.3837638058,631.5100466142,-0.5403230295,-0.0137707719,24308.8875899994,35596.1449483708,-108.9612957397,4883.2031665465,-189.8674142141,6244.6087461284,637.5175899853,-295.2978190804,-1077.0133008581,40760.3424743212,0.5003793502,-4325.8981938849,-9500.4582830881,22.2076340586,2385.5872381629,-1028.2927525759,-25629.9770003433,0.7684457089,3904.8694189607,0.4097272524,3097.4844974822,-1109.4536103092,-14240.2860014209,-1.3935164935,-3245.08672214,-11.048800022,1.4115662601,151.7743175238,44036.4679523913,-7835.8087376017,38203.6562220224,4906.2614770788,7639.3090145212,0.3442915636,5464.2355517211,-2943.0321543494,-2668.4456891151,-5730.4601118228,2425.4764425941,824.8132948776,-935.9043005768,-5158.2696348958,8575.4634970015,3762.2923657814,-2480.1115201081,4326.537004538,7630.1762059046,-20211.4580314039,11704.9752556128,9329.7232431349,-487.9898202357,-1277.7572359914,77.2259072096,4663.5779943051,-36.5799448145,14297.7642915881,6748.9349409858,-12855.2191316923,-2.1896111604,-511.1030651563,10120.5753503597,-8.6422789475,-11079.1788557538,14.6080969099,-3395.6453580093,2234.4575714859,2439.8455651329,2753.8985779742,-2932.9346951271,-97.3899188571,-8.6151231572,0.789338944,-58.0272426792,0.8624306281,-11659.2650250789,-10070.5705286711,-0.902441498,0.6034545155,-0.2434899499,-0.9772477144,1.6671183985,-0.538130228,-0.5396592134,2198.2218618614,0.0564618209,2744.5961562881,-7373.5926993375,0.6590269392,-6.2271394418,21739.605988714,-1.2481592691,68522.4493686016,0.162467508,1.7155894136,11892.6045792049,15768.1028427871,-0.3439871171,0.2897523273,-0.7004878943,2.3217215833,24703.1568843648,-3553.5662875674,0.0529543242,-0.0452497844,-11980.907336899,-14312.8585335915,1426.4067356407,0.0518865939,-4957.0723288516,6473.8661673124,3980.1851331704,22608.163868503,-69.6191630618,0.1443599527,19860.2751541522,3.7474220997,6031.594419333,3763.2554563628,-55738.8647027494,-0.0766168631,-3479.4430855729,8782.1919493445,-9045.7151299888,6268.3188958324,3652.8892490598,11401.4374402394,-8817.5137397187,2421.3024258531,-6278.5834013097,-1701.7550327398,-1734.8652939178,-5891.439682731,1553.1007831765,-3471.4961372877,1644.2498490039,-8301.6666751135,8167.2638141619,-19509.3654837636,552.591986739,-5.914690238,-1238.7889945314,-1387.2704230799,14457.8414792558,5.5789258648,-19.2025734998,-1.0573013914,12433.2427669467,-1808.7682849791,5566.7802988737,-4235.112805141,-582.6765832563,-20.9592376093,-12262.6797431581,3065.5828476013,1468.5904465461,24745.5981076653,1218.5165934406,27101.6377118888,8727.1546713855,-44.0202873063,940.1520950073,-37929.8478120491,-3816.1729245073,-84884.4527914906,2555.2722306409,-0.8885575883,-76.4273346288,-4707.9403122656,-13427.3237222772,0.3557820271,0.3252270907,-340.3959451047,17066.041476758,-84885.325453714,3282.7103548784,-2098.4721650712,11298.8140352999,-5122.3403494767,255.6349468452,10503.2139429262,-16.1051670307,-44529.5989745262,6878.003187536,-4265.846974779,-48.6639047213,-0.9477926946,-5841.7215616676,-1194.0766512619,-1909.3382785242,0.2444277493,-22198.6719285655,-3933.212953769,7124.7071463984,21505.210901712,5758.3074647706,-4153.0695975774,55715.6740679209,-5036.0741491427,2177.1288562797,-1714.3961143746,1991.5471697391,-3.9363820312,-36497.3578562449,7082.6018888949,0.0667854717,-0.7912773398,-9314.5732987104,-4930.3775720799,-7130.7428815126,514.3801696215,-1123.7329823006,3900.2832055277,2319.6223795394,-10893.8876589655,-7529.7789029961,3057.5693559642,244.0361375895,910.1087304679,-802.8424238969,-1.2706787127,8044.3435551933,-4173.3062442622,-4511.3743886283,4251.0874313393,5474.0956961286,-6001.9030417699,-7822.1864295105,-13280.2679890655,-2464.4002647471,10703.5823788088,8473.5720848241,-4890.2984815756,1352.8553122948,8730.8329802751,1848.7758238731,-6821.4656762571,5190.8373583771,1826.5124219914,-4231.3042030016,-378.2646478898,4123.6099142984,5927.6942883586,50147.7578131752,0.9664978789,4955.7777992789,-0.6286914893,-0.1456956505,0.5887829951,-2336.513906418,427.79795745,1810.9979518906,-0.0320578736,-2.0210793075,2980.024592673,-1712.525262728,-39399.1064106372,-0.7871711673,29642.4345507419,1.1358632677,428.259841227,82.2761149279,19692.6805646926,-616.2723505657,276.7305291004,-0.6934576092,1012.6630008079,13705.02370204,-1.5419496211,-55.3146433225,-3586.4375135817,-2746.0387862917,-12.6141397002,1563.1522358733,0.1436291503,-31256.5570441227,-0.0534774367,16812.7588021754,-62058.5402732727,-1.0568225508,-0.0612421935,6199.0172440683,316.6348052339,-0.3279499677,55313.9547784422,0.5383544615,0.4973744045,-6.741113122,-75624.1260408175,-34704.9329775868,9889.4304499292,-12.5069204292,-0.8054779393,-13747.2136927483,10820.2047834522,4902.3502022999,-2676.6060525923,4928.0649960236,-11204.6891287015,-9552.0841267101,-4656.6689977586,4775.3906094062,-3562.9351535477,4029.4280591065,2686.8291830217,4079.1549993265,-1452.715367339,2211.1866572046,-120.1900184143,5268.5791039361,3652.3050162743,5929.1735608146,-2718.832972984,-15530.1165523564,6462.7912231993,5583.0462531327,4.9690876372,-5074.8253420972,8128.5814403226,17.4817323646,16065.4601347503,7788.2159406039,3830.53733087,-4817.1826676313,-10163.9938623563,3362.7449155094,-15730.9780279842,6684.167080807,-24296.84147062,0.2704625795,4253.4799430667,3941.9233639647,-4976.6680994755,-19.2116433176,553.776431588,2.3598118898,328.0259317127,-4057.1549036923,-0.4456407901,54207.1087452231,-8000.2281901539,2166.9790969501,1.3995257611,0.0158709026,39432.6419040904,16782.7719745157,328.6538375526,-2661.0864263925,-0.1934195684,53861.4408716406,957.2107399397,1.3601630794,-200.8882689103,-10948.0191908648,9152.4142418586,3748.1439268314,-7340.6973235095,1.2064318655,5487.7339380751,-24874.1647920793,-17230.5405347669,-0.4620427947,0.870613574,-28647.8976237833,0.1350208577,-1.1430135035,2561.1925071618,-45242.5410212151,-3102.1821174285,10051.0065230025,-5.4346522791,39384.1428370984,754.4305927588,-4.1577145712,4.9351489019,-1253.5076309864,10.0536393486,75902.5547138524,-0.0249813798,1035.7746776059,2657.794491222,5345.3180788453,9742.0028732399,-1720.3662491916,732.7619437738,4957.7293719611,3641.7422899022,-1627.3990225512,-6183.6951685495,1789.1064622636,7.657074763,-12.4810645465,-872.2663071759,590.0677505035,-1332.9914879728,3763.5159741416,2277.5937480272,3017.0690122968,-4254.433419645,10326.5524833522,-3402.9829209426,19914.2152551476,9914.0404010499,4.2448499998,-5232.678787301,8444.3542036046,3838.5181565177,4758.0792168508,1276.6828141933,-6629.4700935137,3134.2165890543,-899.0910832091,-162.6560141414,-5076.1678968618,51613.1812073045,56962.5838829103,0.8630249526,33590.973566492,-0.7784802173,3469.6201125199,-1748.7863294775,14.4048569648,98.7816745517,1211.8097830994,-0.9596760006,7302.7964829147,4382.6531467967,-232.0518644286,0.5185355819,0.3786839745,-7058.4648728173,-0.2106471531,98.2068400308,-3279.2807803862,740.5242418925,33.9448709203,5589.3458670632,-16321.0817246717,-1975.6839654146,-2915.8996207298,-18902.1058383746,36346.7401768663,-0.4246227118,-9761.4229953318,0.045829227,-4865.0120779523,-189.3443413873,-10314.5107145482,0.7567813438,21982.6434896582,4756.2285955718,1.0327685424,952.7732742379,-0.1301700805,69940.686395152,-0.6867744467,3.9197903241,1.2137476167,-45776.7493028122,5204.0567084136,0.0173461528,45732.8922301848,-18.34873687,-6314.9190168772,2.6597827149,0.3507316934,2871.3616464147,3585.7962608017,-2745.393650246,-6477.2579519011,1106.059414993,-5227.6668724698,-3330.8660457476,4258.7492050612,5596.2830333444,-1171.9857563402,-11498.5885098571,-1.7599545654,3861.4987052696,7228.5906324083,3841.4117656216,-2667.3782711365,4179.8561013588,14902.6085507908,-2309.4357289799,-2746.0554074663,-3976.7131159738,-2396.8396925918,-6611.5934256786,-391.958336971,9449.2666709393,6627.7554798176,3704.0312680173,4910.9097799371,9022.5049031365,748.0096024932,-7918.2414116442,1902.6556884599,14009.7148057527,7006.097117418,-5.2243189731,0.8821176215,16.4840325444,65628.4938789309,-0.8729947304,31561.759975994,8730.9150342745,0.6491876897,-226.6318145424,260.7928587217,-0.1896387132,11.5254618952,11206.8100455388,5704.9708508455,-5506.3425337356,0.4944414476,-0.0131318599,231.3517419557,-225.4200347173,9830.8784276454,36.0900212823,-51846.7395950474,15794.470581622,-9496.8253997941,-5048.4566991577,-3556.3986671367,-1470.2367005787,-22.6851235401,-0.1661852226,-32029.1363286404,8117.8234006376,-1579.7189592952,0.4375174691,0.046647985,0.9077057863,1374.8203423962,13196.5107085107,-2095.5135067833,-0.7407330183,6662.6114930163,-3770.1132812098,-1215.846434667,-25117.0240144919,1741.5086111072,-1345.4918910278,-8175.422439335,-41676.8633666164,162.007339334,0.048337105,-3782.571437353,-0.3231678643,-3923.0846753828,-3658.7985995118,-3003.1729578056,13742.4332319197,-1418.926551791,10289.9179882215,4230.2927160926,7742.0512956099,-6754.6337962172,-8943.0078141418,14430.0138259129,-0.1861015341,719.3035146782,6072.8331638156,3466.1969485608,-8530.1448749629,-2299.2897169433,-8531.8229699808,-6651.8554975952,7897.3319012485,16206.6916735815,-11903.4253973798,-850.7498775632,-3296.0082070224,1945.8279424051,5234.7181027558,7537.4517490044,6604.9976531195,-4238.83731715,664.3099362495,5325.3148608973,-2643.275727,-12549.8272342102,6550.9178422855,6936.9183356795,4598.6685459589,-347.3241466287,-13.5569115835,-2.0983803029,134.7033965166,-672.1788526451,-4610.9204990175,16017.5971605529,-19264.6624226571,36.3377949283,-0.2396119907,-238.1769105252,-18622.2037846804,64.5550687421,-183.5600386403,-0.6782662309,-2011.403944632,-0.1544539486,-19264.0083584461,3556.9181917494,16641.5851552638,-0.6998269457,-48274.6648954237,-0.5098510313,-17.4617479715,-6293.4363761225,-16956.7169694713,-904.6260415253,-2860.5047335266,714.6408358953,-0.6887117131,-0.3869942572,3.2074497141,-21483.4812663954,-0.7061981947,9837.5668740685,-0.3002294054,-121.9630814392,-36.8069835983,-21136.9212322331,0.7411501881,10033.6809081778,9868.7431080352,-0.7280546694,2145.5782341573,0.4240113324,11026.8976894569,74165.3715136157,-0.8066285233,5265.4349255881,-0.9121554152,3320.4890223205,-2653.1319977147,-11141.7993230629,58.624450047,-8471.246294378,-1094.857987743,1710.9047126752,-7345.7404288578,-8.6539060085,-11326.8004210609,-4053.3784116722,-4528.3317843619,-4958.5660526116,-8.8466993535,-12127.7801003502,-11794.9340518487,-10133.3057706435,-9226.7031640805,-8962.3153972793,-4607.7820087722,7843.2343668533,-4102.0376504815,-5423.9425699612,12821.4370131251,2979.852377684,57.4395702074,4047.1724768047,-38.4326153678,873.5941904333,6553.7048757996,-12970.8810227998,8499.7351954239,298.0848007476,-10090.3630242072,-7602.3261313789,-24831.439530162,6604.8608315236,-13128.9329328012,-57573.7443709281,0.1580123109,-9082.3530581184,662.6113967222,71.865061986,-2608.0800769179,2.5403808644,-0.4374167456,71553.9870091761,27376.5622565832,-81330.3161201303,237.3165805822,0.1053844672,-0.912718499,-0.8140639756,-2607.6441616852,-3.4629445554,-40857.4134265021,0.484763151,28.4434027827,-25703.0882375859,12994.0368291691,6833.7119096193,21499.625403248,1423.7159429571,-0.4279814201,5242.1799648265,123.4678774511,1126.8440282579,39.7775484199,-1172.4899774708,-0.4948551782,-328.2765655231,-0.480245797,-3532.2803046453,-3807.5705385451,-239.9829015637,10979.4306613272,28011.0943355456,17235.261805117,-0.8581872082,0.2004301034,8.8280369674,-0.345810854,11145.3203726594,-7900.9745827952,1840.4246328886,-0.9771100488,2174.5522954212,750.2067340304,-6735.0648584463,1668.3791386185,-8421.0074593456,-252.7606491628,3874.8541183586,-720.1244505627,-114.4958761482,-2893.6240718332,-8802.4128681533,5622.2934914115,14056.5842175949,11770.0146513073,-6484.7470422599,-6819.380220633,-10956.3967154723,-9.6187850155,-629.122644184,-189.4642473199,-3387.9386575595,7677.1762481482,6250.2802089804,-527.0161251382,320.486313958,-20961.5031784481,-14737.7385113209,7345.3301648621,-2643.0963001349,-2391.1808882198,-2.532790639,4362.1508258056,2215.8842604229,-5076.3350346053,2816.9393654481,37437.1745574074,2825.968883028,11216.5122383651,2285.7376882771,6817.8749885156,4.6391196267,-8285.3717787122,18596.4475015774,0.4736029726,-1498.610628234,-0.8709133471,1303.2629116439,1696.914087752,0.0365629364,-7620.7410965278,0.0000287066,-2038.0139536748,0.9425926882,0.8426376897,8154.2389184753,7881.4369293422,-2110.9955404929,7106.4110260546,-0.3899397114,-2373.858975971,5.54161237,-1.2701179995,-3468.7070699414,-2963.2177897789,-0.9726085081,-0.609461724,-4487.5612429182,0.1161493208,428.2489204373,-0.4498856086,15126.0682041851,0.0724488202,-5148.6902143456,33693.1103890117,-3792.4332864435,-600.1820746439,30977.6547122884,-18883.5848218566,2707.6404718716,-2564.6792848147,1769.1037494891,29242.3430661285,-15741.9244632974,5446.1860603963,-18316.3205846725,0.5145984392,239.3460512221,4.6570909685,3620.4276777598,-10778.7696874132,-13040.7656011871,1338.2270467634,-591.1954047702,-179.4252016673,-1427.1986137987,7430.028856455,-6591.4228887665,689.7968778652,-649.7172249003,-4047.8887778797,663.1636615002,-2493.8382938103,2273.6710690796,5123.1022277625,2856.5704967979,4.0303333865,-1676.4093429947,2815.341217581,6480.4044408967,177.3342015361,-44.9784485908,3826.2881209326,-825.5408087408,7109.460266426,-7.3412004101,-0.6039115234,4660.2524325953,232.867131999,15779.6106524064,5715.9850064175,212.257242196,-38248.8285911102,284.183237314,1618.819570907,-3592.2690602398,754.9931015474,-5240.2365071652,-9670.860655589,0.3382814536,0.2990095713,77.0395939303,0.7457191335,0.1142918249,318.9108590129,-3.5141904863,26.3520016699,0.3974147688,-952.6264937451,0.1215173951,-0.6354167646,612.6422895175,17.013420926,-69642.8854498503,-4013.8743737801,-988.9703395364,-0.1565487644,29826.0895916413,42565.2610252638,-4693.7951671036,0.0375091144,0.6354877354,0.882630187,448.3807229966,905.5273615622,-40095.6515695769,-0.5851185474,-4409.8032785035,24597.1731021359,-7470.1369271038,0.6464448048,-5655.5171690552,-880.0749478048,-36.3305735221,2.1643305465,-0.3637135466,6548.6813378157,-1385.8427575069,-2286.3758021475,29332.0125662253,3213.7728094868,-0.6833007312,-0.8004344197,2348.0886667149,-7524.9037813365,-3513.5868347665,-5882.3441342131,2844.082353163,-26.9127391267,-2579.4668314229,-7478.6780266244,-2142.8171815879,3346.2666498819,5349.4673281627,-2038.6520826994,2671.0083536604,-8.5940315533,3730.1994485548,3383.328209479,2769.7575694951,4641.261763793,-0.3094669498,-3597.0623401125,834.8664395514,-2035.2857145209,2051.6659821639,-1148.0846230784,-469.5907770197,7858.142808836,3661.7435004025,968.4972342051,-2195.937197402,-685.985577388,4338.7392731469,-2852.4937102832,1989.7622338326,4608.8572811082,-5539.6931208341,3696.1737587521,840.7864574329,-8035.4707361014,-1.6028437367,-0.2445326251,1.7919957391,1.7108636898,203.0380068632,-939.6636111079,-4753.8531656958,-0.2482973802,1686.1067659743,1.769178652,-1.372138822,5.2817214186,-0.2167760606,-0.0750009192,-0.6604457621,-940.6854141176,0.136000664,3990.1045171279,13246.856772084,-1.3965028332,-10408.7339025686,49.5878449927,7809.762138528,-86123.4448657648,24734.1254452959,3.6930403162,0.4579033646,-0.2839897658,20.9531577129,-0.4595709553,27.5423330139,0.5513576479,3268.5898662931,-13.2720066725,8696.2597866984,26017.7641105548,8880.4781920059,2.3857189715,-4241.5125606998,-1.0469025463,6041.6015335757,-4110.9154855032,-13235.62065607,0.5028507552,-3170.7790686591,0.6374152083,-1.8339533879,0.5265866286,2571.2676685252,-1933.482183045,-3779.170526421,-9341.3238830634,355.8064005331,13954.2257106659,3407.1398244744,7.7977249508,-6489.5740783663,-2149.3938918177,-20774.6459061329,2483.8400020045,-1239.9595681717,18.0095922558,5965.248619844,-16.2000007243,-5306.8610198726,389.4861572129,-3489.7581628796,-6986.339463101,5488.5797645403,658.8550185158,1508.9045665175,7206.8135063591,9.7963721533,4736.0864045051,-6711.1062214512,3688.350357297,-4217.4913566956,-6366.2273672227,-9453.9505298987,2386.3220492048,-7.3658333815,5721.5634251672,-6548.9572963073,-6032.2507422677,14.1858275937,-56.1814635857,-0.3528660419,-4915.1648925327,-3.9009586387,2267.7108484036,2270.2189007674,-2.6857455867,1670.9339963534,-0.9383486453,7995.1527665651,2368.2865309839,1489.2532381917,-12.014611805,-0.7895391735,4368.0137315588,19273.5609831083,-2.192145106,44864.4629945565,8949.2545738623,-39437.7088700613,127.9838557763,-250.5963208702,1.1835247072,6064.9559157896,5870.5087381334,-4387.8167267161,-17107.6465925264,0.0592838802,-52904.3044463357,1907.9055240499,-18269.861031713,7615.4263770166,-0.3037926709,7846.4033628613,-0.0825732945,2598.1806148615,0.5495885907,-10917.0088246658,35124.6559655332,0.4830298202,28122.5814255957,-0.7099148091,0.9931298394,-0.2194010991,-6465.0489901829,2367.4270290824,30132.6844398937,-1.1648287057,-0.2002197571,105.5590610254,-2.648585374,52.9856834602,211.7422224498,-18292.1482098053,-113.8506501738,7701.7846652814,4065.9603121028,2381.6540005175
   -5505.2228276711,-5118.0005744432,2437.5609980711,1280.3433785599,3390.9480337209,5124.5498358799,-10565.9476286057,-9917.9185879211,10421.7334847453,-1228.3419081494,2969.5800533668,-7910.1559152683,-8405.7503809028,-1564.5587073951,-279.4500759219,5.9623773166,118.2118896582,2950.8901978443,-3647.2430954483,463.4045233068,23107.6908784443,16198.0763835753,-1338.423093848,2254.0635890192,8938.9209232413,-8735.2856754179,272.9557539968,-0.9126696812,5915.5038599898,4875.7110558289,-613.8787324517,1.0167782305,11527.1046291533,-60138.6140736722,101.1286770455,-0.4843145487,0.9758270346,0.733750502,-5847.5973176882,39422.9109623378,-13.9206600443,0.629232849,-12751.6390114221,-17.4943440795,100.5484017629,35839.0064348274,926.3038547166,-451.4073511375,1663.8812334633,13.1877659294,-5959.956682521,8.0173743971,8618.7516581702,-1418.4476491932,-0.6389399894,0.1033742052,3136.5100174512,72.9094203825,15.6523691911,-49509.2933272325,0.4538578246,7413.9575434793,-0.3990589343,0.6000941656,1.7968732671,0.2309191461,-3794.4663966333,-6.3399379485,-52090.948854723,-1.0182392012,644.7841685318,-8954.4406548909,10001.4602531699,-18831.1461405425,295.1839197407,-1.0208309932,0.7229314626,-0.4363660569,-1670.8659874045,7337.3723721754,14823.7962474102,-13946.5116284594,-1289.9615711642,9401.9927385536,712.0437864663,-4109.8433055772,14043.3789018833,481.6341828919,-26676.852216001,195.3669180045,-115.4360787367,3023.8399855393,-428.4364856315,-8557.0569762205,1909.305015033,5025.5735080222,1912.0952558469,14407.6330695503,-451.1943164612,-0.8456419584,-4460.6606390663,-10002.4103113263,737.1353051654,10928.9158290838,85.210878597,3252.1133622271,26.7225359708,-6047.4473843175,-2626.1266788614,4251.3905568195,-8654.6740897766,1189.2358660455,-30757.1202846742,8480.9753127324,-14546.5227790128,-3.9008522028,-1.1529810393,-13.5618657599,0.6061112622,-1.3497042754,-18.2529977559,15413.2791495585,0.6592277998,8282.5549758231,-1275.0148660714,-2888.2279138684,4711.6779661688,-0.1522313159,3753.6742681054,-0.6215881692,-16.8690644867,-4523.6092570931,-7847.6356146765,80697.6069858312,56481.8626528218,-1.3565292918,8072.3916293835,-358.4560144406,-7373.6834069013,76095.0034028191,-0.3770092611,-1.0537192263,-1633.0701732511,-35.4551597989,-3980.4820196643,-4.6402902771,0.2747757986,17084.9022956978,174.8490507304,-13505.2642309732,10279.0164134072,63976.712031412,-2996.5931728913,-8700.9967745277,-40811.6018858675,0.0594223528,-0.3107278703,4097.6862818933,-11724.3009230219,17931.5604801306,3550.1486863799,0.2916148472,0.9197094267,-2296.5436210072,4125.2004269337,-8421.0308510887,10603.6673047199,-2481.8018052325,-2096.8088400287,721.8315885565,-5143.0746495745,4039.8929987274,-6.0788118811,5415.4712471709,3250.1743427926,1675.8559061726,-6429.8032582703,-4463.4535610721,-1.4898335686,-0.4204967061,-15682.4950331269,-144.3062850851,-7585.4574801314,0.0487028458,4352.109996501,6248.7715635095,2693.592527896,-4689.6068289148,9274.4288166429,-3208.8851939156,-2598.6849353314,1348.1959040243,-892.2708071146,14549.5782290548,4761.7843053323,-0.0123260408,-8071.1404406609,7906.3872978446,-3230.8270969098,-19451.8788284957,0.8839012501,-17199.9021549281,-12127.1605153403,1.8012057235,4308.3209834443,0.2351348437,170.4055110286,3781.4741741056,-0.8975737399,6122.1600830967,-1751.3737469315,3929.0186119569,-0.6766591478,-0.2385480663,-1.5236835541,-4244.7228569225,169.5208248403,1355.5541665125,-554.4087022105,3819.8468404732,-12429.2381359844,-1.1570779649,-0.9551206509,-11660.7985407068,0.6646530039,1.832147952,12496.9378378125,7.6509484416,160.7309967425,-7172.2836906538,2.0251684681,-245.2824326457,0.3046129077,-17730.7883114677,10591.9141935943,-11280.0978046713,-0.4214306541,-5953.8630296266,-34.7753342843,16134.0595133016,-44943.0596058911,0.0538261787,9380.5978116862,1211.037521514,7334.6990559183,24542.217885283,-1504.6361644599,81029.5345675003,0.893684868,6310.4773109154,-2591.0490307262,5755.8001835674,1654.3481052363,6245.3226830439,8895.2215376172,791.3282365615,189.9673693726,4786.3749582104,1822.6240838834,-1620.778906701,2581.3313742431,7640.7591188233,-610.0786949216,-1478.7840221852,1621.5091157933,-9890.4502804169,-1315.8450377988,9044.1535121134,-5284.3034975265,-10284.7463439047,-8507.95622014,13303.3921867158,1808.0259013917,2297.2000564889,11594.9542015059,8867.975854184,-6782.7910955272,-7252.4700962322,-4023.4493043925,-470.2462915959,-2370.6109700467,-8710.0464452242,7958.9449770953,3998.0094060502,-14660.1160922869,-596.2979115638,8437.8571234796,-289.2447606466,-0.6921926638,-2957.6346710512,-2739.5207587281,-8.8427840201,-1577.6189975652,23857.6421101095,-0.1320190023,-0.7565522341,-15402.1075058749,-19573.1942009948,0.219129571,0.5396729561,-0.4686969136,1.19217317,-1578.2955833336,-8368.3692923622,-3383.0415634164,24147.0930524571,-21851.8906648254,2592.0277596972,1.720414456,-3.2555315124,141.2473621002,-5029.8197971907,1363.3146522663,689.6169050055,-0.7668468008,-31.0416465631,5709.6441663304,27780.8352508313,0.3624812025,3016.9218041604,-0.2814607041,-34034.7120513561,-0.8595343426,-23480.5578836877,34695.9384263027,7166.3783320013,4332.7951352737,3.8711149856,1.5535330058,2285.5609936336,2217.5911112059,0.2442222359,-95.2528408212,5119.2486353683,-0.4711513817,-15.9724514168,5.2623535055,-127.9141469851,-10143.244798278,3281.1286994985,-6895.8979800351,-8343.6326725896,-2601.7077722912,-3205.5342983766,7984.8467926306,-1667.589745643,8180.9110544526,-1318.7959080941,-1879.5808896707,9716.0039608602,-3503.2762165495,-1530.994230974,-1.4590173564,9005.2207158335,-10703.5579153552,3701.6613272778,10836.0013653916,-3331.704111454,9778.1104328091,-1991.7632672458,4796.5821225027,2978.8711276005,-3842.6252330091,-9116.3572875436,-5626.0067297415,-3431.7394156793,-209.8863533726,-1149.2029778937,6655.3272082546,4640.7890321274,-3096.4727977794,5925.6607026274,-0.0672577023,-23038.73238741,-0.0061484811,-5825.7493220909,-4563.2608490159,-10858.940992403,6149.7400702587,-28.9845039352,-0.7361711577,-0.3871664222,14275.759276387,-1686.7428482834,7054.8413572613,-0.5982325029,-13151.5448007926,-73612.6120154042,6149.6890415704,-895.0756579209,72383.0161719728,-2976.6630510267,-24300.6975531207,26301.9279227101,8.6738343939,3581.8241425263,-5613.2283962606,-1.2373701488,1246.7150007223,1919.7742322395,-1815.2965743501,16.0880078171,-1353.8152223344,-22.1514857844,0.0301595855,-24624.3367816093,-0.6721039268,-2.5033131562,-4176.5150196008,-2362.2783683846,-5605.0272133939,-7693.8946908764,13350.4141514141,-8740.918859549,8324.4598763529,0.7199257863,66.563295022,928.195641886,0.6246221423,0.80471463,0.2833079285,-4593.9278846985,-2.7135111938,7054.8469723761,-832.3835850379,14.5514873036,4866.2579012365,-1363.5508584084,-1888.8371585815,3140.81776769,9410.3090730192,-4087.8722443639,2738.2109359462,-4029.1949834413,161.5174250273,-222.8544830228,-21208.4902543163,4361.5537682495,-11674.3354935559,7491.3755643606,-8807.1989459564,-1620.280886379,869.5403896947,484.2822923237,-2502.6234609702,-608.2217225092,-3551.9370118972,10416.2241657836,-8481.967000321,1815.2051441349,-29.1356882337,-3641.0689245611,-10483.9752273847,-4323.5172059043,-17.302509625,-7951.4171060328,20921.3185465125,848.7904837874,-11646.9176295461,-9459.9673309847,-6344.1839733903,-5557.424120751,3771.0973287699,3.9495144703,-1372.8900514222,0.1357945216,-0.5070618914,0.9285752507,0.3718251179,9171.5798067898,2901.0955337469,0.4197749022,0.395606156,-20783.8046877256,-1373.9907665557,5923.7798548261,273.3267105305,-9676.3556448214,-17620.5293230418,-33329.5388355154,12.5511307571,73688.8936724618,1926.1304655098,4726.5988604248,-0.9719446822,5.5816081399,-22.518018203,-2695.443245652,28962.713565041,2244.9737984704,0.734108138,-1466.933614133,-7575.6873013323,-151.6222687773,-30.0713868002,10001.8081029524,0.1083950161,0.913912311,0.3097393628,-47.8891775478,-3706.5675184746,0.275937342,16556.4194423771,-5957.7098329238,4432.5431107877,5802.6275132457,-0.056514084,7550.5480492412,1488.3281925346,6185.2103429484,5488.4954489526,2576.6920513026,-3010.3265349095,5046.4766664089,-2890.0685743817,-4648.8984945621,-3915.6730941472,-9120.4797028586,5493.756202345,-5307.2460852636,92.8432911571,18311.5860867585,-29.9007314184,8156.634098744,-4706.080094414,1940.0398289567,-4056.2135515592,-1874.8817564609,-3040.1039287071,15544.0992427712,-14905.8017389224,134.2378438268,-3153.0652558606,256.459208273,-1.0062140635,993.6228525839,5554.6055119013,833.7954559775,275.4048019598,-3101.5391565711,-23.8228832587,17.3577048918,1774.7774663892,48868.6301618402,14243.8055647383,0.6035127599,9260.1405492041,5217.8644356243,3207.765484466,8219.6452094286,-26558.4219171871,-0.0028643969,0.1884781542,-9842.1859982808,-15.8391977811,-12180.2913918195,3888.8299118312,0.5586447727,2535.3255913832,12763.8448315372,-26557.066542189,2860.3448706348,-51438.3638110781,-3883.4911523692,-1810.5564108556,-1521.4874849631,-3810.8854399922,-622.0534746507,-1.7595323463,33857.097134571,-1107.3337612876,6235.9135956598,-11873.0615481199,0.0113556743,-57024.6542796553,3327.8459732223,-0.1286253215,1215.3019350413,20774.5937313549,-2962.8835819162,-24685.1441567406,-0.0361391812,-2929.137713243,-427.9527219711,-13358.2123229958,-57432.2074129648,5.804316391,1.534765148,-18525.2391791227,-807.2032326939,-18689.5652362513,18.1339208285,2.7742642974,2254.4218743591,2536.0316605755,-3534.4522900986,-2434.1231289248,-17021.8988552044,869.375554968,-3689.0882095009,-15265.7774101352,-1519.8211957488,-1239.9130184908,3853.9746976931,-6535.0073753363,-7623.2212678468,-3563.3959793623,-7345.0386145559,40.9938328976,-1034.8062176507,1.4956230372,2339.3374377749,2696.3825601298,-5256.9135549368,638.6489992892,3770.547916515,-4961.3283976706,-8927.3958321931,-6.4894250579,-1136.8903792326,5024.331123703,-1807.7652505323,-3535.5295542566,-663.4060475681,355.7949607403,-150.9470280114,-4602.391764003,2416.1449410765,-1080.9011190569,0.8102356613,-2528.8686173542,125.1050671422,-5.7916980755,601.0024247383,-1585.8241662651,7988.6759063125,6809.7704167041,186.8413011192,-0.2563515537,0.3592065747,6952.244800178,29818.7280974454,-1738.6718882887,0.1928125903,1.5051459824,1.6920406051,6809.6833827265,62175.5533318728,0.4020054645,-9446.1195624378,-2889.2472558928,-0.9248737451,-4908.0717788754,-185.5094040719,-0.1726038412,14135.7145925523,-42071.0140349175,-2.6055039251,-1.5496847598,6039.5435936865,-9993.9273379962,0.0769865555,0.674283989,-7474.9194245177,37085.8536873872,4690.7324079207,1906.8034154034,1568.9899556506,-3275.6023965169,-0.3458278156,-55648.7927813685,-1076.8734055511,0.3454326835,0.4668688428,4916.1417382854,832.9565686907,1319.9724089843,3539.5618258082,-1.5945096626,-13029.8407469862,9.027398368,-5261.3046785196,4531.5534578504,910.7771863604,-364.8503951025,-4154.4499984268,-1141.9496727193,6718.8050977743,130.7539331336,-5968.9352322354,-8.2369820295,2771.0119562429,4072.0371526871,10832.8117762823,556.2576990709,-3067.3590089619,3569.7016367807,2430.2443820862,-10.3113085771,7832.6923721673,7780.9362672158,21.7830261582,5486.6253881104,-6.5838047649,4647.5177846107,-3858.5711416802,-10337.5970527617,-1118.7687271602,0.0424485602,-1160.0661453353,79.4488343238,5828.0232523463,-3251.6196900556,1915.1514326538
##end
biasActivation=0,1,1
[BASIC:ACTIVATION]
"org.encog.engine.network.activation.ActivationLinear"
"org.encog.engine.network.activation.ActivationLOG"
"org.encog.engine.network.activation.ActivationLOG"
